// Neural Network File Format by Kyle Julian, Stanford 2016
7,4,7,45,
4,45,45,45,45,45,45,7,
0,
-8000.0,-100.0,-100.0,6.0,
8000.0,100.0,100.0,40.0,
0.0,0.0,0.0,23.84210526,-3.8529093497767,
16000.0,200.0,200.0,34.0,26.8591142426,
1.698389e+00,-1.879198e-01,1.893653e-01,-4.149550e-01,
3.626714e-01,-9.502356e-02,1.029294e-01,7.532368e-02,
1.794808e+00,-1.766718e-01,1.844230e-01,-1.015051e-01,
1.145577e+00,2.234052e-01,-2.363304e-01,4.961673e-01,
-2.647015e+00,-1.520329e-01,1.503764e-01,1.033924e-03,
2.542818e-01,2.444745e-01,1.221426e-01,8.691322e-02,
-2.486457e+00,-2.349992e-02,1.616382e-02,2.006513e-02,
-1.186467e+00,-3.487060e-01,-7.890256e-03,5.142553e-03,
6.312537e-01,-7.178396e-02,8.931228e-02,-1.385853e-01,
-5.827437e-02,-8.187817e-01,8.117863e-01,1.209992e-02,
-1.378386e+00,-3.982551e-02,2.784028e-02,-2.434313e-01,
7.251719e-02,-1.011849e-02,-1.836780e-02,6.361547e-01,
-1.664257e+00,-3.717830e-02,3.263033e-02,-1.129896e-01,
-7.239566e-04,-7.077857e-01,-2.994411e-03,1.627704e-03,
-9.699432e-01,7.566366e-02,5.010388e-02,-4.567905e-01,
-1.154853e+00,9.490483e-02,-9.690257e-02,-3.483243e-02,
-1.252673e-04,1.006490e+00,2.267575e-03,9.305723e-03,
6.657002e-01,-1.602786e-01,1.739808e-01,1.584775e-02,
-8.030572e-01,1.572746e-01,-1.330945e-01,-1.974709e-01,
-2.201702e+00,3.452134e-03,-6.054715e-04,4.524978e-03,
-3.476303e+00,-4.708846e-02,-3.773266e-03,6.352285e-03,
-5.159588e-01,-1.301030e-01,-3.411497e-02,5.227087e-02,
-7.433828e-01,2.181096e-01,2.495625e-01,-5.481729e-02,
-3.145636e+00,-4.239647e-02,3.877068e-03,-2.118762e-04,
-1.627581e-02,8.015366e-03,-1.028438e-02,7.744803e-01,
1.575083e-02,-8.976319e-03,6.500430e-03,1.269154e+00,
7.280819e-01,1.698113e-01,-1.777352e-01,-5.088699e-01,
-6.423355e-01,1.458964e-01,-1.843657e-01,2.040594e-02,
-6.307123e-01,-1.872640e-01,1.880949e-01,-1.873898e-01,
2.524447e-01,-5.007602e-01,3.537668e-02,4.274286e-02,
1.475016e+00,-4.191938e-01,3.607205e-01,-1.888349e-01,
1.060506e+00,-3.166043e-01,2.839401e-01,1.379552e-01,
3.189071e-01,-1.578883e-02,-3.816462e-03,4.311391e-01,
3.997352e-01,4.870937e-02,-6.328350e-02,2.081006e-01,
1.381961e+00,-5.918126e-02,7.081828e-02,8.017270e-02,
-1.298624e+00,-5.326020e-02,8.323582e-02,-4.096513e-01,
-9.027485e-01,2.590348e-02,1.493196e-03,6.339490e-02,
1.136574e+00,-6.540866e-01,6.559476e-01,3.453306e-02,
-8.153316e-01,-3.973641e-02,9.506991e-02,8.845844e-02,
1.357192e+00,-6.033099e-01,6.061350e-01,2.580860e-01,
1.106227e+00,-4.513881e-01,6.977642e-01,6.291904e-02,
6.823373e-03,-5.477437e-04,-2.858464e-01,3.096557e-03,
1.479253e+00,-1.206082e-01,2.609009e-01,6.945632e-02,
4.474473e-01,-6.036583e-01,1.945723e-02,3.176211e-01,
-1.241475e+00,-6.958460e-01,7.062542e-01,8.495557e-01,
-1.368539e-01,
4.269513e-03,
-4.967313e-02,
-3.890006e-02,
1.295670e-01,
-4.774813e-02,
8.617887e-03,
-1.197089e-01,
7.038272e-03,
-4.121773e-03,
-1.440328e-01,
1.604946e-02,
6.884395e-02,
-3.252069e-02,
-1.944714e-01,
-1.884038e-02,
-5.452358e-02,
4.845232e-02,
-5.659254e-02,
-1.000432e-01,
1.204115e-02,
-5.373685e-03,
-2.329319e-01,
1.133183e-02,
-3.476167e-01,
-4.181266e-03,
-2.007458e-01,
-2.198607e-03,
-3.424709e-02,
6.936197e-02,
-3.161722e-02,
1.995577e-02,
3.409499e-03,
4.718035e-02,
3.267862e-02,
-2.574619e-01,
1.718859e-03,
-1.339463e-02,
-4.167685e-03,
7.131617e-02,
4.743367e-02,
-4.560524e-03,
5.297717e-02,
-4.716212e-02,
-3.615693e-01,
1.431827e-02,-5.912997e-02,-3.684910e-02,7.998138e-03,-2.221643e-03,-2.824998e-02,1.218586e-03,-4.369976e-02,-4.946729e-02,-1.896162e-02,4.206838e-02,-3.631989e-02,-2.264442e-02,-4.119208e-02,-3.953402e-02,-3.885799e-02,-4.187999e-02,-2.721944e-02,4.491050e-03,-3.762031e-02,-4.604980e-02,2.753464e-02,-5.728489e-02,-4.850128e-02,1.045587e-02,3.084237e-02,2.398955e-02,-3.561739e-02,-4.324626e-02,1.391074e-02,-3.815471e-02,-3.718482e-02,2.288727e-02,-2.291007e-02,-1.214968e-02,-2.458912e-02,-2.264927e-02,-4.495480e-02,-2.972860e-02,-5.952898e-03,1.383066e-02,-3.199613e-02,9.789959e-03,-2.785853e-02,3.136990e-02,
1.514837e-01,-6.154646e-01,-6.884058e-01,-2.747347e-01,2.516731e-01,5.342657e-02,-1.516864e-01,7.569445e-01,1.016070e-01,2.842338e-02,2.078971e-01,1.021247e-01,2.040968e-01,-2.303699e-02,-8.202524e-02,-3.766008e-01,2.209803e-01,2.162245e-01,-5.171916e-02,-2.165376e-01,-3.611169e-01,7.691114e-02,8.547434e-01,-5.030809e-01,-3.207821e+00,4.035472e-01,-2.974642e-01,-1.905591e-01,4.986811e-01,2.661527e-01,-7.668284e-02,3.817807e-01,-3.805709e-01,1.086809e-03,9.120897e-02,6.675749e-01,-2.149348e-01,-1.212993e+00,-2.785789e-02,2.692532e-01,-4.156286e-01,-2.563189e-01,4.142997e-03,-9.107715e-02,4.033371e-01,
-1.177412e+00,-2.721114e+00,1.038392e+00,9.690259e-01,6.793159e-02,-3.103525e-01,2.251933e-01,2.668167e-01,5.968909e-01,6.103804e-01,-2.557985e-01,-9.140434e-01,-1.724421e-01,7.184329e-02,-6.332268e-01,4.724289e-02,5.182674e-02,7.048495e-01,-7.695860e-01,9.692106e-01,1.503254e-01,6.763145e-02,7.892457e-02,1.661766e-01,-1.173249e+00,-2.019681e+00,-3.356530e+00,2.521427e-01,-4.972524e-02,1.281673e-01,-3.961675e-01,-8.538655e-01,3.772616e+00,-6.060590e-01,-1.073226e+00,-8.666942e-01,2.203395e-01,-1.149669e+00,3.002515e-01,8.487519e-01,2.087373e-01,-3.158662e-01,-4.833594e-01,-1.177679e-01,-4.659180e-02,
-2.015891e-03,1.058495e-01,6.694330e-02,1.053480e-01,2.806935e-02,8.464764e-02,1.626340e-02,2.969432e-02,-4.214267e-03,-8.645571e-02,-1.341968e-02,2.078475e-02,1.393763e-01,-3.545481e+00,-5.897218e-02,-8.761915e-02,-4.032602e+00,-2.446533e-02,-8.455193e-02,-1.014439e-02,2.918364e-03,1.980726e-01,1.108489e-01,-1.529502e-02,-7.375201e-01,1.363125e-02,8.704238e-02,-6.490414e-02,5.806023e-02,2.232414e-01,-1.072717e-02,8.119624e-02,3.272045e-02,-2.101011e-02,7.410134e-02,2.082996e-02,1.054903e-02,2.320114e-02,-1.525020e-02,5.340252e-02,-8.858605e-03,9.209314e-02,1.391101e-01,-6.182611e-02,-4.084895e-02,
-3.394951e-03,-2.538738e-02,2.830620e-02,3.883114e-02,-1.784649e-03,-5.955102e-02,1.288469e-02,-2.546573e-02,-8.247907e-02,-3.793244e-02,4.545501e-02,-9.170780e-02,-1.987402e-02,-3.826806e-02,-6.948125e-02,-2.156723e-02,-3.381098e-03,6.310988e-03,-6.738182e-02,1.009329e-02,1.652786e-02,-2.353876e-02,-1.013573e-01,-4.060482e-02,-1.822982e-02,1.558969e-02,1.677871e-02,-4.726179e-02,2.831528e-03,-9.776250e-03,-7.828160e-02,-9.549183e-02,-8.773295e-02,2.444966e-02,-1.061249e-02,-1.744709e-03,3.558872e-02,-5.363726e-02,-1.600816e-02,-7.837423e-02,-6.288857e-02,-2.760438e-02,-1.719720e-02,2.741105e-02,-8.844592e-04,
2.056937e-02,3.847374e-02,-8.255295e-03,-6.705314e-02,1.818075e-02,-2.216193e-02,-3.492674e-02,1.117800e-03,-2.771745e-02,1.554909e-02,-9.845431e-03,-9.914698e-04,-2.093329e-02,-1.414265e-02,-4.753685e-02,-1.827479e-02,2.854854e-02,-6.294780e-02,2.421114e-02,-2.252037e-02,-1.673071e-02,-4.665832e-02,1.587137e-02,-4.876043e-02,-1.426920e-02,-1.754203e-02,-4.356355e-03,-1.923143e-04,-2.680156e-02,-2.709115e-03,-1.351890e-02,4.124454e-02,-2.208415e-02,-4.025823e-02,-3.680239e-02,4.084858e-02,5.913908e-03,6.618127e-03,-2.469158e-02,7.185309e-03,3.279267e-02,-1.647780e-03,-4.395503e-02,-3.844223e-02,-2.741194e-02,
5.115690e-02,-8.409858e-02,2.903662e-01,-1.292775e-01,1.996522e-01,-1.691891e-01,2.094098e-03,-3.619231e-02,-5.276064e-01,-4.266763e-01,-3.787801e-02,7.784299e-02,6.470915e-02,2.296592e-01,-4.501861e-01,6.967318e-02,-4.378208e-03,9.642480e-02,-8.656476e-02,3.057656e-03,1.010160e-01,-4.089963e-01,4.001528e-01,8.099260e-02,-1.455626e+00,2.860393e-02,2.162199e-01,2.626219e-01,1.159902e-01,-5.717872e-02,2.238574e-01,1.118530e-01,-7.019409e-02,3.324370e-01,1.973869e-01,-1.932309e-01,6.949454e-03,3.021407e-01,9.550694e-02,-6.440382e-03,-2.191817e-01,-5.293886e-01,1.178646e-02,1.654097e-01,9.554894e-02,
-6.421344e-03,-4.763374e-02,-3.346870e-02,-3.446123e-02,-2.797625e-02,7.021192e-03,4.556595e-03,4.025544e-02,-3.951618e-02,-1.960890e-03,-4.754972e-02,-1.741421e-02,-2.217850e-02,-1.196542e-02,-4.939119e-02,-4.029723e-02,-2.031404e-02,-1.653219e-02,3.046338e-02,1.742698e-02,-5.755020e-03,2.612941e-02,-4.174923e-02,2.558979e-02,3.066185e-02,-3.793834e-02,-4.867619e-02,-8.396620e-03,-1.554353e-02,-2.948786e-02,-2.787169e-02,-4.417925e-02,-1.545509e-02,3.193426e-02,3.692323e-02,-4.916689e-02,-2.164020e-02,2.704141e-02,-1.843017e-02,-1.116099e-02,-2.069569e-02,-6.489850e-02,-4.230610e-02,2.691651e-02,5.814813e-02,
-4.012215e-01,-1.458976e+00,1.072450e-02,1.695225e-01,3.024507e-01,1.930535e-02,2.131447e-01,-1.956744e-01,-6.946374e-01,-2.118215e-02,3.709041e-01,3.274762e-01,1.956984e-01,-1.816002e-01,6.671750e-01,-8.286054e-01,1.441207e-01,-7.311621e-01,3.601779e-01,-5.019037e-01,2.747270e-01,1.410757e-01,1.178388e-01,2.424603e-01,3.105006e+00,5.640117e-01,-2.613623e-01,2.898325e-02,5.355520e-01,3.839022e-01,-6.605352e-01,-1.780190e-01,4.149839e-02,8.369812e-01,-9.604723e-02,6.452931e-01,-4.183564e-01,4.339496e-02,-1.014464e+00,-5.838388e-01,-2.502011e-01,-3.034579e-02,-1.416521e+00,1.873762e-01,-2.520743e-01,
-1.177101e-01,-7.537445e-01,4.768817e-02,8.353981e-01,1.031923e-02,-2.981279e-01,2.492679e-01,4.412929e-01,-1.238100e-01,-5.517356e+00,-6.441377e-01,1.484302e-01,1.037945e-01,1.154352e-01,-2.323352e-01,-2.772855e-01,6.171983e-02,-7.746616e-02,-3.548462e-01,1.706812e+00,5.622082e-01,-7.816388e-02,9.166347e-01,4.829870e-01,5.173248e+00,-3.062730e-01,3.580291e-01,-3.288092e-01,-2.577316e-01,-6.021277e-02,1.491114e-01,-2.041801e-01,1.144646e-01,-9.657928e-01,-3.710525e-01,-4.287738e+00,-1.108103e-01,1.008768e+00,-9.597994e-02,1.150646e+00,2.495517e-01,1.610911e-01,-5.215918e-01,-2.030012e-01,-2.308358e+00,
5.673160e-02,-7.404611e-03,3.238656e-01,-1.128198e-01,-1.474738e-01,3.799652e-02,2.489213e-01,-1.419610e-01,1.046456e-01,-7.810808e-01,3.124622e-01,1.951195e+00,2.248161e-01,1.624729e-04,1.716142e-01,-6.622611e-02,1.135046e-01,2.154617e-01,5.819857e-02,1.033033e+00,4.454644e-01,1.260478e-01,-1.386863e-02,4.197878e-01,-1.266239e+00,1.957623e+00,-3.799544e-01,-3.410304e-02,3.394708e-01,-6.888241e-02,4.646216e-01,3.697564e-01,1.141415e+00,3.573224e-01,1.769539e-01,4.127270e-01,-2.146989e-02,-7.188511e-02,2.506634e-01,3.421071e-01,1.210799e-01,1.343827e-01,2.943529e-01,-1.072106e-01,-2.126251e-01,
4.109178e-02,-3.636828e-02,-7.367290e-03,-4.242267e-02,-2.236312e-02,-5.485499e-04,-1.143510e-02,3.585212e-02,-7.816442e-03,-1.940293e-02,-3.247404e-02,1.347139e-02,4.583140e-02,6.273058e-03,-4.473418e-02,-2.977188e-02,6.358026e-03,3.039071e-03,2.172831e-02,1.292234e-03,-4.336806e-02,2.898254e-02,-2.757700e-03,-1.694455e-02,-4.316628e-02,-1.180239e-02,-3.270796e-02,-4.839498e-02,-3.156207e-02,-3.718414e-02,-3.621412e-02,1.090850e-02,-2.121864e-02,2.654433e-02,-1.741889e-02,3.468620e-02,4.423668e-02,-1.241805e-02,2.417364e-02,-4.473897e-03,1.401955e-02,9.697875e-03,7.621843e-03,1.098492e-02,2.624494e-02,
7.305877e-02,-1.570656e-01,-3.694334e-01,2.329708e-01,3.768190e-02,2.538984e-01,-1.390152e-02,-1.064220e-01,-2.901222e-01,-3.005267e-01,1.949182e-01,-8.638505e-02,1.121830e-01,1.545106e-01,-2.716293e-01,-4.248353e-01,-1.068395e-01,9.864472e-01,-7.376331e-01,4.198694e-01,7.153780e-02,-3.880370e-02,5.501483e-02,1.478299e-02,-8.085928e+00,3.661552e-02,-1.168483e-01,-1.970773e+00,4.829727e-01,2.497426e-01,1.900031e-01,-1.085975e-01,1.705977e-01,-2.898501e-01,-3.488221e-01,5.634199e-01,6.873391e-02,-2.910709e-01,-4.867174e-02,1.322699e-01,2.126692e-01,-3.190534e-01,3.479537e-01,-2.551353e-02,2.369276e-01,
5.415841e-01,-2.938949e-02,8.086590e-01,-8.023115e-01,1.169680e-02,-9.716147e-02,3.846442e-01,-3.386644e-02,9.040359e-02,-8.274288e-01,-1.408840e-01,-1.003640e+00,-4.835531e-02,-1.721859e-01,1.221667e-01,2.219791e-01,2.983920e-02,1.877178e-01,1.565923e-01,8.017084e-01,7.244920e-01,-1.082718e-01,2.018384e-01,6.476146e-01,6.458872e+00,-5.628774e-01,9.963684e-02,1.317160e-01,-2.146368e-01,6.047343e-03,5.082122e-01,2.983859e-01,-2.324398e+00,3.759486e-01,6.211185e-01,6.007912e-01,1.210350e-01,-6.603138e-02,1.025316e-01,3.498613e-01,-2.330942e-01,1.117697e-01,5.102637e-01,8.637626e-02,-4.580503e-01,
-1.378042e-01,8.301897e-02,2.563736e-03,-7.353215e-02,-2.176501e-01,-5.297289e-01,-7.766134e-02,4.051171e-02,2.299553e-01,4.322041e-01,-4.791153e-01,1.488716e-01,2.662698e-02,-1.342541e-01,-2.205202e-01,-1.483054e+00,3.595758e-03,2.105444e-01,-2.537161e-01,2.332505e-01,-1.097527e-01,-5.259973e-01,-5.319030e-01,-2.163772e-01,3.313664e+00,7.007865e-02,2.679064e-03,-3.700559e-01,1.138425e-02,1.196029e-01,2.000709e-01,-1.207867e-01,1.186581e-01,-1.458709e-01,-2.906877e-01,-1.955048e-01,2.289025e-01,7.294715e-03,3.380719e-01,-1.558567e-01,2.949129e-01,-3.582226e-02,2.590505e-01,2.197498e-01,4.945571e-01,
-4.094427e-02,3.717274e-02,-3.638610e-02,-3.901080e-02,4.983943e-03,-4.938407e-03,2.991280e-02,4.208206e-02,-4.625890e-02,-5.041177e-02,-1.608619e-02,-6.673717e-03,9.182864e-03,-1.116588e-02,2.579973e-04,-5.242079e-02,1.975725e-02,-2.391012e-02,-1.864179e-02,-2.946484e-02,-1.435756e-02,3.514264e-02,2.387405e-03,-4.059669e-02,7.090562e-03,1.172491e-02,1.460140e-02,-4.585266e-02,4.539621e-02,-3.839531e-02,1.084216e-02,-1.815707e-02,-2.359638e-02,-3.622038e-02,2.422225e-03,1.626086e-02,-3.812326e-02,-2.725978e-03,-3.744849e-02,1.240642e-02,3.102378e-02,3.849351e-03,-2.180656e-02,-2.726239e-02,-3.737667e-02,
-4.159528e-02,-5.144921e-02,-5.085279e-02,-4.760658e-02,-4.338115e-02,-1.240013e-02,-2.138485e-02,-2.815814e-02,-1.252525e-02,-3.115435e-02,-1.354141e-02,-4.666616e-02,-3.253227e-02,-4.428341e-02,9.522912e-03,3.893324e-02,-3.109196e-03,-1.634760e-02,-4.843302e-02,-4.196241e-02,-9.631032e-03,-1.491776e-02,-2.694926e-02,7.453773e-03,-3.404409e-02,6.923500e-04,-3.892724e-02,-1.454452e-02,3.585191e-02,-2.348366e-02,4.137414e-03,2.231970e-02,4.616627e-03,-2.924443e-02,-2.235855e-02,-9.765044e-04,2.560913e-02,-3.006029e-02,-5.076859e-02,2.521293e-02,-4.160520e-02,1.517112e-03,3.063718e-02,-2.961824e-02,-2.554001e-02,
3.096553e-01,-1.964631e-01,-4.233916e-01,-3.477694e-02,-1.387082e+00,-6.118833e-01,-3.233724e+00,-5.773273e+00,-9.661931e-01,1.374085e-01,-2.094047e+00,6.757432e-02,-1.132061e+00,-5.348107e-01,7.626311e-02,-1.296687e+00,-2.326076e-01,-1.381144e-01,-7.716793e-01,4.083245e-01,-5.972679e+00,-1.041856e+00,-1.270711e+00,-5.023922e+00,-1.725247e+00,1.701322e-01,-8.670159e-02,-8.840402e-01,-3.252155e-01,-1.173807e+00,-4.708893e-02,1.906289e-01,-2.991751e-02,-4.424383e-01,-1.635331e-01,-2.196527e+00,-1.597899e+00,2.249474e-01,-5.898039e-01,-7.939941e-02,2.589253e-01,-1.792109e-01,4.860603e-03,4.499722e-02,2.205215e-01,
6.279384e-01,1.430035e-01,4.981861e-01,-3.095837e-01,-7.807786e-01,1.220953e-01,5.453958e-01,6.212890e-01,-1.014140e-02,-1.274879e+00,8.311841e-01,6.603583e-01,-1.148789e+00,2.950322e-01,3.085101e-01,4.747040e-01,-1.095251e+00,-1.279993e-01,8.034922e-01,4.072730e-01,6.365529e-01,4.801804e-01,-1.291383e+00,6.054063e-01,-1.056156e+00,8.357935e-02,2.052386e-01,4.801266e-02,-9.310260e-01,2.832750e-02,2.603969e-01,1.876338e-01,3.208989e-01,-1.411045e-01,1.186074e-01,1.514109e+00,6.673349e-01,2.108024e-01,-2.144627e-01,5.368897e-01,3.089865e-01,2.922022e-01,2.683115e-01,-2.243834e-01,-1.409020e+00,
7.069306e-01,1.806642e-01,2.341302e-01,2.479305e-01,-4.874903e-02,6.035657e-01,-7.111201e-03,9.099331e-02,4.301982e-01,-3.371416e-02,-1.496166e-01,4.689848e-01,-9.581897e-02,-2.377551e-01,-3.155143e-01,-8.439845e-01,1.498014e-01,2.622202e-01,8.940278e-01,3.165018e-01,-1.256649e-02,-1.478473e-01,-7.165899e-01,-2.261092e-02,-3.207516e+00,-3.513991e-02,-2.156015e-01,-1.989372e+00,2.174940e-01,-3.069204e-02,-1.878320e-01,4.567673e-02,3.458366e-01,3.517810e-01,2.402332e-01,6.736361e-01,8.179017e-01,-8.282425e-01,9.247290e-01,1.872194e-01,-4.415366e-01,9.553968e-01,1.996813e-01,-2.320420e-01,2.351336e-01,
-2.958956e-01,4.915736e-02,-1.533993e-02,-5.139700e-01,4.623397e-03,6.330678e-01,6.697066e-03,3.835950e-02,4.129317e-01,-9.848679e-01,5.348598e-01,1.766974e-01,4.664441e-01,3.008400e-01,3.476796e-01,3.631523e-01,-1.782017e-01,-1.062956e-01,-1.543172e+00,4.227507e-01,7.663582e-02,3.856450e-01,-1.150268e+00,7.384368e-02,6.422046e-01,3.937289e-01,-4.355064e-01,-1.390745e+00,-5.239550e-01,-1.141215e-01,6.724985e-01,2.665108e-01,-1.369311e-01,-5.020542e-01,-5.402101e-01,-3.009030e-02,-5.748649e-02,3.856495e-01,-4.260341e-01,5.922803e-01,2.221563e-02,-1.972653e-01,-1.333400e-01,-9.050027e-02,-6.218553e-02,
9.353960e-02,8.627181e-02,2.488150e-02,9.212517e-02,2.280341e-01,3.251157e-01,-6.629346e-02,-1.331484e-01,-9.829820e-01,-5.321826e-02,-2.906294e-01,4.840704e-02,3.741699e-02,-6.905638e-02,-2.552798e-02,1.172490e-01,-6.400444e-02,-1.190807e-01,5.002976e-05,-2.644997e-01,-4.227285e-03,1.143578e-01,-2.237219e-01,-5.266432e-03,-3.658337e+00,-5.868080e-02,-2.655657e-01,1.126143e+00,-1.888426e-01,7.324984e-02,-8.269949e-02,3.170170e-02,-2.384747e-01,5.593204e-04,4.672670e-02,3.823513e-02,-4.267079e-01,1.848812e-01,-2.268473e-01,2.052319e-01,-1.347831e-01,-2.565013e-01,1.203123e-01,8.324034e-02,-2.773361e-02,
9.614482e-02,-2.348365e-01,1.331625e-01,2.505612e-01,7.085522e-02,-6.961205e-03,-3.461289e-02,9.691350e-02,1.119156e-01,-7.399321e-02,-2.487630e-01,2.800921e-01,2.121633e-01,-1.071034e-02,1.216644e-01,-2.064415e-01,2.037404e-01,2.085227e-02,-7.152973e-01,3.768058e-01,-7.318027e-02,3.624446e-01,-3.995147e-01,-5.300836e-02,-2.219413e+00,3.252118e-02,6.512676e-01,-1.493721e-01,1.362130e-01,9.942051e-02,-2.957786e-01,-1.910299e-01,-6.019475e-02,-5.541616e-02,3.661966e-01,-9.606915e-01,2.154329e-01,-2.010977e-02,4.355280e-01,1.550315e-01,4.736961e-01,9.846709e-01,3.720824e-01,-3.916945e-01,3.349909e-01,
-2.979728e-01,2.052510e-02,-1.747085e-01,-9.488486e-02,-1.885647e-01,3.156993e-01,-1.546180e-01,-1.728414e-01,4.320578e-01,-1.669846e-01,4.369552e-01,-1.222835e-01,1.574922e-02,3.811513e-02,1.661801e-01,2.680655e-01,-3.195545e-01,5.568581e-01,-2.102338e-01,7.904044e-01,-1.067136e-01,-3.279941e-01,4.816403e-02,-9.179831e-02,2.987625e+00,1.189640e-01,-1.738722e-01,4.255475e-01,5.002156e-02,-9.767987e-02,-3.373227e-01,4.024807e-01,-1.226897e-01,-3.923997e-01,-2.483712e-02,-8.297391e-01,-2.820594e-03,-2.555668e-01,-4.135374e-02,1.364168e-01,1.774490e-01,-8.312336e-01,3.225232e-01,-3.231537e-01,-6.806629e-02,
2.753582e-01,-1.477589e-02,1.619695e-01,-3.254111e-01,-1.663125e-01,-3.671670e-02,3.368988e-01,1.597611e-01,8.763075e-02,8.192551e-03,-1.367981e-02,-2.408335e-02,-3.414242e-01,1.954911e-01,-1.892779e-01,9.396977e-02,-2.781583e-02,3.101579e-01,-1.544843e-01,-4.743948e-01,3.477299e-01,-6.515430e-02,-1.288314e-01,3.570985e-01,1.385453e+00,9.533318e-02,6.014911e-01,-1.806245e+00,-6.376736e-02,9.387739e-02,-1.341914e-01,-2.279140e-01,-1.847215e-01,-3.204562e-01,3.547789e-01,3.892528e-01,2.973614e-01,-4.641677e-01,1.074914e-01,2.636614e-01,-8.148590e-02,-1.208350e-01,5.482381e-01,-2.815714e-03,-4.896079e-01,
2.676856e-01,2.515579e-02,-8.654097e-02,1.136798e-01,1.640200e-01,2.805851e-01,-2.680055e-02,-5.804900e-01,-3.455358e-02,-4.080517e-01,2.304167e-01,1.274195e-01,-1.704303e-01,-6.403122e+00,-2.156026e-01,5.514129e-02,-3.770623e-01,2.219357e-01,3.648795e-03,2.093379e-01,7.188176e-02,-1.195107e-01,-4.343213e-01,1.914518e-02,3.289621e-01,8.387540e-02,-1.848531e-01,1.637811e-01,-1.432182e-01,-1.662768e+00,2.219498e-01,9.675561e-02,1.596205e-01,1.710360e-01,-5.982583e-02,5.095095e-01,7.353563e-02,2.905289e-01,3.521326e-01,5.024569e-02,2.100676e-01,-7.804418e-02,-1.882088e-01,-5.510475e-01,3.980977e-02,
-3.669243e-02,-1.911518e-02,-1.675931e-02,-5.485211e-03,-3.130827e-02,-3.278878e-02,-2.691112e-04,3.337983e-02,-4.856985e-02,-3.641700e-02,-3.086343e-02,3.298242e-02,-1.727883e-02,-7.533483e-03,3.221555e-02,-2.077077e-02,-3.839048e-02,-4.928934e-02,-1.663688e-02,-3.891568e-02,-2.076473e-02,-1.888807e-02,3.662107e-02,1.176270e-02,-1.950686e-02,-4.081535e-02,-1.306409e-02,3.372242e-02,2.585032e-03,-1.358631e-02,3.925106e-02,2.736741e-02,-7.948449e-03,7.479377e-03,2.041478e-02,-4.362706e-03,-5.690506e-02,-1.343237e-02,-1.537539e-02,-4.901981e-02,-4.614816e-02,-9.409581e-03,3.598387e-02,1.766954e-02,1.888363e-03,
4.353031e-01,5.348106e-02,9.149929e-01,-4.280231e-01,1.996940e-01,-9.322454e-01,3.770549e-02,3.896740e-02,-1.621360e-01,-2.409438e-01,5.575289e-01,3.254525e-02,1.747773e-01,-1.197500e-01,1.735268e-01,5.694467e-01,-2.417242e-01,-7.162724e-01,3.097184e-02,1.469563e-01,8.097392e-02,-3.295104e-01,2.254634e-01,5.288487e-02,8.753354e+00,1.353022e-02,-2.151430e-01,2.544582e-01,2.915138e-01,1.118084e-01,2.374873e-01,7.941397e-02,-2.007109e-01,-1.830492e-01,4.988549e-01,1.690907e+00,-4.848663e-02,-6.590876e-01,-1.927931e-01,1.499367e-01,-3.779363e-01,-8.427526e-01,1.677635e-01,4.137508e-01,-3.332080e-01,
-2.887460e-02,1.462061e-01,-2.787725e-02,-1.862160e-01,-1.155855e-02,1.103859e-01,2.108990e-01,-1.321177e-01,-3.326736e-01,-1.306768e-01,3.136894e-01,3.375404e-01,-1.580631e-01,2.723241e-01,3.586213e-01,-1.753069e-01,2.107898e-01,5.649537e-01,-1.438654e-01,2.537113e-01,1.845238e-01,2.829566e-01,4.503432e-01,1.977324e-01,-1.522673e+00,3.021772e-01,-9.069287e-02,-6.650413e-01,-2.938460e-02,3.215571e-01,1.222094e-01,3.433984e-01,1.894517e-01,-7.473710e-02,2.247252e-01,3.005644e-01,-5.921035e-02,-5.472292e-01,-2.571838e-01,-8.169085e-02,1.269319e-01,6.708700e-01,3.661915e-01,-6.420504e-01,4.241511e-01,
3.802718e-01,-6.130573e-01,-5.972915e-01,3.625367e-01,3.806706e-01,-6.466357e-02,9.750554e-02,2.455279e-01,8.742074e-01,-4.806271e-01,1.404405e-01,2.439974e-01,5.978198e-01,2.522809e-01,2.222174e-01,-8.209688e-01,2.782869e-01,4.302428e-01,-1.636753e+00,2.182055e-01,1.562791e-01,7.862391e-02,-1.013410e-01,2.183923e-01,6.543356e-01,1.416472e-01,7.239925e-01,-3.516340e-01,-7.770374e-02,4.048686e-01,7.117848e-01,7.503299e-02,2.023512e-01,-2.494472e-02,-4.710362e-01,9.107026e-01,-1.691858e-01,5.875821e-02,-8.861244e-01,-2.012379e-01,4.122052e-01,5.611909e-01,-2.811334e-01,-3.826347e-01,-3.649267e-01,
4.991511e-01,2.525023e-02,3.717739e-01,-2.464805e-01,6.883556e-03,-1.338144e-01,2.559427e-01,5.352687e-01,2.372882e-01,-1.677206e-01,-6.551867e-02,5.019100e-01,-1.611715e-01,-4.159320e-01,-8.015816e-01,8.604020e-02,-1.662913e+00,3.319449e-01,1.869313e-01,5.664205e-01,3.643067e-01,3.161163e-01,1.554388e-01,3.348660e-01,2.866981e-01,6.498904e-01,2.956619e-01,-6.058742e-01,-3.474699e-01,4.079968e-01,7.634675e-02,-1.342189e-02,3.382431e-01,-2.181766e-01,5.971984e-02,-1.761430e+00,-1.101145e-01,-4.625890e-01,6.896126e-03,-8.007851e-02,1.383461e-01,3.450947e-01,3.654731e-01,6.850989e-02,-9.573591e-03,
7.499083e-04,1.641085e-01,-1.482533e-01,2.950306e-01,2.169800e-01,-7.208341e-01,-5.628912e-02,9.033747e-01,1.818431e-01,-1.117686e-01,5.901321e-01,2.914558e-01,2.404793e-01,1.032034e+00,-3.974308e-01,-3.172642e-01,-3.190795e+00,1.742933e-01,-1.793317e-01,4.385026e-01,-7.629588e-02,5.239410e-01,-6.661387e-01,-5.894809e-02,-1.877771e-02,3.253516e-01,4.182716e-01,-1.941953e-01,2.956924e-01,5.863119e-01,1.067761e-01,4.590512e-01,3.869963e-01,2.589688e-01,3.687053e-02,4.070063e-01,2.824947e-01,2.377212e-01,4.156449e-02,3.429250e-01,-1.096804e-01,5.048518e-01,-2.615296e-03,1.984490e-01,-5.036890e-02,
1.597392e-01,-1.009938e-01,-4.251249e-01,3.211571e-01,-2.566997e-01,1.708703e-02,-6.574970e-02,1.334209e+00,2.264440e-02,-7.266124e-01,-3.309063e-01,-1.221504e-01,2.032336e-01,-8.488800e-02,-4.848902e-01,-1.209034e+00,9.871692e-01,-3.291728e-01,-4.244818e-01,6.780331e-01,8.067640e-02,7.868077e-01,1.589452e-01,1.681738e-01,1.670325e+00,-9.560492e-02,4.227430e-01,-9.420107e-01,-5.514255e-01,-1.080419e+00,-8.072141e-02,2.157907e-03,8.188508e-02,1.424059e-01,-9.500323e-02,-3.564926e-01,3.965997e-02,6.320029e-01,-3.576759e-01,5.053369e-01,3.868552e-01,9.081823e-01,-1.999592e-01,1.066916e-01,3.858245e-01,
-1.769563e-01,-1.024391e+00,1.817110e-01,-3.084396e-02,3.164579e-01,-1.701766e-01,-5.855626e-01,4.320677e-01,-1.550429e+00,4.866621e-01,-9.665790e-01,6.839644e-02,1.725446e-01,8.617507e-02,-2.140457e-01,7.420056e-01,7.534326e-02,-1.387065e-01,-6.465728e-01,-1.814637e+00,-4.350837e-01,-5.540523e-02,-1.114273e-02,-5.535472e-01,2.694119e+00,2.601689e-01,-2.682916e-01,6.242489e-01,-5.348196e-02,2.972639e-02,1.374233e-01,-1.909209e-02,-1.124274e-02,-7.069990e-02,-1.818843e-01,4.002694e-01,-6.625670e-01,-3.225151e-01,4.840001e-02,-2.520147e-01,-1.520551e-01,-1.847234e-01,1.510389e-01,-5.048373e-01,5.039927e-02,
3.973707e-02,8.182078e-02,-3.401772e-01,-3.193268e-01,-8.396881e-01,-1.403647e+00,-4.474175e+00,5.635178e-01,4.875956e-01,2.248868e-01,5.506710e-01,1.390071e-01,-7.083897e-02,1.513441e-01,-7.834688e-03,4.231654e-01,-5.836010e+00,1.198811e-01,-5.486924e-01,-1.174844e-01,-7.074921e+00,-1.384651e-01,4.240068e-01,-6.457665e+00,1.818248e+00,-2.482577e-02,-8.366262e-02,-4.647549e-01,4.288408e-01,2.879314e-01,1.368820e-01,1.210271e-01,1.188914e-01,5.190812e-02,1.024848e-01,2.706204e-01,-9.414801e-01,-1.142760e-01,4.405650e-01,1.047044e-01,-1.693432e-01,7.598017e-01,6.161665e-02,5.075740e-01,5.006063e-02,
4.096489e-01,2.572670e-01,3.202661e-01,2.932536e-01,2.976464e-02,7.579828e-01,-2.328455e-02,9.531839e-03,3.125061e-01,-5.496023e-01,3.879702e-02,3.336321e-01,3.638359e-01,4.568037e-01,-3.792196e-01,5.450408e-01,2.034226e-01,8.440605e-02,1.307857e-01,5.291464e-01,-1.639437e-01,4.172341e-01,1.593145e-01,-1.599055e-01,-7.572279e-01,4.016910e-01,-8.118090e-02,5.706853e-01,-8.452766e-02,-3.925471e-01,7.025763e-02,2.507055e-01,2.600445e-01,-8.129138e-02,1.275892e-01,4.295571e-01,2.954760e-01,7.058467e-02,2.319576e-01,8.276371e-02,2.052417e-01,-1.602219e-01,3.946663e-01,-1.948953e-01,1.562024e-02,
-1.485964e-01,-2.341184e-01,2.078895e-01,-9.790086e-02,-3.057130e-01,2.953224e-01,-9.384225e-02,-4.152006e-01,4.829874e-02,-1.871557e-01,-6.472958e-01,8.747939e-02,5.378239e-01,-1.221887e-01,1.815637e-01,-4.892628e+00,-4.096260e-01,-1.884302e-01,1.150429e-01,-1.324922e+00,3.356975e-01,8.224209e-01,1.887376e+00,3.845460e-02,3.901634e-01,1.810784e-01,-8.013847e-02,1.126827e+00,3.092164e-01,-3.467314e-01,3.061819e-01,2.227272e-02,1.734181e-02,1.462055e-02,-4.113121e-02,1.754063e-01,-5.136598e-01,-1.639414e-01,5.923018e-02,3.553896e-01,4.016789e-03,7.211161e-02,-2.445071e-01,-4.330346e-01,1.979461e-01,
7.066564e-02,3.939291e-02,-8.923202e-02,-2.749213e-01,-1.504449e-01,-3.227710e-01,-1.111231e-01,3.764774e-01,1.562771e-01,-8.859105e-02,2.270876e-01,2.444170e-01,1.845297e-02,-1.566834e+00,-3.324431e-01,1.559384e-01,-2.086514e+00,9.231732e-02,3.148811e-01,4.851085e-01,-7.165922e-02,4.888128e-01,-8.015709e-02,-3.061204e-02,2.457533e-02,3.294912e-01,-3.757538e-01,3.077365e-01,2.133022e-01,8.398910e-02,1.358608e-01,1.270623e-01,1.488847e-01,-7.326026e-02,-3.795960e-03,2.903500e-01,-1.362849e-01,-1.094970e-01,-1.835622e-01,7.453881e-02,-1.843574e-02,2.377050e-01,2.316899e-01,4.092925e-01,1.984992e-01,
-1.847636e-01,2.943888e-01,-3.015553e-01,-2.417342e-01,1.384632e-01,-1.226066e-02,-2.467038e-02,-4.641426e-01,-7.739641e-01,-3.765754e-02,1.668513e-01,8.862814e-02,1.887874e-01,3.897352e-02,4.865719e-02,-1.979718e-01,-6.253885e-02,-2.979606e-01,4.650613e-01,-1.665407e-01,4.811155e-02,-5.939698e-02,-5.255011e-02,-8.950023e-02,3.198822e-01,2.129284e-01,-1.325243e-01,2.514190e-01,6.534770e-01,-2.090157e-02,-4.165246e-01,1.034881e-01,8.282886e-02,3.296410e-01,2.280801e-01,2.169101e-01,-2.097563e-01,1.634720e-01,-9.858503e-02,9.065375e-02,2.199002e-01,1.581605e-01,-7.510115e-02,1.655310e-01,-3.887508e-01,
-1.227983e+00,6.169194e-01,4.780783e-01,8.942705e-02,1.660958e-01,9.471042e-02,4.401430e-01,-2.661510e-01,-4.348586e-01,-1.209661e+00,4.498680e-01,-5.180554e-01,2.412665e-01,-1.398437e-01,1.187273e-02,2.391253e-01,7.536320e-02,-1.040707e-01,-1.845232e-03,7.843421e-01,7.226061e-01,-5.613634e-03,-1.072866e-02,6.121667e-01,-2.419463e+00,-1.653821e+00,-2.417034e-01,1.276167e-01,1.083626e-01,-1.377282e-01,-1.253633e-01,5.655862e+00,4.214495e-01,-2.298718e-03,4.999895e-01,9.536712e-01,1.180919e-01,-7.164022e-01,5.480468e-03,-2.302850e+00,-1.659335e-01,-1.596568e-01,-7.738596e-01,2.575037e-01,-1.489920e+00,
2.931598e-02,-3.610111e-02,-4.921438e-02,1.914463e-02,3.276529e-02,-1.033175e-02,1.040346e-02,-7.237837e-03,1.767813e-02,1.542211e-02,-8.338278e-03,4.921074e-03,2.667920e-02,-3.983576e-02,-3.150095e-02,5.284446e-04,-4.724608e-02,8.390388e-03,1.392903e-02,1.656713e-03,-1.093279e-02,-4.820666e-02,-1.723706e-02,-4.979246e-02,-3.145713e-02,-1.272254e-02,2.579466e-03,2.044224e-02,8.276880e-03,-2.978238e-02,-5.204104e-02,1.387795e-02,-1.067998e-02,-2.204887e-02,8.358659e-03,-3.023591e-02,2.720093e-03,8.007265e-03,-2.753857e-02,-1.526978e-02,-2.915478e-02,2.494822e-02,-1.397975e-03,-4.934136e-02,-1.158396e-02,
4.131577e-01,9.822125e-03,5.751811e-01,-4.021816e-01,-3.488842e+00,-3.887367e-04,2.832166e-01,-5.654368e-01,1.480314e-01,-5.716279e-01,-5.089672e-01,-6.609563e-01,-1.142012e+00,9.080552e-02,-4.890898e-01,-3.142227e+00,-1.180550e-01,8.654556e-02,4.130318e-02,1.139308e-01,-9.626658e-02,-1.715716e-01,-1.064267e-02,-7.699103e-02,2.728942e+00,-2.042675e-01,7.373508e-02,1.797944e+00,-2.397437e-01,3.745460e-02,4.461859e-01,2.249012e-01,-3.935086e-01,-1.304900e-01,9.608530e-02,-5.955780e-01,3.375438e-01,9.920231e-02,-7.705967e-01,5.672351e-01,1.294396e-01,-1.154416e-01,2.524399e-01,1.175629e-02,5.424237e-02,
1.558642e-01,1.270166e-01,1.944680e-01,-6.339975e-02,-6.929617e-01,-2.853829e-01,1.357395e-01,4.191169e-01,-3.973128e-01,-4.397216e-01,-5.867658e-01,2.619748e-01,-4.245581e-01,-2.058976e-01,-6.831425e-01,-3.363630e-01,-1.013429e-02,2.906275e-01,-8.227135e-01,9.133407e-01,-1.263498e-01,5.759956e-01,7.676058e-02,-1.026018e-01,-7.908319e-01,2.286090e-01,3.267456e-01,6.909265e-02,-4.745768e-01,-1.163383e-01,4.325210e-01,2.811152e-01,1.269415e-01,1.522107e-01,3.152007e-01,-6.163688e-01,6.968630e-01,2.496551e-01,9.295118e-01,7.000456e-01,3.761683e-01,6.842859e-02,2.370481e-01,-7.483213e-02,4.870407e-01,
1.662297e-01,-7.618313e-02,1.602157e-02,4.786151e-02,9.720688e-02,-2.029400e-01,9.409132e-03,6.468478e-01,1.368881e-02,-9.886735e-02,4.540302e-01,5.116457e-01,9.566660e-03,-9.144403e-01,2.416251e-01,8.145358e-02,-2.416653e+00,1.819475e-01,-1.305417e-01,5.621902e-01,8.134419e-02,3.608828e-01,-1.594435e-01,5.896661e-02,1.144651e+00,5.760641e-01,4.488194e-01,-4.221317e-01,-1.785579e-01,9.512916e-02,1.591203e-02,5.297811e-02,4.356296e-01,1.641617e-01,8.067663e-02,1.218148e-01,2.631174e-01,-2.511440e-01,2.715566e-01,3.409711e-02,6.978884e-02,2.875194e-02,1.572464e-01,-4.173956e-02,2.088448e-01,
3.787488e-02,-2.505739e-01,-1.466125e-01,2.234790e-01,8.940032e-02,1.373416e-01,-3.008503e-02,8.699716e-02,-1.219859e-01,2.257496e-01,-7.263413e-01,2.096491e-01,1.136120e-01,8.792621e-04,-3.605513e-01,-6.859002e-01,2.106935e-01,1.798389e-01,-8.453608e-01,1.642079e-01,1.149517e-01,3.210192e-03,-1.016195e+00,2.866035e-02,-6.518595e+00,-4.811724e-02,-7.793907e-02,-1.004055e+00,-1.979416e-01,-2.515047e-01,-4.445610e-01,-4.574502e-01,-1.287932e-02,1.833690e-01,-1.398380e-01,2.652536e-02,-1.666592e-01,-2.898013e-01,2.207846e-01,3.357423e-01,2.831802e-01,6.563578e-01,5.493747e-02,1.884392e-01,-1.873393e-01,
-1.329772e-02,
4.240728e-02,
-1.206199e-01,
1.814504e-01,
-3.097779e-02,
-1.583829e-02,
2.269225e-02,
-1.002572e-02,
5.962481e-02,
3.047068e-02,
-1.732249e-01,
-1.851084e-02,
9.203742e-02,
-2.828728e-01,
-4.507479e-03,
-1.367286e-02,
-1.245615e-02,
7.337002e-01,
-2.432814e-01,
-9.843979e-02,
-4.441210e-02,
7.360413e-02,
-1.613194e-01,
1.012002e-01,
1.969670e-02,
1.282971e-01,
-1.958124e-02,
4.057542e-02,
1.329670e-02,
-3.348712e-01,
-5.906595e-02,
2.381197e-01,
-1.543955e-01,
1.459843e-01,
9.442461e-02,
2.476775e-02,
8.446950e-02,
1.874189e-01,
1.123804e-02,
-3.286090e-01,
-2.095897e-02,
-1.117670e-01,
2.141485e-01,
2.591011e-01,
5.605167e-02,
6.087893e-03,-9.286185e-03,-4.816678e-02,-4.607257e-02,2.681902e-02,5.202599e-03,-1.420004e-02,-3.774098e-03,-3.922132e-03,2.574147e-02,-3.423858e-02,-1.401011e-02,-2.886495e-02,6.520043e-03,1.723243e-02,-6.547831e-03,-4.310863e-02,-2.916941e-02,3.375043e-02,-6.041510e-03,-6.854751e-05,-5.635724e-02,-1.569205e-02,-2.129204e-02,-1.315447e-02,2.206403e-02,4.510802e-02,-8.024230e-03,-6.928058e-03,-2.498137e-04,-2.761482e-02,8.151743e-04,-2.301723e-02,-1.210243e-02,2.946012e-02,6.796337e-03,2.137611e-02,3.912551e-02,-4.420272e-02,-2.545701e-02,-8.931162e-04,1.857994e-02,-1.470286e-02,-4.683151e-02,2.437595e-02,
-3.027152e-02,1.081846e+00,-3.046373e-01,8.076878e-01,1.000238e-02,3.525268e-02,3.392290e-01,-3.719778e-02,1.067885e-01,3.149632e-01,9.570687e-01,5.326338e-03,4.580681e-01,1.222961e+00,-1.093475e+00,-4.684274e-02,-2.158566e-02,2.219761e-01,1.106504e-01,9.974366e-01,3.122832e-01,4.588562e-01,1.842459e-02,4.194155e-01,4.617577e-01,1.601503e+00,-5.157345e-03,3.769602e-01,7.304209e-02,5.912657e-01,-1.264715e-01,-5.408810e-01,4.085487e-01,7.351623e-01,-6.095213e-01,2.301081e-01,1.504355e-01,-4.788029e-01,2.903498e-01,4.674538e-01,2.432110e-03,1.511690e+00,3.571275e-01,1.052776e-01,1.437254e-01,
-1.039039e-02,5.385037e-01,-1.193196e-01,2.214774e-01,-1.805710e-02,-3.970773e-02,-8.133602e-01,-5.225987e-02,-6.674209e-01,3.206108e-03,3.279779e-01,-4.647041e-02,5.378865e-01,1.537835e-01,-3.106641e-01,-1.225249e-02,2.869188e-02,-5.757139e-01,-8.816559e-02,-4.606696e-01,-4.042059e-01,-3.162158e-01,1.348210e-01,-1.265344e-02,-6.278405e-03,6.066012e-01,-2.576278e-02,-3.962883e-01,-6.603222e-01,-3.562172e-01,3.313769e-03,-2.731482e-01,7.606695e-01,-7.063820e-01,1.050511e-01,-3.679437e-01,6.931029e-02,-6.141284e-02,9.521108e-02,2.183165e-01,2.188222e-03,1.297108e+00,1.351968e-01,4.444079e-01,-1.920578e-01,
4.039099e-02,-7.245382e-01,-4.397319e-01,1.379273e+00,3.651268e-02,-2.758466e-02,-2.782489e-03,4.427264e-02,9.666350e-02,3.725304e-01,5.744831e-01,2.777033e-02,-3.107543e-01,7.676510e-01,5.703262e-01,-1.460792e-02,-8.113363e-04,1.818456e-02,2.299706e-01,-1.557188e-01,7.433952e-02,-5.608621e-02,1.174245e-01,-6.961042e-02,4.806978e-02,1.532678e+00,6.099589e-03,-2.008497e-02,-1.755211e-01,3.250940e-01,2.325779e-01,-4.207869e-01,2.719487e-01,-5.656953e-01,-7.222553e-01,2.029609e-01,4.814174e-01,5.380062e-02,1.039596e-01,1.822498e-01,-2.749738e-02,9.541982e-01,3.315428e-01,4.244950e-01,-4.254071e-01,
-4.663215e-02,2.981233e-01,-5.779699e-01,-4.533595e-01,-2.953627e-02,-5.044014e-02,3.091890e-01,-3.176501e-02,-2.183402e-01,8.229328e-01,8.199331e-01,5.570836e-03,2.225651e-01,9.755210e-01,2.078324e-01,-4.153757e-02,-3.371191e-02,-4.638863e-01,-1.284151e+00,-1.166301e+00,8.880018e-01,3.854195e-01,1.693290e-01,1.332996e-01,-2.721567e-01,7.473174e-01,-2.492813e-02,-2.318948e-01,-1.316556e-01,3.937489e-01,-2.133889e-01,-2.233097e-02,1.152942e+00,1.074888e+00,-4.604042e-01,7.136193e-01,2.826566e-01,-7.106342e-02,1.828759e-01,5.607523e-01,-4.597795e-02,2.307398e+00,5.309137e-01,-2.354058e-01,4.334224e-01,
4.713568e-03,5.530680e-01,-2.322095e-01,1.336771e+00,-3.063638e-02,-2.110431e-02,1.226954e-01,4.568803e-02,2.043512e-01,-7.392818e-02,-4.134504e-01,-2.350437e-02,1.384695e-01,-7.522741e-02,3.195819e-01,1.487899e-02,2.089220e-02,4.669109e-01,3.493070e-01,-7.171967e-02,5.917527e-01,2.224967e-01,-1.917330e-01,5.278190e-01,1.807346e-01,-4.487501e-01,3.995338e-02,1.639996e-01,-9.445465e-02,-9.492914e-02,2.888172e-01,8.570849e-01,-1.006565e+00,4.888084e-01,8.643110e-02,-3.241038e-01,4.143621e-01,1.289413e+00,1.851777e-01,2.101460e-01,1.978783e-02,2.410649e-01,-2.837817e-01,1.181579e+00,5.125067e-01,
-2.483081e-02,-6.364772e-01,1.579349e-01,-2.124754e-01,-3.740671e-02,-4.257410e-02,8.662067e-02,-1.417028e-02,4.256990e-01,4.520863e-01,4.998872e-01,6.807110e-03,-1.482382e-01,9.863966e-01,3.542961e-01,-3.779522e-03,9.306218e-03,1.305743e-01,4.794217e-01,9.526622e-01,2.378545e-01,8.402201e-01,-1.188601e-01,-3.258679e-01,3.135696e-01,1.957684e-01,2.072336e-02,1.565024e-01,-1.988547e-01,5.014475e-02,1.857921e-01,-1.835282e-01,-1.612121e-01,-6.187705e-01,2.923273e-01,8.286304e-02,-5.391128e-02,1.437260e-01,2.563948e-01,1.783601e-01,-4.521368e-02,8.526976e-02,1.770542e-01,1.242817e-01,2.254976e-01,
-1.601443e-02,2.365333e-01,-8.017734e-01,3.826724e-01,-5.281575e-02,-5.986190e-02,-4.368617e-01,-5.106430e-02,-2.718525e-01,3.767074e-01,4.578843e-01,-6.246718e-03,-2.006447e-01,1.010223e+00,2.497686e-01,1.881156e-02,4.780625e-02,4.334725e-01,2.029958e-01,-1.204837e-02,8.646196e-02,-1.338969e-02,-1.280964e-01,4.080737e-01,4.560007e-01,5.440890e-02,-3.481098e-02,1.145297e-02,-4.562351e-02,7.336284e-01,-2.013139e-01,-1.047543e-01,6.366023e-01,9.496244e-01,-2.618867e-01,5.445397e-01,6.180047e-01,-5.734146e-01,-1.036197e-01,1.766773e-01,1.855589e-02,1.729099e+00,1.926550e-01,-4.205733e-01,-1.096529e+00,
4.626639e-02,3.000663e-01,-7.686092e-01,-1.339141e-01,-2.852789e-02,-4.421705e-02,1.656656e-01,3.021236e-02,-1.019642e-01,1.756301e-01,6.086257e-01,-4.713876e-02,2.869184e-01,3.072403e-01,-2.117887e-01,1.586780e-02,-4.698360e-02,-2.367116e-01,-1.084727e+00,-4.436254e-01,-7.731383e-02,8.780555e-02,-2.005151e-02,-1.519473e-02,-1.070295e-01,-2.195776e-02,-4.266118e-02,-9.095577e-02,1.408135e-02,-2.515317e-01,-7.023890e-02,6.215437e-02,-3.248306e-01,5.630443e-01,-2.203644e-01,6.856904e-03,-6.259243e-01,1.011362e-01,-2.517930e-01,6.002501e-01,1.980182e-02,1.981255e+00,3.980972e-02,-1.410637e-01,5.791718e-01,
-4.024601e-02,-1.990942e-01,8.043145e-02,-1.011816e-01,-3.027462e-02,2.889561e-02,-5.260000e-01,-4.622960e-02,-8.532700e-01,8.175827e-01,8.326847e-02,1.866229e-02,-3.592456e-01,5.553130e-02,1.282809e-01,-3.643924e-02,2.489080e-02,3.046710e-02,5.470322e-01,4.589318e-01,2.137427e-01,6.269725e-01,-3.105557e-01,2.912938e-01,1.532122e-01,1.606168e-01,2.521237e-02,-5.885535e-01,-1.220237e-01,2.171416e-01,-2.527942e-01,3.411632e-02,-1.022784e-01,-4.514627e-01,5.086377e-02,-2.931318e-01,5.341092e-01,4.224508e-01,1.259542e+00,-7.995998e-01,1.888496e-02,4.530690e-01,1.513043e-01,-3.463361e-01,2.616266e-01,
-6.313823e-03,-2.291775e-01,3.377703e-01,7.073520e-01,6.154970e-03,1.172119e-02,-8.609953e-02,4.147282e-02,-4.264526e-01,-1.025783e-01,2.739698e-01,4.029093e-02,2.956402e-01,2.071109e-01,-2.439636e-01,-2.895794e-02,-4.485867e-03,-1.104136e-01,-1.655838e-01,-2.373624e-01,-7.307712e-01,-3.313999e-01,1.635413e-01,-7.788936e-01,-4.052866e-01,-6.924876e-03,-3.577356e-03,-3.591871e-01,1.442259e-01,4.085890e-01,-1.988499e-01,-7.964007e-02,3.478576e-01,-4.846108e-01,5.433075e-02,-2.487599e-01,-4.310054e-01,2.575681e-01,2.715710e-01,2.185547e-01,-1.409566e-02,1.638433e+00,8.302385e-02,-1.974409e-01,-5.411083e-01,
7.130214e-03,2.258481e-01,1.377407e-01,1.248816e-01,3.969103e-03,3.487714e-02,-1.904853e-01,3.675145e-02,3.658975e-01,-1.671536e-01,2.063698e-01,-1.782458e-02,-1.375178e-01,2.234475e-01,-2.545125e-01,2.500931e-02,-1.039821e-02,-1.935733e-01,-1.283041e+00,-5.012228e-01,1.556178e-01,-2.282258e-02,1.798558e-01,8.049537e-02,6.214564e-02,7.832634e-02,2.090906e-03,-2.295440e-01,3.587451e-02,-4.052131e-01,-1.810560e-01,1.788869e-02,5.336738e-01,-7.419991e-01,3.277463e-01,-1.317526e-01,-9.038869e-02,-3.547001e-01,-3.639255e-01,1.756926e-01,-4.401574e-02,1.828252e+00,-1.515373e-01,-1.807680e-02,-7.471845e-01,
-4.165326e-03,7.722924e-02,5.978729e-01,2.338213e+00,1.690350e-02,1.292736e-02,-9.108582e-02,4.140475e-02,1.112696e-01,1.600439e-01,-2.410277e-01,-1.361917e-03,-2.511509e-02,-9.616540e-02,1.560253e-01,2.761350e-03,2.573548e-02,4.517275e-02,1.645560e-01,-1.685466e-01,7.593947e-02,-1.479785e-01,4.180488e-01,2.690133e-01,-7.198017e-02,-1.960506e-01,-4.954458e-02,-2.112783e-02,-2.054439e-02,-1.469168e-01,1.951219e-01,8.563290e-01,-5.428129e-01,-1.697372e-01,-5.720442e+00,-2.625920e-01,6.146529e-01,1.111541e+00,3.455355e-01,3.758569e-01,8.037662e-03,9.444242e-02,-1.408885e-01,9.558388e-01,4.031911e-01,
-8.100655e-03,-1.437799e-01,-3.940457e-01,1.944013e-01,-3.841664e-02,-9.271407e-03,-1.548606e-01,-4.902551e-02,2.607251e-01,-1.144757e-01,-2.232879e-01,-2.596714e-02,1.287725e-01,8.420917e-02,7.623573e-01,4.913993e-03,-3.439313e-02,-1.934305e-01,-4.865945e-04,5.858809e-01,5.134156e-01,9.373222e-02,1.857163e-01,-2.784994e-01,2.106614e-01,8.613225e-01,3.278309e-02,-1.946244e-01,-3.180342e-01,-9.282094e-02,5.121025e-02,-1.031580e-02,2.005708e-01,-1.140468e+00,1.677350e-01,-5.654747e-01,2.851464e-01,-2.112971e-01,1.309501e-01,2.641576e-01,-4.339586e-02,-2.104731e-02,-2.479072e-02,-2.913096e-02,1.999753e-01,
-1.336141e-03,-2.187560e-02,-9.133559e-01,-1.796540e-02,-2.047304e-02,3.164078e-02,-3.721217e-02,-2.005379e-02,2.913305e-01,4.324581e-01,3.600918e-01,4.548002e-02,-2.074197e-01,7.135600e-01,-2.453320e-01,-2.802929e-02,-8.606386e-03,6.162998e-02,1.540651e-01,1.494450e-01,-1.253260e-01,-1.673466e-01,-5.379062e-02,-2.213582e-01,2.084523e-01,-7.913754e-02,3.309065e-02,3.910505e-01,-9.632869e-02,3.071229e-01,-4.323900e-01,8.123822e-03,3.788253e-01,9.138021e-01,4.278385e-01,-3.108786e-03,3.446300e-01,-1.681400e-01,-9.168385e-02,1.098262e+00,1.607663e-02,1.762090e+00,-1.408879e-01,4.273077e-02,-6.902434e-01,
1.067579e-02,3.861733e-02,-3.905868e-02,1.614588e-02,-2.530742e-02,3.288105e-02,-2.641694e-02,-1.588898e-03,-3.652719e-02,3.014649e-02,-4.358894e-02,-1.229670e-02,-4.524404e-02,-4.242709e-02,2.256831e-03,2.741202e-02,2.041493e-02,-4.152307e-03,-1.722655e-02,3.476941e-02,9.615988e-03,-3.976109e-02,3.638320e-02,-4.914108e-02,2.588840e-04,-1.232228e-03,2.063176e-02,2.974340e-03,-2.324659e-02,-4.451208e-02,3.315566e-02,-3.332577e-02,3.165396e-02,2.941946e-02,-1.288212e-02,-1.700929e-02,7.360225e-03,-3.638576e-02,2.395054e-02,-8.864661e-03,-1.795458e-02,-1.585995e-02,-5.408058e-02,1.778710e-02,-5.739934e-02,
-1.395382e-02,9.662935e-01,2.118552e-02,-6.319330e-01,1.202399e-02,-3.684611e-02,5.658250e-01,-4.277444e-02,-3.215541e-01,2.911249e-01,2.389190e-01,-3.287210e-02,3.443606e-01,-1.308293e-01,-1.213684e+00,-4.303983e-03,-3.046142e-02,1.597403e-02,7.458672e-01,7.854472e-02,1.856328e-01,-7.742152e-01,-2.519456e-01,1.471230e-01,-2.109624e-01,6.852058e-01,-1.777912e-02,1.224442e-01,3.920639e-02,-2.754112e-01,5.354294e-03,1.094321e-01,9.826324e-02,2.389138e-01,-1.235003e-01,-1.155726e+00,2.925454e-01,9.980752e-02,-3.063386e-01,3.530187e-02,-3.562835e-02,6.979586e-01,-3.262221e-01,2.692565e-01,7.708442e-01,
1.522757e-03,6.810846e-01,-7.601086e-01,1.557836e-01,-3.790908e-02,2.222638e-02,1.324558e-01,1.413443e-02,-3.839277e-01,3.016630e-01,5.754993e-01,6.768956e-03,1.063652e+00,5.893319e-01,-3.078384e-01,-3.095552e-02,-1.908544e-03,-6.512243e-02,1.658228e-01,-8.799990e-01,8.922287e-01,-1.835316e-01,-1.404097e-01,-4.348768e-01,-2.885939e-01,-4.966148e-01,-1.273239e-02,2.564338e-02,-7.471380e-02,-4.304111e-01,-4.854689e-01,1.068520e-01,-5.931284e-01,-3.403727e-01,-4.537160e-01,4.833027e-01,2.997109e-01,3.726033e-02,9.509438e-02,3.436015e-01,-4.628314e-02,1.408495e+00,-3.547798e-01,-1.019250e-01,2.674310e-01,
4.840934e-02,-1.617486e-02,-3.805175e-02,3.982453e-02,-2.638334e-02,-2.711772e-02,1.389929e-02,8.334556e-03,9.026034e-03,1.679545e-02,-2.748588e-02,-4.606981e-02,-2.215537e-03,-4.962557e-02,-5.374220e-02,-3.798738e-02,-5.677067e-03,-4.175196e-02,-2.747680e-02,-6.493658e-02,9.744229e-03,1.455065e-02,-3.436493e-02,-5.590205e-02,-3.714732e-02,-1.442074e-02,2.143586e-02,-4.343649e-02,-2.365077e-02,2.077893e-02,-4.801257e-02,-4.256811e-02,2.265220e-02,1.408307e-02,-4.312312e-02,-3.490602e-02,3.173338e-02,-3.254291e-02,4.679584e-03,-8.776681e-03,4.860413e-02,1.384995e-02,2.416223e-02,-4.799886e-02,-2.927360e-02,
2.610702e-02,5.894298e-01,-4.353872e-01,1.153588e-01,-1.028662e-02,-3.214572e-02,-4.724753e-01,4.380636e-02,-9.583905e-01,3.240561e-01,3.240240e-01,-2.126185e-02,-3.735110e-01,4.958586e-01,-2.040622e+00,1.417417e-02,1.965049e-02,1.271294e-01,-5.868614e-01,1.328860e-01,-4.500455e-01,-1.015311e+00,6.073480e-01,2.363076e-01,1.616117e-02,-5.964155e-01,1.498009e-02,-5.660073e-01,-3.558631e-01,-3.772456e-01,-5.687438e-02,1.224134e-01,-1.075569e-01,-4.992166e-01,-1.128475e-01,3.617884e-03,5.370258e-01,-1.108610e-01,-1.267662e+00,8.819152e-01,3.979830e-03,9.393618e-01,2.180480e-02,-5.228785e-02,-5.271420e-01,
-1.495987e-02,-6.990472e-01,-2.696363e+00,2.619383e-01,-3.070038e-02,-4.195636e-02,-6.781480e-02,-4.359155e-02,-4.963993e-01,1.036738e+00,2.308308e-01,-3.140807e-02,-5.651338e-02,4.781390e-01,1.002625e-01,-3.756938e-02,-1.312093e-02,-3.456731e-02,-4.173100e-02,1.061514e-01,-5.758164e-02,4.149578e-02,-2.343411e-01,-7.603018e-04,-1.522964e-02,-3.897831e-01,-2.143117e-02,-3.972695e-01,-1.985838e-01,-6.627464e-01,-5.409989e-02,3.128168e-02,-1.783343e-02,-1.242991e+00,1.020579e-01,-1.138319e-02,-2.262793e-01,-3.974176e-01,-1.464691e-01,5.754471e-01,3.028372e-02,1.862133e+00,-1.176797e-01,7.093797e-02,2.540708e-01,
3.344958e-02,-5.080870e-02,4.030138e-02,-1.685794e-02,-3.129844e-02,5.116495e-03,-4.153390e-02,-7.434984e-03,-3.174531e-02,-6.224715e-02,2.541723e-02,3.066967e-02,2.736414e-02,-1.615394e-02,1.011533e-02,1.705964e-04,-1.849079e-02,-7.584795e-02,4.074402e-03,-6.815359e-02,-2.672439e-02,-1.066049e-01,-1.728217e-02,-4.494008e-02,-3.477759e-02,1.020503e-02,-3.442477e-02,-3.033834e-02,-3.715918e-02,8.731271e-03,4.994295e-02,2.552804e-03,-5.300855e-02,5.402830e-02,-7.902753e-02,-5.662062e-02,-8.849850e-02,1.422234e-02,2.311020e-02,9.026881e-03,-4.511793e-02,-1.409967e-02,-1.101460e-02,-5.114978e-02,-1.156121e-02,
3.127199e-02,9.174224e-01,8.782006e-02,2.256298e-01,5.978400e-02,2.422073e-02,-4.314191e-01,-3.100072e-02,-9.043254e-01,4.229593e-02,8.445492e-02,-3.880649e-02,-2.859055e-01,-3.517181e-02,-2.406674e-01,-1.358020e-02,-2.369414e-02,2.079527e-01,-4.679357e-02,-3.610233e-01,1.103426e+00,-6.308193e-01,4.669870e-01,-9.289890e-01,-1.458041e-01,9.068036e-01,5.313587e-02,-1.093390e+00,-1.669310e-02,-4.249883e-01,2.269146e-01,-5.026213e-02,3.994963e-01,-1.575362e-01,1.461353e-01,3.676984e-02,-2.064843e-01,2.681055e-02,-1.273108e-02,2.384506e-01,-2.676121e-03,5.775281e-01,-9.342299e-02,-2.352816e-01,8.181893e-01,
-3.439315e-02,-6.286637e-01,-5.028653e-01,-6.119782e-02,-1.577598e-02,-1.936738e-02,-6.013429e-02,-2.391317e-02,2.255143e-01,6.835357e-01,1.358795e-01,2.042112e-03,6.772345e-02,5.987304e-01,7.322935e-02,2.642713e-03,-4.417202e-02,-2.695591e-02,-1.525872e+00,-8.642749e-01,1.037274e-01,-2.206181e-01,-3.194345e-01,6.819465e-02,-1.767849e-01,1.599893e-01,-4.592197e-02,1.644584e-01,5.637841e-02,2.260351e-01,-2.718761e-01,1.069904e-02,7.875879e-02,-1.127439e+00,2.585606e-02,1.058150e-01,2.803390e-01,6.372220e-02,-7.345525e-02,1.239875e+00,4.228548e-02,2.163674e+00,3.258169e-02,-1.057713e-01,-3.907958e-01,
-1.329580e-02,-3.736194e-03,1.695267e-02,-3.612968e-02,-4.898085e-02,-2.503818e-02,3.417449e-02,-1.414536e-02,-3.856629e-02,3.684503e-02,1.246107e-02,-2.797046e-02,-1.702401e-02,-1.893730e-02,-3.422487e-02,-2.577508e-02,-4.699172e-02,-3.418167e-02,-2.545719e-02,2.281337e-02,3.435165e-02,-2.210019e-02,-1.226629e-02,-3.623978e-02,-2.226492e-02,-3.096336e-02,9.188146e-03,1.247430e-02,-4.872148e-02,6.159253e-03,-2.239934e-02,-4.813453e-02,-3.841912e-02,3.755674e-02,-5.068683e-02,-4.951341e-02,2.021836e-02,-4.634812e-02,-2.477217e-02,1.134373e-02,4.304744e-02,4.566320e-03,1.899616e-02,-4.881677e-02,2.770485e-02,
-3.419914e-03,3.060862e-01,3.833086e-01,4.768363e-01,6.013821e-02,-6.087354e-03,-2.670682e-01,-6.321440e-04,-3.436896e-01,-2.755581e-01,-1.614744e-01,1.337878e-02,1.127035e-01,2.523955e-01,-8.684181e-02,-9.354801e-03,-3.021461e-02,1.501261e-01,1.063004e-01,1.554696e-01,-7.151386e-01,-6.053513e-01,4.246186e-01,1.033060e-01,-6.558235e-01,1.378016e-01,-3.942148e-02,-4.096619e-01,-2.408203e-01,8.197568e-01,-2.726419e-01,1.466101e-01,1.749300e-01,-4.156592e-01,2.453085e-01,-1.938792e-01,1.016665e-01,1.652812e-01,-3.368809e-01,4.317768e-02,1.415487e-02,8.010920e-01,-9.402466e-01,-2.509502e-01,3.126504e-01,
2.037598e-03,1.359112e+00,-3.839510e-01,1.538167e+00,2.975014e-02,1.738009e-02,-3.795546e-01,2.184312e-02,2.225834e-01,-1.203350e-02,2.394046e-01,-3.744982e-02,-2.139393e-01,2.592427e-01,4.053971e-01,-2.208747e-02,2.083726e-02,-3.496769e-01,9.140950e-02,-1.380615e-01,9.175385e-01,2.078950e-01,2.694265e-02,-7.393316e-01,1.794414e-03,-1.083729e+00,3.629472e-02,2.002590e-01,1.699253e-01,3.626226e-01,4.307167e-01,1.216050e-01,-5.166646e-01,3.385457e-01,-1.136244e-01,-3.359886e-01,-7.910588e-02,7.684348e-01,5.405930e-01,8.083124e-01,2.901278e-02,7.581788e-01,1.389651e-01,2.442437e-01,-1.131327e-01,
1.493511e-02,-1.614766e+00,-4.878648e-01,-4.291951e-01,6.417406e-02,2.767687e-02,-3.187225e-01,-1.544368e-02,-3.662842e-02,3.728090e-01,3.709846e-01,-3.587782e-02,2.951859e-02,4.708607e-01,-1.331453e-01,-4.432984e-02,2.640944e-02,8.731152e-02,1.984143e-01,-4.197093e-01,-6.160265e-01,-5.540017e-01,2.053537e-01,-4.931339e-01,-4.969027e-01,-7.114378e-02,3.734034e-02,-7.521346e-02,5.997379e-01,7.096778e-01,5.411224e-01,5.803839e-02,-5.981592e-01,1.994595e-01,6.082625e-02,-2.231131e-01,7.178271e-02,5.170879e-01,3.634689e-01,7.965757e-01,-6.900242e-04,9.222399e-01,-5.754115e-02,-4.820032e-02,8.739828e-01,
-1.069264e-02,2.574580e-01,-9.621930e-01,-4.327201e-02,3.836647e-02,-2.659589e-02,-2.664422e-02,6.782940e-03,-2.786650e-02,-3.501331e-02,8.852700e-01,-1.689180e-02,1.311693e-01,7.098052e-01,-8.852605e-02,-2.513670e-02,-4.784555e-02,-4.891488e-02,1.443861e-01,-2.731210e-01,-1.950792e-01,6.147460e-02,2.130297e-01,-2.266647e-01,-1.730539e-01,-2.427509e-01,1.934268e-03,-3.612183e-01,-1.887962e-02,-3.949652e-01,2.022568e-01,1.576593e-02,-4.008614e-01,1.974579e-01,-1.972593e-02,-1.575290e-01,-2.849389e-01,1.534461e-01,-2.958944e-02,8.484043e-01,-3.419145e-02,1.768020e+00,-5.618513e-02,1.777411e-02,5.354792e-01,
1.372021e-02,3.673426e-01,-2.439267e-01,2.195278e-01,-2.753715e-02,-1.445452e-02,-1.544974e-01,-1.861096e-02,-2.491092e-01,3.197487e-01,1.957546e-01,3.598506e-02,3.772293e-01,3.038957e-01,-1.576879e+00,-6.880723e-03,4.064407e-02,-7.503205e-02,-1.480186e-01,-1.778283e-01,-9.181105e-02,-3.884799e-01,-2.313924e-01,-6.244612e-01,-3.174944e-01,-3.238358e-01,1.235190e-02,-7.812179e-01,4.916990e-01,3.766677e-01,-1.264438e-01,6.346847e-02,-1.188556e-01,-1.618255e-01,7.681059e-02,-2.728589e-01,5.482044e-02,1.453022e-01,-7.031335e-02,2.086148e-01,4.764783e-02,3.024051e-01,-2.492615e-01,1.675560e-02,5.117487e-01,
4.230793e-02,5.877616e-01,-4.672059e-01,-1.761534e+00,-1.607678e-02,-1.660471e-02,2.403461e-01,-1.791219e-02,2.149559e-01,2.816736e-01,7.916430e-01,-3.242475e-02,3.878512e-01,9.097315e-01,6.812846e-02,-4.015796e-02,4.979602e-02,2.129335e-01,3.650597e-01,4.056500e-01,5.443552e-01,1.998128e-01,4.107254e-01,2.786967e-01,5.144789e-01,3.627740e-01,-4.377626e-02,8.136357e-02,4.722812e-01,5.543962e-01,2.422964e-01,6.090025e-01,-3.172098e-01,6.907005e-01,-1.821242e+00,1.005611e+00,3.936158e-01,-3.595528e-01,4.474423e-01,4.594009e-01,-3.539110e-02,1.819122e+00,4.739496e-01,1.006327e-01,3.334212e-01,
-3.735719e-02,-1.591074e-01,8.868968e-02,-2.566009e-02,-4.852115e-02,1.094036e-02,-8.978949e-02,4.105418e-02,-2.620571e-01,-1.422625e-01,5.880237e-02,9.970476e-03,5.429893e-02,4.358867e-01,-4.988126e-01,-4.028213e-02,-3.286297e-02,1.111923e-01,3.777521e-02,-3.556126e-01,4.909665e-01,5.925245e-01,6.683894e-01,2.461371e-01,-6.612458e-01,4.439639e-01,-4.702076e-02,-2.127506e-01,-1.061393e-02,4.115050e-01,-1.241432e-01,1.518796e-01,4.400353e-01,-8.049144e-01,2.830076e-01,-3.511991e-01,8.387429e-02,-2.503483e-01,5.059662e-01,1.128365e-01,-4.215491e-02,1.288462e+00,2.452391e-02,1.146219e-01,8.860324e-01,
-7.483715e-03,-4.134098e-02,-3.106542e-02,5.461080e-03,-3.104407e-02,-1.104511e-02,-3.409794e-02,1.862320e-03,-3.578079e-02,-4.520863e-02,-2.074564e-02,1.615085e-02,-1.130870e-03,-2.413564e-02,-4.535443e-02,-4.350060e-02,2.535524e-02,1.684208e-04,-3.537776e-02,2.478455e-02,-5.356318e-02,-3.822397e-02,1.605742e-02,-4.535195e-02,-3.069767e-02,1.508491e-02,-3.340686e-04,-3.837452e-02,-6.263015e-02,3.830352e-02,3.587055e-02,-1.679032e-02,-3.747928e-03,-3.420741e-02,-1.674639e-02,-9.192359e-03,2.580204e-02,-5.751267e-02,-1.818516e-02,-7.231445e-03,-5.286894e-03,2.434280e-02,1.247938e-03,2.508539e-03,4.613983e-03,
4.307130e-02,-2.675173e-02,-1.492593e-02,-2.979513e-02,4.242377e-02,-1.161494e-02,-6.328719e-02,3.988296e-02,8.720616e-03,2.130299e-02,-2.182878e-02,1.090188e-03,-8.954658e-04,-4.932643e-02,-2.619145e-03,1.556003e-02,3.672202e-02,-8.563939e-03,-9.580719e-03,-1.515651e-02,1.513970e-02,-6.429011e-02,1.520338e-02,-8.225358e-03,2.537143e-02,-2.556079e-02,-1.758122e-02,2.077502e-02,-3.284414e-03,-1.892453e-02,1.821173e-02,-1.638446e-02,-9.456315e-03,-3.438788e-02,3.132923e-02,1.517783e-02,4.817594e-03,4.304428e-02,1.238841e-02,-2.375228e-02,4.584579e-02,-2.914982e-02,-4.652881e-02,-4.970593e-02,-3.734437e-02,
2.134489e-02,4.850701e-01,-3.922674e-01,-1.706249e+00,-1.491567e-02,-3.465529e-03,8.119482e-02,-2.107456e-02,8.604763e-02,1.977825e-01,4.195189e-01,2.912746e-02,4.064013e-03,5.929555e-01,-1.381456e-01,-2.699675e-02,6.594339e-03,4.142594e-01,3.422709e-01,6.950428e-01,5.141351e-02,-2.537468e-01,2.972102e-01,5.218522e-02,-3.255700e-02,2.397876e-01,-4.738658e-02,-2.181378e-01,1.407386e-01,3.082274e-01,-2.230490e-01,2.127700e-01,7.191969e-01,3.795733e-01,-1.417206e+00,4.293295e-01,3.686016e-01,-5.037090e-01,2.181370e-01,3.663044e-01,1.733086e-02,1.665129e+00,1.269761e-01,-3.172493e-02,3.099404e-01,
3.946767e-02,-1.951460e-02,-2.940460e-01,2.687344e-01,2.111481e-02,-3.011264e-02,-9.847816e-02,1.993378e-03,1.932787e-01,-1.647649e-01,4.023730e-01,7.382860e-03,2.088330e-01,4.931971e-01,-1.136291e-01,3.146404e-02,2.491673e-02,1.319569e-01,-1.151643e-01,3.321364e-01,-1.501575e-01,1.708828e-01,1.145644e-01,-4.764899e-02,1.408653e-01,4.749426e-01,4.670883e-02,-1.600307e-01,-2.179855e-01,-3.096753e-01,-3.695417e-01,-1.382101e-01,2.646644e-01,1.037163e+00,1.380480e-01,-4.166130e-01,1.688321e-01,-1.968182e-01,1.442522e-01,4.164167e-01,2.431838e-02,1.784513e+00,2.750183e-02,-5.849715e-03,5.076618e-02,
-3.226824e-02,-1.246562e-02,2.060254e-02,-4.994537e-02,-1.202452e-02,3.039924e-02,-2.263505e-02,-2.058984e-02,-4.334218e-02,2.875932e-02,-2.106642e-02,-2.825840e-03,2.755277e-02,1.274896e-02,-8.640416e-03,-4.832409e-02,-3.969378e-02,-9.037213e-03,-2.055610e-02,2.598959e-02,-2.506932e-02,1.356978e-02,9.073243e-03,1.053424e-02,-1.203230e-02,-1.555009e-02,3.257523e-02,-2.395880e-02,3.374699e-02,-7.271220e-03,3.951284e-03,-4.874362e-02,1.344806e-02,-2.670691e-02,1.369943e-02,-3.652191e-02,-2.671801e-02,1.541311e-02,3.172948e-02,-3.965335e-02,-4.447407e-02,5.694230e-03,-3.721149e-02,2.469999e-02,-2.736707e-02,
4.481861e-02,-1.117823e+00,-4.253571e-01,-1.231612e-01,-2.673715e-02,-5.228889e-02,1.653757e-02,1.603388e-02,3.102216e-02,6.978063e-01,6.184939e-01,6.461212e-03,-2.183762e-01,6.679248e-01,-6.749102e-02,-8.199498e-03,3.250013e-02,-1.627815e-01,-1.673417e-01,4.057381e-01,-1.732932e-01,-5.117972e-02,1.636487e-01,1.499667e-01,3.282779e-01,1.734332e-01,-1.041723e-02,5.179759e-01,9.228397e-02,2.318408e-01,3.017422e-02,-2.399782e-02,3.032764e-01,-2.217550e-01,1.318904e-01,1.093933e-01,2.066741e-01,-1.621424e-01,6.050018e-02,3.588570e-01,-3.945201e-02,2.637661e+00,2.531051e-01,5.563207e-02,-9.096711e-01,
3.692444e-02,3.382768e-02,9.897862e-04,-7.633886e-03,3.106240e-02,1.573708e-02,3.094154e-02,-7.237751e-03,-2.578980e-02,-1.532900e-02,-2.160902e-02,5.360117e-04,-3.548681e-02,-1.759555e-02,2.261833e-02,4.316184e-02,-2.864078e-02,2.477682e-02,9.695651e-03,-6.049699e-02,-3.665191e-02,2.520368e-02,-3.491956e-02,3.038918e-02,2.002991e-02,-3.778859e-03,-1.186601e-02,1.437966e-02,-3.060617e-02,-5.450425e-02,-3.441534e-02,-5.935150e-02,-6.684436e-03,-1.477898e-02,-3.033421e-02,2.222191e-02,-4.168001e-02,-3.739446e-03,-2.607916e-02,1.784137e-02,-2.068053e-02,-7.132317e-03,-3.665739e-02,1.154308e-02,-4.533350e-02,
-8.245147e-03,-4.367039e-03,8.789821e-03,-5.104739e-02,3.561976e-02,1.634096e-02,-9.861537e-03,6.231315e-03,-3.399184e-02,-2.340201e-02,-6.005030e-02,4.040413e-02,-4.993851e-02,3.465178e-02,-3.597734e-02,-9.728233e-03,3.726551e-02,-3.999042e-02,3.484840e-02,2.218220e-02,-5.299632e-02,4.086804e-02,-8.698921e-03,-3.494802e-02,-2.607369e-02,4.229958e-03,-1.968418e-02,3.079395e-02,-3.533844e-02,-4.610939e-02,-2.737097e-02,-3.626897e-02,-5.530843e-03,-4.684402e-02,5.240109e-03,-3.988826e-02,4.268965e-02,-1.280469e-02,-3.838785e-02,1.996381e-02,4.714436e-02,-1.958925e-02,-1.485487e-03,-4.496211e-02,1.762108e-02,
8.352813e-04,1.167334e+00,1.747531e-01,1.342553e-01,3.990629e-02,-8.962050e-03,6.489539e-01,4.076280e-02,8.060986e-01,1.692665e-01,2.849859e-01,4.194669e-02,2.126975e-01,-2.319240e-01,1.480916e+00,2.917082e-02,-3.633253e-02,-3.759095e+00,4.288605e-02,1.154878e-01,1.285444e+00,1.543199e+00,-2.460404e-01,5.011100e-01,7.054663e-01,3.364635e-02,2.754986e-02,3.272811e-01,-2.832381e-02,8.985491e-01,2.182790e-01,-1.145828e+00,8.996723e-01,6.279068e-01,1.309699e-01,-5.929323e-01,2.237494e-01,-5.117344e-01,-3.350587e-01,-1.232916e-02,3.423824e-03,-1.128220e+00,-3.773540e-01,1.176598e-01,4.901963e-01,
1.806254e-02,5.135155e-01,-5.515132e-01,1.192136e+00,2.863749e-02,-3.771623e-02,2.020269e-02,-6.358365e-03,6.482220e-02,2.237876e-01,6.080362e-01,-4.144849e-02,4.580888e-01,4.370027e-01,-3.180018e-01,-3.761894e-02,1.471526e-03,3.699937e-01,3.251984e-01,8.838695e-01,-7.792430e-02,-2.198307e-01,6.507413e-01,-5.672852e-02,1.242234e-01,8.910497e-01,-3.889451e-02,-2.343979e-01,1.131445e-01,7.994700e-01,-1.968843e-01,-8.418494e-01,8.769063e-01,7.496983e-01,2.981686e-02,2.676501e-01,-2.833310e-01,-4.707678e-01,6.399121e-02,-3.405183e-02,3.289918e-03,1.485031e+00,5.298887e-01,-2.560317e-01,6.557861e-01,
-3.641369e-03,3.424445e-01,-1.149912e-01,-3.237467e-01,-4.680311e-02,1.876674e-02,1.233621e-01,-5.726378e-03,1.043340e-01,-5.108425e-01,-7.055453e-01,-3.241437e-02,-2.504103e-02,-2.616755e-01,2.711197e-01,4.091855e-02,2.212806e-02,-1.242837e-01,7.729594e-01,-6.036037e-01,3.646439e-01,1.268990e-01,-5.204361e-02,-3.412591e-02,7.043902e-02,4.793527e-01,3.911544e-02,1.315556e-01,-1.463919e-01,2.463523e-01,-2.416691e-01,1.328459e-01,5.532381e-01,6.058756e-01,1.675196e-01,-9.030298e-02,7.864303e-02,2.097619e-01,-2.400436e-01,1.307575e-01,2.132627e-02,1.135558e-01,-9.472551e-02,-2.837583e-01,-1.202614e-01,
-1.106917e-02,4.188014e-01,1.620467e-01,3.130088e-01,-6.254546e-02,-2.914136e-02,3.059609e-01,3.296927e-02,4.055494e-01,3.813410e-01,2.993874e-02,3.443617e-02,-5.721179e-01,3.790884e-01,4.004245e-01,2.359021e-02,1.859282e-02,-1.498825e-02,1.694082e-01,-1.073670e+00,-1.025609e-01,6.135528e-01,-1.012967e-01,-7.894157e-01,-6.233439e-01,-4.956431e-01,4.280119e-02,1.513636e-01,1.908411e-01,1.202769e-01,5.094950e-01,3.531500e-01,-3.511761e-01,-6.665880e-01,-3.897131e-01,3.138862e-01,-2.152278e-01,2.186854e-01,8.976757e-03,1.086184e+00,-1.395434e-02,6.001996e-01,-2.122248e-01,-1.595797e-01,-5.288631e-01,
4.008477e-03,2.044886e-01,-1.382844e-02,-1.002401e-01,-2.323912e-02,-5.952456e-03,3.519118e-01,-2.068044e-02,4.767362e-01,3.400645e-02,2.382652e-01,-1.956091e-02,-7.553828e-01,2.410545e-01,-1.747091e-01,9.172127e-03,-3.420835e-02,-1.117647e-01,1.415344e-01,-6.410025e-02,-6.018113e-01,4.900164e-01,1.463633e-01,-2.910486e-01,-8.224308e-01,7.837241e-01,-4.977872e-02,3.677324e-02,9.350143e-04,5.052278e-02,-1.797620e-01,1.830348e-02,6.518182e-01,4.842359e-01,-6.154579e-02,-3.590260e-01,3.650069e-01,-2.403951e-01,-1.246286e-01,-3.487441e-01,-3.153402e-02,2.991552e-01,1.604122e-01,-1.519687e-01,2.652586e-01,
-9.602421e-03,
2.184604e-01,
3.130627e-01,
1.493416e-01,
8.703037e-02,
-2.373470e-01,
-5.674766e-01,
2.522849e-01,
-3.917919e-02,
-8.342115e-03,
1.974254e-01,
1.521116e-01,
-2.784598e-02,
-3.503158e-02,
-7.187215e-02,
-1.365282e-02,
1.814525e-01,
-7.244764e-02,
-2.361482e-02,
3.325508e-01,
5.840301e-02,
-3.159118e-02,
2.533587e-01,
-1.424082e-01,
-2.179850e-02,
2.608575e-01,
-8.737764e-02,
4.218259e-02,
3.727478e-03,
1.719192e-01,
2.931964e-01,
-1.057518e-01,
-1.752757e-02,
-1.345262e-02,
3.551231e-01,
6.180550e-03,
-1.108465e-02,
-2.403686e-01,
-2.295859e-02,
-1.846978e-02,
-3.227882e-02,
3.748353e-01,
-1.006692e-01,
2.251052e-01,
2.473886e-01,
-1.678759e-02,6.005105e-03,2.466241e-02,1.808357e-02,-4.575644e-02,3.001005e-02,-3.736878e-02,-2.886019e-02,2.084951e-02,4.275489e-03,4.745258e-03,-6.699563e-03,-5.243824e-02,2.396447e-02,-3.452301e-03,-4.159626e-02,-1.875786e-02,-4.803323e-02,-3.377583e-02,-4.701064e-02,1.906525e-02,5.017368e-02,-3.191018e-02,-4.286988e-02,-2.097505e-02,4.852935e-02,2.109512e-02,-4.968422e-02,4.241111e-02,1.393649e-02,-4.790650e-02,-5.585121e-02,-2.355021e-02,4.368051e-02,7.230879e-03,-2.686005e-02,-3.713790e-02,5.283844e-04,4.261127e-02,7.139327e-03,-1.794312e-02,-5.173985e-02,1.600496e-02,-1.809866e-02,2.274162e-03,
-1.291230e-02,1.028825e-01,4.994020e-02,-3.786291e-02,6.413947e-03,1.182381e-01,-3.073624e-01,1.457075e-03,7.852413e-02,-1.296813e-01,-1.981982e-01,-1.544590e-01,-1.437682e-02,-3.362018e-01,1.752860e-01,-4.235396e-02,1.430420e-01,-4.691684e-02,3.990568e-02,3.237292e-01,1.733328e-01,-8.983301e-03,1.589914e-01,1.767726e-01,-7.241057e-03,-2.991288e-01,7.337399e-02,-4.602484e-01,4.058096e-01,1.589864e-02,2.558235e-02,-2.285352e-01,3.940510e-03,-4.116623e-02,2.916107e-02,-1.415078e-01,3.089409e-03,-1.260466e-01,-1.954198e-02,1.562518e-02,4.704340e-01,-1.181014e-01,5.863152e-01,-1.960631e-01,-8.803925e-02,
-2.952018e-03,-9.183254e-02,1.482856e-01,9.687058e-02,5.999402e-02,2.070114e-01,2.168349e-01,-4.218263e-02,-2.881559e-01,-1.557837e-01,-7.624037e-02,2.441322e-01,-9.359316e-04,-7.907038e-01,5.099269e-02,-7.106471e-03,-9.060080e-02,-4.088806e-02,-4.873095e-02,-2.177764e-01,2.029793e-02,1.777459e-02,2.713188e-01,2.042483e-02,-5.944169e-02,3.483226e-01,-4.854199e-01,8.966466e-02,1.678707e-01,-7.585465e-01,-8.020674e-02,3.564635e-02,-3.154385e-02,2.669238e-02,4.425878e-02,2.039283e-01,-1.709308e-02,2.538931e-02,-4.097631e-02,3.229630e-02,2.502452e-01,-3.032970e-02,8.920015e-01,-9.862685e-02,-2.967049e-01,
-2.289994e-02,8.753038e-03,5.819388e-01,-4.396735e-01,5.771995e-02,5.406780e-01,-1.091757e-01,-9.105750e-02,5.255322e-01,4.949480e-02,2.673364e-01,-1.707082e-01,-2.390013e-01,5.005113e-01,8.222359e-04,-2.935664e-02,7.938907e-01,2.774467e-01,9.511796e-03,-6.899042e-01,4.614414e-01,5.446887e-02,-9.373403e-02,1.752648e-01,2.779765e-02,2.970501e-01,-9.668235e-02,-1.697314e-01,4.939628e-01,-4.568930e-01,-2.858045e-01,3.888650e-01,3.879902e-03,-2.810217e-02,-2.694837e-01,-2.955714e-03,-2.074802e-03,1.130498e-01,-2.885228e-02,1.162333e-02,8.842363e-01,-6.133595e-04,8.409877e-02,-1.901758e-01,4.819043e-01,
2.911399e-02,-2.496137e-01,1.292702e-02,3.960045e-01,-2.599128e-01,7.945295e-02,-6.187428e-01,-1.337562e-01,-1.934719e-01,1.212387e-01,-1.533861e-01,6.057878e-01,-3.446795e-01,5.387255e-01,1.564156e-01,3.724373e-02,-1.207833e-01,4.293018e-01,4.851209e-02,7.614386e-01,-9.340239e-01,-5.771238e-04,-7.054637e-01,-2.470398e+00,2.950501e-02,3.204819e-01,6.698914e-02,1.967786e-01,-2.820162e-01,2.720378e-01,9.765182e-02,-4.204483e-01,3.972916e-02,-5.021117e-02,6.976032e-02,-4.587858e-01,1.465966e-02,-7.975345e-01,-1.069125e-02,1.116455e-02,-8.296198e-01,5.209089e-02,4.389700e-01,-2.348929e-02,-4.404027e-01,
-9.865116e-03,-1.736245e-01,2.449869e-01,9.785608e-02,5.787994e-02,1.525030e-01,1.177677e-01,-3.276719e-01,3.967403e-01,6.847406e-01,1.174807e-01,3.962780e-02,4.329634e-02,2.749006e-01,6.074864e-02,7.766372e-03,1.713387e-01,-7.886108e-02,4.082096e-02,-2.662303e-01,2.329645e-01,3.297767e-02,8.711003e-01,3.023005e-01,2.105309e-03,-2.371541e-01,-1.167468e-01,-7.020862e-02,4.110282e-01,-2.992513e-01,-4.873197e-02,-2.008305e-01,1.733806e-02,2.541417e-02,-6.828014e-02,-2.138346e-01,3.046471e-03,-1.436876e-01,-2.828012e-02,-3.195338e-02,1.125030e+00,-4.125796e-01,3.091846e-01,3.791668e-01,6.831639e-01,
-2.991703e-02,5.105486e-01,5.546524e-01,4.980710e-01,6.184508e-01,-3.649026e+00,-9.469339e-02,6.287882e-01,4.437284e-01,-1.188465e+00,2.984673e-01,2.668294e-01,-1.107302e+00,-1.817061e+00,1.822179e-01,-2.745619e-02,2.775734e-02,-3.823879e-01,-3.118793e-02,-7.998457e-02,1.341514e-01,8.697581e-02,1.185218e+00,4.612692e-01,-6.263686e-03,-5.435532e-01,-4.315326e-01,-3.863933e-01,2.437074e-01,-1.879433e+00,3.652348e-01,1.910898e-01,2.734166e-02,-2.578936e-02,3.806639e-01,6.197146e-01,3.578337e-02,2.721520e-01,2.326664e-02,4.002674e-02,-2.797727e+00,7.230489e-01,1.377216e-01,-3.181505e-02,1.418123e-01,
2.309473e-02,-4.826834e-02,-7.132541e-03,3.769121e-02,-9.681794e-03,-7.602572e-03,-1.972417e-02,3.928972e-02,-2.900970e-02,-2.673651e-02,3.005872e-03,-1.214942e-02,-3.316054e-02,1.006715e-02,2.499519e-02,-2.734283e-02,9.334593e-03,3.145873e-02,-3.579226e-02,-2.661146e-03,-1.496011e-02,4.492421e-02,-3.428508e-02,1.450479e-02,-1.930223e-02,-7.837306e-03,-8.260929e-03,-5.177367e-02,-3.217432e-02,6.424832e-03,-6.688495e-03,2.550119e-02,7.804639e-03,-1.873943e-03,-2.750299e-02,-4.471410e-02,3.389741e-02,-2.197935e-03,-4.589325e-02,-1.718504e-03,2.931185e-02,-1.794694e-02,4.378992e-02,-3.559959e-02,1.290158e-02,
2.323108e-02,2.565147e-01,3.419009e-02,4.840341e-01,-3.406129e-03,4.811134e-01,8.473429e-02,4.559061e-02,9.973848e-04,-1.484612e-02,1.015661e-01,-8.272827e-03,3.335671e-01,-1.320470e-01,1.043461e-02,-4.695514e-03,-7.259299e-02,-6.820221e-03,-3.323158e-02,2.072459e-02,1.055341e-01,-2.686240e-02,1.107602e-02,1.564825e-02,5.104514e-02,5.524480e-02,2.111227e-01,-4.484311e-02,4.322834e-02,-3.705233e-02,-7.867544e-01,-1.405373e-02,4.116036e-02,-2.304547e-02,-6.030133e-01,1.822316e-01,3.684752e-02,-1.713636e-02,-4.057456e-02,-2.118043e-02,2.072108e-01,4.695963e-01,-5.394413e-01,-7.887487e-02,-1.095457e-02,
-8.191939e-03,9.869088e-02,1.105663e-02,1.620945e-02,9.478099e-02,4.595024e-02,-1.052507e+00,-2.467163e-02,5.573290e-02,1.444781e-02,3.181465e-02,2.073347e-02,-5.180382e-02,-6.934738e-02,1.811162e-01,-3.132205e-02,-3.959329e-03,1.594178e-02,-1.285978e-02,-3.453723e-02,4.460317e-01,6.996854e-02,-4.403243e-02,5.652506e-01,1.799636e-02,-5.768208e-01,5.590276e-02,1.349459e-02,8.443319e-01,-2.013361e-02,4.805535e-02,4.530491e-03,4.090110e-02,1.676373e-02,-6.767781e-03,1.333848e-01,-3.472926e-04,5.018621e-01,4.293409e-02,1.646298e-02,-6.917199e-02,3.621329e-03,-1.692910e-02,3.380016e-02,-5.308028e-03,
-1.779219e-02,-1.525796e-01,2.182838e-01,-2.730137e-01,-1.014379e-01,2.836469e-01,-2.941502e-01,-4.570815e-02,1.142434e-01,2.293284e-02,1.118582e-01,-1.452648e-01,5.819873e-02,1.428491e-01,-5.928959e-02,3.426677e-02,8.763013e-02,2.136666e-01,-1.203284e-02,3.054985e-02,3.067214e-01,-2.335353e-02,6.462498e-01,6.003680e-02,1.824039e-02,-5.539194e-01,2.714952e-02,-3.313791e-02,7.827562e-02,1.224566e-01,4.192459e-01,2.250587e-01,9.639183e-03,-3.414628e-02,2.497499e-01,-7.659801e-02,-3.515065e-02,7.007929e-03,4.065307e-03,-1.212729e-02,5.612347e-01,-1.448679e-01,-1.116078e-02,-3.243827e-02,-7.093669e-01,
-1.250972e-02,-1.864270e-01,-4.147617e-01,1.050263e-01,1.132488e-01,1.020362e-01,1.589458e-01,-2.722262e-01,2.519088e-02,-5.288667e-01,1.445972e-01,-3.545349e-01,1.309362e-01,-5.150061e-01,-1.155202e-02,-1.854055e-02,2.258590e-01,8.055631e-02,-6.001371e-03,2.136627e-01,1.905679e-01,3.939694e-02,2.569055e-01,1.359523e-01,1.576818e-02,-5.197910e-01,-1.363066e-01,6.622541e-02,9.905956e-02,5.053995e-01,-1.198460e-01,4.934797e-01,1.933269e-02,-3.524467e-02,-1.670580e-02,1.278350e-01,1.643916e-02,2.473620e-01,7.466404e-03,-2.264852e-02,3.262778e-01,4.073114e-02,4.571992e-01,-7.671049e-01,-1.300612e-01,
-8.343520e-03,-2.610263e-03,-2.589472e-01,-5.642416e-02,-3.098343e-02,-6.054563e-03,4.292295e-02,5.965502e-02,6.023957e-02,1.874644e-01,8.236962e-02,9.132027e-02,2.032073e-01,3.525620e-01,-4.790092e-02,-5.300392e-03,-2.909152e-02,2.946467e-02,-3.019123e-02,2.275075e-01,2.571889e-01,3.219733e-02,-9.779125e-02,-1.138460e-01,2.370231e-03,-8.447342e-01,-1.921323e-01,-1.230860e-01,-2.739910e-02,-2.338372e-01,4.058955e-02,-1.837328e-02,-3.050244e-02,-5.776340e-04,3.436019e-02,8.133085e-02,2.336310e-02,1.305373e-02,-1.622382e-02,-1.181777e-02,7.524592e-02,2.419888e-02,5.104133e-01,1.009966e-03,-4.916390e-01,
1.981712e-02,-5.709822e-02,-5.144464e-01,-2.668687e-01,-1.952822e-02,4.686895e-02,-9.459700e-02,6.821401e-02,3.551722e-02,-1.172759e-01,-5.073940e-02,1.400740e-02,8.251887e-03,4.544679e-01,3.727083e-02,3.164545e-02,-3.482414e-01,1.585978e-01,-1.009516e-02,-2.754554e-02,2.015789e-01,-3.100108e-02,5.391459e-03,-1.311214e-01,-2.852345e-02,-8.562487e-02,-7.698108e-03,3.756095e-01,-3.395489e-02,-6.323477e-02,-2.258123e-02,-1.153064e-01,-3.740800e-02,2.377144e-02,-1.002210e-01,-7.142224e-02,2.089739e-02,1.086358e-01,-3.012853e-02,3.563206e-02,-2.423429e-01,-2.170575e-01,1.346364e-01,8.842964e-02,3.643659e-01,
-2.196246e-02,-5.427796e-02,8.403579e-02,-5.660585e-02,-1.301707e-01,1.399327e-02,2.381261e-01,-3.155551e-01,-1.868446e-02,1.684065e-01,-7.945073e-02,-4.245973e-01,-1.935986e-03,1.461251e-01,-8.552950e-02,1.678850e-02,-3.528064e-02,-1.858693e-01,-4.623272e-02,-1.646109e-01,1.425887e-01,-2.572100e-02,3.690656e-01,3.637721e-01,4.699948e-02,1.521240e-01,-1.736926e-01,4.923366e-02,2.741094e-01,6.811210e-01,-1.287384e-02,-2.989024e-01,3.575280e-02,-3.928934e-03,1.360523e-01,2.832479e-02,-1.316808e-02,-3.154649e-01,-3.693027e-02,-2.373573e-02,1.614582e-02,2.086842e-01,5.467376e-01,-3.498113e-01,-1.474439e-01,
-1.455560e-02,-3.461904e-02,-5.598190e-02,-2.775107e-02,-4.238286e-02,-2.167378e-02,5.518125e-02,-7.328622e-03,-2.047033e-02,1.275227e-02,-6.285362e-02,-6.210515e-02,4.111776e-02,-4.401116e-02,-3.767054e-02,1.393590e-02,1.296164e-02,-3.845192e-02,-3.569986e-02,-5.051972e-02,-2.154220e-03,-1.775766e-02,-2.353486e-02,-1.954351e-02,-4.436240e-03,-9.372438e-02,7.072503e-03,-1.397671e-02,-4.552326e-02,8.455779e-04,-4.764101e-02,-7.058334e-02,-9.881858e-03,-5.029083e-02,1.734496e-03,-8.824485e-03,-7.944956e-03,-3.501607e-02,4.718512e-02,-4.219861e-02,8.103034e-03,2.431121e-02,-6.541452e-04,6.894091e-04,-1.502498e-02,
2.626840e-02,-4.960522e-05,-1.301918e-02,-1.251687e-02,-3.194249e-02,-4.649885e-02,-2.335994e-02,1.424772e-02,-2.251982e-02,9.073297e-03,-3.554491e-02,-2.068564e-02,4.290761e-02,-4.301817e-02,2.074349e-02,5.693154e-03,3.845831e-02,-5.590182e-03,-8.260189e-03,-7.444805e-03,-4.330454e-02,1.877778e-02,-9.206280e-03,-7.605677e-03,-3.995087e-02,-3.846747e-02,1.762382e-02,1.974430e-02,-3.573514e-02,-4.538925e-02,-3.409279e-02,3.271157e-02,-2.025096e-02,-2.504070e-02,-4.459171e-02,2.744622e-02,-4.243468e-02,1.256481e-02,2.296646e-02,-4.519383e-02,-2.346934e-03,1.154335e-02,-4.315059e-02,-7.783989e-03,-1.105374e-03,
-3.934545e-02,-5.644532e-02,-8.567658e-03,-2.790101e-01,-1.831030e-01,-1.348714e+00,-3.501194e-01,3.519975e-02,6.144830e-01,-2.822426e-01,2.253700e-01,2.675825e-01,3.254613e-01,2.186848e-01,-5.682707e-02,5.277063e-02,-5.010545e-01,-1.364290e-01,3.764602e-02,-4.913949e-01,6.141939e-01,1.066438e-02,-2.111816e-02,-8.632170e-01,-4.531168e-02,1.237537e+00,9.063540e-01,-5.071768e-01,9.704931e-01,5.412672e-01,-2.277477e-01,-6.127142e-01,-2.430091e-02,-9.548543e-03,-2.237777e-01,3.483888e-01,3.224180e-02,-1.115272e-02,-2.204674e-02,3.582361e-02,5.529060e-01,-1.398515e-01,2.663231e-01,1.861772e-01,-8.908010e-03,
-4.365909e-02,-1.239682e-01,9.294037e-02,-5.308980e-01,-1.387137e-01,1.041659e+00,1.469199e-01,-7.254568e-02,2.490252e-01,4.923892e-01,5.450791e-01,2.951196e-02,-2.057104e-01,-1.811326e-01,4.456173e-02,-4.507835e-02,-6.196948e-01,-1.116208e-02,-3.409456e-02,7.882487e-02,6.938811e-01,3.113727e-02,9.957179e-02,-1.184480e-01,-2.732920e-02,-3.714391e-01,4.661819e-01,-3.839324e-01,2.304182e-01,1.832110e-01,-2.358365e-01,-3.383614e-03,3.084701e-02,1.689606e-02,-2.517073e-01,8.992888e-02,8.640906e-04,2.830252e-01,-1.099335e-03,-1.541050e-03,9.610007e-01,2.574562e-01,2.044501e-01,1.263492e-02,-4.630080e-01,
4.096802e-02,2.829007e-03,-4.400929e-02,-5.969848e-03,-1.056808e-02,-1.806834e-02,-3.829715e-02,-5.312800e-02,2.254841e-02,-3.193902e-03,1.947442e-02,-2.157474e-02,2.722981e-02,-3.503938e-03,3.220131e-02,-1.047620e-02,-6.345735e-02,-4.493251e-02,4.672227e-02,-4.843266e-02,-4.185305e-02,-3.027976e-03,-4.878661e-02,-3.848722e-02,1.294020e-02,-4.599586e-02,-5.169983e-02,1.900191e-02,-4.937463e-02,-5.911156e-02,-5.830441e-02,-5.874468e-02,2.409712e-02,-3.111889e-02,3.653736e-03,2.358530e-03,6.543994e-03,-4.429850e-02,-2.047753e-02,-7.311115e-03,4.394935e-02,9.457801e-03,-3.638589e-03,2.615672e-02,2.305060e-02,
-4.728894e-02,-3.058673e-02,3.618814e-02,5.548525e-02,7.872442e-02,1.986189e-01,-6.995672e-01,2.766699e-01,4.526072e-02,1.014380e-02,-1.943464e-01,-1.537942e-01,-1.849711e-02,-4.389599e-01,5.410171e-01,-7.511460e-03,-2.603476e-01,-1.917772e-01,-9.568015e-03,-1.304957e-01,8.199751e-01,-1.912016e-02,-1.469314e-01,5.028714e-01,2.415708e-03,-2.024646e-01,1.737634e-01,1.181722e-01,2.973709e-01,-5.735916e-01,1.346359e-01,-6.244454e-02,1.913680e-02,3.286951e-02,6.519585e-02,9.800377e-02,-2.013616e-03,5.273317e-01,4.894465e-02,-4.543896e-02,4.074987e-02,-2.559350e-01,1.856092e-01,-5.126659e-02,2.279577e-01,
-1.977691e-02,-6.941787e-02,-1.250914e-01,2.783879e-01,-3.120761e-02,-8.492379e-02,2.600460e-01,-4.252319e-02,-2.586832e-01,2.937575e-01,-9.481920e-02,-7.921287e-02,2.443742e-02,-4.976971e-01,3.236750e-01,-8.645725e-03,-2.619936e-01,-2.564160e-01,4.344572e-02,-5.416299e-01,-8.138605e-02,-4.156201e-02,1.308933e-01,3.283659e-01,3.573922e-02,7.656821e-02,-2.881593e-02,-2.099787e-01,-8.726195e-02,6.776657e-02,-2.790127e-02,4.231101e-01,-1.381904e-02,1.798691e-02,-3.612925e-02,-1.284788e-01,-2.123577e-02,2.391442e-02,-2.590753e-02,1.204644e-02,-1.804808e-02,-3.678034e-02,2.759510e-01,-6.806347e-01,-4.425038e-02,
-9.572088e-03,3.767157e-02,3.450253e-02,1.626222e-02,6.647991e-04,-4.768517e-02,-2.393837e-02,-3.198906e-02,-1.623202e-02,-9.085841e-03,2.945080e-02,-5.241060e-02,-4.059653e-03,-1.347097e-02,1.409411e-02,-3.851936e-02,-4.487541e-02,-3.281507e-02,-2.552364e-02,3.826271e-02,-3.886402e-02,-3.775183e-02,-2.095641e-02,-1.583846e-02,3.523209e-02,-2.059344e-02,3.472064e-03,-2.159191e-02,-1.392419e-02,8.141406e-03,3.390616e-02,-2.125319e-02,3.738961e-02,9.759268e-03,-3.972166e-02,1.611828e-02,2.397585e-02,-1.961057e-02,-4.263411e-02,6.120820e-03,-2.327650e-02,-4.159101e-02,-4.275852e-03,6.370170e-03,-9.462028e-03,
-4.388690e-02,1.089446e+00,7.833738e-01,2.852883e-01,1.135159e+00,-2.706753e+00,3.319316e-02,1.178609e+00,7.815717e-01,4.835382e-01,2.414860e-01,9.526731e-01,-6.161012e+00,1.752724e+00,6.148834e-01,1.468194e-02,-2.678061e-02,1.616723e-01,3.840661e-02,1.026284e+00,-1.519393e-01,1.751224e-02,2.157988e+00,4.858543e-01,-4.276999e-02,7.202649e-01,-1.952327e+00,-5.718588e-01,5.958319e-01,1.312475e+00,9.078364e-01,3.682792e-01,2.686219e-02,4.702326e-02,1.191279e+00,1.213343e+00,-2.946470e-02,5.223458e-01,1.169254e-02,8.307520e-03,-4.461435e+00,1.549718e+00,3.366920e-01,-9.928411e-01,1.710352e+00,
-1.195275e-02,-2.574211e-02,-5.432778e-02,-3.395931e-02,-1.122923e-02,-1.685658e-02,-5.145948e-02,-1.688243e-02,-4.706908e-02,-1.842223e-02,1.495078e-02,3.373881e-02,1.065485e-02,-3.488315e-02,1.751395e-02,-2.724004e-02,1.434745e-02,-1.116294e-02,4.297463e-02,-4.932042e-02,-2.306668e-02,3.659983e-02,-6.086525e-03,-2.491427e-02,-1.970202e-02,1.847954e-02,-1.550160e-02,-2.165150e-02,-4.850772e-02,-2.600957e-02,2.142958e-03,-4.104186e-02,-5.038200e-03,-3.291385e-02,-1.459020e-02,1.425643e-02,3.619070e-02,-2.459659e-02,4.474682e-02,-1.110513e-02,1.938203e-02,-1.241133e-02,-3.214440e-02,1.450568e-02,7.087283e-03,
-2.542889e-02,-2.209104e-01,-1.729211e-01,5.279670e-02,4.917819e-02,5.694097e-02,-1.279796e-01,-9.530079e-02,3.933182e-01,-2.918601e-01,-2.098670e-01,-3.172714e-01,1.286013e-01,1.348465e-01,-4.327029e-01,2.748797e-02,2.708203e-01,5.510220e-01,-1.752304e-02,5.217525e-01,5.563705e-01,2.691784e-02,7.187785e-01,3.101404e-01,-4.989421e-03,6.064823e-01,-2.826595e-01,-1.439779e-01,5.444776e-01,-3.211609e-01,-2.250788e-01,8.599938e-02,-3.518316e-02,2.532763e-02,1.001074e-01,2.590395e-02,1.262606e-02,-3.397979e-01,1.393952e-02,3.681330e-02,4.969567e-01,-1.182069e-01,-4.520352e-02,-1.741792e-01,2.343206e-01,
1.349280e-02,-3.141870e-03,-3.600889e-02,-4.490362e-02,-3.883694e-02,-3.997533e-02,3.819320e-02,-4.565027e-02,2.584293e-03,5.403072e-05,-3.530766e-02,3.148541e-02,-2.054055e-02,2.862266e-03,3.764577e-02,-5.379458e-03,1.747634e-02,3.352010e-02,2.784664e-02,1.383930e-02,-5.354823e-02,9.108350e-03,3.515162e-02,-8.480003e-03,1.049206e-02,-2.989130e-02,3.958719e-04,-5.335082e-02,-5.053847e-02,3.767876e-02,-2.823194e-02,1.529814e-02,-3.117912e-04,4.755456e-02,-3.838633e-02,4.503280e-03,8.252563e-03,-5.473481e-02,-2.967439e-02,-3.050916e-02,-1.112201e-02,1.521539e-02,2.751957e-02,1.953662e-02,9.224542e-03,
2.091607e-02,1.631029e-01,-5.622072e-02,-1.582492e-01,-5.119169e-02,2.774767e-01,1.849483e-01,5.767893e-02,-7.612681e-02,8.435102e-01,2.275361e-01,-1.840633e-01,-3.378729e-03,1.186407e+00,-6.988032e-02,-2.343818e-02,8.567540e-02,-4.790829e-02,-2.659963e-03,3.482921e-01,4.453654e-01,1.699674e-02,-4.339772e-01,2.973484e-01,-6.932186e-03,-9.877020e-02,-3.697739e-01,-1.137749e-01,2.726864e-01,-1.186456e+00,-1.227343e-01,-4.038468e-01,2.797027e-02,1.491340e-02,2.115344e-02,-3.385287e-02,-2.688495e-02,-3.558728e-01,4.186073e-02,-4.369429e-02,4.716380e-01,1.063530e-02,2.318309e-01,-1.985606e-01,-7.977340e-02,
-1.660917e-02,-4.555510e-01,9.503313e-01,-4.019040e-01,-1.178736e-02,2.315456e-01,-5.508680e-01,1.651675e-01,-3.517699e-01,1.234709e-01,-4.760729e-02,-4.454142e-01,3.839891e-01,-5.100112e-01,-1.779233e-01,-1.555440e-02,1.909510e-01,5.007600e-01,-2.735499e-02,5.319278e-01,-5.525875e-02,5.017120e-02,7.584678e-02,-9.223226e-01,-4.276708e-02,1.583867e+00,5.952545e-01,3.280722e-01,2.039788e-02,-2.297714e-01,9.267391e-02,-9.861161e-01,-4.347143e-02,-8.625736e-03,4.123780e-01,-4.424673e-01,-1.546176e-02,-1.593114e-01,-1.801472e-02,3.425968e-02,2.335803e-01,-2.316386e-01,1.021630e-01,2.426410e-01,3.240474e-01,
4.322167e-02,-1.465663e-01,6.065716e-01,2.887652e-01,-1.296747e-01,8.916406e-02,1.662150e-01,-4.248086e-01,4.925805e-01,1.016945e+00,3.194823e-02,3.333035e-01,-2.706983e-01,8.587734e-02,1.913745e-01,-4.293364e-02,5.875563e-01,-5.648456e-01,1.188838e-03,-1.702932e-01,-1.347647e+00,-2.252502e-02,4.514130e-01,1.302494e-01,2.579741e-02,3.165903e-01,-3.902928e-01,7.124507e-01,5.423165e-01,1.470778e+00,-5.237319e-01,4.109425e-01,3.852702e-02,-3.881099e-02,-2.700742e-01,2.641326e-01,-5.136297e-03,1.932361e-01,3.548681e-02,3.727318e-02,1.316610e+00,-1.059366e-01,-3.233122e-01,-4.798801e-01,6.255956e-01,
-1.345777e-02,7.209928e-02,1.279198e-03,8.391868e-02,5.192966e-02,5.434810e-03,-6.916384e-02,4.169824e-02,-6.295570e-02,1.410363e-01,3.165644e-02,1.028500e-01,4.170673e-03,6.801759e-03,4.582986e-02,-2.797153e-03,-1.208817e-01,-3.060210e-02,-1.562796e-02,-5.395069e-02,6.692869e-02,1.672434e-02,-1.524824e-01,1.678721e-01,4.873707e-02,-8.712265e-02,2.611409e-02,-7.547095e-02,-8.194155e-02,-3.224407e-01,4.047450e-02,1.476900e-01,3.302578e-03,-1.374966e-02,8.323969e-04,3.001939e-02,3.153843e-02,-9.327918e-02,4.061465e-02,4.220510e-02,-2.984680e-01,-2.441677e-02,4.105414e-02,-4.703765e-02,4.913073e-02,
1.517624e-02,3.037760e-01,1.573195e-01,4.255507e-01,1.352162e-02,2.837980e-02,-5.867470e-01,7.839063e-02,-4.135476e-02,2.543104e-01,-1.691666e-01,-1.689234e-01,3.344945e-01,6.650963e-01,9.188551e-02,9.419491e-03,4.139152e-01,-3.510591e-02,-4.181477e-02,-3.331610e-02,-1.894774e-01,2.968324e-02,4.103287e-01,7.396268e-02,-5.289537e-02,-3.245923e-01,1.574288e-01,-2.728053e-02,8.254263e-02,2.201788e-02,-5.500405e-01,9.268516e-02,-3.129004e-02,1.127823e-02,-2.422678e-01,2.762913e-01,-3.109284e-02,1.586858e-01,1.579631e-02,-2.154567e-02,-8.396346e-01,4.307069e-01,1.348643e-01,-1.965296e-01,-3.390629e-01,
3.517731e-02,-5.102121e-02,-1.122209e-02,-3.326795e-02,-1.257779e-02,-3.260617e-02,5.081079e-03,-8.128400e-03,-2.542933e-02,-2.522195e-02,-1.378345e-03,9.771069e-03,-6.198579e-02,-1.401391e-02,-5.180934e-03,-2.000224e-02,-4.209058e-02,2.563943e-02,-7.588763e-03,-2.391956e-02,-4.559525e-03,-2.221709e-02,6.378664e-03,-3.581029e-02,2.490756e-02,4.958065e-03,3.369486e-02,8.236674e-04,-3.387957e-02,-2.268952e-02,9.702916e-03,8.692904e-03,3.146439e-02,3.878632e-02,-2.794583e-02,1.577151e-02,-3.806429e-02,2.653507e-02,-4.238331e-02,4.909309e-02,1.121635e-02,-4.056059e-02,4.443236e-02,-4.250271e-02,3.467431e-02,
-3.748908e-02,1.862155e-01,-1.087310e-01,-4.714565e-01,-4.174859e-02,4.462885e-01,-1.613238e-01,-7.398435e-02,7.106560e-02,9.116876e-02,2.652355e-01,-3.583820e-01,6.363821e-01,-4.735027e-01,-3.168306e-01,1.879617e-02,-1.885386e-01,-1.981326e-01,1.212850e-02,8.109819e-03,5.063301e-01,-3.198942e-02,-3.620139e-01,5.035919e-02,-5.252712e-02,-2.705121e-01,1.069061e-01,-1.058862e-01,2.348366e-01,-4.319381e-01,3.442971e-03,1.975690e-01,1.159256e-02,1.518545e-02,-4.318749e-02,1.153637e-01,-2.582499e-02,6.769346e-02,-3.701546e-02,5.306023e-03,5.260212e-02,9.995146e-02,-2.866794e-01,2.352628e-01,2.720191e-01,
3.220858e-02,-3.650689e-02,-1.702972e-01,-1.128073e-01,-4.042132e-02,4.679868e-02,2.281421e-01,-1.501071e-01,7.181607e-04,2.626977e-01,-5.392566e-01,-1.019612e-01,1.080283e-01,-1.045216e-01,-1.222367e-01,5.064307e-02,1.467840e-01,-1.771343e-01,-9.389794e-03,-3.664434e-02,-1.168515e-01,-8.847196e-02,-5.889863e-03,-9.287633e-02,1.743915e-02,-6.875293e-02,-1.015800e-01,-1.219969e-01,2.683652e-01,-3.972649e-01,-3.558551e-01,1.493821e-01,-1.756751e-02,-1.159144e-02,-2.658039e-02,2.149291e-01,4.032629e-02,3.544366e-01,-2.563627e-03,-3.797900e-02,5.282473e-02,7.824783e-02,5.834504e-03,3.441104e-01,8.554934e-01,
1.385920e-02,2.036356e-01,-1.025327e+00,-7.985091e-02,-9.580898e-01,1.072622e-01,-1.071214e-01,-5.024095e-01,5.210500e-01,-2.809328e-01,2.110341e-02,4.199793e-01,4.499385e-02,7.824127e-01,-9.894115e-02,1.855178e-02,8.377048e-01,7.424504e-01,2.344745e-02,-3.307023e-01,-1.028981e+00,-2.804400e-02,1.911718e-01,-1.045263e+00,-3.090509e-02,-3.844412e-01,2.595768e-02,-1.300699e-01,3.635961e-01,1.230333e+00,-1.369399e-01,-1.256304e-01,4.939376e-02,-3.888307e-02,6.828795e-02,5.378101e-02,1.155587e-02,1.263743e-01,3.215408e-03,-2.558052e-02,1.022452e+00,-9.853372e-02,-9.664569e-01,7.757707e-02,-3.538745e-01,
-2.450178e-02,-1.695400e-01,-1.185069e-02,-1.644633e-01,-4.527828e-01,2.730019e-02,2.781595e-01,1.556994e-01,2.191639e-01,-9.119639e-01,-3.070836e-01,-1.590542e-01,1.068871e-01,4.805011e-01,-1.028139e-01,1.873588e-02,-4.855825e-01,-9.094806e-02,3.873474e-02,7.215547e-02,7.416742e-01,6.561270e-02,-3.695210e-01,3.122813e-01,-6.242257e-02,5.511166e-02,-1.932214e-01,-3.114840e-01,5.189210e-01,3.102817e-01,-9.111916e-02,1.214305e-01,-1.970747e-02,1.068468e-02,-2.495773e-03,1.726001e-03,5.686291e-02,2.394661e-01,4.472010e-02,-4.624818e-03,3.044237e-01,-3.343977e-02,5.370215e-01,-1.827922e-01,4.642561e-01,
4.719436e-02,-5.464483e-01,-2.996980e-01,-1.075147e-01,9.151404e-02,2.680375e-01,-2.909939e-02,1.757762e-01,-6.871796e-02,-4.849620e-01,-1.912154e-01,-1.069932e-02,-4.892479e-02,-1.156427e+00,4.986823e-02,8.393693e-03,3.200053e-02,-2.166623e-01,2.307381e-02,-3.137664e-01,-4.596189e-02,4.284192e-02,6.858968e-01,5.312905e-02,-8.896244e-03,-4.166615e-01,1.150943e-01,2.228020e-01,3.541369e-01,1.399499e+00,-1.076756e-01,1.292885e-02,-3.296602e-02,-8.871846e-03,-2.240004e-02,-1.833240e-01,3.119105e-02,7.037419e-02,-5.095472e-03,-1.020015e-02,5.870668e-01,-8.129742e-02,-1.040388e-01,4.012256e-01,9.787558e-01,
-2.069885e-02,-2.908392e-02,-1.497088e-02,-7.339942e-03,2.179087e-02,-5.956587e-02,2.848719e-02,1.670683e-02,-3.572689e-02,-4.206973e-03,-9.000570e-03,6.551683e-03,-7.143281e-02,3.648721e-02,-3.744914e-02,-1.581538e-02,-4.187078e-02,9.652177e-04,-4.163842e-02,-2.733791e-02,-4.618662e-02,5.807085e-04,-5.781618e-02,-4.490820e-02,-2.022282e-02,-3.415207e-02,2.090263e-02,-4.531403e-02,-6.209123e-02,-9.305845e-03,5.303180e-03,-3.399701e-02,-2.906588e-02,-4.790807e-02,-9.878038e-03,-3.086913e-02,4.182407e-02,-4.245907e-02,1.504694e-02,9.420109e-03,-8.542356e-03,-6.453580e-02,-3.332431e-02,3.479182e-02,5.361225e-03,
-3.662710e-02,-1.145368e-01,-1.853384e-01,1.487606e-01,-1.563227e-02,5.157367e-02,-1.629794e-01,3.302085e-01,-3.450102e-02,4.647532e-01,-2.890098e-02,-6.115594e-03,-1.538166e-03,-1.908389e-01,-1.342503e-01,-3.506502e-02,-4.331389e-01,-2.767828e-01,2.265970e-02,-4.878684e-01,2.444940e-02,-6.137240e-02,6.458734e-01,-1.293726e-01,2.940455e-02,-2.358579e-01,-6.452572e-02,2.260695e-02,3.977032e-01,-7.475914e-02,-1.366880e-01,-1.719189e-01,-3.188884e-02,2.658873e-02,-2.919209e-02,1.497214e-01,-1.546456e-02,5.817851e-02,4.376035e-02,-3.277789e-03,2.322633e-01,-1.928253e-01,1.164328e-01,3.226992e-01,1.576629e-01,
-2.752775e-03,-3.169072e-02,2.451858e-02,2.071954e-02,-6.303224e-02,-5.610049e-02,3.758718e-03,-2.680376e-02,1.253735e-02,3.516024e-02,-2.738036e-02,-5.340522e-02,-4.149421e-02,-6.011892e-03,2.597976e-02,-3.937523e-02,4.187603e-03,-2.084577e-02,4.154895e-02,-2.032445e-02,1.089106e-02,-3.759038e-02,1.248529e-02,2.780874e-02,-2.826418e-02,-3.235078e-02,2.825697e-02,-1.150172e-02,7.635305e-03,1.138979e-02,-4.308908e-02,-3.718678e-02,5.998565e-03,6.861121e-03,1.979393e-02,-9.594317e-03,2.454072e-02,-4.200169e-02,4.543277e-02,-4.483730e-02,-1.463330e-02,1.209227e-02,2.808692e-02,-2.688528e-02,-4.572538e-02,
-4.078613e-02,-1.995911e-03,2.649826e-02,-2.978469e-04,2.771209e-03,-3.577184e-02,-1.112169e-02,-3.197154e-02,-1.062291e-02,-1.773042e-02,-1.517624e-02,2.581639e-03,2.904263e-03,1.180998e-02,2.511490e-02,-4.234591e-03,4.908241e-03,-5.016572e-02,1.674310e-03,-2.372182e-02,-2.519781e-02,-3.825370e-04,1.694998e-02,1.455641e-02,-3.277062e-02,2.973795e-02,2.437194e-03,-6.980965e-03,-2.591128e-02,-2.747677e-02,1.921485e-02,1.725659e-02,-4.145718e-03,-2.107886e-02,-5.184689e-02,-3.449477e-02,1.111229e-02,-2.134864e-02,2.148904e-03,2.377261e-02,2.918738e-02,7.492710e-03,3.499221e-03,-1.159118e-02,-3.459759e-02,
5.112353e-03,-4.678762e-02,-3.513905e-01,-1.019510e-01,8.637225e-02,3.241969e-01,-2.146073e-01,-8.522274e-02,-1.262557e-01,8.689662e-02,1.291047e-01,-4.424741e-01,-2.834728e-03,-4.561752e-01,-1.218301e-01,3.519637e-02,-4.034472e-01,-1.826001e-01,-1.150197e-02,-3.048018e-01,3.633069e-01,-4.431976e-03,2.498458e-01,3.847949e-01,-4.112853e-02,-5.531645e-01,-2.064635e-01,-7.332879e-02,3.675527e-01,-3.510439e-01,1.493305e-02,4.497877e-01,-1.848341e-03,4.764539e-03,-7.741181e-02,1.372155e-01,1.761623e-02,-3.795610e-02,5.444142e-02,3.742029e-02,5.209832e-01,5.439702e-02,6.345409e-01,-1.406524e-01,2.525631e-01,
4.634508e-02,2.500229e-02,-2.495132e-01,1.444629e-01,-3.059420e-01,1.471760e-01,2.089203e-03,-4.914518e-01,2.274935e-01,-2.355111e-01,4.867223e-01,-1.815402e-01,-8.727493e-02,-1.001417e-01,-1.445815e-01,2.089907e-03,7.813999e-01,-2.212058e-01,-3.782438e-02,-4.305390e-02,8.156309e-01,4.897939e-02,-9.374433e-02,9.644496e-02,-3.592763e-02,-3.689377e-01,-7.740951e-02,4.654048e-01,1.057950e-01,6.677475e-01,-3.008872e-01,-5.603426e-02,-1.678154e-03,-4.247791e-02,3.322893e-01,-2.560938e-02,4.367717e-02,-1.193582e-01,-3.183304e-02,-3.629860e-02,1.385434e-01,2.033192e-01,1.453232e-01,9.166932e-02,7.071253e-01,
2.806711e-02,1.399487e-03,-1.941002e-03,-5.760889e-03,1.005628e-02,1.536384e-02,-4.876195e-02,-7.640864e-03,-1.631502e-02,1.507610e-02,2.057381e-02,-3.323830e-02,-3.088005e-02,-8.305907e-03,-1.199770e-02,-4.747648e-02,-3.372329e-02,-3.676349e-02,4.193005e-03,1.107828e-02,-1.633069e-02,2.938128e-02,-3.788204e-02,-3.667277e-02,-5.037817e-02,-1.059275e-02,5.925007e-04,-5.275140e-02,5.379459e-04,-9.038599e-03,-6.179156e-02,1.901532e-02,4.841315e-02,2.740346e-02,-4.137845e-02,-3.672140e-03,-2.383642e-02,-4.025906e-02,-1.451223e-03,3.201289e-02,2.984607e-02,-3.950847e-02,2.928100e-02,-3.413199e-02,3.524014e-02,
-1.395852e-02,
3.141792e-02,
1.022751e-01,
2.128483e-01,
-6.139671e-02,
8.166850e-02,
8.718351e-01,
-1.959459e-02,
4.122177e-01,
-3.403724e-01,
-7.815503e-02,
3.164420e-01,
-3.439807e-02,
1.212852e-01,
1.572625e-02,
-8.755306e-03,
-1.504007e-02,
2.947934e-01,
-8.545052e-02,
-1.590053e-02,
-1.732398e-02,
1.939525e-01,
-8.837149e-03,
1.608126e+00,
-9.410685e-03,
1.523523e-01,
-1.251239e-02,
2.295719e-01,
2.557544e-01,
1.347419e-03,
-6.695395e-02,
1.935661e-01,
-1.359883e-02,
1.489464e-01,
1.363562e-01,
7.961934e-02,
3.286481e-01,
-2.547765e-01,
-1.654434e-02,
-8.783273e-02,
-1.706072e-02,
-2.382831e-02,
-7.745355e-03,
5.560662e-02,
-1.334425e-02,
1.004375e-02,3.896181e-02,-4.089995e-02,2.907722e-02,2.359887e-02,-1.260088e-02,-3.350667e-02,-2.453393e-02,4.109420e-03,5.235390e-03,2.245874e-02,-4.598358e-02,-1.986171e-02,1.361755e-02,7.617170e-03,-2.276391e-02,-2.992686e-02,-5.860493e-02,-2.773079e-02,4.314588e-02,-5.042317e-02,-1.715272e-02,-1.959028e-02,-2.179240e-02,1.393652e-02,-2.965706e-03,3.408153e-02,-2.080125e-02,-6.672736e-03,3.766498e-02,3.099922e-02,-1.409198e-03,4.521713e-02,-5.127518e-02,1.099841e-02,-1.011930e-02,3.368893e-02,9.433030e-03,3.150216e-02,-5.529353e-02,9.545193e-03,4.502988e-02,-1.188172e-02,-4.032972e-02,3.634483e-02,
-3.809321e-02,1.877299e-01,-2.381251e-01,-8.809125e-02,-6.309845e-02,-3.592900e-01,2.912967e-02,4.641786e-02,6.282609e-02,-3.637273e+00,-2.004602e-01,2.198118e-01,-1.610689e-01,-2.872269e-01,5.161928e-02,-1.990026e-02,2.574823e-02,1.757442e-01,-1.019370e-01,2.967124e-02,-5.530792e-01,-6.007283e-01,2.924946e-02,-1.123866e-02,-4.142382e-02,1.076302e+00,3.358611e-02,-8.490753e-02,6.790540e-01,7.049143e-02,-1.605474e-02,2.462118e-02,-1.639001e-02,-6.072952e-01,-5.771930e-01,8.627722e-03,-1.580083e-01,3.661877e-02,1.193540e-02,4.624591e-01,-4.463265e-03,3.903536e-02,-3.557059e-01,1.120708e-01,-2.516126e-02,
-1.279959e-02,2.914374e-01,1.510953e+00,1.053301e+00,1.670869e+00,-2.157966e-01,4.028326e-02,8.768567e-04,-3.749226e-03,4.312067e-01,2.493800e-01,-6.150996e-02,1.520113e-01,8.153265e-01,-5.408807e-01,2.429124e-02,-4.670232e-02,-1.951296e+00,1.642904e-01,-2.545815e-02,-2.898234e-01,8.231667e-01,-2.139047e-03,-1.922580e-02,3.739353e-02,-9.662405e-01,8.168180e-03,1.060334e-01,-2.387465e-01,4.484518e-01,2.494491e-01,1.843373e-01,2.498395e-03,-7.936831e-01,-2.622586e+00,5.513430e-02,5.582661e-01,-1.142664e-01,4.806755e-02,8.931861e-01,4.174801e-02,-2.419561e-02,1.034115e+00,-2.059390e+00,2.555051e-02,
-6.614940e-03,2.939525e-01,1.675217e-01,1.120042e-01,9.514696e-01,-1.580639e-01,2.810334e-03,2.946000e-02,3.141679e-02,-1.935557e-02,6.331961e-01,6.007172e-01,-2.928112e-02,-9.803886e-02,5.841289e-01,4.017619e-02,-3.607539e-02,1.771376e-01,3.620850e-01,-3.170786e-02,-1.879280e-01,5.384983e-01,-2.514255e-02,-8.598726e-03,1.623126e-02,1.818484e-01,-4.047139e-03,2.544310e-01,-1.253456e-01,-3.585551e-01,7.010804e-02,1.612328e-01,3.358356e-02,-1.927773e-01,-8.612944e-01,-6.301637e-01,6.730203e-02,-4.574932e-01,2.168030e-02,1.478046e-01,-3.777055e-02,3.537598e-02,-1.835061e-01,-1.094233e+00,-4.187164e-02,
-2.892720e-02,7.467773e-01,-1.312841e+00,8.218667e-02,8.902861e-01,-8.702289e-02,2.223376e-04,-2.063400e-02,-5.526720e-01,2.570172e-02,1.854155e-01,7.647750e-03,3.701875e-01,-6.478282e-01,9.974173e-01,2.214329e-02,3.670085e-02,1.394462e-01,5.195872e-01,-3.456309e-02,-6.677608e-01,-6.533231e-01,1.337623e-02,1.924301e-02,2.294575e-04,-2.284396e-01,3.891400e-02,-2.680555e-01,5.698404e-02,1.976635e-01,2.379914e-01,-1.542591e-02,-2.287200e-02,-1.459416e-01,3.972768e-01,-4.984600e-01,1.294648e+00,-3.104795e-01,-4.143430e-02,-7.889847e-01,-4.406460e-02,-3.327034e-02,-7.843174e-01,-9.093841e-01,-1.788144e-02,
-1.291579e-03,-8.983216e-02,9.014548e-04,2.168695e-02,-2.154093e-01,-1.503709e-01,2.132181e-02,2.970953e-02,-1.770573e-01,3.145587e-01,-1.504332e-02,-1.736654e-02,2.177088e-01,-3.123488e-01,5.743345e-01,9.492594e-03,4.468624e-02,-2.287002e-02,7.003113e-02,-1.412765e-03,2.194029e-01,1.319626e-01,-3.758539e-02,-1.865355e-02,-2.153885e-02,3.280376e-01,3.333461e-02,-5.803381e-03,-3.376694e-02,-1.546480e-01,-2.973426e-02,2.092234e-01,-2.441795e-02,2.269635e-03,-1.115506e-01,-1.072595e-01,2.237576e-01,6.617352e-02,-3.803187e-03,7.487782e-01,-4.004058e-02,-4.425486e-02,5.204610e-01,1.889186e-01,1.870649e-02,
-1.100131e-02,-3.183702e-02,3.115361e-01,1.222493e-01,1.354515e-01,-2.087438e-02,3.963748e-02,6.213482e-03,3.605678e-02,-5.260032e+00,-3.929492e-02,1.434379e-01,3.974443e-02,9.716988e-02,4.161829e-01,-3.085021e-03,5.136241e-02,-2.418752e-02,1.100131e-04,-2.946127e-02,-3.154963e-01,1.682205e-01,-2.061955e-02,-4.428756e-03,2.180277e-02,2.948052e-02,4.105645e-02,1.276471e-01,1.127533e-01,1.773759e-01,2.566795e-02,-2.901120e-02,-1.999415e-02,-3.650020e-02,1.146894e-01,-2.852126e-02,1.804593e-01,1.505230e-03,-4.904766e-02,-6.949385e-02,-8.244620e-03,-2.537488e-02,2.433674e-01,9.286059e-02,-2.573273e-02,
1.194211e-02,4.237926e-01,1.456048e-01,2.709621e-01,-7.361282e-02,-6.768956e-01,6.090095e-02,6.799114e-03,-1.607954e-02,2.946168e-01,-4.840358e-01,-4.611305e-02,8.790863e-02,-5.539274e-01,-9.495023e-01,1.933474e-02,1.036378e-02,2.769670e-01,-2.711039e-01,3.390188e-02,-9.253217e-02,-1.181157e-01,1.948826e-02,-1.860149e-02,1.762383e-03,-1.314434e-01,2.130781e-02,2.093245e-01,1.749615e-01,3.797989e-02,-1.356893e-02,-1.345356e-01,-2.701113e-02,7.784565e-02,9.291131e-02,5.984279e-01,-8.101200e-01,1.585543e-01,-1.640388e-02,5.412517e-01,4.219283e-02,-4.954479e-03,-2.232736e-01,7.456735e-01,-6.080573e-03,
2.846460e-02,2.135680e-01,7.927984e-01,3.088234e-01,3.519149e-01,1.712150e-01,3.307120e-01,-4.810072e-03,-6.767879e-02,-4.669514e-02,2.202896e-01,5.407444e-01,1.500351e-01,9.123341e-02,5.939608e-01,-8.503307e-03,-3.848940e-02,3.427663e-01,6.114674e-02,1.514900e-02,1.860712e-01,-5.625306e-02,-2.022430e-02,-2.444143e-02,5.031440e-02,1.287903e-01,-2.887974e-02,3.694695e-01,3.679771e-02,9.289095e-01,4.120693e-03,9.244384e-02,4.550328e-03,1.094646e-01,4.029502e-01,-1.006716e-01,4.630959e-01,-1.476454e-01,-5.545083e-03,2.656267e-01,5.312979e-02,4.141368e-02,5.515304e-01,2.632353e-01,-2.969594e-02,
-3.686621e-03,1.204042e-01,4.800251e-01,-2.077443e-01,7.244900e-01,6.612276e-02,1.850519e-02,-2.380324e-02,-4.349121e-02,1.006711e-01,2.052128e-01,-5.685733e-02,1.887803e-01,2.039799e-01,-2.195926e-01,-4.132770e-02,-1.085725e-02,7.874424e-01,2.202221e-01,-4.744238e-02,-8.267834e-02,-3.280465e-01,3.181354e-02,-7.790897e-03,-2.560465e-02,-4.876937e-02,1.630369e-02,5.901723e-02,-2.503323e-01,2.492874e-01,-1.440341e-01,3.639948e-02,2.622236e-02,1.069583e-01,3.278488e-01,-4.361280e-01,-5.990226e-03,-2.527489e-01,-4.321400e-02,1.804365e-01,-3.988462e-02,-2.655383e-02,-6.601903e-01,-3.823841e-01,-5.629057e-03,
5.142363e-02,9.089260e-03,-2.937601e-01,-1.967352e-02,5.383838e-02,1.448439e-01,-2.283250e-02,-4.640869e-02,-7.810304e-02,2.273156e+00,2.494528e-02,-2.001906e-02,-1.959749e-01,-1.562566e-02,-3.446180e-01,-1.878003e-02,3.018377e-02,-3.187443e-01,-1.272718e-02,-8.153451e-03,4.561138e-01,-1.085843e-01,3.264222e-02,2.022843e-02,5.544469e-03,1.182001e-01,1.405860e-02,-1.677802e-01,-9.303432e-02,-2.115653e-01,3.786495e-02,6.324186e-02,1.411323e-02,1.320967e-01,1.145115e-02,-2.156821e-01,-1.520038e-02,1.761720e-01,-4.030276e-02,-7.230569e-01,-6.299067e-05,4.862534e-02,5.412853e-02,2.757086e-03,-2.989575e-03,
-3.898883e-02,-7.514912e-01,-4.676695e-01,-1.505011e-01,7.235696e-01,-1.111273e-01,-1.211347e-01,-4.091541e-02,6.243679e-02,1.716796e-01,-7.200840e-01,1.087435e-01,-6.157385e-01,-2.047313e-01,1.621381e-01,-6.148225e-02,-3.249567e-02,-3.466029e-01,-1.739625e-01,-4.652294e-02,1.264925e-01,-1.720519e-01,3.981557e-02,6.006891e-02,-4.825383e-02,1.224445e-01,2.249250e-02,-4.688917e-01,2.200402e-01,-1.556099e-01,1.233614e-01,-4.613607e-01,1.600386e-02,9.857970e-02,1.589464e-01,1.193389e-01,-1.665787e-01,-7.459173e-02,-2.446782e-02,3.653665e-02,1.353621e-02,3.121655e-02,7.982156e-01,8.792810e-01,-2.998843e-02,
4.237319e-02,5.206466e-01,-9.841076e-02,1.059400e-01,-1.458750e+00,-4.640969e-01,1.956236e-01,-6.439505e-03,2.219911e-01,1.290873e-03,4.964880e-01,9.330668e-01,-2.852317e-01,-2.074246e+00,1.182364e+00,3.153618e-02,4.587467e-02,7.083162e-02,-1.701265e-01,1.767927e-02,-1.863408e-01,-2.872010e-01,2.276512e-02,-9.122726e-02,3.080613e-02,9.217824e-01,-7.885090e-03,8.208404e-02,-3.886935e-01,1.089536e-01,1.039300e-01,4.478486e-01,-1.778076e-02,-3.607656e-01,-1.168511e+00,-8.976565e-01,-4.355163e-02,1.250801e-01,3.727141e-02,1.165990e+00,-2.744538e-02,-1.438442e-02,-1.039129e-02,-5.798281e-01,-2.865187e-02,
-2.308285e-02,-1.333967e-01,-3.092420e-01,-5.953863e-02,-4.627383e-01,-3.209197e-01,-4.429727e-01,-1.540950e-03,4.337208e-01,2.590646e-01,-3.509272e-01,1.356882e-01,1.578436e-01,-3.563033e-01,-7.790110e-01,7.270904e-02,3.415455e-02,-1.267021e-02,2.399804e-01,1.691491e-02,-1.350696e-01,-1.249259e+00,-4.092661e-02,-7.400741e-02,-3.216784e-03,3.230023e-01,-9.479259e-03,-4.121885e-01,-5.840822e-03,-3.453027e-03,-6.215356e-02,1.679593e-01,-2.228509e-03,4.325481e-02,1.793648e-01,3.355806e-01,3.257641e-01,3.798697e-01,-4.041984e-02,4.182277e-01,-9.396038e-03,4.262472e-02,-3.726498e-01,1.220048e-01,3.558121e-02,
-8.854846e-03,1.249156e-01,-3.982157e-02,9.423874e-02,-2.300002e-01,-3.372113e-02,-1.662930e-02,1.487887e-02,-3.264581e-02,6.227931e-01,1.802731e-01,7.552654e-02,-2.452038e-02,-3.201715e-01,3.551613e-01,-6.642590e-02,-3.079277e-02,-7.396678e-01,-1.740639e-04,-1.753951e-02,-4.680317e-01,-7.402244e-02,-4.857419e-02,1.214008e-02,1.368783e-02,3.101603e-02,5.002925e-02,-6.366716e-02,-8.651461e-02,-9.977441e-02,-1.302476e-02,3.261562e-02,4.321036e-02,8.119931e-02,1.051113e-01,3.852138e-01,-5.149807e-01,3.900435e-01,3.702884e-02,-2.740391e-01,-3.624884e-02,2.727608e-02,1.120614e-01,-8.850534e-02,-2.850595e-02,
-4.459583e-03,-3.880536e-01,-8.880211e-01,-1.313840e-01,-6.443206e-01,-2.990497e-01,-8.744234e+00,4.866461e-02,-3.535105e-01,-4.881781e-02,-3.331171e-01,-1.346023e-01,-1.055757e-01,3.563531e-01,2.995216e-01,-8.976175e-05,1.356011e-02,3.422077e-01,1.888892e-01,3.195418e-02,3.314611e-02,-1.664770e+00,-4.765540e-02,-1.148116e-02,2.736909e-02,-4.871181e-02,1.761409e-02,-6.071763e-01,1.916957e-01,3.151552e-01,-1.139840e-01,2.321370e-03,-4.753481e-02,2.867031e-01,4.954067e-02,4.199525e-01,1.070458e-01,7.870770e-01,4.128288e-02,6.594791e-01,-4.337129e-02,-1.395048e-02,-2.033774e-01,2.416650e-01,2.340706e-02,
-1.910354e-02,1.667302e-01,1.177710e+00,2.524201e-01,2.001502e+00,8.733797e-02,-6.715729e-01,-4.543997e-02,1.545686e+00,1.914464e-02,-2.407404e-01,3.625863e-01,-1.087803e-01,2.353492e-01,9.066193e-01,3.735840e-02,2.750476e-02,2.773995e-01,2.235446e-01,3.072469e-02,-9.072665e-02,4.072472e-01,9.685093e-03,3.381735e-01,3.287585e-02,3.535311e-01,-3.241634e-03,7.589886e-01,-1.032619e-01,-5.704901e-01,-5.915150e-02,2.474525e-01,4.524266e-04,-6.956422e-02,-7.245930e-02,6.592839e-02,1.209260e-01,2.131647e-01,-5.125965e-03,6.799456e-01,-2.256830e-02,4.303380e-02,2.820021e-01,2.928648e-03,-4.673234e-02,
7.596886e-03,3.665567e-01,6.229640e-01,2.474716e-01,-7.608400e-02,-2.086791e-01,4.746215e-02,-3.200868e-02,-5.659411e-02,-2.053587e-01,1.383039e-01,2.789393e-01,-3.496301e-01,-2.685283e-01,-1.499421e+00,-1.254881e-02,3.085426e-02,-2.091095e-02,4.668523e-02,8.875225e-03,1.640534e-01,1.851323e-01,4.139489e-02,-2.860654e-02,-2.566029e-02,-1.027822e-01,7.990073e-04,-4.343047e-01,-8.759758e-03,-6.330995e-02,1.627926e-01,2.606686e-01,1.593863e-02,-9.620150e-02,2.378640e-01,1.159281e-01,-1.716318e-01,-1.125228e-01,-1.060547e-02,-5.597603e-01,-4.984959e-02,-3.359575e-02,-1.121489e-01,-1.850195e-01,4.584692e-02,
-6.390917e-03,1.346182e+00,-2.326033e-01,2.854645e-02,5.152864e-01,-1.905815e-01,-1.316865e-01,-1.705501e-02,-8.772569e-02,-2.495213e-02,-2.674547e-01,-2.449198e-01,-4.778048e-01,-6.664591e-01,7.824237e-01,1.664763e-02,2.957826e-02,5.058951e-02,4.272465e-01,6.073028e-03,-2.292703e-01,9.927581e-02,-2.768438e-02,6.198302e-02,4.766597e-02,-8.636677e-02,-4.045906e-02,-8.227820e-01,2.940509e-02,3.227235e-02,-7.877338e-03,-4.562630e-01,-1.547767e-03,1.780126e-01,-1.197181e-01,4.454905e-03,6.605457e-02,3.580383e-01,-4.492575e-02,1.855169e-01,-2.291623e-02,-8.014699e-03,-5.435113e-01,-6.817669e-02,6.024976e-03,
2.572485e-02,-2.395089e-01,-4.648740e-02,-2.971016e-01,-7.177363e-02,4.279885e-01,-3.377951e-02,-1.808719e-02,-2.628749e-03,1.696818e-01,-4.248548e-02,1.349537e-01,1.012119e-01,-4.065435e-01,-2.950220e-01,-2.264655e-02,3.480462e-02,-4.243455e-01,-6.216454e-02,3.459551e-02,-7.033562e-02,6.188223e-01,1.078902e-02,1.903813e-02,-4.355638e-02,-3.544163e-01,-2.015417e-02,4.715306e-01,6.684402e-02,4.558362e-02,8.163408e-02,4.716139e-01,-2.973705e-02,-5.310860e-02,-2.010832e-01,-2.305006e-01,-2.617273e-01,-2.871246e-01,-1.935499e-02,2.240949e-01,-2.026257e-02,2.674777e-02,5.938737e-01,-2.187228e-01,-3.788309e-02,
