// Neural Network File Format by Kyle Julian, Stanford 2016
7,4,6,45,
4,45,45,45,45,45,45,6,
0,
-8000.0,-100.0,-100.0,6.0,
8000.0,100.0,100.0,40.0,
0.0,0.0,0.0,23.84210526,-3.8529093497767,
16000.0,200.0,200.0,34.0,26.8591142426,
6.687915e-01,-1.046829e-01,-1.169145e-01,6.380808e-02,
8.260095e-01,-1.318812e-01,2.180053e-01,-8.839512e-02,
1.129895e-02,-1.160657e+00,-1.261366e-03,2.933712e-03,
2.016578e-02,-1.553195e-02,1.560472e-02,9.337254e-01,
8.892055e-01,-2.402114e-01,3.186656e-01,1.074790e-01,
-2.640403e+00,-5.552212e-02,1.733922e-02,-1.727603e-02,
4.909857e-01,-3.970576e-01,1.544416e-01,4.205121e-02,
2.018110e-02,-6.531776e-01,9.956821e-04,-1.803087e-02,
3.401629e-02,-3.707103e-01,8.010478e-02,-4.340552e-02,
1.678854e+00,2.308656e-02,-5.083855e-02,-3.168163e-01,
4.936904e-02,-1.868539e-01,-5.037772e-02,-1.022607e-02,
1.962537e+00,-7.956327e-02,8.174423e-02,7.491764e-02,
-1.604283e-01,-1.632229e-01,2.280967e-01,-3.189539e-01,
-1.610424e+00,2.887097e-02,-4.913083e-02,1.452575e-01,
2.793002e-01,-5.224732e-02,-4.050066e-01,-1.551235e-02,
-1.391748e+00,1.847751e-01,-2.525516e-01,-1.882740e-02,
-7.342487e-01,-1.085154e-01,1.631534e-01,1.676628e-01,
-8.830312e-02,-4.438298e-01,-1.831131e-02,-3.384516e-02,
7.184782e-03,-9.889107e-04,1.570791e-04,-1.428031e-02,
2.034101e+00,8.344646e-02,-4.841878e-02,9.675082e-02,
8.970913e-01,-1.613540e-01,2.563277e-01,-2.634201e-01,
-3.442497e-01,-3.197742e-01,2.648696e-01,-5.104827e-01,
2.320606e-01,-5.915773e-01,1.074555e-01,5.133794e-02,
1.598401e-02,-6.832823e-01,-1.172455e-02,6.307906e-03,
-2.879713e-03,-9.577351e-01,3.540965e-03,2.606304e-03,
2.101617e-03,-1.484857e+00,-9.373258e-03,-1.466271e-02,
5.743117e-03,4.876653e-05,3.610472e-03,-4.681368e-01,
1.985723e+00,-1.889741e-01,2.142761e-01,-1.222352e-02,
-1.629909e+00,1.712269e-01,-2.331226e-01,1.633427e-02,
-6.089515e-02,5.573812e-01,-5.579346e-01,4.510156e-03,
8.212067e-03,-8.749342e-01,4.977383e-03,2.789909e-04,
-5.488614e-03,-4.662978e-01,5.375871e-03,-1.169050e-03,
8.130977e-01,-1.783293e-01,1.942085e-01,2.852139e-01,
-6.318091e-03,-1.894418e+00,-7.207925e-03,-9.134169e-04,
8.923321e-01,-3.252985e-01,1.892549e-02,-7.324172e-02,
4.447584e+00,6.580709e-02,-7.803774e-02,-1.860060e-02,
2.466284e+00,1.646302e-02,-2.244767e-02,-6.322929e-03,
-3.653148e-01,9.506501e-02,-1.671595e-01,1.623164e-01,
5.216149e-02,1.631373e-01,8.668485e-02,-2.809397e-02,
-8.073164e-01,-3.367355e-01,-1.377598e-01,1.085315e-01,
-1.681203e+00,4.941774e-02,-5.614438e-02,6.722707e-03,
9.232599e-02,-1.946954e-01,1.338568e-01,4.517441e-02,
-1.294484e+00,3.650120e-02,2.634123e-03,-8.661707e-02,
-2.999530e-01,-2.117935e-01,-3.164299e-01,7.292224e-02,
3.619352e-02,-3.095249e-02,-2.669466e-01,1.414298e-02,
-6.991004e-04,
1.864878e-02,
1.980168e-01,
-4.177112e-01,
6.127271e-02,
1.977216e-02,
-9.883735e-02,
1.200269e-01,
1.002018e-01,
-3.091941e-02,
5.081515e-02,
-3.145498e-03,
-8.652499e-02,
5.722596e-02,
-2.089857e-01,
-2.378470e-02,
-8.030438e-02,
-1.166734e-01,
-1.299350e-02,
5.257460e-02,
-1.403519e-01,
-4.030027e-01,
1.884038e-02,
1.154195e-01,
-5.274931e-02,
-1.849871e-01,
3.179294e-02,
3.176473e-02,
5.993287e-02,
2.472865e-03,
1.502108e-01,
-7.950147e-02,
5.871906e-02,
5.809280e-02,
2.631306e-03,
6.361534e-02,
2.272735e-02,
6.252699e-02,
9.393620e-02,
-1.037587e-01,
-1.552600e-02,
1.409836e-02,
3.102713e-02,
-1.520365e-01,
1.210224e-01,
-2.565151e-01,2.124868e-01,3.867221e-02,3.898948e-01,5.294356e-01,1.819632e-02,5.250889e-05,4.320969e-02,-6.266652e-02,9.027029e-03,8.215369e-02,-4.357554e-01,-1.017200e-01,-2.909945e-01,3.689811e-01,9.117532e-01,-5.200162e-01,4.230552e-01,-1.133820e-02,1.414565e-02,-8.213310e-01,3.408037e-01,-2.363866e-01,2.027825e-02,-4.375080e-03,5.644120e-02,1.199403e+00,4.253452e-01,3.330349e-01,-1.105991e-01,2.636430e-03,-2.619899e-01,-3.763965e-01,-6.779982e-02,1.962576e-01,1.708517e-01,9.272072e-02,-1.635016e+00,-1.137752e-01,1.291652e-03,-2.024787e-01,-1.271850e-01,2.648671e-01,4.868825e-02,1.341367e-01,
-9.177817e-02,5.713897e-02,-1.074830e-01,6.652452e-01,5.516366e-01,1.078481e-01,-2.767120e-01,-3.352911e-02,1.710353e-01,3.779294e-01,-6.580157e-02,-7.959937e-01,-3.001258e-01,3.129150e-01,2.647872e-01,1.313569e-02,3.913692e-02,-3.245344e-02,-3.007324e-02,-7.485543e-01,-3.227136e-01,-1.027306e-01,1.314204e-01,-3.208748e-02,-6.942209e-02,3.292459e-02,4.359717e-02,3.792899e-01,-1.168611e+00,-4.956249e-02,7.254782e-03,-3.226497e-02,3.691270e-01,-1.271759e-02,1.023190e-01,1.397563e-01,4.238792e-01,-5.130479e-01,-2.554626e-01,2.621092e-01,8.079310e-01,-9.097378e-02,-7.582558e-01,3.480706e-02,-8.089203e-03,
-3.855439e-02,-3.270297e-02,-2.835560e-02,-3.511384e-02,-3.431011e-02,3.819047e-03,7.319016e-03,-3.616561e-02,4.557195e-03,-1.381166e-02,-4.589356e-02,-3.716224e-02,3.689607e-02,4.054587e-03,-4.702015e-02,2.763588e-03,-1.159951e-03,1.878231e-03,2.244596e-02,1.417531e-02,4.615838e-02,-5.759485e-02,2.526642e-02,3.179270e-02,-2.775712e-02,-5.822683e-03,9.579200e-03,-1.937985e-02,-1.478012e-02,-3.322331e-02,-7.751883e-03,-4.904495e-02,-1.054581e-02,5.387317e-03,-2.550605e-02,2.946091e-03,9.878155e-03,-7.657094e-03,-5.146743e-02,3.195159e-02,-7.769880e-03,-4.340145e-02,-1.027642e-02,-5.067656e-02,-2.705565e-02,
4.876156e-02,-1.341347e-01,7.886108e-01,2.209393e-01,5.005846e-02,9.005055e-02,-2.461856e-01,5.354933e-01,3.539158e-01,1.090137e-01,1.181999e-01,1.789663e-01,1.857122e-01,-1.716321e-01,4.327026e-01,-1.092610e-01,1.090519e-01,-1.355377e-01,4.563169e-03,-3.452113e-02,-4.642905e-02,-1.230517e-01,3.793807e-02,5.323002e-01,-3.404488e-01,-1.721102e-01,2.931015e-01,2.126872e-01,5.993359e-02,1.347711e-01,7.082961e-01,-9.325801e-01,2.169761e-01,-3.654263e-01,-1.202815e-01,-3.702496e-01,3.832610e-01,1.823870e-01,7.315463e-02,-2.766367e-01,-1.730337e-01,-3.532828e-01,2.964901e-01,-5.034458e-02,1.795962e-01,
4.508542e-01,-6.679470e-01,3.181771e-02,-7.014339e-01,-5.177607e-01,7.735320e-01,-9.956596e-01,-9.565252e-04,1.503206e-01,-1.137457e-02,5.418876e-02,-8.460813e-02,3.949169e-01,7.252149e-02,-4.371706e-01,2.057982e-01,-1.456073e+00,-2.186709e-01,5.826358e-02,-6.100204e-01,8.611134e-01,9.472730e-01,7.972412e-02,3.078341e-02,-1.133774e-01,-7.505441e-02,-3.017939e-02,-5.063841e-02,-7.074982e-01,-3.557835e-01,-2.736448e-02,-2.302148e-01,-1.241851e-01,7.164830e-02,-3.817121e-01,8.465826e-02,3.204229e-01,5.435112e-01,1.049950e-01,1.006109e-01,-8.526840e-02,2.625877e-01,3.596038e-01,-1.655804e-02,9.541335e-01,
-2.095955e-01,-3.162344e-01,5.405515e-02,7.669278e-01,-5.191630e-02,3.151725e-01,-6.357107e-02,-1.609737e-01,-1.060727e-01,3.079686e-01,-2.730986e-01,-7.576336e-02,-2.446128e-01,3.434715e-01,5.669850e-01,-5.377951e-02,1.086918e-01,-2.151883e-01,-3.742801e-02,1.531151e-02,-4.394071e-01,9.032000e-01,-1.212605e-01,-4.492622e-02,3.128309e-01,-3.942725e-02,1.858340e-01,4.575112e-01,-3.218291e-01,-8.938877e-01,-8.642714e-03,2.596831e-01,3.208866e-02,-8.943035e-02,-2.847050e-01,-9.465970e-02,3.796249e-01,-7.754083e-01,1.813626e-01,3.678132e-01,-6.736291e-02,1.968725e-01,-5.338171e-01,2.207097e-01,2.037816e-01,
1.048875e-03,-4.038132e-02,4.137245e-02,3.637024e-02,3.236102e-02,-1.732958e-02,-4.211849e-02,1.343617e-02,3.798861e-02,-2.005721e-02,-3.512960e-02,3.310525e-02,-2.717028e-02,-4.126892e-02,-2.264134e-02,-5.088802e-02,-3.368974e-02,-1.361052e-02,3.559200e-02,-3.702364e-02,-7.651154e-02,1.489737e-02,4.653524e-02,-3.664861e-02,-3.163315e-02,3.389210e-02,-2.589121e-02,-1.625848e-02,-6.406701e-02,-8.759670e-02,2.120639e-02,8.565617e-03,-2.264312e-02,-2.795450e-02,-3.492394e-02,4.337048e-02,-8.854670e-03,2.273629e-02,-1.669958e-02,-1.864460e-02,5.336084e-02,-1.981570e-02,-1.115328e-02,-2.238040e-02,-3.694566e-02,
-3.750823e-01,-5.309761e-02,3.188193e-01,-4.251590e-01,1.386239e-01,8.604245e-01,-8.229418e-01,2.255437e-01,-3.761222e-02,-1.424207e-01,3.759365e-02,-1.449880e+00,1.971105e-01,3.168245e-01,-6.343163e-01,2.914195e-01,2.823862e-01,9.817059e-02,-2.493811e-02,-1.927535e-01,-9.357852e-01,9.666746e-02,2.393433e-01,2.796283e-01,3.036854e-01,-1.152200e-01,4.735557e-01,-7.047626e-01,1.747486e-01,5.448271e-01,2.745980e-01,-5.336837e-01,1.081582e-01,3.324581e-01,-1.899406e-01,-3.684777e+00,-3.510574e+00,3.799076e-01,2.761616e-02,4.611065e-01,-5.114326e-02,-4.612339e-02,5.535418e-01,-3.568891e-01,-7.627985e-02,
-2.794731e-01,-8.633467e-01,1.415871e-01,-3.437028e-01,-5.489684e-01,2.917410e-01,-5.906986e-02,3.490620e-02,-2.320184e-01,-2.986378e-01,4.628282e-02,3.843848e-02,1.461849e-01,-2.304662e-01,-5.538690e-02,-1.735955e-01,-5.781901e-01,-5.479462e-01,-2.637439e-02,8.096253e-01,7.054808e-02,-1.059716e+00,-7.927287e-02,1.077322e-02,1.538702e-01,9.455215e-02,2.823801e-01,-4.439646e-01,5.165007e-01,-5.996660e-01,3.909374e-02,-4.379216e-02,-2.894550e-01,-6.868833e-02,-3.945920e-01,8.281188e-02,5.086423e-01,1.059889e-01,1.151521e-01,-4.017443e-01,7.728609e-02,-6.714965e-01,2.081044e-01,3.138830e-01,2.960095e-01,
-1.523467e-01,3.225412e-01,2.262400e-01,1.643162e+00,-4.090209e-01,1.774564e-01,-2.164883e-01,1.186603e-01,-3.005300e-01,3.850034e-01,6.714857e-02,-9.186088e-02,3.585667e-01,1.668773e-01,1.358419e-01,1.011036e-01,-1.298445e-01,-3.849418e-01,3.528316e-02,-1.505361e-01,-4.663364e-01,3.270681e-01,4.261599e-01,1.083540e-01,1.492216e-01,5.563189e-01,-1.465537e-01,1.352121e-02,-3.061168e-01,9.935843e-02,2.150797e-01,-6.073661e-01,1.128679e-01,-1.515169e-01,4.350511e-02,-9.865552e-03,2.197367e-01,-3.732348e-01,-1.721773e-01,-1.364576e-01,7.452241e-02,3.767097e-01,2.394887e-02,3.250136e-01,-3.147444e-01,
2.203885e-01,-4.432988e-01,-3.200442e-02,4.200832e-01,1.586590e-01,-3.867433e-01,-5.863424e-02,1.436514e-01,-1.489993e-01,-3.753298e-02,2.838686e-01,2.134805e-01,3.925787e-01,-1.639596e+00,-2.199533e-01,5.183812e-01,8.838790e-01,1.768201e-01,2.362838e-02,-4.201471e-01,-1.394072e-01,1.136751e-01,2.383744e-01,7.130094e-02,-1.167913e-02,1.693127e-01,2.659491e-01,-3.961934e-01,-7.914326e-01,-4.147558e-01,2.423693e-02,-9.522401e-02,3.652769e-01,-8.809676e-02,-2.667786e-01,1.400092e-01,2.407127e-01,4.682246e-02,3.730286e-01,-9.939340e-02,7.979568e-01,-5.098901e-01,3.898202e-01,-1.149922e-01,2.033415e-01,
-1.453472e-01,-4.720637e-01,7.869636e-02,-1.810991e-01,-5.950480e-01,-6.926122e-02,-1.175088e+00,-3.908949e-02,2.708238e-02,1.024288e-01,-3.356813e-01,1.389654e-01,1.011886e+00,5.383241e-01,1.105253e+00,-6.965989e-01,-1.006365e-02,2.021581e-01,-2.294282e-02,6.218870e-01,1.225819e+00,-3.955764e-02,-3.584608e-01,1.298506e-02,4.192761e-01,1.603469e-01,2.838826e-01,-7.766754e-01,-2.168958e-01,-2.012652e-01,-5.743356e-03,-3.400198e-01,4.481493e-01,4.315540e-02,-7.790712e-02,-3.855706e-01,4.852946e-01,8.883693e-01,1.086611e-01,1.435132e-01,-8.294880e-02,-6.490615e-01,-1.731071e-01,-5.341240e-01,-1.201527e-01,
-3.366694e-02,-3.771346e-02,-3.317093e-02,-4.644736e-02,-2.992513e-02,-2.299891e-02,-3.514909e-02,-4.073138e-03,-5.759020e-02,-1.326784e-02,-4.602184e-02,-4.395910e-02,5.146733e-03,-4.331730e-02,-5.410246e-02,-3.785674e-03,1.260338e-02,-1.568550e-02,-1.374246e-02,2.538249e-02,-2.495730e-02,3.776345e-02,9.922712e-04,-6.613372e-03,1.102099e-02,-5.363643e-02,2.150658e-02,-1.209513e-02,3.272295e-02,3.999836e-02,5.181065e-04,-5.694366e-02,-2.718554e-02,1.120411e-03,-9.207558e-03,-2.518582e-02,-7.291317e-03,6.734182e-03,-4.756556e-02,3.539096e-02,-1.944823e-02,-2.319217e-03,4.586823e-03,2.687361e-02,-2.876854e-02,
2.784254e-02,-9.690027e-03,-1.048827e-02,-2.658354e-02,-3.244201e-02,9.947962e-03,3.198151e-02,-3.894265e-02,-2.153417e-02,3.359880e-02,-2.833341e-02,-1.130033e-02,-3.027020e-02,4.270752e-02,-4.540202e-02,-6.966829e-03,4.079638e-02,4.359532e-02,-1.769193e-02,3.990448e-02,-1.389434e-02,-1.409043e-02,4.630806e-02,-1.707574e-02,-3.310928e-02,-1.776657e-02,4.836175e-02,-4.740490e-02,-2.424180e-02,-3.025963e-02,7.305300e-03,-4.776827e-02,-2.718356e-02,-3.642267e-02,-2.442783e-02,-5.022589e-02,1.261324e-02,-4.607657e-02,-5.451183e-02,-2.679401e-02,-4.278298e-02,-2.181545e-02,-2.265755e-02,4.361766e-02,-2.234297e-02,
4.927854e-03,-2.413067e-01,8.378866e-02,1.167554e-01,5.789518e-03,2.433658e-01,-1.061355e-01,1.122503e-01,1.050337e-01,-4.259256e-01,-2.257692e-02,9.303936e-02,5.414000e-01,-3.195262e-01,1.944895e-01,1.623629e-01,2.978124e-01,4.252964e-02,1.153838e-02,-1.606252e-01,-1.034196e+00,3.412940e-02,8.339035e-02,4.870651e-02,-4.997310e-03,-6.359587e-03,7.093082e-01,-2.598241e-01,-2.310513e-01,8.051039e-01,3.142926e-02,1.365023e-01,1.672637e-01,-3.027326e-02,-5.251793e-01,-5.862667e-01,3.067479e-02,6.951752e-02,2.171483e-01,-1.936114e-01,-2.731257e-01,3.081213e-01,7.975904e-03,4.514907e-02,7.940346e-02,
-2.945418e-01,-1.841288e-01,4.295287e-02,-1.358265e+00,2.859359e-01,4.115547e-01,3.473243e-01,6.146652e-02,-5.026332e-02,-1.412899e-01,1.580619e-01,3.298987e-01,-5.559314e-01,-1.433413e-01,4.238648e-01,1.246754e-03,-2.524945e-01,-1.365478e+00,-1.876253e-02,-1.378073e-01,-7.898749e-01,-2.986262e-01,1.771634e-01,-2.223745e-02,1.748188e-02,-1.974543e-01,6.361347e-02,3.596345e-01,2.582080e-02,3.080257e-01,4.369919e-02,3.474881e-02,6.107337e-01,6.608307e-02,6.201577e-01,-4.382789e-01,3.686306e-01,2.992572e-01,1.009004e-01,-1.149736e+00,-1.247562e-02,-1.872800e-01,1.520665e-01,3.610843e-01,1.872160e-01,
2.575364e-01,2.804824e-01,-1.242062e-02,4.964444e-02,3.661712e-01,6.671831e-01,-2.097526e-01,-2.322687e-02,4.604533e-02,7.705482e-01,1.314416e-01,1.695883e-01,-1.024847e-01,1.707027e-01,-1.532967e-01,3.322708e-01,-2.568728e-01,4.628365e-01,4.817579e-02,2.604636e-01,-1.316596e-01,-3.327106e-02,-1.951398e-01,-6.803034e-02,8.809576e-02,-5.115373e-02,1.482947e-01,1.502860e-01,-7.470469e-01,5.519195e-01,2.179706e-02,4.177375e-01,-8.514582e-02,9.525749e-03,-2.007708e-01,-7.791950e-01,2.222052e-01,-5.230102e-01,-1.046022e-01,5.181186e-01,-4.900779e-01,3.364430e-01,-6.841616e-01,-1.285535e-02,-2.390140e-01,
-6.264331e-01,-4.694964e-01,3.090439e-01,-4.186659e-01,-1.230408e-01,6.302134e-01,-4.383479e-01,2.193483e-01,6.237515e-02,-3.624696e-01,6.077419e-02,-1.431969e+00,-5.178240e-02,3.038896e-01,-5.386568e-01,4.219569e-01,8.469148e-02,-3.469995e-01,9.595680e-03,-6.963226e-01,-3.931768e-01,-2.800918e-02,1.723622e-01,2.668086e-01,3.616964e-02,-4.634663e-01,2.612720e-01,-6.486906e-01,1.150983e-01,6.053495e-01,2.725921e-01,-6.270989e-01,2.097964e-01,2.562268e-01,-2.263728e-01,-3.981858e+00,-2.983666e+00,1.191616e-01,2.546079e-01,-3.212567e-01,-4.081948e-01,-1.347440e-01,3.219886e-01,1.291622e-01,-1.595321e-01,
6.747841e-01,-2.205846e-01,5.143978e-02,-2.319667e-01,-7.897388e-01,2.917140e-01,1.663538e-01,1.248590e-02,-1.004430e-01,7.142187e-02,-8.634686e-02,1.385714e+00,4.828581e-01,-3.921502e-01,2.057182e-01,-4.740598e-01,1.398524e-01,-6.688761e-01,2.312382e-03,2.704617e-01,1.545169e-01,1.315122e-01,3.707376e-01,6.337725e-03,-2.379217e-02,-5.483176e-02,1.449096e-01,-2.425800e-01,6.342978e-01,-6.440146e-01,4.518495e-02,-6.588590e-02,-3.692757e-01,1.132325e-01,4.798298e-02,-3.119142e-01,-3.688421e-01,1.151059e-01,5.389432e-02,-4.830030e-01,-1.393480e-01,7.414678e-02,2.345736e-01,-5.628793e-01,1.084587e-01,
1.762092e-01,-6.532203e-01,8.763824e-02,8.412327e+00,-1.747526e-02,1.196357e-01,-1.139878e-01,-1.649552e-01,8.971170e-02,-1.891382e-02,-1.246522e-01,1.560434e+00,3.309814e-01,-3.712785e-01,-1.998735e-01,-2.000660e-01,-3.766951e-01,-1.138164e-01,4.526617e-02,3.691413e-01,-2.970957e-01,4.619298e-01,4.634360e-02,7.409088e-03,-8.857054e-02,1.072471e-01,3.788543e-01,-1.035941e+00,6.636458e-01,-2.425172e-01,-3.638254e-02,-2.227523e-03,5.647879e-02,2.507572e-02,-2.045697e-02,-5.312559e-01,3.290126e-01,-2.186430e-01,4.517816e-01,-1.205679e-01,4.087060e-01,-5.206582e-01,-2.643607e-02,7.962233e-02,2.978098e-01,
-5.714712e-01,6.515216e-01,8.429118e-02,-5.292247e-01,1.503222e-02,-8.036876e-01,5.707709e-02,2.189671e-01,-8.713465e-01,-1.249462e-01,1.937803e-01,5.130760e-01,1.354234e-01,5.984912e-01,7.942274e-01,2.117485e-01,6.673183e-01,1.165838e-01,-2.036849e-02,1.193770e-01,-6.974347e-02,3.330159e-02,2.188856e-01,1.327509e-01,-2.341823e-01,-4.453816e-03,1.086719e-01,4.182569e-01,6.199365e-01,3.326254e-01,1.249104e-01,2.148649e-02,-9.703535e-02,8.352856e-02,-8.703461e-02,-1.788486e-01,-6.065195e-02,-5.029465e-01,5.121194e-01,1.665353e-01,-7.469718e-01,-4.963701e-01,-3.032939e-01,-2.602895e+00,-6.101649e-01,
-9.985408e-02,1.169578e-01,1.442457e-02,-5.061356e-01,7.377703e-01,-5.179083e-01,3.458661e-01,-1.763644e-02,2.645685e-01,-9.765063e-02,-1.005255e-01,-5.033827e-01,-2.481669e-01,5.762103e-01,2.441053e-01,1.906503e-01,-1.190128e-01,-4.272444e-01,-1.364723e-02,-2.248024e-02,-5.996343e-01,1.084830e+00,1.321677e-01,-3.502333e-03,1.960709e-01,1.118692e-01,2.025470e-01,4.277194e-01,-7.211041e-01,7.315727e-02,-2.505661e-02,-9.396919e-03,-9.382276e-01,-5.428853e-02,-3.281182e-01,1.514149e-01,2.011714e-01,-1.066145e+00,-1.335919e-01,-1.200180e-01,5.153540e-01,4.572976e-02,6.570080e-02,1.861547e-01,9.673375e-02,
4.751844e-01,-5.297668e-01,6.463456e-02,4.535306e-02,3.928501e-01,-2.992220e-01,-4.176933e-01,3.705948e-02,-4.909230e-01,4.114555e-01,-1.179217e-02,-1.076942e-01,-1.267044e-01,-7.881475e-02,-3.816903e-01,1.037765e-01,5.777645e-01,8.386728e-01,-2.856294e-02,3.489798e-02,-4.726138e-01,-7.007785e-01,-1.751789e-01,1.669909e-02,7.743680e-02,-4.108555e-03,-2.841792e-02,-9.162029e-01,-1.370119e-01,3.369884e-02,4.395231e-02,4.100947e-02,-7.357602e-02,7.901984e-02,-3.838229e-01,5.132795e-02,2.696275e-01,-5.089446e-01,2.966121e-01,-2.354775e-01,-2.571646e-01,-6.626943e-01,9.601519e-02,-6.266340e-01,2.677216e-01,
-4.758998e-01,1.809136e-01,9.256762e-02,-1.088697e+00,3.321970e-01,-1.753706e+00,-1.622809e-01,6.526588e-02,-1.135293e-02,-2.430703e-01,6.517775e-02,-8.213840e-01,8.001202e-01,1.472947e-01,-4.543386e-01,-1.960166e-01,1.338098e+00,8.140182e-01,-1.014335e-02,1.028220e-01,-5.314164e-02,-2.792377e-01,2.159740e-01,7.130091e-02,2.173856e-01,6.519091e-01,5.283498e-01,-2.047251e-02,-7.967297e-02,6.054651e-02,7.421840e-02,2.952424e-01,2.072485e-01,1.788505e-01,-1.558350e-01,4.328438e-01,-4.373021e-02,5.858260e-01,1.908509e-01,-2.656357e-03,2.011328e+00,2.659895e-01,4.266278e-01,-3.125765e-01,4.687437e-01,
-3.851428e-01,2.435674e-01,-1.359440e+00,8.522293e-01,-6.314977e-02,1.468430e-01,1.464465e-02,-8.196401e-01,-3.751522e-01,-1.161588e-01,-3.365394e-01,-2.688177e-01,-6.688581e-02,6.442793e-02,-2.922008e-01,2.057688e-01,-8.583882e-02,-3.289560e+00,-2.470095e-02,4.272160e-01,-1.630231e-01,1.780366e+00,1.102496e-01,-6.596470e-01,-2.777723e+01,-3.461159e+00,1.562447e-01,1.162385e-01,-1.092895e-01,3.049700e-01,-9.948650e-01,-5.121737e+00,2.333761e-01,2.774089e+00,-2.098135e-02,3.350565e-01,-5.084768e-01,4.005594e-02,6.885873e-01,-4.316230e-01,2.125790e-02,2.815191e-01,1.488999e-01,3.768226e-01,-4.604738e-02,
3.572882e-01,-2.519698e-01,-2.292555e-02,4.489682e-02,-9.984216e-01,5.846024e-01,3.233186e-01,-4.201940e-02,4.045350e-01,-5.995278e-01,-1.673045e-01,4.428716e-01,3.822052e-01,2.145715e-01,-5.129746e-01,-3.217769e-02,5.799266e-01,-1.900301e-01,1.906305e-02,1.803997e-01,1.209950e+00,-2.716723e-01,1.133707e-02,-2.151177e-02,6.164669e-02,-1.333409e-01,3.202868e-01,-1.058481e+00,6.842120e-01,1.059946e-01,-3.151412e-02,-8.836105e-03,2.758570e-01,1.601985e-02,1.059326e-01,2.721991e-02,3.411968e-01,9.361258e-02,8.045263e-03,-3.310947e-02,-6.527454e-01,2.131196e-01,2.703410e-01,1.646054e-01,-4.007236e-02,
-3.111128e-01,1.101357e-01,3.035913e-02,3.916646e-01,1.919901e-02,1.899577e-01,6.225956e-01,3.091897e-02,-9.178331e-02,1.017639e-01,1.366740e-01,-5.791489e-01,4.771021e-01,1.482715e-01,5.892517e-02,1.605002e+00,-1.349277e-01,-3.507128e-01,3.538111e-03,-3.561477e-03,-1.168452e+00,4.194606e-02,-1.599963e-01,-3.275493e-02,1.698354e-02,-4.145358e-02,-1.304761e-01,4.788000e-01,-3.828017e-01,-2.467015e-01,2.351694e-02,7.757793e-02,3.989984e-01,5.196400e-02,3.448857e-01,-1.425664e-02,3.751658e-01,-6.872694e-01,2.987718e-01,-1.890542e-01,5.725326e-01,-2.393945e-01,-3.443140e-01,2.042437e-01,-8.762133e-02,
2.966057e-01,-1.036665e-01,2.663912e-01,1.062298e-01,-4.767459e-01,4.868062e-02,-6.706265e-01,1.848176e-01,-2.617776e-01,9.066954e-02,-2.984211e-02,5.493164e-03,3.495314e-01,3.264171e-02,-3.798108e-02,-8.514332e-02,-2.782351e-01,-3.484243e-02,-3.298268e-02,2.576306e-01,-6.417326e-01,-2.971822e-01,1.877974e-01,1.181653e-01,1.358720e-01,4.743996e-01,-7.049404e-02,8.228487e-02,-3.142282e-01,1.533412e-01,2.176785e-01,-1.646260e-01,-1.164923e-01,-2.953279e-01,-1.751510e-01,9.467962e-02,5.489482e-01,5.926318e-01,1.969924e-01,-5.693902e-01,1.573156e-01,-9.810365e-02,1.910773e-01,1.429118e-01,-1.235656e-01,
1.581477e-02,-1.548366e-02,1.024248e-02,4.004408e-02,3.456533e-02,-1.798514e-02,8.741915e-03,-3.961347e-02,-5.170228e-02,-3.762152e-02,-2.764341e-02,3.581335e-02,-4.310251e-02,-5.760670e-03,-5.096677e-02,2.148599e-02,3.156826e-02,-1.412762e-02,6.398100e-03,-5.486622e-02,-9.141239e-03,1.613127e-02,-4.215082e-02,8.785371e-03,-1.587347e-02,-3.616210e-03,-4.662668e-02,1.023804e-02,-3.583893e-02,-2.207476e-02,1.973584e-02,8.702848e-03,-1.148252e-02,-1.748687e-03,-2.085632e-02,-1.784464e-02,-1.572652e-02,-3.164371e-02,5.703546e-03,4.265007e-02,5.953936e-03,-2.554463e-02,-1.662647e-03,1.655148e-03,-2.573469e-02,
3.530130e-03,-6.749884e-01,-2.753706e-02,-1.607102e+00,2.136630e-01,4.821151e-01,-9.139115e-02,4.071881e-02,6.256426e-01,-4.804532e-01,2.363591e-01,-2.333248e-01,1.112915e+00,-2.860328e-01,-4.468570e-01,-3.801479e-01,-4.340487e-01,2.325503e-01,-1.112075e-02,6.035625e-01,-1.260733e+00,-3.065825e+00,-4.340050e-01,-7.794047e-02,-1.164882e-02,2.085247e-02,-2.258046e-01,-3.929033e-01,4.331607e-01,6.437653e-01,-6.801657e-02,-8.865968e-02,8.911503e-01,8.109370e-02,-4.659826e-02,-3.320116e-01,3.195831e-01,2.511867e-02,-5.296385e-02,-2.201273e-01,9.425675e-02,-2.105842e-01,-2.246425e-01,5.470255e-02,-1.060517e-01,
-1.590339e-01,8.154639e-02,1.280708e-01,3.635859e+00,-9.597823e-01,1.767160e-01,-2.075063e-01,-4.528491e-02,1.494487e-01,-6.120454e-01,-1.472306e-01,2.708345e-01,1.645180e-01,-9.445313e-01,5.869319e-01,-3.871689e-01,-5.739501e-01,5.124778e-02,6.000719e-03,1.640790e-01,-7.735397e-03,6.948251e-01,3.244342e-01,1.236635e-02,1.651517e-01,5.039606e-02,4.722444e-01,-1.568555e-01,1.932637e-01,3.787773e-01,9.029515e-02,1.450454e-01,-9.399018e-01,-1.642497e-01,-2.701858e-01,-4.877085e-01,7.748236e-02,-4.178775e-02,2.561734e-01,-6.284945e-02,4.105873e-01,-8.654194e-02,6.578369e-01,1.169451e-01,3.761187e-01,
-2.385647e-01,1.785980e-01,5.192285e-02,-7.734929e-01,2.504748e-01,-4.312994e-01,3.685121e-01,1.485899e-01,-1.999227e-01,2.684726e-01,1.459862e-01,2.827430e-01,-8.236966e-02,-8.422621e-02,-4.176664e-01,8.632046e-01,-6.736139e-02,-2.416959e-02,-3.128587e-02,-1.527951e-01,-3.683509e-03,-2.332841e-01,1.540603e-01,6.938095e-02,4.912937e-02,-6.253070e-03,-9.113032e-01,5.395855e-02,2.002907e-02,9.990203e-03,9.480559e-02,5.434887e-02,3.943280e-01,-1.162607e-01,-3.519942e-01,-1.805104e-01,-1.048733e-01,6.290542e-01,2.618779e-01,1.517663e-01,-7.076022e-02,2.330817e-01,-4.351657e-02,-2.162172e-01,1.772584e-02,
3.830004e-01,-2.735018e-01,1.146083e-01,-1.000427e+00,-1.417511e-02,-1.792361e-01,-1.406554e+00,4.052862e-03,-2.521521e-01,1.293423e+00,9.389926e-02,2.815156e-01,-6.187627e-01,6.343308e-01,-6.491319e-01,-9.205028e-02,1.171798e+00,1.858115e-01,-3.744945e-02,-4.848662e-01,-8.281639e-01,1.018540e+00,3.300387e-01,7.000536e-02,-1.291713e-01,-1.044410e-01,7.956728e-01,-1.416092e-01,-6.043589e-01,2.341653e-01,1.519181e-02,2.303549e-01,2.299298e-01,1.342732e-01,-1.558823e-02,-3.079990e-01,2.451303e-01,-2.214912e-01,-6.834629e-04,-7.338084e-02,-3.049313e-01,2.479765e-01,2.642061e-01,4.850772e-02,-1.506508e-01,
-2.321404e-01,-2.351388e-01,1.220385e-01,8.288719e-02,1.153881e-01,4.150019e-01,2.914807e-01,2.399692e-01,5.692528e-01,-2.735059e-01,5.375716e-02,4.173326e-01,-5.213693e-01,-2.308395e-02,-4.076635e-01,2.130959e-01,-1.000725e-01,3.025655e-01,-6.526141e-03,3.796591e-01,-6.416988e-01,1.385394e-01,1.922434e-03,1.619751e-01,-1.217460e-01,3.930955e-01,1.940928e-01,1.693656e-01,9.914082e-02,3.293579e-01,2.305573e-01,-5.352066e-01,3.627847e-01,-2.331188e-01,-2.571764e-01,-1.665156e-01,2.667639e-01,8.028986e-02,-2.585924e-01,-2.528654e-01,-4.281838e-02,4.413873e-01,-7.937580e-03,-4.461859e-01,1.131440e-02,
2.613032e-01,1.936496e-01,1.741599e-01,8.528328e-01,-2.439581e-01,3.465803e-01,-2.645148e-01,5.854687e-02,-1.334971e-02,1.297133e+00,-1.584446e-01,4.944928e-02,-3.029093e-01,4.724903e-01,-2.365130e-01,-3.840998e-01,5.592985e-01,1.337679e-01,-2.426093e-02,-3.037688e-01,1.047297e-01,9.360303e-01,1.960515e-01,8.397353e-02,-1.597408e-01,1.800870e-01,5.198924e-02,4.993186e-01,1.690449e-01,1.696475e-01,8.625343e-02,6.926893e-02,-3.743125e-01,-9.467643e-02,-3.190358e-02,-6.467013e-01,1.180620e-01,-4.948931e-01,1.836699e-01,-4.051659e-01,9.483416e-02,2.711109e-01,8.581481e-02,4.427830e-01,5.982138e-03,
1.014970e-01,-9.665171e-02,6.645751e-01,2.628469e-01,2.074532e-01,2.311187e-01,-4.685847e-01,4.276196e-01,2.573219e-01,-1.584624e-02,1.496737e-01,2.567689e-01,2.676817e-01,-2.206284e-01,-2.644182e-01,5.336352e-02,-7.482633e-02,3.400481e-01,-1.946135e-02,-7.277950e-02,1.683871e-01,-4.087618e-01,5.431729e-02,5.100955e-01,-3.028793e-01,1.334282e-01,2.841745e-01,1.037236e-01,8.995827e-02,2.543359e-01,5.707061e-01,-7.186686e-01,1.985844e-01,-3.336694e-01,7.205703e-03,-4.188849e-01,4.235317e-01,2.164180e-01,-1.257447e-02,-3.944758e-01,-1.693324e-01,-1.354811e-01,6.774461e-02,1.142180e-01,1.733294e-01,
-9.504222e-01,-3.402576e-01,1.035926e-01,4.344387e-01,-5.535410e-01,1.443588e-01,-5.566683e-01,7.027659e-02,-2.071522e-01,1.484121e-01,6.410332e-02,-3.049281e-01,-8.425316e-02,1.043001e-01,2.310813e-01,-7.302400e-01,1.530544e-01,-3.072015e-01,-3.023959e-02,6.448232e-02,-9.653912e-01,-2.986337e-01,-7.332505e-02,-2.372050e-02,2.453129e-01,4.289101e-01,-1.309631e-01,2.946519e-01,-7.093550e-01,-9.104590e-02,5.490732e-02,-6.039758e-01,1.117373e-01,-2.149110e-01,3.415640e-01,-1.461755e-01,-1.898969e-01,-1.672404e-01,3.245032e-01,5.977378e-01,2.695905e-01,-4.473938e-02,3.094244e-01,9.860222e-01,5.244281e-01,
2.083797e-01,2.015661e-02,3.444257e-01,-6.198746e-01,3.178698e-01,7.834244e-01,-2.095257e-01,4.353614e-01,2.704104e-01,4.534908e-02,4.452262e-01,-1.116409e+00,1.406425e-01,2.274571e-01,-4.171838e-01,1.364641e-01,-1.543663e-02,4.463759e-02,-1.759899e-02,-7.366614e-01,-6.858385e-01,1.372275e-02,-1.381733e-01,3.980061e-01,-2.096336e-01,-6.896303e-01,2.567541e-01,-9.366769e-01,2.301620e-01,2.273834e-01,3.546921e-01,6.752386e-01,1.358903e-01,-2.017566e-01,-6.216819e-01,-3.380577e+00,-4.054668e+00,1.089973e-01,4.162017e-01,1.615852e-02,1.879795e-01,1.969038e-01,4.181356e-01,-2.102095e-01,6.245999e-01,
-2.286196e-01,6.974709e-01,-5.556936e-02,9.714337e-01,4.463048e-01,3.094405e-01,-2.316710e-01,1.201220e-03,1.287995e-01,-6.716918e-01,-1.373698e-01,-1.576347e-01,-2.891954e-01,-6.387999e-02,-8.236009e-01,2.218789e-01,-2.870847e-01,-1.611422e-01,1.056712e-02,4.922432e-02,4.758251e-01,-2.779015e-01,8.667838e-02,-1.052308e-01,2.237657e-01,-1.553796e-01,-6.270247e-01,-1.484271e-03,4.290549e-01,-5.428802e-02,-6.913276e-03,-6.768284e-01,3.888384e-01,1.796902e-01,-1.378407e-01,-1.390478e-02,3.634996e-01,-3.778756e-02,-2.771196e-01,-5.948247e-01,-1.555174e-01,2.520113e-01,-2.539530e-01,-9.779223e-02,-2.075532e-02,
4.493727e-01,4.702604e-01,9.372692e-02,1.897930e-02,2.956385e-01,8.239856e-01,-8.215147e-01,1.416533e-01,-7.107292e-01,-1.636792e-01,5.155116e-02,3.554640e-01,3.541217e-01,5.032627e-02,-5.942435e-01,-1.044939e+00,2.191136e-01,6.426451e-01,-4.215729e-02,5.251444e-02,3.527705e-01,-5.438467e-01,4.484582e-02,1.071236e-01,-3.703878e-01,-1.243209e-01,2.165634e-02,-7.793019e-01,-2.020902e-01,-2.910400e-01,1.241346e-01,3.509564e-01,-1.257185e-01,2.462633e-01,1.988050e-01,-2.396888e-01,3.435802e-01,-8.403684e-02,4.502826e-01,8.070369e-02,-5.832698e-01,2.121795e-01,1.434772e-01,-2.415707e-01,-7.071945e-01,
-7.880220e-01,3.970272e-01,-3.934872e-03,2.978427e-01,-1.472754e+00,5.863754e-01,1.437582e-01,1.439100e-02,-1.376994e-01,3.746228e-02,1.603282e-01,3.158440e-02,-6.014579e-02,-2.553408e-01,6.545804e-01,-1.230330e+00,-5.559599e-01,-8.011904e-01,4.126883e-02,5.538114e-02,2.712730e-01,6.309114e-01,-1.110534e-01,-2.197401e-02,-1.136910e-01,1.456751e-02,-3.052481e-01,4.498858e-01,-4.380998e-01,-1.984263e-01,-9.741811e-03,1.960226e-01,4.247929e-01,5.638818e-02,2.912256e-01,-3.198929e-01,2.803037e-01,3.487036e-01,2.127237e-01,5.208428e-02,-1.806236e+00,-3.952195e-01,3.135614e-02,1.766695e-01,2.255433e-01,
1.128417e-01,1.534118e-01,4.850586e-01,-6.037777e-01,2.193601e-01,2.921550e-01,-3.038057e-01,3.745006e-01,1.864370e-01,-1.312836e-01,9.795057e-02,1.706017e-01,-2.411632e-02,-1.306793e-01,-5.096648e-01,-2.339373e-01,5.486475e-01,-1.723029e-01,-3.183421e-02,1.792638e-01,9.624043e-02,-8.181562e-01,-1.187383e-01,3.871523e-01,-3.258167e-01,-2.072648e-01,2.278602e-01,2.622031e-02,-5.885752e-01,3.220172e-01,5.132257e-01,-1.277617e+00,3.434524e-01,-5.575295e-01,2.122407e-02,-4.288238e-01,3.369363e-01,-1.411558e-01,-5.175682e-02,3.926647e-01,1.301070e-01,-4.124316e-02,-2.290166e-01,7.384558e-01,-9.862318e-02,
-1.968107e-01,9.261170e-02,-1.199004e+00,6.691426e-01,1.613550e-03,-6.410532e-02,-2.913756e-01,-7.215143e-01,3.348065e-02,1.903590e-01,-2.531417e-01,-2.031493e-01,1.482348e-01,5.912759e-03,2.985643e-01,1.323363e-01,-3.993953e-02,-4.307304e-01,-3.845536e-02,3.570374e-01,-2.101239e-01,-1.495584e+00,2.490612e-02,-7.328981e-01,2.663744e-01,-5.447751e+00,1.382105e-01,3.933256e-02,-3.138984e-03,8.640409e-02,-9.564462e-01,-5.702877e-01,2.023704e-01,1.878493e+00,-3.642059e-02,3.610998e-01,-5.665137e-01,8.336817e-02,4.764675e-01,1.779049e-01,-3.410576e-02,2.857320e-01,3.012196e-01,-2.743454e-01,3.539874e-01,
-3.618749e-02,-3.795768e-02,7.968198e-02,8.939226e-01,-3.149278e-01,1.002481e-01,-3.343169e-01,1.686592e-02,1.687664e-01,-7.519214e-01,-7.264888e-02,1.513948e-01,3.042671e-01,-2.770076e-01,1.841281e-01,-2.032830e-01,5.077740e-01,2.188249e-01,5.335664e-02,3.509814e-01,3.824330e-01,4.262694e-01,8.230933e-02,6.250566e-02,-6.030313e-02,-7.260696e-02,-5.465223e-01,-6.495649e-02,1.661201e-01,6.900082e-01,7.973314e-02,1.281339e-01,-5.257484e-01,-7.027558e-03,-2.647953e-01,-4.699296e-01,-8.898292e-02,1.243116e-01,2.530371e-01,-2.602912e-01,-3.578293e-01,1.079932e-01,2.923848e-01,-8.693148e-04,5.842526e-02,
-2.599957e-01,5.011173e-01,-7.763296e-02,8.497344e-01,8.711970e-01,-2.014089e-02,-2.142813e-02,-1.504276e-02,6.508639e-01,-2.704496e-01,-1.645090e-01,1.074148e-01,8.508604e-02,7.536346e-01,-2.013759e-01,2.769470e-01,-1.731666e-01,-3.414834e-02,3.688268e-02,-6.231603e-02,-4.582545e-01,-7.807510e-01,-4.550761e-01,-4.986214e-02,1.464478e-01,-1.049209e-01,1.572787e-01,-2.371280e-01,-2.163078e-01,5.362473e-01,-1.595793e-01,-7.743715e-02,-4.620354e-01,-2.656980e-02,5.290254e-01,1.341547e-01,-6.643412e-01,4.790720e-02,-5.837666e-01,1.167017e-01,4.266391e-01,2.052739e-02,-2.579422e-01,4.262647e-01,-9.923216e-02,
5.631922e-02,
7.533858e-02,
-1.016215e-02,
-9.448282e-02,
-4.132994e-02,
1.469111e-01,
-3.068625e-02,
7.413743e-02,
8.168558e-03,
3.609157e-02,
7.764356e-02,
-6.686839e-02,
-1.847771e-02,
-5.936252e-03,
1.649632e-01,
-1.658662e-01,
1.216234e-01,
1.802240e-01,
5.454377e-02,
-1.301051e-01,
-8.715376e-02,
2.246965e-02,
1.043810e-01,
-4.447798e-01,
5.950432e-01,
-7.404846e-02,
-2.882966e-02,
-4.716644e-02,
-1.068784e-02,
-4.683114e-02,
3.094905e-03,
1.781065e-01,
-2.417312e-01,
5.149211e-02,
1.064703e-01,
-8.640549e-02,
1.191517e-01,
-9.756147e-02,
1.674584e-01,
1.132646e-01,
1.042205e-01,
-2.995984e-02,
4.829830e-01,
1.546164e-01,
-5.887403e-03,
3.053435e-01,3.117658e-01,9.373196e-03,1.583273e-01,4.443876e-01,-1.799257e-01,1.370836e-02,6.019112e-01,9.626893e-01,6.015234e-02,-4.430850e-01,2.437170e-01,5.279491e-02,-4.598375e-02,-5.460156e-01,-8.802656e-02,-7.048677e-01,3.402499e-01,1.237472e-01,1.394594e+00,1.502064e-01,-2.648228e-01,5.455977e-01,-3.861499e-01,-9.944603e-02,-3.781599e-01,3.594515e-01,-6.902460e-02,-2.789981e-02,3.538398e-01,2.336431e-01,7.338337e-01,1.943138e-01,-3.154703e-01,1.510057e-01,1.455448e-01,-6.739915e-02,-1.084414e+00,-1.012639e-02,1.997968e-01,1.577470e-01,-6.587426e-02,-1.223822e-01,5.599220e-01,-5.547747e-01,
4.632914e-01,1.131061e-01,1.975351e-02,2.024107e-01,5.033582e-01,4.913405e-01,1.022415e-02,-2.601091e-01,4.485688e-01,3.432330e-01,1.836260e-01,8.641011e-02,-1.726725e-02,-4.366069e-02,1.585132e-01,3.043717e-01,2.819454e-01,-6.204117e-01,-2.064735e-01,-5.233660e-01,-8.048288e-01,-1.180594e-01,-4.293409e-02,1.346090e-01,-1.997500e-01,-9.809364e-01,-6.213896e-02,-1.578302e-01,-2.790664e-02,4.308099e-01,2.377503e-01,5.262392e-01,-9.591364e-01,-2.902747e-01,-5.873240e-01,3.674735e-01,3.613001e-01,9.667020e-01,1.506244e-01,-3.439445e-01,1.421213e+00,-9.736560e-03,3.211527e-01,-3.418635e-01,1.747701e-01,
-7.848812e-01,1.698966e+00,-3.002170e-02,2.330875e-01,1.653835e-01,-5.357941e-01,4.510887e-02,2.913305e-01,5.183303e-01,3.022160e-02,5.443875e-01,8.719406e-01,7.947245e-03,-3.413910e-04,1.267797e-01,2.816586e-01,1.443204e-01,-2.242502e-02,-1.999972e-01,-2.864207e-01,-8.745185e-01,8.124785e-03,-4.387495e-01,-3.904332e-01,6.102737e-02,2.296553e-01,-6.168593e-01,-2.073012e-01,1.835147e-02,5.540980e-01,4.059579e-01,-6.332393e-01,-5.226713e-03,8.375730e-02,9.074578e-02,1.470523e-01,-4.011772e-01,-7.390598e-02,-5.120186e-01,-9.946386e-01,1.901915e-01,1.482482e-01,-1.742070e-01,4.224983e-01,-2.654861e-01,
-8.292321e-01,-8.098456e-01,-3.644790e-02,2.816763e-01,3.025956e-01,-5.288665e-01,1.467918e-02,3.227359e-01,1.306624e-01,1.787161e-01,3.813290e-02,2.612915e-01,5.242996e-02,-1.097795e-03,2.170662e-01,1.289383e-01,4.122264e-01,3.812254e-01,2.274164e-01,-1.117662e+00,3.276379e-01,2.025999e-01,6.402223e-01,-1.138397e-01,9.714224e-02,1.186537e-01,-2.933574e-01,-4.389270e-01,2.134370e-02,-6.037768e-02,6.064655e-01,-7.121428e-01,-3.461112e-01,-3.671917e-02,-3.401678e-01,1.943327e-01,2.149985e-02,-9.904577e-01,-4.761519e-01,2.578680e-01,3.876209e-01,1.936371e-01,2.574268e-02,1.459776e-01,2.658406e-01,
1.044326e-01,2.061673e-01,1.099410e-02,2.027685e-01,2.036114e-01,-8.769374e-02,4.650403e-03,-1.042083e-01,-4.999241e-01,2.760509e-02,1.260820e-01,3.062635e-01,6.982652e-03,1.428651e-02,-2.613361e-01,-2.734260e-02,-2.591537e-01,-1.876082e-01,1.628206e-01,-3.265975e-01,5.148027e-01,1.350070e-01,-4.794228e-01,4.282786e-02,-6.505995e-02,7.967798e-01,6.831122e-03,-1.640830e-01,-1.189195e-03,6.238994e-01,2.246614e-01,5.822985e-01,-1.767637e-01,1.364394e-01,9.560762e-02,1.439088e-01,-2.083936e-01,1.795116e-01,-1.604988e-01,-6.098615e-01,8.839255e-01,1.080133e-01,3.640546e-01,-6.157418e-01,-4.215592e-01,
1.848479e-02,-5.134614e-02,3.997681e-02,1.503645e-02,-1.191121e-02,1.680071e-04,4.316864e-02,2.172465e-02,5.417373e-03,2.732364e-02,-1.083398e-02,-1.517926e-02,2.633460e-03,-6.933274e-03,-3.522198e-02,-4.618119e-03,-4.728680e-02,-5.541491e-02,3.444215e-02,-4.522746e-02,-3.550424e-02,2.003054e-02,-5.862870e-03,-1.887715e-02,-2.614019e-02,-5.688512e-02,-5.448481e-03,-3.672600e-02,-7.466869e-03,1.381067e-02,-3.764429e-02,-2.289101e-02,3.019946e-02,-4.130575e-02,-3.747551e-02,-1.537762e-02,-3.740106e-02,-3.440976e-02,2.246291e-02,2.697003e-02,-4.582055e-02,8.848112e-03,-2.119373e-02,-1.124636e-02,2.305404e-02,
-2.784951e-01,6.172254e-01,-4.546851e-02,6.568972e-02,-2.856148e-01,2.910399e-01,-2.868913e-02,-1.422449e-01,-1.746862e-01,2.865144e-01,3.699917e-01,-3.972996e-01,-3.274799e-02,-1.365969e-02,-1.114605e+00,8.053362e-02,-8.792427e-02,-8.675342e-02,-3.669163e-01,-3.504370e-01,1.474912e-01,-3.186597e-01,6.339691e-01,-1.687188e-01,-2.440960e-02,-1.717503e-01,-1.801917e-03,3.130004e-01,1.960006e-02,4.752580e-01,-3.089661e-01,4.727891e-01,6.567920e-01,-1.468035e-01,4.281003e-01,6.564135e-03,5.548095e-02,1.690021e-01,-4.009081e-02,1.620304e-01,4.949254e-01,-1.918166e-01,1.215182e-04,5.634971e-01,-1.713685e-01,
-2.816670e-01,8.524190e-01,-1.834948e-02,2.583117e-01,5.910178e-02,5.124614e-01,-1.116113e-02,8.538200e-02,4.645531e-01,1.010415e-01,2.231314e-01,5.017647e-01,-2.711643e-02,4.956817e-02,-7.606667e-02,8.734271e-02,4.187002e-01,4.420611e-02,7.116036e-02,-3.455014e-01,2.203395e-02,-7.769592e-01,9.385353e-01,-6.427282e-01,1.708808e-01,1.580669e-01,2.249312e-02,-1.135989e-01,-4.403183e-02,1.350911e-01,-2.395687e-03,1.347232e-02,1.031234e-01,-2.566775e-02,3.417552e-01,1.772225e-01,-3.605282e-02,-5.054726e-01,1.007484e-02,2.953874e-02,4.190717e-01,-1.845785e-01,1.552474e-01,3.659674e-01,-6.951214e-02,
-9.658246e-02,6.521293e-01,-2.142222e-02,1.757129e-01,-4.687410e-01,8.529183e-02,-7.073862e-03,-3.461667e-02,1.609644e-01,-3.248360e-02,-1.369237e-01,3.767658e-03,2.293381e-02,4.008798e-02,-9.629550e-02,-9.205424e-02,2.249718e-01,-1.735158e-01,1.114533e-01,1.493681e+00,-2.585527e-01,5.725300e-01,-5.109102e-01,-7.778177e-02,-5.938396e-02,4.275088e-01,-1.323758e-01,-1.913032e-01,5.716064e-03,3.253693e-01,3.731102e-01,2.568034e-02,4.242806e-01,1.994916e-01,2.386725e-02,2.210460e-01,-1.139821e-01,-2.848520e-02,1.899415e-02,-3.982922e-01,-1.479789e-01,-5.259135e-03,1.325138e-01,3.683742e-01,1.035686e-01,
3.067667e-01,-1.124418e-01,-2.057462e-02,8.780462e-01,3.086971e-01,6.684878e-01,-3.063126e-02,7.244994e-01,1.385219e-01,4.075198e-01,8.132864e-01,3.179955e-01,-2.078207e-02,-1.498246e-02,-1.915073e-01,4.770075e-02,-5.101482e-01,6.082972e-01,3.281561e-01,-9.997435e-01,-5.536515e-01,4.930532e-01,7.414106e-01,-4.269938e-01,-5.996879e-01,-8.760054e-01,9.806378e-02,3.468405e-01,-3.495532e-02,-1.512492e-01,-4.205044e-01,5.853482e-01,3.853804e-01,-2.263962e-02,1.174675e-01,7.080631e-01,5.262530e-01,-6.824257e-01,6.879691e-01,7.240561e-01,1.359005e+00,6.660853e-01,-3.478935e-01,6.676217e-01,-2.364737e-01,
2.718613e-01,2.000162e-01,8.697845e-03,7.993539e-02,-6.212233e-01,4.897463e-01,-3.690165e-02,1.603411e+00,-4.499227e-01,4.227909e-02,-5.252136e-01,1.842280e-01,1.146912e-02,5.195984e-02,1.589886e-02,1.315537e-01,-3.106645e-02,1.177711e+00,8.597057e-02,-2.549948e-01,-3.945605e-02,1.008276e-01,5.084227e-01,-5.929272e-01,-3.544077e-01,-7.519747e-01,1.712264e-01,-3.482463e-01,4.606178e-02,8.171022e-01,8.397110e-02,6.539627e-01,1.178703e-01,-3.780605e-01,2.403672e-01,1.218171e-03,2.699121e-01,-2.243124e+00,3.666483e-01,5.220951e-01,1.231836e+00,1.507822e-01,-3.164068e-01,1.046476e+00,6.061422e-03,
-2.472128e-02,-9.168232e-01,1.184597e-03,7.959840e-02,3.118476e-01,1.234846e+00,1.992508e-02,3.250147e-01,6.369201e-01,-3.479195e-01,5.375809e-01,6.877781e-01,2.563308e-02,3.427453e-02,2.624262e-01,-5.903253e-01,-2.607492e-01,2.406228e-01,-2.838348e-01,-4.318034e-01,-7.274703e-01,6.341708e-01,5.889553e-01,-1.124816e+00,-1.816313e-02,-5.958467e-01,-1.448372e-01,1.663215e-01,2.143569e-02,-4.161114e-01,6.293948e-01,2.726386e-01,8.570536e-01,-1.247215e-01,-3.823295e-01,1.833712e-01,-1.781715e-01,-5.499403e-01,2.976077e-01,4.077973e-01,1.668055e-01,-1.470131e-01,-7.463981e-02,-5.456367e-01,4.256269e-02,
-3.356398e-02,-1.889347e-02,-6.825857e-03,-2.492352e-01,4.508927e-01,-1.023948e-01,1.115463e-01,3.137118e-02,-3.966449e-01,-3.502016e-01,5.890092e-01,-2.351955e-01,-6.818078e-04,2.267586e-02,-2.547889e-01,1.616130e-01,7.381868e-01,7.015682e-02,1.788741e-01,2.412851e-01,-2.364686e-03,-1.062991e-01,7.891490e-01,-3.977178e-02,-2.556564e-02,1.813723e-01,-1.647512e-01,3.535403e-01,-1.610060e-02,3.031941e-01,-1.025111e-01,-1.160060e-01,-2.332087e-01,1.190500e-01,-3.346546e-01,3.964908e-02,9.964436e-02,2.606688e-01,-2.133313e-01,-1.855877e-01,-1.715949e-01,4.544432e-01,3.774466e-03,-1.877377e-01,4.212432e-02,
3.052107e-02,-3.303711e-02,-4.028665e-02,2.309639e-02,-5.649004e-02,1.212955e-02,4.659152e-02,3.208952e-02,-4.059009e-02,-5.550994e-02,6.538821e-03,1.460716e-02,1.761311e-02,3.307370e-03,7.019325e-03,1.358524e-02,2.385154e-03,-1.479572e-02,1.310407e-02,-3.362615e-02,-3.498361e-02,2.655664e-02,-3.738881e-02,-3.828479e-02,-4.515115e-02,-1.691648e-02,5.452443e-03,-5.382657e-02,-1.139770e-02,2.219860e-02,-1.065467e-02,2.645819e-02,-5.244041e-03,-2.645414e-02,2.811775e-03,-7.090380e-03,-4.648527e-02,-3.506610e-02,3.125730e-03,1.191982e-02,-5.299707e-02,-5.870148e-02,-4.583639e-02,-4.070340e-02,-4.841163e-02,
1.889762e-01,4.181802e-01,-3.219963e-02,3.629882e-02,6.461684e-01,2.960284e-02,-1.008215e-02,-3.392597e-02,-2.394060e-01,-7.020498e-02,-3.527896e-01,1.733155e-01,-8.538577e-03,-2.274754e-02,-2.440324e-01,4.293962e-01,2.062531e-01,4.734824e-02,-1.672663e-02,9.458005e-01,-4.372719e-02,1.404602e-01,-4.676376e-01,3.953705e-03,1.816152e-02,3.645865e-01,6.288217e-01,7.447566e-02,-2.187894e-02,-7.697387e-02,-1.236761e-01,1.531746e-01,-8.631555e-02,-7.166955e-02,4.035364e-02,-7.779934e-02,1.527242e-01,-2.437022e-02,-5.313640e-01,-6.401284e-01,-1.554502e-01,4.970161e-02,5.663405e-04,7.763136e-01,-5.434166e-01,
-1.632521e-01,5.616290e-01,2.516970e-02,-8.829612e-02,-9.733882e-01,7.413967e-01,-1.886138e-03,1.179742e+00,-3.997709e-02,-2.709935e-01,5.381607e-01,-2.365654e-01,4.299203e-02,1.794464e-03,3.073868e-01,-7.646983e-01,6.976943e-02,1.506203e+00,2.545162e-01,1.108557e+00,1.083955e-01,-2.512273e-01,-8.124733e-02,-3.436592e-01,-2.060404e-01,-2.324406e-01,2.054320e-01,-5.741013e-02,3.306467e-02,-2.017262e-01,5.321196e-01,5.069775e-01,-2.413856e-01,-2.891554e-01,3.640419e-01,-5.526001e-02,2.680033e-01,-3.478915e+00,5.178909e-02,-4.191623e-02,-4.260910e-01,-5.719379e-02,-5.894242e-01,3.816148e-01,2.128486e-01,
-1.139899e-02,2.666852e-01,-3.553899e-02,-1.593579e-01,3.034724e-01,1.374236e-01,-6.386121e-02,-2.413103e-01,-2.851257e-02,-3.107422e-01,1.037802e-01,-2.885112e-01,-4.798564e-02,3.817387e-03,-3.033122e-02,1.422133e-01,1.305133e-01,3.245895e-01,2.430968e-01,-6.691879e-02,6.149940e-04,-4.850601e-02,9.105833e-02,-2.905596e-01,4.548176e-01,-1.967647e-02,1.565212e-01,-1.449047e-01,3.767874e-02,-1.004278e-01,2.455029e-02,1.727235e-01,1.907077e-01,-2.571107e-01,-1.439630e-01,-1.463009e-01,3.636742e-02,1.931024e-01,-1.462440e-01,4.965626e-01,6.589027e-01,1.565573e-01,7.549794e-01,8.181627e-03,-4.183824e-01,
1.080252e-01,4.204332e-01,2.268425e-02,1.814376e-01,-5.540311e-01,1.446821e-01,-9.974775e-03,-3.534427e-01,4.399744e-01,-2.982382e-01,-3.830020e-01,8.306069e-01,6.414403e-03,-3.470422e-02,2.638720e-01,3.822417e-01,-7.823275e-02,-1.511342e-02,1.554632e-01,-5.096802e-01,-8.063049e-01,-2.539979e-01,-2.174919e-01,2.178874e-01,-2.461730e-02,1.552459e-01,3.025113e-01,1.018521e-01,2.507877e-02,-4.716734e-01,-1.453217e-01,1.526967e-01,-2.622186e-01,-2.119764e-01,6.630558e-02,1.539062e-01,1.818344e-02,3.546002e-01,6.654327e-02,-5.421019e-01,-7.222091e-01,1.288546e-01,3.034047e-02,2.489740e-01,2.242135e-01,
5.507913e-01,-5.810279e-01,1.312560e-02,8.348306e-04,1.489449e-01,-1.128849e+00,-8.409680e-03,-4.492960e-02,-1.400688e-01,-2.089575e-01,1.878612e-01,-2.105639e-01,6.296119e-03,5.209533e-03,1.360934e-01,2.408503e-01,-4.278978e-03,1.778649e-01,-2.051508e-01,-3.707793e-01,-2.699381e-02,4.012894e-01,2.706114e-01,1.495387e-01,-7.309828e-02,-8.254347e-01,5.971962e-01,1.604700e-01,-2.299223e-02,-3.783146e-01,-3.453279e-01,-3.311594e-01,4.523403e-01,-6.603239e-02,-1.535310e-01,-6.710784e-02,1.637237e-01,-5.601437e-02,4.116819e-01,5.317037e-01,7.580996e-01,-1.302827e-01,-3.814563e-02,-2.416534e-01,2.228924e-02,
1.930228e-01,-6.080866e-02,-4.602743e-02,3.053861e-02,-4.351474e-01,1.690714e-01,4.278986e-02,4.060764e-02,1.295300e-01,-3.443122e-02,1.690635e-01,-4.734522e-01,-3.600342e-02,-4.495766e-02,-3.659302e-01,-1.582818e-01,6.135152e-02,1.013945e-01,-3.149591e-01,2.822560e-01,-2.032577e-01,-1.215072e-01,3.190157e-01,7.095876e-02,-5.100078e-02,2.300776e-01,-1.610028e-01,2.235363e-01,-1.551662e-02,-4.747922e-01,-4.056066e-01,3.655688e-01,-9.317850e-01,-3.233252e-01,-1.985575e-01,5.495727e-02,3.361550e-01,5.444318e-02,-4.157035e-02,2.661612e-01,4.317702e-01,7.298725e-02,-1.658653e-03,2.699005e-01,-2.915587e-02,
2.841682e-01,3.658194e-01,4.249701e-02,6.744220e-02,6.979493e-02,-1.102225e-01,-5.365653e-02,1.280820e-01,-6.546481e-01,-1.134165e-01,3.579580e-01,-5.534408e-01,4.062936e-02,1.205941e-03,-2.104430e-01,5.938427e-01,-2.320557e-01,-3.132120e-01,-1.423875e-01,-7.088222e-01,1.010781e-01,-1.334457e-01,7.604498e-01,1.369976e-01,5.486121e-02,-1.385922e+00,-9.873639e-01,-1.138296e-01,-2.191846e-02,-3.654195e-01,3.127724e-01,2.364332e-01,-6.672188e-01,2.385699e-01,-6.939857e-01,5.220571e-02,4.934292e-01,1.073133e-01,-1.006610e-01,-5.253208e-02,-2.329690e-01,3.262579e-01,1.402499e-01,-2.770957e-01,-1.126675e+00,
2.321362e-02,2.352431e-02,3.919952e-02,-5.895703e-02,-1.577690e-02,-3.426153e-02,4.089054e-02,-2.867880e-02,-3.721284e-02,-6.142166e-02,2.771890e-02,1.225766e-02,-3.787882e-02,-7.379458e-03,3.412521e-02,-5.184190e-02,-5.814731e-02,-4.946343e-02,-3.655975e-02,6.421033e-05,-3.039721e-02,-5.522031e-02,-3.382505e-02,2.095392e-02,2.788839e-02,2.303158e-02,-7.955833e-03,-1.015075e-02,2.073267e-02,3.533828e-02,3.601323e-02,-5.015711e-02,-7.499974e-03,-8.146355e-03,-1.292257e-02,-1.648504e-02,-1.805578e-03,3.443274e-02,9.539643e-03,-2.114690e-02,2.782062e-02,-4.270490e-02,-5.018552e-02,2.502273e-02,3.951704e-03,
2.107525e-01,1.152068e+00,-2.520959e-02,6.362756e-02,-1.498214e-01,-6.212336e-01,-8.271475e-03,-7.264875e-01,-3.699041e-01,9.530704e-02,4.010976e-01,-6.965151e-01,-3.944833e-02,4.440387e-02,1.786985e-02,-4.458770e-02,-8.582187e-01,-2.625656e-01,3.866840e-01,8.181106e-01,1.293106e-02,-2.232460e-01,-5.481360e-01,4.988567e-01,5.477905e-02,1.877236e-01,2.030361e-01,-1.059361e-01,5.982068e-03,-3.869677e-01,2.643608e-01,8.002614e-01,-1.035969e-01,-3.088020e-01,2.955134e-01,-3.451365e-02,5.032136e-01,1.062927e+00,8.842464e-02,2.068558e-01,-5.618957e-01,3.103927e-02,1.632124e-01,1.664489e-01,-6.948180e-01,
2.462141e-02,-4.107576e-02,4.171473e-02,2.357274e-03,1.283194e-02,9.133419e-03,-2.165699e-02,-4.584637e-02,4.983291e-03,-5.938402e-02,1.623301e-02,1.767734e-02,-2.964880e-02,2.465123e-02,-2.774222e-02,-2.790177e-02,-3.848357e-02,2.861030e-03,-3.124982e-02,-5.069799e-02,-4.789624e-02,-4.170661e-02,-1.395550e-02,6.028141e-03,-4.636287e-02,-2.725627e-02,2.843678e-02,1.211766e-02,3.870521e-02,5.387287e-04,-5.850406e-02,3.136957e-02,-1.593753e-02,-8.392542e-04,-7.260657e-03,-3.098697e-03,-1.207887e-02,2.819338e-02,-3.205612e-02,-2.695581e-02,-2.419374e-03,3.294069e-04,-3.177276e-02,-1.417083e-02,5.358130e-04,
1.873534e-01,-1.697931e-01,-3.030196e-02,-1.106202e-01,1.674601e-01,-1.119239e-01,-1.969121e-02,-8.689381e-01,1.819165e-01,2.073969e-01,-3.554161e-01,-2.001199e-02,3.598551e-02,4.647885e-02,2.152939e-01,2.093180e-01,-1.071683e-01,-8.541250e-01,2.692365e-01,-6.273340e-01,1.414842e-01,-1.428481e-01,9.600423e-02,6.160526e-01,2.043010e-01,-2.058500e-01,1.452290e-01,-4.781414e-02,2.432185e-02,1.086848e-01,-3.107837e-01,-1.805842e-02,-1.271273e-01,1.786377e-01,9.384360e-02,-1.015865e-01,5.832993e-01,1.677266e+00,2.227517e-01,4.709558e-01,1.588623e-01,-1.073761e-02,1.603169e-01,1.243872e-01,-1.681284e-02,
-2.413946e-01,6.980088e-01,-4.460318e-02,1.118012e-01,-2.639625e-02,-6.059341e-01,5.527988e-02,-3.255080e-01,1.989786e-01,1.392426e-02,1.990661e-01,4.806774e-01,-6.595519e-03,3.039519e-03,2.539257e-03,1.056275e-01,5.980960e-02,-5.868376e-01,-2.550328e-01,4.280413e-01,-4.212962e-01,5.866980e-01,3.986690e-01,2.679389e-01,-1.868351e-01,-3.448687e-01,-3.099084e-01,6.932241e-02,1.297787e-02,-2.993584e-01,1.475142e-01,1.397483e-02,6.465156e-02,8.276999e-03,-2.949990e-01,2.044739e-01,3.240895e-01,1.333329e+00,5.260307e-02,-3.511456e-01,6.631625e-01,1.745800e-01,3.586374e-01,4.267832e-01,-1.652461e-02,
-1.201597e-01,-1.633091e-01,4.784980e-03,2.892468e-01,2.181647e-01,-5.158533e-01,-3.598741e-02,1.053906e+00,4.400926e-01,-5.520860e-02,2.586933e-01,-1.906508e-01,-1.198222e-02,-2.345983e-02,4.912955e-01,1.584097e-01,-1.482266e-01,6.706060e-01,4.424211e-04,-4.310077e-01,1.664698e-01,1.935643e-01,-1.433403e-01,-4.032777e-01,-2.261896e-01,-1.914791e-01,-1.302806e-01,-5.774802e-02,-1.416792e-02,8.675770e-02,2.365653e-01,2.123355e-01,-3.751032e-01,1.624445e-01,2.497268e-01,1.335410e-01,-3.705694e-03,-1.194786e+00,-1.553400e-01,-7.115258e-03,-1.657754e-01,1.819068e-01,-9.548798e-02,1.493923e-02,-3.048290e-01,
-1.983364e-01,-6.482305e-02,1.940282e-02,3.024022e-01,-4.493476e-01,-1.904888e-01,6.012320e-02,-6.401362e-03,-1.162547e-01,-1.131495e-01,-1.423286e-01,4.127582e-02,-1.421515e-02,-4.498364e-02,3.246256e-01,-3.889263e-01,-1.278043e-02,-2.716360e-01,-1.922377e-01,2.307865e-01,7.937224e-02,6.178478e-02,2.177566e-01,-3.433486e-01,-1.074161e-01,2.606541e-01,5.618392e-01,2.098683e-01,-3.748890e-02,-1.276493e-01,-1.423543e-01,3.832562e-02,7.641966e-02,-1.330007e-01,3.229247e-02,1.939283e-01,1.889157e-01,1.065685e-01,-1.701203e-01,-4.146836e-02,2.240959e-01,3.205647e-01,9.444360e-02,1.484502e-01,-6.844652e-01,
1.545739e-01,-1.005652e-01,4.186289e-02,1.694876e-01,-5.807766e-01,1.590915e-01,2.503382e-02,-3.455792e-02,1.673672e-01,-2.592154e-01,5.521204e-01,4.573336e-01,-3.179578e-02,-3.229025e-02,-2.580288e-01,-1.251419e-01,-2.123938e-02,2.916660e-01,-8.214004e-01,-2.615087e+00,4.064520e-01,3.441546e-01,6.756239e-01,-1.288683e-01,-9.322315e-02,8.883018e-01,-1.607770e-01,2.844004e-02,-8.398465e-03,-1.886096e-01,6.703082e-02,3.241901e-01,-1.333788e-01,1.739813e-01,-2.510245e-01,1.717868e-02,4.784314e-01,-4.744842e-01,-1.648434e-01,5.167030e-01,1.021895e+00,1.737650e-01,-1.483426e-01,1.683890e-01,6.607395e-01,
2.072150e-01,-3.164638e-01,-2.303608e-03,2.635833e-01,8.211055e-01,2.089854e-01,-1.392514e-03,6.254503e-01,1.133674e-01,9.646853e-02,-2.548279e-01,5.307025e-01,-2.158184e-02,-2.250866e-02,-1.031979e-01,-5.073341e-01,-1.111771e-01,4.231676e-01,-2.352725e-01,1.395546e-01,4.365502e-01,-2.213320e-01,-7.761092e-02,-6.984706e-01,-2.054926e-01,-3.221662e-01,-9.214367e-02,-1.970621e-01,-3.328372e-02,1.472191e-02,3.912899e-01,2.241454e-01,-4.438975e-02,1.701509e-01,3.577297e-01,1.105966e-01,1.178165e-02,-1.090839e+00,7.043621e-02,-4.467961e-01,8.368247e-01,-7.570909e-02,-1.055497e-01,2.439319e-01,1.969221e-01,
1.074527e+00,7.485893e-01,-1.546425e-02,5.408905e-01,1.868159e-01,2.521390e-01,-2.284980e-02,1.027204e+00,1.547638e-01,7.127838e-01,3.338793e-01,1.990711e-01,4.545230e-02,6.312255e-03,2.116819e-01,9.172110e-02,3.957399e-01,5.154207e-01,-4.491751e-02,-3.670659e-01,-3.324770e-01,4.646744e-01,-2.753634e-02,-4.361016e-01,-1.668459e-02,-2.984576e-01,6.220397e-01,4.522506e-01,1.659891e-02,-1.235882e-01,-4.358276e-02,1.089054e+00,3.928509e-01,5.252655e-01,3.019045e-01,5.027497e-01,3.380627e-01,-8.187844e-01,8.410639e-01,4.383530e-01,8.542635e-01,6.615254e-01,-1.717127e-01,4.723532e-01,-7.043800e-01,
3.641262e-01,-4.782429e-02,1.829543e-02,1.435902e-01,-1.421867e-02,7.406375e-02,-3.582333e-02,3.518501e-02,2.811058e-01,-1.681114e-01,-6.615832e-02,-3.185908e-01,-1.005801e-02,-1.480152e-02,9.087674e-01,-2.116483e-02,-4.023963e-01,4.729059e-02,-1.420165e-01,1.910198e-01,2.502790e-01,2.978465e-01,-1.326951e-02,1.086090e-01,-3.467993e-03,-4.345147e-02,-4.822168e-03,-2.899500e-01,1.552162e-03,-8.342544e-01,-1.319226e+00,-9.396196e-02,3.299632e-01,7.087958e-02,-4.247444e-01,-3.372611e-02,3.609682e-01,-5.951308e-02,2.159052e-01,-7.866551e-02,4.076082e-01,-1.620546e-01,9.943327e-03,-5.464925e-01,1.368993e-01,
-2.984868e-02,4.555239e-01,6.415514e-03,-5.947558e-01,-1.669462e-01,3.891006e-01,1.845546e-02,-1.006075e+00,1.331172e-01,-1.996676e-01,4.113127e-01,8.334450e-01,4.856907e-03,3.365324e-02,3.102800e-01,2.233420e-01,1.667697e-01,-3.614458e-01,4.941743e-01,4.740719e-01,-1.215311e-02,6.807827e-01,2.332564e-01,1.345792e+00,1.327322e+00,3.389592e-01,-2.382206e-01,6.876383e-02,2.717831e-02,2.359135e-01,2.130842e-01,5.785988e-01,2.996032e-02,-3.093751e-01,1.732988e-01,-6.353384e-01,1.876715e-01,1.290831e+00,3.153573e-01,-1.517698e-01,1.811576e+00,-1.814706e-01,1.186650e+00,6.082765e-01,1.715839e-01,
2.915249e-03,-4.586614e-03,3.770595e-02,6.706041e-03,3.083078e-02,2.276501e-02,4.378276e-02,-7.359901e-03,-3.953167e-02,-1.259538e-02,-3.242516e-03,-5.198785e-02,-4.316976e-02,4.529379e-02,1.676147e-03,3.400978e-02,-3.806050e-02,3.949788e-02,-1.406558e-03,-3.689975e-02,1.017560e-02,-1.469908e-02,3.380540e-02,3.237502e-02,2.501339e-02,-1.147861e-02,-1.042463e-02,-1.572728e-02,3.008667e-02,6.445070e-03,-2.090367e-02,-1.161539e-02,-3.029078e-02,-3.242368e-02,-7.170436e-03,-1.261188e-02,2.000826e-02,-2.878609e-02,8.866812e-03,-1.344387e-02,-4.339841e-02,-3.786309e-02,-4.237877e-02,-5.137201e-02,-2.672859e-02,
1.896679e-02,3.657278e-01,-2.147848e-02,2.239715e-01,6.733681e-01,2.666464e-01,-3.181737e-03,-3.556155e-01,-2.444148e-01,1.036196e-02,-4.702538e-02,4.822868e-01,-2.278233e-02,-2.859177e-02,1.993852e-01,8.769357e-02,-6.248096e-01,-6.829221e-01,-2.836875e-01,-1.117754e-01,-6.380650e-01,9.659716e-01,-2.019199e-01,3.739865e-01,-6.647623e-03,-1.803233e-01,2.320788e-01,2.556987e-02,-7.774718e-03,-2.006369e-01,-8.593123e-02,3.070063e-01,2.112619e-01,-3.454025e-01,-1.949795e-01,1.797004e-01,3.579794e-02,8.815485e-01,2.292984e-01,-8.339472e-02,-1.669183e-02,6.746729e-02,1.219248e-01,2.167532e-01,-5.913897e-01,
-2.371117e-01,5.156498e-01,-3.411578e-03,2.258048e-01,-3.752600e-01,3.677890e-01,-6.970370e-04,8.191665e-02,-1.148528e-01,1.594304e-01,-7.007381e-02,-3.668786e-01,1.425026e-02,5.327533e-03,-3.195719e-01,-2.480423e-01,1.199685e-01,-1.395539e-01,6.098977e-02,2.227222e-01,6.205682e-02,8.143528e-01,4.658222e-01,-9.133217e-02,-1.395588e-02,1.639930e-02,-2.482731e-01,1.576469e-01,-3.853911e-02,-7.652605e-02,2.006947e-01,-9.578788e-02,7.053366e-01,-1.066292e-01,-1.354537e-01,2.276503e-01,-1.762183e-01,4.144220e-01,1.520057e-01,1.664217e-01,-7.500879e-02,8.169443e-02,2.214094e-01,-2.978913e-01,-1.375297e-02,
2.348546e-01,1.208200e-02,2.089322e-02,-3.806634e-01,-8.437862e-02,-2.556709e-01,1.928679e-02,-5.338236e-01,-6.867416e-02,-1.942182e-01,2.602679e-01,-1.170694e-01,-6.742733e-03,-4.025605e-02,4.645144e-01,3.945604e-01,3.555059e-01,-2.665647e-01,2.967734e-01,1.474371e-01,-4.236664e-01,-2.145927e-01,1.066185e-01,3.971002e-01,8.499119e-01,2.517300e-01,-1.969519e-01,-1.887843e-01,4.092991e-02,-3.974824e-02,3.862858e-02,2.052333e-01,-2.509546e-01,-1.160447e-01,3.250073e-02,-3.855599e-01,4.303037e-01,8.766022e-01,-1.245831e-01,1.347368e-01,-6.240032e-01,8.673315e-02,1.073889e+00,7.118452e-03,-1.450937e-01,
-3.443874e-02,-4.866533e-02,-4.465130e-02,9.196281e-03,-4.054208e-02,-4.139724e-02,-4.458788e-02,-3.143935e-02,-2.354470e-02,-3.231169e-02,-4.636727e-02,1.529077e-02,-2.900831e-02,2.523755e-02,1.253791e-02,-2.708007e-02,2.485313e-02,-3.192104e-02,-3.739157e-02,-4.378571e-02,-2.755631e-02,3.164426e-02,-4.088164e-02,-1.424018e-02,1.508139e-03,-3.158667e-02,-4.862744e-02,1.266509e-02,-1.369827e-02,2.032679e-02,-4.619473e-02,-3.644063e-02,-1.068496e-02,-3.072398e-03,-1.125080e-02,2.185674e-02,3.365104e-02,-1.916041e-02,-7.571593e-03,1.678450e-02,1.663405e-02,5.813521e-04,-4.873713e-02,-2.940774e-02,2.781151e-02,
-2.070409e-01,2.872350e-02,-5.210205e-03,4.003098e-01,-2.168962e-01,1.818339e-01,-1.226604e-02,7.072800e-01,-7.125852e-02,4.265479e-01,4.900419e-01,-7.709409e-02,1.158877e-02,-1.655735e-02,1.131913e-01,1.732403e-01,9.000149e-02,1.312081e-01,-2.182327e-02,6.859651e-02,4.458873e-01,2.955387e-01,8.816335e-01,-5.033479e-01,-2.312944e-01,-7.418412e-02,-6.020357e-02,1.503876e-01,5.443855e-03,2.333499e-01,2.735786e-01,3.302523e-01,-1.110253e-01,5.398904e-03,3.249291e-01,3.084550e-01,1.917155e-02,-4.423985e-01,5.493552e-02,6.498110e-02,5.262309e-01,1.319124e-01,-1.479844e-01,7.275318e-02,-3.161805e-01,
1.693732e-01,-6.208002e-01,2.577276e-02,7.897770e-01,6.370997e-01,3.169366e-01,1.283340e-02,1.176907e+00,1.296604e-01,6.195707e-01,8.546299e-01,3.980332e-01,5.533313e-02,1.312541e-02,3.757174e-01,7.014255e-01,5.120672e-01,8.651491e-01,4.430158e-01,-6.410549e-01,4.451990e-01,-3.227646e-02,8.273692e-01,-5.549543e-01,-2.196771e-01,-4.052474e-01,1.209355e-01,-8.125290e-02,1.604103e-02,2.368904e-01,3.898531e-01,-2.562008e-01,3.140978e-01,3.200839e-01,4.937899e-01,5.839039e-01,7.364528e-01,-1.322463e+00,2.322432e-01,7.582399e-01,-4.269583e-01,4.023019e-01,-4.517092e-01,-1.034328e-01,-4.809409e-02,
5.149511e-01,5.503679e-01,-4.868035e-02,1.454790e-01,-1.756601e-01,7.705847e-01,6.885821e-02,7.397200e-01,6.386713e-01,2.355168e-01,-4.074144e-01,1.164720e+00,-1.975970e-03,1.213822e-02,-1.702682e-01,1.312047e-01,1.319944e-01,3.912235e-01,-1.469215e-01,-1.120896e-01,-1.535721e-01,-1.581244e-01,3.790540e-01,-7.290069e-01,-2.638509e-01,-3.360683e-01,7.790704e-01,-1.730483e-01,4.784133e-02,-6.142997e-01,5.326921e-01,2.879694e-01,7.730924e-01,-1.712940e-01,-1.326703e-01,7.234801e-02,-1.011547e+00,-8.739897e-01,-1.855267e-01,4.062227e-01,-2.397824e-01,-2.512494e-01,-2.857881e-01,1.353414e+00,-8.073881e-01,
-3.291291e-01,1.099998e+00,4.910179e-02,2.753593e-01,9.651933e-02,3.361860e-01,-2.710995e-02,6.644785e-02,2.624649e-01,-8.365322e-02,5.183239e-01,1.394055e-02,5.140905e-02,4.845623e-02,-3.221796e-01,-2.231900e-01,2.266305e-01,-2.226015e-01,-7.373556e-02,6.354135e-01,1.795715e-01,-4.507786e-01,-2.713094e-01,1.398651e-01,5.745233e-02,4.596192e-01,-3.364289e-01,-3.348067e-01,-2.325300e-02,4.640424e-01,5.331716e-02,5.691776e-01,-9.919055e-01,7.308667e-02,-2.990907e-01,2.655419e-01,-1.284926e-01,2.197219e-01,-3.128189e-01,-1.482230e-01,-5.021117e-01,-5.504047e-02,2.330859e-01,2.338378e-01,-3.470569e-01,
4.766628e-02,9.839435e-01,2.791915e-02,-9.615586e-02,1.735827e-01,-2.197941e-01,2.328842e-02,-2.764121e-01,7.523733e-03,-6.301814e-02,1.350047e-01,2.765743e-01,2.199222e-02,2.651336e-02,-1.770728e-02,1.803597e-01,-6.088204e-01,-4.407371e-02,5.561981e-01,-7.205926e-02,-4.716238e-01,3.248965e-02,-2.451809e-01,6.486937e-01,1.322781e-01,1.127006e-01,-2.052426e-01,9.501832e-02,6.147390e-05,2.906516e-03,1.040944e-01,-9.256670e-02,4.282701e-01,-2.256653e-01,5.500483e-02,-1.196344e-01,2.490390e-01,7.583464e-01,-2.252690e-01,2.609471e-01,1.441456e-01,4.970505e-01,1.957860e-01,1.691028e-01,-4.777710e-01,
-7.106601e-03,4.878045e-03,-1.284246e-02,4.783854e-03,-1.726241e-02,-9.360013e-02,-3.991843e-02,-3.304212e-02,-6.855278e-03,-6.180785e-02,1.125263e-02,-6.662839e-02,3.282253e-02,9.862792e-03,-1.048657e-01,-6.373813e-02,2.353216e-02,-8.480737e-02,-8.212585e-03,9.296898e-03,-7.901633e-02,-7.587519e-02,-5.228089e-03,1.070648e-02,-1.152686e-01,1.508455e-02,1.616951e-02,2.296795e-02,-1.002231e-02,-1.984155e-02,1.788898e-02,-5.036306e-04,4.885647e-02,3.320836e-03,-7.337966e-02,7.298769e-03,-5.925877e-03,-2.015274e-02,9.839912e-03,-5.884920e-02,6.087980e-02,-2.152730e-02,1.519900e-02,1.099015e-02,-6.875639e-02,
2.359225e-01,-8.289534e-01,1.122884e-02,4.562271e-02,-1.682326e-01,2.925937e-01,3.207056e-02,2.831024e-01,1.928876e-01,-2.524509e-01,-4.963172e-01,9.832613e-01,-1.290687e-02,-1.938828e-02,3.756287e-01,-4.403591e-01,-9.943164e-02,4.080707e-01,2.861748e-01,3.206264e-01,-1.439021e-01,-3.977639e-01,5.700051e-02,-2.586921e-01,-2.527489e-01,3.774720e-02,7.445747e-01,1.825141e-01,-1.766180e-02,6.063801e-02,1.433868e-01,7.021477e-01,-6.350961e-01,-1.052123e-01,3.718204e-03,1.636393e-02,1.482894e-01,-7.884458e-01,-4.399763e-03,-3.007754e-01,7.889922e-01,-2.074846e-01,-1.496663e-01,1.058556e-01,-5.284111e-01,
8.118562e-02,
-2.255985e-01,
1.354373e-01,
6.940898e-02,
-7.702585e-02,
-1.212651e-02,
-2.942534e-02,
-5.146016e-02,
-4.477598e-02,
4.267526e-01,
1.676892e-01,
-2.198422e-01,
-8.194988e-02,
-1.505764e-02,
9.668586e-02,
2.973818e-01,
9.331922e-02,
5.599645e-02,
1.120752e-01,
1.182765e-01,
4.662757e-02,
-1.883028e-02,
-7.658041e-02,
-3.983688e-03,
1.137229e-01,
-1.106740e-01,
1.994391e-01,
-4.637165e-02,
-9.001564e-02,
2.227759e-01,
3.873138e-01,
-2.366670e-02,
3.171376e-01,
-1.760847e-02,
-1.122011e-01,
-8.123013e-02,
2.966361e-01,
-2.062904e-02,
1.680651e-01,
1.649430e-01,
1.011796e-01,
8.565129e-02,
-4.306035e-02,
-3.506673e-02,
1.225006e-01,
-2.362530e-01,3.435889e-01,1.092187e-02,-4.004287e-01,4.051742e-01,-9.581985e-03,1.028001e-01,1.275641e-01,3.279238e-01,2.004809e-01,-4.689597e-01,-1.454682e+00,4.027522e-01,-1.636588e-02,-6.160463e-01,1.935143e-01,2.495766e-02,1.707658e-01,5.489960e-01,-2.376326e-01,3.467432e-01,5.006045e-02,1.373591e-01,-5.350171e-02,7.719468e-01,3.088046e-01,7.068136e-02,5.989763e-01,-2.759940e-02,3.702991e-01,-5.612899e-01,7.924303e-01,2.911551e-02,-1.700601e-02,7.180861e-01,4.560872e-01,1.254099e-01,-4.190627e-02,5.810885e-01,-8.692601e-03,3.729099e-02,6.856364e-03,-3.451425e-01,9.769014e-02,1.700040e-01,
-4.640170e-01,-2.114505e-01,2.507044e-01,3.848092e-01,7.350339e-01,4.376101e-02,-4.504469e-01,-2.208782e-02,-2.120644e-01,2.842067e-01,1.495634e-02,-2.191443e-01,6.549298e-01,3.811813e-02,-4.041938e-01,4.776440e-01,9.636351e-02,5.645865e-01,-1.295929e-01,3.883379e-01,8.627401e-01,-4.313736e-02,8.187104e-01,2.917765e-02,2.494671e-01,4.483074e-01,9.803533e-02,7.304291e-01,-5.817755e-01,-2.284293e-02,-4.928111e-01,1.168148e-01,-3.045662e-02,-7.671976e-04,-7.455689e-02,5.486451e-01,-6.911974e-02,-1.547136e-02,3.362498e-01,-2.724143e-01,1.512267e-01,-7.920320e-01,1.809004e-01,-6.646205e-02,3.583317e-01,
3.157970e-01,-6.229870e-01,-2.461348e-01,2.302837e-01,-2.792649e-01,3.754952e-02,3.576246e-01,-1.200901e-01,9.342024e-02,4.820564e-01,2.005682e-01,-3.879099e-01,6.062055e-01,-3.464543e-02,2.701428e-01,-6.193650e-02,3.491004e-02,4.463159e-01,-1.370691e-01,-2.061680e-01,-4.186840e-01,-4.003580e-02,7.241213e-02,-1.705525e-02,1.143774e-01,7.737018e-02,-8.735096e-02,-2.884613e-01,2.828814e-01,3.858886e-02,-6.778098e-01,-2.587398e-01,1.302042e-01,-7.934419e-03,3.788831e-01,6.124268e-01,1.999436e-02,4.696046e-02,1.579572e-01,1.027103e-02,1.946101e-01,4.242519e-01,1.920968e-01,-1.991705e-02,-1.470438e-01,
-4.051813e-03,-2.131133e-02,6.657481e-02,3.410747e-03,-1.925589e-02,4.048645e-02,-2.519632e-04,1.673408e-02,2.282970e-02,8.801367e-06,-3.177428e-02,6.372278e-02,3.076477e-02,4.904326e-02,-1.421593e-02,4.401426e-02,-3.975228e-02,-1.086338e-02,-5.919846e-03,-7.221887e-02,2.591511e-02,-1.272123e-02,-4.747718e-02,-2.376076e-02,-8.232166e-03,-1.840089e-02,-3.636569e-02,4.091556e-02,6.328305e-02,-7.658838e-02,-1.633778e-02,7.586147e-02,1.948769e-02,-2.944820e-02,3.941660e-02,-7.705642e-02,-3.728407e-02,-7.992573e-03,-1.540065e-02,-4.532332e-02,-1.993388e-02,4.223731e-02,-2.172696e-02,6.441809e-03,-3.079067e-02,
-1.130884e-01,-4.549732e-01,-1.216202e-01,-1.502233e-01,2.259579e-02,-4.500180e-03,-1.944146e-01,4.950275e-01,-3.889053e-01,2.445381e-02,1.934823e-01,4.440491e-01,1.091438e+00,2.753057e-02,4.299603e-01,-3.405195e-01,1.248217e+00,1.881196e-01,9.902062e-01,-2.051469e-01,2.228316e+00,-2.291826e-02,-2.213744e-01,1.597162e-02,8.162698e-01,3.988400e-01,1.173573e-01,1.697761e-01,3.388161e-01,-2.088692e-02,-2.569667e-01,4.254889e-01,3.595636e-01,-3.666610e-02,-1.147295e+00,-1.648938e-01,4.858659e-01,3.526495e-02,1.404212e-03,-1.115236e-01,4.896234e-01,3.420245e-01,-2.930666e-01,-2.716150e-02,-8.036043e-02,
7.937770e-02,8.186699e-02,-6.676236e-02,-2.435642e-02,5.559401e-01,1.221589e-02,1.164310e+00,8.338299e-02,-3.750580e-01,6.277119e-03,3.360172e-01,-6.649482e-01,-1.543588e-01,5.736471e-02,4.145972e-01,1.260027e-01,-7.650869e-02,1.876495e-01,7.300729e-01,4.006454e-02,6.081418e-02,2.507911e-03,5.233665e-01,-1.368848e-02,-1.643126e+00,-1.538995e-01,3.355448e-01,-7.033959e-01,-2.184890e-02,1.197358e-01,-3.282934e-01,1.434200e-03,1.337028e-01,-2.557787e-02,1.021106e-01,5.522871e-02,9.610319e-02,3.972507e-03,2.681145e-03,3.669985e-01,-1.328470e-01,-1.953286e-01,4.443095e-01,3.656188e-02,1.691599e-01,
1.326584e-02,-5.717835e-02,-2.104147e-02,-3.395887e-02,7.090010e-03,-4.767971e-03,-3.838741e-02,8.261739e-03,-4.756173e-02,1.491998e-02,3.811873e-02,-4.904171e-02,-1.733325e-02,4.475225e-03,-5.652039e-02,3.662465e-03,1.544716e-02,2.710934e-02,2.871460e-02,-8.212194e-03,3.867799e-02,-3.508589e-02,1.134446e-02,-2.036490e-02,-4.580745e-02,1.604365e-02,-2.917728e-03,-1.761284e-02,-5.515491e-02,-2.106947e-02,-1.181436e-02,-2.065893e-02,-2.019495e-02,-7.899852e-03,-1.202132e-02,4.833383e-03,-1.425939e-02,-1.577999e-02,2.110721e-03,-3.454500e-02,-5.176044e-02,-4.699551e-02,5.623010e-03,-1.758245e-02,-4.869794e-03,
9.727604e-03,1.572189e-02,-3.522559e-02,-4.472803e-03,2.199204e-02,5.848899e-03,-1.841592e-02,-4.640878e-02,-1.661492e-02,-1.968075e-02,4.622063e-02,3.329599e-02,3.780561e-02,1.370588e-02,-1.892036e-03,6.814655e-03,-2.307539e-02,-4.871971e-02,7.277709e-03,-4.261983e-03,-2.436719e-02,5.111776e-03,-3.115039e-03,3.977780e-02,-3.403180e-02,-2.506295e-02,-2.369464e-02,3.160263e-02,-2.262517e-02,-4.742720e-02,-2.970113e-05,2.560720e-02,-4.445049e-02,-7.052020e-03,-4.806115e-02,-4.026206e-03,-1.278976e-02,-3.869313e-02,2.640369e-02,-1.979942e-03,-4.139096e-02,-4.900166e-02,-2.789606e-02,-1.193715e-02,3.010361e-02,
2.823275e-01,3.414068e-02,1.732219e-01,-2.779854e-01,6.598332e-02,-8.598985e-03,1.098098e+00,-1.060429e-01,3.242165e-01,-7.107363e-02,2.445746e-01,-8.703591e-02,-2.809708e-01,2.732720e-02,4.841973e-01,6.481890e-02,1.336865e-01,1.144905e-01,-1.895645e-01,1.806196e-01,-2.071796e-01,3.347545e-02,1.980363e-01,-3.647882e-02,1.035496e-01,-1.744781e-01,-3.010938e-01,8.643345e-04,-2.237430e-01,9.577635e-02,2.317190e-02,-1.073543e+00,-5.579380e-02,1.300628e-02,-7.152664e-03,1.625674e-01,-1.770356e-03,1.285587e-03,-3.765954e-02,8.310045e-03,-2.265939e-02,2.135897e-01,-1.603124e-02,8.129337e-02,3.848732e-02,
-3.024842e-01,-1.374671e-01,-4.746807e-01,7.251473e-02,-1.403444e-01,-4.765790e-02,3.462527e-02,-1.381464e-01,1.618327e-01,3.247712e-01,-9.099144e-02,-2.251154e-01,4.438744e-01,-2.389923e-02,2.324779e-01,-3.815590e-02,-1.544006e-02,1.391891e-01,5.375111e-02,1.651237e-01,1.113433e-01,-1.016758e-02,1.965874e-02,2.989025e-02,6.468838e-01,-1.653301e-01,2.204372e-01,-1.524923e-01,-2.870689e-01,1.878386e-01,-3.135761e-01,2.470136e-01,-5.911408e-02,1.689059e-02,2.574300e-01,-5.927337e-02,4.848574e-02,3.148793e-02,3.428804e-02,-1.921988e-01,1.693364e-01,1.075250e-01,5.739736e-02,4.049118e-02,4.643883e-01,
2.107491e-01,4.038229e-01,-1.302419e-01,4.516865e-01,6.291638e-02,4.969200e-02,-5.464328e-01,3.001638e-01,-1.485593e-01,2.273100e-01,3.676388e-02,-1.572335e-01,1.609115e-01,-4.073449e-02,-1.794349e+00,1.362435e-01,8.281934e-02,8.421291e-02,-2.095935e-01,4.644454e-01,-6.303087e-01,-1.810377e-02,2.560749e-01,4.533258e-02,2.300740e-01,1.515784e-01,-1.759852e-01,-3.094289e-02,1.408995e-01,-8.897347e-02,-3.271613e-01,-7.463317e-01,9.216733e-02,3.179260e-02,1.110362e-01,8.707338e-03,-3.299319e-02,-3.700109e-02,-1.531228e-01,4.144251e-01,6.548405e-02,-4.368497e-01,1.541595e-01,5.370321e-02,-1.083572e-01,
2.686065e-01,7.828220e-02,-2.735439e-01,-2.960536e-01,-1.944817e-01,6.543244e-03,-1.998921e-02,-2.972564e-01,1.632843e-02,8.277050e-02,2.367845e-01,-2.788053e-01,6.626933e-01,-3.226957e-03,-3.185627e-02,1.012049e-01,1.034049e-01,3.897644e-02,-9.241249e-01,-3.642275e-01,1.674535e-01,1.394996e-02,-2.916963e-01,-1.763723e-02,-2.686128e-01,1.397145e-01,3.252510e-01,1.063574e-02,1.797370e-01,1.229646e-01,-3.753905e-01,1.182526e-01,5.322726e-02,-2.333649e-02,3.346066e-01,-1.199608e-01,2.276648e-01,1.602022e-02,1.563583e-01,1.288302e-01,1.555358e-01,-2.962123e-01,1.342827e-02,-5.315658e-02,2.685179e-01,
-1.366128e-01,7.259674e-02,2.171987e-01,-3.889447e-02,-3.166029e-01,3.302939e-02,3.035689e-02,-2.785302e-01,-7.123669e-02,-5.870974e-02,1.212251e-01,-4.053843e-01,4.779165e-01,5.074080e-02,3.200190e-01,1.425346e-01,5.342302e-02,1.107423e-01,-2.540955e-01,-2.060039e-01,-5.332847e-02,4.938558e-02,4.892012e-01,-2.022601e-02,-1.436282e-01,3.975457e-01,2.906317e-01,3.753853e-01,3.082418e-03,2.768143e-01,-1.500388e-01,5.715001e-01,1.210387e-01,3.263490e-02,2.860486e-01,-2.858478e-01,-1.033775e-01,-5.403162e-05,1.063048e-01,-3.555182e-02,-1.332885e-01,-3.346062e-01,3.953023e-02,-9.252771e-02,1.159000e-01,
7.600473e-02,5.536612e-01,2.574263e-01,3.985564e-01,-5.737866e-01,1.381350e-02,8.726030e-01,1.344260e-02,-2.267857e-01,1.821491e-01,-5.499050e-03,8.705851e-02,3.095288e-01,-6.121222e-03,2.926646e-01,2.772050e-01,5.698107e-02,-2.508031e-01,3.455638e-01,-1.051227e-01,5.179907e-01,-4.732273e-02,-1.925087e-01,-1.568509e-02,5.047463e-01,2.364721e-01,3.614495e-01,2.062760e-01,-2.264685e-01,1.417280e-01,-6.221611e-01,-2.986808e-01,6.009949e-04,4.360267e-02,1.563970e-01,-6.278020e-03,-3.624337e-02,1.147291e-02,2.247163e-01,5.181086e-02,-1.564112e-01,2.427451e-01,4.696492e-02,-3.506354e-03,-5.002357e-02,
5.851783e-03,-1.435427e-02,-2.503524e-02,-3.532118e-02,-2.442896e-02,-1.948350e-02,-4.252349e-02,5.454510e-03,-6.223375e-02,-4.582680e-02,-3.084486e-02,-4.317020e-02,1.672158e-02,-3.676271e-02,3.682967e-02,-3.111004e-02,-3.071430e-02,-4.809820e-02,-5.750055e-02,-4.935560e-02,-8.325404e-03,-6.090824e-03,3.715450e-02,1.290813e-02,4.040042e-02,-1.866154e-02,-4.814016e-02,-2.528449e-02,3.611233e-02,-3.554493e-02,6.120333e-03,2.617488e-02,-5.241802e-02,2.182741e-02,1.547384e-02,3.178466e-02,1.590288e-02,2.854556e-04,-7.892588e-03,1.456594e-02,-5.129281e-02,-5.751435e-02,-1.333031e-04,-4.933095e-02,-6.093904e-02,
3.012453e-01,5.985233e-01,2.593949e-01,7.908782e-01,-2.236401e-01,2.339043e-02,5.325419e-01,2.715006e-01,1.173868e-01,-3.205960e-01,-2.713477e-01,5.340080e-01,-5.599619e-01,3.078141e-02,3.476122e-01,5.754610e-03,-1.371591e-01,2.909297e-01,-3.396017e-01,-1.184989e-01,7.435668e-01,-4.569700e-02,5.796807e-02,-4.641382e-02,1.688474e-01,3.096563e-01,1.238557e-01,5.762014e-01,1.779713e-01,2.532921e-01,-3.714741e-01,9.069168e-01,-9.262706e-02,1.023397e-02,2.352204e-01,3.653804e-01,2.195988e-01,-2.295146e-02,1.361462e-01,3.023841e-01,-3.378349e-01,2.771100e-02,-4.393620e-01,6.694080e-02,2.455634e-01,
-5.448261e-01,-8.869608e-02,1.514235e-01,1.866179e-01,-2.145801e-01,-8.733078e-03,-2.448758e-02,1.021389e-01,1.756961e-02,9.780652e-02,-2.175262e-01,3.137359e-02,-1.398624e-01,4.737286e-02,-8.353418e-01,1.446976e-01,6.627206e-02,2.776916e-01,3.213149e-02,-2.585833e-01,6.374091e-02,-1.528613e-02,-1.954035e-01,-4.245554e-02,1.592497e-01,-1.708933e-02,2.933748e-01,1.817556e-01,-1.994279e-01,2.483399e-01,-8.007438e-01,1.546935e-01,6.474867e-02,1.333520e-02,3.428736e-02,2.563268e-01,4.576857e-02,-1.316773e-02,4.706030e-01,4.126948e-01,-5.019910e-02,-4.055708e-02,9.177952e-02,-4.485617e-02,2.659925e-02,
-8.038070e-03,-5.935934e-02,-2.089568e-03,1.419072e-02,-4.010500e-02,-4.205792e-02,-3.136673e-02,1.626306e-02,-4.447722e-02,-4.902290e-02,-1.791857e-02,2.328072e-02,9.736754e-04,1.495389e-02,3.508015e-02,-3.513414e-02,-2.145573e-02,-2.502624e-02,-4.528492e-03,1.028532e-02,2.531124e-02,1.871058e-02,-1.154497e-02,4.327304e-02,-4.187490e-02,-6.067992e-02,1.531493e-02,3.676245e-02,3.666806e-02,-5.359307e-02,2.553460e-02,-5.187797e-02,-2.121605e-02,-1.634034e-03,-2.429673e-02,-3.255195e-03,2.125574e-02,-3.341585e-02,-2.105976e-02,-1.542753e-03,-6.943850e-03,1.911115e-02,-1.902371e-02,1.813772e-02,2.262036e-02,
1.618431e-01,3.511336e-01,-1.012775e+00,-1.632401e-01,2.610285e-01,6.799416e-03,6.004722e-01,-1.750353e-01,-6.072086e-02,-2.873745e-02,-6.043050e-02,6.613064e-01,-3.721032e-01,1.882305e-02,1.661288e-02,2.154066e-01,-9.772517e-02,6.243453e-01,2.427186e-02,-2.258387e-01,1.164028e-01,3.257336e-02,-2.708982e-01,-3.144093e-02,6.625587e-01,1.823364e-01,2.283277e-01,-1.310504e-01,-2.708168e-01,2.564807e-01,-3.303384e-01,2.907212e-01,-4.258417e-02,2.203141e-02,-2.496396e-01,3.744387e-02,-1.596806e-03,3.002860e-02,2.221679e-01,-1.133917e-03,2.010672e-01,6.662259e-02,1.224998e-01,2.871646e-02,2.112610e-01,
1.620948e-01,1.412415e-01,-2.799618e-01,6.111057e-02,2.679598e-01,4.767737e-02,4.521424e-01,-2.831560e-01,-6.682336e-01,2.408025e-01,7.136134e-02,6.533776e-01,-4.311414e-01,1.455438e-02,6.457891e-01,-1.148152e-01,4.178995e-02,4.592095e-01,-6.998292e-01,-5.927758e-01,-1.948554e-01,-2.764525e-02,-8.434222e-02,1.921090e-03,-4.134911e-01,-2.517709e-01,2.086771e-01,-2.313943e-01,5.737782e-01,-3.817518e-04,-3.587676e-01,-5.817910e-01,-3.703187e-03,-3.705108e-03,5.705802e-01,3.336206e-01,1.107055e-01,-4.336944e-02,-2.984777e-02,2.182439e-01,-3.870413e-01,1.009279e-01,-3.435694e-02,4.238032e-02,-1.363275e-01,
-2.818180e-02,1.309203e-02,-3.080711e-02,1.329745e-02,-2.772518e-02,2.878703e-03,4.053648e-02,-4.177563e-02,-2.176188e-02,-3.758342e-02,-2.842927e-02,2.835515e-02,2.446497e-02,-1.900563e-02,3.273191e-02,1.673413e-02,-4.097157e-02,-4.020057e-02,4.565498e-04,-1.225070e-02,1.898287e-02,-1.685873e-02,-4.895267e-02,-4.447835e-02,-5.726420e-03,8.969677e-03,-3.530751e-02,-3.340660e-02,2.467272e-02,2.631322e-02,-1.312361e-02,-2.486279e-02,-1.290051e-02,4.907635e-03,3.132868e-02,3.602305e-02,-2.936610e-02,1.350225e-02,-4.989101e-02,1.612978e-02,-1.319232e-02,7.479121e-03,-4.192826e-02,-4.147451e-02,3.578961e-02,
-1.447576e-02,3.389398e-01,-5.948302e-02,1.444877e-01,1.633184e-03,3.671832e-02,-4.727547e-01,1.709145e-01,5.031766e-01,4.456975e-01,-3.615839e-01,-3.644996e-01,-5.416242e-01,-1.053467e-02,-4.683381e-03,-2.422825e-01,-8.534153e-01,1.876470e-01,1.504840e-01,-1.229839e-01,3.129791e-01,-1.059870e-02,-8.270690e-02,-3.162957e-02,3.486657e-01,4.493312e-01,-1.196741e-01,5.711730e-01,9.887956e-02,3.313258e-01,7.015263e-02,-2.002281e-01,-6.188440e-01,-3.807124e-02,2.094940e-01,3.548847e-01,-4.589587e-01,-2.608257e-02,4.469942e-01,9.727690e-02,2.315003e-01,3.558448e-01,-3.065780e-02,1.209673e-02,1.855397e-01,
-2.649698e-03,-1.999161e-02,-4.673684e-02,-5.764683e-02,-2.456654e-02,3.605809e-02,2.250397e-02,-1.288113e-02,-2.049584e-02,7.036043e-03,-4.792600e-02,9.166676e-03,-4.045925e-02,2.169691e-02,-4.934227e-04,2.337854e-02,-2.512195e-02,2.652859e-02,1.486134e-02,-2.839749e-02,-3.696791e-02,2.483467e-02,-1.377177e-02,3.081190e-02,3.605609e-02,3.297912e-02,2.191606e-02,-5.593712e-02,-4.123328e-02,2.775035e-02,-4.959564e-02,-1.546435e-02,4.068424e-02,3.747711e-02,1.521642e-02,-5.212802e-02,-4.309804e-02,4.630165e-02,-4.024392e-02,1.552688e-02,3.164238e-03,9.850399e-03,1.522071e-02,3.419540e-02,-4.322859e-03,
-1.364560e-02,3.310087e-02,2.247520e-02,-1.460635e-02,3.856171e-02,3.462255e-02,-1.929155e-02,3.958688e-02,-5.490272e-02,-4.194331e-02,-4.637016e-02,5.130652e-03,2.173418e-02,-2.986501e-02,4.584346e-03,2.936252e-03,2.060206e-02,3.589506e-02,-3.350067e-02,3.597264e-02,9.910628e-03,7.167520e-03,3.465661e-02,9.661476e-03,4.457521e-02,-3.413313e-02,-3.862409e-02,1.972309e-02,-2.938207e-02,-1.513038e-02,-4.452417e-02,-1.846727e-02,-2.251188e-02,-3.117902e-02,-3.659240e-02,-5.745097e-02,-4.663067e-02,-2.278019e-02,-5.705666e-02,2.120024e-02,-2.941960e-02,2.983272e-02,1.969379e-02,2.137372e-02,-3.457500e-02,
-2.517654e-02,-3.365927e-02,2.327870e-03,2.293531e-02,-5.005746e-02,-3.816155e-02,-6.105561e-03,-5.016716e-02,-5.370070e-02,-5.604071e-02,-4.382920e-02,2.148125e-02,4.534610e-02,-3.172344e-02,2.550382e-02,-6.845784e-03,3.625232e-03,-4.219574e-03,-3.725211e-02,-3.440797e-02,3.823598e-02,-4.854575e-02,3.970055e-02,-1.556957e-02,2.376207e-02,1.119049e-02,2.000061e-02,2.240581e-02,-2.642404e-02,-3.137198e-02,1.664489e-02,1.228988e-02,1.075154e-02,-2.628598e-02,3.127007e-02,-5.606809e-02,-5.938636e-02,1.227782e-02,-3.042851e-02,-4.037556e-02,5.633218e-03,3.417162e-02,3.579948e-03,1.605039e-02,1.156972e-02,
1.437763e-01,4.660248e-01,-3.003157e-01,-2.314228e-01,2.112825e-01,-1.369941e-02,3.021548e-01,4.027653e-01,9.466787e-02,1.069981e-01,1.517838e-01,4.543936e-01,3.130868e-01,4.007708e-03,-1.025684e-01,7.575716e-02,2.536942e-02,3.709518e-01,3.178260e-01,1.747368e-01,-7.974380e-01,5.002544e-02,1.996941e-01,-1.529292e-02,2.605239e-02,-2.000050e-01,2.327879e-02,-2.699219e-01,-1.562010e-01,5.857827e-02,-5.066132e-01,5.475950e-01,8.244789e-03,-2.254231e-02,4.050797e-01,3.418381e-01,1.296324e-02,3.166474e-03,9.716687e-02,1.821944e-01,1.410835e-01,2.696406e-01,2.571044e-01,2.263759e-03,1.869241e-01,
1.012421e-02,-1.285221e-02,-3.068241e-02,2.601981e-02,-1.903812e-02,3.796402e-02,3.113263e-02,4.154449e-02,5.137339e-03,-5.496177e-02,5.513133e-03,1.807619e-02,2.760200e-02,-4.734419e-02,4.030998e-02,3.356745e-02,3.678738e-03,-2.847285e-02,-4.245633e-02,-1.535127e-03,-4.457550e-02,-2.704470e-02,-1.058586e-02,-3.202764e-02,-3.823153e-02,-4.241450e-02,2.680769e-02,2.142883e-02,-2.457062e-02,-2.736352e-02,-8.696462e-05,-4.514840e-02,1.443724e-02,-3.309800e-02,-5.485222e-02,3.521290e-02,-3.906905e-02,3.848444e-02,-2.959316e-02,-5.143889e-02,-2.489141e-02,2.089527e-04,-3.585186e-02,2.545496e-02,-4.095365e-02,
-8.784436e-02,2.125461e-01,-4.697748e-01,-6.669299e-01,2.688985e-02,1.385810e-03,2.898787e-01,1.548843e-02,4.707027e-01,3.910319e-01,-2.010876e-01,8.845419e-02,4.643500e-02,-3.593985e-02,-6.739748e-02,-5.206018e-02,-8.497851e-01,-2.220880e-01,5.381172e-01,6.187680e-02,-1.108360e-01,-3.741277e-02,-3.282337e-01,2.019493e-02,9.680398e-01,-2.350880e-01,-1.770781e-01,2.584848e-01,-1.818567e-01,7.532608e-02,-6.398525e-01,-7.628561e-01,6.586765e-01,-2.022642e-02,8.550022e-01,6.869907e-01,-9.280381e-02,-2.521589e-02,3.478744e-01,8.017614e-02,2.529609e-01,-4.501953e-01,-1.061721e-01,-7.301438e-02,-3.191589e-01,
-3.204200e-02,-4.968273e-02,6.993411e-03,2.429452e-02,-3.863452e-02,9.684532e-03,-3.218489e-02,1.402207e-02,-8.795938e-03,-2.758791e-03,-4.505043e-02,-1.865387e-02,-5.040084e-02,-1.250614e-03,2.148609e-02,-9.944173e-03,-1.190599e-02,2.195423e-02,-5.126850e-02,-2.767713e-02,-3.008519e-02,-4.479937e-02,4.002905e-02,2.392724e-02,-4.245605e-02,3.993388e-02,-3.795658e-02,3.851518e-03,-5.579563e-02,4.631507e-03,3.072680e-02,1.846359e-02,-3.497741e-02,4.014872e-02,1.630535e-02,2.919302e-02,-5.117472e-02,3.804259e-02,-2.391020e-02,-4.691391e-02,-3.243748e-02,-2.112963e-02,-5.018236e-02,-2.651241e-03,-1.973287e-02,
2.031174e-01,9.252262e-01,7.607408e-02,1.667131e+00,-2.470935e-01,3.975274e-02,3.431667e-01,4.786310e-01,1.457335e-01,4.124132e-01,5.800591e-01,3.870135e-01,3.599944e-01,3.486185e-02,3.579355e-01,7.794335e-01,-2.308604e-01,1.388014e+00,1.064667e+00,9.094457e-01,9.793282e-01,-4.454190e-03,-3.982401e-01,-2.184108e-02,-4.480873e-01,3.485204e-01,5.350021e-01,8.369659e-01,3.282477e-01,6.820755e-01,-3.274347e-01,5.755792e-01,-4.021994e-01,1.424885e-02,6.475823e-01,6.433004e-01,-3.253248e-01,-2.154000e-02,3.306186e-01,6.049235e-01,6.166672e-01,5.763100e-01,-3.347220e-01,5.838319e-02,6.526307e-01,
-1.832969e-01,-1.813761e-01,4.739789e-01,-3.386374e-01,4.170132e-01,1.125378e-02,4.226348e-01,-2.667627e-01,-1.449480e-01,-7.197050e-02,3.453307e-01,-6.156905e-01,4.240170e-01,-3.831971e-02,3.786611e-01,1.935495e-01,5.068922e-01,-1.747621e-02,5.065684e-02,1.906524e-01,1.120425e+00,4.781289e-02,7.076883e-01,1.976278e-02,6.921635e-01,-1.743631e-03,-9.524907e-02,1.292655e+00,3.952999e-01,-1.701783e-01,-6.693730e-02,-2.093224e-01,2.088815e-01,-2.859595e-02,4.722347e-01,1.336400e-01,3.594047e-01,-5.099359e-02,4.396183e-02,-4.521858e-03,-1.965464e-01,-1.877599e-01,3.361916e-01,-6.588338e-02,-1.810473e-01,
2.509981e-01,-4.385839e-01,-1.231132e-01,1.433697e-01,-4.500208e-01,6.695240e-03,9.367968e-02,2.974521e-01,-7.642335e-02,3.783988e-01,5.041555e-01,-2.621250e-01,1.008881e+00,3.490617e-02,-2.041084e-01,4.464212e-01,-1.780764e-01,4.478768e-01,-5.988564e-01,2.355651e-01,4.358356e-01,-8.758626e-03,-1.931471e-01,1.792280e-03,-3.855914e-01,-2.513774e-01,6.950685e-01,1.188464e-01,4.789619e-01,4.054289e-01,-7.371593e-02,6.232905e-01,-1.450459e-01,-3.783957e-02,-8.318484e-03,-9.377597e-02,-9.715492e-02,1.442188e-02,2.965011e-01,8.086712e-02,1.754306e-01,3.828819e-01,-1.032296e-01,-4.443308e-02,4.522234e-01,
-2.264051e-01,3.540782e-01,2.756693e-01,-1.434303e-01,2.380280e-01,-8.957953e-03,5.665780e-01,1.172806e-01,1.560434e-01,1.945657e-01,1.043827e-01,1.718484e-01,9.935036e-01,5.871515e-02,5.779258e-01,2.410901e-01,4.054076e-02,9.349424e-01,9.985499e-01,2.699232e-01,1.091314e+00,-1.404001e-02,4.423458e-01,1.795633e-02,4.796676e-01,-6.023234e-02,-3.605293e-01,5.344885e-01,1.733839e-01,3.455262e-01,-4.604201e-01,3.401757e-01,-1.256666e-01,3.660661e-02,-1.118975e-01,1.523379e-01,-1.127283e-01,2.595486e-02,-2.623025e-02,-2.004924e-01,1.923669e-01,5.512774e-01,-2.568141e-01,6.576930e-02,8.030533e-02,
5.174655e-02,-1.412036e-01,3.009394e-01,-1.140456e-01,8.361621e-02,1.293631e-02,1.201188e-01,-1.344892e-01,-1.695496e-01,5.283229e-02,1.144991e-01,-3.888560e-01,3.612675e-01,4.449236e-02,4.720110e-02,-4.657536e-02,9.587523e-01,7.148275e-02,1.590187e-01,6.289119e-02,3.050313e-01,3.077633e-02,9.772566e-02,-1.922490e-02,-1.170955e-01,-8.391624e-02,-1.362560e-01,-2.055666e-02,-1.433398e-01,2.864323e-02,-1.561843e-01,2.422807e-02,2.186785e-01,5.227503e-03,-5.970571e-03,1.475868e-01,5.426146e-01,-3.487366e-02,-9.334848e-02,7.303707e-02,-1.151205e-02,-1.082762e-01,-5.670994e-02,-2.411646e-02,-1.048805e-01,
1.014087e-01,1.539287e-01,7.176165e-02,1.997623e-01,-1.693854e-02,-1.820296e-03,1.753119e-01,8.456682e-02,-1.045662e-01,5.993596e-01,6.456622e-01,-2.707615e-02,4.628096e-01,-3.083464e-02,3.058797e-02,2.416539e-01,-1.871493e-01,-9.859937e-02,3.132712e-01,3.188722e-01,5.785044e-01,-2.572762e-02,-7.646580e-01,2.341242e-02,1.479660e-01,-1.487565e-01,3.936440e-01,2.803570e-01,3.370662e-01,5.633103e-01,-2.549691e-01,1.630363e-01,-9.744792e-02,2.615768e-02,-4.935859e-01,-1.033765e-01,-2.204389e-01,8.545228e-03,2.119194e-01,3.560708e-01,2.417349e-01,-5.363974e-02,7.201254e-02,6.502423e-02,5.011917e-01,
-1.426086e-02,1.957623e-02,8.457481e-03,1.433810e-02,-2.829231e-02,-3.397602e-02,2.188849e-02,-1.190422e-01,-2.765612e-02,-2.655760e-02,-3.524840e-02,5.127198e-03,-2.091426e-02,-7.192614e-03,-2.648528e-02,-1.155722e-01,-1.446663e-02,-2.905714e-02,-1.519718e-02,-5.323795e-02,1.832776e-02,1.533993e-02,-4.223042e-03,-5.107362e-03,1.789229e-02,-6.758975e-02,-9.358028e-02,-1.827175e-02,-1.867852e-02,-7.393776e-02,9.728226e-03,3.886933e-02,1.270313e-02,-9.822787e-03,8.413754e-03,-6.190880e-03,-3.540321e-02,6.842561e-03,-2.687875e-02,-6.462867e-02,1.279767e-02,-4.689963e-02,-6.138929e-02,4.740746e-02,-5.152429e-02,
-4.587564e-03,1.120091e-02,-3.043691e-02,-4.665636e-02,-3.143870e-02,-1.037924e-03,-3.870232e-02,-1.667638e-03,-1.688169e-02,-1.151819e-02,-1.157604e-02,1.295162e-02,-3.918900e-02,2.889649e-02,-3.766096e-02,-6.021414e-03,-4.040607e-02,-1.592489e-02,8.481986e-03,-3.961402e-02,3.942430e-02,2.609901e-02,-1.474213e-02,2.340003e-03,-3.027217e-02,-5.146133e-02,-6.015382e-02,-5.819371e-02,4.807537e-03,3.972231e-03,-1.200007e-03,2.430525e-02,3.460922e-02,-3.167132e-02,-4.033352e-02,-5.847367e-03,-4.438789e-02,-4.299729e-02,1.571235e-02,2.941815e-02,-3.616235e-02,-2.551470e-02,-3.245860e-02,9.052114e-03,2.998092e-02,
-2.210303e-01,5.447570e-02,1.683465e-01,-2.078620e-02,4.526200e-02,3.114201e-02,-3.172838e-01,-2.146943e-02,1.542804e-01,1.949348e-01,7.675223e-02,-2.101121e-03,-3.560974e-01,-3.073256e-03,8.426361e-02,2.489869e-03,1.272763e-01,-2.526557e-01,2.260479e-01,3.449050e-02,-2.612018e-02,3.987803e-02,-2.214239e-01,9.810439e-03,-2.668586e-01,4.478759e-02,-4.768827e-01,8.369041e-02,1.684043e-02,-2.991304e-01,9.290228e-02,-1.816921e-01,9.318736e-03,3.302645e-02,-8.746277e-02,1.662099e-01,-3.943736e-02,-3.832583e-02,-1.644362e-02,1.304611e-04,-7.023468e-02,1.276813e-02,-1.946533e-01,1.042625e-02,-9.457620e-02,
-1.790683e-02,-6.469644e-01,4.690832e-01,-4.424219e-03,8.683357e-01,-4.812293e-02,6.834483e-01,-1.672352e-02,-1.144949e-01,-5.775667e-02,-8.830967e-02,8.131098e-01,2.880971e-01,-2.980057e-02,-4.366691e-01,3.300769e-01,8.300399e-03,1.765605e-01,3.329660e-01,5.776348e-01,2.027828e-01,-3.006002e-02,5.771207e-01,3.998767e-02,1.131263e-01,1.169565e-01,3.621801e-02,4.999762e-01,-2.038348e-01,-1.411608e-01,-4.173840e-01,5.768225e-01,-1.574994e-01,-3.356497e-02,-1.628417e-02,4.044292e-01,2.251863e-01,5.100411e-02,-2.357293e-02,8.093746e-02,4.577102e-01,4.827972e-01,1.058282e-01,-4.407614e-02,4.848342e-01,
1.506771e-01,6.944843e-02,-2.027033e-01,-3.991054e-02,-1.374051e-01,-4.006031e-03,1.494928e-01,1.029893e-01,1.090680e-01,1.846285e-01,-1.656982e-01,2.454400e-02,1.463145e-01,4.031097e-02,7.723795e-01,4.760434e-02,9.100915e-03,6.429588e-01,-5.297596e-01,9.382371e-03,3.126574e-01,-1.656584e-02,4.048795e-01,-4.428925e-02,4.568115e-01,-5.187530e-01,9.899467e-02,1.660474e-01,1.237124e-01,4.817708e-02,-6.003387e-01,-9.418812e-01,5.397218e-02,-2.964529e-02,-4.034842e-01,3.102535e-01,7.599762e-02,-3.840577e-02,2.200077e-01,1.923269e-01,3.080937e-01,-1.016652e-01,7.271461e-02,5.570466e-02,2.924569e-01,
-4.931494e-01,-2.529161e-01,2.184174e-01,-4.348505e-01,2.343209e-02,-1.272586e-02,1.242770e-01,7.110547e-02,3.233497e-01,1.383125e-01,1.548620e-01,1.646270e-01,7.450742e-02,-3.213388e-02,-6.244444e-01,-9.085623e-02,9.661213e-02,-2.199787e-02,2.923042e-01,5.566247e-01,6.444364e-01,-9.728985e-04,-2.328241e-01,3.199889e-02,9.971860e-02,-4.934131e-02,-1.697141e-01,2.887742e-01,-2.745911e-01,2.023274e-01,-2.655791e-01,-2.684873e-02,4.231764e-02,7.260877e-03,-1.353508e-01,-8.703350e-02,4.063069e-02,-3.108950e-02,-3.088875e-02,2.316549e-01,-5.439282e-02,-2.612633e-01,-2.632036e-01,7.285290e-02,9.549462e-02,
-2.296099e-01,-1.686870e-01,-1.813863e-01,-2.162753e-01,-1.622342e-01,-3.496651e-02,-5.486355e-02,-8.672186e-02,-8.494800e-02,-8.948489e-02,1.854274e-01,-2.869781e-01,1.289217e-01,-1.336281e-02,1.923739e-02,5.181781e-02,-6.047387e-02,-9.826392e-02,2.375485e-01,8.774739e-02,5.280261e-01,8.894330e-03,6.596472e-01,-5.601113e-03,-3.606630e-01,1.448076e-02,3.833013e-02,2.093997e-01,5.756174e-02,-6.240705e-02,-1.872535e-01,-1.462478e-01,-1.998709e-02,2.617416e-02,-1.504184e-02,8.625214e-02,-7.313561e-02,1.607825e-03,2.241220e-02,-9.654965e-02,3.335157e-02,-4.230446e-04,1.617336e-01,2.120311e-02,2.941558e-02,
-9.084950e-02,1.091079e-01,3.739576e-01,2.560099e-01,4.144346e-01,-4.344771e-02,-5.426168e-01,9.171693e-02,7.851616e-02,2.048324e-02,8.255342e-02,-1.492432e-02,-6.565423e-02,4.161515e-02,5.042039e-01,2.123326e-01,1.677789e+00,4.171057e-02,6.253960e-01,8.223090e-01,6.153116e-01,2.718436e-02,1.973574e-01,4.382139e-02,5.348846e-01,2.658968e-01,-1.853217e-01,6.742959e-02,4.137848e-01,-2.109187e-02,-2.147836e-01,1.650676e-01,8.652205e-01,-3.759628e-02,8.256852e-02,3.173935e-01,9.246532e-01,-2.617226e-02,-1.405698e-01,-1.230539e-01,-6.690887e-02,-1.149896e-04,1.500938e-01,-2.139763e-03,-4.560105e-02,
-5.720092e-02,2.626018e-02,-2.044204e-02,-4.872458e-02,-3.292323e-02,-3.084139e-02,-3.498073e-02,-3.642306e-02,1.327087e-02,-4.741196e-02,-2.137200e-02,-2.617561e-02,-3.317009e-02,2.148944e-02,-4.314630e-02,3.892319e-02,1.585102e-02,-1.986787e-02,-3.774250e-02,-2.366032e-02,1.529012e-02,3.830451e-02,-2.651708e-03,2.457537e-02,4.577970e-02,-2.799292e-02,1.119073e-02,1.809234e-02,-2.055988e-02,3.102477e-03,2.098012e-02,9.343552e-03,7.670533e-03,-3.029128e-02,-2.964015e-02,-2.197819e-02,-4.546905e-02,3.112206e-02,-2.836434e-02,-2.404388e-02,-1.099427e-02,1.217769e-02,1.772786e-02,-2.802877e-02,-2.733734e-02,
7.517727e-01,8.825582e-03,1.871627e-01,5.670989e-01,-1.103972e-01,3.752387e-02,2.579570e-01,5.078368e-01,1.813595e-01,1.981712e-02,-1.405746e-01,-4.169700e-02,2.989053e-01,-1.874928e-03,9.000357e-01,-4.367520e-01,1.194004e+00,8.395923e-01,-1.279428e+00,3.252972e-01,2.760908e-01,-1.730559e-02,2.567019e-01,4.504169e-03,8.089013e-01,7.541935e-01,4.017506e-01,-1.077773e-01,-4.538518e-02,-2.734348e-01,2.629541e-01,-4.834237e-01,1.251365e+00,9.639732e-03,3.561180e-01,3.668628e-01,1.216458e+00,-1.877964e-03,9.915204e-02,-6.562289e-01,1.390894e-01,1.068521e+00,9.436369e-01,-3.453895e-02,2.811879e-01,
-2.009342e-01,
3.223269e-01,
-4.016939e-02,
-2.376833e-02,
4.284170e-02,
1.582995e-01,
-5.592261e-03,
0.000000e+00,
-2.996396e-01,
2.080422e-01,
-1.463572e-01,
4.874265e-02,
1.395661e-01,
-1.411672e-03,
-1.751537e-02,
-3.969816e-01,
4.792872e-01,
-5.009543e-03,
4.887179e-02,
3.604750e-01,
-6.945003e-04,
2.133161e-01,
-5.248215e-03,
-8.170893e-04,
-9.668809e-03,
-1.605781e-01,
-1.052934e-02,
-6.872404e-02,
-9.943022e-03,
3.212036e-01,
-1.091327e-02,
4.336750e-01,
-1.685485e-01,
4.038968e-01,
5.151876e-01,
-2.545894e-02,
-1.494350e-02,
1.442596e-01,
-6.053255e-02,
-9.837431e-02,
-3.027180e-02,
-8.650188e-02,
4.883428e-01,
-1.025103e-02,
5.479798e-01,
1.045986e-01,3.984279e-01,-1.342575e-01,-5.081374e-03,-1.189590e-01,-3.132454e-02,3.483991e-02,-4.987484e-02,-4.352810e+00,7.703104e-02,4.600985e-02,-1.590131e-01,-4.269724e-01,3.204737e-01,-5.327797e-02,-1.314933e-01,-3.772638e-01,2.316149e-02,-1.940736e-01,-1.646964e-01,-1.027168e-02,2.788677e-02,1.228390e-02,2.471655e-02,-4.666125e-02,-2.342059e-01,-2.460862e-02,-1.487818e-01,6.216992e-02,1.505624e-02,2.032668e-01,7.566524e-02,-7.790612e-02,1.453792e-01,7.581557e-02,-3.670910e-02,-2.881552e-02,6.500992e-02,-4.181642e-02,3.028423e-01,4.452297e-01,3.109416e-01,3.109281e-02,-2.256990e-02,-1.282842e-02,
-1.492190e+00,2.127568e-01,6.213319e-01,9.732745e-02,-4.675153e-02,2.171111e-01,1.291539e-02,-9.369970e-03,3.426037e-01,-3.808966e-01,6.441627e-02,3.030479e-01,6.177481e-01,-9.206107e-01,5.632917e-03,7.277957e-01,1.203570e+00,-3.400761e-02,-8.741882e-01,-6.110347e-02,3.143340e-02,-3.526766e-01,-1.370861e-02,6.919119e-03,-4.537394e-02,2.215654e-02,-1.954943e-02,-1.043969e+00,-3.832284e-02,-2.429313e-01,-6.309922e-02,7.543789e-01,-2.814099e-01,5.567534e-03,2.153259e-01,1.433169e-02,1.870367e-02,2.896360e-01,6.665201e-01,3.146274e-01,1.057849e+00,3.334615e-01,-1.825052e-02,-2.108092e-02,-1.873146e-03,
-4.653749e-02,-3.394685e-02,-4.996049e-02,-4.906772e-02,-1.022155e-02,-8.474575e-03,8.339251e-03,2.437319e-02,-1.956437e-02,5.234501e-03,7.050705e-03,-4.907724e-02,-5.704385e-03,-1.888699e-02,7.618072e-03,-3.289495e-02,4.737799e-02,2.537344e-02,-3.220189e-02,-4.395668e-02,-2.688555e-02,3.253559e-02,-2.046655e-03,2.715079e-02,4.466406e-02,-3.543424e-02,4.572618e-02,-1.780812e-02,-4.022318e-02,-2.729319e-02,-4.977518e-03,1.039059e-02,3.382157e-02,-1.171943e-02,-3.949337e-02,1.544234e-02,-4.774652e-02,-1.554393e-02,-3.010379e-02,-4.390264e-02,4.088001e-02,-2.574854e-02,-4.057891e-02,-2.499281e-02,-1.247222e-02,
-2.079032e-01,-1.079269e-01,-1.778348e-01,1.610775e-02,-2.206592e-02,-2.132378e-01,-3.106774e-02,8.060404e-03,7.513697e-02,4.782271e-02,-2.398032e-01,-2.407873e-01,-1.463510e-01,-1.785191e-01,-1.101373e-02,6.182608e-02,1.463027e-02,6.539951e-03,6.279465e-02,1.235082e-01,5.279842e-04,-6.836796e-01,-4.656581e-02,-3.874518e-02,-2.064570e-02,-1.149775e-01,-3.662264e-02,-1.806666e-01,-6.411698e-02,-1.333336e-02,-1.446808e-01,1.902104e-01,-6.504273e-02,4.522437e-01,-9.488003e-02,1.057495e-03,-4.222596e-02,1.997050e-01,-1.221629e-01,1.465202e-02,4.391865e-01,-2.621505e-01,3.141937e-01,-3.941530e-02,4.211801e-02,
4.181621e-03,1.222683e-01,4.194895e-01,1.182108e-02,3.133092e-02,-1.452581e-02,-6.519384e-03,1.896092e-02,-3.309360e-01,4.795580e-02,4.928039e-01,-9.775463e-02,-1.883518e-01,3.723699e-01,2.265798e-02,3.661521e-01,1.328884e+00,-1.860818e-02,1.244624e-01,-2.110398e-01,1.190203e-03,-2.152762e-02,3.762491e-02,-4.076527e-02,-5.473885e-03,-2.181563e-01,-2.820874e-03,-2.075463e-03,-3.539200e-02,7.914319e-03,4.127806e-02,-2.486407e-01,7.733937e-02,1.966425e-01,2.214243e-01,-4.264253e-02,2.790282e-02,-1.613077e+00,-2.747845e-01,-5.605491e-01,-4.197228e-02,-1.444929e-01,1.004213e-01,4.740583e-02,-1.773562e-01,
3.565693e-01,-3.835498e-01,3.390934e-01,2.768326e-02,1.695823e-01,-8.767615e-02,3.188345e-02,4.081919e-02,-1.461314e-01,2.869076e-01,4.174262e-01,4.327861e-01,-1.235612e+00,2.904039e-02,-2.159433e-02,8.447776e-01,-2.450043e+00,-3.447248e-02,1.998692e-01,3.955602e-02,-5.888883e-03,3.549880e-02,9.847033e-03,3.190416e-02,2.896630e-02,-4.442823e-02,-4.004330e-02,-1.575304e-01,3.589836e-02,-1.008488e-01,-2.939033e-01,1.204336e-01,6.919694e-02,-6.755643e-02,7.093870e-02,8.452456e-02,-1.175471e-02,7.685310e-02,-3.700107e-01,3.212154e-02,1.103129e+00,-1.809733e-01,-1.577944e-01,9.887929e-03,1.787142e-01,
-3.232341e-02,2.453614e-01,-1.064746e-02,1.976791e-02,-2.566837e-02,-1.573890e-01,2.967497e-02,-8.158576e-03,-6.937639e-02,2.246155e-02,5.575345e-02,7.628435e-02,1.839911e-01,-1.081258e-01,-4.922038e-02,-3.185415e-02,4.874221e-02,3.213743e-02,-3.854798e-02,-8.202752e-02,-3.660018e-02,1.877422e-02,-2.136715e-02,-2.556862e-02,-2.427302e-03,8.194020e-02,-3.982376e-02,2.678546e-02,-3.030426e-02,-6.000036e-02,-5.312110e-02,-1.426681e-01,-1.349813e-01,3.835251e-02,-7.823215e-02,4.245913e-02,-4.706592e-02,1.498547e-02,-5.511763e-02,2.489823e-02,-4.061468e-02,-2.584699e-02,-4.725016e-02,-2.201477e-02,2.075934e-02,
-4.549205e-02,-2.447170e-02,-6.469761e-03,3.066414e-03,-3.525297e-02,-8.351240e-03,3.881087e-02,-2.694805e-02,-2.879183e-02,-6.333800e-03,-4.426754e-02,-4.060526e-02,-5.035076e-02,1.718344e-02,-3.381468e-02,-2.454241e-02,4.543595e-03,-1.498376e-02,1.826816e-03,-2.631212e-02,1.227891e-02,-8.988380e-03,-1.849132e-02,4.534490e-02,-2.571360e-03,4.216114e-02,4.686142e-02,-3.719010e-02,-2.159891e-02,-5.265352e-02,9.549432e-03,-7.905196e-03,3.897804e-02,-1.527895e-02,2.166708e-02,3.300371e-02,1.211255e-02,-1.953100e-03,-5.490094e-02,-4.482571e-02,-9.068832e-03,1.945361e-02,-2.420107e-02,3.476280e-04,-4.634432e-02,
-8.787951e-03,1.110262e-01,4.579663e-01,6.338955e-02,6.296688e-04,-9.178190e-02,3.216623e-02,-2.905426e-02,8.433675e-01,-2.525468e-01,6.560080e-02,3.608060e-03,-2.775857e-01,9.635688e-02,-2.512774e-02,-4.001432e-02,2.287586e-01,3.223886e-02,2.076613e-01,-1.185346e-02,-1.877351e-02,-1.991132e-02,-3.256463e-02,7.639523e-03,-4.756888e-02,-2.042046e-01,1.193218e-02,-2.150336e-01,-1.733964e-02,-3.766299e-02,1.683118e-01,3.312249e-01,5.147310e-02,-2.872939e-01,-1.612108e-01,1.450462e-02,-1.093577e-02,1.062214e+00,1.595578e-01,-6.576633e-01,3.664686e-01,1.515010e-01,-1.926830e-01,2.786720e-02,2.436852e-01,
1.469263e-01,6.358199e-01,6.152664e-01,2.112257e-02,-1.667771e-01,4.481602e-01,3.324216e-02,-2.459534e-02,4.975133e-01,3.003162e-01,5.467336e-01,1.387509e+00,6.055422e-01,-1.767044e-01,1.648745e-02,-8.056372e-02,8.103919e-01,-5.083686e-02,2.250252e-01,5.515124e-01,-1.225631e-02,-8.883573e-01,5.294735e-03,3.137077e-02,7.753194e-03,1.212459e-01,1.659864e-02,-1.102022e-01,-4.720006e-03,2.862865e-01,1.342968e-01,4.332699e-01,4.199314e-01,-4.580900e-02,-1.620658e-02,4.646894e-02,5.060386e-02,2.248149e+00,-1.175943e-01,1.726187e-01,2.395978e-01,2.553466e-01,-5.890842e-02,-1.294410e-02,-9.602878e-02,
4.492831e-02,-3.843464e-03,9.690647e-03,-1.095763e-02,-2.286761e-02,2.332387e-02,4.874218e-02,-7.476928e-03,4.170690e-02,-3.267772e-02,4.228605e-02,3.894904e-02,-1.032848e-02,-3.411824e-02,1.957795e-02,-1.284331e-02,-2.282858e-02,-4.790428e-03,-2.663733e-02,-4.355795e-02,4.269989e-02,-4.533983e-02,-2.880009e-02,-3.296305e-02,6.515838e-03,-3.868551e-02,2.856047e-02,6.033667e-03,-2.081828e-02,4.662441e-03,4.047580e-02,-4.497076e-02,-3.486198e-02,-4.819826e-02,5.201070e-03,-1.120165e-02,2.091176e-02,-4.336229e-02,-4.460777e-02,1.941161e-02,1.072298e-02,4.513317e-02,-3.150568e-02,-2.199685e-02,-4.717014e-03,
4.411499e-01,3.256280e-01,8.632956e-01,2.650717e-02,-1.757715e-01,-4.023487e-01,1.906332e-02,1.672256e-02,-3.192582e-01,4.463253e-01,-3.195236e-01,2.399676e-02,3.896502e-02,7.706268e-01,1.975449e-02,-1.815778e-01,6.767780e-02,4.170723e-03,4.481157e-03,2.334090e-02,-1.820026e-02,2.802028e-01,-2.920106e-02,2.242088e-02,-2.181218e-02,-1.887267e-01,-1.396110e-02,-7.888476e-02,4.497888e-02,-1.702543e-01,-1.642953e-02,2.430231e-01,1.208832e-02,-2.525515e-01,5.190084e-02,3.917648e-02,-1.638899e-03,4.503267e-01,-3.614764e-01,-4.632909e-02,-8.423134e-01,-7.759006e-02,-1.216653e-01,1.002142e-02,2.404881e-01,
-4.570790e-02,2.121426e-02,-5.374665e-04,2.462799e-02,-4.586745e-02,1.456899e-02,3.994412e-03,1.300500e-03,1.976292e-02,-1.639610e-02,-6.136873e-02,1.298761e-02,-2.753388e-02,-6.301260e-02,-1.167213e-03,-1.182368e-02,-4.178416e-02,3.836757e-02,3.370476e-03,-6.887168e-02,-1.440028e-03,-3.081158e-03,3.726351e-02,3.514399e-02,4.739136e-02,-5.538093e-02,-1.934774e-02,-3.785266e-02,3.051142e-02,8.098290e-03,-1.967032e-02,-6.665178e-02,-4.258053e-02,-3.307437e-02,-6.288967e-02,4.327789e-02,5.004101e-02,2.285573e-02,-6.158623e-02,5.839211e-03,-4.018302e-02,-3.428130e-02,1.067736e-02,3.751170e-02,-1.790071e-02,
-3.451300e-03,-1.398309e-02,-6.209986e-02,5.771986e-03,-5.125876e-02,5.442627e-03,-5.327934e-03,-2.697857e-02,-2.736613e-02,3.215841e-02,3.584715e-02,2.563019e-03,1.465892e-02,-5.673814e-02,1.047778e-02,6.228326e-03,-1.348657e-02,2.347464e-02,-3.006717e-02,-2.192465e-02,4.252031e-02,-3.679910e-02,-3.910043e-02,-4.542413e-02,2.530462e-02,-1.476156e-02,-4.911486e-02,-2.042358e-02,-1.938387e-02,1.095071e-03,-1.601781e-02,-5.707858e-03,-1.469958e-03,-4.590237e-02,-4.273160e-02,9.602115e-03,-2.737520e-02,-1.102724e-02,-3.948133e-03,-4.486154e-03,-2.584969e-02,4.545066e-03,3.768912e-02,-6.991794e-03,-1.383631e-02,
-1.014392e-01,3.724910e-01,2.887628e-01,6.827988e-02,1.980243e-02,2.457813e-01,3.215437e-02,-2.423593e-02,-2.298634e-01,6.916417e-01,-1.134002e+00,-4.820345e-02,-2.914184e-01,-2.622160e-01,7.183306e-03,-1.548597e-02,1.990346e-01,3.173678e-02,-5.929180e-01,3.686211e-01,1.938143e-03,-1.860986e+00,-4.642485e-02,3.857931e-02,4.225872e-02,-8.498495e-02,-1.539837e-02,8.228494e-02,1.315644e-02,1.973128e-01,-5.069369e-01,-4.113794e-01,-8.822802e-02,1.901182e-02,-4.505307e-03,9.147531e-03,7.428345e-03,-4.694653e-01,-1.452021e-02,-1.460136e-01,-1.114442e-01,-1.188739e-01,4.168295e-02,-1.426891e-02,1.599635e-01,
6.716636e-02,1.157717e-02,-9.954986e-02,-2.153939e-02,8.714160e-02,-6.482042e-02,-1.090313e-02,2.218188e-02,-1.424548e+00,1.568395e-01,6.952056e-01,5.061985e-01,-1.967242e-01,1.818400e-01,-2.870350e-02,2.143465e-01,1.248441e+00,-4.272828e-02,6.260297e-02,-4.657434e-02,-4.301457e-02,5.556995e-02,-3.182264e-02,-5.134171e-03,-1.187216e-02,-3.356895e-01,3.084423e-02,-1.749370e-02,-1.797034e-02,-6.560993e-02,1.036781e-02,1.164880e-01,1.847397e-01,-1.004676e-01,-4.380512e-02,-2.039519e-02,-3.536497e-02,-4.736007e+00,-2.676387e-01,-7.295814e-02,-8.038874e-01,9.339489e-02,-8.599716e-02,-6.728680e-03,6.191671e-02,
-1.032539e-02,-4.951766e-02,-4.995931e-02,2.333722e-02,-2.323365e-02,4.516827e-02,3.871324e-02,-6.418919e-03,3.012334e-02,3.219085e-02,-4.393032e-03,-3.540361e-02,2.424070e-02,-2.365114e-02,2.518594e-02,4.534061e-02,-1.569501e-02,2.647057e-02,-6.756452e-03,-1.603243e-02,-4.364025e-02,-2.334533e-02,-3.754766e-02,-2.190827e-02,-1.741075e-02,-1.985103e-02,-2.286727e-02,-1.113727e-02,-3.925896e-02,-1.514321e-02,-2.347506e-02,-4.883345e-04,-1.054908e-02,-4.266252e-02,1.249992e-02,3.804663e-02,-8.247770e-03,-4.482541e-02,3.085948e-02,-3.246375e-04,-1.278762e-02,4.386364e-02,-3.076150e-02,4.696059e-02,-1.883536e-02,
1.865324e-01,3.231407e-01,1.397127e-01,1.481639e-02,-1.333134e-01,-5.766807e-01,4.462692e-03,-3.582763e-02,5.016396e-01,3.446890e-01,-5.827223e-02,9.027242e-03,7.028278e-01,1.669155e-02,3.546295e-03,-6.793481e-01,4.697344e-01,-5.435973e-02,1.952832e-01,1.768302e-01,-1.203152e-02,-1.865141e+00,-1.850540e-02,-1.026308e-03,1.551931e-02,-5.614354e-02,-4.173756e-02,-1.248102e-02,5.297579e-02,2.945634e-01,-1.807826e-01,4.064072e-01,3.514821e-01,3.877632e-03,3.300473e-01,2.544126e-02,4.200940e-02,1.461965e+00,1.129388e-01,4.937346e-01,5.339770e-01,-1.105914e-01,-2.547814e-02,1.286727e-02,-3.342413e-02,
1.108816e-01,2.236697e-01,-5.711024e-01,3.784196e-02,3.563770e-02,1.616833e-01,2.453679e-02,-1.421274e-05,3.931910e-01,3.543521e-01,4.977474e-01,3.884721e-02,3.752841e-01,-2.475966e-01,3.557380e-02,5.603623e-01,-3.021817e-01,3.866102e-02,3.340562e-01,4.125966e-01,-1.456605e-02,-2.372033e+00,3.936237e-02,3.178304e-02,4.046253e-02,1.113320e+00,1.622900e-02,6.981071e-01,1.935830e-02,-9.661281e-02,-3.972836e-01,1.260234e-01,2.730753e-01,1.645607e-01,1.402487e-01,1.187789e-02,-1.433106e-02,2.022514e-01,2.698551e-01,3.990717e-01,6.741453e-01,-2.000404e-01,6.574134e-02,2.724974e-02,-8.336373e-02,
-1.122997e-01,1.417532e-01,-3.114552e-01,2.384228e-02,-7.132603e-02,-2.751090e-01,-5.403289e-02,2.329267e-02,-2.085359e-01,3.564335e-01,-4.140902e-01,-1.424003e-02,5.731933e-01,-2.074612e-01,-1.120007e-02,-1.860885e-01,-1.218141e+00,-1.591540e-02,3.523923e-01,-3.899927e-01,7.522576e-03,-1.575505e-01,3.789071e-02,8.147298e-03,3.943213e-02,3.382769e-01,-3.875867e-02,2.131929e-01,-1.534907e-02,-1.330919e-01,-1.556577e-02,1.284839e-01,1.001464e-01,4.014666e-02,3.158676e-01,-3.310745e-02,3.235525e-02,6.813430e-01,-2.320423e-01,5.102187e-01,2.446827e-01,1.442153e-01,7.519213e-02,-2.526978e-02,-7.073500e-02,
