// Neural Network File Format by Kyle Julian, Stanford 2016
7,4,7,45,
4,45,45,45,45,45,45,7,
0,
-8000.0,-100.0,-100.0,6.0,
8000.0,100.0,100.0,40.0,
0.0,0.0,0.0,23.84210526,-3.8529093497767,
16000.0,200.0,200.0,34.0,26.8591142426,
2.050042e+00,-1.329691e-01,1.468461e-03,4.674176e-03,
-1.347753e-02,-3.319751e-03,-7.546196e-03,7.839993e-01,
-2.117132e+00,7.516678e-04,1.844912e-02,5.196875e-02,
1.880325e+00,-2.799072e-01,2.761092e-01,-1.991534e-01,
-1.723060e-03,-2.473309e-03,-1.531241e-02,3.911702e-04,
2.009849e+00,2.247838e-02,-2.458069e-02,1.076667e-01,
-3.933663e-03,-1.913795e-03,1.100845e-02,1.282026e+00,
2.283339e+00,-3.000762e-01,3.005926e-01,8.987139e-02,
5.266443e-01,-4.889356e-01,6.871701e-03,2.559037e-03,
2.548497e-01,-3.907265e-01,-4.908980e-02,2.228048e-01,
-7.923971e-01,-1.005642e-01,1.268003e-01,4.344936e-01,
6.898552e-04,-6.247995e-01,-8.001709e-04,-2.019485e-04,
1.781260e+00,7.796625e-02,-1.857645e-02,3.866205e-02,
1.947347e-02,-3.380993e-01,1.440061e-03,2.594495e-02,
-1.746260e-02,1.683760e-02,-9.124501e-03,6.394564e-01,
-1.323793e-02,-1.428739e-03,-1.144313e-02,1.052671e+00,
1.263816e+00,-7.028814e-04,-2.291029e-02,-4.617567e-01,
-1.575616e+00,4.921310e-02,-5.655520e-02,1.248838e-01,
2.089355e+00,-2.404276e-01,3.491453e-01,-2.051129e-03,
-5.792534e-01,-2.611484e-01,2.558266e-01,4.569634e-01,
1.116813e-02,-7.334901e-01,7.255773e-01,3.226690e-03,
6.607497e-01,1.433080e-01,-1.228061e-01,3.165582e-01,
1.450196e+00,-4.135507e-01,4.495378e-01,3.151412e-01,
-6.003022e-01,-1.491583e-01,1.510691e-01,3.244595e-01,
-5.510702e-04,-4.999568e-03,-2.002639e-03,2.282665e-01,
-3.286250e+00,-4.222075e-02,7.215823e-03,-4.074764e-04,
7.083609e-03,-2.676487e-03,3.290013e-03,1.436492e+00,
-1.100255e-03,5.848224e-01,-4.719327e-04,-9.535297e-04,
2.174120e+00,2.816068e-02,-2.254296e-02,7.762939e-03,
-1.094849e+00,1.214201e-01,-2.390958e-01,9.916086e-02,
3.257537e-01,1.397220e-01,-1.781960e-01,2.504611e-01,
-1.890512e-01,6.661349e-01,-6.676990e-01,2.170808e-02,
-8.211166e-02,-3.946785e-01,4.733153e-03,2.831493e-02,
4.208049e-01,-2.927486e-01,2.926789e-01,3.188350e-01,
6.006507e-03,-4.165146e-03,5.342993e-03,2.523820e-01,
-1.667205e-01,-1.848920e-01,-1.032296e-01,1.512043e-01,
1.568105e+00,-3.274487e-02,2.602660e-02,-3.328025e-01,
5.080950e-03,2.587778e-03,-9.821826e-04,7.983330e-01,
9.266077e-01,7.896556e-02,3.255343e-02,3.377801e-01,
4.288726e-02,-1.579263e-03,1.740550e-03,-3.828895e-01,
-6.859234e-01,2.716779e-01,-2.460109e-02,7.780375e-03,
-1.585632e+00,4.456088e-01,-4.521889e-01,-2.037752e-01,
-7.893421e-01,-3.018718e-02,3.591844e-02,-5.512351e-01,
1.568313e+00,-2.112976e-01,2.209519e-01,4.460641e-01,
-8.719311e-01,-8.006778e-02,8.309506e-02,-1.940114e-01,
-2.993362e-02,
-7.059938e-03,
9.016280e-03,
-9.804097e-02,
-1.188164e-02,
-2.531585e-02,
-1.217287e-02,
-5.384618e-02,
-9.391150e-02,
-2.183767e-01,
-1.376786e-01,
-9.036085e-05,
5.485072e-03,
3.970700e-02,
-2.710805e-03,
-7.175001e-02,
-2.115405e-01,
5.247264e-02,
3.585321e-02,
9.950098e-02,
-1.407065e-03,
-1.211102e-01,
-4.324981e-02,
-5.083206e-02,
-1.151431e-01,
1.696235e-02,
-1.686737e-02,
-3.232542e-02,
4.977223e-02,
4.464459e-02,
-3.302956e-02,
1.550937e-02,
-6.498798e-02,
1.340698e-01,
-1.291823e-01,
-6.585766e-02,
-7.583962e-02,
-3.589799e-01,
-1.596333e-01,
-2.795007e-02,
-7.287291e-02,
-2.891983e-02,
-2.709682e-01,
1.337515e-01,
-1.711952e-01,
-3.397182e-01,-1.357245e-03,-3.337907e-02,-4.775464e-01,4.033531e-02,7.246880e-01,-4.165192e-03,-8.697704e-01,4.169570e-01,5.622848e-01,-1.698192e-01,3.898164e-03,1.410751e-01,7.905147e-03,7.090756e-02,-6.595246e-02,5.698150e-01,-1.005908e-01,-2.241928e-01,4.574043e-01,-1.497678e-02,4.903374e-01,3.636728e-01,1.375861e-01,-3.715950e-01,7.326369e-01,-8.294753e-02,-2.149914e-01,2.398142e-01,-8.595095e-02,-3.301936e-01,-1.403194e-01,4.963686e-01,4.890347e-01,-3.461449e-01,6.869032e-01,2.401388e-01,-3.413811e+00,-1.096027e-02,-3.954555e-02,-1.582921e+00,-5.378824e-01,2.981077e-02,-6.385871e-01,3.829312e-02,
2.010663e-01,-2.915691e-02,5.816057e-01,2.355502e-01,-2.451209e-03,7.466840e-01,2.665218e-01,1.146368e+00,-4.138949e-02,-1.442752e+00,-3.079680e-01,-1.143452e-01,3.020941e-01,-8.694389e-02,-2.755864e-01,4.242958e-01,8.405107e-01,3.276049e-01,1.094032e-01,2.607489e-01,-2.852849e+00,4.471198e-01,-1.365733e-01,-7.979268e-01,-4.287610e-01,1.537748e+00,2.159632e-01,9.569992e-02,3.496113e-01,2.420060e-01,-8.225020e-02,-3.247998e-01,9.133145e-02,-2.843693e-01,-2.116548e-01,-7.228848e-02,-4.913881e-01,1.778577e-01,6.234139e-02,-1.240885e-01,1.530177e-01,3.479593e-01,2.942946e-01,-2.085354e-01,-3.623714e-01,
-8.189845e-01,-8.723144e-02,-2.404484e-01,2.764084e-01,2.125841e-02,4.628461e-02,-7.050911e-02,-2.672402e-01,-8.206860e-02,1.639549e-01,9.083779e-02,3.601249e-01,5.321099e-02,-7.707971e-01,-3.248353e-02,3.166993e-02,3.018356e-01,-1.896826e-01,-2.831829e-01,6.107288e-02,-2.103683e-01,2.621179e-01,1.264499e-01,4.066615e-01,-5.328352e-01,4.807426e-02,-1.779245e-01,-1.705700e-01,1.940910e-01,-3.975210e-01,6.879562e-01,-1.247643e-01,3.513643e-01,4.137216e-01,-4.311277e-01,-3.587504e-01,-6.295368e-02,6.903566e-01,3.020557e-01,1.920734e-02,1.453314e-01,4.892651e-02,1.616633e-01,2.540811e-01,3.122646e-02,
5.157213e-02,3.689315e-01,-2.044303e-01,2.412664e-01,-1.717441e-02,5.706508e-01,2.851811e-01,4.951647e-01,-2.352720e-01,2.942258e-01,-5.740393e-01,-1.458299e-02,-3.902654e-01,1.016415e-01,3.863775e-01,-4.612019e-01,3.691929e-01,2.125138e-01,-2.023751e-01,-5.360069e-01,3.095670e-01,5.047160e-01,-1.408694e+00,-6.242404e-01,-2.570449e+00,1.277369e-01,3.209737e-01,2.233681e-01,1.561872e-02,-1.394806e-01,-5.181680e-02,-4.900119e-02,9.816217e-02,6.756862e-01,-2.096632e+00,4.543687e-01,-6.097790e-01,-2.011411e+01,4.806862e-02,-3.598959e-01,6.856343e-01,-2.991692e-01,-1.562449e-01,-1.580588e-01,-4.128553e-02,
-4.361264e-01,-8.959462e-02,-2.454223e-01,-3.592200e-02,-2.462291e-03,1.415073e-01,-5.138260e-02,1.198545e-01,-3.862402e-01,1.169843e+00,1.266658e-01,-8.066092e-01,-1.197065e-01,-1.485023e-01,2.578453e-02,1.292346e-01,-7.269417e-02,-4.017218e-02,7.342016e-02,-2.764451e-02,-1.134117e-01,-4.975938e-02,1.634767e-01,1.451955e-02,-2.313774e-01,3.110240e-01,-6.235327e-02,6.100612e-01,7.141525e-02,4.397262e-02,1.390215e-02,7.415254e-02,3.961579e-01,-1.020308e-01,4.182224e-02,5.254063e-01,1.675535e-01,-7.003235e-01,5.304794e-02,1.043976e-01,-2.972933e-01,-2.725986e-01,6.840182e-03,1.208423e-01,2.427325e-01,
-1.456645e-01,-1.295322e-01,-2.663779e-01,7.107116e-01,-2.300824e-02,5.358208e-02,-1.106802e-01,3.368556e-01,1.209009e-01,1.758138e-01,-4.182580e-01,4.225836e-02,-2.196899e-01,1.996115e-02,-2.896602e-01,6.303382e-01,7.938876e-01,-2.317174e-01,1.275643e-01,5.286300e-02,1.488767e-01,-2.392488e-01,-1.654738e-01,-3.018399e-01,1.221622e-01,8.173592e-02,-1.706126e-01,-2.416904e-02,1.512694e-01,1.546349e-02,6.425827e-03,-3.554715e-01,-4.597678e-02,1.221607e+00,1.753327e-01,-4.399633e-01,3.660018e-01,2.466979e+00,-4.725570e-01,-5.278599e-02,1.656080e-01,6.036118e-01,1.934352e-01,-2.929541e-01,-6.453267e-01,
1.793280e-02,8.948570e-01,-9.346916e-02,4.923491e-01,-7.146030e-03,2.337470e-01,9.428684e-01,-4.245042e-01,9.160198e-02,1.724025e+00,-6.179210e-01,1.320087e-02,-1.925066e-01,2.006945e-01,6.766630e-01,-4.880932e-01,-2.113343e-01,-8.966044e-02,2.889105e-01,-3.012211e-01,-2.629946e-01,-9.476355e-02,-5.389960e-02,-7.919210e-01,-1.126721e+00,1.049966e+00,8.962824e-01,-3.528492e-02,1.617705e-01,-8.249648e-02,3.709682e-01,-1.306271e-01,-3.018160e-01,-1.966097e-01,-1.101348e+00,-3.156562e-01,-3.166179e-01,-2.031515e+00,7.111782e-02,-1.160925e-01,1.348273e-01,1.314924e-01,2.154745e-01,-8.648677e-02,8.847371e-02,
-8.840169e-01,-2.062089e-01,-4.480813e-02,6.729460e-01,-3.342071e-02,-6.031407e-01,-1.974986e-01,8.420867e-01,-2.704252e-02,8.491713e-01,6.145071e-01,1.844170e-01,-6.926878e-01,1.195876e-01,-1.739342e-01,2.109707e-01,-5.488210e-01,1.615091e-01,3.605326e-01,7.642019e-02,-1.884471e-01,4.629582e-01,6.572400e-01,-1.963324e-01,2.035280e-01,-5.453401e-01,-2.542887e-01,-1.114388e-01,-5.248842e-01,6.742811e-01,6.215259e-01,-8.879492e-01,4.009358e-01,1.954776e-01,-2.824132e-02,1.691666e-01,-4.948615e-01,-3.082500e+00,1.528382e-01,-4.219899e-01,6.946186e-01,7.050576e-01,-3.538871e-01,4.794864e-02,1.020092e-01,
5.143341e-01,-1.007657e+00,6.268272e-02,3.121603e-01,3.448071e-02,7.975219e-01,-9.008303e-01,3.442045e-01,-1.222036e-01,-4.024204e+00,-3.991235e-02,-1.225385e-01,2.621401e-01,-1.850603e-02,-6.161529e-01,2.471928e+00,-2.632147e-01,-4.564064e-02,2.560804e-01,-4.364291e-01,-9.353025e-02,1.280980e-01,7.591837e-02,-5.135834e-01,4.095817e-01,9.344595e-01,-8.231889e-01,1.587011e-02,4.793142e-01,6.652225e-02,5.574564e-01,-1.144990e-02,-1.113632e-01,-4.473904e-02,-3.073535e-01,-5.509540e-01,-2.507788e-01,-6.838790e-01,-2.167980e-01,-1.066052e-02,-1.870180e-01,1.593179e-02,2.377031e-01,-8.491440e-02,-3.151306e-01,
-2.377498e-01,8.382287e-02,-1.291106e-01,-1.257077e-01,-2.768888e-02,4.206402e-01,2.464686e-02,4.345326e-02,-2.098379e-01,5.047961e-01,1.682022e-01,3.391704e-01,-7.783017e-02,-6.383959e-01,5.726300e-02,-3.940734e-02,2.523237e-02,3.141660e-02,1.617787e-01,-1.064498e-01,-7.110537e-02,-5.780927e-03,5.862179e-02,1.720140e-01,2.416832e-02,-1.456320e-02,1.798971e-02,-1.749359e+01,-7.566869e-02,1.481138e-01,-1.764543e-01,7.832541e-03,-3.124244e-01,-9.368545e-02,-1.642102e-02,1.501755e-01,9.216016e-02,2.754119e-01,-1.045535e-01,-5.452153e-02,8.946101e-02,-7.734083e-02,3.579844e-01,4.816615e-02,-5.187031e-02,
3.517677e-01,-3.513220e-03,-1.637947e+00,4.308445e-02,1.471064e-02,5.299015e-01,1.256643e-02,-2.609296e-01,1.232238e+00,4.395751e-01,2.067607e-01,-3.887991e-01,2.493460e-01,-1.368645e+00,8.633555e-02,-5.236765e-02,-4.981876e-02,-5.202869e-01,3.224086e-02,3.405105e-02,7.383785e-02,-2.530930e-01,1.291643e-01,2.133698e-01,-6.657709e-02,-7.471333e+00,-1.161829e-02,-9.604240e-02,4.585871e-01,-8.915696e-02,-2.148937e-01,3.246899e-01,6.580111e-01,-2.802291e-01,1.577334e-02,9.341071e-03,1.136546e-01,-1.542114e-01,-4.108468e-01,-2.226930e-01,-8.252127e-01,-5.252257e-01,2.539646e-01,1.275539e-01,1.508417e+00,
-1.993861e-01,3.593389e-01,-2.432787e-01,1.134155e+00,-1.820423e-02,9.696198e-02,4.834819e-01,6.048397e-01,-5.633824e-02,-3.631700e-01,1.124424e-01,-5.621301e-02,-8.098903e-02,-2.486870e-01,-4.247848e-02,-1.047039e+00,3.194267e-01,-2.994896e-01,3.270848e-01,2.186147e-01,-3.403350e-01,-6.358750e-01,-1.161728e-01,1.488814e-01,-3.647907e-03,4.097866e-01,3.993871e-01,-1.888930e-01,1.044754e-01,-4.946031e-01,-7.476326e-01,-9.636035e-01,6.604584e-01,-4.378641e-01,-2.536614e-01,2.744656e-01,4.320192e-01,6.088412e-01,-1.574353e-01,7.352235e-01,6.011603e-03,1.234274e-01,2.174565e-01,-5.644427e-02,-1.017980e-01,
3.157985e-01,2.856755e-01,1.474611e-01,1.585338e-01,1.005372e-02,2.183693e-01,3.775712e-01,3.571528e-01,-2.375671e-02,-2.913133e-01,-3.322017e-01,-1.770864e-01,1.423847e-01,-7.341390e-02,8.990367e-02,-5.104204e-01,1.567146e-01,3.261755e-02,2.371274e-02,-3.304698e-02,-3.231090e-01,1.641455e-01,2.070217e-02,8.238341e-03,-1.941505e-01,8.379577e-01,3.624922e-01,-4.869431e-02,3.980022e-01,-1.437279e-01,-3.027763e-02,-3.620362e-01,-5.416675e-02,8.859409e-02,-2.264206e-01,1.364583e-01,-4.082234e-02,2.167004e+00,-2.547609e-01,2.516422e-01,-2.526101e-02,3.055459e-01,8.637512e-01,1.278268e-01,-3.030464e-03,
-3.030123e-01,-3.871352e-01,6.109142e-02,-4.662520e-01,8.753859e-03,1.823222e-01,-3.818845e-01,-1.959481e-02,-1.839969e-01,3.559096e-01,-2.726150e-01,-6.985304e-02,-1.838479e-01,5.350636e-01,-1.162128e-01,1.124486e+00,7.387906e-01,4.690565e-02,-7.104117e-02,1.284980e-01,-4.034153e-01,-5.885255e-01,2.289730e-01,1.261663e-01,-3.232480e-01,8.163985e-03,-4.353319e-01,-9.563984e+00,-2.002851e-02,5.861298e-01,2.429805e-01,6.682126e-01,-1.668800e-01,3.125350e-01,-3.215912e-01,1.953614e-01,2.131864e-01,5.566143e+00,-3.536296e-01,4.733758e-01,-6.779215e-01,-3.949091e-01,-2.824599e-01,1.402938e-01,2.590408e-01,
-4.468527e-01,5.967614e-02,-5.828380e-01,1.676364e-01,-2.971513e-02,5.506476e-01,3.487866e-02,-1.295359e-01,6.456675e-01,3.177226e-01,2.578338e-01,-1.184101e-01,-3.044413e-01,2.235433e-02,1.370958e-01,-3.208835e-01,1.436946e-01,-7.717587e-02,-3.765680e-01,8.680902e-02,2.274519e-01,-1.342892e+00,5.959676e-03,-5.315757e-01,-2.330157e-02,-1.522045e-01,4.561452e-02,2.452725e-01,-2.677679e-01,-7.367750e-03,4.505371e-01,-1.584830e-01,1.810072e-03,2.046978e-01,3.018644e-01,-6.684924e-02,-4.233761e-02,-4.598180e+00,-7.438582e-01,5.165794e-01,3.280190e-01,1.205283e-01,8.503660e-01,-1.190969e-01,1.315682e+00,
-4.859560e+00,-1.076731e-01,-1.580275e-01,-1.070657e-01,-7.910808e-03,-1.612881e+00,-1.334212e-01,-2.949182e-02,3.099617e-01,-5.516590e-01,2.012309e-01,2.607942e-01,-2.229147e+00,3.023280e-01,1.568576e-01,3.184670e-01,2.734890e-01,1.834967e-01,-8.860160e-02,3.668753e-01,-1.085792e-01,1.707267e-01,-2.170152e-01,2.432242e-01,2.061669e-01,-1.987687e-02,-9.071375e-02,2.999625e-01,-1.308185e+00,2.253253e-01,2.651588e-02,4.312523e-01,2.763536e-01,5.362315e-01,4.143545e-01,-1.159081e-01,2.382427e-01,-5.988747e-01,3.422674e-01,5.103891e-02,-9.570342e-02,-6.277557e-01,-2.662172e-01,-2.308721e-01,1.201962e-01,
2.122872e-01,2.072129e-01,-1.159901e-01,-2.826104e-01,-3.634725e-02,2.934474e-01,1.441083e-01,-8.274316e-01,1.669519e-01,-3.740946e-02,-2.183107e-01,-8.875133e-02,5.199976e-02,6.144416e-02,-4.145912e-03,-6.283068e-01,-4.221475e-01,-4.157707e-01,-5.282116e-01,-1.507193e-01,-7.677240e-02,-2.721405e-01,-3.230865e-02,-2.554477e-01,-7.336270e-01,5.429680e-01,1.776633e-01,3.708670e-02,7.050546e-02,-3.069936e-02,-5.238584e-01,-9.365273e-02,-3.705471e-02,-4.769462e-02,-7.330731e-01,-2.512351e-01,-1.310186e-01,-2.834086e+00,5.224899e-01,4.061356e-01,-1.723076e-01,-1.256922e-01,-9.826487e-02,3.149602e-01,-5.260323e-01,
-4.978714e-01,-1.643739e-01,2.723778e-01,4.936748e-01,-4.245757e-02,2.661689e-01,-2.761772e-01,7.726469e-01,4.617438e-02,2.256473e-01,6.472589e-02,-6.186229e-03,-2.491119e-01,8.460356e-03,2.564546e-01,9.062185e-01,5.697665e-02,2.547126e-01,-1.256859e-01,3.568079e-01,2.350027e-01,3.749350e+00,-1.438219e+00,5.340039e-01,-1.382483e+00,3.469570e-02,-2.564939e-01,1.159085e-01,-1.981676e+00,2.280751e-01,2.087028e+00,-5.611478e+00,-6.641841e-02,5.865838e-01,-2.913368e-01,3.703295e-01,6.956589e-01,-5.542466e+00,-2.343602e+00,-1.706781e-02,-2.948818e-02,-7.273346e-01,-5.051159e-01,-9.635608e-01,-1.659810e-01,
-2.959842e-01,1.818312e-01,7.213221e-02,1.497351e-01,-2.666526e-02,4.820272e-01,1.709941e-01,-6.046733e-01,-1.165529e-01,3.228300e-01,-4.886631e-01,-1.455646e-02,-1.729629e-01,-9.835821e-02,1.894901e-01,-3.942755e-01,-4.179721e-01,1.305642e-01,-9.816629e-01,-6.660498e-01,-6.020571e-02,3.184988e-01,-5.892841e-01,-9.019222e-01,1.909434e+00,7.473224e-01,1.372246e-01,1.913058e-01,-2.325039e-01,3.446989e-01,2.898419e-01,6.320768e-01,-1.444114e-01,-4.253158e-01,2.846139e+00,3.615754e-01,-7.269506e-01,4.021823e+00,4.165219e-01,5.235184e-01,-1.007264e-01,1.481568e-01,1.036525e+00,8.357972e-01,5.953181e-02,
-4.713328e-01,-2.208974e-02,6.832763e-01,-4.098821e-01,-3.347469e-02,-2.528306e-01,-3.635716e-03,-8.166266e-01,-7.292501e-02,4.702474e-01,3.255301e-01,-5.854372e-02,2.355631e-01,5.216165e-01,1.824840e-01,-1.248535e-01,-1.534395e-02,-5.589421e-02,2.131839e-01,-2.339637e-01,-2.589049e-02,5.099466e-01,2.349460e-01,3.056828e-01,4.899617e-01,-1.862566e-01,1.830294e-02,-5.750737e-02,8.015408e-01,-3.444721e-01,-5.685497e-02,2.265776e-01,-7.081718e-01,-4.387819e-01,2.074983e-01,1.046145e+00,4.876880e-01,5.560255e+00,-4.894571e-02,2.910737e-02,-3.443107e-01,-8.097347e-01,-2.117952e-01,3.448446e-01,1.070899e+00,
5.717409e-01,-6.360273e-01,3.326097e-01,5.702729e-01,5.479655e-02,5.043162e-01,-1.617421e-01,8.374164e-01,6.236893e-02,-2.672075e-02,-1.911956e+00,-1.759583e-01,2.107087e-01,-1.036677e-02,-1.115527e+00,1.790053e+00,-7.764817e-01,2.227645e-01,3.560810e-01,-9.443846e-02,-7.274631e-01,-1.367674e-01,2.971441e-01,-7.575986e-01,2.557502e-01,1.052984e+00,-5.841788e-02,2.286230e-02,5.200476e-01,2.197156e-01,1.036789e-01,-4.751628e-01,4.851401e-02,-2.190784e-01,-1.382461e-01,-3.085099e-01,1.528007e-01,4.532554e+00,-6.949196e-01,-3.198787e-02,-4.866686e-02,4.199883e-01,-1.067179e+00,-1.016735e-01,-5.822997e-01,
2.212677e-01,3.508048e-02,1.797947e-01,-3.884730e-01,4.229211e-02,3.794439e-01,1.951826e-02,8.916234e-02,3.338686e-01,-1.892317e-01,7.163728e-01,-1.647648e-01,-2.665559e-02,-4.048341e-02,1.938452e-01,-3.069876e-01,4.161493e-01,3.033316e-01,-2.023914e-01,-4.524881e-01,-7.263932e-02,-1.623253e-01,-4.591269e-01,-3.186048e-01,-8.867533e-01,4.565636e-01,6.986981e-02,1.131508e-01,6.792533e-02,-1.082469e+00,-2.002197e-01,1.832522e-01,-4.320750e-02,7.857145e-01,-9.916273e-01,6.396208e-01,-1.924616e-01,2.949385e-01,-6.259856e-01,-5.533857e-01,-3.980124e-01,-3.248809e-01,6.255471e-01,1.038435e-01,-1.719425e+00,
-5.225176e-01,-9.120758e-02,-3.980190e-01,-2.039032e-01,-2.427533e-02,2.700901e-01,-8.587234e-02,4.994851e-01,-5.069433e-02,-2.745655e-02,2.809114e-01,4.022788e-01,-5.961122e-02,-2.783752e-01,4.509116e-02,9.963018e-02,-7.125561e-01,-1.827304e-01,-1.505910e-01,1.604901e-01,-1.864232e-01,2.457384e-01,1.423341e-01,1.753598e-01,8.183277e-01,1.561665e-02,-1.247768e-01,-3.399300e-01,-7.052262e-01,5.339995e-01,3.017719e-02,2.013568e-01,1.862721e-01,-1.783648e-01,8.142881e-01,3.400308e-02,3.479711e-01,-1.887679e+00,-1.456395e-02,-1.118350e-01,-3.557262e-01,1.115964e-01,2.515179e-01,1.358700e-01,-3.310729e-01,
-2.814096e-03,-4.797052e-02,-8.953018e-03,-1.453999e-02,1.745450e-02,-1.149083e-02,2.870074e-02,2.907942e-02,8.068792e-04,-1.276442e-02,2.116238e-02,-5.182869e-02,-5.019022e-02,-8.957567e-03,-3.220577e-02,1.934309e-02,3.962323e-02,-2.172188e-02,-6.064589e-03,-2.328157e-02,-4.230127e-02,-1.774508e-02,-2.684174e-02,-2.593495e-02,1.958513e-02,-9.428351e-03,1.692341e-02,-5.049877e-03,-3.411560e-02,-5.021811e-02,-3.389384e-02,2.526177e-02,3.794441e-02,2.901552e-04,1.540001e-02,-4.794269e-02,-2.478222e-02,-1.498093e-02,-1.077160e-02,-1.420593e-02,-4.178556e-02,-1.387030e-02,-4.883701e-02,2.725946e-02,-3.976230e-02,
-5.341027e-01,2.911398e-02,-3.347376e-01,-1.080285e-01,-2.702080e-02,2.716590e-01,4.902115e-02,-1.023431e-01,-2.585087e-01,-4.543631e-01,1.129719e-01,-1.764065e+00,-6.685570e-05,4.972129e-01,2.437524e-02,-7.485357e-02,1.805777e-02,8.783325e-03,1.732352e-01,-5.620127e-02,6.757790e-02,-7.351538e-02,2.174798e-02,5.773269e-02,4.199944e-01,1.685732e-01,-6.940195e-04,-5.509637e-01,1.934894e-01,3.297381e-01,-2.093426e-01,-3.407301e-02,-1.635366e+00,-2.632710e-02,1.865865e-01,6.961720e-02,1.169288e-01,-6.709105e-03,3.218111e-01,4.533691e-02,-1.023284e-01,-6.623568e-02,-3.774823e-02,9.473974e-02,1.574576e-01,
1.868521e-01,-6.656966e-02,-1.932497e-01,-1.778415e-01,1.793293e-02,7.075531e-01,-5.854402e-02,-3.981093e-01,-8.104460e-02,2.666689e-01,7.201932e-02,-9.472454e-02,-1.845927e-01,-4.561886e-03,-4.105026e-02,4.644431e-01,-5.054259e-01,-2.730211e-01,4.165875e-01,1.808164e-01,2.018521e-01,-1.593565e-01,-6.910757e-02,1.784692e-01,5.369090e-01,4.058727e-02,-5.507362e-02,4.728200e-01,-5.597343e-02,-9.464394e-01,-1.072792e+00,-1.627565e-01,1.879089e-01,-1.430053e-01,9.383100e-01,9.717214e-02,-1.509445e-03,3.917776e+00,1.995682e-01,-9.723651e-02,-3.769007e-01,-4.965075e-01,-2.024369e-01,-2.003495e-01,4.466696e-01,
-3.809511e-01,-8.602646e-02,-3.921367e-01,-5.930132e-01,-8.274443e-03,7.051448e-02,-1.216915e-01,-1.706772e-01,-2.073149e-01,8.420533e-02,1.612027e+00,3.329938e-01,4.151019e-03,-1.592602e-01,-2.725547e-01,2.680296e-03,3.810485e-01,-3.286687e-01,-1.120650e-02,-6.119160e-02,-4.763187e-02,6.129067e-01,2.628447e-01,2.205144e-01,1.376680e-01,7.097338e-02,-1.425230e-01,-2.056997e-02,9.551579e-02,-6.302305e-01,3.429954e-01,-3.515619e-01,-2.613395e-02,4.298840e-01,1.063857e-01,5.201145e-01,4.562062e-01,4.588053e+00,3.253437e-01,5.272212e-01,-1.729849e-01,3.618406e-01,2.288756e-01,-9.653933e-03,-5.360140e-01,
-2.904648e-01,-1.829419e-02,-7.263449e-02,-7.499987e-03,-8.565987e-03,6.653431e-02,9.898862e-03,-2.181548e-02,-1.175966e-01,8.236519e-02,3.763010e-02,1.917016e+00,3.025069e-02,-3.822590e-02,2.297216e-03,-2.154028e-03,-5.544571e-03,3.145247e-02,1.595117e-02,-1.991370e-03,2.573523e-02,-3.696120e-02,6.586480e-02,-1.405159e-02,7.752526e-03,5.201458e-02,-3.903554e-03,-2.476702e+00,1.038107e-01,6.792438e-02,-3.053690e-02,4.723221e-02,-1.040496e-01,-6.703239e-02,8.135413e-02,1.233473e-01,7.034207e-02,-2.226281e-01,1.228125e-01,1.843287e-02,-8.132596e-02,-7.544656e-02,-2.795465e-02,3.851248e-02,1.035248e-01,
-3.215298e-01,-3.886027e-02,-2.253479e-01,-4.700961e-01,-3.929916e-02,-2.598727e-01,-5.868737e-02,-2.691701e-01,5.848025e-01,-4.156584e-01,2.635643e-01,1.144267e-01,6.927925e-02,-6.499823e-01,2.238624e-02,4.532770e-01,-1.890551e-01,-2.719674e-01,4.162359e-01,-1.807574e-01,1.430997e-01,5.382146e-02,-1.350120e-01,-1.561689e-01,-5.318202e-03,1.502119e-01,-9.663004e-02,-4.327863e-01,2.987943e-01,5.794090e-02,-4.865920e-01,2.035160e-01,-7.886267e-02,2.466766e-01,-2.379902e-02,-7.370849e-02,3.085687e-01,-7.042272e-01,4.913470e-01,2.297860e-01,6.459267e-01,-2.045696e-02,-2.119243e-01,1.271149e-01,1.613943e-02,
-4.502011e-01,-4.253997e-02,-3.625235e-02,-1.931424e-01,1.301840e-02,1.443861e-01,-7.951134e-02,-1.452931e-01,-1.812205e-01,1.352599e-01,2.024921e-01,-5.972145e-02,5.117578e-02,-3.175345e-01,8.368254e-02,1.510137e-01,-1.679555e-02,2.886656e-01,2.903922e-02,-8.612477e-02,1.085468e-01,-7.361058e-02,3.706329e-01,2.295534e-02,-3.829481e-02,-1.532438e-01,-2.862510e-02,3.042130e-01,1.722152e-01,1.455820e-01,-1.822588e-01,4.271618e-01,-3.964047e-01,-3.890037e-01,1.053248e-01,1.308526e-01,3.016053e-01,-3.744124e-01,3.061060e-01,-1.561336e-01,6.257255e-02,-2.903629e-01,1.806981e-01,2.328137e-02,2.205588e-01,
-1.988387e-02,-1.779981e-02,5.898210e-03,1.560131e-02,4.142720e-02,1.087310e-02,-8.330086e-03,1.503214e-02,-5.344614e-02,-3.437850e-02,-5.967384e-02,-5.061903e-02,-2.838590e-02,-1.825012e-02,-7.649525e-02,-1.021819e-03,2.274905e-02,-1.319892e-02,-3.655481e-02,1.046016e-02,5.045552e-02,-6.177189e-02,2.043152e-02,-7.725606e-02,-1.529937e-02,-4.535241e-02,-3.463802e-02,-1.130609e-01,-7.057320e-03,-7.415674e-02,-1.743815e-02,-3.334202e-02,-6.518200e-02,3.278575e-02,-3.252885e-02,1.719574e-02,2.913830e-02,1.466708e-03,-6.633107e-02,-3.573500e-02,-1.451336e-03,-6.492668e-02,-3.328577e-02,6.804767e-03,-9.687862e-03,
2.916285e-02,2.138522e-02,2.596898e-01,-7.540014e-01,-1.582093e-02,1.459335e-01,-1.417417e-02,-4.871892e-03,2.083708e-01,-5.130749e-01,1.290189e-01,8.929104e-02,-1.239524e-01,1.054322e+00,1.634084e-01,-9.537148e-02,-3.219274e-01,-4.990157e-01,-1.866126e-01,-2.495245e-01,-4.346622e-01,4.107898e-02,4.411969e-02,3.332336e-01,-9.078504e-01,-1.132905e-01,-4.471508e-02,-3.381754e-01,9.491076e-02,7.085468e-01,-6.459855e-02,3.615655e-01,5.424357e-02,-2.559821e-01,-8.913354e-01,-2.200989e-01,2.658363e-01,-5.037996e+00,-5.871437e-02,2.430476e-01,3.521798e-01,-3.164112e-01,1.078817e-01,2.816683e-01,6.988032e-02,
-2.231518e-01,1.197222e-01,-1.710829e-01,1.401670e-01,1.811851e-02,5.565400e-01,1.234329e-01,8.364644e-02,6.546766e-02,1.894486e-01,7.861345e-02,2.370567e-01,-3.546729e-02,-4.462481e-01,7.924955e-02,-2.742214e-01,1.542545e-01,-1.196456e-01,-2.239802e-01,-1.905619e-01,6.027828e-02,-3.277513e-02,1.812372e-01,-2.309833e-01,-1.036723e-01,5.144626e-01,1.309949e-01,-2.054052e-01,-2.523895e-01,-6.556607e-02,-2.289307e-01,2.297777e-01,3.797515e-01,-1.643646e-01,-2.500707e-02,-3.080648e-01,-6.070664e-03,1.473244e-01,-2.678228e-01,-1.953799e-02,2.912451e-02,-4.940192e-01,-2.757735e-01,-2.860577e-02,-1.790859e-01,
6.254248e-01,9.144667e-01,5.650516e-01,8.315094e-01,2.793195e-02,-2.346088e-01,9.477053e-01,9.683174e-01,4.875065e-01,-2.015896e-01,-2.164211e-01,7.938948e-01,4.252341e-01,3.010529e-01,7.165087e-01,-5.065052e-02,9.139933e-01,4.443441e-01,6.304125e-01,9.839544e-02,-5.033962e-01,1.361246e-01,-4.219819e-03,1.073941e-01,7.478665e-01,3.583634e-01,9.793221e-01,-1.151282e-01,3.794647e-01,2.824703e-01,1.650890e-01,-7.772025e-01,4.318499e-01,3.089599e-01,8.893293e-01,3.398120e-01,3.798040e-01,6.112201e-01,4.852176e-01,1.327745e-01,6.406150e-01,9.396155e-01,4.930126e-01,4.184058e-01,4.811568e-01,
-9.155800e-02,-1.672773e-03,4.846261e-03,4.066409e-03,1.677370e-02,1.875075e-01,-1.149794e-02,-2.161197e-01,-1.073633e-01,-2.776611e-01,-4.577415e-01,1.670400e-02,2.059294e-02,4.104795e-01,-1.244588e-01,1.287156e-01,-1.106400e-02,2.359267e-01,8.220856e-02,-7.087634e-02,-4.059792e-01,4.760876e-02,-4.891010e-01,-3.892528e-01,1.359101e+00,6.426119e-01,7.477865e-02,-2.099593e-01,1.788909e-01,-6.859971e-01,-3.805577e-01,-3.305369e-02,-1.687394e-01,1.727075e-01,6.053885e-01,6.315590e-01,3.031734e-01,6.126830e+00,1.071965e-01,3.081667e-01,-2.796362e-01,1.692279e-01,-5.545059e-01,-1.396641e-01,-1.135015e+00,
-5.640386e-01,1.576589e-01,-9.459428e-02,4.660886e-01,4.145928e-02,3.245544e-01,1.414695e-01,-4.109125e-01,-3.190032e-01,7.031534e-02,6.032219e-02,-3.839790e-01,-2.297538e-01,6.995570e-01,6.804880e-02,-5.626941e-01,8.180428e-03,-1.965467e-01,6.081884e-01,1.558977e-01,3.156095e-01,2.924748e-01,-3.527219e-01,1.281023e-01,2.714127e+00,-1.409733e-01,1.352125e-01,6.701860e-01,9.216361e-02,3.683185e-01,3.209143e-01,6.055083e-02,1.482562e-01,2.284805e-01,2.255410e+00,-5.329487e-02,3.794790e-03,5.634307e+00,-7.325932e-02,-2.198244e-01,5.063468e-01,2.797448e-01,-1.281271e-01,-8.958482e-02,2.856009e-01,
4.240093e-01,9.801179e-01,4.262610e-01,6.219072e-01,5.419869e-02,6.998784e-01,1.098033e+00,4.792489e-01,-6.482499e-03,7.092690e-01,-5.263126e-01,-1.521313e-02,1.763551e-01,-3.726775e-02,6.239027e-01,-1.522354e+00,3.781465e-01,2.354303e-01,1.904160e-01,7.135834e-02,-8.565288e-02,-8.229445e-01,-2.292175e-01,-1.217913e-01,-2.218809e-01,1.293745e+00,1.220497e+00,3.322497e-02,2.964087e-01,-7.837471e-02,2.013381e-01,-2.010671e-01,7.856600e-03,1.676256e-01,-1.555034e-01,9.483533e-02,2.011276e-01,-2.453694e+00,-4.567589e-01,1.512314e-01,9.967600e-02,2.055329e-01,8.514454e-01,7.941510e-03,1.042109e-01,
-1.453004e-01,-2.325452e-02,3.444962e-04,8.614394e-01,-3.378146e-02,4.617174e-02,1.477541e-02,4.148978e-01,-2.026437e-01,1.521446e-01,-4.668626e-01,-1.367780e-01,-5.438653e-02,6.771336e-02,-4.075280e-01,2.764244e-01,9.775218e-01,-3.991702e-01,1.717464e-01,2.023489e-01,-6.687410e-01,-7.458454e-01,-1.518535e-01,-8.192569e-01,9.785848e-01,6.985099e-01,4.286604e-02,4.166867e-02,2.226542e-01,-3.347101e-01,-3.271152e-01,-6.760361e-01,-4.676137e-01,5.606431e-01,4.887539e-01,-1.706285e-01,3.835420e-01,8.454341e+00,-6.506556e-01,4.221861e-01,2.462511e-01,5.385208e-01,3.849156e-01,-1.621405e-01,9.188986e-01,
-4.579300e-02,9.853066e-03,1.626376e-02,-2.891003e-03,1.040912e-02,-5.025979e-02,1.584743e-02,-3.066955e-02,-3.657829e-02,-1.742819e-02,-1.156111e-02,-2.912232e-02,-1.639721e-02,-5.193037e-02,3.869938e-02,1.912114e-02,3.257941e-02,2.219848e-02,-3.178656e-02,-3.245830e-02,3.245736e-02,-3.202305e-02,2.922163e-02,-2.828155e-02,-3.812530e-02,-4.307180e-02,-3.064209e-02,-2.878888e-02,2.065637e-02,8.692142e-03,-2.363740e-02,-1.735843e-02,-5.508504e-02,1.323967e-02,1.736085e-02,-2.244437e-02,9.411778e-03,-5.195036e-02,-1.645135e-04,8.304853e-03,1.704761e-02,-3.902870e-02,6.577657e-03,-1.251852e-02,2.219685e-02,
2.576548e-01,1.339246e-01,7.752828e-02,-6.623918e-02,4.688123e-03,-2.140544e-01,1.649660e-01,1.484852e-01,-1.005472e-01,4.249575e-01,-6.148219e-01,-1.234990e-01,2.934034e-01,2.648244e-01,-5.139379e-03,-2.348210e-01,-2.845797e-01,-3.527497e-01,2.125297e-01,1.544722e-01,-4.485148e-01,-9.918954e-01,-4.763344e-01,-4.190820e-01,-7.848281e-01,8.379619e-01,1.397144e-01,-1.841678e-02,4.309310e-01,-3.900186e-01,-4.946325e-01,-2.747918e-01,3.922310e-01,5.163940e-02,-1.512597e+00,9.543573e-03,1.375178e-01,-1.436650e-01,1.505899e-01,-8.391130e-04,2.506769e-01,-2.339969e-01,-5.510256e-02,-3.360568e-01,-6.655113e-01,
5.681813e-01,1.808888e+00,3.092076e-01,7.319109e-01,7.593249e-03,5.453088e-01,2.045074e+00,7.124835e-01,-2.290232e-03,-1.000981e-01,-1.085907e+00,-6.463715e-02,4.564215e-01,-4.531607e-03,9.226122e-01,-1.427260e+00,1.406108e-01,3.310855e-01,5.173805e-01,1.012079e-01,-1.234343e+00,-3.811668e-01,8.898826e-02,6.707634e-01,-2.207412e-01,3.256313e-01,2.153262e+00,7.468279e-02,5.388843e-01,1.727795e-01,-2.764568e-01,-4.346835e-01,8.053820e-03,2.262765e-01,-2.841620e-01,-2.569235e-02,2.992097e-01,-1.169190e+00,2.277197e-02,-4.112662e-01,-6.333962e-02,4.821421e-01,-1.229082e+00,1.634075e-01,5.245860e-01,
-1.515678e-01,-1.613810e-02,-9.379981e-02,-8.750661e-02,2.613747e-03,9.610229e-03,-3.237753e-02,7.607035e-02,-7.110154e-02,-3.084764e-01,8.983481e-02,9.743062e-01,-4.128290e-02,8.294305e-01,9.258751e-02,-5.563144e-02,4.854411e-02,-3.092181e-02,-5.491377e-02,-5.432971e-02,-9.011911e-03,-1.755957e-01,1.218795e-01,2.222510e-02,5.693794e-02,1.524265e-01,-1.878391e-03,-7.106082e-02,8.535194e-02,1.305498e-01,1.790394e-01,-1.253805e-02,-5.467659e-02,3.411685e-02,-1.519330e-02,-1.338749e-01,9.786947e-02,4.544904e-01,-7.127332e-03,9.508606e-02,-1.318282e-01,-1.107895e-01,-2.315489e-01,3.847751e-03,2.213655e-01,
-3.413511e-02,-5.885593e-02,3.200959e-02,-2.349081e-02,3.320764e-02,2.976616e-02,-6.068804e-02,-6.752916e-02,-1.739988e-02,-3.020979e-02,-4.038126e-02,3.022704e-02,2.857633e-02,1.819489e-02,1.070281e-02,-5.600192e-02,-4.364281e-02,2.463227e-02,-4.490617e-03,5.604607e-03,-3.008494e-02,-3.245351e-03,-3.146800e-03,-8.170706e-03,-4.674699e-02,-3.859464e-02,2.381422e-02,2.151573e-02,-3.460781e-02,-2.893216e-02,2.550717e-02,3.138455e-02,-1.158782e-02,-3.817236e-02,8.970316e-03,3.576929e-03,-2.856182e-02,-3.415761e-03,-4.516926e-02,-3.640377e-02,-4.137340e-02,-5.385119e-02,-4.856144e-02,1.224580e-02,-1.663022e-02,
-3.215155e-02,-1.267598e-01,-2.143383e-01,-8.841270e-01,1.911424e-02,3.634414e-01,-1.710140e-01,-5.785341e-02,-3.483915e-01,-4.377678e-01,1.406803e-01,1.011942e-01,4.571045e-02,-1.949476e-02,-1.889407e-02,3.614367e-01,-6.326702e-01,-9.638105e-02,-1.009615e-01,-2.751923e-01,-3.997858e-01,-3.774963e-01,-9.402487e-02,2.225721e-01,-9.722893e-01,3.422823e-01,-1.427071e-01,3.585206e-02,9.220659e-02,2.547068e-01,-3.754240e-01,4.542375e-01,5.282658e-01,2.714420e-01,-3.580058e-01,2.183120e-01,4.126770e-02,-1.283954e+00,5.264632e-01,-3.530020e-01,1.646164e-02,-6.351640e-01,-3.448177e-02,1.519789e-01,4.641130e-01,
-3.415902e-01,9.266181e-02,-3.279879e-01,2.658886e-01,-3.975427e-02,4.324996e-01,1.514498e-01,-8.034749e-02,-1.911498e-01,-7.599969e-01,3.012439e-01,1.331404e-01,-1.823941e-01,5.201882e-02,-4.093453e-02,-3.958738e-01,-1.734952e-02,-4.248206e-01,-4.646577e-01,-1.311651e-01,1.211631e-01,3.969314e-01,4.013728e-01,8.400600e-02,3.203321e-02,1.848337e-01,1.826518e-01,2.259578e-01,-1.509418e-01,-4.007508e-01,-2.471494e-01,1.536136e-02,-1.280873e-01,-3.817978e-01,5.594845e-03,3.865357e-01,-8.662753e-02,1.804623e+00,4.852972e-01,6.168885e-01,-2.759778e-01,5.035177e-01,-5.687229e-02,-1.382712e-01,-3.238640e-01,
-1.768010e-02,
-3.657678e-01,
9.033044e-02,
2.934552e-03,
4.235835e-02,
-9.348946e-02,
-4.530674e-02,
3.040327e-01,
-1.486551e-01,
1.771901e-01,
3.033907e-01,
7.291765e-02,
-1.321132e-01,
-6.919633e-02,
-1.558727e-02,
4.207360e-02,
4.410413e-02,
1.208203e-02,
5.059522e-02,
-5.228331e-02,
-1.488139e-01,
-8.176038e-02,
1.373872e-01,
-8.969649e-03,
1.277535e-01,
7.498077e-02,
3.910859e-02,
1.372908e-01,
-3.778987e-02,
9.388909e-02,
-3.293180e-02,
-4.185668e-02,
5.805824e-02,
-2.466808e-01,
-8.487491e-02,
-1.354188e-01,
-2.599994e-01,
-8.965614e-02,
-2.380021e-02,
-2.271871e-02,
-7.633667e-02,
-2.863305e-02,
-2.414962e-02,
3.261908e-02,
1.412085e-01,
2.006047e-01,-2.316578e+00,-4.313197e-01,-5.831598e-02,-6.901097e-02,2.359606e-01,-1.294872e-01,1.468445e-01,-1.103056e-02,-7.880443e-02,3.462939e-01,-8.802379e-02,-2.087612e-01,1.414972e-02,-1.175723e-01,3.331178e-01,1.926762e-01,9.270765e-01,-4.566000e-01,2.780544e-01,-4.112625e-01,1.528183e-01,-1.739767e-02,2.423647e-02,-1.686376e-01,1.891575e-01,-2.114145e-01,1.493137e-01,1.045900e-01,-5.208502e-03,-8.207671e-03,5.859885e-02,6.511731e-02,-6.079921e-01,3.796999e-03,3.749383e-02,-6.961482e-01,-1.607384e-01,4.334718e-02,1.032863e-01,-9.221718e-01,1.349726e-01,2.697241e-02,1.941805e-01,7.342998e-02,
2.519888e-01,8.549754e-02,-7.031575e-02,2.812185e-01,-9.454106e-02,-7.915701e-01,3.952954e-01,1.879526e-01,1.251655e-01,3.955828e-01,-4.834918e-02,3.166564e-02,-2.969434e-02,1.525751e-02,-3.416803e-01,9.959447e-02,-2.570952e-01,4.587685e-01,-1.355034e-01,-1.877820e-01,1.073760e-01,-2.648901e-01,-7.737412e-02,2.851398e-02,3.189585e-01,-1.438408e+00,-9.529190e-01,1.555585e-01,-2.899762e-02,2.510184e-01,-2.003726e-03,5.091278e-01,-4.835280e-02,-4.077204e-01,1.001763e-01,2.674720e-01,-1.789701e-01,3.042047e-01,6.876238e-03,-2.261986e-02,1.126053e-01,2.213748e-01,-4.880471e-02,2.192522e-01,2.719484e-01,
2.929885e-01,-4.417498e-02,1.210795e-01,5.286760e-01,-2.499652e-01,-2.337058e-01,2.588468e-01,1.146537e-01,1.827240e-01,4.538765e-01,-1.588017e-01,8.782364e-02,1.994779e-02,4.884412e-01,4.239125e-01,-5.278409e-02,-1.000475e-01,4.493936e-01,-7.510043e-01,5.685876e-02,-1.851065e-02,4.854267e-02,-3.253101e-01,-1.138764e-02,-1.236642e+00,1.338129e-01,3.415710e-02,-1.797900e-01,9.539557e-02,3.918146e-01,1.569370e-02,9.901380e-01,4.640291e-03,-3.450084e-01,5.434685e-02,-5.716670e-02,-2.349794e-01,-3.041243e-01,-3.727026e-02,-5.170686e-01,1.348665e-01,-1.213465e+00,1.887094e-02,5.080726e-02,3.724596e-02,
-4.099364e-02,7.640980e-02,-7.387356e-02,-2.056785e-01,-5.024639e-01,1.671346e-01,5.373236e-02,9.640639e-02,9.758094e-02,3.451948e-01,-2.279861e-01,6.930346e-03,2.972111e-01,2.372196e-01,-3.615133e-01,3.701976e-01,1.119755e-01,-9.030136e-02,-2.656042e-02,1.462267e-01,7.953685e-02,2.482510e-03,3.450001e-02,2.004472e-02,6.434643e-01,-1.506582e-01,-4.028494e-02,8.839086e-01,1.263370e-01,6.990682e-02,9.434551e-03,-6.043460e-01,-2.105477e-01,-5.078014e-01,-2.110600e-01,1.940161e-01,1.052179e-01,1.369322e-01,6.315536e-02,-9.729499e-02,2.141869e-01,-8.220325e-01,7.120034e-02,-3.599427e-02,5.349367e-02,
2.906440e-01,-1.802586e+00,6.935852e-01,-2.096925e-01,1.439880e+00,4.101987e-01,4.974306e-01,3.259976e-01,-8.409774e-01,2.124151e-01,3.151200e-01,2.521351e-01,3.912978e-01,2.431914e-01,4.423997e-01,2.514040e-01,-1.970004e-01,-1.590779e-01,6.048102e-02,-3.583810e-01,-7.963817e-01,-2.221641e-01,-2.671260e-01,7.886735e-03,-1.031474e+00,3.989582e-01,-6.821493e-02,3.958851e-01,1.122495e+00,2.986493e-01,2.810073e-02,3.294252e-01,-6.597854e-02,-5.051938e-01,3.334337e-01,-1.270895e+00,-2.781567e-01,3.227178e-01,-3.257327e-02,4.051742e-01,-3.998244e-02,-2.582582e-01,-2.818067e-02,-4.271905e-01,-9.509354e-02,
3.845454e-02,-7.780647e-03,3.701805e-02,-2.871283e-02,-6.680864e-03,-3.886519e-02,1.491037e-02,-3.595720e-02,3.222195e-02,-1.024731e-02,3.194171e-02,1.212352e-02,-3.095598e-02,-7.858304e-03,1.630728e-02,-1.430081e-02,3.735746e-02,-3.000345e-02,-4.092935e-02,2.143453e-02,3.494089e-02,-7.285383e-03,2.562024e-02,4.824762e-02,-4.338169e-03,-7.751347e-03,4.020257e-02,3.981903e-02,-4.056238e-02,-2.638949e-02,-2.048645e-02,2.181145e-03,-4.378863e-02,-1.861723e-02,1.394416e-02,-1.655227e-02,6.892295e-03,-4.758494e-02,-5.690548e-03,-1.224161e-02,-4.684827e-02,-3.705591e-02,-2.271212e-03,-5.294632e-02,-4.591458e-02,
-2.959443e-02,2.279126e-03,-3.143004e-02,-4.521203e-02,2.611409e-02,-1.629862e-03,-1.558721e-02,-3.211548e-03,-5.743957e-02,-2.108312e-03,-3.097569e-02,2.463992e-02,2.905742e-02,-1.300735e-02,-3.347883e-02,1.565823e-03,2.354208e-02,3.847872e-02,-3.002388e-02,2.267165e-02,-2.215209e-02,-4.444319e-02,-4.620633e-02,-2.020197e-02,-7.734528e-03,1.603082e-02,-4.477866e-02,-4.976769e-02,-5.132870e-02,-2.914980e-02,-2.577501e-02,4.381639e-02,-3.590115e-02,-1.347024e-02,-1.160019e-02,3.062315e-02,1.232188e-02,-5.849398e-02,-2.294604e-02,-2.345758e-02,-2.803619e-02,2.406176e-02,-1.702774e-02,-1.902750e-03,2.205413e-02,
-6.101176e-02,2.330579e-01,-3.764436e-01,1.944255e-01,8.776002e-02,6.991897e-01,1.728892e-01,1.024309e-01,-2.576201e-01,-2.072915e-01,-4.709471e-01,-9.048450e-02,-1.864347e-01,6.215824e-01,-3.643204e-01,2.988577e-01,2.535525e-01,4.832675e-02,-3.251513e-01,5.436822e-01,-5.746747e-01,1.903751e-01,-7.658397e-01,-1.587438e-02,3.917800e-01,2.391993e-01,3.886967e-01,1.738721e-01,2.063698e-01,-5.493123e-01,4.814713e-02,-1.046634e-01,-4.249289e-02,-5.003805e-01,-2.583541e-01,-8.082752e-01,-5.322962e-02,2.497688e-01,-3.711840e-03,-1.487082e-01,2.875595e-01,3.526002e-01,-2.802550e-04,-3.224801e-01,-6.715104e-02,
-1.890737e-02,1.412308e-02,-5.014592e-02,1.020146e-03,-3.594989e-02,-3.389908e-02,-1.265943e-02,-3.998058e-03,1.615196e-02,-1.258387e-02,-4.806660e-02,-5.057685e-02,1.283896e-02,-4.772460e-02,-2.256830e-02,-1.830757e-02,3.015278e-02,-1.399248e-03,-3.819420e-02,-5.244631e-02,3.520281e-02,2.755273e-02,2.798400e-02,-2.046897e-03,-2.302654e-02,-9.343084e-03,-1.821038e-02,3.567448e-02,-1.803404e-02,-4.810245e-02,-1.736875e-02,2.651556e-02,1.912143e-02,-2.635599e-02,2.863533e-02,-5.650867e-02,-1.018848e-02,-2.698608e-02,1.768512e-02,2.634472e-03,-4.904491e-02,-1.771197e-02,1.492123e-02,-1.568911e-02,9.811734e-03,
2.185196e-01,6.163589e-02,2.527538e-01,2.841191e-01,1.228981e-01,1.840765e-01,5.537953e-02,2.403044e-01,5.836452e-02,2.841993e-01,-2.378848e-01,1.332927e-01,1.553582e-01,-4.300389e-02,-6.717008e-02,2.800827e-01,4.076316e-01,4.784037e-02,-1.163085e-01,9.006156e-02,1.568540e-01,6.672893e-02,3.102653e-01,3.405533e-03,4.806950e-01,-1.096472e-02,2.195581e-02,9.940996e-01,4.818009e-01,1.790614e-01,-4.003232e-02,6.583353e-01,1.475308e-01,-5.994425e-01,-1.170955e-01,2.099707e-01,2.342940e-01,4.787511e-02,6.681277e-03,-6.595776e-02,2.159971e-01,-6.996589e-01,3.382930e-03,3.062740e-01,-5.760289e-02,
-1.665932e-02,-2.168646e-02,2.737247e-02,1.468815e-02,-5.586914e-02,-2.046108e-02,-5.671012e-02,-2.028880e-02,-7.533616e-02,-3.354947e-02,2.290542e-02,-6.797528e-02,-4.504434e-02,-6.189194e-02,-9.638005e-04,-5.216445e-02,1.010202e-02,-6.391344e-02,-7.829265e-02,-5.398669e-02,-6.529247e-02,-3.482646e-02,-3.962728e-02,-4.434518e-02,-5.541883e-02,-2.191809e-03,5.544004e-03,2.167234e-02,-5.589129e-02,6.132910e-03,-8.477714e-03,1.986360e-02,-4.947933e-02,1.155621e-02,-5.375351e-02,-5.326100e-02,2.397361e-02,-2.158157e-02,4.095940e-02,-8.842634e-02,-4.056618e-02,4.653243e-03,-2.933451e-02,-4.839412e-02,-5.238956e-02,
-2.880486e-01,-3.300585e-01,-5.165998e-01,-2.322525e-02,1.033650e-01,2.822992e-01,-1.724208e-01,1.072693e-01,-9.676449e-02,8.114934e-02,-1.930168e-01,2.775514e-01,-6.625551e-02,-1.090159e-01,7.497903e-01,-4.553033e-01,-1.631233e-01,3.299835e-01,-6.133538e-01,-5.541320e-01,1.489978e-01,-2.919940e-01,-2.079289e-01,-1.137293e-02,1.818016e-01,4.341576e-01,4.219315e-01,-2.573516e-01,5.514994e-01,-1.194424e-02,1.486338e-03,5.079970e-01,4.989530e-01,1.955010e-03,-3.293340e-01,1.874963e-01,2.286756e-01,-1.285460e-01,-2.200313e-02,-9.134483e-01,3.443595e-03,4.817038e-01,-3.827529e-02,-3.646183e-01,8.710671e-02,
3.712641e-01,1.798837e-01,4.423582e-01,1.756981e-02,3.893840e-01,1.402455e-01,-1.455396e-01,-1.207484e-01,-2.642884e-01,-7.455662e-01,1.641758e-01,1.394149e-01,-2.551734e-01,1.513627e-02,-2.978300e-01,3.390687e-01,-3.158117e-01,7.198879e-02,-9.176753e-02,-3.080752e-01,-2.536606e-02,8.592906e-02,3.602473e-01,-2.236038e-02,-5.080076e-01,5.362312e-01,8.170381e-02,-4.338664e-02,4.254529e-01,-1.109319e-01,3.988431e-04,5.303779e-01,-1.168319e+00,3.811402e-02,-1.825220e+00,2.154263e-01,2.233095e-01,-7.499903e-02,3.594475e-02,-6.595846e-01,-8.815012e-02,-5.031232e-01,-4.305447e-02,3.020222e-01,-5.399818e-01,
-9.654944e-02,9.688429e-01,2.658925e-01,7.671431e-01,2.436768e-01,-7.753597e-01,-1.859847e+00,-1.632708e+00,3.367834e-01,-8.809563e-02,3.261684e-01,-2.042724e-01,2.256090e-02,6.574190e-01,1.503184e+00,-2.543822e-01,4.083235e-02,-8.852314e-01,-6.069289e-01,3.527954e-02,4.098792e-01,8.370792e-01,-1.059773e-02,4.081196e-02,1.874654e-01,1.902211e-01,2.364430e-01,4.194471e-01,3.330242e-02,3.387454e-01,-3.696148e-02,3.862312e-01,2.903291e-03,-1.205748e+00,9.227032e-02,-1.858337e-01,-7.352224e-01,-3.662823e-01,-4.175398e-02,1.584721e-01,-4.988147e-01,7.167781e-01,1.279938e-02,6.820173e-01,2.837258e-01,
1.479298e-02,-6.886584e-02,8.643962e-01,2.786449e-01,3.720531e-01,5.325046e-01,2.436001e-01,-2.018085e-01,2.789731e-02,-6.242181e-02,1.521896e-01,-1.618938e-03,1.853910e-01,-4.429769e-02,-7.775715e-01,2.345092e-01,4.508040e-01,-1.168614e-01,-3.506929e-01,6.645801e-01,2.481254e-01,3.815864e-01,-9.415515e-01,-4.480721e-02,2.033417e-01,1.219443e-01,-4.625663e-02,1.897566e-01,2.666841e-01,5.262526e-01,-2.632043e-02,6.968433e-01,-5.891827e-01,-4.289177e-01,2.356286e-01,-4.730255e-01,2.088957e-02,1.320256e-01,8.036078e-03,-1.211469e-02,1.534795e-01,-5.841486e-01,-1.092242e-02,-2.003054e-01,-9.203924e-02,
1.318411e-01,2.636563e-01,-2.973433e-01,2.051123e-01,-6.056040e-01,5.465541e-02,2.446243e-01,1.976203e-01,-3.155394e-02,1.135206e-03,-4.903485e-01,8.517225e-02,8.286102e-02,4.220973e-01,2.577588e-02,-1.082284e-02,4.345482e-01,-3.322155e-01,1.325473e-01,2.104578e-01,1.617110e-02,5.723265e-01,-9.703371e-03,-3.175528e-02,-1.212887e+00,1.440495e-01,-2.886667e-01,7.232600e-02,-4.172876e-01,1.128054e-01,-9.104859e-03,6.583260e-01,-1.129540e-01,-6.446945e-01,-5.115146e-01,-4.332770e-01,8.649748e-02,-6.271882e-02,2.673217e-02,-9.467536e-02,2.990617e-01,2.621367e-01,2.176004e-02,9.629992e-01,1.323955e-01,
2.891879e-02,-3.203693e-02,5.333267e-01,1.588059e-01,1.266141e+00,6.043060e-01,-8.896721e-02,-8.518755e-02,-1.247376e-01,3.854156e-01,-2.028803e+00,7.172849e-02,1.052385e-01,-1.800949e-01,5.891909e-01,1.054455e-01,-1.341177e-01,-2.357840e-01,-9.096614e-02,8.336874e-01,4.932406e-02,5.066513e-01,1.511427e-01,-8.617543e-03,4.903561e-01,5.001036e-01,1.595719e-01,3.899915e-01,-2.814860e-02,9.610697e-01,1.517719e-02,-6.577288e-02,-1.547822e-01,-5.815837e-01,2.097120e-01,-3.528270e-01,3.351136e-01,6.024010e-01,3.609329e-02,-1.605830e-01,2.557331e-01,-1.956500e-01,6.962452e-03,6.101477e-01,1.331031e-01,
-3.005140e-02,-1.110060e-02,6.122591e-01,4.538313e-03,5.202096e-02,-8.997311e-02,1.597820e-01,9.328967e-02,-1.122887e-01,1.351510e-01,-2.524359e-01,2.931519e-01,2.718004e-01,5.850628e-02,-5.501900e-01,2.906794e-01,-4.659278e-02,-7.014384e-01,-5.732571e-01,5.284621e-01,8.577994e-02,4.742444e-01,-2.416986e-01,3.968550e-02,2.579409e-01,6.418331e-01,5.308069e-01,2.903340e-01,3.574291e-01,1.422208e-01,-8.984945e-03,2.934924e-01,-6.155315e-02,-3.845049e-01,3.030098e-01,4.896675e-01,1.528953e-01,3.715740e-01,2.441717e-02,3.369645e-01,1.140057e-01,5.986642e-01,-3.766307e-02,-2.061403e-01,1.365967e-01,
-2.246960e-02,-1.795897e-02,7.069913e-03,-1.169095e-02,1.466752e-02,-5.420238e-02,-9.103796e-03,-4.308856e-02,-1.427548e-02,1.316188e-03,2.798071e-02,1.758458e-02,-1.511788e-02,4.110993e-02,8.968975e-03,7.978995e-03,2.208474e-02,-1.639343e-02,-3.635811e-02,2.995381e-02,-3.759286e-02,-3.359959e-02,2.344267e-03,4.042346e-02,-3.702120e-02,-5.657071e-02,-4.352343e-02,-3.597827e-02,-1.485517e-02,2.506302e-02,-4.512078e-02,-4.975517e-02,-3.981645e-02,-3.924461e-02,-1.269569e-02,-8.097995e-03,-1.853395e-02,-1.863314e-03,-3.385020e-02,-6.081871e-02,1.546667e-03,8.112721e-03,1.381954e-02,-2.776958e-03,-2.488395e-02,
-1.400887e-01,-1.783320e-01,5.440840e-01,-8.249023e-02,1.902209e-01,-9.976906e-01,-1.835284e+00,-3.256004e-01,4.909562e-01,1.476429e-01,4.520328e-01,-2.283262e+00,6.371916e-02,9.016477e-02,6.754068e-01,9.243170e-01,8.663859e-03,-4.542956e+00,9.973603e-03,2.271132e-01,4.689758e-01,-2.630352e-01,2.547773e-01,-5.155126e-02,6.205002e-01,5.874711e-01,6.614579e-02,1.918948e-01,5.249156e-01,6.196480e-04,1.645394e-03,-5.769213e-02,1.214956e-01,-4.415131e-01,5.093367e-02,2.467559e-01,-3.545441e-01,-1.455090e+00,-2.724077e-02,3.438492e-01,-1.870010e-01,5.866159e-01,-1.970132e-02,-2.120151e-02,-2.281444e-01,
1.639993e-01,1.819523e-01,3.543928e-01,1.414894e-01,2.798437e-01,-3.102636e-01,3.652329e-01,4.332260e-01,-9.663252e-02,-1.755415e-01,-1.656338e-02,6.591757e-02,9.944801e-02,3.249438e-01,-9.502739e-02,-4.757266e-02,6.606780e-02,2.645166e-02,-6.064713e-01,-1.241538e-01,-2.985243e-01,6.669749e-02,7.831959e-01,-1.066540e-03,-3.194273e-01,-7.007414e-02,-2.857620e-01,3.089564e-01,-8.023596e-01,2.180239e-01,9.035569e-03,-2.542708e-02,1.993892e-02,-6.545515e-01,2.662418e-01,1.386206e-01,1.989381e-02,7.531489e-01,-4.145127e-02,-4.434470e-01,2.664325e-01,-1.209579e-01,-5.497046e-02,9.032915e-01,1.790645e-01,
1.508882e-01,-6.585885e-03,5.015896e-01,5.777562e-01,1.627097e-02,-8.129416e-02,1.592615e-02,-6.755070e-02,3.542643e-02,-1.525224e-01,4.686325e-02,-1.468434e-01,-4.899561e-02,-9.877520e-04,1.158789e-01,4.573484e-01,3.810371e-01,4.022356e-01,-4.538367e-01,-3.867285e-01,2.439380e-02,4.078234e-01,-5.143132e-02,2.340729e-05,-1.947296e-01,-3.173419e-01,5.110323e-01,1.294584e-01,4.700399e-01,4.854051e-01,-4.994168e-02,4.450336e-01,4.282421e-01,-4.953753e-01,-6.314885e-01,-6.292022e-01,2.002127e-01,-1.660830e-01,1.619934e-02,-3.784070e-01,1.258908e-01,-3.160673e-01,1.656781e-02,-5.745975e-01,9.115713e-01,
2.541196e-01,8.137136e-01,2.135202e-01,1.433103e+00,1.892504e-01,-6.731123e-02,4.437972e-01,3.941859e-02,-2.782536e-01,2.051827e-01,3.635289e-01,-4.851474e-01,-2.785982e-01,3.617812e-01,1.245154e+00,6.195242e-01,-2.085122e-01,1.349379e+00,-1.486473e+00,3.820171e-01,1.027617e-01,-4.431257e-02,2.133921e-01,2.310039e-02,2.867164e-01,7.927286e-02,-9.347451e-02,1.002506e-01,-1.043615e-01,2.192811e-01,-2.388052e-02,-6.909657e-02,-5.197697e-02,-8.125498e-01,-1.174194e-01,-5.223072e-01,-3.401769e-01,-1.149523e-01,-1.898893e-02,-9.681117e-02,9.092991e-02,1.884656e-01,7.712918e-03,2.819622e-01,-3.040108e-01,
-6.048148e-02,1.304152e-02,-1.641098e-02,-3.832655e-02,-6.396919e-02,-2.371562e-02,-5.342177e-02,-2.360926e-02,1.347818e-02,8.426324e-03,2.971404e-02,-5.494474e-02,-6.587378e-03,-4.018028e-02,-6.171385e-02,-3.366576e-02,1.947634e-02,-3.134960e-02,4.028473e-02,-5.146251e-02,-1.672416e-02,-5.420228e-02,-6.498063e-02,-1.846025e-02,1.132551e-02,-1.036551e-02,-6.097827e-02,4.241353e-03,2.246177e-02,-3.485927e-02,-3.600772e-02,-1.203962e-02,2.908875e-02,2.138871e-02,-1.328506e-02,-1.127647e-02,-1.259947e-02,-1.177291e-02,4.631349e-02,-2.869924e-02,6.209539e-03,2.085460e-02,-4.963872e-02,1.392979e-02,-4.326608e-02,
-8.538127e-02,6.266482e-02,6.603860e-01,-9.589621e-02,4.911673e-01,-4.633308e-01,1.822307e-01,2.475113e-01,1.182062e-01,2.994658e-01,-2.971879e-01,4.209813e-01,3.238258e-01,4.559411e-01,6.984103e-02,-1.829214e-01,2.448220e-01,-9.734249e-02,-6.338357e-01,2.341892e-01,1.114936e-01,1.290095e-01,-7.697041e-01,-2.672652e-02,4.068782e-01,4.272954e-01,-4.173392e-01,1.487244e-01,-5.207034e-01,-1.640887e-01,2.797727e-02,4.143112e-01,-1.628464e-01,-2.315937e-01,-4.329524e-01,-3.254641e-01,9.404930e-02,-4.826468e-05,-2.793011e-02,4.979668e-02,-3.605388e-02,8.321046e-02,-1.999364e-02,-2.237283e-01,9.847438e-03,
2.630761e-02,-1.936880e-02,-3.198408e-04,3.924490e-02,8.190690e-03,-1.434279e-02,-1.040770e-02,-2.986152e-02,-5.429873e-02,1.822663e-02,-1.444014e-02,-2.732635e-02,3.197625e-02,1.345991e-02,-3.204258e-02,-4.629606e-02,-3.351377e-02,-3.635225e-02,3.716770e-02,1.318998e-02,3.508830e-03,-4.949317e-02,-9.149713e-03,-4.862451e-03,3.812348e-02,-4.688899e-03,3.779045e-02,-4.496562e-02,-8.837041e-03,-4.509589e-02,-1.918209e-02,-5.660882e-02,2.084438e-02,-8.794274e-03,-6.979736e-03,-3.407519e-02,-4.797769e-02,-3.261925e-02,-3.035651e-02,-1.274164e-02,-4.205195e-02,1.949748e-02,1.128799e-02,-2.857302e-02,-3.296621e-03,
-1.990631e-01,-2.726464e-01,-1.132609e-01,-7.322614e-01,5.898150e-02,-4.799682e-01,-3.952157e-01,2.367929e-01,2.690940e-01,-1.776286e-01,2.681353e-02,9.848178e-02,-1.322676e-01,1.036408e-01,2.199362e-01,-2.136808e-02,-8.491058e-02,-4.725363e-01,1.354776e-01,1.617323e-01,6.576256e-02,-7.299132e-02,6.983557e-02,1.433075e-02,-1.338394e-01,3.763262e-01,-1.490707e-01,4.727070e-02,-1.623939e-01,8.981591e-03,5.837444e-04,6.465402e-02,-3.750220e-01,7.722399e-02,2.576122e-01,2.080369e-01,-9.362914e-02,-2.425518e-01,3.251684e-02,3.508046e-01,-1.168854e-01,-5.262057e-01,-2.162366e-03,2.712341e-01,1.600309e-01,
-7.351138e-02,-2.593229e+00,3.711685e-01,-2.682139e-02,1.093496e-01,1.060386e-01,-4.230211e-02,3.011444e-01,-4.299023e-01,1.108799e-01,-6.011353e-02,1.273953e-01,-2.232241e-01,-4.467883e-02,1.317619e-01,-1.507530e-01,2.329771e-02,1.316254e+00,-3.981966e-01,4.745989e-02,-1.377188e+00,6.946073e-02,7.816217e-02,4.486297e-02,1.593443e-01,-9.799710e-03,1.880039e-01,5.433168e-02,1.769911e-02,1.115959e-01,3.366455e-03,-1.688540e-02,2.300853e-02,-3.036868e-01,2.264785e-02,6.807595e-02,-1.345257e+00,2.770438e-02,-1.181948e-02,-6.966637e-02,-1.472895e+00,1.504966e-01,1.883263e-02,7.986338e-02,8.300202e-02,
8.310913e-02,-6.900296e-01,7.264882e-01,-4.297697e-01,2.776673e-01,1.992763e-01,1.491092e-01,4.881452e-01,-2.443416e-01,-1.083117e-01,-2.365075e-01,-5.574546e-02,-1.438453e-01,-2.539683e-01,-1.451930e-01,-1.553090e-01,-2.755554e-01,-7.348809e-02,-3.641767e-01,5.187596e-01,9.551510e-02,-1.039332e-01,-7.926471e-02,2.555436e-02,5.603483e-02,3.672959e-01,-3.548177e-01,8.036418e-02,2.381618e-03,-8.558794e-01,1.910550e-02,-4.205565e-01,-1.161067e-01,-3.551826e-01,-3.412782e-01,-8.612045e-01,3.821100e-02,8.401061e-01,-2.692217e-02,-3.549020e-02,1.335261e-01,1.537062e-01,5.236009e-02,2.630853e-01,-4.305924e-01,
-4.682524e-02,7.912689e-03,2.146522e-01,-2.469290e-01,-6.263368e-02,-2.874662e-02,1.032343e-03,-4.879982e-02,-3.492420e-02,-6.155257e-02,-2.259865e-01,1.809021e-01,1.804949e-01,1.082718e+00,1.672523e-01,1.577635e-01,-1.187681e-01,-4.655224e-01,4.810241e-02,3.570338e-01,1.313170e-01,7.219549e-02,-1.414956e-01,-4.436351e-02,3.535430e-01,-8.842745e-02,3.906178e-01,5.536246e-01,3.632863e-01,2.604505e-01,-1.929224e-03,6.155968e-01,-1.287107e-02,-5.286921e-01,4.196530e-02,6.774760e-02,2.945917e-01,2.114095e-01,3.706631e-03,-1.206216e-01,1.971150e-01,-6.373508e-02,-3.602362e-02,-3.760572e-01,4.448388e-01,
-2.316024e-02,8.705997e-02,-3.398624e-01,3.113126e-01,-3.493886e-01,-1.270052e+00,6.780294e-02,-6.928930e-01,1.180233e-01,-3.603397e-01,1.087842e-01,-7.886339e-02,1.363338e-02,1.277875e-01,-8.861820e-01,-3.991669e-01,3.215681e-01,-7.432652e-02,-2.188232e-01,1.229830e-01,7.672340e-02,2.792478e-01,1.083033e+00,4.917906e-02,2.298217e-01,8.592080e-02,-1.345126e-03,-1.581509e-01,-7.305764e-03,8.151864e-02,3.212730e-02,3.163525e-01,1.504823e-01,-2.109978e-01,-2.451956e-01,-5.207442e-01,1.283567e-01,2.251205e-01,9.820454e-03,-3.627279e-01,-1.063261e-01,5.618168e-01,-2.351667e-02,1.408946e-01,-1.832660e-01,
1.044538e-01,1.484332e-02,7.889796e-02,-4.989986e-02,2.576364e-01,1.609764e-01,1.717572e-01,9.865612e-02,2.185382e-01,1.320155e-01,-1.811282e-01,1.717521e-01,2.081221e-01,-2.230410e-02,1.893649e-01,1.675656e-01,-4.182089e-02,-2.149322e-01,1.122748e-01,2.602466e-01,1.277006e-01,1.866760e-01,8.903589e-02,4.757925e-02,-4.518968e-01,3.179687e-01,-1.230565e-01,7.943335e-01,1.893242e-01,4.468458e-02,1.715641e-02,6.246617e-02,-1.240174e-01,-4.917809e-01,1.080261e-01,3.959270e-01,1.322069e-01,7.014184e-02,4.381853e-02,5.568062e-02,1.972350e-01,2.984805e-01,-2.780678e-02,7.300165e-02,-4.001300e-02,
1.461805e-01,-3.339200e-02,4.627562e-01,-3.697406e-01,1.294881e+00,4.102163e-02,-5.899010e-02,2.188869e-02,-5.340418e-02,4.773009e-01,-1.150076e-01,1.583124e-01,1.614284e-01,-3.642296e-01,2.555257e-01,3.397347e-01,4.846708e-01,-3.644452e-01,-2.896413e-01,-4.663135e-01,7.327918e-02,-2.465700e-01,-3.328918e-01,5.572151e-03,-6.134414e-01,7.144678e-02,4.677885e-01,3.751060e-01,4.812499e-01,3.192908e-01,-1.267784e-02,1.003225e+00,1.617988e-01,-4.560824e-01,-7.284390e-01,-8.453140e-02,2.955985e-01,5.754524e-02,4.535241e-02,-4.607383e-01,1.847813e-01,-3.504448e-01,4.362145e-02,-2.564546e-01,1.282057e-01,
-4.257756e-02,-5.906656e-02,2.937233e-02,7.189861e-03,-5.439605e-02,-3.143082e-02,-1.371488e-02,1.439297e-02,-5.157992e-02,-2.170880e-03,-5.913842e-03,8.281109e-03,-4.058949e-02,-4.374683e-02,-5.344791e-02,1.193579e-02,1.941381e-02,4.614483e-02,-3.580515e-02,-4.551258e-02,1.594371e-02,-3.157586e-02,3.201444e-02,3.028487e-02,2.771559e-03,-4.984015e-02,-9.247699e-03,1.028318e-02,4.824855e-03,7.410518e-03,-2.507251e-02,3.558979e-02,-4.450200e-02,-1.352819e-02,-4.667424e-02,-3.297962e-02,1.714632e-02,2.009301e-02,2.471059e-02,3.364860e-02,1.709770e-03,-1.463813e-02,-1.809909e-02,-2.097368e-02,-6.017686e-02,
1.067147e-01,2.529768e-01,2.796994e-01,2.554140e-01,1.554330e-03,4.735894e-01,-3.060563e-01,1.304590e-01,-3.307182e-01,6.257240e-01,1.895024e-01,-3.357646e-01,-1.007592e-01,3.787406e-01,-5.676494e-01,7.483962e-01,-3.052261e-01,-1.846406e-01,-8.364325e-01,1.769131e-01,-4.858320e-01,5.080962e-01,3.441765e-01,1.446518e-02,-3.194006e-01,-9.247153e-01,2.880788e-01,4.995045e-01,2.201526e-01,5.442664e-01,2.963080e-02,5.598846e-01,2.976833e-01,-5.007582e-01,2.422706e-01,1.675071e-01,4.471793e-01,1.625166e-01,-1.587310e-02,-7.818574e-01,1.571081e-01,-7.311866e-01,9.077438e-03,-5.492534e-01,4.028981e-03,
-6.426711e-01,4.161362e-01,-9.925805e-01,-6.338101e-02,-7.181962e-03,2.618271e-01,4.238578e-01,2.402891e-01,1.626746e-01,6.325886e-02,-1.428931e-01,-2.990494e-01,9.117567e-02,1.647907e-01,3.014965e-01,-1.136585e-03,4.482550e-01,-1.152881e+00,6.776017e-03,5.813051e-01,-1.619254e-01,3.965370e-01,3.755734e-01,-3.099971e-02,-1.759853e-01,-8.351011e-01,9.018347e-02,-1.047710e-02,-4.548062e-01,-3.151504e-01,-2.214141e-03,2.868841e-01,-6.442644e-01,-4.965349e-01,-1.508695e-01,-2.356199e-01,-3.851628e-03,-5.983742e-01,3.466431e-02,-9.178681e-02,1.883710e-01,2.904438e-01,-2.703096e-02,4.187924e-01,7.972385e-02,
-2.743863e-02,-7.122435e-02,2.872893e-01,2.951204e-01,1.047228e+00,-1.759719e-01,1.560241e-01,4.720729e-01,-1.465511e-01,3.320094e-01,-5.737110e+00,4.194204e-01,1.419516e-01,2.044741e-02,1.969120e-01,1.441327e+00,4.177861e-01,-5.208814e-01,2.423281e-01,2.109027e-01,5.525571e-01,6.134714e-01,1.086943e-01,-2.270426e-02,1.058639e-01,7.221282e-01,-5.308414e-02,5.352612e-01,-1.930248e-01,2.652621e-01,-2.079525e-02,-5.859324e-01,2.001273e-01,-8.358967e-01,-4.509816e-01,-9.084532e-02,3.366393e-01,1.126802e-01,-1.035645e-02,-5.289178e-02,2.553527e-01,4.521274e-01,-3.265507e-03,8.940995e-01,7.197415e-01,
5.205108e-02,7.728527e-02,2.758564e-02,-2.009773e-02,5.567587e-01,3.043993e-01,4.833021e-02,4.740342e-02,2.880841e-02,2.122831e-01,-8.021502e-02,-6.443248e-02,2.030154e-01,8.987795e-01,-4.586939e-01,-1.500100e-01,4.620676e-01,1.257120e-01,-2.631462e-01,1.473202e-01,1.156251e-02,-7.150039e-02,1.027526e-01,2.801577e-02,6.338495e-01,2.278049e-01,1.072110e-01,-1.540841e+00,1.493816e-01,2.029334e-01,2.083576e-02,5.027593e-01,-2.499885e-01,-4.577849e-01,-1.673036e-01,1.080062e-01,2.623397e-01,8.531039e-02,-9.250255e-03,-1.215688e-01,1.332962e-01,-1.584265e+00,2.876571e-02,-2.786205e-01,-1.612437e-01,
5.235411e-03,-3.493216e-01,4.715603e-01,1.523036e-02,7.114429e-01,1.832712e-01,-2.240416e-01,-9.698238e-02,-1.593788e-01,-7.106727e-01,-1.151281e-02,3.008337e-01,-1.017827e-01,-9.906479e-03,4.694636e-01,-2.679104e-01,1.159435e-01,-5.794518e-01,7.029434e-01,2.601338e-01,7.525969e-02,4.170357e-01,1.261340e-01,3.756615e-02,-7.957474e-03,5.574353e-01,4.253472e-01,-1.572796e-01,3.190173e-01,3.424326e-01,-3.669514e-02,-6.787670e-01,1.788627e-01,1.184797e-01,2.801593e-01,-1.026289e-02,3.878177e-01,-1.331557e-01,1.233494e-02,2.683632e-01,2.772413e-02,3.293362e-02,3.001201e-02,5.720522e-01,5.360895e-01,
9.789905e-03,-2.958946e-02,-8.858362e-04,6.982269e-03,-5.069358e-02,-3.029521e-02,9.325515e-03,1.834322e-02,2.348542e-02,6.474815e-03,-4.040543e-02,-1.963615e-02,-3.102841e-02,-3.982611e-02,-3.913993e-02,-4.028897e-02,-3.391274e-02,-3.279374e-02,1.211350e-03,-4.764239e-02,-3.327335e-02,-2.195722e-02,-7.932286e-03,-3.482764e-02,-1.736210e-02,1.293351e-02,9.965432e-03,2.904742e-02,-3.920899e-02,-5.338268e-03,2.845487e-02,-6.077961e-02,1.112234e-02,-5.786822e-03,-8.752760e-03,-3.653152e-02,-3.798534e-02,-6.803433e-03,8.729161e-03,-5.120528e-02,-3.218681e-02,-2.822869e-02,2.403859e-03,-1.410276e-02,-2.104421e-02,
2.870856e-01,1.140919e-01,-2.446945e-01,-1.231614e-01,3.184325e-01,-3.210124e-01,3.298190e-01,-1.337222e-01,1.794480e-01,8.863805e-02,-5.645966e-02,3.606807e-01,-2.158940e-01,1.385146e-01,5.773828e-01,-1.781983e-01,6.792433e-01,-2.662772e-02,-3.314658e-01,-5.956641e-01,-3.724522e-03,-4.795354e-01,2.654182e-01,5.160845e-03,5.851278e-02,3.407701e-02,1.547813e-01,1.924110e-01,-4.137645e-01,-3.847180e-01,-2.972218e-02,2.399924e-01,1.819608e-01,-4.591360e-01,-1.865614e-01,1.162615e-01,2.345555e-01,2.210609e-01,-3.907601e-03,6.815743e-02,3.222609e-02,1.095287e-01,3.360193e-02,3.957043e-01,4.290220e-01,
-1.624050e+00,2.385900e-01,-6.218139e-02,7.617065e-01,5.784072e-01,7.447043e-02,1.036828e-01,2.465719e-01,-2.437108e-01,3.915642e-01,-1.827691e-01,6.298564e-02,5.008817e-02,-2.383736e-01,-1.804461e-01,2.349084e-01,5.261800e-01,-3.819294e-01,-3.325054e-01,6.639879e-01,-4.902593e-02,-3.651601e-02,-1.660336e-01,4.491429e-02,1.719291e-02,-1.405795e-01,8.488159e-02,2.800130e-01,1.951703e-01,2.055550e-02,-4.715018e-02,-1.062320e+00,-1.505568e+00,-6.305038e-01,-9.985813e-02,-5.852111e-01,-1.444190e-02,-1.104073e-02,-7.732520e-04,6.811886e-02,2.970750e-01,4.780676e-02,-1.302669e-02,5.896261e-01,1.879768e-01,
3.647702e-02,-5.068339e-02,4.102289e-01,7.459695e-01,2.407853e-01,-6.703101e-01,3.897296e-01,-2.600837e-02,6.935196e-02,-9.029118e-02,-4.632844e-02,6.601503e-02,1.168645e-01,-1.218863e-01,-2.388652e-01,-9.141111e-02,2.740804e-01,-3.552459e-01,-1.564476e+00,1.510614e-02,-2.125004e-01,3.044737e-01,-5.241082e-01,2.859020e-02,-1.078411e-01,-1.061196e+00,-1.648256e-01,6.665347e-03,-3.474641e-01,4.475572e-01,1.630930e-02,4.470360e-01,-1.245244e-01,-3.832752e-01,-2.794826e-01,-1.448647e-01,2.654549e-01,-1.018468e-01,1.790798e-02,-7.973267e-01,-4.004804e-02,1.470475e-01,-7.691078e-03,3.832558e-01,4.784923e-01,
8.842733e-02,4.397303e-02,1.454793e-01,2.347291e-02,3.847375e-01,1.438738e-01,5.369899e-02,1.403231e-01,8.377780e-02,-2.538494e-01,-2.166230e-01,1.162738e-01,1.956153e-01,4.243835e-02,-7.434238e-02,2.794838e-01,1.581829e-01,-9.842791e-02,5.079246e-03,1.504626e-01,1.177312e-01,7.465696e-02,1.383664e-01,-2.264529e-02,7.926543e-01,-4.467353e-02,7.926491e-03,-1.593436e+00,2.847605e-01,4.669827e-01,4.483683e-02,5.025921e-02,-9.634497e-03,-5.312681e-01,-8.794039e-02,2.163901e-01,1.816995e-01,9.939758e-02,3.565314e-02,-6.403497e-02,2.198254e-01,-5.216508e-01,3.957744e-03,1.257825e-01,7.128627e-02,
-6.664827e-02,2.447299e-02,9.234120e-03,-1.633942e-02,-7.037432e-03,-4.602460e-02,-5.290192e-02,-3.183739e-02,1.474608e-02,2.437623e-02,2.205791e-02,-1.074369e-02,-5.836003e-03,-4.357461e-02,-5.340339e-02,1.285409e-02,-4.812604e-02,-3.690854e-02,1.615000e-02,-2.383215e-02,-6.325067e-02,-6.524084e-02,-6.640293e-04,2.742222e-02,1.785611e-02,3.503245e-03,-8.021036e-02,-3.213448e-02,-5.201161e-02,-5.181978e-03,-5.051471e-02,6.060443e-03,-2.428788e-02,-3.401465e-02,-5.546284e-02,-1.241911e-02,-1.221327e-03,-5.366946e-02,-2.439728e-02,5.957860e-03,2.584312e-02,-7.816542e-03,-2.963538e-02,1.462321e-02,-7.647509e-02,
4.370943e-01,
6.527273e-02,
2.517430e-01,
8.716347e-02,
-2.587673e-01,
-1.596278e-02,
-2.289513e-02,
1.473824e-01,
-1.776494e-02,
-7.371040e-02,
-2.249336e-02,
2.940236e-02,
-5.013982e-02,
2.253810e-01,
6.095954e-02,
-7.191414e-02,
-6.640751e-02,
-7.267581e-02,
-2.575260e-02,
-9.690323e-02,
-5.970724e-02,
1.078163e-02,
6.779049e-02,
-3.340112e-02,
2.035885e-01,
-9.609731e-03,
-6.945499e-02,
4.796191e-01,
7.727951e-02,
2.175541e-02,
-5.898276e-02,
-7.340160e-02,
-3.641015e-02,
-1.594120e-02,
-1.045533e-01,
4.520430e-02,
-1.094811e-01,
2.362819e-01,
4.993713e-03,
-2.180911e-02,
-1.774711e-02,
4.141601e-02,
2.959421e-01,
5.111045e-01,
-2.963181e-02,
2.399152e-01,3.618879e-01,1.132523e-01,-1.044793e-01,3.522116e-01,-2.084162e-02,-4.140458e-02,-4.647728e-03,5.340578e-03,3.669254e-01,2.287349e-02,-3.382091e-04,2.942013e-01,-7.088464e-02,1.772985e-01,3.163066e-01,7.894488e-02,-7.630053e-02,2.131799e-02,1.827505e-01,2.348973e-01,1.406282e-01,-1.495514e-02,-3.591093e-02,2.145734e-01,4.814909e-02,-1.495617e-01,-4.146570e-01,-1.600698e-01,-8.791518e-02,-1.172251e-01,1.645740e-01,3.328553e-01,4.549867e-02,4.732680e-01,1.742409e-01,-1.783910e-01,2.235302e-01,-5.812162e-02,-6.003634e-02,5.778041e-01,-2.689884e-01,-2.856579e-01,-1.383627e-01,-2.171435e-02,
2.591771e-01,6.114292e-01,7.599027e-02,3.112162e-02,1.746820e-01,4.159619e-02,4.490102e-02,3.372709e-01,4.877485e-02,-2.579995e-01,-3.091387e-02,5.835826e-02,8.411592e-01,2.524837e-01,1.089440e-02,6.475071e-02,-5.472810e-02,5.607133e-02,4.890637e-02,-1.986199e-01,-3.966232e-01,-1.477997e-01,-2.217479e-01,2.400803e-02,6.130986e-02,1.594877e-02,2.713242e-01,2.850254e-01,7.549304e-01,-8.015402e-02,1.688380e-01,-3.204241e-01,-1.557772e-01,6.505778e-03,-2.794368e-01,1.277389e-01,1.148357e-01,-3.748148e-01,7.601787e-02,2.224470e-02,-1.025969e-01,4.390205e-01,-6.354988e-01,-1.672728e-01,-6.477525e-02,
-4.632271e-02,1.140393e-02,-4.869444e-02,-5.385734e-02,4.027686e-02,5.072420e-03,8.620630e-03,-5.986873e-02,-2.249726e-02,3.292172e-02,1.680603e-02,-4.576629e-03,2.822110e-03,2.466758e-02,-4.292329e-02,-1.416159e-02,1.435333e-02,-3.331924e-02,-1.407296e-02,4.615923e-02,-1.197517e-02,-1.696916e-02,2.462988e-02,-1.487193e-02,-4.671725e-02,-3.134560e-02,-9.388389e-03,-1.730712e-02,-4.425770e-02,-5.600994e-02,1.314821e-02,-5.116063e-02,-6.518083e-03,3.362063e-02,-5.191590e-02,2.573450e-02,-6.314297e-03,-4.493811e-02,-5.718377e-03,4.881254e-02,2.246618e-02,2.652631e-02,-9.502273e-03,-2.307598e-03,-3.509476e-02,
2.388099e-01,-9.323123e-02,-6.394445e-01,2.841372e-01,-4.235922e-01,-4.610439e-02,4.993510e-02,-7.468288e-03,3.535207e-02,-9.692175e-02,-3.487030e-02,-1.498062e-01,-2.115994e-01,-1.620104e-01,-1.836336e-02,4.559765e-01,-2.240181e-01,2.138019e-01,-2.638314e-02,-2.805900e-01,-1.699111e-02,-5.241306e-02,1.691472e-01,5.963246e-02,-3.818763e-02,-3.375077e-02,-4.753807e-01,9.400987e-04,2.878990e-01,-2.924414e-01,3.926967e-01,-2.848403e-01,-7.945587e-02,-5.432392e-03,8.581203e-02,1.690090e-01,8.603534e-02,2.773370e-01,7.293575e-02,1.002339e-03,7.881180e-01,8.265243e-02,-1.104408e-02,-9.865785e-02,2.315256e-02,
-4.131452e-01,3.390012e-01,1.936534e-01,3.649564e-01,5.521843e-01,-2.550730e-02,-1.642568e-02,-1.964087e-01,4.723451e-02,3.642057e-02,1.223623e-02,-4.663945e-02,2.102569e-01,-7.548621e-02,9.012370e-02,2.505490e-01,-2.098867e-01,-8.177466e-03,3.518720e-02,-3.237893e-01,-1.704926e-01,1.966378e-02,-3.890892e-02,-5.931219e-02,1.747604e-01,-5.774561e-03,4.541793e-01,9.604903e-02,2.470437e-01,-1.046498e-02,-2.053121e-01,-3.212120e-01,-1.061570e-01,3.448133e-02,-2.707253e-01,-4.565470e-03,2.536170e-01,-2.857676e-01,6.916560e-02,-5.898815e-02,-4.125584e-01,-1.599326e-01,1.422854e-02,5.438563e-02,2.325413e-02,
1.170804e-01,3.224745e-01,-1.876841e-01,2.903617e-01,-2.460863e-01,-1.300125e-02,-1.617939e-02,2.477009e-01,5.150702e-02,-2.754750e-02,-1.335534e-02,3.299738e-01,4.318413e-01,-2.926853e-02,-1.035785e-01,-6.813695e-02,-3.839732e-01,-1.031530e-01,-2.569645e-02,1.415173e-01,-9.965779e-02,-3.739120e-01,1.904098e-01,2.635922e-02,8.445379e-02,-9.267396e-04,-1.343823e-01,-5.132214e-03,-2.288987e-01,1.950655e-02,2.902217e-01,1.411489e-01,-1.324254e-01,-3.083612e-02,-3.469745e-01,1.241646e-01,1.995700e-01,5.442498e-02,5.064419e-02,-1.625196e-02,6.171438e-01,3.519187e-01,3.536781e-02,-6.390200e-02,5.882415e-02,
-4.800664e-03,-4.588150e-02,-4.027075e-02,-6.414702e-03,-4.409544e-02,-1.695485e-03,-4.191636e-02,-5.744682e-02,2.126565e-02,2.627036e-02,1.575310e-02,8.717169e-04,6.496774e-03,-2.493551e-02,-4.802459e-03,1.117469e-02,-4.980231e-02,-2.200578e-02,2.366073e-02,3.923360e-02,-8.418974e-03,-2.206730e-02,1.233211e-02,3.193588e-02,-5.858757e-02,-1.668054e-02,3.908008e-02,-3.889073e-03,6.830026e-03,1.222340e-02,-4.451196e-02,-4.775753e-02,-3.368754e-02,-3.962171e-02,-1.941455e-02,2.261683e-02,-3.138972e-02,1.431698e-02,1.960332e-03,-5.742549e-03,-1.388742e-02,6.311658e-03,-2.760494e-02,-2.171560e-02,2.043373e-02,
-3.091216e-02,-5.969254e-02,-2.126591e-02,-3.324956e-02,1.171223e-02,2.807220e-02,-4.083862e-04,-9.880516e-03,-2.781574e-02,-4.296583e-02,-2.860254e-02,1.445895e-02,-4.490588e-02,-1.749024e-04,7.840276e-04,-4.079873e-02,-4.727317e-02,-3.686804e-02,-4.519153e-02,3.098033e-02,-4.228248e-04,-3.687812e-04,-4.231249e-02,1.444234e-02,-5.247709e-02,9.583467e-03,-2.124229e-02,3.364589e-02,-2.496111e-02,1.279086e-02,2.108447e-02,-3.641568e-02,2.437683e-02,3.012132e-02,2.384921e-02,-6.107848e-03,-5.910522e-02,1.732361e-03,-5.396344e-02,-4.628534e-02,1.583383e-02,-2.572518e-02,1.226762e-02,-3.286051e-03,-4.809289e-02,
-1.729440e+00,-2.569618e-01,-2.961291e-01,-1.483124e-01,-1.012867e-01,-1.337208e-02,-1.182222e-02,-1.156586e-02,-4.646556e-02,1.645163e-01,4.419204e-04,-8.499604e-02,-1.726982e-01,-1.793255e+00,1.001057e-01,1.353802e-01,-1.716199e-02,2.824590e-01,-2.985544e-02,-1.285952e+00,1.190475e-01,-5.028427e-02,-3.832493e-01,3.357439e-02,9.848070e-02,2.369477e-02,-1.438583e-01,-3.516884e+00,-8.671595e-02,1.649442e-01,-3.045605e-01,1.458071e-01,1.163225e-01,-4.719228e-02,5.116388e-01,-4.111682e-01,2.003010e-01,7.307504e-02,1.832570e-01,5.426921e-03,-1.922366e-02,4.997084e-02,-3.193102e-01,-3.663509e-02,-9.021041e-03,
3.893034e-01,5.502649e-01,7.665691e-01,1.447528e-01,3.368818e-01,2.383149e-02,4.166631e-02,4.476337e-01,9.774765e-03,-1.022011e-02,-5.000458e-02,-2.723726e-02,8.754121e-02,-6.057581e-01,1.013282e-01,-8.135004e-02,-4.185823e-01,3.374456e-01,-3.867827e-02,1.051276e-01,-2.789081e-02,-1.247782e-03,-1.219791e-01,-2.040106e-02,-5.973040e-02,3.463318e-02,-1.680272e-01,7.708716e-02,-5.879341e-01,6.620140e-03,1.636714e-01,-1.048517e-01,-1.131213e-01,-4.250641e-03,-2.394916e-01,2.166592e-01,8.026326e-02,-8.347253e-02,8.102913e-02,-4.226699e-02,-7.500693e-01,3.264607e-01,7.677323e-01,-2.427208e-01,-1.931332e-02,
-1.523208e-01,1.875288e-01,-2.178275e-01,1.643588e-01,1.278956e-01,3.830558e-02,-3.066375e-02,2.404653e-01,2.588313e-02,-5.473194e-02,3.440189e-03,5.509917e-02,1.659065e-01,1.363249e-01,9.346884e-02,3.836477e-01,-1.708596e-01,2.122245e-02,-3.202271e-02,2.474805e-01,-1.802551e-01,2.962800e-01,-1.231494e-01,-1.435688e-02,9.273243e-02,4.486844e-02,2.278339e-01,-3.598913e-01,3.227361e-01,-6.114577e-02,1.254454e-01,-2.578770e-01,2.997193e-01,2.602851e-02,-3.153023e-01,-2.144141e-02,8.793499e-02,1.115542e-01,9.079923e-02,-4.182804e-02,1.459976e-01,1.249127e-01,1.056478e-01,9.949349e-02,1.580231e-02,
1.217987e-02,-3.606809e-02,-2.733354e-02,-3.649465e-02,-2.898473e-02,-2.622160e-02,4.757262e-02,1.893292e-03,1.588012e-02,1.050983e-02,1.422418e-02,-3.826823e-02,-6.472291e-04,1.655373e-02,-5.415180e-02,2.549809e-02,1.003469e-03,1.652389e-02,-1.238133e-02,7.460480e-03,-5.572626e-02,-4.010065e-03,-5.041990e-03,-4.687774e-02,-5.298404e-02,1.295091e-02,-3.715774e-02,-4.320222e-02,2.601826e-02,-2.035004e-03,1.582042e-02,1.722922e-02,-1.355547e-02,2.638658e-03,2.231848e-02,2.775771e-02,-4.404741e-02,-3.950337e-02,-3.749346e-02,4.975155e-02,2.147889e-02,-2.692852e-02,-4.591997e-02,-4.180130e-02,-1.351408e-02,
-9.591574e-02,5.909777e-02,-3.712159e-01,-2.663597e-01,-1.190770e-01,9.991306e-03,3.559247e-02,4.691938e-01,1.576865e-02,8.071909e-02,2.388293e-02,1.556327e-01,-2.367103e-01,-4.660698e-02,1.722439e-01,1.791404e-01,-1.194666e-01,5.918860e-02,-9.711769e-05,1.925502e-01,2.864217e-02,-8.676979e-02,2.357464e-01,-1.631730e-02,1.125929e-01,3.147608e-02,2.099070e-01,8.830761e-02,1.569334e-01,-3.779971e-02,-1.695421e-01,-5.601772e-02,-5.689342e-02,-2.384127e-02,-6.306894e-02,-1.712403e-01,1.082418e-01,-3.250727e-02,-7.243905e-02,7.022991e-03,8.252256e-02,3.048230e-01,9.350877e-01,-2.453867e-02,-4.010031e-02,
1.124630e-01,-2.641847e-02,6.516296e-01,8.328266e-02,-1.379063e+00,-1.083438e-02,-3.624525e-02,-1.265381e-01,-7.299026e-03,5.134743e-01,3.825836e-02,-7.530633e-02,-1.223408e+00,2.151232e-01,1.705076e-01,7.806917e-02,1.596118e-01,-3.303375e-01,3.785148e-02,-3.223871e-01,2.053799e-01,1.747404e-01,-8.016746e-02,-1.857955e-02,-3.611529e-01,8.754311e-03,3.084801e-01,1.895013e-01,-5.618458e-02,1.180503e-01,2.964114e-01,3.212886e-02,-2.331967e-01,-5.629085e-02,3.631884e-04,7.154556e-01,-7.544629e-02,1.684195e-01,6.978260e-02,-2.647269e-02,1.388838e-01,1.457383e-01,1.419929e-01,-2.080987e-01,5.621275e-03,
4.142483e-02,6.158973e-01,-5.686871e-03,3.832305e-01,-5.410935e-02,-4.947800e-02,-2.140729e-02,-2.014412e-02,-3.629975e-02,-2.185031e-01,3.626656e-04,2.378314e-01,1.012746e+00,2.425576e-01,4.700553e-02,1.106028e-02,2.215550e-01,1.885227e-01,3.393297e-02,-1.594885e-02,-9.350751e-02,2.403586e-01,-1.902442e-01,4.537966e-02,-1.086299e-01,3.650066e-03,2.707263e-01,2.015689e-01,1.155704e-01,8.765455e-02,3.051576e-01,-1.346108e-01,-3.556519e-02,5.024057e-02,-2.096691e-01,-1.219201e-01,1.308850e-01,-2.488939e-01,1.173281e-02,4.043188e-02,-4.749019e-01,3.992328e-01,1.028737e-01,-1.690300e-01,-1.281629e-03,
-9.304743e-02,1.715160e-01,5.385828e-01,9.270389e-02,-2.640419e-01,-4.439079e-02,-3.218690e-02,-2.884124e-02,-3.620488e-03,4.262500e-02,-4.305577e-02,2.109756e-01,2.658088e-02,-9.584671e-02,5.138567e-02,-1.530543e-01,4.742100e-01,-6.942987e-02,3.147186e-02,-3.957180e-02,-7.465774e-03,2.594096e-01,-1.289472e-01,1.496355e-03,4.421481e-02,-1.905100e-02,4.173862e-01,1.847391e-01,-1.627635e-01,-1.916834e-01,-5.713217e-02,-9.134731e-03,-1.546064e-01,7.913902e-03,-9.243429e-03,3.158656e-01,-7.349741e-03,2.000573e-01,3.604199e-02,-3.677645e-02,3.095582e-02,1.881171e-01,-8.922289e-03,-3.412735e-01,7.153212e-02,
-7.677186e-01,-1.000030e-01,-1.355939e-01,-1.019071e-02,-8.703410e-01,-3.957043e-02,-2.417678e-02,6.621102e-03,9.785208e-03,2.169008e-01,-4.914413e-02,1.243712e-01,4.365747e-01,-5.141628e-01,5.901573e-02,2.423717e-02,-1.995048e-01,1.694078e-03,2.673944e-02,-5.654050e-01,-3.054924e-02,8.307350e-01,-3.061387e-01,9.875948e-03,-3.567549e-02,-1.554851e-02,5.153478e-01,-3.548712e-01,3.721182e-02,-2.148494e-01,-1.274272e+00,-4.547888e-02,1.826468e-01,-8.567725e-03,2.068238e-01,-3.591358e-02,1.374622e-01,-2.582191e-01,3.782070e-03,-4.023691e-02,2.244957e-02,-4.522552e-01,1.424520e-01,5.696834e-02,-4.069800e-02,
-3.597134e-02,-4.084362e-01,-7.926562e-01,-4.262829e-01,5.589116e-01,-1.871176e-02,1.210230e-03,4.467745e-01,-4.347866e-02,3.295252e-01,3.379047e-02,2.219617e-01,-2.427347e-02,2.481460e-01,3.560165e-01,-1.718727e-01,-6.232038e-01,1.476254e-01,2.087282e-02,-1.166523e+00,2.185842e-01,1.630510e-01,3.448862e-01,-4.961049e-02,2.830670e-02,-3.744990e-03,-3.689003e-01,-1.207266e-01,-1.883427e-01,-7.770047e-03,-1.212116e-01,1.590340e-01,3.657695e-01,-3.813747e-02,4.002828e-01,3.846974e-02,-1.313180e-01,6.963693e-01,1.397886e-01,-1.347565e-02,-6.637518e-02,-2.150284e-02,3.891149e-01,1.522630e-02,5.380808e-03,
5.615963e-02,-3.481065e-02,1.536374e-01,1.714320e-01,4.884066e-01,-4.831066e-02,-1.137334e-02,2.921609e-01,4.365566e-02,-1.573210e-01,-4.370296e-02,-2.622051e-02,6.648286e-02,4.987790e-02,1.529874e-01,1.007489e-02,-3.190347e-01,2.048257e-02,2.268885e-02,2.641145e-01,-1.110447e-01,3.157947e-02,-2.088867e-01,-1.776770e-02,1.170848e-01,1.795185e-02,3.424286e-01,-3.111030e-01,2.353523e-01,2.301807e-02,-4.184279e-02,-2.086256e-01,1.808046e-02,5.305199e-03,-2.075741e-01,-1.492236e-02,1.414773e-01,3.011350e-02,8.346099e-02,1.175660e-02,4.583195e-01,6.300279e-01,7.362670e-02,-2.042045e-01,-5.746942e-03,
1.870453e-01,-1.322025e-01,1.442295e-01,9.268760e-03,4.035897e-02,3.415053e-02,2.912804e-02,-1.171691e-01,-9.884618e-03,6.622206e-02,-1.567704e-02,1.886716e-01,-2.416393e-01,-5.547097e-02,1.935745e-01,-1.936216e-01,-1.802232e-01,-2.367520e-02,4.637668e-02,5.725366e-02,2.408583e-02,5.609754e-01,-1.738033e-01,-1.791183e-02,1.523724e-01,-2.589975e-02,1.415364e-01,1.013824e-02,-1.651913e-01,1.902346e-01,-7.402259e-03,-2.847747e-01,8.193077e-02,2.338699e-02,-1.605048e-01,2.111085e-01,1.089712e-01,-4.404936e-02,-8.712473e-02,-3.393627e-02,-4.240695e-02,-1.551185e-01,-5.922110e-02,-1.427662e-01,-3.588010e-02,
9.050196e-03,-4.165013e-02,-3.177358e-02,-3.677706e-02,1.875718e-02,2.437878e-02,-7.553259e-03,1.502765e-02,-2.686143e-02,-5.474688e-02,1.405810e-02,-3.660574e-02,-4.347771e-02,-1.829961e-03,5.902068e-03,-3.489375e-02,2.432238e-02,-4.790941e-02,3.679829e-02,1.203354e-02,2.734851e-02,-4.508116e-02,1.759494e-02,2.868073e-02,-4.336983e-02,1.009752e-02,4.209664e-02,3.806307e-02,1.545601e-02,1.743854e-02,-2.329485e-03,-3.572065e-02,-1.445691e-02,-2.101506e-02,2.715267e-02,8.759410e-03,5.304300e-03,-3.344018e-02,-3.940232e-02,3.387532e-02,3.268871e-02,-3.506501e-02,-4.529513e-02,6.117464e-03,2.671508e-02,
-3.559358e-01,3.563219e-01,-2.257786e-01,6.862535e-01,-7.074781e-02,-2.689371e-02,8.572341e-03,-5.042930e-01,3.127503e-03,5.463996e-01,1.729636e-02,4.883168e-01,9.395977e-01,3.506191e-01,3.805278e-01,-1.718316e-02,5.514183e-02,-8.654372e-02,-2.440929e-02,4.381854e-01,8.505933e-02,2.005590e-01,2.376878e-01,-2.126750e-02,-2.008774e-01,2.059502e-02,3.832432e-01,6.307401e-01,7.043806e-01,1.013526e-01,2.889921e-01,-3.983139e-01,-1.615234e-01,-3.099054e-02,3.003981e-01,2.321938e-01,2.058128e-02,-1.203432e-01,1.880337e-01,-3.568976e-02,2.106591e-01,4.073750e-01,-1.888047e-01,-1.415031e-02,3.406576e-02,
5.311436e-01,4.456573e-01,5.291441e-02,-1.403273e-02,-3.797383e-01,-1.409361e-02,-1.758823e-02,-5.741538e-01,3.362068e-03,-2.066155e-01,1.260611e-02,-1.346774e-01,8.118024e-01,-2.303123e-01,9.207449e-02,-3.253259e-01,9.439554e-02,-3.836554e-01,4.351007e-02,1.842318e-01,3.022733e-01,6.033891e-01,-1.208009e+00,2.857609e-02,-8.576236e-02,1.031098e-02,-1.738033e-01,1.612458e-02,1.034536e+00,6.683380e-02,4.307699e-01,-2.844149e-01,-6.115524e-02,3.237452e-02,-2.178664e-01,-2.639014e-01,1.837134e-01,5.435650e-01,-2.402982e-01,-3.731656e-02,4.451356e-01,5.327766e-01,6.759666e-01,-3.775045e-01,-3.327660e-02,
-1.274601e-01,1.122486e-01,1.019696e-01,1.954526e-01,-9.577558e-02,-1.858207e-02,3.675212e-02,-1.928046e-01,3.187591e-03,2.741535e-02,2.384001e-02,-1.848033e-01,2.887546e-02,1.446324e-02,-1.105612e-01,1.826601e-01,1.332629e-02,7.360046e-03,3.279920e-02,8.647243e-02,3.748043e-01,-4.606287e-04,-1.409535e-01,1.958164e-02,1.086476e-02,4.263967e-02,2.794439e-01,1.088153e-01,-3.015309e-01,-2.005438e-01,9.260452e-02,-5.249992e-02,-2.708082e-01,1.874002e-02,-2.388266e-02,2.321731e-04,-4.683566e-02,4.283366e-03,1.245369e-01,2.275104e-02,1.092944e-01,-1.467692e-01,-2.587839e-01,-6.537718e-02,-4.409939e-02,
-7.188935e-03,1.060837e-03,2.175359e-02,-2.921914e-02,-4.812262e-02,2.594901e-02,-1.546111e-02,-2.007154e-03,8.186601e-03,-6.369682e-02,2.651452e-02,-4.776854e-02,3.721711e-02,1.379771e-02,-1.257278e-03,-2.871125e-02,3.634185e-02,-3.098989e-02,-1.629820e-02,2.360100e-02,-2.997589e-02,-2.004452e-02,2.532872e-02,-2.570706e-02,-1.177418e-02,-2.774429e-02,-1.361424e-02,-2.911481e-02,-7.975323e-03,1.076891e-02,-4.175544e-02,-8.509039e-03,-3.486482e-02,6.879651e-03,2.951078e-02,-3.728897e-02,-4.154478e-02,-5.354723e-02,-2.401767e-02,3.316207e-02,-6.501279e-03,-5.068716e-02,2.341075e-02,-3.020678e-02,-2.626091e-02,
2.939086e-02,-2.074206e-01,3.603680e-01,-1.300940e-01,-7.367720e-01,-3.974593e-03,-1.628615e-02,1.702496e-01,-1.919426e-02,1.515298e-01,9.364228e-03,2.532242e-02,4.396841e-01,-3.847892e-02,1.141535e-02,-2.731650e-02,-1.516126e-01,2.841258e-02,-2.008498e-02,2.141063e-02,1.022020e-01,7.333807e-02,-1.860875e-01,-1.198706e-03,-5.009303e-02,-4.037916e-02,1.742438e-01,6.002642e-02,-9.741360e-02,2.063780e-01,8.510968e-03,1.255177e-02,-2.245267e-01,-7.364618e-03,-1.103512e-01,1.114087e-01,7.910209e-02,-1.661826e-01,-6.594810e-02,2.410893e-02,2.333485e-01,-1.387383e-01,8.210502e-02,2.828654e-02,-1.155480e-02,
-1.381448e-01,3.168995e-01,-1.649140e-01,2.925161e-02,3.157445e-01,-2.386256e-02,-2.974816e-02,-8.912230e-02,-3.529968e-02,-2.434093e-01,-2.333008e-02,-9.881892e-01,3.647616e-01,-1.115509e-02,1.449966e-01,7.371888e-03,-8.022057e-02,7.446477e-02,-1.614459e-02,3.444816e-01,2.706530e-02,-1.585739e-02,7.231007e-03,1.495195e-02,1.015931e-01,-3.531493e-02,1.571489e-01,7.598967e-02,-2.968634e-01,4.752573e-02,8.385791e-02,-4.194610e-02,9.058855e-03,-3.402686e-02,-3.373234e-01,-1.639530e-02,9.057286e-02,-9.266113e-02,-3.366887e-02,2.481832e-02,2.278662e-01,5.582609e-03,2.125507e-01,2.090337e-02,3.321347e-02,
2.172503e-01,-4.463805e-01,6.359085e-01,-2.175394e-02,4.075606e-01,3.777105e-02,3.647654e-02,-6.835546e-02,4.144033e-02,4.215951e-01,3.458813e-02,1.949027e-01,2.416565e-01,6.913883e-02,4.276346e-01,-3.160788e-01,5.788834e-02,-6.445324e-02,1.692443e-02,2.983344e-01,7.505464e-02,4.173077e-01,-2.205294e-01,4.463494e-02,1.348695e-01,3.310653e-02,2.920616e-01,-4.087614e-03,-1.573004e-01,-4.463373e-02,1.029099e-02,-1.490421e-01,3.629389e-01,-1.288770e-02,-1.763590e-01,-3.563346e-02,-3.245686e-02,1.562404e-01,-1.601767e-01,1.108967e-03,6.480302e-02,1.982825e-01,1.399823e-01,-2.102749e-01,3.483727e-02,
-2.741854e-01,-3.362188e-01,2.709542e-01,1.101982e-01,1.458383e-01,3.658236e-02,2.341523e-02,-3.056475e-02,-4.053089e-02,3.796282e-02,9.287852e-03,-4.186945e-04,3.886135e-01,-7.159401e-01,-6.045751e-02,-4.583192e-01,-1.370567e-01,-1.812520e-01,-4.193291e-02,-4.627016e-01,4.736146e-02,3.764696e-01,-3.433296e-01,-7.081883e-03,-3.956994e-01,-5.976121e-03,1.917610e-01,-1.151993e-01,1.526803e-01,1.010923e-01,-1.117261e+00,-6.753000e-03,5.922702e-02,-1.409747e-02,1.752033e-01,2.457294e-01,-7.633649e-03,4.272638e-02,3.330960e-02,4.478036e-03,6.131628e-01,4.725119e-02,-4.849360e-01,3.756634e-02,1.478398e-02,
-1.567633e-01,6.111062e-02,-1.342302e-01,1.982668e-01,-6.259000e-01,-3.450488e-02,4.278819e-02,4.874036e-01,-7.526744e-03,4.205041e-01,-2.333883e-02,2.156986e-01,4.206319e-02,-4.925318e-01,4.066157e-01,1.940132e-01,2.041665e-01,6.733714e-02,-1.061621e-02,1.986457e-01,-1.880631e-01,2.700149e-01,-5.971621e-01,-5.745804e-02,1.512151e-01,3.616245e-02,-3.352441e-01,-1.360144e+00,-2.003770e-01,5.264730e-01,2.677354e-01,1.192759e-01,1.741731e-01,-2.062521e-02,6.300298e-01,4.020791e-02,1.521520e-01,1.365146e-01,-5.900854e-02,-2.580171e-02,4.710151e-01,-4.078684e-01,6.843633e-01,-1.778681e-01,2.704278e-02,
3.310387e-01,1.185431e-01,-1.839694e-01,4.399623e-02,-1.690798e-01,3.996805e-03,1.275897e-03,3.466896e-01,-2.082609e-02,1.686144e-01,3.633812e-02,2.582642e-01,1.066548e+00,-1.909945e-02,-3.892565e-02,-1.635824e-01,-2.268981e-01,1.004502e-01,4.588139e-02,6.039193e-03,-1.001514e-01,-6.812015e-02,1.265375e-01,4.687713e-02,2.445050e-01,-1.661602e-04,1.712953e-01,-5.653678e-01,-7.183764e-02,6.811327e-02,-1.114971e-01,-2.733491e-02,-1.504133e-01,-1.271253e-02,-1.952195e-01,-2.568453e-01,6.869072e-02,2.488580e-01,1.528420e-01,2.460582e-02,1.571763e-01,-1.421383e-01,5.212609e-01,-2.099849e-01,-1.932319e-02,
-7.079141e-02,2.562314e-01,-8.736351e-01,-1.033881e+00,4.429151e-01,-2.759548e-02,4.072006e-02,-3.005587e-01,1.937987e-02,4.755031e-01,-1.589928e-02,-8.475717e-01,8.121327e-01,6.259401e-01,-3.634563e-02,6.020762e-01,1.899104e-01,7.797700e-02,2.223909e-02,-5.279332e-03,-7.520630e-01,-6.236286e-02,-3.144433e-02,1.861286e-02,1.909949e-01,1.216630e-02,1.556836e-01,4.636826e-01,8.103601e-01,-1.518001e-01,-1.961443e-01,1.977546e-02,1.651084e-01,-2.761707e-02,3.865048e-01,7.950408e-02,-4.686068e-02,-2.785834e-01,-4.122981e-01,-5.340627e-02,-1.049351e+00,-6.264211e-01,2.193459e-01,1.777211e-01,6.115949e-03,
5.099718e-01,-1.674502e-02,2.297658e-01,1.834105e-01,-2.192167e-01,-8.340891e-04,1.797800e-02,-2.506281e-01,1.881877e-02,-4.413975e-02,-2.525225e-02,2.605852e-03,1.442124e-01,5.040931e-01,1.108912e-01,4.122749e-02,-5.717266e-02,5.756441e-03,-3.089094e-02,-3.125644e-02,-2.834665e-01,4.658534e-02,8.309145e-03,2.869069e-02,-6.669093e-03,4.305010e-02,1.239435e-01,3.942228e-01,-2.358438e-01,5.441919e-02,1.469851e-01,-1.323428e-01,2.049664e-01,-3.291046e-02,-3.173077e-01,-1.380230e-01,2.008575e-01,-1.640639e-01,-6.453677e-02,-2.862372e-02,-1.772812e-01,-7.412344e-02,4.515546e-02,-9.450860e-02,3.277701e-02,
6.216333e-02,3.416342e-01,-5.715276e-02,1.047605e-02,5.752101e-01,3.313734e-02,-1.223600e-02,2.069474e-01,3.710462e-02,-4.516972e-01,-6.442920e-02,2.943736e-01,7.427831e-01,3.045011e-01,8.533777e-02,-9.171881e-01,7.477881e-01,2.152187e-02,3.973410e-02,-1.365748e-01,4.040014e-01,3.780143e-02,4.292332e-02,4.612933e-02,-1.410543e-01,1.547569e-02,2.791742e-01,2.630421e-01,2.465135e-01,-2.206193e-01,-2.727765e-01,-6.192536e-02,-4.544975e-01,4.676659e-02,5.554156e-02,8.389946e-01,3.814124e-01,8.967090e-02,-1.415385e-02,-4.651382e-02,1.451358e-01,9.470660e-02,3.359024e-01,8.008306e-03,2.111780e-02,
3.726672e-02,4.217160e-01,-3.475054e-01,-1.609281e-01,2.804096e-02,-2.134321e-02,-2.154500e-02,2.049747e-01,-4.997643e-02,-1.332372e-01,-8.866225e-03,1.344006e-01,8.839764e-01,1.194067e-01,6.568801e-02,3.120537e-01,4.154421e-02,8.657783e-02,-5.119689e-03,1.474308e-01,-3.149552e-01,-1.033998e+00,1.590389e-01,-1.546425e-02,-2.131453e-01,1.448212e-02,2.169348e-01,1.115107e-01,-1.671668e-01,2.766149e-02,-1.556805e-01,-4.504427e-03,-2.351817e-01,3.224742e-02,3.220220e-02,1.237526e-01,-2.011441e-01,-2.965353e-01,-1.082221e-01,4.730066e-02,-2.222504e-01,7.613233e-02,3.471783e-01,3.508253e-02,-3.665856e-02,
-1.040725e-02,-4.661293e-02,2.374919e-02,2.043435e-02,-7.019224e-03,-2.800914e-02,-1.199193e-02,-4.932404e-02,-8.716740e-03,1.587529e-02,-7.999610e-03,-1.149815e-03,-4.248167e-02,3.339026e-02,-4.376583e-02,-9.621714e-03,-2.702292e-02,-3.446954e-02,7.272298e-03,-3.111561e-02,-3.793960e-03,-8.016572e-03,-4.270326e-04,-2.139637e-02,-2.342895e-02,-2.040239e-02,4.502686e-02,-3.340236e-02,2.668605e-04,1.008405e-02,4.568418e-02,-3.934040e-03,-1.648041e-02,-3.325275e-02,3.007453e-02,9.320556e-03,-2.554811e-02,-4.340488e-02,-4.015245e-02,3.764381e-02,3.918364e-02,-4.777189e-02,-1.883502e-02,-3.613296e-02,2.991241e-03,
8.542255e-03,-1.793688e-02,3.804730e-01,2.910823e-01,-6.861056e-02,3.170622e-02,3.784458e-02,-2.112827e-01,-1.737828e-02,2.738984e-01,-2.672437e-02,-1.232785e-02,-1.056320e-01,7.286054e-03,9.878964e-02,4.833698e-02,1.107229e-01,-1.352852e-02,-3.748233e-02,-2.336969e-02,1.508022e-01,1.813581e-01,-1.094953e-01,3.091020e-04,-3.126069e-02,3.496770e-02,-7.404400e-02,2.026004e-01,2.080892e-01,1.648420e-01,-1.757549e-01,-6.502047e-02,9.060244e-02,-1.369319e-02,1.735572e-01,1.767738e-01,7.323440e-01,1.211730e-01,1.483001e-01,2.382798e-02,-5.167861e-01,1.315478e-01,1.877210e-01,-7.098224e-01,-3.015011e-02,
-2.624345e-02,-2.620118e-02,-6.318146e-01,1.629167e-01,-1.857510e-01,-4.852167e-02,3.412068e-03,5.746532e-01,-2.107300e-02,-3.212297e-01,-1.611766e-02,1.394875e-01,3.486099e-01,-9.330612e-02,-2.808176e-01,-3.169320e-02,3.139528e-02,3.555651e-01,-2.156010e-02,-1.609397e-01,-8.476867e-02,-3.478196e-01,1.631504e-01,2.175996e-02,5.293216e-01,4.194285e-02,1.511226e-01,3.489961e-02,5.046292e-02,-4.146824e-01,9.487785e-02,2.321099e-01,-6.860105e-02,-2.059424e-02,-1.475123e-01,-5.601661e-01,2.821484e-01,2.751066e-01,-1.418170e-01,5.814159e-02,6.376027e-01,4.827045e-02,1.737031e-01,-1.091222e-02,3.173348e-02,
3.647854e-01,1.444513e-01,5.007970e-01,4.692602e-02,-3.922733e-01,-1.135082e-02,2.055071e-03,-1.021484e-02,-5.722417e-03,-1.972352e-01,-3.537247e-02,1.536372e-01,1.492108e-01,-2.340049e-01,2.206244e-01,-4.284647e-01,2.498906e-01,-4.930405e-02,-3.666551e-02,3.066558e-01,-8.020745e-02,-1.814084e-02,-7.702379e-02,3.787672e-02,1.062777e-01,-1.387613e-02,-3.635198e-01,-3.895937e-01,-5.728238e-03,5.236530e-02,1.600233e-01,-5.518848e-01,2.723500e-03,1.883271e-02,2.348510e-01,1.330991e-01,1.422722e+00,1.437690e-01,-6.141540e-02,1.039695e-02,2.094209e-02,9.943066e-02,-3.139648e-01,1.440817e+00,-3.139430e-02,
1.640598e-01,-9.369947e-01,2.257823e-01,4.967817e-02,9.702300e-02,-2.025198e-02,1.849005e-02,2.039658e-01,-1.919460e-03,-1.632650e-01,3.322165e-02,5.866431e-01,3.258595e-01,9.688366e-02,6.818327e-01,-6.362165e-01,-6.233288e-02,6.095490e-01,-3.599858e-02,-9.892201e-02,-2.192581e-01,1.216965e-02,-9.899732e-02,-5.764913e-02,2.322841e-01,2.785839e-02,4.183396e-02,-6.564721e-02,1.322510e-01,-1.637548e-01,-5.274436e-01,-7.858403e-02,1.258427e-01,-5.056553e-02,1.079833e-01,-3.884862e-01,-1.721630e-03,8.701089e-03,-4.335338e-01,7.498081e-03,-1.090359e+00,1.851526e-01,5.453779e-01,-2.443014e-02,5.325990e-03,
-4.231414e-02,2.140627e-02,-3.408984e-02,2.298987e-02,-2.887059e-02,1.485976e-02,9.999116e-03,-3.587269e-02,3.850340e-02,1.192944e-02,-2.266305e-02,-4.838265e-02,3.173474e-03,-4.933130e-02,1.375138e-02,-2.381789e-02,-1.554637e-02,-4.036789e-02,1.387956e-02,-4.362563e-02,-2.190520e-02,-1.070514e-02,8.328192e-03,1.685827e-02,7.697223e-03,-3.776442e-02,2.358679e-02,-5.330460e-03,-4.054283e-02,-2.486048e-02,-3.264404e-03,-4.573701e-02,-2.439000e-02,2.714811e-02,-9.917207e-03,-3.657881e-02,1.381494e-02,-4.382152e-02,-4.786295e-02,1.902364e-02,8.448774e-03,-4.006547e-02,1.656263e-02,-5.156953e-02,2.848158e-02,
3.054505e-01,-1.266023e-01,2.952551e-01,3.790542e-01,1.675053e-01,-2.851799e-02,-3.529810e-02,1.949596e-01,-3.980723e-02,2.946481e-01,2.599560e-02,-5.452433e-02,-3.787971e-01,2.053996e-01,1.092935e-01,-2.918509e-01,5.544024e-02,1.230672e-01,-7.423349e-03,9.072480e-02,5.309391e-02,1.178332e-02,-1.975583e-02,2.194164e-02,6.026522e-02,2.790382e-02,-2.945146e-01,-4.067767e-01,-2.959185e-01,2.271794e-02,-1.494831e-01,-6.362599e-04,-5.909736e-02,2.092141e-02,-1.477927e-01,-2.231028e-01,-1.248297e-02,4.008952e-02,2.027991e-02,-5.192727e-02,4.610268e-04,-2.676381e-01,-1.870385e-01,-1.103572e-01,9.367559e-03,
1.814771e-01,-2.728125e-02,-1.274429e-01,3.126977e-01,-2.890114e-01,-2.597133e-03,-3.530400e-02,3.683760e-02,2.579969e-02,2.130539e-01,-3.134351e-02,-3.178521e-02,-4.783271e-02,-9.294556e-02,1.666427e-01,-2.357465e-01,2.686512e-01,-3.827647e-02,-1.222981e-02,-8.569676e-02,-1.618256e-01,-1.637792e-01,-5.607652e-02,-7.246801e-03,1.108767e-01,-9.282894e-03,3.323598e-02,4.603790e-02,2.071917e-01,1.132556e-01,3.321604e-01,-1.320474e-01,1.128567e-01,2.624784e-02,-4.681515e-02,4.600749e-02,-2.756056e-02,-3.464567e-01,-1.176930e-02,-1.951503e-03,5.176691e-03,2.493581e-01,4.908536e-02,-5.180098e-02,-4.685726e-02,
4.204118e-01,-8.514490e-02,-4.400410e-01,-4.899153e-02,-5.793034e-01,-1.471591e-02,-3.197817e-02,1.375817e-01,2.460449e-02,-1.343408e-01,4.661229e-02,2.640864e-01,3.522540e-02,5.459280e-01,3.166586e-01,3.963743e-01,-3.494033e-02,3.990978e-01,1.106467e-02,-2.795146e-01,-1.297485e-01,3.632057e-01,-5.328316e-02,-2.636453e-02,5.435317e-01,-2.114667e-02,-3.491379e-01,4.091924e-01,3.156298e-01,2.360574e-01,-2.391016e-01,2.572079e-01,-7.651762e-02,-2.430230e-02,8.036790e-02,-2.698401e-01,-1.023874e-01,1.802224e-01,-1.781449e-02,-2.418033e-02,7.246296e-02,9.475796e-02,-2.097965e-01,-3.156977e-01,-3.024003e-02,
4.065505e-01,1.465351e-01,4.028957e-01,2.544338e-01,4.660114e-01,7.633433e-03,-1.910578e-02,4.682244e-02,-4.177015e-02,1.261787e-01,-1.940035e-02,2.326998e-01,-7.934789e-03,1.158175e+00,6.650479e-01,4.291775e-01,-1.099566e-01,1.728762e-01,1.940347e-02,-2.758801e-01,8.572462e-01,4.518332e-01,-1.524253e-01,3.341708e-02,3.856208e-01,-4.501844e-02,6.590933e-02,7.909963e-01,3.318603e-01,2.432163e-01,-4.611261e-01,-1.339877e-01,3.464188e-01,-1.889135e-03,-3.889297e-01,2.203583e-01,-1.551921e+00,4.296112e-01,7.901767e-01,1.047136e-02,-3.757970e-01,3.017064e-01,8.018997e-01,1.305634e+00,-4.740998e-02,
3.373963e-02,
4.694444e-02,
-5.906053e-03,
-1.247031e-02,
4.817242e-02,
1.483550e-01,
-2.199550e-02,
-1.851471e-02,
4.299391e-01,
-1.201997e-01,
-2.203381e-01,
-1.865757e-02,
-1.112362e-02,
-2.084437e-01,
-8.996675e-02,
6.000204e-03,
8.915479e-02,
4.789335e-02,
3.082094e-03,
8.630247e-02,
-1.082503e-02,
2.040519e-02,
-1.666847e-01,
1.038114e-01,
-9.939680e-03,
4.888830e-02,
8.123827e-02,
1.308838e-01,
1.840228e-01,
-5.560803e-02,
-1.147468e-01,
1.537061e-02,
-8.729232e-02,
-4.032885e-01,
8.936456e-02,
-9.091350e-03,
7.345939e-02,
-1.465390e-01,
-2.469413e-01,
1.703411e-01,
-2.129973e-02,
6.408856e-02,
6.611993e-02,
5.106832e-02,
1.108230e+00,
-8.813703e-02,3.267438e-01,3.899668e-02,-1.039864e+00,2.134266e-01,-4.132037e-01,-3.743965e-02,-1.178442e-02,3.804909e-01,1.339982e-01,5.552129e-01,-3.677977e-02,-1.429375e-01,2.659626e-01,1.816986e-01,1.208416e+00,-5.054338e-01,6.294587e-02,4.573948e-01,-2.664476e-03,-7.670851e-03,-3.753655e-01,5.623481e-01,1.033049e+00,-2.316615e-02,-3.566262e-01,9.908295e-01,9.574131e-02,7.400110e-01,-5.973696e-02,2.581229e-01,5.519419e-01,1.110274e+00,3.978057e-01,3.493765e-01,4.926973e-02,3.102511e-01,-1.962388e-01,2.287338e-01,3.516203e-01,3.838900e-02,-3.580737e-01,4.784200e-01,-1.537697e-01,-2.964185e-01,
2.944414e-02,-2.393819e-02,-1.020723e-02,-5.817884e-02,1.278233e-02,3.330815e-02,-4.223256e-02,3.826246e-02,1.604092e-02,-5.936335e-03,-3.934990e-02,-4.211219e-02,-1.670669e-02,-5.228447e-02,1.032816e-02,-1.079064e-02,1.897938e-02,-2.695306e-02,-4.346493e-02,-3.830579e-02,9.233634e-03,-3.592615e-02,2.609384e-02,-2.781811e-02,3.575599e-02,1.788530e-02,-1.022273e-02,-5.240146e-02,-5.234859e-02,-2.175610e-02,-2.659022e-02,2.285898e-02,-2.437032e-02,-4.655730e-02,-4.340363e-02,-4.089982e-02,-1.900681e-02,-5.007890e-02,-5.106185e-02,3.311232e-02,4.044322e-02,2.065257e-02,-5.176806e-02,-3.284260e-02,-2.661933e-02,
1.278822e-01,-5.681930e-01,-3.112818e-02,-2.637816e-01,4.122681e-01,2.457126e-01,-2.006060e-02,1.296163e-04,-1.935124e-01,-1.429645e-01,3.049804e-01,-5.028711e-02,2.412183e-01,-7.816058e-02,-5.965671e-02,1.950009e-01,-3.851428e-01,8.608808e-02,-2.073124e-01,9.777808e-01,-2.227064e-03,-1.924178e-01,1.982569e-01,-4.484333e-01,-4.181631e-02,-3.755846e-02,-4.225127e-01,3.331311e-01,-6.859656e-02,2.876093e-01,-4.123289e-01,-2.707457e-02,2.301476e-01,5.349606e-01,3.811330e-01,-2.543131e-02,-5.391857e-01,3.274771e-01,-8.834889e-02,-1.098827e+00,4.520291e-02,-2.719596e-01,9.465506e-02,3.510247e-01,-8.189920e-02,
-4.680154e-02,4.376456e-04,4.391380e-02,-4.653385e-02,1.311996e-01,2.435970e-01,2.809126e-02,3.492988e-02,-3.098262e-02,1.226042e-02,-7.450314e-01,-4.774134e-02,-3.206410e-01,2.293279e-02,2.180320e-01,-1.578091e-01,-1.756535e-01,-1.244400e-02,-6.198141e-02,9.911924e-02,-1.609034e-02,1.870373e-01,-3.450243e-02,-1.806721e-01,1.577115e-02,3.978163e-02,2.001923e-01,-2.960777e-01,3.183663e-01,2.267030e-01,-4.229395e-01,-2.933449e-01,6.955644e-02,-4.636228e-02,6.310593e-03,-4.558116e-02,-3.269976e-03,3.326749e-02,-3.182493e-02,4.395560e-01,-1.827161e-02,3.487287e-01,8.104908e-02,-2.215961e-01,2.614943e-02,
-1.420055e-02,-1.199728e-01,3.742041e-02,1.062975e-01,-1.015124e-01,5.548436e-02,4.675744e-02,-3.446324e-02,1.102166e-01,-1.772006e-02,8.268814e-01,2.335129e-02,8.257222e-01,1.813927e-01,5.875879e-02,7.786718e-02,7.658806e-02,-1.916713e-01,-5.714676e-01,3.523002e-01,2.515863e-02,-1.824443e-01,5.572110e-01,-8.834502e-01,3.770180e-02,1.144180e-01,1.001194e-01,-4.832471e-02,2.112686e-01,-1.454807e-01,-1.141083e-01,1.558477e-01,1.357237e-01,-1.405350e-01,-3.572589e-02,7.610594e-03,-9.354796e-02,-6.750398e-01,3.899098e-02,-4.248287e-01,4.740641e-02,8.003096e-02,3.787795e-01,1.754286e-01,-4.640266e-02,
9.170521e-02,-4.028243e-01,4.821878e-02,9.879803e-02,6.362360e-02,1.235257e-01,3.571320e-02,-3.190057e-02,-9.186853e-02,4.030122e-01,3.167379e-01,4.388198e-02,-4.299885e-02,2.220865e-01,2.384304e-01,-3.455560e-02,-2.247838e-01,-1.998601e-01,-3.341339e-01,1.509409e-01,4.307793e-02,-2.169140e-02,1.891874e-01,-2.192228e-01,-2.487643e-02,4.097383e-01,-4.404278e-01,7.862810e-02,1.544484e-01,-3.570844e-02,7.775883e-02,4.485944e-02,9.854398e-03,-2.233441e-01,5.440113e-02,4.897985e-02,1.022054e-01,-4.132240e-02,-8.142118e-02,-7.278568e-01,2.850890e-02,-2.253242e-02,2.529302e-02,-1.705539e-02,-1.537872e-03,
9.524312e-02,2.308741e-01,-1.856592e-02,-1.495702e-02,-1.588364e+00,5.132639e-01,1.234189e-02,-9.578886e-03,-6.681188e-01,2.554644e-01,-1.573079e+00,-8.595907e-03,-4.054618e-03,-2.838109e-02,-6.106510e-01,-3.219023e-01,-1.481134e+00,9.601645e-02,2.955311e-01,6.224613e-01,2.858312e-02,6.234292e-01,-2.047461e-01,1.841568e-01,3.428413e-02,8.564349e-02,-2.282148e-01,4.911165e-02,-1.572387e+00,2.221717e-01,-1.900497e-01,-2.363836e-01,3.687194e-01,-3.346436e-01,-2.523350e-01,3.279949e-02,-3.235783e-02,-8.569648e-01,-3.965921e-01,-2.213926e-01,3.493052e-02,-5.128133e-01,-1.226262e+00,-2.291777e-01,-4.961044e-02,
-3.801658e-01,-1.775014e-02,1.048046e-02,8.783063e-02,1.761972e-01,-3.001959e-01,-1.327948e-02,-2.595553e-02,-5.029028e-02,-1.225897e-01,-4.191850e-01,-7.673906e-03,-4.750849e-03,2.247201e-02,-7.718875e-02,-7.662151e-02,6.233053e-02,-2.208829e-02,-1.872566e-01,-1.524596e-02,-4.325125e-02,2.570260e-02,-2.926157e-02,-1.690155e-01,2.390178e-02,-5.358030e-02,-9.547580e-04,-1.296441e-01,-1.644540e-01,-1.419278e-03,-1.014965e-01,-1.384063e-01,4.983249e-02,4.743540e-02,-1.311899e-01,-8.147384e-03,-1.113092e+00,-8.479545e-02,8.096331e-01,2.131668e-02,-1.816721e-02,-3.928851e-01,-1.396325e-01,-2.195450e-01,3.294535e-01,
1.133474e-01,-2.014890e-01,5.010738e-02,-1.920282e-01,-8.084907e-02,1.100436e-01,-4.766335e-02,3.687555e-02,-1.180407e-01,-3.169645e-01,-1.297193e+00,3.941763e-02,-4.420116e-01,-2.213557e-01,-7.105488e-02,-2.415768e-01,4.749289e-01,1.995838e-01,-7.253185e-02,-5.329982e-02,2.873949e-03,2.644040e-01,-4.327094e-01,-6.483783e-01,-1.770680e-02,4.119272e-01,-7.967362e-02,2.494241e-01,-3.661518e-01,-1.257228e-01,-2.231635e-01,-1.308282e-01,-2.936913e-01,-7.711457e-02,2.340032e-01,1.933208e-02,-5.075047e-02,2.899461e-01,1.472296e-01,-6.813394e-01,3.453476e-03,1.617407e-01,6.413778e-01,-9.849620e-02,1.298922e-01,
-2.649342e-01,-5.010431e-01,1.858643e-02,-5.931312e-02,4.384110e-01,-1.905163e-01,-2.321594e-02,2.475282e-02,1.599517e-02,-9.890579e-02,1.388273e-03,1.902837e-02,3.214700e-01,5.964740e-02,3.025819e-02,3.548322e-01,1.264116e-02,1.535441e-01,-2.735943e-01,7.319283e-01,-3.427343e-02,-2.679137e-01,3.326146e-01,-1.028711e+00,-2.601468e-02,4.520429e-01,-4.163754e-01,8.109443e-01,-2.532795e-01,-1.350663e-01,-4.885728e-02,4.566875e-01,-1.639476e-02,-3.385042e-02,8.795622e-02,-4.600203e-02,-1.910605e-01,2.156780e-01,-9.897650e-03,-4.854816e-01,-3.642192e-02,-1.643405e-01,-2.580695e-04,-8.962153e-02,-7.695625e-04,
-3.704061e-01,-7.727172e-01,-1.246169e-02,2.516867e-01,-2.287965e-01,-8.258643e-01,2.815514e-02,-1.092380e-02,-6.290468e-01,-4.132900e-02,1.380807e-02,4.146954e-02,-1.300565e-01,-3.145585e-01,-1.935323e-01,5.279770e-01,-2.252301e-01,-4.160174e-01,2.334245e-01,4.291397e-01,-2.248630e-02,-7.420272e-02,1.022058e-01,-9.791053e-01,4.155437e-03,1.500514e-01,-2.241517e-02,2.524480e-03,-7.233187e-01,1.618512e-01,3.829615e-01,-1.024099e-01,5.357273e-01,1.007962e-01,-4.564166e-01,3.342687e-02,3.517110e-01,-2.129733e-01,-1.106221e-01,-7.266410e-02,9.154310e-03,-3.388776e-02,4.422708e-02,-2.445845e-01,1.942383e-01,
2.748566e-01,-1.786687e-01,-2.346682e-02,8.876386e-02,7.554764e-02,-2.713241e-02,-1.932368e-02,-4.495056e-02,3.983583e-01,5.068344e-03,4.096568e-01,7.484706e-03,-2.502562e-01,5.617474e-02,1.762962e-01,3.569252e-01,-2.764569e-01,-2.745902e-01,-6.061931e-01,-5.749762e-02,-1.869668e-02,-4.446203e-02,2.775187e-01,-2.098853e-01,4.419239e-02,8.465293e-02,1.055528e-01,-5.463747e-01,3.886920e-01,-2.800238e-01,1.025290e-01,1.017754e-01,2.575023e-02,-1.343849e-01,-2.064947e-01,-7.673975e-03,-1.724246e-01,-1.283388e-01,5.736942e-03,2.218570e-01,-9.654881e-03,1.385884e-01,4.324742e-02,1.464857e-01,2.377939e-02,
-1.718720e-01,8.239031e-02,-1.215429e-02,1.496062e-01,4.773729e-02,-6.965340e-02,-4.827196e-04,-2.661506e-02,4.262618e-03,2.588958e-02,-1.155904e+00,1.421481e-02,-1.750713e-02,-1.215758e-01,3.934032e-02,8.158644e-02,1.232754e-01,-1.201926e-01,1.369449e-01,9.825990e-02,1.434407e-02,1.127437e-02,-3.272477e-02,-1.086257e-01,2.867566e-02,2.179534e-01,-7.923105e-02,-4.227156e-02,1.036637e-02,1.236987e-02,3.163498e-02,1.067440e-01,-9.295657e-02,-9.070127e-02,-6.480888e-02,3.300161e-02,-4.735209e-01,-1.474261e-01,3.575501e-01,1.579273e-02,-4.148047e-03,-1.233981e-01,1.404871e-01,-1.094857e-01,1.761575e-01,
1.637572e-01,-1.016601e-01,3.080866e-02,-1.635445e-01,1.129219e-01,-3.655837e-01,-4.025486e-02,4.446551e-02,1.224140e-01,2.125338e-01,2.056431e-01,-4.665863e-02,2.377124e-01,3.179734e-01,7.582294e-02,1.919014e-01,-1.970257e-01,1.154232e-01,-2.534238e-01,2.336158e-01,-3.396266e-02,1.076280e-01,3.940054e-01,-1.797763e-01,2.588410e-02,4.775533e-01,4.066836e-01,2.172648e-01,2.848411e-01,-5.144434e-02,-8.716948e-02,-1.857884e-03,3.847822e-01,1.503967e-01,3.709368e-01,-4.172713e-02,-1.813661e-01,1.518088e-01,9.429875e-02,-2.648786e-01,-1.701239e-03,3.341620e-01,-3.712277e-01,-4.897490e-02,-5.220785e-02,
-7.923279e-02,-1.278635e-01,-3.994874e-02,5.605947e-01,-2.952647e-01,1.706352e-01,2.937291e-03,-1.261023e-02,-5.643466e-02,-9.361688e-03,-3.830271e-01,1.790759e-02,-1.048980e-01,1.157311e-01,1.543082e-01,-2.190001e-01,-2.409654e-01,6.470316e-02,3.868765e-01,1.517422e-01,4.952777e-02,9.994971e-02,7.996547e-03,-3.987913e-01,2.479125e-02,8.558127e-02,1.264003e-01,1.266909e-01,-2.277048e-01,7.596534e-02,-3.158706e-01,-1.915403e-01,-8.991904e-02,3.305434e-01,-8.664044e-02,2.479812e-02,2.427178e-01,3.191450e-01,-2.447045e-01,-1.110020e-01,-4.133862e-02,5.706990e-01,-1.736300e-01,-1.594073e-01,-1.509122e-02,
-1.693898e-01,1.414789e-03,-4.880320e-02,-1.089923e-01,-9.058736e-02,-7.116903e-03,-1.520202e-03,-1.724797e-02,-2.215986e+00,-2.248934e-01,6.555936e-02,-4.190792e-02,6.647255e-02,-3.264456e-01,6.753135e-02,-1.744659e-01,-2.190619e-01,5.104015e-02,-1.538906e-02,4.005477e-01,3.381574e-02,-2.180776e-01,-1.462709e+00,-3.196174e-01,-1.114334e-02,1.428469e-01,1.933016e-02,2.192161e-01,-1.651173e-01,2.501632e-02,1.212417e-03,-1.989387e-01,6.714839e-01,-1.471916e-01,-3.966533e-02,3.627839e-02,1.058200e-01,-6.667369e-02,1.080651e-01,-5.017654e-01,8.868176e-03,7.885894e-02,3.426207e-03,1.144387e-01,5.664261e-02,
-1.896307e-01,1.338968e-01,-4.130565e-02,-1.145992e-01,-2.823707e-01,1.186327e-01,-1.008100e-02,6.947031e-02,-4.873420e-02,1.518382e-01,-1.311998e-01,-1.007975e-04,-4.276440e-01,1.717899e-01,-5.238473e-01,-6.241779e-01,-2.404560e-01,3.546137e-01,1.787178e-01,5.223989e-02,-2.411637e-02,2.177560e-01,8.260436e-02,3.770608e-01,1.002758e-02,-1.210386e-01,2.163378e-01,2.450169e-02,-1.611515e-01,1.300971e-01,-6.094025e-01,5.155032e-02,9.490763e-02,1.958614e-01,3.984291e-01,1.678212e-02,3.286213e-01,-2.371897e+00,6.751644e-02,1.771961e-01,3.078878e-02,-7.151480e-02,4.055488e-01,-3.235720e-01,-4.783620e-02,
-5.497374e-02,-5.319229e-02,-2.609379e-02,5.224757e-04,-2.383190e-02,2.804644e-02,4.065475e-02,-6.101596e-03,4.340456e-03,8.088225e-03,-3.753895e-02,4.868021e-02,-3.701438e-02,-4.166980e-02,3.563183e-02,-3.202385e-02,-4.030365e-02,-2.198403e-02,-2.821319e-02,-9.980093e-03,-3.763596e-02,-4.930965e-03,-2.957637e-02,-4.264992e-02,1.438072e-02,-2.173516e-02,-3.836061e-02,-3.868534e-02,2.353876e-03,-1.947995e-02,-5.661967e-03,-9.191389e-03,1.034108e-02,1.394337e-02,-2.300402e-02,1.629338e-02,1.243112e-02,-5.551416e-02,-4.650262e-02,4.145223e-02,-1.246173e-02,2.877332e-02,-2.601286e-02,-5.255898e-03,-4.605848e-02,
-2.651736e-01,5.794016e-01,1.151239e-02,-2.334135e-01,6.486573e-01,-3.637312e-01,-3.383747e-02,4.574635e-02,5.219173e-01,-4.913224e-01,4.179944e-01,-6.487708e-05,1.523038e-01,1.933939e-01,3.136883e-01,9.278527e-01,-4.673307e-01,-6.953339e-01,-9.905023e-01,2.351097e-01,4.569363e-02,-2.001013e-01,9.957998e-01,6.102608e-01,-2.747492e-02,-1.812218e-01,-6.232395e-02,2.529409e-01,5.667778e-01,5.442787e-01,-6.917647e-02,-8.891983e-02,6.265067e-01,8.964007e-01,5.246143e-01,3.299161e-02,-9.270424e-01,-6.545902e-01,3.229939e-01,2.972270e-01,1.677737e-02,-4.662879e-01,6.598309e-01,-2.017818e-01,-1.678385e-01,
-1.264026e-01,4.806789e-01,5.752289e-03,-1.231218e+00,3.073555e-01,-1.086206e+00,-1.737091e-02,-4.287642e-02,-1.053056e-01,-6.651035e-02,-6.760429e-01,-2.878017e-02,-1.144269e-02,-2.288959e-01,-2.431127e-02,-8.310793e-02,-7.660428e-02,1.404410e-02,2.872542e-01,-2.282489e-02,-9.216353e-03,1.253785e-02,-3.428023e-01,7.761205e-01,-2.745890e-02,-7.584819e-01,6.674428e-02,1.287959e-01,5.878976e-01,6.069967e-02,8.215503e-02,-9.793957e-01,1.429676e-01,-7.572496e-02,6.048300e-01,4.814832e-02,3.025489e-01,1.905985e-01,1.453503e-02,-4.723407e-03,-3.077326e-02,6.909238e-02,-8.748964e-02,-4.527222e-01,6.916822e-02,
