// Neural Network File Format by Kyle Julian, Stanford 2016
7,4,7,45,
4,45,45,45,45,45,45,7,
0,
-8000.0,-100.0,-100.0,6.0,
8000.0,100.0,100.0,40.0,
0.0,0.0,0.0,23.84210526,-3.8529093497767,
16000.0,200.0,200.0,34.0,26.8591142426,
3.968991e-01,2.054128e-01,-2.221422e-01,4.228413e-01,
6.717288e-02,-1.020870e+00,-9.254921e-03,-1.078033e-02,
-1.333284e+00,4.078117e-01,-3.915396e-01,-2.097513e-01,
1.602523e+00,-6.761760e-01,6.606154e-01,1.399014e-01,
2.359996e-02,-6.180861e-01,1.238259e-02,7.015621e-03,
-1.863795e+00,2.057136e-01,-2.114379e-01,4.070112e-01,
-1.010973e-01,2.308359e-02,-2.957503e-02,1.175305e+00,
1.479308e+00,1.593229e-01,-1.583295e-01,3.464181e-01,
-3.711722e-02,5.957495e-03,1.401716e-02,6.522629e-02,
5.659941e-03,-2.904433e-04,-4.396365e-03,3.370227e-03,
-1.312685e+00,1.028112e-01,-1.044875e-01,-2.513673e-01,
7.713681e-03,-3.324801e-03,6.318022e-03,8.931961e-01,
6.236562e-01,-4.540582e-01,4.568203e-01,3.708834e-01,
-1.366467e+00,-4.046903e-02,5.220861e-02,2.141971e-01,
6.258671e-01,-5.599367e-01,5.602279e-01,-3.209648e-01,
2.932951e+00,6.727097e-02,-5.227493e-02,1.247496e-02,
-4.067381e-03,-2.170529e-03,-1.354618e-04,-5.753806e-04,
-2.993356e+00,-3.978789e-03,7.819870e-03,1.663492e-02,
-8.749334e-01,-1.085937e-01,1.090033e-01,-6.159886e-01,
-1.540840e+00,-1.879321e-01,1.984997e-01,-1.141490e-01,
-1.925264e-02,2.689924e-02,3.670028e-01,-2.115603e-02,
2.162214e+00,-7.897524e-02,8.231951e-02,3.928027e-01,
-2.672085e-02,-8.782648e-01,8.708344e-01,3.736549e-03,
-1.595111e-02,-3.083642e-03,-3.463380e-03,5.126615e-01,
9.675309e-01,-7.364728e-01,7.199625e-01,-6.058213e-03,
3.195361e+00,7.813957e-02,-7.920025e-02,-1.973200e-02,
-1.730614e-02,-3.640643e-03,-3.821287e-03,6.998003e-01,
-1.300640e-01,-3.580515e-02,-1.670464e-01,2.550052e-02,
1.657040e+00,-8.259441e-02,7.058189e-02,-1.417606e-01,
1.341731e-02,-3.490505e-02,4.506197e-03,3.401277e-02,
-1.208094e+00,-1.795611e-01,7.211388e-03,1.029849e-01,
2.593283e-01,-5.041878e-01,5.150173e-01,5.361330e-01,
9.198641e-01,-1.470594e-01,2.384666e-01,4.491150e-02,
2.449691e-02,-1.921453e-02,-2.318129e-03,-2.965783e-03,
1.636360e+00,-3.122062e-01,2.858018e-01,-2.263563e-01,
-1.850057e+00,-4.127643e-02,1.428073e-01,1.602426e-01,
-2.075310e+00,5.212912e-02,-3.548779e-02,-2.679816e-01,
1.285594e-02,-2.211141e-02,-8.969693e-03,2.695171e-02,
-2.669927e-02,2.226665e-02,-1.239438e-02,9.353666e-01,
9.757174e-01,-2.905988e-01,2.967922e-01,-4.452058e-01,
9.026282e-03,-8.894185e-01,2.507999e-03,9.138670e-03,
-2.132364e+00,1.865247e-02,4.725448e-04,7.541647e-03,
-2.869485e+00,-1.451481e-01,1.358557e-01,-2.184458e-02,
-2.806626e-01,7.614191e-02,1.585986e-02,1.482185e-01,
3.361353e-03,-3.456930e-02,-8.484905e-03,2.345265e-02,
-1.152308e-01,
-1.746620e-01,
-4.311673e-02,
1.357257e-01,
9.974026e-02,
1.446895e-01,
-8.776068e-02,
-9.706047e-02,
-6.187712e-02,
-1.712593e-02,
-1.020319e-01,
-4.004620e-01,
-3.341823e-02,
-8.967247e-02,
-1.441938e-01,
5.204307e-02,
-4.577990e-03,
2.863439e-02,
-3.454059e-01,
7.184305e-02,
-3.492375e-04,
2.371777e-01,
5.473537e-02,
-4.636523e-03,
4.370042e-02,
1.595675e-01,
-6.975981e-03,
-1.456160e-02,
-6.150468e-02,
-4.298779e-02,
-5.089058e-02,
1.683186e-01,
4.935450e-02,
-2.602045e-02,
-7.276107e-02,
1.273958e-03,
-1.890989e-01,
-3.886431e-02,
8.494765e-03,
5.290649e-02,
1.464012e-01,
9.764424e-02,
1.400638e-01,
4.331861e-02,
-3.668122e-02,
2.742826e-01,-4.498754e-01,-7.322861e-02,3.447236e-01,3.759464e-02,1.466487e-01,-9.768549e-02,-7.361162e-02,3.738953e-03,-2.332282e-02,2.453081e-01,1.313362e+00,4.488860e-01,-8.586846e-02,6.210931e-02,1.978713e-01,-4.166899e-02,1.488875e-01,1.189371e-01,7.250692e-02,-1.340234e+00,1.871234e-01,-2.621017e-01,9.529597e-02,-1.051897e-01,-2.055392e-01,9.690278e-02,-9.445902e-01,-6.167017e-01,-1.024056e-01,9.770776e-02,-2.128134e-01,3.658245e-01,8.494648e-02,8.310059e-02,5.158033e-04,5.804943e-01,-4.360944e-02,-2.703680e-02,2.314539e-01,1.217606e-01,3.099052e-01,-3.910598e-01,2.917349e-01,-1.576935e-01,
-1.137066e-01,2.877345e-01,3.649500e-01,1.123685e-01,8.713318e-02,4.628691e-02,-3.294474e-01,-1.938747e-01,1.725253e-01,-3.221256e-02,-4.305107e-01,5.437341e-01,-4.986476e-02,1.633035e-01,2.601330e-01,-8.250469e-01,4.401075e-03,-1.240728e-01,6.431949e-01,-2.896039e-01,-3.906630e-01,1.316472e-01,-1.933075e-02,5.121440e-01,-2.370231e-01,-4.497872e-01,4.561137e-01,-5.208253e-01,-1.567275e-01,-5.980732e-03,4.947094e-01,-1.620016e-01,-1.977547e-02,-1.218287e-02,5.730739e-01,2.546106e-01,-3.235434e-01,-2.540576e-03,5.481177e-01,1.531337e-01,4.867234e-02,5.276188e-01,-2.337144e-01,1.549237e-01,5.451132e-02,
-3.917914e-01,1.143294e-01,4.165848e-01,-7.620071e-02,1.345715e-01,-4.192141e-01,3.362243e-01,-3.965225e-01,-2.031566e-01,1.886686e-03,4.473456e-01,7.643393e-01,-1.356892e-01,-1.806707e+00,2.221159e-01,4.802618e-01,-1.792390e-02,6.084306e-01,2.459353e-01,-2.785217e-01,9.532382e-01,-3.632396e-02,-1.156260e-01,3.573796e-01,-1.619685e-02,-5.244802e-02,3.814388e-01,5.421813e-02,-7.398871e-02,-4.187186e-02,-1.181790e-01,-1.121852e-01,5.041058e-02,1.670559e-02,3.597631e-01,2.962113e-01,8.997495e-01,1.320765e-02,2.095150e-01,1.828138e-01,1.707062e-01,4.551091e-01,-4.766729e-01,-2.319097e-01,6.112153e-02,
2.840417e-01,3.366708e-02,-3.386546e-01,1.239277e-01,-4.696205e-02,2.748367e-01,5.898589e-01,1.520911e-01,2.052991e-02,-1.793530e-02,-5.558623e-02,1.135604e+00,-1.295445e-01,1.085558e+00,-2.094200e-01,-6.464406e-01,3.001044e-02,-5.385615e-02,-5.741792e-01,1.752702e-01,3.046362e-02,-3.360853e-01,9.015803e-02,-4.265015e-01,1.972268e-01,-2.448321e-01,-4.683958e-01,2.230453e-01,-1.669963e-01,4.098377e-02,-6.567251e-02,1.825763e-01,-2.960412e-01,3.197670e-02,-2.429136e-01,9.198018e-02,-3.874371e-01,6.749778e-03,-1.175818e-01,8.585819e-02,-5.539728e-02,-2.667336e-01,3.860744e-01,2.482577e-01,7.634820e-03,
-3.435484e-01,-1.496946e-01,2.404102e-01,-3.419270e-01,1.557612e-01,-2.467037e-01,-2.657343e-01,-5.299383e-01,5.661056e-02,1.767743e-02,-8.399094e-01,-1.016524e+00,-3.922597e-01,-9.889898e-01,5.048900e-01,5.818191e-01,-1.505009e-02,-7.234445e-02,1.682252e-01,-6.690097e-02,3.589746e-01,-6.338640e-02,4.424460e-01,5.692589e-01,-4.228371e-01,-9.386356e-02,5.138090e-01,-4.595079e-01,-1.234864e-01,-1.502076e-01,-5.044600e-02,6.899218e-02,2.284336e-01,-2.213184e-02,-7.344027e-01,5.758083e-01,-4.282412e-01,-1.292055e-01,4.039539e-01,-4.879682e-02,1.529832e-01,5.052763e-01,-2.195989e-01,7.168785e-02,-1.344703e-01,
-3.899627e-01,-2.225846e-02,5.883678e-02,-3.036959e-01,3.048520e-01,2.520941e-02,1.746994e-01,7.665929e-01,6.945235e-02,-2.160579e-02,-1.251064e-01,4.199964e+00,3.266749e-01,-1.167708e-01,3.522754e-01,3.039008e-01,-1.305438e-02,4.094406e-01,-3.794623e-01,-3.455813e-01,3.759951e-01,-4.778593e-01,-1.851339e-01,-8.827601e-02,-5.729117e-01,-2.527376e-01,1.028038e-02,-5.687155e-01,2.140630e-01,-1.534722e-01,-6.159332e-01,1.696144e-01,-1.877937e-02,-2.354293e-01,7.958586e-01,1.339345e-01,-7.166511e-03,3.499951e-02,-1.948541e-01,-3.353373e-01,3.244227e-01,2.825952e-01,-1.689365e-01,-4.759584e-02,-2.186528e-01,
-5.445750e-02,-9.360259e-02,-1.650852e-01,-1.973921e-03,1.029327e-01,-8.103599e-02,1.351326e-01,5.074803e-01,3.310122e-01,-2.489073e-02,-5.507816e-01,-1.738940e+00,5.495788e-01,1.937524e-01,-2.092978e-01,4.227457e-01,2.841224e-02,7.071859e-02,8.598549e-03,1.497153e-02,2.973438e-01,2.412798e-01,1.414853e-02,-1.372098e-01,-5.659543e-01,-3.173746e-01,-1.232956e-01,2.087146e-02,-4.801256e-01,5.544439e-01,2.151790e-01,-3.753624e-01,-6.305803e-01,1.703568e-01,-3.080821e-01,6.519377e-01,3.525217e-02,1.740075e-01,-4.796126e-02,6.194822e-01,1.230733e-01,6.752659e-02,-3.394941e-01,-1.776032e-01,3.440015e-01,
-2.602998e-01,3.533171e-03,5.882123e-01,-1.509897e-01,2.011148e-01,-5.902172e-01,5.255193e-01,-6.184810e-01,9.845728e-02,1.035853e-02,1.448758e-01,2.434909e+00,7.812109e-01,1.547205e-01,-1.226570e-01,4.484297e-01,2.830961e-02,-9.749141e-02,-4.326663e-01,1.590737e-01,-3.594895e-02,1.005528e-01,-5.164081e-02,-2.529629e-01,-2.131950e-01,-1.117632e-01,-3.151497e-01,2.268773e-01,2.876724e-01,-5.161634e-02,-3.608078e-02,2.869191e-01,-9.272166e-02,-8.466704e-03,8.551826e-02,3.863724e-01,-6.515604e-02,7.956604e-03,-1.299082e-01,-2.730099e-02,1.515259e-01,3.316091e-01,-4.779108e-02,3.234138e-02,-4.463199e-02,
2.828340e-02,-1.322104e-01,2.691015e-01,5.889993e-01,9.955475e-02,-2.697578e-02,-2.746713e-01,4.282891e-02,3.997844e-02,-3.664472e-02,1.685006e-01,-3.119667e-01,-1.020294e+00,-4.971079e-01,-5.485318e-01,1.281276e-01,-2.746054e-02,-1.134963e-02,-2.527796e-01,-1.027269e-02,2.265363e-01,-1.281667e-02,-2.299535e+00,1.352844e-01,3.164396e-01,-1.166729e-01,1.802874e-01,-2.886623e-01,2.813865e-01,-2.765045e-01,9.280390e-02,2.156512e-01,-5.216156e-01,6.721606e-02,-3.880742e-01,-3.860767e-04,2.462314e-01,1.399597e-01,2.485121e-01,9.297267e-02,8.652239e-02,-6.976726e-02,-5.786103e-03,3.927373e-01,1.728157e-01,
4.935670e-01,-5.695095e-01,1.262954e+00,4.057560e-03,5.165059e-01,8.465583e-01,-1.514105e-01,-9.412424e-02,-6.162796e-03,-3.246011e-02,-7.680576e-02,-1.786390e-01,3.817867e-02,-1.490245e-01,2.822720e-02,-3.805102e+00,3.432392e-02,1.738765e+00,-1.412506e+00,4.651606e-02,4.618869e-01,-5.510755e-01,1.046243e-01,8.789705e-02,6.379078e-02,-1.515939e+00,8.273359e-02,-5.204936e-01,-1.359348e+00,1.426028e-01,1.862551e-01,1.346925e-02,-1.445746e-01,1.164327e-01,-3.537283e-01,6.338152e-01,-2.922770e+00,2.066743e-01,9.149112e-02,-6.911359e-02,5.892987e-01,9.969904e-01,3.542594e-01,1.264874e-01,1.334510e-01,
1.446794e-01,-2.731609e+00,-9.694042e-02,6.007364e-03,9.736286e-01,-5.285648e-02,1.057849e-02,1.647898e-01,4.339799e-02,-4.477299e-02,8.341544e-02,6.894724e-02,2.004510e-01,5.878066e-02,-1.545358e-01,2.494768e-01,2.749266e-02,-2.230215e-01,1.025089e-01,1.970700e-02,5.002925e-01,-2.220787e-01,-4.996306e-02,5.177715e-02,-1.402173e-01,1.338914e-01,1.143374e-01,-6.056533e-02,2.782496e-01,1.964397e-01,2.737428e-01,3.402444e-02,4.170391e-03,1.450985e-01,9.037045e-02,-1.861899e-01,2.976228e-01,1.087365e-01,1.218339e-01,-2.600619e-01,1.207359e+00,-2.035852e-01,2.293849e-01,2.234080e-01,4.706978e-02,
1.097010e-01,1.167723e-01,-7.052004e-01,1.526276e-01,3.376815e-02,-3.047664e-01,-3.280015e-02,1.885735e-01,5.062386e-01,6.196633e-03,-4.962237e-01,-5.973929e+00,7.316551e-01,7.772980e-01,-4.322873e-02,1.066726e-01,-1.960647e-02,-5.717684e-01,-1.696097e+00,1.701581e-01,-3.595278e-02,-9.770058e-02,5.727837e-01,-2.478438e-01,3.653924e-01,-2.678348e-04,-3.773513e-01,-5.661712e-01,-1.300140e-01,6.283608e-02,-8.983059e-02,7.142975e-01,2.794798e-01,9.194755e-02,-4.057958e-01,-1.066099e-01,-4.926077e-01,5.314039e-02,-1.047221e-01,-6.667141e-02,-2.069064e-02,-8.943375e-01,4.990322e-01,1.387463e-02,-6.594996e-03,
3.743173e-01,1.755217e-01,1.689020e-01,1.286636e-01,1.831417e-01,-8.145677e-03,-3.408388e-02,6.090025e-01,1.315002e-01,1.336946e-02,-8.615424e-02,-1.865196e+00,2.029592e-01,3.572561e-01,-2.739792e-01,1.655345e-01,8.927005e-04,-1.270264e+00,6.148744e-01,-3.059357e-01,7.683806e-01,5.427513e-02,2.360078e-02,-3.774919e-02,-1.199275e-01,-1.036490e-01,-6.831962e-02,-5.207362e-02,-5.228860e-01,4.802858e-02,4.206390e-01,-1.774866e-02,1.529067e-01,1.001383e-01,-9.506893e-02,-3.875609e-01,1.082583e+00,1.441533e-01,-8.456840e-02,-2.589946e-01,1.445846e-01,3.180228e-01,-4.793993e-01,-1.280688e-01,6.261142e-02,
2.993904e-01,-3.506292e+00,7.501027e-01,1.757904e-01,1.228155e+00,2.832480e-01,-9.944659e-02,1.318408e-01,4.880905e-02,7.273332e-03,2.746417e-02,7.882231e-01,-7.929381e-03,-1.373138e-01,1.037704e-01,-1.677682e-01,3.566151e-02,4.493067e-01,5.702537e-01,-4.320889e-01,1.654922e-01,-1.858003e-02,-6.258758e-02,1.399057e-01,-8.529948e-02,-3.192319e-01,1.764894e-01,3.189286e-01,3.784696e-01,-1.081474e-01,-2.355077e-01,9.885459e-02,-8.195452e-02,-2.736602e-01,5.495263e-01,-1.005933e-01,6.841998e-03,-4.028606e-01,1.832613e-01,2.712354e-01,1.418963e+00,2.443818e-01,-2.908049e-01,2.353672e-01,-5.040734e-01,
5.766323e-02,3.311580e-01,-1.447495e-01,-2.159432e-01,5.988956e-02,-2.273575e-01,-5.581420e-02,-2.655906e-01,-1.101705e-01,2.702322e-02,1.714035e-01,2.324528e+00,5.598271e-02,-5.045165e-01,2.211789e-01,1.622911e-01,1.697695e-02,3.763821e-01,1.183447e+00,-1.973237e-01,6.876684e-01,3.751480e-01,-5.065778e-01,-7.897503e-02,-4.215444e-01,-2.968002e-01,-8.962338e-02,-7.749049e-01,-4.386678e-01,-5.341044e-02,-4.305068e-02,6.169851e-02,3.442533e-01,1.177429e-02,5.896102e-01,1.545527e-01,1.942730e-01,-3.976140e-02,1.738874e-03,2.645920e-01,1.075499e-01,4.430261e-01,-4.883043e-01,7.210511e-01,3.008980e-02,
5.632421e-02,-6.920354e-04,3.503612e-01,3.136615e-01,3.910575e-02,4.726473e-01,-3.813523e-01,-1.518500e-01,2.580747e-01,3.087894e-02,-9.135132e-01,-1.392601e+00,2.002729e-01,1.046541e-01,1.071162e-01,2.604672e-01,1.358914e-02,-2.000648e-01,2.640323e+00,-5.819153e-01,-2.090508e-01,1.985039e-01,-2.121795e-01,1.609539e-01,-6.466018e-02,-2.887207e-02,1.776054e-01,2.019820e-01,2.612784e-02,2.564497e-02,2.310448e-01,6.867978e-02,1.399488e-02,5.577948e-02,3.176706e-01,9.989333e-01,-1.022589e+00,3.538775e-02,1.526932e-01,-5.229703e-02,2.580588e-02,8.859183e-01,-7.255297e-01,1.407458e-01,2.580944e-02,
2.483164e-02,3.729684e-03,-1.577072e-01,6.022338e-01,6.827097e-02,2.654938e-01,-5.180579e-01,-4.421991e-01,5.649129e-03,4.278973e-02,-1.091733e+00,6.175610e-01,2.610357e-01,6.159698e-01,-4.353218e-01,9.032126e-01,1.883665e-02,-9.354840e-01,-2.371880e+00,-5.231384e-01,-2.036883e-01,3.926272e-01,2.696785e-01,7.681757e-01,4.005030e-01,8.652921e-01,8.235124e-01,-2.576433e-01,2.469064e-01,1.940456e-02,4.781502e-01,4.613559e-01,2.864718e-01,1.685646e-02,8.669449e-01,1.214984e+00,-5.031066e-01,7.962151e-03,5.819013e-01,8.551715e-02,2.519899e-02,1.622819e+00,-1.352469e+00,4.257829e-02,-2.815465e-02,
-2.017249e-01,-1.654507e-01,7.600778e-02,1.412268e-01,-1.084140e-02,-3.381380e-02,4.008666e-01,-9.702554e-02,-5.903365e-02,-3.343139e-02,-7.836775e-01,-5.703147e+00,-1.229610e-01,3.632349e-01,-2.151789e-01,5.195180e-02,3.469568e-02,4.932131e-01,-5.135564e-01,-2.001531e-01,9.302059e-01,6.748804e-02,-1.255875e-01,1.425304e-01,-1.070702e-01,-4.727602e-02,2.320664e-01,3.933043e-01,2.458324e-01,6.813086e-02,3.829737e-01,5.621339e-02,5.424337e-01,1.321940e-01,9.534148e-03,7.117386e-02,-5.233321e-01,2.340628e-01,1.794005e-01,-3.581302e-01,-1.029040e-02,4.433894e-01,3.329200e-02,-6.134964e-01,3.389553e-03,
1.204642e-01,-3.019046e+00,-1.157472e-01,1.032424e-01,2.420771e+00,-2.075091e-01,-9.059922e-02,-4.911610e-02,3.486351e-02,-1.971630e-04,-4.113360e-02,-2.222325e-01,8.222006e-02,9.272740e-03,1.429294e-02,3.290325e-01,-1.614138e-02,-3.201503e-01,2.583745e-01,1.365224e-02,-1.933801e-02,1.123088e-02,-7.257660e-02,3.130717e-02,-1.331820e-01,3.323419e-01,1.486379e-01,7.092121e-01,1.555749e-01,2.411803e-01,8.175006e-01,-2.032563e-02,1.792011e-01,1.671609e-01,6.830477e-02,1.295731e-01,7.570495e-01,4.052638e-01,8.594080e-02,1.605834e-02,2.643176e+00,-2.485571e-01,-1.309266e-01,-1.790164e-01,1.595895e-01,
1.052454e+00,-8.209462e-02,-2.136046e-01,-8.063120e-01,9.486097e-03,-1.390430e-01,1.744396e+00,1.017372e+00,4.205523e-01,-2.788173e-02,1.090028e-02,9.289372e-01,5.449018e+00,2.249334e+00,1.243881e+00,1.686316e-01,-4.149212e-02,-1.630103e-01,2.051228e+00,2.219305e-02,-1.040574e-02,7.190011e-01,-2.402498e+00,-4.762437e-01,-6.156091e-01,3.873695e-01,-4.438670e-01,1.686884e-01,6.098484e-03,1.189257e-01,3.920949e-01,-8.271610e-01,1.247892e-01,3.092632e-02,-5.009262e-01,6.971760e-01,6.994635e-01,-3.836077e-02,-2.935404e-01,-4.947710e-01,4.027829e-02,3.563279e-01,3.234849e-02,-1.703664e-02,-7.375624e-02,
4.475177e-02,3.814288e-01,7.888163e-01,4.475897e-02,-5.429619e-01,7.633024e-02,-3.843006e-01,3.764558e-01,3.185958e-01,1.352241e-02,4.761504e-02,-1.197229e+00,1.128197e-01,-2.243124e-01,2.994452e-01,6.968483e-01,-1.042636e-02,3.639896e-01,6.729306e-01,-2.880683e-01,4.290778e-01,3.783656e-01,-1.388133e-01,4.023024e-01,-1.206874e-02,3.023166e-01,4.282618e-01,2.748176e-01,3.265601e-02,-7.428667e-02,3.703963e-01,-7.466628e-02,1.003214e-01,-1.111836e-01,5.248943e-01,6.334260e-01,1.124990e-01,-1.541930e-01,3.236607e-01,1.701940e-01,-6.209634e-01,7.073905e-01,-3.733748e-01,2.615767e-02,-1.463687e-01,
-4.386913e-01,3.728641e-01,-3.552714e-01,-3.949550e-01,-2.347844e-01,1.950209e-02,-2.533831e-01,-3.507132e-01,3.058926e-02,-3.830201e-02,-1.354562e-02,7.267531e-01,5.209273e-01,7.727937e-02,5.034914e-01,1.180234e-01,-1.215108e-02,1.240221e-02,-6.314231e-01,8.089630e-02,6.659310e-01,-1.672421e-02,-6.937277e-02,2.195559e-01,-4.085402e-01,1.964650e-01,2.315205e-01,2.141779e-01,1.183867e-01,9.493544e-02,3.833503e-01,4.495956e-02,4.644300e-01,1.592577e-01,-2.618854e-01,-1.721202e-01,6.428061e-02,9.101798e-02,2.787884e-01,-4.084515e-01,-2.135934e-01,-1.247790e-01,3.527038e-01,7.454010e-02,1.162386e-01,
1.302118e-01,1.375119e-02,3.355871e-01,-3.969944e-03,7.121819e-02,2.576500e-01,-5.516059e-01,-1.838720e-01,1.619881e-01,3.725974e-02,2.280163e-01,-3.348153e+00,5.947262e-02,-1.026480e+00,3.208192e-01,8.877591e-01,3.569178e-02,6.865439e-01,8.855950e-01,-2.213999e-01,2.936684e-01,3.149718e-01,-3.717711e-01,3.876108e-01,-1.484697e-01,1.093441e-01,4.561550e-01,4.151114e-01,3.948662e-01,1.190260e-01,8.454520e-02,-3.063577e-01,1.130607e-01,7.288332e-02,7.427124e-01,5.167419e-01,5.054653e-01,1.930376e-01,2.833322e-01,2.320318e-01,1.857724e-02,5.799769e-01,-5.196453e-01,1.907395e-01,1.008994e-01,
9.221219e-02,-2.085204e-01,-9.240397e-02,-5.637281e-01,1.098323e-01,-2.502139e-01,-5.218187e-01,5.619518e-01,1.456572e-01,-2.158876e-02,-2.121856e-02,5.208073e-01,1.946807e-01,2.995200e-01,-3.916171e+00,1.919236e-01,-2.971966e-02,5.735971e-01,7.621236e-01,-2.471086e-01,4.792640e-01,3.522071e-01,-1.172294e+00,2.130241e-01,-5.274869e+00,-9.373266e-01,2.312379e-01,7.171392e-01,2.372084e-01,-4.239955e-02,-5.063293e-01,2.102904e-01,4.813083e-01,2.037412e-02,-5.275119e-01,-2.635945e-01,-4.084345e-02,1.171530e-02,2.373103e-01,2.113831e-01,8.534807e-02,3.374911e-02,-1.212856e-01,-2.838143e-01,7.588041e-03,
-2.033871e-01,-3.001270e-01,-7.465029e-01,1.103726e-01,-8.702138e-02,-5.335844e-01,-4.835283e-01,4.866297e-02,4.478450e-02,2.602132e-02,6.830958e-02,4.168102e-01,-2.538206e-02,-6.281425e-01,-1.014222e-01,-1.434414e-01,-2.972074e-02,8.292776e-01,-7.347054e-01,-4.941545e-02,-7.327276e-01,4.880312e-02,-4.542119e-02,3.107489e-01,-5.072827e-01,-2.856324e-01,3.498125e-01,2.105520e-01,5.753661e-01,-2.153282e-01,-1.026429e-01,2.274998e-01,5.239476e-01,4.791123e-02,3.808874e-01,6.625355e-02,-3.492795e-02,-7.959302e-02,2.021620e-01,3.782715e-01,-1.164368e-01,1.301560e-01,2.276630e-01,-2.206995e-01,-9.424109e-02,
1.549083e-01,-4.573256e-03,1.853868e-01,8.359334e-02,1.247825e-01,-5.055490e-01,-1.186181e-01,1.772226e+00,2.812437e-01,4.297538e-02,3.109572e-01,-4.063164e+00,-2.258290e-02,1.352235e+00,-4.032134e-02,-1.436929e-01,-2.883066e-02,-7.504196e-01,-2.384336e-01,-2.127717e-02,3.261465e-01,-6.058178e-01,1.805300e-01,9.153154e-02,2.139469e-01,-3.869473e-01,-1.227542e-02,1.755401e-01,-3.030845e-01,2.938554e-02,-5.791751e-01,-4.561384e-01,1.305568e-02,-8.618789e-04,2.430323e-02,-3.872915e-01,-1.047073e+00,1.387621e-01,6.569142e-03,9.829610e-02,1.014699e-01,3.757063e-02,-4.986053e-02,-8.064418e-02,3.792311e-02,
1.274453e-01,8.092374e-02,5.271213e-01,4.711125e-02,3.147134e-01,8.104843e-02,2.432018e-01,1.387601e-01,4.773898e-02,-1.481759e-02,-1.969590e-01,-2.890296e+00,-6.202170e-01,-8.071404e-02,4.434809e-01,1.455844e-01,-2.815355e-02,4.214317e-02,-1.133031e+00,-2.648048e-01,1.176857e+00,-1.013536e-01,-9.058855e-02,6.609908e-02,3.194844e-02,6.153087e-02,8.378422e-02,-5.109468e-01,-2.690414e-03,3.929209e-02,6.304402e-01,-8.087669e-02,2.926376e-01,-5.865672e-02,2.986670e-01,-9.085461e-02,-4.358170e-01,1.969693e-01,-1.189700e-01,-4.601638e-01,2.556683e-01,3.153875e-01,-3.009566e-01,-6.378541e-01,4.602623e-02,
-5.412363e-02,-9.780981e-02,9.120191e-03,-6.266244e-01,3.336494e-02,2.470969e-01,-1.077477e+00,4.561704e-02,3.268036e-01,1.175423e-02,-8.286782e-02,7.477660e-01,6.421418e-01,-4.890897e-01,5.274255e-01,5.445520e-01,4.142337e-02,7.240036e-01,3.597621e-01,3.505864e-01,-2.136739e-01,5.189790e-01,2.090670e-01,1.508207e+00,-1.570248e-01,-6.015363e-01,1.543108e+00,-4.199781e-02,-8.647696e-01,-9.944268e-02,1.400974e-01,-3.572328e-01,-8.425010e-03,-9.696828e-03,-3.107808e-01,2.996451e-02,2.126485e-01,-4.283341e-02,1.420113e+00,-6.402450e-01,8.732590e-02,3.867691e-01,7.891545e-01,2.125785e-01,-5.149553e-04,
7.713505e-02,1.121844e-01,-6.841140e-01,9.983261e-02,-1.463602e-01,7.209671e-02,3.747068e-01,2.453257e-01,2.290700e-01,1.375956e-02,6.292203e-02,3.656211e+00,-9.408007e-02,-2.321272e-01,-2.835481e-01,-1.148846e-01,2.798458e-02,-2.488378e-01,3.567839e-01,-1.106460e-01,-1.087754e-01,-2.003148e-01,1.548011e-01,-7.334680e-02,-5.889781e-02,-2.813517e-01,-1.369063e-01,2.113366e-01,-2.871135e-01,5.113306e-02,3.337496e-01,-1.647473e-01,3.131646e-01,1.216407e-01,1.807645e-02,-2.442537e-01,-8.497121e-01,8.048446e-02,-2.864493e-01,1.489043e-01,-1.641227e-01,-2.798548e-01,2.004111e-01,-2.625098e-02,5.979567e-02,
-1.497250e-01,4.751874e-01,-5.306291e-01,-3.576468e-02,-4.632994e-02,4.387176e-02,2.123682e-01,2.331177e-02,3.299089e-01,-2.147989e-03,2.342560e-01,-1.027516e+00,-1.216975e+00,-6.409064e-01,1.580932e+00,8.050677e-01,2.278151e-02,2.377586e-01,2.684927e-01,2.930273e-01,-7.907086e-02,-1.729942e-02,-1.545824e-01,-2.338245e-01,3.448987e-01,1.888362e-01,-2.108495e-01,-1.257582e-01,-1.828844e+00,1.580268e-03,3.034274e-01,-6.564477e-01,-1.405157e-01,-9.471113e-02,-7.860790e-01,4.468497e-01,7.738450e-01,-7.429547e-02,-1.385191e-01,-3.425204e-01,-2.607789e-01,-3.045524e-01,1.518600e-01,4.176907e-01,-5.539420e-02,
-1.308435e-01,-2.439730e+00,2.478501e-01,-1.572262e-01,8.225878e-01,-2.708921e-01,1.840245e-01,-3.108365e-01,1.436894e-02,9.323616e-03,2.741408e-01,8.620021e-01,3.782106e-01,1.150545e-02,3.193688e-01,2.210479e-01,-1.733639e-02,8.048452e-03,4.389359e-01,-1.024354e-01,6.458909e-02,-9.376201e-02,-1.118030e-01,1.789594e-01,-1.791498e-01,-2.849506e-02,2.076493e-01,-1.289666e-01,5.246106e-01,1.757780e-01,6.983643e-01,4.612552e-02,-1.532242e-02,4.878369e-01,2.499812e-01,2.024617e-01,3.298550e-01,2.812875e-01,2.556107e-01,-5.526690e-02,1.032078e+00,-1.099014e-01,-2.902085e-01,-1.148383e-01,6.172099e-01,
-2.714419e-01,-5.037428e-02,6.821423e-01,9.095828e-02,4.719060e-02,-3.907711e-02,-7.250392e-02,-8.047554e-01,1.328688e-01,1.352353e-02,6.758551e-01,1.855299e+00,-1.650757e-02,-1.832646e+00,2.866167e-01,5.858975e-01,-1.341118e-02,6.977664e-01,9.714690e-01,-1.336780e-01,1.337786e-01,9.283183e-02,-2.767498e-01,4.833860e-01,-1.287479e-01,-2.516854e-02,6.639478e-01,-1.590839e-01,1.391176e-01,-4.212465e-03,-7.128746e-02,-2.779014e-01,1.556635e-01,3.188485e-02,6.410146e-01,3.124876e-01,5.894044e-01,2.087557e-02,-3.029974e-01,3.557032e-01,6.934483e-02,5.034698e-01,-4.701957e-01,-9.003151e-02,2.477051e-02,
7.095630e-01,1.162449e-02,2.639705e-01,-6.494987e-01,-1.989944e-02,3.051765e-01,1.738962e+00,1.314970e+00,-1.457017e-01,-5.362009e-02,8.330560e-02,3.610378e+00,-2.819484e+00,-1.508221e+00,8.736487e-01,-1.135758e+00,3.662574e-02,8.621262e-01,-1.058479e-01,1.614552e-02,-4.549005e-03,-8.808151e-01,-3.092594e-01,-1.245236e+00,-7.249321e-01,-4.123569e+00,-1.045520e+00,2.079188e-02,-1.646028e+00,8.710224e-02,1.938620e-02,-1.314266e-01,-4.614079e-01,1.864933e-01,-1.269163e+00,1.210470e-01,5.224298e-01,7.688940e-02,-7.499718e-01,-5.595295e-01,-1.672244e-02,3.713618e-01,3.564237e-01,3.435051e-02,5.533572e-02,
8.081362e-01,-3.508950e-01,3.574483e-01,-4.384548e-01,2.445338e-01,-4.209056e-01,-5.078424e-01,-5.694653e-02,1.412167e-01,3.080249e-02,6.607267e-01,2.023561e+00,9.961700e-01,-4.784151e-01,2.141930e-03,4.327078e-01,-2.968597e-02,1.128904e-01,-5.396781e-01,-9.809297e-02,-2.170274e-02,-6.889377e-01,2.581067e-02,2.588712e-01,-2.049792e-01,4.014916e-02,2.221384e-01,9.346869e-02,7.451192e-01,-1.860967e-02,-8.179644e-02,5.076830e-01,-8.405257e-01,5.971153e-03,-3.889604e-03,2.948077e-01,4.517282e-01,-1.177494e-01,2.086847e-01,7.248753e-01,1.815787e-01,-3.588713e-02,-2.762183e-01,-4.408444e-01,-7.647814e-02,
2.205055e-03,3.241268e-02,-2.860646e-02,-3.729198e-03,-1.329415e-02,6.796159e-03,-1.099856e-02,-1.928682e-02,2.844426e-02,-1.561128e-02,2.470247e-02,7.952273e-04,-2.118393e-02,-3.378591e-02,-6.070863e-03,3.748963e-02,-8.508351e-03,1.258215e-02,2.039834e-02,-2.101955e-02,2.476236e-02,-2.870968e-02,-1.253976e-02,-1.464450e-02,-3.897313e-02,-1.916086e-02,1.463920e-02,-4.687006e-02,-3.885266e-02,2.390505e-03,-3.758585e-02,-2.281361e-02,-6.055987e-03,-4.160914e-02,3.252887e-02,-1.107403e-02,3.415191e-02,1.901746e-02,-1.494925e-02,2.171176e-02,1.217746e-02,9.816619e-03,-4.028158e-02,9.067667e-03,-5.182041e-02,
1.086449e+00,5.182484e-03,-6.144623e-01,3.932016e-01,-1.542030e-02,3.411295e-01,1.690597e+00,-2.111084e-01,2.953987e-01,1.965643e-02,-2.945177e-02,-8.352835e-02,-5.721203e-02,5.901682e-02,-7.756281e-01,-1.205058e+00,-3.040010e-02,3.173069e-01,-9.884178e-01,-6.576838e-02,-2.784589e-01,-1.233784e+00,2.380386e-01,-6.069774e-01,1.505266e-01,7.083054e-01,-6.459717e-01,4.046802e-01,1.594653e+00,9.367907e-02,3.798191e-01,8.788009e-02,2.360669e-01,-2.542877e-02,1.352928e-03,5.240775e-01,-1.158430e-01,3.545773e-02,-8.822950e-01,-3.537368e-02,-8.058478e-02,4.409367e-01,1.068937e-01,2.004725e-01,5.355052e-04,
4.771762e-01,-4.152191e-01,1.411436e-01,-6.655459e-02,1.467450e-01,7.568702e-02,-1.718165e-01,1.511844e-01,1.431327e-01,2.758544e-02,-6.307949e-01,-6.687750e-01,-9.503606e-03,-3.061418e-01,2.511214e-01,-6.809540e-01,-2.070385e-02,5.477139e-01,2.514495e-01,5.015344e-02,3.858262e-01,-7.691406e-02,-8.736110e-03,3.974588e-01,-7.212155e-03,-6.113769e-01,4.459161e-01,-3.654464e-01,-9.061642e-01,-1.448140e-01,1.384805e-01,1.423806e-01,3.460822e-02,-1.328545e-01,-3.029507e-01,-1.674002e-01,-9.414400e-01,-2.324730e-01,4.231893e-01,6.363066e-02,1.407510e-01,3.758375e-01,2.751833e-01,6.532533e-02,-1.631686e-01,
5.445345e-02,-1.843763e-03,-1.774088e-01,-2.131585e-01,2.832867e-02,3.986986e-02,9.588302e-02,-1.050427e+00,6.961114e-02,-1.299625e-02,-4.448258e-02,-9.438606e-01,-1.746040e-01,-2.662243e-01,-4.009188e-02,3.707098e-01,-2.661592e-03,-1.267271e-01,-1.741848e+00,3.311050e-01,7.428045e-02,1.205506e-01,4.734459e-01,-4.075068e-02,-2.774797e-01,2.822188e-01,7.024546e-03,1.132967e-01,-6.936738e-01,9.775607e-02,-2.377875e-01,1.048198e-02,-1.092536e+00,-1.049026e-02,-2.020948e-01,-5.207291e-01,-9.460274e-02,-8.518153e-02,1.827020e-02,-8.185540e-01,2.508754e-02,-1.047561e-01,1.929565e-01,5.674907e-02,3.591086e-02,
7.569453e-01,-3.947027e-01,-3.713530e-01,-2.218041e-01,1.630696e-01,-2.344503e-01,-7.660496e-04,6.470459e-01,1.116139e-01,-8.588125e-03,1.726512e-01,1.288217e-01,-9.289126e-01,-2.821999e-02,2.591840e-01,3.894485e-01,3.837962e-02,3.842732e-01,1.150616e-01,2.639864e-01,-1.272485e+00,1.899922e-01,2.077542e-01,1.361200e-01,-1.468594e-01,-3.186390e-01,2.858147e-01,6.619981e-01,-1.000310e+00,-6.150769e-02,-1.330347e-01,-2.370039e-01,-1.385776e+00,-2.968600e-02,-1.470308e+00,1.244889e-01,-2.504917e-01,2.096092e-01,-2.007650e-01,-3.652093e-01,1.074338e-01,5.291936e-02,2.769988e-01,-5.570714e-01,9.488118e-02,
7.410846e-01,1.924014e-01,-2.004613e+00,-2.273239e-01,-9.975644e-02,1.382862e-01,7.788312e-01,7.571183e-01,1.671640e-02,-1.536377e-02,-9.300384e-02,7.471867e-01,3.639476e-01,5.230030e-01,1.588150e-01,2.735867e-01,1.085384e-02,3.360156e-01,-1.241521e+00,1.850275e-01,4.314029e-01,-3.486831e-01,1.169144e-01,5.939954e-02,5.339771e-02,3.262716e-01,1.183504e-01,1.820814e-01,3.211479e-01,1.465006e-01,6.908219e-02,1.063047e-01,-1.024163e-01,1.314782e-01,-8.794855e-02,2.854629e-02,5.855536e-01,2.516166e-01,1.750872e-02,-1.245855e-01,-5.664522e-02,-4.434951e-01,1.881651e-01,1.437986e-02,1.734460e-01,
6.979206e-01,-8.838880e-02,-6.892362e-01,-3.211962e-02,-1.289747e-01,3.037062e-01,7.001636e-01,2.756981e-01,1.098647e-01,-6.470382e-03,-3.219352e-01,-3.479822e+00,5.189174e-01,3.576723e-01,-1.214959e-01,-1.857558e-01,3.031962e-02,-5.743675e-02,-6.047540e-01,8.641174e-02,-3.562646e-01,2.602357e-02,-1.042418e-02,-2.377017e-01,-2.259884e-01,9.847071e-02,-1.146234e-01,-1.536802e-01,2.158195e-01,6.487661e-02,2.319906e-01,-9.094469e-02,1.433967e-01,1.244218e-01,1.491889e-01,-2.131298e-01,4.549006e-01,2.085932e-01,1.071298e-01,7.244787e-03,-1.526855e-01,-3.078129e-01,1.818608e-01,1.665243e-01,5.217354e-02,
-1.093198e-01,-1.733835e+00,-9.313265e-02,-4.123113e-02,1.346733e+00,2.345174e-01,1.420583e-01,5.292205e-01,-6.427944e-02,-2.657532e-02,2.584669e-01,-1.369775e+00,3.521018e-01,1.786181e-01,-1.847132e-02,-7.673445e-02,-4.945355e-02,1.976802e-01,-8.019901e-02,1.160975e-01,-6.200232e-02,-5.905313e-02,-2.363021e-01,-7.437132e-02,2.807139e-01,-2.832584e-02,-5.373074e-02,-3.028936e-02,1.329071e-02,1.574124e-01,1.045515e-01,-2.458187e-01,2.257173e-01,2.740311e-01,2.190934e-01,6.049664e-02,5.947650e-02,2.783854e-01,-1.467202e-01,-3.702955e-01,1.476996e+00,-7.499554e-02,1.931414e-01,1.216564e-01,3.745670e-01,
-3.546135e-03,-4.287994e-02,9.203319e-02,3.758214e-01,-1.021287e-02,2.494442e-01,-3.673471e-01,1.021160e-01,-1.794321e-02,1.124420e-02,-5.007016e-01,-1.600665e-01,-6.299735e-01,-2.550076e-01,-7.235086e-02,8.341054e-02,2.586331e-02,-1.150273e-01,4.374802e-01,-2.090989e-01,-1.665829e-02,-1.833971e-01,-3.592148e-03,3.489023e-02,-1.192489e-01,2.655055e-02,1.410891e-01,-4.525132e-01,-1.519829e-01,-6.192450e-03,-1.325131e-01,-2.742188e-02,6.682707e-01,9.769663e-02,-6.570617e-02,-7.912672e-03,-5.887487e-02,-4.736367e-02,1.016254e-01,-3.943294e-01,7.889227e-02,2.968721e-01,1.087538e-01,3.682223e-02,9.934282e-03,
1.464360e-02,-9.247617e-02,-1.316451e-01,-5.955721e-01,5.379644e-02,-8.134767e-02,-1.739020e+00,3.592640e-01,3.309853e-01,2.470310e-02,-1.328041e-01,-3.493375e+00,8.915857e-01,-6.630026e-01,3.679565e-01,3.674005e-02,-2.277201e-02,5.924594e-01,9.927706e-02,4.017702e-01,-2.074578e-01,3.304004e-01,2.342239e-01,1.544101e+00,-1.414106e-01,-2.438194e-01,1.655552e+00,3.246200e-01,-5.961746e-01,-4.627593e-02,-5.568129e-02,-2.137695e-01,-2.731961e-01,-5.530938e-02,-5.757040e-01,-9.001309e-02,7.029440e-02,-1.898770e-01,1.412165e+00,-1.477943e-01,-1.290814e-02,2.169997e-01,7.086045e-01,8.170554e-02,-1.856699e-01,
5.876904e-01,-1.724207e-01,-2.939194e-01,-8.388980e-02,1.464989e-01,-2.203900e-01,-6.422956e-02,1.695050e-01,2.006662e-01,-7.057301e-03,2.371874e-01,-5.523974e+00,8.422105e-01,6.201348e-01,1.879514e-01,5.472459e-01,-1.360300e-03,-1.670820e-01,7.258479e-02,1.607178e-01,-2.180806e-01,-1.270089e-01,7.758823e-02,8.829181e-02,-4.167322e-01,6.513795e-02,4.931081e-02,1.995822e-01,5.428980e-04,2.458674e-02,-2.393507e-01,1.129514e-01,-6.281371e-01,6.453653e-02,-9.988182e-02,6.901461e-01,1.038292e-01,7.466914e-02,1.234964e-01,-1.246257e-01,1.846434e-01,2.831025e-01,2.573007e-02,-3.344699e-01,4.390502e-02,
4.119021e-03,
-6.086136e-02,
-1.819239e-01,
3.496675e-01,
-2.958780e-02,
6.264763e-02,
2.403942e-02,
-2.183115e-01,
4.560936e-02,
1.400646e-01,
-1.243857e-01,
1.794647e-01,
1.328838e-01,
-2.596457e-02,
6.348021e-03,
-4.575600e-02,
-1.197896e-01,
-3.538423e-02,
-1.796723e-02,
1.380995e-01,
4.022768e-02,
-7.544722e-02,
-1.416078e-01,
1.486369e-01,
8.777767e-02,
2.871480e-01,
-6.424416e-02,
1.133708e-01,
2.526626e-01,
-1.875350e-02,
-5.563882e-02,
-1.192668e-01,
-1.542760e-01,
-2.509904e-01,
-9.765052e-03,
-1.793009e-01,
1.401593e-01,
9.966228e-02,
1.871128e-01,
-5.651636e-01,
1.351027e-01,
-1.889907e-01,
4.142822e-02,
1.333092e-01,
-1.146333e-03,
-4.207624e-02,-2.041947e-02,1.971593e-01,-4.243749e-01,-1.753301e-01,7.956270e-02,-2.171750e-01,-1.171401e-01,-4.432341e-02,9.409501e-02,1.516276e-02,-3.704582e-01,-4.741085e-02,-7.948321e-02,1.037306e-01,1.119775e-01,7.205791e-01,-1.218468e-01,4.996851e-02,-9.933117e-01,7.454085e-02,-2.267247e-02,4.169924e-01,7.645942e-01,-8.442443e-02,-7.148985e-01,1.264059e-01,7.486471e-01,-2.814360e-01,-3.064004e-01,7.058893e-02,3.005309e-01,1.332302e+00,-1.415735e-02,-1.754003e-02,-1.048825e+00,5.760007e-02,-4.168002e-01,-2.391376e-01,-3.814372e-01,-6.406356e-02,2.003524e-02,3.721254e-03,4.197132e-01,1.268739e-01,
-1.956128e-01,-2.681829e-01,5.038521e-02,-7.717766e-02,-5.561544e-01,-4.841592e-01,-2.519639e-01,-2.751216e-01,-4.591943e-01,3.615792e-02,7.942336e-02,-4.027642e-02,5.208511e-01,-1.786198e-02,3.620648e-03,1.031508e-01,5.735658e-01,-3.137784e-01,2.209669e-01,-6.576495e-01,-1.474497e-01,-2.381314e-01,1.818221e-01,-3.296903e-01,-4.704573e-01,-6.539260e-01,-9.279628e-01,5.672576e-01,1.193484e-01,-5.707386e-01,-1.186849e-02,1.090980e-01,9.572938e-01,-1.665237e+00,4.800456e-02,-8.289129e-01,-1.467760e-02,5.816160e-01,3.776277e-02,-2.811291e-01,3.297953e-01,7.849839e-02,3.430045e-01,2.678497e-01,3.286403e-01,
8.944199e-02,-2.662367e-02,-3.016120e-02,4.925986e-02,-1.654032e-01,2.867695e-02,-2.415020e-01,1.819863e-01,1.826739e-01,5.085092e-01,4.312657e-02,-4.640657e-02,1.698556e-01,1.460013e-01,1.942144e-01,6.780501e-02,-5.870839e-01,-3.043124e-01,-3.875470e-03,7.346608e-02,9.801384e-02,-3.265747e-03,-1.149692e-01,-6.062642e-01,1.953202e-02,1.674968e-01,6.197453e-01,2.237319e-01,-3.374154e-02,-3.044135e-01,6.260815e-02,1.900184e-01,-8.866077e-01,7.654870e-01,1.702050e-02,-1.983894e-01,3.511887e-01,2.034830e-01,3.046172e-01,-3.287296e-01,-6.574179e-01,-9.837855e-02,-2.168482e-01,3.680082e-01,1.899734e-01,
3.114153e-01,-6.912368e-02,2.113235e-01,6.606545e-02,1.287349e-02,6.673362e-01,-8.183313e-01,-7.880165e-02,6.036663e-01,2.073214e-01,8.696859e-01,-1.193935e+00,5.252107e-01,-1.138314e-01,3.408002e-01,1.040331e-01,-5.981084e-01,5.230517e-02,-8.899342e-01,4.894004e-01,1.922565e-01,-3.686637e-02,2.358654e-01,2.936962e-01,-1.006532e-01,6.920798e-01,7.341098e-01,-2.795946e-02,-4.513398e-01,2.818693e-01,-1.547867e+00,-1.751369e-01,3.272345e-01,-8.874143e-01,3.554776e-02,2.295141e-01,1.135514e-01,9.324278e-01,-1.821107e-01,9.317403e-02,-3.984913e-02,-3.426283e+00,3.705378e-01,4.735795e-02,1.920242e-01,
-2.138768e-02,-5.045367e-02,1.515569e-02,-2.387730e-02,1.492355e-02,-4.158237e-02,3.856380e-02,1.579142e-03,-2.565845e-02,-9.141366e-04,6.302778e-03,4.344649e-03,1.483396e-02,-5.340965e-02,-4.565688e-02,-2.880807e-02,-5.401858e-02,3.297313e-02,-7.869440e-03,4.083756e-02,-5.314399e-02,-1.490605e-02,-3.491536e-02,-5.173338e-02,8.242544e-03,6.013673e-03,1.596519e-02,-1.532919e-02,-3.999734e-02,2.227078e-02,1.442589e-02,1.807047e-02,3.595962e-02,1.771591e-03,6.764433e-03,3.028555e-02,-4.860495e-02,1.210730e-02,-5.666725e-02,-6.333421e-05,-2.022141e-02,3.178837e-02,1.144397e-02,1.540726e-02,-4.795783e-02,
-3.205384e-03,1.483316e-01,2.419930e-01,9.796574e-02,8.002658e-01,-4.858243e-01,4.572269e-01,6.984001e-01,1.522346e-01,-1.303134e-01,3.508733e-01,-1.965550e-02,4.020463e-01,1.322287e-01,4.586445e-01,1.438334e-01,-2.504418e-01,2.718838e-01,5.701627e-03,-7.684262e-02,1.510415e-01,-8.944341e-02,-2.009051e-01,-7.845612e-02,-7.251206e-01,2.643641e-01,2.071774e-02,-1.561027e-01,4.223409e-01,-1.223755e-01,-4.803403e-02,7.997254e-02,-6.826137e-01,5.543626e-01,2.604368e-02,1.118961e+00,-2.950593e-01,5.275070e-02,-5.736011e-01,5.893836e-02,-1.657298e-01,-1.501430e-01,-3.357682e-01,5.393206e-02,7.133592e-01,
-4.392448e-03,-9.581657e-03,3.263798e-02,-2.711822e-02,-3.305208e-02,-3.887038e-02,-4.848132e-02,-4.195192e-02,2.777795e-02,-2.392326e-02,-4.540444e-02,2.378854e-04,-1.059211e-02,-4.298686e-02,3.219154e-02,1.110597e-03,1.164364e-02,-5.273912e-02,-2.540607e-02,-5.905923e-02,-6.365228e-02,-2.953331e-02,1.511766e-02,-5.710157e-02,2.290013e-02,-4.075065e-02,-1.584318e-02,2.249104e-02,-2.337136e-02,3.532873e-03,-2.015797e-02,-5.593228e-02,-3.986332e-02,-1.272771e-02,1.647499e-02,-4.689879e-02,-4.745007e-02,-5.367292e-02,-3.379012e-02,2.337194e-02,2.801146e-02,-3.024179e-02,-1.911159e-02,-5.426200e-02,3.206743e-02,
-2.772709e-01,-1.296754e-01,-1.699829e-01,3.882984e-01,-2.478253e-01,3.240949e-01,-6.743730e-01,-8.791565e-01,1.921467e-01,-7.410067e-02,7.149278e-02,-1.010092e+00,5.661003e-01,-4.713620e-02,-1.057212e+00,7.459535e-01,-3.703763e-01,-6.834943e-01,-1.750067e-02,2.605004e-01,-1.657638e-01,-7.234290e-01,-3.108181e-01,1.763683e-01,-1.230595e-01,9.555531e-02,8.566610e-01,1.547948e-01,-2.618198e-01,1.322233e-01,1.543757e-01,-1.533750e-01,5.930306e-01,-1.346450e-01,-2.979310e-02,5.136949e-02,2.938331e-01,1.049054e+00,2.397280e-01,4.882466e-01,-1.986154e-01,-1.190740e-01,-3.327554e-01,3.185089e-01,-3.922180e-01,
2.854152e-01,4.010332e-01,2.498381e-01,4.388705e-02,4.365393e-01,1.548756e-02,6.847674e-01,5.639038e-02,1.482968e-01,2.803331e-01,6.044962e-01,2.480574e-01,4.543399e-02,4.688411e-01,1.051257e-01,2.336150e-01,-2.613994e-01,-5.429268e-02,1.738609e+00,-1.266156e-01,-6.939100e-01,8.975917e-02,-1.032911e-01,2.181291e-01,2.136880e-01,2.526774e-01,-8.291491e-03,2.505513e-01,-1.122394e-02,-3.075635e-01,3.927019e-01,1.072096e-01,-1.856602e-01,7.137034e-02,-1.228328e-02,-4.734698e-01,-5.323850e-02,6.232674e-01,1.596670e-01,-5.557859e-02,-9.704537e-02,4.594721e-01,5.560734e-01,-2.128240e-02,1.383386e-01,
-1.182979e-01,-8.370049e-02,1.581320e-01,3.957081e-02,2.676881e-01,-6.884795e-01,3.829541e-01,-8.164490e-01,5.046918e-01,1.258128e-01,1.480128e-02,-3.937658e-01,1.767249e-01,-1.023260e-01,-9.457949e-01,6.681125e-01,-4.571831e-01,2.042101e-01,2.132911e-01,-9.697089e-02,2.051398e-01,-5.425216e-01,7.794660e-02,4.533412e-01,-2.243692e-01,-1.387570e-01,3.902154e-01,-2.240960e-01,-1.104845e-01,-8.717848e-02,4.583586e-02,-6.185508e-01,5.926300e-01,-1.321469e+00,4.415207e-02,-1.621994e-01,2.393996e-01,5.563893e-01,-2.139564e-01,1.083733e-01,1.543662e-01,-1.658251e-01,-2.660027e-01,1.421842e-01,3.908973e-01,
5.670929e-01,6.139746e-01,-5.624165e-02,-3.286087e-01,6.150306e-01,-4.180007e-01,3.187712e-01,7.188077e-02,2.909214e-02,-1.534740e-01,-2.724267e-02,-1.393133e-01,7.577200e-02,-1.162695e-01,3.550883e-02,2.175242e-01,2.411718e-02,4.600948e-02,1.179658e-01,-2.317322e-01,1.198963e-01,-1.647234e-01,2.416703e-01,-1.147804e-01,3.556311e-01,1.012400e+00,-1.695043e-02,2.375063e-01,1.301761e-01,-2.971475e-01,-4.619997e-02,1.374723e-01,8.611731e-01,5.843681e-01,-4.294842e-02,-3.669724e-01,5.960150e-02,8.442955e-01,-4.370692e-01,1.437154e-01,4.978076e-02,2.602212e-01,6.282960e-01,2.277151e-01,-6.859780e-02,
2.852302e-02,-5.462934e-02,-2.335607e-01,-5.636296e-02,7.891451e-01,-3.934395e-02,4.168417e-01,-6.303115e-02,8.162178e-01,-1.024300e-02,4.021192e-02,5.387322e-01,-3.178090e-01,4.890886e-02,-2.736548e-01,-2.969450e-01,-6.131250e-01,-1.900337e-02,1.448574e-01,8.153816e-02,-2.669430e-02,3.999246e-01,7.458518e-01,6.119215e-01,-3.893424e-02,1.604392e-02,-2.032470e-01,8.104819e-02,2.490245e-01,2.103737e-01,1.560869e-01,-7.301918e-01,-1.754656e-01,4.461064e-02,-3.786117e-02,2.607217e-01,1.947904e-01,6.192639e-02,-6.709188e-01,2.023242e-02,2.814894e-01,-2.755096e-01,8.060564e-01,-4.175225e-01,3.750679e-01,
1.576751e-01,3.479642e-01,4.677348e-02,-1.774098e-01,2.886321e-01,-5.487326e-02,4.019310e-01,2.425534e-01,6.196677e-02,-1.630484e-01,-1.464389e-01,-3.967510e-01,4.198584e-01,-1.914009e-01,3.548389e-02,7.235382e-02,8.032774e-01,1.332643e-02,-3.136598e-01,-1.017249e+00,2.832241e-01,5.832433e-01,1.698906e-01,8.983468e-01,5.474909e-02,5.486515e-01,5.642006e-02,6.543930e-01,-2.242346e-02,2.664302e-01,8.790869e-02,2.138704e-01,9.740356e-01,8.210274e-02,-4.619934e-02,-7.911637e-01,7.602418e-02,1.339982e-01,2.738248e-01,-6.479696e-03,-2.454235e-01,-1.132271e-01,2.481716e-01,5.796213e-01,-8.108493e-02,
-5.865837e-02,-3.575628e-02,-3.856073e-02,-2.742346e-02,-1.616150e-04,-2.126056e-02,1.237854e-02,-6.674361e-02,3.886887e-03,1.874349e-02,2.492272e-02,1.456479e-02,1.711608e-02,-7.259318e-03,2.434724e-02,2.972739e-02,-1.143010e-02,-4.744362e-02,-1.822814e-02,-1.784097e-02,1.410134e-02,-6.167878e-02,-3.958664e-02,-1.421528e-02,-3.878554e-02,-5.178007e-02,-4.052220e-02,3.955505e-04,3.226431e-02,-1.625277e-02,-1.708992e-02,1.726834e-02,-1.822864e-02,-2.521216e-02,-1.702407e-02,-6.447877e-03,-4.242029e-02,-4.552711e-02,2.073010e-02,-5.168627e-02,-3.388135e-02,-2.556043e-02,6.421094e-05,-1.135658e-02,-5.140773e-02,
6.921487e-01,-2.438807e-01,-3.087362e-02,-1.340167e-01,2.307367e-01,2.624346e-01,-8.974177e-01,-4.928115e-01,-1.888767e+00,1.840501e-01,-1.065243e-01,3.187793e-01,-2.083412e-01,-1.188064e-02,4.402289e-02,-1.477172e-02,-8.131637e-02,1.323703e-01,2.107165e-01,-5.033912e-02,3.461084e-01,5.532957e-01,-1.141775e-01,4.088831e-01,-6.776890e-01,9.143601e-02,-2.451748e-01,1.864898e-01,6.488795e-01,-6.228451e-01,-3.253796e-02,1.969456e-01,1.964295e-01,-6.339415e-01,-4.529819e-02,-1.482313e-01,-2.307545e-01,-4.846521e-01,-8.713991e-01,2.435674e-01,-5.365837e-02,-7.484730e-02,2.330998e-01,-2.207071e-01,-1.889806e-01,
-1.299305e-02,-3.149581e-02,1.623874e-02,-1.204217e-02,-5.875268e-03,-1.008168e-01,-6.819122e-02,4.316908e-02,-6.298520e-02,-2.363289e-02,-2.464040e-02,-3.006266e-02,-3.838630e-02,-2.294959e-02,5.192339e-03,-3.545189e-02,1.823725e-02,1.110556e-02,-6.067667e-02,1.255172e-02,-6.234880e-03,-8.469519e-02,-1.230737e-02,-4.501387e-02,4.473973e-02,-3.937301e-02,-1.012728e-02,-6.605118e-02,7.750736e-03,-1.083258e-01,-1.228465e-02,-3.885143e-02,4.777569e-02,-1.625167e-02,3.933245e-02,1.461896e-03,-1.938905e-02,-1.251503e-02,-5.272713e-02,-1.468379e-02,-6.517658e-02,-7.480750e-03,-1.768950e-02,-2.084421e-02,1.859438e-02,
-1.615445e-01,-4.717030e-02,-9.347093e-02,4.558119e-02,4.828143e-01,-1.365879e-01,1.463807e-01,1.085310e-01,9.396898e-01,1.424188e-01,8.587959e-02,-8.309781e-02,-7.384299e-01,-2.841930e-01,-2.380306e-01,1.379111e-01,1.625700e-01,-2.022723e-01,2.308983e-01,6.179469e-02,-9.465669e-02,-2.892259e-01,-1.940743e-01,-1.591013e-02,-2.934403e-01,5.504054e-01,-7.258804e-01,1.830951e-01,5.706989e-01,1.166806e-01,-1.720338e-01,3.089574e-01,4.367169e-01,-2.471143e-01,-3.991385e-02,-2.001865e-01,-1.497968e-01,-3.244455e-01,-4.690608e-01,1.291889e-01,-1.057480e-01,-8.239827e-02,1.175991e-01,-5.315408e-02,-2.708311e-02,
-8.257578e-02,3.431147e-03,-3.276519e-01,1.223375e-01,-3.681520e-01,-4.743932e-01,-1.559437e-01,1.183844e-03,-1.833020e-01,1.070554e-02,1.028760e-01,4.292128e-02,3.232495e-01,-4.241698e-02,1.894119e-01,-2.972634e-01,7.385156e-02,6.891811e-02,-1.554595e-02,-1.461195e-02,-3.437511e-01,1.073822e+00,2.593945e-01,9.361844e-01,9.068079e-02,-1.564358e-01,-3.086464e-01,7.898871e-02,-2.295776e-02,-1.152114e-01,-1.130023e-01,1.832905e-01,-4.782766e-01,5.994681e-01,2.624614e-02,-4.616694e-01,-5.004505e-02,4.801818e-01,-5.257481e-01,-1.857307e-01,4.813170e-01,-8.060344e-02,5.180638e-01,1.196724e-01,3.995896e-01,
-1.041936e-02,5.536580e-03,-1.088669e-02,-2.184171e-02,-1.436898e-02,3.005790e-02,-6.739588e-03,-3.894508e-02,-4.029647e-02,-4.159219e-02,-1.771043e-02,-5.535731e-02,1.102048e-02,-5.741009e-03,-5.685926e-02,-5.359996e-02,-9.787069e-03,-1.330923e-02,3.138585e-02,-4.759615e-02,-1.122906e-02,3.102837e-02,-4.426434e-02,-3.623573e-02,-3.724384e-02,3.183204e-03,6.450150e-03,-3.486001e-02,-3.200779e-02,4.768780e-02,2.240931e-02,2.026811e-02,-1.680504e-02,-1.113696e-02,-3.904292e-02,4.883747e-02,1.686735e-02,2.308750e-02,-5.056613e-02,-5.343484e-02,-7.694323e-03,-3.960700e-02,2.062604e-03,-3.082896e-02,-4.576118e-02,
-5.140295e-02,5.969255e-03,5.470464e-03,3.360163e-02,-8.984490e-03,-1.657729e-02,1.793241e-02,-2.102933e-02,-1.333801e-02,-2.876932e-02,-1.198980e-02,-2.084522e-02,3.220867e-02,-1.763743e-02,-3.935672e-02,-4.590971e-02,-1.785517e-02,-2.432690e-02,1.432099e-02,-2.085195e-02,-1.944779e-02,-4.757733e-02,-5.241107e-02,8.209670e-03,3.752055e-02,-5.072311e-02,-3.478464e-02,1.681331e-02,2.202950e-02,2.591497e-02,3.049369e-03,-2.376757e-02,-4.267908e-02,-5.339417e-02,-1.513739e-02,4.217591e-02,-1.009964e-02,-1.663348e-02,-1.797530e-02,-4.793836e-02,-2.181967e-02,-1.911830e-02,-2.081195e-02,-3.356434e-02,1.903309e-02,
2.735081e-02,-1.247429e-01,-1.296933e-01,-2.789307e-01,-1.506578e-01,-2.312998e-01,-5.270289e-03,3.947286e-01,-2.492535e-02,6.050037e-02,6.249560e-02,-3.793384e-01,-1.317800e-01,4.699380e-02,5.850959e-02,2.705844e-02,8.140825e-01,3.629226e-01,1.504598e-01,-1.063340e+00,1.453508e-01,-2.204087e-01,2.572211e-01,-2.427960e-01,-4.428661e-03,-3.833683e-01,-6.815043e-02,7.865746e-01,-1.345008e-01,-4.504996e-02,-1.076390e-01,2.169221e-01,1.626500e+00,4.185243e-01,-4.205334e-02,-5.926939e-01,2.321692e-01,-3.165267e-02,2.841768e-02,-3.372434e-01,8.699616e-02,1.325105e-01,1.421938e-01,6.386654e-01,4.032353e-02,
-5.387387e-02,2.535283e-02,-3.738549e-03,-9.015179e-03,-4.399293e-02,-4.520265e-02,-5.932709e-02,9.362598e-03,1.976304e-03,-3.334724e-02,2.848484e-02,1.409778e-02,6.809565e-03,-2.943808e-02,-1.883895e-02,-3.720943e-02,-1.596538e-02,8.871237e-03,2.906535e-02,1.990094e-02,2.411782e-02,2.071607e-03,-3.545100e-02,-7.817819e-03,-5.912801e-02,-3.264543e-02,-5.684167e-02,1.905116e-02,-3.322066e-02,8.075040e-03,2.860881e-02,-2.798771e-02,1.411135e-03,-3.137976e-02,1.832652e-02,1.085170e-02,1.520709e-02,-2.681989e-02,-2.415038e-02,-3.656786e-02,-2.138705e-02,-4.303177e-02,7.173778e-03,-5.326544e-02,-5.337306e-02,
-1.097762e-01,-2.987282e-02,-9.019294e-02,-3.631046e-01,-2.753167e-03,6.237062e-02,7.320541e-02,-3.920230e-01,1.082303e-01,2.410391e-01,-6.745593e-02,-4.101754e-01,-1.818422e-01,-3.743321e-02,-2.129727e-02,-3.245424e-02,7.590585e-01,-8.854757e-02,6.378680e-02,-9.926778e-01,7.119959e-02,-2.038526e-01,3.069894e-01,3.734324e-01,-1.456707e-01,-6.419665e-01,-2.413957e-02,4.956079e-01,-3.518051e-01,-1.292306e-01,-2.131184e-02,2.998933e-01,1.253171e+00,1.465427e-01,3.524482e-02,-9.110852e-01,1.397930e-01,-5.733951e-01,-4.217562e-01,1.041248e-01,-7.402350e-02,-4.196785e-02,-1.076026e-01,2.307448e-01,1.538393e-01,
2.294776e-02,2.520702e-02,-3.095037e-03,-5.336746e-02,-1.725458e-02,-4.173407e-02,-3.443634e-02,2.404850e-02,-4.547380e-02,-5.151258e-02,-5.061693e-03,1.809967e-03,6.372711e-03,-2.028789e-02,3.134507e-02,9.965573e-03,-3.420365e-02,-3.839511e-02,-1.761252e-02,-1.350060e-02,-3.709926e-02,-1.187324e-02,-1.583347e-02,-4.802274e-02,3.437844e-02,-9.375066e-03,1.901565e-02,-3.941021e-02,-2.406618e-02,4.362128e-02,1.950611e-03,1.934253e-02,-4.906015e-02,-5.164938e-02,3.577230e-02,4.680054e-03,5.208577e-03,4.347878e-02,-5.664848e-03,-5.475466e-02,4.237850e-02,-1.235824e-02,4.063709e-02,2.047801e-03,2.649166e-02,
-1.198997e+00,-3.656991e-01,-6.035298e-01,-2.234556e-02,-4.630938e-01,-3.673438e-01,9.138693e-01,-1.402130e+00,9.308754e-01,2.235311e-01,-1.438201e-01,-2.125687e-01,2.960757e-01,1.696797e-01,-7.242634e-01,-1.789171e-01,7.179127e-02,-8.281395e-01,6.296012e-03,2.732469e-01,-5.725538e-01,4.775070e-01,-2.546645e-01,6.113731e-01,1.879577e-01,-1.186788e-01,8.672592e-01,1.670610e-01,2.782395e-01,-4.134241e-01,-4.531447e-01,-4.367239e-01,-2.958156e+00,-1.515775e+00,1.066395e-02,-1.616881e-01,-1.710274e-02,1.348187e+00,3.961145e-01,6.131241e-01,6.440237e-02,1.451206e-01,1.371981e-01,4.879896e-02,-2.840491e-02,
-8.689614e-02,-2.854615e-01,-1.235598e-01,-4.831920e-01,-2.371226e-01,-7.818576e-02,8.076207e-02,-1.236950e-01,-2.786222e-02,2.190242e-02,-1.796058e-02,-4.062435e-01,2.482338e-02,3.816432e-02,-1.629171e-01,1.002792e-01,7.580166e-01,1.297042e-01,-2.690545e-03,-9.516813e-01,1.356321e-01,-2.253364e-01,2.994612e-01,1.096148e-01,-3.015432e-02,-2.822943e-01,9.142134e-02,8.133705e-01,-5.450086e-01,-2.359716e-01,-3.546394e-02,1.881022e-01,1.355239e+00,2.455628e-01,1.123457e-02,-9.506765e-01,-1.699892e-02,-8.680598e-02,1.381377e-01,-3.377858e-01,1.417273e-02,-2.567377e-02,-5.138936e-02,4.600656e-01,-1.536425e-01,
2.019791e-02,1.078155e-01,-1.986338e-01,3.065567e-02,-5.000859e-01,5.963195e-02,8.768258e-01,-4.973421e-02,5.334473e-01,6.833554e-01,1.034108e-01,4.284959e-01,-2.913403e-01,-1.379787e-02,2.465013e-02,-2.306328e-01,1.322680e-01,3.548721e-01,-1.868387e-01,-2.374840e-01,3.141607e-01,7.544558e-02,2.504829e-01,1.705328e-01,-3.054924e-01,-6.503351e-01,4.601882e-02,4.946532e-01,-1.205953e-01,-1.050285e+00,-1.025281e-01,2.385986e-01,6.017982e-02,-1.074036e-01,-2.725246e-02,-1.276996e+00,-9.487415e-02,3.664274e-01,-2.097484e-01,-7.341544e-02,3.118393e-01,-1.707939e-01,8.627145e-01,1.033797e-01,-1.761895e-01,
-1.853087e-02,1.292923e-02,-3.108548e-02,1.366707e-03,-1.855042e-02,-2.204408e-02,-3.424196e-02,1.846588e-02,-3.043764e-02,-4.484304e-02,-1.045686e-02,8.169184e-03,-1.517305e-02,3.457542e-02,-3.199500e-02,-6.327708e-02,-3.835915e-02,2.220988e-02,3.448460e-04,-3.138140e-02,-3.441444e-02,-1.470435e-02,-2.778086e-03,-5.872840e-02,-5.763224e-02,-4.468146e-02,-1.982065e-02,6.512692e-03,-1.369714e-02,-4.796246e-02,3.214939e-02,-2.674318e-02,-5.241457e-02,-4.584964e-02,2.518213e-02,-3.315831e-02,3.300279e-02,1.716105e-02,-1.417450e-02,2.913935e-02,-4.905242e-02,9.070399e-03,8.147325e-03,-5.364177e-02,-3.812378e-02,
1.911240e-01,2.974262e-01,2.102198e-01,-3.776693e-01,1.920457e-01,3.699935e-02,2.254732e-01,2.442790e-01,2.274005e-01,8.131713e-02,2.088512e-02,-6.306203e-01,-2.350032e-02,6.559423e-02,1.704839e-01,2.002879e-01,9.950137e-01,-2.037458e-02,-5.969278e-02,-1.094028e+00,3.134703e-01,-1.968873e-02,5.016593e-01,6.870498e-01,1.860171e-01,2.325322e-01,9.851520e-02,1.033410e+00,-1.654004e-01,3.627613e-01,3.977206e-02,3.771343e-01,1.695577e+00,3.513218e-01,4.224483e-02,-8.011423e-01,1.208238e-01,-1.162308e-01,5.178754e-01,-5.572897e-01,-3.619344e-02,-8.214509e-03,-1.619604e-02,7.630771e-01,-6.497872e-02,
1.760738e-01,-9.388031e-01,1.371324e-02,-8.957406e-02,8.943124e-01,2.253063e-03,-3.653289e-02,1.011162e+00,5.698997e-02,4.695267e-01,3.055725e-01,-9.006743e-01,-4.708023e-01,1.560326e-01,-1.466189e-01,-5.609009e-01,2.613217e-01,-6.214897e-02,-1.726452e-01,1.584276e-01,1.032187e-01,2.121682e-01,-5.725604e-03,6.331475e-01,-1.651565e+00,1.365648e-01,-3.973731e-01,-4.658953e-02,3.239080e-01,-2.320501e-01,-1.091112e-01,1.871656e-01,-2.058461e+00,-1.162941e-01,3.373944e-02,-4.551727e-02,-7.080150e-02,6.119465e-01,1.515600e-01,-2.247397e-01,-3.711889e-01,4.056806e-02,7.340469e-01,-6.430995e-02,-8.813160e-02,
-9.304096e-02,1.951196e-01,2.692355e-01,1.345743e-01,-5.337731e-02,-1.256541e-01,-2.387697e-01,2.670190e-01,1.010099e+00,2.652332e-01,5.334975e-01,-1.457328e-02,-3.585073e-02,1.585636e-01,3.828231e-01,3.681121e-01,-7.180906e-02,-1.131181e-02,3.448707e-01,7.772148e-02,-4.431520e-01,4.449436e-01,-7.325184e-02,1.890411e-01,2.008728e-01,-9.214155e-02,-1.846224e-01,1.353340e-01,-6.219430e-01,1.744084e-01,-8.881271e-03,2.793945e-02,1.544683e-01,-1.760640e-01,3.225619e-02,-5.558793e-01,-1.677775e-01,8.150018e-01,2.290898e-01,-4.591645e-01,2.022584e-01,-7.328450e-01,2.310281e-01,-2.539057e-01,3.366590e-01,
-1.484849e-02,-1.383290e-02,-3.182788e-02,3.983167e-02,4.304808e-02,7.443722e-02,9.545459e-03,-7.973960e-03,3.626193e-02,1.780359e-02,3.461197e-02,-8.529838e-03,2.895036e-02,-6.336313e-02,-3.429383e-02,-3.916236e-02,-5.845341e-02,8.287573e-02,-5.965556e-03,-7.411177e-02,-6.568738e-02,-3.442840e-02,1.799142e-02,2.557452e-02,-5.965467e-02,1.662198e-02,3.930524e-02,-4.204179e-02,-5.388278e-02,6.632006e-03,-4.969375e-02,-4.421679e-02,-4.366316e-02,5.558163e-02,2.704422e-02,-1.014060e-01,-3.752935e-02,5.149683e-02,2.695787e-02,1.662849e-02,-9.037923e-03,-9.306282e-03,-1.120766e-02,-4.163077e-02,-4.126282e-02,
4.670485e-01,1.734045e-01,-8.851230e-02,-3.624389e-01,3.907857e-01,1.584919e-01,-3.291601e-01,5.018956e-01,5.354936e-01,1.780618e-02,4.392285e-01,-5.465156e-01,-6.494858e-01,-4.649558e-02,-1.306218e-01,3.702095e-01,1.880882e-01,2.311969e-01,2.802992e-01,-2.527778e-01,-8.789395e-02,-1.512107e-01,-7.129441e-01,1.818749e+00,2.970752e-01,1.484247e-01,-5.226624e-01,1.053213e-01,4.198403e-01,2.842789e-02,9.123421e-03,9.228013e-02,1.495578e+00,5.538229e-01,-1.006941e-02,-6.786914e-01,-4.081283e-02,2.220533e-01,-5.506355e-01,2.397271e-01,5.632229e-01,-2.128772e-01,2.079636e-01,-1.160526e-02,-2.977492e-01,
-4.259256e-02,-7.622879e-02,-7.944448e-02,1.015107e-01,1.544228e-01,-9.439041e-03,-3.377806e-01,2.546044e-01,1.138832e-01,-5.265582e-03,3.412847e-01,-3.984448e-02,8.730038e-03,6.336801e-01,-5.553872e-02,-4.680129e-02,-1.055853e-01,-4.365044e-02,1.284423e+00,-1.412263e-01,-5.466953e-01,-1.313218e-01,-5.873623e-03,2.078596e-02,-2.177693e-01,-6.421829e-02,2.220827e-01,1.104725e-02,-2.730837e-01,-1.985740e-01,4.262286e-01,-1.609929e-01,-1.212989e-01,-6.988557e-02,-3.147662e-02,-1.931139e-01,1.570747e-01,-7.018307e-01,2.172700e-01,3.729964e-02,-2.445330e-01,1.279401e+00,-1.756177e-01,1.797759e-02,4.277110e-02,
-1.181267e-02,-7.441692e-02,-5.848607e-02,-9.832686e-04,9.878833e-03,-3.973759e-02,-4.123586e-02,-7.792296e-02,-3.434418e-02,1.807455e-03,1.822782e-02,-4.208156e-02,-4.223186e-02,-2.650425e-02,-7.022499e-02,8.386363e-03,-5.407375e-02,2.888280e-03,-2.362247e-02,-8.308130e-03,1.784149e-02,1.352016e-02,-1.875959e-02,-2.804110e-02,-5.608847e-02,-7.047957e-02,-2.976749e-04,9.274710e-03,-5.810170e-02,3.240807e-02,-1.441297e-02,-5.829770e-03,-6.474148e-02,-7.235416e-02,3.395455e-02,-3.030473e-02,1.006377e-02,-6.033433e-02,-6.008384e-03,-2.238274e-03,-3.380487e-02,1.837920e-02,-4.576461e-03,1.989848e-03,-7.231309e-02,
4.293256e-02,2.836359e-04,-2.091782e-03,6.243126e-03,-2.006249e-02,-3.080462e-02,-5.275946e-02,-1.316748e-02,-4.962400e-02,-3.252753e-03,-5.713852e-02,1.000085e-02,3.632406e-03,9.820817e-03,-5.162789e-02,1.973021e-02,-4.308996e-02,-3.244966e-02,-2.419037e-02,2.684593e-02,-3.762664e-03,2.924276e-02,2.892397e-02,4.720361e-03,-1.446874e-02,3.155516e-02,-8.065421e-03,-4.092772e-02,-5.913496e-02,1.680025e-02,-3.561302e-02,-4.222392e-02,-2.931299e-02,2.374260e-02,1.814475e-02,1.891621e-03,-3.168433e-02,-4.415473e-02,5.563047e-03,-4.946467e-02,-2.188513e-02,-1.217241e-02,-1.851618e-03,2.877178e-02,7.899510e-03,
-6.135679e-02,-5.879980e-02,-4.708402e-02,-2.484007e-02,-1.366367e-02,-4.920068e-02,-4.757147e-02,-4.737885e-02,-3.736534e-02,-6.033915e-02,2.617865e-03,-1.157530e-02,1.000761e-02,-1.774633e-02,-1.908894e-02,-4.755555e-03,6.162255e-03,-6.761144e-03,1.899740e-02,-1.725050e-02,2.818128e-02,-2.923543e-02,-3.475440e-02,2.566467e-02,-5.096534e-02,-3.251676e-02,-1.487260e-02,-5.263645e-02,-7.029472e-02,-4.867733e-02,-7.174263e-02,2.232450e-02,-4.877639e-03,-6.981513e-02,3.360960e-02,3.505360e-02,1.355192e-02,2.303081e-02,-1.937833e-02,1.901997e-02,-2.170627e-02,-1.515322e-02,-5.952549e-02,7.211183e-03,1.293724e-02,
-6.330787e-02,-4.394806e-02,3.638451e-03,1.391692e-02,1.344996e-02,-1.847439e-02,-5.535415e-02,-9.053934e-03,-6.697906e-02,-4.289919e-02,-6.647463e-02,-3.545145e-02,-4.595980e-02,1.068948e-02,-2.765997e-02,-6.419797e-02,3.727597e-03,2.269207e-02,-6.517246e-03,-1.174577e-02,1.102820e-02,1.691740e-02,5.874084e-03,2.155505e-02,-3.426129e-02,-3.728759e-02,-3.150450e-03,-1.321202e-02,1.085284e-03,2.155459e-02,9.241521e-03,1.212271e-02,-2.373687e-02,-2.062700e-02,7.232429e-04,-4.959410e-02,-3.041240e-02,1.599458e-02,-4.369194e-02,-3.160501e-02,-5.508285e-02,-9.767574e-03,-6.000347e-02,-1.264636e-02,-1.689938e-02,
-5.583600e-02,1.399858e-02,-3.446394e-01,1.273062e-01,-2.092241e-01,-8.106387e-01,-6.200986e-01,4.911092e-02,-7.457809e-02,1.848653e+00,3.299623e-02,2.562848e-02,-5.863497e-01,-8.283032e-02,6.896544e-01,4.430219e-03,-8.225222e-01,1.286074e-01,2.305965e-01,-2.417747e-03,1.906449e-01,5.256615e-01,-3.676425e-02,2.893159e-01,2.765993e-01,-1.058597e-01,-2.850731e-01,2.217300e-01,2.172782e-01,-3.239049e-01,2.257831e-02,-4.235706e-02,-1.859202e+00,-1.739646e+00,1.278714e-02,-1.667465e+00,1.492093e-01,1.879892e-01,-3.468309e-02,-1.478654e-01,2.204121e-01,1.670909e-01,1.361601e-01,1.110467e-02,-5.054848e-02,
1.223557e-01,5.694014e-04,-4.161402e-01,-1.228468e-01,-5.277818e-01,8.495029e-02,-2.603935e-01,-4.214246e-01,3.216825e-01,8.711090e-02,2.409851e-02,-1.699288e-01,-2.953532e-01,-1.427024e-01,2.384085e-02,-5.018179e-01,4.983295e-01,-6.082025e-01,1.940615e-01,-2.677332e-01,-5.739724e-02,4.894866e-01,-1.238691e-01,1.185718e-01,1.334168e-01,-3.448323e-01,-5.411450e-01,3.311729e-01,9.710596e-02,-6.136720e-01,3.880235e-02,-9.106743e-02,8.838103e-01,6.530324e-01,-1.472733e-05,-4.582018e-01,8.309520e-02,2.260122e-01,-4.235663e-01,1.477581e-01,3.317792e-01,1.115210e-01,1.014678e-01,-3.052278e-02,1.462887e-01,
-3.855797e-02,1.104840e-02,2.225028e-02,-6.081794e-02,-2.714527e-03,-4.678097e-02,9.778451e-03,-1.508450e-02,3.290990e-02,1.485560e-02,3.563524e-02,2.118129e-02,-2.989927e-02,-2.650397e-02,-4.291064e-02,-4.030415e-02,-1.067094e-02,1.744938e-02,-2.981700e-02,-6.215043e-04,-3.955930e-02,1.097692e-02,-2.625823e-02,-2.922580e-02,2.833328e-02,1.389404e-02,-4.276159e-02,-5.982731e-02,2.931823e-02,1.664970e-02,3.410422e-02,-5.854442e-02,9.752867e-03,-2.441616e-02,-8.881586e-04,2.894180e-02,-2.977461e-02,-1.000147e-02,-6.045043e-02,-3.177730e-03,-1.113644e-02,1.176047e-02,-7.100923e-03,-2.016021e-02,-1.513035e-02,
-3.341389e-02,-2.801345e-02,1.996130e-02,-1.417237e-02,-4.138990e-02,-6.503762e-03,-2.056721e-02,2.815581e-02,-1.871453e-02,-1.514274e-02,2.614103e-02,9.215258e-03,-7.805529e-03,-6.310638e-02,-3.105541e-02,-2.345488e-02,-1.729512e-03,-3.659498e-02,-3.527284e-03,2.865887e-02,-2.091796e-02,-3.532740e-02,-1.593748e-02,6.339786e-03,-3.864938e-02,3.288187e-02,-4.779578e-02,9.613879e-03,-1.810263e-02,1.840454e-02,2.341770e-02,-1.308003e-02,3.952614e-02,-5.470986e-02,-2.805116e-02,9.666985e-03,5.747047e-03,-1.459193e-02,-1.399873e-02,-3.067257e-02,-5.990306e-02,1.957783e-02,-6.581283e-02,-5.686707e-02,-5.744131e-02,
5.499716e-01,2.153064e-01,3.735779e-02,-4.941625e-02,9.916050e-02,-3.000134e-01,5.351033e-01,5.820552e-01,-6.996967e-01,6.756801e-02,4.940362e-01,-2.038379e-01,4.585240e-02,1.831042e-01,3.612362e-01,8.638715e-03,1.089814e-01,-1.512175e-01,-6.158708e-02,1.478590e-01,-1.152797e-01,1.494922e-01,-2.813849e-01,-1.049747e+00,1.179196e-01,3.279205e-01,1.773100e-01,9.781659e-02,1.081188e-01,-5.575359e-01,1.973947e-01,-6.191536e-02,1.253798e-01,2.301196e-01,3.299497e-02,-4.745961e-02,9.209016e-02,1.577082e-01,4.261983e-01,-5.371907e-02,-3.925498e-01,-3.673756e-01,7.676415e-01,-6.295530e-02,1.953140e-01,
-6.752427e-01,-5.084674e-01,-4.066760e-02,2.592836e-02,-4.058945e-01,1.611522e-01,1.002687e+00,-4.504592e-01,-3.370522e-01,1.237215e-01,1.158775e-01,-1.702636e-01,3.683250e-03,-5.546159e-02,9.848060e-01,2.156060e-01,3.644713e-01,-1.565240e-01,-2.797215e-02,1.501530e-01,-2.574978e-01,-5.757927e-01,-3.417925e-01,8.822614e-01,-2.914003e-02,9.961590e-01,5.404713e-02,3.750609e-01,-2.262702e-01,-2.218052e-01,1.561748e-01,-3.200226e-01,2.859466e-01,-4.453656e-01,1.258224e-02,-9.651255e-02,-2.082043e-01,-9.934884e-02,-4.675689e-01,3.543433e-01,-6.629603e-01,-7.686219e-03,-3.092124e-02,-1.626168e-01,-4.032289e-01,
-2.847299e-01,-1.589336e-01,-4.387338e-02,-2.050298e-01,-3.718948e-01,-4.977547e-02,-3.176796e-01,2.348945e-01,-2.630679e-01,1.800116e-02,-1.311456e-02,-1.877338e-01,1.057887e-02,4.284842e-02,-1.417131e-01,-5.470115e-02,8.188522e-01,1.167072e-01,2.196554e-01,-9.617566e-01,9.090502e-02,3.073425e-02,1.558205e-01,-6.869715e-02,-8.286107e-02,-4.690209e-01,1.412738e-01,6.220647e-01,-1.065631e-01,-4.185711e-01,-2.660417e-02,2.044924e-01,1.283073e+00,6.139198e-01,-1.390754e-02,-6.070604e-01,1.267558e-01,-2.277599e-01,-2.366051e-01,-7.298096e-02,-1.009780e-01,1.717024e-01,-3.182365e-03,3.136923e-01,-3.378528e-02,
-3.882190e-01,
-2.714311e-01,
2.883314e-01,
-1.678244e-02,
-9.385035e-03,
1.269428e-01,
-9.790510e-03,
1.243634e-01,
2.501313e-02,
2.651169e-01,
-3.119849e-01,
9.740861e-02,
9.010672e-03,
-1.165281e-02,
1.066330e-02,
-2.026400e-02,
-5.964979e-02,
-4.614591e-02,
-1.021695e-02,
-2.147628e-02,
-2.910869e-01,
-2.648160e-02,
-3.041448e-01,
-6.092936e-03,
1.123233e-01,
-3.738457e-01,
3.469355e-01,
-1.521795e-02,
-3.054504e-01,
-8.936719e-02,
-1.210260e-01,
-1.406593e-02,
-5.597923e-02,
-4.978568e-01,
-1.846056e-02,
-1.041837e-02,
-2.042451e-02,
-2.537233e-02,
-1.949932e-01,
-8.975907e-02,
-1.218016e-02,
-2.357113e-02,
6.350446e-02,
-1.072150e-01,
-3.301034e-01,
3.206515e-01,1.577135e-01,-2.332275e-01,-5.981571e-01,2.244306e-02,3.468322e-01,-4.395834e-02,1.061150e+00,3.055950e-02,-1.179408e-01,2.141711e-01,-3.824735e-01,-1.002875e-01,1.978442e-02,-2.617109e-01,9.611099e-02,-6.532888e-02,6.662898e-01,4.459302e-02,-3.003831e-02,-8.304270e-02,2.617731e-03,2.269347e-01,-1.613696e-02,-9.466101e-02,6.434732e-02,-9.656320e-02,1.435904e-02,-2.458827e-01,2.314338e-02,-3.017146e-02,-4.169548e-02,-1.891374e-01,-2.967421e-02,5.046151e-03,-4.001952e-02,-4.904710e-02,-3.906155e-02,2.366460e-01,-1.087993e-01,9.060845e-04,3.736615e-02,-8.746639e-02,4.322100e-01,-9.305253e-02,
-2.246663e-01,-1.142942e-01,1.210422e-01,-6.378154e-02,5.726090e-02,1.127921e-03,2.035491e-02,-2.021433e-01,1.832319e-01,5.029868e-01,-4.327841e-02,1.148160e-01,-7.292017e-02,1.434764e-02,-2.368498e-01,-2.392012e-02,3.054456e-01,3.318270e-01,1.204558e-02,-6.124229e-03,9.931616e-02,2.900836e-02,2.046270e-01,2.636431e-02,-1.095192e-01,5.645548e-02,2.006160e-01,3.898089e-02,2.579698e-02,-1.270511e-01,-3.948567e-02,-2.005102e-03,2.411558e-01,-1.785700e-01,-2.092520e-02,2.746248e-02,1.145076e-02,4.104601e-02,-1.194362e-01,-2.046239e-01,-9.650710e-03,-1.900139e-02,-4.836681e-01,-5.033403e-02,-1.430424e-01,
1.827828e-01,-1.609610e-01,-3.530513e-01,-6.473235e-02,1.774032e-02,-1.165028e-01,-2.963840e-02,-6.903995e-01,1.216679e-01,-2.537192e-01,-1.223475e-01,-5.195788e-01,-1.473253e-02,-3.930232e-02,-3.282957e-01,-2.125579e-03,8.365888e-02,-1.382747e-01,-2.154200e-02,-2.720710e-02,1.777899e-02,2.968961e-02,7.533277e-02,-1.502334e-02,4.762802e-02,-1.728789e-01,3.059433e-01,-1.159629e-02,-8.082185e-02,-3.771562e-01,-6.298196e-02,-2.638612e-02,7.210572e-02,-7.310538e-02,-2.249404e-02,-2.584929e-02,-9.425317e-03,3.223693e-02,1.479718e-01,1.634591e-01,-3.688187e-03,1.446376e-02,3.975062e-02,3.706211e-01,-4.992457e-02,
1.278257e-01,-2.870921e-01,-3.483081e-01,2.340597e-01,-2.134024e-02,8.062604e-01,3.120964e-02,-5.234586e-01,4.702882e-01,-3.417956e-01,-4.678300e-01,8.260781e-01,3.364352e-02,4.576090e-02,5.459644e-01,3.132590e-03,3.579097e-01,1.091142e-01,2.977163e-02,2.776712e-03,-2.390327e-01,-2.416731e-02,1.041540e-01,-1.198724e-02,-2.861679e-01,4.499614e-02,1.077685e-01,-3.481730e-02,6.677713e-02,8.784031e-01,1.678732e-02,1.717490e-02,-1.938066e-01,-6.347319e-01,-1.372290e-02,-3.339135e-03,5.615886e-02,3.922367e-02,1.602976e-01,4.107934e-02,4.378187e-02,-2.583669e-02,4.176639e-01,1.814708e-01,-4.346072e-02,
1.478371e+00,3.285307e-01,-2.390364e-01,-1.528278e-01,3.288000e-03,-2.094755e-02,-1.525006e-02,-1.441392e-01,-1.153817e-01,9.902209e-03,2.699530e-01,3.998940e-02,3.312042e-01,-2.630186e-03,-1.201513e-01,6.630075e-03,-5.280899e-02,1.387288e-01,2.400522e-02,-2.614320e-02,6.257076e-01,2.484512e-02,7.481056e-01,-2.965248e-02,-4.770772e-02,9.512947e-01,-7.257934e-02,-3.021280e-02,1.149385e+00,-7.657432e-01,-3.168938e-02,-1.557867e-02,8.225100e-02,-9.959937e-02,2.576330e-02,4.144352e-02,-4.356126e-02,2.784533e-02,-8.719066e-02,3.510239e-04,-5.524139e-02,4.010975e-02,2.066666e-02,-6.875750e-02,3.522279e-01,
2.305371e-01,-3.102371e-01,3.598431e-01,-2.749995e-01,-3.920155e-02,-1.564076e-01,-4.108554e-02,-4.169088e-01,1.260016e-01,6.006138e-01,-4.827776e-02,-1.340340e-01,1.843497e-01,2.037008e-02,2.203814e-01,-1.639414e-02,-5.462579e-02,3.932277e-01,3.892652e-02,-2.863654e-02,-6.885636e-02,-3.088444e-02,-9.458987e-02,-7.246623e-03,5.063809e-02,4.068502e-01,-2.985642e-01,-2.088916e-02,-1.122611e-01,3.468401e-01,-1.492093e-01,-4.421069e-02,-2.149184e-01,-2.791857e-02,3.360035e-02,-5.602085e-02,3.328227e-02,-2.227577e-02,-9.009640e-02,-4.024663e-02,-5.215864e-02,8.706900e-03,-1.249081e-01,-1.746913e-01,-2.332663e-01,
-4.796725e-02,-4.589787e-02,-3.870851e-02,2.742722e-02,-3.833949e-02,-2.393656e-03,1.458002e-02,-2.258283e-02,-4.783301e-02,-1.869828e-02,-4.813924e-02,-3.465761e-02,-3.335239e-02,3.109306e-02,-1.931819e-02,4.391114e-02,-4.163536e-02,1.776712e-02,-5.650616e-03,3.420873e-02,1.322643e-02,9.457580e-03,1.401709e-02,4.908428e-02,-3.019559e-02,-2.285532e-02,4.278710e-03,-2.064005e-03,-1.072441e-02,-2.951694e-02,-3.610552e-02,4.854156e-02,-4.423513e-02,-2.424948e-02,-2.774096e-02,2.446212e-04,1.674416e-02,2.106451e-02,-4.540714e-02,3.479192e-02,2.921084e-02,-6.189725e-03,3.051382e-02,3.234357e-04,-1.410624e-02,
4.375572e-03,3.624578e-02,1.124754e-02,-3.123797e-02,-2.884310e-03,-3.875763e-02,-5.055309e-03,-1.060714e-03,-6.458930e-03,-5.973422e-03,-1.181741e-02,-3.526443e-02,-5.137556e-02,-3.739851e-02,-1.376734e-02,1.131498e-02,-1.451973e-02,-1.542699e-02,-4.890594e-02,4.304441e-02,-5.236927e-02,8.171753e-03,-3.760915e-02,-2.302305e-02,-8.667605e-03,-5.395575e-02,1.326484e-02,-2.821917e-03,1.752817e-03,9.859873e-03,9.232949e-03,-2.894519e-02,-1.416497e-02,-3.263940e-02,2.445633e-02,-4.975496e-02,-3.117967e-02,8.744222e-03,-3.454849e-02,-1.255042e-02,3.781940e-02,-3.408067e-02,-2.053796e-02,2.136096e-02,1.462107e-02,
1.248197e-01,-2.134497e-01,-7.136226e-01,-2.254513e-01,1.942666e-02,3.474891e-01,-4.544884e-02,-6.806796e-01,1.492990e-01,-4.950984e-01,-2.965029e-01,1.952287e-01,1.458686e-01,-3.278374e-02,-3.129902e-02,2.288648e-02,-5.212119e-01,-1.299485e-01,1.940965e-02,8.279641e-03,2.461848e-02,-4.246209e-02,-3.259026e-02,2.417251e-02,6.322699e-01,-2.022697e-01,5.345058e-01,-4.446204e-02,-1.280911e-01,-2.942255e-01,-2.636943e-01,2.518521e-02,4.228472e-01,-2.813415e-02,-1.550027e-02,1.079427e-02,4.823400e-02,3.773743e-02,1.537776e-01,-2.816927e-01,-1.398328e-02,-2.937605e-02,-4.925945e-02,-8.247080e-01,1.581029e-01,
3.192675e-01,-7.759837e-02,1.568955e-01,4.674673e-01,4.114161e-02,-1.146997e-01,-2.005695e-03,3.973793e-01,4.601125e-02,9.113026e-02,-6.913437e-01,-5.001404e-01,9.355442e-02,4.386857e-02,1.914264e-01,-2.736694e-02,1.054874e-01,-1.765985e-01,5.098122e-03,3.856088e-02,-8.803200e-02,-2.862192e-02,1.766003e-01,3.226620e-02,2.073919e-01,-1.877625e-01,1.433446e-01,1.617615e-02,5.374024e-01,3.815282e-01,1.752490e-01,-7.689342e-03,-1.122892e-01,2.195655e-02,1.478104e-02,-2.632967e-03,-6.553766e-03,4.338046e-02,1.042421e-01,7.688546e-02,-2.669071e-02,-3.172812e-02,1.384409e-01,1.177488e-01,-1.738645e-01,
2.548889e-03,4.899183e-02,1.018501e-01,1.196562e-01,-7.764441e-04,-4.133290e-02,-2.627000e-02,1.499353e-02,1.756864e+00,7.897864e-02,1.456281e-02,-1.419742e-01,-3.352636e-01,-4.592750e-02,2.294033e-01,-5.299161e-02,1.784117e-01,1.234334e-01,-4.562500e-02,1.505048e-02,2.220918e-01,-4.056634e-02,2.230179e-01,-4.511209e-02,1.111436e-01,1.112220e-01,2.501818e-02,2.315326e-02,-6.602991e-02,6.670851e-02,2.369178e-01,-1.300776e-02,-1.608322e-01,-3.432269e-01,2.291122e-02,7.269464e-03,3.631403e-03,-4.755164e-02,6.323597e-01,3.149362e-02,2.687062e-02,-2.963840e-02,-1.063739e-01,2.065870e-01,7.589115e-02,
2.658576e-01,-2.117120e-01,2.345472e-01,-5.073502e-02,7.549691e-03,1.297931e-01,5.009818e-03,-2.805020e-01,6.161849e-03,6.929612e-01,3.832983e-01,-4.610335e-01,5.304136e-02,-5.912136e-03,-1.193435e+00,3.338447e-02,1.638021e-02,2.915318e-01,4.929985e-03,2.896788e-02,-1.044345e-01,1.099095e-02,-1.100878e-01,-2.783049e-02,3.714722e-01,-6.024306e-02,-3.044297e-01,-3.700247e-02,-7.291230e-02,3.162790e-01,2.712410e-01,-2.403991e-02,2.975637e-01,-1.231672e-01,-1.643224e-02,2.344094e-03,-1.245783e-02,1.340134e-02,2.140058e-01,3.368927e-01,-1.945795e-02,-8.839427e-03,-2.864690e-01,2.030405e-01,-6.929076e-02,
3.087872e-02,-3.327564e-03,-1.155737e-02,-3.168218e-02,4.031406e-02,3.180758e-02,-3.335509e-02,-4.087938e-02,-2.453164e-02,-4.977133e-02,1.159622e-02,3.974770e-02,-2.929156e-02,2.343872e-02,2.744745e-02,-4.486568e-02,-1.681936e-02,2.367579e-02,7.442783e-03,1.091561e-02,-2.131342e-02,-3.238062e-02,8.243390e-03,-3.023091e-02,-2.320992e-02,-6.094845e-02,-1.439849e-02,5.321602e-03,-7.881959e-04,-1.926743e-02,2.248596e-02,-2.886616e-02,-6.519869e-02,2.249969e-02,4.836311e-03,4.495360e-02,4.779118e-02,-1.784977e-02,-1.503293e-02,4.101042e-02,2.637170e-02,-9.188819e-03,-3.394869e-02,-2.473767e-02,-4.562837e-02,
6.787424e-03,-5.684486e-02,-4.252718e-02,2.730170e-02,8.120390e-03,-9.916429e-02,2.054491e-02,1.209251e-02,-5.590747e-02,1.106536e-02,-3.158106e-03,-3.900771e-03,-3.663005e-02,-2.231278e-02,-1.002880e-01,2.231402e-02,-4.268965e-02,-1.080901e-03,3.348693e-03,2.380078e-02,-6.221058e-02,-3.722423e-02,2.886303e-03,-4.689610e-02,-7.247231e-03,-4.293210e-03,1.892237e-02,-3.468978e-02,2.269354e-02,5.435742e-02,-4.761826e-02,-2.985773e-02,3.390571e-03,2.489063e-02,4.691296e-02,4.216421e-02,1.644277e-02,1.806133e-03,1.096780e-02,-4.456433e-02,2.982542e-02,1.221126e-02,-6.461473e-02,2.095118e-03,1.104955e-02,
4.305121e-02,1.492896e-01,-1.188373e-01,3.238821e-01,1.678584e-02,5.112481e-02,6.338916e-03,1.844063e-01,2.347638e-01,-2.178540e-01,7.115758e-02,8.871128e-02,-1.784602e-01,-1.640150e-02,2.125301e-02,2.407384e-02,-4.102585e-01,6.205788e-01,2.233797e-02,-2.845361e-02,9.502874e-02,1.562011e-02,1.570536e-02,-1.145313e-02,-1.902539e-01,1.083507e-01,-5.342671e-01,4.952593e-02,-1.683290e-02,-1.435018e-01,-7.785305e-02,-3.635493e-02,1.068307e-02,-2.665592e-01,3.347259e-02,-4.430339e-02,2.504686e-03,1.548628e-02,2.241899e-01,6.975030e-02,-3.005421e-02,3.910052e-02,2.163595e-01,-5.334631e-02,1.574948e-01,
-2.032651e-02,-3.996965e-02,8.224498e-03,-3.589308e-02,-1.069488e-02,-4.689674e-02,-3.501569e-03,4.802612e-03,-3.246648e-02,1.701155e-02,-3.400011e-02,4.530467e-02,-4.918302e-02,-5.653484e-04,-3.111482e-02,-4.208264e-02,1.912823e-02,1.696211e-02,1.080810e-02,4.153623e-03,-4.566126e-02,2.519086e-02,-4.618093e-02,-1.987462e-02,-1.291390e-02,-1.000727e-02,-3.463315e-02,1.928611e-02,-6.598007e-03,1.798659e-02,-3.026060e-02,3.595109e-02,2.069120e-02,3.194783e-02,4.118217e-02,-3.734782e-02,3.539903e-02,3.638541e-02,-1.837466e-02,-3.607729e-02,-4.524317e-02,3.962594e-02,4.483702e-02,1.118608e-02,1.631705e-02,
6.911820e-01,1.871284e-01,-2.421027e-01,-1.097851e+00,-5.577444e-02,-1.236339e-01,-3.992087e-02,4.206967e-01,2.720933e-01,6.207001e-03,1.182478e-01,-5.456250e-01,2.290745e-01,1.024885e-02,-3.214555e-01,-1.547132e-02,-1.105310e-01,-7.651950e-02,-3.290791e-02,-3.379135e-02,3.324876e-01,-1.883417e-03,3.413621e-01,4.742418e-02,-1.454925e-01,2.875916e-01,-2.730480e-01,1.295250e-02,5.166360e-01,-7.712684e-01,2.684279e-01,4.881902e-02,3.259546e-02,-1.455964e-01,1.774254e-02,2.195093e-02,1.067357e-02,-4.632753e-02,-2.269613e-01,2.875821e-02,2.789708e-02,3.017102e-02,-3.882576e-01,2.352716e-01,3.443884e-01,
-1.311270e-02,2.660669e-01,1.589563e-01,1.080899e-01,1.433425e-02,1.238055e-02,1.598021e-02,4.440644e-01,9.155390e-01,1.195724e-01,8.860940e-02,3.113460e-02,-3.600781e-01,-5.455911e-03,4.747803e-01,1.355832e-02,4.010046e-01,-1.565055e-02,4.491672e-02,1.526933e-02,1.214151e-01,-1.992587e-02,1.344997e-01,2.270667e-02,3.893667e-01,6.032133e-02,-2.973992e-02,-4.927536e-02,-8.242933e-02,3.366688e-01,1.643910e-01,4.654334e-02,2.018160e-01,-1.534687e+00,-8.005813e-03,-5.079612e-02,3.335432e-02,-3.408705e-02,1.676793e+00,5.785213e-02,3.747490e-02,-3.547224e-02,7.744457e-02,-1.595988e-02,3.533980e-02,
-4.320284e-02,-4.235013e-02,8.561972e-03,-4.142958e-03,4.856539e-02,-4.762727e-03,3.764643e-02,3.620842e-02,-2.290683e-02,-7.747698e-03,-4.728251e-02,-5.617921e-02,-6.724401e-02,-1.881449e-02,-6.382212e-03,1.209337e-02,2.120269e-03,3.486787e-03,3.677575e-02,1.692474e-02,2.602581e-02,-2.963241e-02,-4.707495e-02,3.576990e-02,-6.788474e-03,-1.060570e-02,-1.064202e-02,4.327536e-02,-1.830866e-02,-3.137022e-03,2.193301e-02,4.707228e-02,-6.847730e-02,2.774262e-02,2.315431e-02,1.790316e-02,-1.892785e-02,4.838451e-02,-3.515650e-02,-2.593327e-02,1.632935e-02,-3.481173e-02,-2.093182e-02,-2.257689e-02,-4.504915e-02,
-5.080768e-03,5.848962e-02,-4.173965e-01,2.795175e-03,3.599558e-02,-3.869618e-01,2.840129e-02,1.152863e-01,-1.253188e-01,-1.636464e-01,2.438558e-01,5.625761e-02,1.624239e-01,-1.700280e-02,4.909308e-02,7.623813e-02,4.033823e-01,2.715789e-01,-4.227258e-02,-1.282062e-02,-1.185845e-01,3.389763e-02,1.041806e-01,-3.868840e-02,1.984118e-01,-5.346821e-02,-2.346304e-01,-2.949720e-02,1.588481e-02,-2.364883e-02,-1.853077e-01,-7.920673e-02,-2.556219e-02,2.849836e-02,3.080300e-02,1.365256e-02,-1.855089e-02,-2.908755e-02,4.219414e-01,2.830396e-01,3.374023e-02,4.171875e-02,9.115701e-02,-6.671840e-01,-5.604928e-02,
-8.085722e-02,-1.629680e-01,4.113861e-01,-2.754823e-01,4.840181e-02,-2.141241e-01,-3.116247e-02,-1.713782e-01,2.183778e-03,-1.286535e-01,-2.343524e-01,1.294112e-01,7.584561e-02,-1.097566e-02,-3.079608e-01,-6.403351e-02,6.631336e-02,1.161449e-01,3.909770e-02,-8.674292e-03,1.075500e-01,8.076984e-03,3.946831e-02,5.484290e-02,1.141651e-01,2.120901e-01,9.068484e-02,3.464116e-02,-1.676313e-01,-6.400261e-02,-6.966712e-02,-4.546706e-02,1.778009e-01,3.774048e-02,-2.556986e-02,-4.412635e-02,6.552447e-03,3.616036e-03,-2.258336e-01,8.597548e-02,-1.871008e-02,-4.433666e-02,4.323479e-01,4.626203e-02,-4.465986e-02,
6.166717e-01,1.390615e-01,-4.271384e-01,-1.926752e-01,1.731092e-02,8.448482e-02,3.368695e-02,-5.992812e-02,5.429854e-02,3.918776e-02,-2.248032e-01,-2.936300e-01,2.292026e-01,-1.943772e-02,1.300846e+00,-5.052958e-04,1.135586e-01,-1.359562e-01,-1.636655e-02,-7.426540e-03,4.356948e-02,-3.902504e-03,2.686851e-01,-2.976970e-02,-4.535927e-01,1.978868e-01,1.418576e-01,1.579724e-02,3.667907e-01,5.859364e-01,2.916580e-01,-8.290687e-03,6.588112e-01,-8.250061e-02,-5.532885e-03,2.401063e-02,5.287232e-02,-4.106872e-04,-4.985674e-02,-4.283417e-02,-4.790170e-03,4.295548e-02,-4.286205e-01,-1.084726e-01,2.133069e-01,
-2.047888e-01,2.506066e-02,3.928496e-02,-3.570822e-03,-9.439070e-04,-1.020566e-01,5.879800e-02,-9.114885e-01,9.640728e-02,8.006872e-01,-3.230671e-02,-6.605024e-01,1.154960e-01,-1.625114e-02,-2.791122e-01,-4.632566e-02,-5.033669e-01,8.152760e-02,3.811941e-02,-8.013337e-03,6.969732e-02,-2.186442e-02,-6.909800e-02,3.075991e-02,1.878247e-01,2.810986e-01,-4.456151e-02,2.967224e-02,-8.544123e-02,-2.542252e-01,-7.554954e-02,2.088954e-02,2.619449e-01,-8.567822e-02,4.433523e-02,-2.701173e-02,5.862637e-02,4.556252e-03,7.627758e-02,-2.049052e-01,-2.986277e-02,-3.132435e-02,8.443314e-03,-1.059337e-01,6.068787e-02,
-5.261291e-02,3.766620e-02,-6.239256e-02,4.005936e-02,-3.328441e-02,-1.557648e-02,1.274646e-02,-4.158313e-02,-4.684414e-02,2.167797e-02,-5.747258e-02,-5.498445e-03,-2.618960e-02,-4.838564e-02,-7.499509e-03,2.010872e-02,-2.443323e-02,3.528366e-02,-6.835147e-03,-9.600122e-03,-2.166067e-02,-2.601317e-02,-1.350778e-02,-3.309641e-02,7.517849e-03,-4.140113e-02,-5.190165e-02,2.722028e-02,1.055983e-02,2.650941e-03,-4.387998e-02,-3.648244e-02,4.785565e-03,4.041875e-02,-4.484988e-02,-1.666665e-02,2.055296e-02,3.703730e-03,-1.028892e-02,1.209934e-02,2.178687e-02,2.777682e-02,-5.154023e-02,-4.250860e-02,1.004617e-02,
-5.055919e-03,1.382761e-02,2.702306e-01,8.396230e-01,-2.500393e-02,5.657896e-02,-8.513607e-04,-2.779021e-02,-3.625179e-01,3.645426e-02,4.031380e-03,-4.924739e-02,2.184020e-01,-2.025427e-02,2.982789e-02,-3.771767e-02,3.399494e-02,-1.790421e-02,4.313477e-02,-3.350636e-02,-1.444436e-01,-4.897533e-02,-1.102349e-02,1.253267e-02,1.613946e-02,-3.968612e-02,2.749386e-01,-3.613066e-02,3.264161e-03,6.307082e-02,1.113624e-01,-2.881758e-02,-6.264499e-02,-1.840405e-01,-6.990415e-02,1.451722e-02,2.872742e-02,1.908365e-02,-1.453792e-01,5.020780e-02,1.830962e-02,-2.197157e-02,7.089854e-02,-1.492700e-04,-7.110934e-02,
-4.354213e-02,-2.532329e-02,-8.753965e-03,-9.903434e-03,1.443878e-02,-2.146819e-02,-1.340172e-02,1.517869e-02,-6.148680e-02,-4.749916e-02,-4.205827e-02,-4.731771e-02,-4.796731e-02,4.219732e-03,1.178052e-02,5.203938e-03,-3.865012e-02,-3.983845e-02,-2.795031e-02,9.981897e-04,-2.043717e-02,4.100601e-02,-5.074082e-02,1.590190e-02,1.104833e-03,-3.807414e-02,3.326374e-02,1.721979e-02,-5.297076e-02,-2.063242e-02,-2.576904e-02,-1.953677e-02,-4.273582e-02,4.330650e-02,1.326289e-02,-4.379250e-02,4.864250e-02,-1.961538e-02,-3.481750e-02,-4.532687e-02,1.835381e-02,-3.474754e-02,2.087951e-02,4.826525e-02,1.452048e-02,
1.060201e-01,1.194565e-01,-8.174758e-01,2.043986e-01,-4.048763e-02,2.162185e-01,-3.549255e-02,4.453416e-01,5.537302e-02,1.202500e-01,2.349532e-01,1.641621e-01,-4.162562e-01,-4.031450e-02,5.222323e-04,-7.165301e-02,1.081885e-01,7.929986e-02,5.820840e-03,-1.615673e-02,1.849805e-01,3.746736e-03,-5.024012e-02,6.341260e-03,-2.851755e-02,1.087422e-01,-4.125886e-01,-1.171946e-02,-1.064910e-01,-9.524930e-02,-2.899675e-03,8.030736e-02,1.186737e-01,3.009568e-01,3.066786e-02,1.363376e-03,2.448010e-02,-4.192462e-02,-3.812174e+00,2.630838e-02,4.274381e-02,-1.649526e-02,-4.609264e-02,5.404164e-02,1.948850e-01,
-4.087524e-02,-1.525159e-02,-4.266136e-02,1.002126e-02,3.762886e-02,2.701155e-03,2.892588e-02,4.765613e-02,1.620157e-02,2.679959e-03,-5.170970e-02,-9.977838e-03,-1.446775e-02,3.867520e-03,-3.977883e-02,-2.260132e-02,-1.836651e-04,9.106039e-03,8.879484e-03,-3.079852e-02,-6.914946e-02,-2.625325e-02,-1.062529e-02,-2.814345e-02,-4.685215e-02,1.105591e-02,-6.946152e-02,4.164921e-02,-7.249540e-03,-2.097083e-02,3.216442e-02,1.729542e-02,-6.698342e-03,-3.539485e-02,1.812445e-02,3.907106e-02,-3.184181e-02,2.193012e-02,-3.400292e-02,-5.695270e-02,5.699827e-03,3.690489e-02,-5.092837e-02,-3.791086e-02,-7.252005e-02,
-8.224229e-03,-2.362151e-01,-4.174465e-01,3.699428e-01,6.719217e-03,-3.587013e-01,-9.229005e-03,2.124371e-01,6.465040e-02,-4.190079e-01,-4.531010e-01,1.833370e-01,-2.126674e-01,-1.856118e-02,5.518000e-01,-3.074126e-03,-2.070234e-02,2.854379e-01,-2.896548e-02,-4.467370e-02,1.271556e-01,-2.847623e-02,2.546918e-01,-9.202360e-03,-4.769098e-02,-2.968954e-01,5.121931e-01,1.246769e-03,7.428022e-02,-6.209344e-01,1.288782e-01,4.264023e-03,-3.599697e-02,-2.174568e-01,-4.346138e-03,-3.409696e-02,9.691780e-03,1.489741e-02,-2.143073e-02,-2.655349e-01,2.475000e-02,-2.558962e-03,2.470232e-01,4.934243e-01,1.283421e-01,
-7.779614e-02,-1.000315e-01,-7.027216e-02,-6.062028e-02,-2.045744e-02,1.721493e-02,-2.142750e-02,-2.575994e-02,1.599805e-02,-6.587429e-02,-3.537386e-02,-6.705668e-02,3.237685e-02,4.884206e-02,3.324410e-02,-1.814727e-02,1.959958e-02,-1.141028e-01,-1.437050e-03,-3.871162e-02,-2.159986e-02,-2.284515e-02,-9.621106e-02,9.383499e-03,-1.388715e-02,-1.017691e-01,-5.584284e-02,1.280995e-02,-3.106979e-02,-8.911309e-02,-1.899143e-02,-2.403278e-02,6.826001e-02,4.762085e-03,-1.958613e-02,-9.599805e-03,-3.242966e-02,3.657252e-02,-1.972348e-01,-8.876438e-02,3.437812e-02,-4.761221e-02,-3.411782e-02,-9.727139e-02,-1.002477e-01,
-3.605441e-01,-2.676762e-01,-3.002497e-02,-8.373474e-01,-1.624940e-02,-7.925696e-02,-7.126371e-03,-7.663335e-01,1.471049e-02,-2.254349e-01,7.403624e-02,6.291681e-01,1.501935e-01,2.581558e-02,3.619212e-01,4.622502e-02,-1.143483e-02,-8.657384e-01,1.627142e-02,4.492242e-02,1.779622e-02,2.064836e-02,-7.266440e-01,8.035484e-03,2.085388e-01,2.752087e-01,4.357922e-02,-2.483897e-03,-8.617417e-02,-1.155103e+00,1.872104e-01,-1.495783e-02,9.579759e-02,-5.922208e-02,-1.212179e-02,-1.718418e-02,2.476800e-02,2.211114e-02,-1.505041e-01,4.661391e-03,-1.271176e-02,-8.297030e-03,-1.794353e-01,-2.882015e-01,2.763652e-01,
3.615008e-02,1.680063e-02,-5.576358e-02,9.838941e-03,-4.995093e-02,6.726379e-03,4.537458e-02,3.944479e-02,-3.905276e-02,-2.683592e-02,-4.105474e-02,-9.052466e-03,-3.866399e-02,8.149088e-04,-4.668231e-02,-2.784647e-02,-4.296489e-02,1.509941e-02,4.150772e-02,3.652335e-02,3.340035e-02,1.360490e-02,-6.030840e-02,1.432398e-02,1.420825e-02,1.928828e-02,9.709815e-03,4.775111e-02,-2.513921e-02,-1.992901e-02,-9.882601e-03,2.450359e-03,-3.024759e-02,3.390665e-02,1.623265e-02,3.500436e-02,-2.421738e-02,-2.359040e-02,-4.959413e-04,-2.147819e-02,-3.621297e-02,-4.063857e-02,8.366911e-03,-3.995245e-02,-6.554179e-02,
-1.848580e+00,1.852621e-01,-6.921961e-02,-2.373885e-01,-1.271995e-02,9.455018e-02,-2.247098e-02,5.021086e-01,4.777572e-03,1.160517e-01,3.801800e-01,7.813559e-02,2.580167e-01,-3.468849e-02,5.102215e-01,5.700116e-03,6.056600e-03,6.733019e-01,-3.285337e-02,1.156935e-02,-9.064136e-02,3.880288e-03,-8.390524e-01,2.524590e-02,-8.889592e-03,-6.926939e-01,-8.388494e-02,1.512871e-02,-2.396917e-01,-7.369810e-01,-4.181462e-01,-3.702677e-02,-1.913253e-01,1.464287e-01,4.506017e-02,1.347111e-02,3.545967e-02,-4.114607e-02,-4.536470e-01,-1.343320e-01,8.310950e-03,-2.136444e-02,-7.661290e-02,-5.070906e-01,-3.661118e-01,
-2.754366e-01,-3.985196e-02,2.306636e-01,5.744163e-01,1.567847e-02,1.101199e-02,1.546758e-02,-5.111183e-01,2.749595e-02,7.687719e-01,7.955042e-02,-1.667951e-01,-7.455228e-02,-7.776909e-03,-1.316899e-01,-4.116787e-02,-3.691351e-01,-6.373058e-02,-2.813247e-02,8.708419e-03,1.774240e-01,-1.859072e-02,7.127118e-02,-3.736519e-03,2.899200e-01,-3.215501e-02,-2.903851e-01,1.018228e-02,1.140964e-01,-2.902602e-02,-1.643558e-01,-3.317911e-03,1.647566e-01,3.044474e-02,-4.728052e-02,-3.234545e-02,4.697627e-02,2.616179e-02,-5.581011e-02,2.227694e-02,-6.144215e-04,-2.315955e-02,1.699148e-01,-6.739504e-01,-7.748424e-02,
2.272526e-02,8.530939e-02,9.681305e-02,-9.865458e-02,1.431112e-02,8.666852e-01,-2.660433e-03,-1.548847e+00,-3.226831e-01,8.383189e-01,-2.479606e-01,2.399395e-01,1.920563e-01,4.122165e-03,1.948095e-01,5.321394e-02,3.146359e-01,-8.780535e-02,-2.571112e-02,-9.922964e-03,-4.902277e-02,7.994629e-03,6.404439e-02,-3.534259e-02,2.395842e-01,-6.752272e-02,-2.474253e-01,1.341742e-02,-1.443047e-01,2.614673e-01,-2.214717e-01,-7.000847e-03,5.873685e-01,2.190785e-01,4.731437e-02,1.983302e-02,-4.270529e-02,-1.595674e-02,1.413798e-01,-5.186676e-01,-5.141762e-02,2.218772e-02,4.057596e-01,1.318614e-01,3.333433e-01,
-1.662534e-02,2.487995e-01,6.052955e-02,-4.453138e-01,-1.400788e-02,1.956842e-02,-9.684932e-03,-8.610526e-02,-1.372875e-01,-3.502655e-02,2.961320e-01,1.769450e-02,9.574576e-02,-2.457157e-02,1.566604e-01,4.169577e-02,2.800288e-01,1.973301e-01,-3.097493e-02,-4.125190e-03,-2.490710e-01,-5.718187e-03,3.158154e-02,-2.148292e-02,-3.937504e-01,9.824831e-02,-1.356973e-01,2.049875e-02,-1.280079e-01,-4.257058e-02,1.858882e-01,-4.875281e-02,-4.765076e-01,-3.166888e-02,-3.188733e-02,3.063930e-02,-3.093127e-02,4.743790e-02,2.293591e-01,-8.750928e-02,2.376591e-02,-9.418157e-03,6.708745e-02,4.711114e-01,7.375924e-02,
-3.583879e-02,-1.471969e-01,-5.263839e-01,3.498632e-01,-2.137176e-02,6.253365e-01,3.097524e-02,-3.003328e-01,7.844293e-02,-1.463462e-01,-6.871012e-02,9.274791e-01,-1.964233e-01,3.009511e-02,-2.974893e-01,-4.298301e-02,7.021569e-02,-1.141894e-01,2.355629e-02,-4.762868e-02,-1.796051e-01,3.396189e-02,1.834535e-01,4.200553e-02,4.053674e-01,5.783614e-02,-1.198968e-01,3.175930e-02,1.554524e-01,3.443486e-01,4.609493e-01,-1.331805e-02,2.486934e-01,-2.505840e-01,9.012057e-03,2.208540e-02,7.170728e-03,-4.550773e-03,1.012208e-01,-1.232537e-01,3.711091e-02,4.992181e-03,3.655986e-01,-6.744164e-02,1.134222e-01,
2.048012e-01,-1.178755e-01,1.170079e-01,4.157539e-02,1.020875e-03,3.855872e-01,-2.472596e-02,4.678584e-01,-1.929667e-01,-1.927871e-01,1.726860e-01,-8.734132e-02,-3.888648e-02,2.261210e-02,-2.667003e-01,-5.323465e-03,1.575931e-01,-4.880654e-01,3.861074e-02,-3.001874e-02,-1.138561e-01,-8.330807e-04,1.862559e-01,4.008209e-02,6.952722e-02,1.073360e-01,-1.929504e-01,2.219734e-02,-6.057802e-02,2.916933e-01,8.921240e-02,-7.006409e-03,2.637983e-01,-2.986346e-01,2.178398e-03,-1.809004e-02,-2.622824e-02,1.225895e-02,1.618183e-01,2.648622e-01,-1.091302e-02,-4.809871e-02,-2.673699e-01,-3.017692e-01,-7.239280e-01,
1.395760e-01,1.741887e-01,1.448148e-01,1.675430e-01,-1.014187e-02,-5.877475e-02,2.288662e-02,1.768086e-01,9.454189e-04,9.373910e-02,-3.581754e-01,6.978124e-02,-8.491178e-02,-6.650084e-04,4.237024e-01,8.596738e-02,2.424639e-01,1.428212e+00,2.143682e-02,6.037048e-03,-5.703967e-02,-4.607780e-02,1.221792e-01,-5.142156e-02,-4.566405e-01,-7.327538e-02,-8.084016e-01,-2.911366e-02,-1.519692e-02,5.050730e-01,-6.243125e-02,-8.594264e-03,1.517949e-01,-4.305188e-02,-5.781379e-03,-4.671279e-02,-2.103706e-02,-1.610784e-02,5.273867e-02,-3.447386e-01,3.261260e-02,3.217032e-02,-4.987420e-01,-1.185994e-01,1.824880e-01,
1.084216e-01,1.427950e-01,3.327501e-01,-7.749440e-02,4.484214e-03,3.883545e-01,-3.937602e-02,-6.468601e-01,1.213306e-01,4.699310e-01,2.071379e-01,1.044306e-01,3.092296e-01,2.156494e-02,1.211843e-01,-9.365401e-02,1.525581e-01,2.683424e-01,1.070973e-02,2.493433e-02,4.909033e-02,3.041416e-02,-1.483207e-01,-3.510557e-02,7.534505e-01,9.759530e-02,3.238615e-02,3.075476e-02,-2.609769e-01,-1.749663e-01,1.381894e-01,3.469923e-02,-3.599324e-01,-2.148825e-01,2.892069e-02,-4.912988e-02,-1.353161e-02,-3.228291e-02,-7.701614e-01,-7.354038e-02,2.183994e-02,2.739917e-02,1.610615e-01,-2.003302e-01,1.089742e-02,
-2.107062e-02,-3.263846e-02,1.919065e-01,3.304982e-01,8.152123e-03,1.206543e-01,4.311801e-03,4.823085e-02,-1.628114e-01,5.431505e-02,-1.315401e-01,9.631032e-02,2.216324e-01,4.762653e-02,1.864802e-01,1.869326e-02,1.157407e-01,-8.025746e-02,4.003501e-02,6.140963e-03,-6.864326e-02,-7.603252e-03,-9.500349e-02,4.461640e-02,-2.021485e-02,-5.183211e-02,2.276521e-01,-2.368083e-03,-3.567977e-02,1.497312e-01,1.735557e-01,-3.477181e-04,-4.546210e-02,-1.396019e+01,4.345917e-03,4.605963e-02,-9.505643e-04,3.859747e-02,-1.892118e-01,1.806832e-02,2.223022e-02,1.542793e-02,-6.484277e-02,1.143459e-01,8.773672e-02,
-4.591488e-02,6.900739e-03,-7.449683e-02,-2.354679e-02,2.848662e-02,-3.182423e-02,-4.299967e-02,4.219909e-02,1.531046e-02,-1.354995e-02,1.715316e-02,-7.081420e-02,-7.911751e-03,-4.076845e-02,2.263611e-02,1.522937e-02,-1.085538e-02,-3.403436e-02,-3.720286e-02,-4.836629e-02,-4.834189e-02,2.364500e-02,-6.246490e-02,1.016287e-05,1.096117e-02,-1.176100e-03,-4.210534e-02,-1.006926e-02,-1.574070e-02,2.190134e-02,1.704419e-02,-4.612888e-02,-4.377586e-02,-4.698336e-02,-4.756409e-02,-3.296278e-02,1.991073e-02,3.318488e-02,-1.070480e-02,-8.025509e-03,1.963940e-02,-1.837427e-02,-5.082554e-02,-1.481488e-02,-2.290328e-02,
-3.988498e-03,2.697763e-02,-5.836205e-01,3.103833e-01,-7.201855e-03,-7.418694e-03,-3.128671e-02,-1.208450e-02,-2.225120e-01,1.968472e-01,2.601140e-01,6.528210e-01,2.541053e-02,-5.888460e-03,4.134003e-01,8.706556e-02,3.315295e-02,5.821612e-01,2.775484e-02,-3.914149e-02,-7.892212e-02,1.410502e-02,1.998616e-01,7.529479e-03,-4.774026e-02,1.951873e-01,-4.536496e-02,-1.426706e-02,-1.910262e-01,2.382866e-02,4.243761e-01,-2.026490e-02,-2.098516e-01,8.734771e-02,2.271332e-02,5.830060e-04,-3.099289e-02,1.831238e-02,6.470017e-01,-2.501044e-01,2.806659e-02,4.691030e-02,4.830118e-01,2.883863e-01,4.933365e-04,
2.814547e-01,2.199771e-01,-1.145208e-01,3.240644e-01,-1.832678e-02,-1.104005e+00,-9.272067e-03,9.368612e-01,1.266997e-01,1.994429e-01,-1.944556e-01,-3.923240e-01,1.130688e-01,1.061322e-02,3.122231e-01,-4.846670e-02,7.866261e-02,3.546478e-01,-3.642251e-02,2.429243e-02,-2.342299e-01,-7.996861e-03,1.249564e-01,-3.264529e-02,-1.769256e-01,-4.470850e-01,3.740934e-01,-7.640998e-03,-1.358184e-02,-3.209597e-01,2.461061e-01,-1.619381e-02,-6.507533e-02,-2.123140e-02,-3.691443e-02,-4.616531e-02,3.575706e-02,2.037887e-02,-3.843181e-01,1.860738e-01,1.288725e-02,2.213258e-02,2.515436e-01,-1.905152e-01,-1.487706e-01,
-1.154117e-01,-8.173010e-02,-1.764151e-01,-2.057773e-01,-4.076821e-02,-3.896961e-01,-2.685291e-02,3.103296e-01,6.897002e-01,4.458637e-01,-1.168926e-01,6.634551e-01,2.336765e-01,-3.844489e-02,-4.639928e-03,-6.221419e-03,-1.678454e-01,-1.075163e-01,-1.413646e-02,-1.585641e-02,6.996740e-02,-4.740745e-02,-4.304191e-03,-3.697227e-03,-6.572148e-01,1.192892e-01,-2.861506e-01,3.903170e-02,-2.864004e-02,6.216352e-02,-3.567459e-01,-9.156233e-03,1.414910e-01,-6.905243e-01,-3.466120e-02,-5.628733e-02,-3.895849e-02,-1.423953e-02,-9.190216e-02,-5.496131e-02,-7.779639e-03,-1.978111e-02,2.339502e-01,-3.748151e-01,-1.199665e-02,
2.434628e-01,
-9.644990e-02,
1.599014e-01,
-5.666422e-01,
-7.729276e-01,
8.907932e-02,
-1.764100e-02,
-2.346926e-02,
1.184791e-01,
-2.179908e-01,
-1.263146e-01,
-2.440653e-02,
-2.041025e-02,
-3.464015e-02,
2.013319e-01,
-6.944516e-04,
-5.888325e-01,
-6.519533e-02,
-2.003585e-02,
1.312542e-01,
-1.219949e-02,
5.764452e-02,
1.988196e-01,
-1.005303e-02,
1.354784e+00,
-1.030729e-02,
-4.296715e-01,
-1.367175e-02,
-3.089453e-01,
-4.088895e-02,
-6.358374e-02,
-4.300237e-03,
-1.700741e-01,
-1.120018e-01,
1.623805e-01,
8.460368e-02,
3.060649e-02,
1.394101e-03,
4.762087e-01,
7.436565e-01,
6.775919e-01,
-1.538720e-02,
3.156533e-01,
7.523298e-02,
1.447147e-01,
-9.267225e-01,-4.408596e-01,-1.636654e+00,-1.172113e+00,1.734474e-01,-1.010928e+00,-3.587157e-02,-2.451017e-02,-6.915113e-01,-1.677809e-01,-2.420882e+00,-6.854064e-01,-1.390088e-03,-3.293348e-02,-1.358847e+00,-3.767928e-02,-1.725907e-03,-2.535673e+00,-3.923479e-02,-5.507445e-01,-8.255780e-01,-4.570156e-02,-1.282152e+00,3.315808e-02,4.356133e-01,-5.703675e-02,2.331831e-01,-2.689700e-02,-1.004863e-01,1.713595e-02,-1.894686e+00,4.907376e-02,-8.797395e-01,-4.131427e-01,-5.610793e-02,-1.074201e+00,8.901200e-03,-1.565624e+00,-8.297354e-01,7.516744e-01,6.539778e-01,-2.653144e-03,1.618517e-01,-2.232529e-01,-1.579666e+00,
1.438302e-01,3.469873e-01,-2.079675e-01,2.106184e-01,1.099751e-01,-2.710325e-01,-2.955604e-02,-1.532241e-02,9.958589e-02,-2.902879e-01,-8.333024e-02,1.163251e-01,2.137762e-03,-3.981012e-02,2.862754e-01,2.364082e-02,-9.540828e-03,8.667537e-02,8.181008e-03,-3.555766e-01,-4.811664e-02,-1.513314e-01,5.980098e-01,-1.148323e-02,2.555159e-01,1.067752e-02,8.677033e-01,4.765951e-02,-1.732802e-01,-3.614429e-02,-2.000905e-01,2.299393e-03,3.715828e-01,3.219575e-01,-2.584436e-01,-2.556048e-01,1.694931e-01,-6.574752e-01,-5.234861e-01,1.386536e-01,-7.127762e-01,-1.136367e-02,6.295075e-02,3.830687e-01,-2.491727e-01,
-4.074766e-01,-3.948656e-01,-1.609610e-01,1.993366e-02,-5.815708e-02,2.769685e-01,-2.512943e-02,4.959548e-02,1.485706e-01,3.240630e-01,-4.832700e-02,-2.411904e-01,-2.736298e-02,-1.931365e-02,1.908499e-01,4.758804e-02,-1.056166e-01,2.843626e-02,6.105796e-03,-2.396413e-01,-5.179183e-01,2.485225e-01,4.953573e-02,-2.331143e-02,-7.316361e-02,8.021714e-03,4.916735e-01,6.482909e-02,-2.275824e-01,7.347295e-02,-1.163669e-01,-1.741511e-02,3.928182e-01,-4.629075e-01,-6.075770e-02,8.124906e-02,2.310862e-01,2.812744e-01,3.423627e-01,1.619956e-01,-1.287977e-02,1.412082e-02,1.553590e-01,1.000690e-01,2.167717e-02,
2.430938e-01,9.184333e-02,2.003415e-03,-2.871227e-01,-2.973847e+00,2.527356e-01,-1.141830e-02,1.436833e-02,-8.337034e-02,-6.270990e-01,1.230163e-02,5.961559e-01,-2.161513e-02,8.841842e-03,8.624228e-02,8.161060e-03,-3.410137e-01,1.894349e-01,1.960923e-02,2.143444e-01,4.992692e-02,-6.614611e-02,3.304542e-01,3.623256e-02,4.171051e-01,5.244798e-02,3.401544e-02,-2.494569e-02,-2.459591e-01,2.752187e-03,6.563082e-02,4.236966e-02,-6.077086e-01,2.041502e-02,3.380015e-01,1.332223e-01,-2.165594e-02,8.970832e-01,3.532113e-01,1.165590e-01,2.671216e-02,-3.545392e-02,7.306679e-02,-1.766453e-02,1.499597e-01,
3.208732e-02,-2.119128e-01,2.609900e-01,1.553004e-01,-4.533274e-02,2.549763e-01,-4.890839e-02,3.507481e-02,-1.742400e-01,2.353446e-02,1.490324e-02,-5.609802e-01,2.101470e-02,-4.017969e-02,-2.039221e-01,6.160266e-04,2.152064e-02,7.152507e-02,-8.512089e-03,2.864453e-01,-1.218830e-01,1.137391e-01,2.244104e-01,2.522599e-03,8.086845e-02,4.391461e-02,-7.129418e-02,2.475623e-02,-7.833378e-02,-5.953461e-02,6.485292e-02,-1.079594e-02,-3.737188e-01,7.037868e-02,4.898010e-02,3.173329e-01,4.055852e-01,3.045030e-01,-8.985277e-02,2.082891e-02,-7.262712e-01,-2.113439e-02,-1.196463e-01,2.275969e-02,1.702274e-02,
-5.664384e-02,-5.059602e-01,-2.871658e-01,7.354415e-01,3.366332e-01,-1.692812e+00,-1.122897e-02,-2.309354e-02,1.286726e-01,-9.706956e-02,-1.070036e+00,8.894094e-03,-1.397708e-02,-2.328287e-02,-8.417457e-01,3.810256e-02,-5.851561e-01,-6.710913e-01,-2.002537e-02,2.710359e-02,-1.340438e+00,7.872739e-02,-9.905390e-01,1.071288e-03,-1.097039e-02,-1.387992e-02,-3.682714e-02,2.077528e-02,-6.578580e-01,-2.938478e-02,-5.565370e-01,1.241834e-02,-4.623673e-01,9.716551e-01,-6.144961e-02,-1.187724e-02,3.718674e-01,-9.383188e-01,-5.820457e-01,-5.413572e-02,3.599105e-02,1.578294e-02,4.174198e-01,2.719773e-01,-5.836838e-01,
7.830819e-01,-1.772823e-01,6.252875e-01,-1.470132e-01,-1.756364e+00,3.419048e-01,-5.032020e-03,-3.208830e-02,-5.625104e-02,-1.566726e-01,-4.460234e-01,1.287558e-01,-4.123382e-02,-1.616017e-02,5.663376e-01,1.586475e-02,1.677206e+00,2.650191e-01,-1.817681e-02,2.518136e-01,5.715555e-01,-4.068711e-01,2.348413e-01,-4.666765e-02,1.791029e-01,-9.743944e-03,1.294640e-01,1.639294e-02,3.270876e-01,-5.001966e-02,3.832202e-01,-2.677763e-02,9.968371e-01,5.421115e-01,-1.176859e+00,9.411884e-01,8.754800e-01,-1.493102e-01,-6.196810e-01,-2.654550e-01,4.848917e-01,-4.042726e-02,3.523320e-02,-9.145143e-02,4.136992e-01,
-1.117590e-01,2.593390e-03,2.004550e-01,-1.078672e-02,-4.855886e-02,-4.264223e-02,3.789076e-03,-1.710149e-02,1.399054e-01,8.297256e-02,-3.595343e-01,1.428533e-01,8.397663e-03,-1.854661e-02,3.161024e-01,4.091392e-02,3.486808e-02,1.663719e-01,-1.435451e-02,-5.874205e-02,-2.204044e-01,9.151444e-02,-1.614161e-01,2.817048e-02,5.561658e-01,4.526364e-02,-1.925351e+00,-3.634014e-02,1.535906e-01,-3.228575e-02,2.373755e-01,-1.662952e-02,3.873241e-01,-4.122240e-01,3.642048e-02,2.120630e-02,1.086371e-01,-1.017783e-01,-1.062561e-03,1.758480e-01,-4.116636e-01,3.962317e-02,2.713229e-02,-1.418449e-01,1.637928e-01,
-3.526439e-02,-7.797809e-03,-5.569760e-02,-4.808669e-03,-3.197735e-02,1.270258e-02,4.665283e-02,-2.536623e-02,1.201280e-02,-6.163342e-02,-4.043748e-02,-3.057359e-02,-4.376907e-02,-3.244775e-02,-6.507839e-02,-2.906597e-02,3.910157e-02,3.448584e-02,-1.787247e-02,1.552713e-02,-4.939568e-02,-2.137740e-02,-5.048084e-02,1.874832e-02,-9.674578e-03,4.316028e-02,3.946651e-02,2.698076e-02,-6.276564e-02,1.340042e-02,1.907109e-02,-4.500057e-02,3.334589e-02,-4.935899e-02,-5.281305e-02,-4.767317e-02,-1.761335e-02,5.541658e-03,7.334421e-03,-6.461521e-02,-3.351828e-02,-3.623437e-02,8.833407e-03,3.495961e-02,-6.291975e-02,
9.981608e-02,1.833414e-01,7.261761e-01,1.224737e-01,-1.015528e-02,-6.224550e-02,-3.603765e-02,-2.944532e-02,3.156490e-01,-5.329994e-02,-3.817443e-02,-3.946591e-01,-1.093693e-02,-4.765439e-02,1.214752e-01,-4.684366e-02,2.607374e-03,1.368478e-02,-2.676260e-02,-2.500926e-01,2.259934e-01,6.755411e-02,-5.032299e-01,-6.009277e-02,-3.524797e-02,-2.577417e-02,4.646274e-01,-4.738519e-02,2.871010e-02,-4.373543e-02,5.414142e-02,2.165717e-02,-3.323194e-01,-4.294533e-01,-2.311955e-01,6.490467e-02,-2.125479e-01,1.119845e+00,-1.376783e-01,2.394102e-01,-1.189742e-01,-3.482662e-02,3.916707e-02,5.502204e-03,1.303227e-01,
5.242218e-01,-2.941271e-01,4.392289e-01,2.074568e-01,-1.794603e-01,1.188592e-01,4.516217e-03,-4.960924e-02,1.779601e-01,2.729143e-01,-1.086050e-01,2.748974e-01,1.889509e-02,-2.330510e-02,9.251345e-02,-2.771427e-02,2.112931e-01,1.701937e-01,6.377011e-02,-4.389105e-01,3.780519e-01,1.272380e-01,-8.962575e-02,-4.306103e-02,-2.467976e-01,-3.950642e-02,9.154037e-01,3.834476e-02,1.990368e-01,8.371536e-03,4.465453e-01,-2.777149e-02,-3.456700e-02,2.272880e-01,-2.313655e-01,2.298771e-02,2.752376e-01,4.235798e-01,3.862430e-01,2.492993e-01,-9.793976e-02,-5.069330e-02,-3.387979e-01,-1.382703e-02,-1.962260e-02,
-3.413387e-01,-4.736946e-01,-6.419683e-02,8.588236e-02,-1.037038e-01,-2.337862e-02,-3.991899e-02,3.323442e-02,3.539036e-01,1.063980e-01,-3.721185e-02,4.616252e-01,-2.553084e-02,5.391030e-02,-1.149002e-01,-4.530352e-02,1.389016e-01,-4.846437e-02,-3.065265e-02,-9.245840e-02,-7.044976e-02,8.092419e-02,4.991885e-01,2.736361e-02,-6.509856e-01,-2.598822e-02,-4.028051e-01,-4.757295e-02,2.556486e-01,-1.340478e-01,9.396276e-01,1.691469e-02,1.013050e+00,5.335582e-01,-3.645440e-02,8.520544e-01,1.779029e-02,-2.026947e+00,-3.511306e-02,-1.174062e-01,1.014032e+00,3.654604e-02,1.059876e-01,1.392845e-02,-9.824013e-02,
-8.264760e-01,-8.711498e-01,-1.138387e+00,-3.545236e-01,8.694159e-02,-5.872647e-01,1.229524e-02,-3.342134e-02,-9.982635e-01,9.886629e-02,-2.096647e+00,-9.352694e-02,-3.858182e-02,-1.455279e-01,-1.218639e+00,4.466740e-02,4.471931e-02,-2.207056e+00,3.510945e-02,-6.470498e-01,-5.870253e-01,5.119281e-02,-6.595451e-01,4.890803e-02,4.468433e-01,-4.140719e-03,4.233844e-01,-3.876864e-02,1.768509e-01,4.260077e-02,-1.594483e+00,4.590163e-03,-4.673801e-01,-8.303856e-01,7.391574e-02,-1.062950e+00,-1.514625e-02,-1.110751e+00,-9.415063e-01,5.580576e-01,5.995916e-01,-1.772547e-02,-1.343578e-01,-1.077621e-01,-1.374601e+00,
-2.223188e-01,4.742915e-01,1.299261e-01,-1.283027e-01,-9.425977e-02,8.394477e-02,2.875520e-02,1.412378e-02,9.202134e-02,3.254073e-01,-6.189418e-02,2.159011e-01,3.395521e-02,3.788917e-02,1.525568e-01,-1.665271e-02,2.686121e-02,-2.947181e-02,-3.724987e-02,-7.974429e-02,6.500394e-01,6.123267e-02,-1.976458e-01,-1.255705e-02,-2.399621e-01,1.410657e-02,3.706307e-02,5.516066e-02,4.687822e-02,2.401601e-02,1.873664e-01,-6.091792e-02,-3.689490e-01,-5.881017e-01,-2.198155e-01,3.904698e-02,2.476571e-02,2.680278e-01,-1.183891e-01,1.081112e-01,1.569602e-01,-2.533889e-02,1.585543e-02,-5.087506e-02,4.111026e-01,
5.083339e-01,-3.467158e-03,5.548822e-01,-7.121011e-03,1.264271e-01,-1.438599e-01,-3.427851e-02,-1.473672e-02,2.789858e-01,2.651198e-01,-1.192154e+00,5.650886e-01,-2.766776e-04,4.119575e-02,-1.801276e-01,2.785999e-02,-1.257670e-01,1.336939e-01,-1.320778e-02,9.426880e-01,4.296532e-01,-3.199875e-02,2.693920e-01,-3.365520e-02,5.133966e-01,6.445856e-05,1.458028e+00,-1.887016e-02,1.573094e-01,4.180610e-03,5.824170e-02,-3.874040e-02,-3.874113e+00,5.946820e-01,1.306201e-01,1.376109e+00,5.362566e-01,-1.210141e-01,3.533587e-01,3.455063e-02,8.824620e-01,3.766592e-02,1.089647e+00,2.507538e-01,-4.489193e-01,
1.478710e-01,3.663146e-02,1.305720e-01,-2.015283e-02,1.437074e-01,-2.049840e-01,3.569644e-03,-2.169124e-02,1.414171e-01,-1.250499e-01,-5.514886e-02,3.363599e-01,5.085167e-03,1.215550e-02,-1.283020e-01,1.964133e-02,-9.995485e-02,-5.946343e-02,-1.773707e-02,5.580088e-02,2.941564e-01,-2.199342e-01,5.721688e-01,-8.140272e-03,1.464628e-01,-3.114251e-02,4.332092e-01,1.382963e-02,5.821806e-02,-6.169457e-02,4.480895e-01,-3.543614e-03,-2.195506e-01,2.079914e-01,-3.831530e-02,1.090365e-01,-1.093779e-01,-3.713925e-01,9.803523e-02,-3.318565e-01,-3.748169e-01,-5.758230e-02,2.116173e-01,3.572932e-01,-6.028241e-02,
-3.559065e-02,-2.035188e-02,-3.337243e-02,-1.578533e-03,3.018150e-02,-2.842617e-02,-3.279860e-02,-3.314990e-02,-3.880566e-02,-1.719859e-02,-2.009518e-02,-1.306920e-03,2.693217e-02,9.158134e-04,-2.944480e-02,3.114969e-02,-6.265752e-02,6.593494e-03,5.446280e-03,-1.435488e-03,1.919990e-03,-2.431515e-02,-1.240619e-02,-2.721283e-02,-2.264133e-02,-7.501650e-04,3.841528e-02,-3.958295e-02,-3.495199e-02,-4.211510e-02,2.635318e-02,1.159179e-02,-3.304164e-02,-4.960383e-02,-1.491681e-03,-3.322257e-02,4.100067e-02,3.992620e-02,-4.655647e-02,-5.223233e-02,-4.179133e-02,2.263149e-02,-4.211886e-02,-2.880207e-02,2.574958e-02,
4.282319e-02,1.966951e-01,1.007636e-01,1.678668e-01,-1.481519e-01,1.502807e-01,3.671172e-02,-2.951008e-02,1.050121e-01,1.520780e-01,2.165533e-01,-1.108777e-01,-2.903757e-02,4.456876e-02,-2.358974e-02,4.670610e-02,2.196736e-01,2.346724e-02,3.544623e-02,1.598693e-01,3.991658e-01,1.696703e-02,4.194856e-02,-2.459165e-02,-2.372706e+00,-2.917724e-02,-1.567153e+00,3.331395e-03,7.672559e-02,-2.527766e-02,4.208006e-01,5.726444e-03,2.580012e-02,-2.410081e-01,-1.678685e-01,-1.678317e-01,-5.236705e-02,1.400071e+00,1.522871e-01,2.549574e-01,2.555659e+00,-8.517511e-03,-1.754291e-01,6.081841e-02,-3.107139e-02,
-3.713398e-02,-3.400810e-02,-2.128273e-03,3.619653e-02,-1.590904e-02,1.607973e-02,2.007556e-02,-4.217526e-02,-2.997165e-02,-4.977502e-02,-2.237038e-02,1.666799e-02,-8.557869e-03,1.334116e-02,7.197900e-03,-3.526032e-03,-3.678912e-02,-4.986151e-02,-3.206472e-02,-1.467662e-02,-7.589899e-03,1.246422e-02,-2.723490e-03,3.836644e-03,-2.625239e-02,-1.952145e-02,2.380225e-02,-2.490026e-02,-1.643615e-02,2.049924e-02,3.161231e-02,-4.976609e-02,2.394513e-03,1.362057e-02,-1.729181e-02,1.746169e-02,-1.461391e-02,-2.770074e-03,2.325203e-02,3.358731e-02,-2.429386e-02,2.452850e-02,-3.060623e-02,-8.955100e-03,-2.128915e-02,
9.682832e-02,6.735521e-02,2.318622e-01,1.820893e-01,1.770776e-01,3.568416e-02,1.377792e-02,3.413840e-02,3.391878e-01,2.515629e-01,-1.655447e-02,4.098888e-02,4.660558e-02,7.392548e-02,1.329057e-01,1.176936e-02,-1.479681e-01,-6.230861e-02,-2.361966e-02,9.771989e-02,1.544914e-01,1.739641e-01,3.678043e-01,-7.032545e-03,-2.376476e-02,3.438705e-02,2.658444e-01,8.797077e-03,-2.729821e-02,5.511355e-02,1.096968e+00,-2.267155e-02,-5.956662e-01,-1.670448e-01,-1.900630e-01,2.907336e-01,-6.143081e-03,5.381681e-01,2.230446e-01,6.832046e-02,-2.008804e-02,-2.246178e-02,1.260823e-01,2.451842e-01,3.197713e-02,
