// Neural Network File Format by Kyle Julian, Stanford 2016
7,4,7,45,
4,45,45,45,45,45,45,7,
0,
-8000.0,-100.0,-100.0,6.0,
8000.0,100.0,100.0,40.0,
0.0,0.0,0.0,23.84210526,-3.8529093497767,
16000.0,200.0,200.0,34.0,26.8591142426,
-1.394707e+00,-1.031162e-01,6.515098e-02,-4.632973e-02,
-1.210255e+00,8.017184e-02,-5.523710e-02,2.951973e-01,
-1.628600e+00,5.669689e-01,-5.579040e-01,7.899934e-03,
1.062537e-01,-1.208867e-02,7.220763e-03,1.909117e+00,
9.100177e-03,-1.671279e-02,-2.188165e-01,1.904081e-02,
3.082281e-02,7.599729e-01,-7.620639e-01,8.158245e-03,
2.821252e+00,2.343573e-02,-5.404425e-03,4.186294e-03,
1.757032e-02,1.463955e-02,-4.884523e-03,4.238758e-03,
1.067835e+00,3.067761e-01,-3.189805e-01,-4.644510e-01,
-1.451312e-02,3.149072e-03,1.697061e-03,4.894491e-01,
-2.714077e+00,1.324357e-01,-1.258907e-01,-7.207846e-03,
-4.093415e-01,1.997878e-01,-1.084793e-01,1.816148e-01,
4.060974e-01,3.923740e-01,-4.887695e-03,1.770350e-01,
2.323907e+00,1.269896e-01,-1.200785e-01,-7.056761e-03,
4.638608e-03,5.833396e-01,3.009665e-04,7.091042e-03,
-4.690413e-01,-2.481970e-01,-6.814341e-02,3.803912e-03,
-2.232584e-01,2.007135e-01,8.090788e-02,-2.141446e-01,
9.957021e-03,8.281865e-03,1.128692e-02,7.936189e-01,
-1.250462e-02,9.161770e-01,7.231856e-03,5.164989e-03,
-1.639955e+00,5.771904e-01,-5.741716e-01,-2.162533e-02,
3.852971e-01,-4.267087e-01,4.284553e-01,3.045297e-01,
-1.946794e+00,-5.490233e-02,5.245838e-02,2.870805e-01,
3.554950e-01,-7.761941e-02,7.095007e-02,-3.264379e-01,
-1.872698e-03,-1.814238e-02,2.434810e-03,1.166170e-01,
4.538248e-01,-1.860666e-01,2.407161e-01,1.327732e-01,
4.656011e-01,4.006866e-01,-3.939098e-01,3.097712e-01,
2.404645e+00,8.408950e-02,-9.322663e-02,2.943977e-02,
7.931705e-04,-1.797452e-03,3.157437e-03,1.626857e+00,
2.032507e-01,-9.191616e-02,-4.992463e-02,6.911819e-02,
5.516041e-01,1.200948e-01,1.463161e-01,2.086575e-02,
1.393266e+00,-3.911805e-01,3.996075e-01,-1.920373e-01,
-1.931961e+00,1.257446e-01,-1.185436e-01,-1.804092e-01,
2.719876e-01,2.829750e-01,-2.880635e-01,2.810165e-01,
-8.434669e-01,2.860380e-01,3.212364e-02,-5.124871e-02,
2.010610e+00,3.797969e-01,-3.800017e-01,-5.602083e-01,
-2.751614e-02,4.177884e-01,7.216126e-03,8.370784e-03,
-4.176071e-01,1.774436e-01,1.708014e-01,-2.132753e-02,
-8.170607e-03,1.245312e-02,-7.497531e-03,4.138882e-02,
-5.087889e-01,9.925826e-02,1.327265e-01,2.139827e-01,
-1.655383e+00,2.846157e-01,-2.913099e-01,3.126282e-01,
5.822639e-01,4.052867e-01,2.246864e-03,-1.816989e-01,
-1.503024e+00,2.270973e-01,-2.218779e-01,-3.673535e-01,
2.407582e+00,3.206555e-03,-4.177811e-02,9.315709e-03,
-1.010881e+00,-4.268508e-02,3.610096e-02,4.281145e-01,
2.338664e+00,2.443192e-01,-3.658109e-02,3.194517e-02,
2.688579e-02,
-1.718818e-01,
-3.995248e-02,
-1.274907e-01,
5.398345e-03,
2.013400e-03,
1.605319e-02,
-2.686853e-02,
-2.909309e-01,
-1.331720e-02,
1.217419e-01,
-1.141463e-01,
-1.442200e-01,
1.138575e-01,
-2.131418e-03,
-6.968804e-02,
-1.501679e-01,
-3.663231e-01,
1.509847e-01,
4.239449e-02,
2.813180e-02,
1.979128e-01,
-3.274275e-02,
-6.666856e-02,
6.904147e-02,
-4.510396e-02,
-1.114962e-02,
-1.269093e-02,
5.428136e-02,
-7.103403e-02,
-2.813229e-02,
-1.518434e-01,
1.527156e-01,
-1.342763e-01,
-8.612452e-02,
7.223371e-02,
-9.693555e-02,
-3.374135e-02,
-7.405513e-02,
6.620063e-02,
-2.416318e-01,
-2.877444e-02,
3.655543e-02,
-1.343246e-01,
-5.402657e-02,
3.467263e-01,2.330980e-01,-8.215418e-02,1.670906e-01,7.161896e-01,2.974403e-01,-1.909201e-01,-8.578293e-02,-2.174641e-01,9.433020e-02,-2.918209e-01,3.708720e-01,7.173036e-02,1.682173e-01,8.356161e-02,2.217330e-01,4.902179e-01,3.760338e-01,-6.265620e-01,3.831907e-02,-1.051636e-01,-9.248833e-03,2.305973e-01,-3.320919e-02,-1.238686e-01,1.639579e-01,-2.682300e-01,1.153641e-02,4.034070e-02,6.995277e-03,-2.160497e-02,1.801136e-01,1.619356e-01,2.257907e-01,1.066866e-01,-3.906528e-01,7.519609e-02,-2.283995e-02,1.074060e-01,1.149011e-02,2.386360e-01,9.047524e-02,-6.437357e-02,6.080419e-01,2.865700e-01,
3.688552e-01,6.244303e-02,-4.443661e-01,4.207803e-01,3.389950e-01,2.180688e-01,-3.582212e-01,5.812232e-03,6.114206e-01,-1.587148e-01,2.661518e-01,1.483445e-01,-1.480832e-01,-1.249675e-01,3.267582e-01,3.490877e-01,-4.708070e-01,-2.767474e+00,-9.120155e-02,-3.630496e-01,4.488452e-01,2.390981e-01,-3.988008e-01,-1.028656e-01,4.253047e-01,2.081737e-01,4.706804e-01,-3.357722e-01,-1.316282e-01,-2.253322e-01,-1.456878e-01,2.974691e-01,1.456206e-01,5.032869e-01,-1.446673e-01,7.273310e-02,3.708021e-01,-5.610972e-02,3.413995e-01,-2.915969e-01,1.548893e-02,-2.113528e-01,-3.442033e-02,-4.025585e-01,9.236315e-02,
2.370522e-01,3.247174e-01,3.478465e-01,5.920471e-02,-4.775462e-01,-7.907581e-01,7.131749e-01,3.605532e-02,-1.173598e-01,-2.721063e-03,4.759191e-02,1.331230e-01,1.052337e-01,-4.678538e-01,-1.541033e-01,4.519987e-02,-1.523762e-01,1.288625e+00,-1.610741e-02,6.777763e-01,-8.827578e-01,-9.411617e-02,-1.164035e-01,-1.649528e-02,-3.354166e-01,-1.685250e-01,7.130318e-01,1.665332e-01,-5.959087e-01,5.448802e-01,-7.800653e-02,1.149894e+00,4.147632e-01,2.572298e-01,-5.770730e-01,-1.416354e-02,-3.401874e-01,1.200098e-03,-1.668768e-01,-4.558194e-01,1.252221e-01,5.715876e-01,5.723262e-01,-3.059420e-01,5.019913e-01,
5.196875e-01,1.706591e-01,9.587591e-02,-4.943082e-02,2.861646e-01,7.404416e-02,-3.707715e-01,1.537707e-01,-1.849603e-01,1.474278e-01,3.398319e-01,4.644254e-01,-7.444946e-02,-3.532558e-01,1.164649e+00,1.115687e-01,-9.793562e-02,-5.967060e-01,2.452081e+00,-2.650038e-02,-1.941301e-02,-1.094164e-01,1.642867e-02,1.255491e-01,-4.860181e-03,-1.475578e-01,7.398399e-01,8.035236e-02,-2.387981e-01,3.787437e-01,2.286832e-02,1.619264e-01,1.819937e-01,1.272375e-02,6.279917e-02,2.007615e+00,-5.705144e-02,5.240922e-02,4.645807e-03,3.805179e-02,3.579237e-01,-2.273257e-02,-5.109773e-01,-7.068338e-02,1.208007e+00,
-2.127741e-01,2.345353e-01,-3.177536e-01,3.087158e-02,-7.144994e-01,3.499359e-01,6.004587e-01,-2.296293e-02,1.623543e-01,1.750377e-01,1.280009e+00,-7.228035e-01,-2.742215e-01,4.679237e-01,-6.568115e-01,-9.038147e-01,-1.820848e-01,-4.326622e-01,-1.209971e-03,-1.672934e-01,2.468906e-01,-1.135403e+00,-2.349081e-01,1.534307e-01,5.731915e-02,-3.227446e-01,6.728625e-01,1.464312e-01,-6.352517e-02,2.401710e-01,-1.228405e-01,-4.772882e+00,3.628716e-02,2.504672e+00,-1.593442e-02,-3.736415e-02,-2.649234e-01,1.692864e-02,9.852847e-01,4.948283e-02,-1.889233e-01,-5.104336e-01,4.334398e-01,-5.529615e-01,4.307219e-01,
-2.248873e-01,2.384744e-01,3.402699e-02,-3.516392e-01,1.193637e-01,2.128370e-01,3.605179e-01,-7.559894e-02,6.655788e-01,4.621594e-02,-2.503021e-01,-1.111224e-01,-2.054426e-01,1.449683e-01,-1.967420e-01,5.415109e-01,5.644558e-01,1.609971e+00,5.389222e-02,-2.378600e-02,1.708359e-01,3.016639e-02,-2.138273e-01,-1.201096e-02,-1.392564e-01,7.915541e-02,-4.319224e-02,1.732349e-01,2.701066e-01,6.523355e-02,-3.735230e-02,2.843892e-01,-2.227735e-01,-4.915060e-01,-1.553214e-01,7.042837e-02,-1.104650e-01,-3.274566e-02,-4.563924e-01,1.546839e-01,-6.681637e-01,-5.595106e-01,-1.782534e-01,6.169922e-01,-1.621696e-01,
-1.129099e-01,7.342460e-01,-9.532465e-01,-3.188492e-01,7.581948e-01,-2.848395e-02,3.136595e-01,-1.178907e-02,4.341120e-01,2.424291e-01,2.709160e-01,1.556020e+00,2.411236e-02,-5.618398e-01,-1.518118e-01,-6.573280e-01,-1.069902e-01,-4.106497e-01,1.095342e-01,-4.146838e-01,-2.428179e-01,1.876830e-01,1.670565e-02,1.122550e-01,6.412923e-02,6.553144e-01,7.093912e-01,1.728422e-01,4.425650e-02,-4.309729e-01,1.696324e-01,1.011275e-01,-9.882049e-02,-3.027695e-01,-4.015497e-01,1.119629e-01,7.143357e-02,2.499640e-01,-3.698877e-01,3.973024e-01,7.372396e-01,-3.134548e-01,-2.414622e-02,-3.260383e-01,-2.235649e-01,
3.754107e-01,-5.332273e-01,-1.818105e-01,-4.581772e-01,2.323076e-01,-6.580226e-03,5.179440e-01,2.567843e-02,5.394289e-01,1.089994e-01,9.942036e-02,-8.672946e-01,-2.440680e-02,5.655188e-02,1.566057e-01,-3.299520e-02,-5.916795e-01,-7.515188e-01,-4.712237e-03,-2.229549e-01,-4.602228e-02,-1.671689e-01,2.186652e-01,2.028839e-02,-4.306662e-01,3.956938e-01,5.110486e-01,3.154467e-01,-2.830641e-01,-4.933301e-01,-3.614088e-01,6.059509e-03,1.736109e-01,8.919425e-02,3.817840e-02,4.457156e-02,-3.653107e-01,1.128857e-01,-2.523019e-01,7.716018e-02,-2.185544e-01,-2.214856e-01,1.622466e-02,7.409649e-01,-5.428539e-01,
2.621110e-01,-2.439059e-01,2.083012e-01,1.187250e-01,5.167291e-01,8.063459e-02,-1.326649e-01,3.139676e-02,-4.302543e-01,-8.239071e-02,-3.303649e-01,-9.686951e-01,-1.965095e-01,1.430442e-01,-8.538456e-03,-8.337783e-02,6.241568e-01,-1.632334e+00,2.175371e-02,-1.378196e-01,-4.145737e-01,-3.782881e-03,5.534734e-01,-6.769480e-02,-5.952947e-01,1.045165e-01,9.494186e-03,-1.356218e-01,-2.135414e-01,2.146934e-01,6.036568e-01,2.386766e-01,-2.021799e-01,2.030725e-01,-4.808340e-01,6.829567e-02,3.935119e-01,-1.788391e-02,-1.536670e-01,-7.953101e-02,3.074031e-01,-2.713028e-01,-1.319564e-01,1.456638e+00,3.040490e-01,
-2.143009e-01,1.553092e-01,9.966732e-02,-3.726878e-01,-5.510064e-01,-1.140351e-01,3.721184e-01,-3.967314e-02,-3.762984e-01,3.912391e-01,2.753255e-01,-1.858134e-01,1.346880e-01,-3.197673e-01,-4.118719e-01,-1.172753e-01,-3.017924e-02,3.699239e+00,-5.458057e-02,3.223460e-01,4.243077e-02,6.047840e-02,-2.869907e-01,3.653867e-01,-4.407262e-01,1.495715e-01,4.114891e-01,4.572707e-01,2.960956e-01,-1.131055e-02,-2.759292e-01,-2.331884e-02,2.922276e-01,3.162388e-02,-1.701541e-01,-3.827827e-02,-2.770671e-01,1.825573e-01,-4.483372e-02,-1.838350e-01,4.804008e-02,2.707795e-01,3.498604e-03,-9.410399e-01,1.148648e-01,
-1.924704e-01,4.026486e-01,2.704062e-01,-1.396808e+00,-6.806203e-01,-5.953024e-01,3.249954e-01,1.050214e-01,-5.293312e-01,8.032477e-01,1.449375e-01,4.512078e-02,-1.390515e-02,1.992646e-02,-1.230175e-01,-5.577633e-01,-2.272188e-01,-2.760226e+00,2.184910e-01,3.590064e-01,-3.812632e-02,1.189968e-01,-3.177579e-01,7.746168e-01,-9.473588e-03,-3.138894e-01,6.738163e-01,1.159002e+00,-2.811629e-01,-1.635240e-02,1.100995e-01,9.918904e-01,1.487721e-01,-2.617205e-01,-2.387493e-01,1.635594e-01,-4.496763e-01,2.767567e-01,3.996886e-01,5.037182e-02,-9.893081e-01,-5.892979e-02,1.691427e-01,-8.246529e-01,-1.611629e-01,
-8.318245e-02,1.499463e-01,4.695377e-01,-3.886916e-01,-1.416976e-01,-7.066098e-02,1.322127e-01,6.009317e-02,-1.003168e-02,5.306242e-02,-3.788850e-01,9.520496e-03,4.484469e-01,1.583274e-01,-9.078286e-04,3.868759e-01,-1.734872e-01,2.649976e+00,-6.010132e-02,-2.565570e-01,8.316168e-01,-2.859801e-01,3.349030e-01,-7.144332e-03,8.366020e-01,1.343082e-02,1.408751e-01,2.825784e-01,-5.224129e-01,-7.943396e-02,3.291278e-01,-2.194278e-01,-4.710439e-02,-3.693719e-02,-1.718874e-01,-1.278568e-02,-4.586589e-01,-3.115453e-03,2.845832e-01,4.401574e-01,-1.783061e-01,1.684184e-01,-3.949609e-02,-1.045858e-02,1.128769e-01,
1.238262e-01,3.057236e-01,-8.089842e-02,-2.077288e-01,-6.000189e-01,2.205056e-01,2.982607e-01,-7.505675e-02,-5.841804e-01,2.121143e-01,-2.525561e-01,-5.281258e-01,-1.803156e+00,1.650016e-01,-4.518801e-01,9.838955e-01,-2.842622e-01,-2.500172e+00,-1.865478e-01,1.255526e-01,2.907915e-01,-2.093808e-01,-5.435104e-02,1.672492e-01,-2.614214e-01,-2.322485e-01,-1.446938e-01,1.646945e-01,-7.977798e-02,-1.078113e-01,6.035664e-02,5.180981e-01,1.340277e-01,1.664408e-01,-7.872136e-02,-5.889935e-02,-7.598469e-01,1.630682e-02,-3.467953e-01,-1.607402e-01,-3.877457e-01,4.877801e-01,2.640453e-01,2.738223e-01,2.216297e-01,
-3.601291e-02,-4.234559e-02,-5.972904e-03,-4.806642e-02,-2.332165e-02,2.074258e-02,1.290979e-02,-3.462453e-03,-4.549352e-02,-2.248313e-02,-3.974576e-02,-1.055983e-02,-2.709991e-02,2.208390e-02,9.094390e-04,1.872313e-03,-2.742383e-03,-2.759773e-02,-3.779829e-02,-4.871862e-02,-7.482447e-04,-2.930247e-02,-2.460456e-02,-3.593184e-02,2.299764e-02,-2.127443e-02,-1.370573e-02,-1.363206e-02,-4.650002e-02,3.057675e-02,-7.568100e-03,1.730937e-02,2.060235e-03,2.538432e-02,1.666143e-02,-4.446802e-02,-3.438829e-02,4.884522e-02,-3.518106e-03,1.060965e-03,1.150595e-03,2.156410e-02,-1.571925e-02,-1.683406e-02,-2.677925e-02,
6.384746e-01,5.902821e-02,2.893352e-01,1.367602e-01,8.627592e-02,4.088416e-01,-5.458659e-01,1.222842e-01,1.736926e-01,-7.177401e-02,1.014492e-01,2.296619e-01,-5.855372e-01,3.030006e-01,3.669089e-01,4.917793e-01,-5.619088e-01,-5.901933e-01,-1.021832e+00,-1.014529e-02,1.117710e-01,3.343614e-01,2.251239e-01,6.289924e-03,3.319550e-01,-4.459894e-02,-2.125421e-02,-1.863510e-01,9.724702e-02,4.530033e-01,2.841568e-01,-2.192118e-01,-4.488767e-02,-3.625703e-01,7.630434e-02,-6.233941e-01,-3.500438e-01,1.278447e-02,-3.463130e-01,-2.168381e-01,-1.692585e-02,-1.718322e-01,-4.794194e-02,-1.461216e-02,2.578151e-01,
5.511629e-01,2.690926e-01,-2.820459e-01,4.256928e-01,6.305995e-01,5.651824e-01,-1.854457e-01,-5.148170e-02,2.940898e-01,-2.817465e-01,8.647992e-02,-4.643037e-01,2.239999e-01,4.743450e-03,5.498139e-01,-1.106420e-01,-1.402745e+00,1.409243e-02,-2.020702e-01,-2.794553e-01,4.293902e-01,3.160076e-01,-1.048656e+00,-1.841880e-01,1.072572e-01,6.066980e-01,7.898750e-02,-5.070581e-01,4.297028e-02,-1.264400e-01,2.740942e-01,-4.601480e-02,-3.340157e-03,3.937966e-01,-4.226250e-02,-4.668221e-02,4.955381e-01,-3.978961e-02,3.038817e-01,3.772204e-02,2.824138e-01,-5.771078e-01,-2.195241e-01,-7.496487e-01,2.410176e-01,
-4.548497e-01,-5.591038e-01,-1.040040e-01,3.639672e-01,7.294126e-02,3.690855e-01,-3.728783e-01,3.982114e-02,1.957553e-01,-2.263505e-01,-7.847218e-01,6.121014e-02,-3.169751e-01,5.094658e-01,-6.487637e-02,-2.021886e-02,-1.428513e-01,-9.409091e-01,9.466140e-03,-1.041932e-01,-2.260176e-01,-3.844952e-01,9.032710e-02,-2.450602e-01,-1.380349e-01,-1.950292e-01,-2.375571e-01,-4.080548e-01,1.081569e-01,-1.345919e-01,-1.864678e-01,3.260760e-01,8.126818e-01,9.503016e-02,1.326997e-01,4.155722e-02,7.889974e-02,-5.672285e-02,3.841977e-01,-4.103296e-01,-4.876623e-02,7.287365e-02,-1.918717e-01,4.130530e-02,4.190342e-02,
-5.946572e-01,-9.999436e-01,-2.172306e-01,-9.124605e-02,2.546479e-01,2.134587e-01,2.755401e+00,-5.351568e-02,-4.168725e-01,1.083856e-01,-7.951185e-01,-2.439467e-01,-3.227699e-01,9.492321e-01,3.005131e-01,4.105884e-01,-1.001838e+00,-2.573781e-01,4.104180e-01,-2.089536e-01,1.017531e-01,-5.121851e-01,1.941034e-01,7.850633e-03,3.126544e-01,-6.394141e-03,8.119755e-01,1.797975e-01,3.523616e-01,3.161506e-02,2.285102e-01,-2.281233e+00,8.647847e-02,-5.162089e-01,8.048717e-02,3.946694e-01,-2.711089e-01,2.213554e-02,-2.172472e-01,-2.697811e-01,-3.020766e-01,-2.881666e-01,1.600321e+00,-2.698734e-01,1.145050e-01,
-2.200239e-01,-5.760224e-01,1.058481e+00,6.812078e-02,7.062639e-02,-1.940979e+00,7.119169e-01,-2.524953e-02,8.889087e-01,1.638274e-02,1.831534e-01,-1.215640e+00,-3.767737e-02,3.394132e-02,-8.001053e-02,-1.338983e-01,-1.322990e-01,4.099405e-01,6.185142e-02,5.304335e-01,-1.966034e-01,-3.304235e-01,-1.991006e-01,1.811606e-02,-1.235794e-01,-1.057164e+00,8.301535e-01,1.737188e-01,2.567090e-01,-2.127135e-02,-2.392584e-02,-4.494303e-01,-8.623834e-02,-2.478969e-01,8.433314e-02,5.277564e-02,2.290159e-01,4.688516e-02,3.758729e-01,-2.028526e-01,-1.890477e-02,-3.040655e-01,3.135962e-01,3.306754e-01,-1.340676e-01,
-8.748852e-02,-8.675689e-02,3.099970e-01,-2.532279e+00,1.381310e-01,-6.411672e-01,5.755950e-01,-1.018731e-02,-5.137821e-01,1.700066e+00,3.678132e-01,-2.557514e-01,4.028818e-02,-3.050421e-01,5.509102e-02,-2.535440e-01,1.006178e-01,1.185241e+00,1.392742e-02,3.659097e-01,-1.888136e-01,7.383014e-02,-1.639098e-01,1.363715e+00,1.737258e-02,-3.135138e-02,7.228385e-01,2.492305e+00,6.805031e-02,-6.783863e-02,8.246178e-02,8.434946e-01,2.369529e-01,-2.832936e-01,-3.322994e-01,7.478546e-02,-1.781430e-01,3.600468e-01,-1.819959e-01,-1.131420e-01,2.972355e-01,6.100266e-02,3.453740e-01,-1.105932e+00,-2.523854e-01,
5.384769e-02,-6.797950e-01,3.232420e-01,-1.623671e+00,3.358901e-02,-9.601290e-01,8.984913e-01,-7.768971e-02,1.314946e-01,5.835516e-01,3.179535e-01,-1.318191e-01,-1.515228e-01,-4.519367e-01,1.053974e-02,-3.760137e-02,1.436790e-01,3.655539e+00,-5.597781e-05,5.435521e-01,-3.600666e-01,-8.149531e-02,1.027646e-01,2.322153e-01,-1.034240e-01,-8.812161e-02,1.016564e+00,1.568756e+00,-8.040007e-02,-1.126299e-02,6.449721e-01,1.077126e+00,2.637442e-01,-5.442870e-02,-2.878159e-01,4.416725e-03,1.010945e-01,1.595543e-01,5.353424e-02,3.425527e-01,-7.419046e-02,3.877325e-01,5.775690e-01,-1.477254e+00,2.872342e-01,
1.695244e-02,-1.534961e-02,6.447509e-01,-2.285294e-02,-2.877475e-01,5.300248e-02,4.010391e-01,4.322643e-02,-2.257065e-01,1.554219e-01,1.383732e-01,-4.180595e-01,-7.581896e-01,-3.828959e-01,4.017426e-01,1.729348e-01,-1.023558e+00,-4.190474e-01,1.286201e-01,1.456559e-01,3.343593e-02,6.734620e-02,3.535680e-01,1.103350e-01,1.433345e-01,-5.283814e-01,5.060747e-01,1.566650e-01,5.984019e-01,-4.040459e-01,1.304886e-01,-2.020559e+00,-5.619516e-01,5.035656e-02,1.283950e-01,1.758437e-01,5.596225e-01,5.738259e-02,6.628026e-01,-8.584309e-02,-1.045848e+00,-6.071895e-01,2.461494e-01,-2.487572e-01,-3.012180e-01,
3.648220e-02,3.085550e-02,-4.035874e-02,-3.681183e-02,-3.684816e-02,-4.920346e-03,-1.575692e-02,-4.406813e-02,2.121175e-02,-1.375333e-02,-3.570414e-02,3.891751e-02,-8.370190e-03,1.361648e-02,-1.483560e-02,-5.533651e-02,3.771417e-02,-4.105781e-02,2.136975e-02,9.835257e-03,3.327438e-02,-3.199983e-02,-5.787979e-02,5.689464e-03,-3.174819e-02,-4.972365e-02,-1.581809e-02,4.517752e-02,-4.387282e-02,-2.829826e-02,2.854143e-02,3.547369e-03,-4.945589e-02,-1.232365e-02,3.462654e-02,-3.968539e-02,-4.197368e-02,-3.762360e-02,2.012717e-02,-1.726338e-02,-4.741062e-02,1.766406e-02,-4.691326e-02,9.186543e-03,2.609655e-02,
-6.260194e-01,-1.136579e+00,-3.825133e-01,3.193303e-01,1.692246e-01,2.694547e-01,3.275253e-02,-1.722492e-01,1.232728e-01,-1.780040e-01,2.555837e-01,-1.559951e-01,2.050554e-01,1.451086e-03,2.962978e-01,5.392700e-01,2.689523e-01,-1.107020e+01,-7.536814e-02,3.900102e-02,-8.894334e-01,-1.241975e+00,-7.071777e-01,5.558095e-02,-1.399039e-01,-7.478241e-02,8.193045e-02,-3.286907e-01,9.160642e-02,3.414075e-02,-1.618656e+00,-1.452347e-01,2.728414e-01,-6.637164e-01,-4.340746e-02,-2.246544e-03,-7.725762e-03,1.046295e-01,3.394644e-01,-2.820278e-01,8.241728e-02,-3.790981e-01,8.813419e-02,1.618538e+00,5.462752e-02,
-3.780891e-01,6.627390e-01,-7.932287e-02,3.276899e-01,8.275639e-01,9.321615e-02,-1.570983e-02,-1.030565e-02,-6.434505e-02,-1.401423e-01,3.275678e-02,-1.283588e-01,-2.805427e-01,-1.309127e-01,1.581201e-01,-7.497423e-02,-6.048517e-02,-1.676991e+00,1.184010e-01,-2.189670e-02,1.378944e-01,-8.049205e-02,-4.280315e-01,-1.364772e-01,-1.347231e-01,-2.408250e-01,-2.233796e-01,-1.861291e-01,-7.360119e-02,3.207729e-01,4.503411e-02,-1.002868e+00,-1.731884e-01,-1.951033e-01,3.339938e-02,1.328453e-01,-9.138176e-02,-2.230025e-03,-3.108785e-01,-2.379032e-01,-7.090323e-01,7.711713e-02,1.673245e-02,-4.118114e-01,2.815104e-01,
-4.889698e-02,8.978573e-01,4.165636e-01,-5.906671e-02,-1.693318e-01,-4.612719e-01,1.437827e+00,-6.660423e-02,4.106030e-01,4.159757e-01,-2.808163e-02,-6.238678e-02,6.913319e-01,2.471741e-01,-1.049224e-01,-6.855121e-01,2.615339e-01,-6.534931e-01,3.085842e-01,4.274560e-01,1.775797e-01,-5.451237e-02,-1.402436e-01,1.594221e-01,3.875331e-01,2.490136e-01,7.443851e-01,5.733635e-01,7.791053e-02,2.991384e-01,4.374365e-01,1.294325e-01,-1.206907e-01,4.793453e-01,-1.757916e-01,1.835189e-01,3.131351e-01,3.150761e-02,5.796241e-01,2.506799e-01,5.537354e-01,-3.138629e-01,8.050932e-01,-4.766824e-01,4.063438e-01,
-6.287071e-01,-5.377804e-02,9.342476e-01,-3.289026e-01,-3.353909e-02,-9.625175e-01,5.967539e-02,-9.932240e-02,5.312907e-01,3.560516e-01,3.119604e-01,8.030581e-01,1.891438e-01,5.093790e-01,-1.760901e-01,2.006980e-01,-2.718580e-01,2.466180e+00,-9.232649e-03,-2.036230e-01,3.704432e-01,1.702453e-02,-7.136596e-02,2.645259e-01,4.763677e-01,-4.077201e-01,3.120658e-01,4.890141e-01,1.306520e-01,-2.323627e-01,2.384077e-01,1.076469e-01,1.021747e-01,-2.696264e-01,4.160299e-01,-6.162143e-02,1.958757e-01,1.291661e-01,-4.302219e-02,2.514250e-01,-4.541977e-01,-9.214866e-01,2.188344e-01,-1.999339e-01,-9.175213e-02,
3.482862e-01,-6.990885e-01,4.333835e-01,-1.154322e+00,5.547264e-01,-6.875097e-01,3.877423e-01,1.055094e-01,-1.738496e-01,6.136740e-01,5.397570e-01,8.704960e-02,4.202220e-02,-2.985169e-01,8.893093e-02,3.045602e-01,-2.713166e-01,-6.718228e-01,-1.047085e-01,4.690756e-01,-2.912963e-01,3.549883e-01,-6.640863e-03,5.054733e-01,-1.780794e-01,-1.399557e-01,4.948333e-01,8.732051e-01,3.599101e-01,-8.178921e-02,-1.041094e-02,8.337771e-01,2.784683e-01,1.891416e-02,-2.386635e-01,-1.003542e-01,3.975795e-02,2.401222e-01,3.965691e-01,1.826895e-01,-1.218822e-01,3.988871e-01,1.261516e-01,3.027636e-01,-2.410589e-01,
1.593382e-01,-1.838950e-01,5.466006e-01,-8.658643e-02,-3.064891e-01,-8.659997e-02,1.394894e-02,1.078265e-01,-2.587296e-01,3.798195e-02,6.157731e-01,3.250690e-01,2.225365e-01,-1.612691e-01,6.166763e-01,-1.672046e-02,4.386583e-02,8.461058e-01,4.368321e-01,5.338818e-01,-6.148854e-01,3.223509e-01,-9.176118e-02,-7.602514e-03,-4.102282e-01,-5.391296e-02,4.712418e-02,6.400305e-02,2.674790e-01,3.440507e-01,1.304854e-01,1.012574e+00,3.088368e-01,2.134120e-01,-3.651382e-01,4.921686e-01,-4.180905e-02,-8.986380e-05,-4.206177e-02,3.530968e-01,2.590060e-01,6.379910e-01,1.603842e-01,-4.798358e-02,3.474886e-01,
5.201399e-01,-1.548877e-01,4.481502e-01,-1.911929e-01,3.740661e-01,-7.322186e-01,1.270305e-01,1.614246e-02,-4.620191e-01,2.373314e-01,4.808974e-01,4.950869e-01,-1.902970e-01,-5.030597e-01,-9.084962e-02,6.050228e-01,-6.947566e-01,-2.561219e-01,-5.312808e-01,3.260050e-01,-1.372386e-01,1.859699e-01,1.174863e-01,2.466481e-01,3.320582e-02,-4.184793e-02,6.903063e-01,1.767617e-01,5.327664e-02,-8.703728e-02,2.194690e-01,6.163625e-01,-2.190721e-03,6.182157e-01,-1.490222e-02,-3.791050e-01,4.308824e-01,1.889015e-01,-1.399203e-01,1.773196e-01,3.027815e-01,3.506809e-01,2.979867e-01,-3.936046e-01,-7.315832e-02,
-6.836166e-02,5.171381e-02,-6.541817e-03,-1.782326e-02,-1.019648e-01,4.062398e-02,-1.308080e-01,-7.492398e-02,-1.765830e-01,6.506144e-02,-1.746428e-01,1.261902e-01,-6.099803e-03,1.745429e-01,-1.284696e+01,1.699316e-01,8.207090e-01,2.107815e-01,-1.276850e+00,-6.538767e-02,-7.264098e-02,2.930359e-01,-7.053868e-02,3.007083e-02,1.892553e-01,8.044415e-02,2.038073e-01,5.599639e-02,1.938704e-01,4.061301e-01,-9.650685e-02,1.309706e-01,-3.085199e-01,-3.259801e-01,4.014779e-02,-8.782145e-01,-1.150420e-01,3.419060e-02,-1.204763e-01,2.412475e-02,-4.156620e-02,3.600086e-02,6.078883e-02,6.013697e-02,-2.610869e-01,
2.552365e-01,2.539225e-01,6.973083e-02,1.798615e-01,9.529738e-01,-3.645730e-02,1.357265e-02,9.420328e-02,1.086910e-01,-2.437688e-02,-2.446626e-01,4.567861e-02,4.747594e-01,1.137726e-01,3.746032e-03,-1.071439e-01,2.434097e-01,1.091230e+00,-3.032597e-01,1.047276e-01,-1.094920e-01,-1.818398e-02,1.259560e-01,9.765288e-03,1.239864e-01,-3.145862e-01,6.590971e-02,-1.665267e-01,-8.011139e-01,3.001443e-01,1.063149e-02,2.457629e-01,5.289807e-01,-3.114222e-01,-2.689185e-01,-1.636356e-01,5.187632e-01,-7.526322e-02,2.685268e-01,-8.748219e-03,3.216981e-02,-5.766383e-02,8.708820e-02,-3.264894e-01,-6.953117e-02,
3.805473e-01,-1.181744e-01,-1.053899e-01,-2.714319e-01,-5.828725e-02,-7.027375e-02,1.277566e+00,-7.498408e-02,-2.540342e-01,2.573301e-01,-7.138129e-02,-8.046220e-02,-3.643420e-01,2.901890e-01,-4.696545e-02,-4.033205e-01,1.146110e-01,6.750943e-01,6.191500e-02,1.914140e-01,-2.330359e-01,-2.135517e-01,5.505296e-01,7.625001e-02,-6.622425e-02,2.882341e-01,5.848036e-01,3.156169e-01,6.048745e-02,-1.851367e-01,3.915339e-01,1.194120e+00,7.421240e-02,7.740911e-01,-4.744875e-01,5.163936e-02,5.140092e-01,1.494719e-02,2.033879e-01,3.656053e-01,3.278991e-01,2.809114e-01,7.924985e-01,-2.493485e-01,2.473922e-01,
1.716734e-01,-7.358417e-01,6.798809e-01,-3.107371e-01,4.564317e-02,-6.532735e-01,6.180649e-01,3.577324e-02,-1.056474e-01,2.152120e-01,-1.141958e-02,-9.112216e-01,-7.232017e-01,-9.875223e-02,5.475171e-02,1.434020e-01,-2.262799e-01,1.048975e+00,5.831926e-02,6.790776e-01,-1.666155e-01,-1.545722e-01,-5.437249e-03,-2.557883e-02,3.896699e-02,-5.562286e-01,4.878368e-01,3.495698e-01,-3.815033e-01,-2.775600e-01,4.587446e-01,7.792407e-01,1.850271e-01,1.629331e-01,-2.970710e-01,9.614480e-03,-7.356177e-02,2.809444e-02,-5.082658e-01,-2.671316e-01,-4.354661e-01,7.460313e-01,2.174390e-01,-2.959078e-01,-1.860988e-01,
-8.089971e-01,4.537102e-01,3.471958e-01,-5.798497e-01,-1.351154e-01,1.701677e-01,1.777946e-01,1.711239e-01,7.545007e-01,2.652229e-01,6.871398e-02,9.399323e-01,-2.082337e-01,4.558958e-02,1.690451e-01,4.719263e-01,6.479962e-01,2.225204e+00,6.303392e-03,-2.854637e-01,3.960247e-01,1.236221e-01,-1.329640e-01,7.786108e-02,1.016886e+00,-3.007638e-01,3.255602e-01,5.084350e-01,-5.535813e-01,3.672647e-03,-4.395451e-01,-8.192822e-01,-5.490018e-01,-3.425422e-01,3.229919e-01,5.122626e-03,3.723856e-02,4.479974e-02,-4.493974e-01,-8.155686e-02,-2.795670e-01,1.130269e-01,-6.249385e-02,6.494546e-01,-2.839358e-01,
6.866003e-01,5.264591e-02,-5.238490e-02,-1.179159e-01,-1.202074e+00,5.473162e-02,5.464793e-02,1.028467e-01,2.766280e-01,2.823590e-01,2.720040e-01,3.194082e-01,-4.860196e-01,-3.743459e-01,-1.961706e-01,3.627619e-01,3.262593e-01,3.467720e-01,-1.117744e-02,5.182976e-02,1.188652e-02,1.835239e-01,-7.347833e-01,3.487654e-01,-1.931370e-01,3.327143e-01,4.564659e-01,2.163382e-01,-2.085528e-01,-2.173332e-01,3.318888e-01,1.957450e-02,-2.171256e-02,2.116729e-01,1.090163e-01,4.587647e-02,5.958829e-02,4.270693e-02,1.373314e-01,2.000808e-01,3.054763e-01,-6.069708e-02,1.933084e-01,-6.176453e-01,1.052588e-01,
8.221195e-01,2.054348e-01,-2.267098e-01,-4.726792e-02,-1.195194e-02,2.804137e-01,3.482682e-01,9.201813e-03,-8.873057e-02,8.022942e-02,1.412432e-01,1.622835e-01,7.930762e-02,-6.177305e-02,-1.576233e-01,-8.710704e-02,5.649388e-01,1.147136e+00,-1.326700e-03,-7.450006e-01,6.630007e-02,1.826719e-01,4.885607e-01,4.519214e-02,-5.178345e-01,2.872199e-01,5.300563e-01,9.613820e-02,-1.145158e-01,-1.115075e-02,-2.260475e-01,-2.143097e+00,-2.145311e-02,-6.459191e-01,-1.317301e-01,3.660885e-02,1.599102e-01,4.016193e-02,-1.232288e-01,-6.122969e-02,-7.143835e-01,7.336869e-01,-2.744744e-01,-3.850267e-01,-2.851777e-02,
9.737005e-01,-2.993599e-01,-2.662792e-01,-4.232146e-01,1.189357e-01,9.309058e-01,-1.618733e-01,1.467593e-02,-1.120158e+00,-3.328210e+00,-1.831812e+00,1.182249e+00,2.975174e-01,-2.072494e-01,-5.427133e-02,-1.578671e-01,3.170764e-02,-5.463160e-02,9.006250e-02,-1.596287e-01,-2.646867e-01,-1.939269e-01,2.216426e-02,-2.734225e+00,4.340646e-02,1.166623e+00,-2.096573e-01,-4.496113e+00,6.958172e-02,-6.742863e-02,6.348226e-02,1.887493e+00,1.206633e-01,2.585905e-03,-3.864561e-01,7.274540e-02,2.035113e-01,-7.436003e-01,4.828238e-01,-3.138155e+00,-1.654206e-01,-4.815868e-02,-9.626942e-02,-2.511178e-01,-1.566681e-01,
-3.112693e-02,1.761845e-02,3.070065e-04,-2.086571e-02,-1.447665e-03,-4.922784e-02,2.484353e-02,3.228539e-02,3.017167e-02,-2.120466e-02,-3.775981e-02,-5.558115e-02,-6.248409e-02,-1.055151e-02,-2.106733e-02,-2.976971e-02,-3.264344e-03,3.334600e-02,3.063703e-02,3.030885e-02,-8.055774e-03,-1.248403e-04,-1.214023e-02,3.660203e-02,-1.045891e-03,2.300983e-02,-2.124283e-02,-3.710160e-02,-3.317999e-02,-3.973188e-02,-3.373262e-02,2.465658e-02,-2.037416e-02,-6.922059e-03,-2.102932e-03,-5.922210e-03,-1.741727e-02,4.909516e-02,-4.450655e-02,-1.733006e-02,-2.772685e-02,-2.947228e-02,1.218089e-03,-8.998171e-03,-2.619507e-02,
-2.096947e-01,-3.551185e-01,-7.587268e-01,3.167611e-02,2.633144e-02,-2.214069e-01,5.491502e-01,3.196756e-02,3.741376e-01,1.132783e-02,-2.068104e-01,-5.294969e-01,2.022425e-01,1.283552e-01,-1.008950e-01,2.426942e-01,-8.317814e-01,-5.900726e-01,2.337582e-01,-4.226363e-01,-1.717905e-01,1.657477e-01,4.949369e-03,1.926805e-02,3.830986e-01,-4.307078e-01,-3.090260e-02,-1.701048e-02,-4.061553e-01,-2.607764e-01,1.538660e-01,9.032782e-01,-3.851175e-01,-4.876380e-01,2.426982e-01,2.748971e-01,3.376799e-02,1.985005e-02,-6.854657e-02,3.402738e-02,3.492616e-01,-5.590139e-02,4.315341e-01,-5.134701e-01,-4.269709e-02,
-1.248206e-01,2.263742e-01,2.923184e-01,-6.601245e-01,1.233617e-01,-6.985164e-01,7.968443e-01,-7.982301e-02,4.240231e-01,5.296652e-01,3.665167e-01,2.527553e-01,-3.091932e-01,-5.227789e-01,-1.289030e-01,-3.421507e-01,-3.110964e-01,-7.445210e+00,3.345253e-02,4.750168e-01,-9.372906e-02,1.090903e-02,-8.535352e-02,3.713511e-01,2.304729e-02,-1.474986e-01,1.014521e+00,9.537560e-01,-1.252302e-01,-3.418100e-02,1.094056e-01,4.872735e-01,-4.682300e-02,1.144374e-01,-6.501700e-02,2.610248e-02,-1.278560e-01,2.286515e-01,-8.166359e-02,1.759151e-01,-6.635579e-01,2.230998e-01,3.901277e-01,-7.431998e-01,-2.182981e-01,
-8.373134e-01,-1.071533e+00,-1.664644e-01,9.341895e-02,-8.284360e-01,2.865752e-02,2.773308e-02,1.698119e-01,6.200554e-02,-3.705107e-02,-4.226382e-01,-1.177961e-03,-3.280629e-01,-5.447915e-02,-1.172010e-01,-2.931621e+00,7.725389e-02,5.322489e-01,-1.316684e-01,-1.170901e-01,-1.550713e-01,9.509530e-02,1.542248e-01,-1.225475e-01,-1.921707e-01,1.570546e-01,5.145813e-01,-4.935081e-02,-2.348333e-01,1.404505e-01,-3.569286e-01,6.063976e-01,-1.551701e-01,2.716822e-01,-1.509839e-01,-7.004136e-02,5.111344e-01,1.342825e-01,-4.810595e-02,6.457382e-01,-3.857916e-01,2.586799e-01,-4.967343e-02,3.989886e-03,5.190431e-02,
7.804620e-02,-1.593121e-01,1.186238e-01,-4.029783e-01,4.363804e-01,-4.887595e-01,1.121224e+00,-9.303224e-02,7.007045e-01,1.496161e-01,6.072424e-02,-2.194183e-01,5.847784e-01,4.368560e-01,8.436333e-02,-4.639369e-02,1.489182e-01,-2.184691e+00,1.933553e-01,-1.131186e-01,8.433337e-02,-1.029611e-01,1.208628e-01,3.323692e-02,9.208164e-02,5.346320e-02,8.945156e-01,3.170152e-01,2.610427e-02,2.594575e-02,-2.171617e-01,-3.651090e-01,-1.315230e-01,-3.550724e-01,3.408242e-01,1.439390e-01,-2.354095e-02,5.001467e-02,-1.628371e-01,1.377295e-01,5.677853e-01,-5.439485e-01,6.393403e-01,8.211011e-01,1.167796e-01,
1.277731e-01,1.413581e-01,2.150194e-01,-1.405230e-01,-2.471067e-02,-1.326111e-01,4.093789e-01,1.548096e-01,4.297419e-01,1.878234e-01,-1.116075e-01,2.133345e-01,-1.092247e-01,2.103920e-01,5.930408e-01,-3.328785e-01,-6.832199e-01,2.538005e-01,1.486687e+00,3.838000e-02,3.161839e-01,-3.467423e-01,5.371005e-02,1.123771e-01,2.394278e-01,7.272292e-02,9.563784e-01,1.958924e-01,-2.011748e-01,3.622819e-01,-4.459798e-02,4.782859e-01,1.646788e-01,-7.178841e-02,2.003371e-01,1.108766e+00,2.630600e-01,3.602893e-02,5.467244e-02,1.257112e-02,2.483436e-01,-1.408234e-01,2.520094e-01,1.044298e-01,8.804398e-01,
3.054257e-01,-2.672049e-01,2.154924e-02,-8.474194e-01,2.770029e-01,-3.570423e-01,5.540856e-01,8.288062e-02,1.474305e-01,4.825274e-01,3.314572e-01,8.787770e-02,9.854046e-02,-6.642058e-01,-3.620937e-02,-1.021034e-01,2.647421e-01,6.989293e+00,3.956571e-02,1.203688e-01,-4.434916e-01,8.988091e-02,5.076404e-01,2.463083e-01,-4.076690e-01,3.913910e-02,8.983213e-01,8.068367e-01,-2.854501e-02,-2.369712e-01,5.811796e-01,1.149084e-01,2.666449e-01,1.344431e-01,1.013973e-01,1.882423e-02,1.139834e-01,1.845472e-01,-1.733318e-01,1.519120e-01,-2.489774e-01,4.540488e-01,1.854789e-01,-2.799667e-01,-2.258346e-01,
1.610320e-01,
1.661360e-02,
-2.105972e-05,
-1.654719e-02,
-1.018585e-01,
1.360888e-01,
-3.761828e-02,
-1.001095e-02,
1.321332e-01,
6.814299e-02,
7.187777e-02,
3.694200e-03,
1.437072e-02,
-6.837981e-03,
2.447629e-01,
-1.370851e-01,
3.187123e-01,
-1.162552e-01,
2.228021e-02,
-4.494641e-02,
-2.219236e-01,
-1.193641e-01,
-1.320182e-02,
1.806646e-01,
7.824316e-02,
-5.833790e-02,
-1.928699e-02,
5.799758e-02,
-7.681214e-02,
1.019795e-01,
4.237725e-01,
1.689393e-02,
-1.544225e-01,
-9.202033e-02,
2.914181e-02,
-6.969259e-02,
-1.081519e-02,
2.861642e-01,
-1.475662e-02,
-5.295256e-03,
-1.261461e-01,
1.556722e-01,
-2.103828e-02,
6.159900e-02,
-1.742946e-01,
5.599650e-01,-1.661257e-01,-8.633176e-02,-2.350806e+00,1.684961e+00,-6.974781e-01,-1.931177e+00,-9.319074e-01,-1.552971e-01,1.737470e-02,-2.899056e-01,-3.181044e-01,-2.195192e-01,-2.415489e-02,7.061962e-01,-5.516601e-01,-3.256611e-01,-5.040262e+00,-1.522051e+00,-1.718269e-01,-9.198616e-02,-3.723249e-01,3.639609e-02,-8.097524e-01,-6.985785e-01,-4.859245e-02,-2.161220e-02,5.664766e-01,-3.134905e-01,8.284968e-01,6.215299e-01,3.556853e-01,-9.181590e-02,-8.991569e-02,-5.011092e-01,1.798305e-01,-1.104219e+00,-3.698371e-01,-4.413796e-02,-2.826588e-01,1.632623e-01,-1.022794e+00,-4.326090e-01,2.835470e-01,-1.682295e-01,
1.600705e-01,-2.160888e-01,2.856148e-01,1.355861e-02,-1.803125e+00,-1.531489e-01,6.977836e-02,-2.930776e-01,-1.975731e-01,1.378682e-01,-1.169600e-01,1.456306e-01,1.787363e-01,2.149713e-02,-5.906324e-02,1.113533e-01,3.021350e-01,5.892828e-01,-2.336967e-02,-2.942621e-02,3.799421e-01,-3.143577e-02,4.141673e-02,-7.730857e-01,-9.861282e-02,-3.336164e-02,-2.399918e-02,-5.093996e-02,-3.653688e-01,-1.382558e-01,4.122782e-02,-2.355895e-01,4.823307e-02,-1.519410e-01,-2.393867e-01,-8.328237e-02,1.132581e-01,-3.102736e-01,-3.705115e-02,-8.920037e-02,-3.113656e-01,1.057840e-01,-3.995790e-02,4.621255e-02,1.467294e-01,
1.778180e-01,-8.769301e-01,-4.785962e-01,2.352286e-02,-3.538321e-01,-2.322053e-01,3.925223e-01,5.269807e-02,1.900889e-01,2.248477e-01,-8.736862e-01,7.879611e-02,3.291458e-02,4.697341e-02,2.187159e-01,-2.256358e-01,4.105807e-01,8.025194e-02,-1.271538e-01,5.700555e-01,-1.927515e-01,-1.955760e-01,4.066292e-02,-2.388196e-01,8.344095e-01,-3.470118e-02,2.311951e-02,6.929296e-01,-7.349512e-02,2.599347e-01,-1.669266e-01,6.766254e-01,1.529342e-01,5.893462e-01,-2.633318e-02,4.120532e-02,3.442317e-01,-7.365894e-02,3.535880e-02,-4.414251e-01,-4.278929e-01,-1.163874e+00,3.765846e-02,2.383079e-01,3.922164e-01,
5.562313e-02,2.287367e-01,-7.861440e-02,3.495926e-02,-7.480994e-01,1.339252e-01,4.355887e-01,1.614796e-01,-4.166477e-02,2.126159e-01,1.040633e-01,-2.428715e-01,2.323515e-01,-1.665397e-02,1.785623e-02,4.025451e-01,5.934492e-01,1.679015e-01,-6.371285e-01,-2.824353e-01,-1.517679e+00,-6.027482e-05,-1.429601e-02,9.290718e-01,9.321140e-02,-9.359004e-02,-7.301774e-01,-4.313311e-02,-2.997420e-01,-3.528070e-02,-7.321176e-02,1.264349e-01,-6.646323e-03,1.080459e-01,1.988128e-01,-1.688175e-01,1.408824e-01,1.235835e+00,3.383454e-02,-1.162216e-01,-7.573826e-01,1.726259e-01,-8.203357e-02,9.715842e-02,1.028131e-01,
-4.069344e-02,-3.171330e-02,-4.475125e-02,-4.632682e-02,-1.017037e-02,-5.885139e-02,2.210786e-02,1.849688e-02,-5.196364e-02,2.637918e-02,2.530447e-02,-5.393846e-02,2.998827e-02,4.409454e-02,-4.479718e-02,-2.863471e-02,-8.451686e-03,1.856521e-02,-5.381033e-03,-1.798417e-02,-7.381063e-03,-3.379792e-03,-4.376150e-02,-4.939631e-02,-5.796192e-02,-5.055067e-03,-5.780429e-02,-8.325108e-03,-4.821086e-02,-5.175769e-02,9.748610e-03,3.744855e-03,2.643743e-02,-4.914839e-02,1.626314e-02,-3.232263e-02,-9.469483e-03,2.486140e-02,-4.300640e-02,4.493628e-03,-2.068615e-02,-6.378139e-02,1.999835e-02,-5.280422e-02,-3.351470e-02,
2.617272e-01,-8.508699e-02,3.215777e-01,6.375299e-02,-8.154664e-01,6.938731e-02,-3.237736e-01,3.693708e-01,-8.371446e-01,-1.444665e-01,9.545030e-02,-1.091646e+00,9.087172e-01,-1.130897e-02,-3.370798e-01,-1.287552e-01,3.029773e-01,-4.429962e-02,2.649682e-01,2.624439e-01,3.316295e-01,-1.626606e-01,1.517841e-02,-4.350646e-01,4.101086e-01,-1.297421e-01,-3.808813e-04,2.435316e-02,-4.332911e-01,-2.285407e-01,3.238038e-01,-6.004031e-01,5.608493e-02,-2.553462e-01,2.820160e-01,4.315896e-01,2.680793e-02,-1.523975e+00,-5.379855e-03,-6.208196e-01,1.463575e-01,4.932122e-01,4.329365e-01,1.896493e-01,3.285461e-02,
-2.167033e-01,-1.075796e+00,4.649834e-01,2.165478e-01,-6.253137e-01,1.459885e-01,-1.295232e-01,1.974289e-01,-7.220283e-01,6.289119e-01,2.586404e-01,7.426740e-01,7.167439e-02,2.973098e-03,-8.050561e-02,-4.701904e-01,3.924789e-01,-8.220626e-02,9.044498e-01,1.137608e-01,6.768446e-01,-1.281562e-01,-1.744103e-02,-6.757394e-01,-3.694445e-01,1.568668e-01,1.345797e-01,5.410839e-02,-3.238234e-02,-6.640148e-02,-1.439437e+00,9.008659e-02,5.345638e-01,7.720819e-02,-8.884017e-03,-8.654064e-02,5.063638e-01,-1.458089e-01,3.967560e-02,1.188120e-01,-1.134694e-01,6.024475e-01,-2.703902e-01,-2.054684e-01,3.841561e-01,
-1.878667e-02,-8.844430e-02,3.735171e-02,3.912462e-03,2.776112e-02,-3.466544e-02,-7.206528e-02,-6.872547e-02,7.787402e-03,-2.697038e-02,-6.019762e-02,-1.724953e-02,-6.901549e-02,4.211977e-03,-5.445239e-02,2.115390e-03,-6.129821e-02,-3.338291e-02,-9.467049e-02,-5.607536e-02,-5.521324e-02,-5.191598e-02,3.597952e-02,4.506441e-03,-3.117329e-02,-2.218082e-02,-3.534035e-02,-4.912272e-02,1.767849e-02,-5.422889e-02,4.578957e-02,-6.569048e-03,-1.753816e-02,-5.003768e-03,5.428322e-02,1.938671e-02,3.272730e-02,-6.360541e-02,4.330894e-02,-5.151997e-03,-5.181338e-02,-7.578025e-02,-1.583500e-02,-5.697676e-03,-2.477920e-02,
6.642970e-01,1.700274e-01,9.033188e-02,-1.458006e+00,6.043608e-01,2.102683e-01,3.988551e-01,1.846499e-01,4.209739e-01,2.964320e-01,2.401049e-01,1.706561e-01,4.227659e-01,-1.308785e-03,6.320366e-01,1.303530e-01,3.485922e-01,-5.435990e-02,5.419879e-01,1.803532e-01,7.649893e-02,6.091475e-01,-2.015966e-02,1.054459e+00,1.473888e+00,-5.553884e-02,4.359191e-01,2.666647e-01,-1.736454e-01,-1.615133e-01,-1.917871e+00,3.931067e-01,4.919960e-02,1.336250e-01,2.480381e-01,-5.950939e-02,8.359369e-01,8.260605e-01,6.547266e-03,2.909119e-01,2.362988e-01,1.369669e+00,-4.564499e-03,-8.469684e-01,1.049681e-02,
-1.144088e-01,-1.276477e-01,3.132968e-01,7.154441e-03,-5.333973e-01,-5.714138e-02,-2.358135e-01,-3.398086e-02,1.973687e-01,-1.267855e-01,3.326802e-02,2.975931e-01,-4.690336e-02,4.350574e-02,-1.824150e-01,-4.659027e-01,-4.606358e-01,2.017227e-01,5.141133e-01,3.019288e-01,9.216914e-01,2.714274e-01,2.331017e-02,-8.718420e-01,-2.718331e-01,1.279479e-01,6.384662e-01,6.225611e-01,-2.693752e-01,-7.557606e-02,-5.499893e-02,-2.240412e-01,1.968070e-02,1.400623e-01,2.304846e-01,-1.770272e-01,1.011381e-01,-1.644039e+00,4.263729e-02,1.367040e-01,1.015120e-01,-2.081055e-01,2.753578e-01,-1.978902e-02,4.029138e-01,
3.942535e-02,-2.547634e-01,-2.332756e-01,1.570275e-01,3.661880e-01,8.316781e-03,-5.452618e-01,-7.866295e-03,-1.294871e-02,-1.518022e-01,-1.334909e-01,2.127524e-01,2.753249e-01,4.980135e-02,6.874879e-02,-2.920790e-01,-3.742719e-01,-2.641822e-02,1.798858e-01,-1.814269e-01,5.877976e-01,1.134676e-01,1.645074e-02,-7.133957e-01,-2.244916e-01,7.036094e-02,5.164629e-01,2.779482e-01,2.935204e-01,-1.080051e-01,-1.785633e-02,-3.053538e-02,-3.304943e-02,-2.763923e-01,-2.224453e-03,-3.413219e-01,2.070670e-01,-1.380288e+00,-3.605584e-02,-1.399724e-01,-2.105281e-01,-1.078566e-01,1.402681e-01,1.436772e-01,-3.106490e-01,
6.829314e-02,6.235662e-02,7.902452e-02,1.932952e-02,-7.870756e-01,-5.896648e-02,2.580154e-01,1.879273e-01,-3.509650e-02,2.006215e-01,1.723426e-01,1.167916e-02,1.944430e-01,-2.901704e-02,-6.213577e-03,-3.476786e-01,5.623720e-01,1.900213e-01,-2.995822e-01,2.183337e-01,-1.373291e+00,3.165195e-02,4.735519e-02,1.029473e+00,-8.854419e-03,9.855036e-02,-4.753982e-01,-3.615051e-02,-3.846147e-01,-4.323546e-02,-2.089035e-01,2.581487e-01,-8.697812e-02,1.873166e-01,3.686323e-01,-4.307673e-02,1.875792e-02,9.197809e-01,-4.946187e-02,1.988753e-01,-4.023144e-01,6.282687e-02,-6.861930e-02,8.248889e-02,1.162954e-01,
-4.594111e-02,-9.177954e-03,-9.553415e-03,-3.632720e-02,-4.856353e-02,-3.849157e-03,-5.440263e-02,-1.910159e-03,2.710099e-03,-1.679004e-02,1.805560e-02,-5.394672e-02,-4.785270e-02,-2.538925e-02,-1.113471e-02,-4.686453e-03,1.773400e-02,-2.478773e-02,-2.431449e-02,2.985694e-02,-5.732229e-02,-5.622163e-02,-2.670232e-02,-4.946155e-02,-4.878213e-02,-4.947467e-02,-1.757177e-02,3.289276e-02,-3.090639e-02,1.732091e-02,1.275555e-02,-4.406569e-02,3.247409e-02,-6.718277e-03,3.667255e-03,-5.079393e-02,-3.292648e-02,-1.307272e-02,-8.402267e-03,-5.149464e-03,2.589846e-04,7.224376e-03,-3.920060e-02,-1.788169e-02,-1.722125e-02,
3.398916e-02,-3.978818e-02,3.582700e-02,-2.068248e-02,-2.982910e-02,1.357508e-02,4.129392e-02,-3.839877e-02,-3.068221e-02,2.582637e-02,-4.132789e-02,2.401634e-02,-2.578156e-02,-4.002711e-02,-4.215929e-02,-2.634985e-02,4.721577e-03,-4.881684e-02,-2.082090e-02,-4.315943e-02,-2.712813e-02,-8.010648e-03,2.090573e-02,-7.490379e-03,-7.415597e-03,-4.514934e-02,-6.571105e-03,-4.284183e-02,-2.777230e-02,4.285134e-02,-3.250790e-02,-2.990426e-04,-4.908207e-03,-5.922883e-03,-1.959981e-02,-1.986342e-02,4.807860e-02,-9.367481e-03,-2.898836e-02,1.026310e-03,2.626289e-02,2.091424e-02,9.993336e-03,2.142685e-02,-2.385795e-02,
7.583071e-02,3.620068e-01,1.404275e-01,8.284782e-04,-1.895552e+00,1.816126e-01,1.195581e-01,-3.763331e-01,-3.496458e-01,1.864322e-01,-2.252127e-01,8.435664e-02,-7.990376e-02,1.667502e-03,-1.690590e-02,1.855983e-01,1.626177e-01,6.670799e-01,5.720846e-02,-1.728881e-01,8.165443e-01,-1.866058e-01,1.375486e-02,-9.308578e-01,-2.250492e-01,-7.563657e-02,-6.572923e-02,6.044381e-02,-2.384041e-01,-6.423143e-02,-1.239741e-01,2.559455e-01,-2.152346e-01,-3.498563e-01,-3.421061e-02,-2.782769e-01,-4.125485e-01,3.736753e-01,2.176847e-02,-2.280907e-01,4.368014e-01,-1.407076e-01,-8.091177e-02,4.924008e-02,-6.886983e-02,
5.727187e-01,1.365748e-01,-9.163103e-02,2.973068e-01,-9.116913e-01,4.143306e-02,1.871780e-01,1.123138e-01,1.513200e-01,-7.467486e-02,1.908274e-01,-4.182387e-01,-1.323653e-01,-2.148229e-02,-8.195907e-03,1.420136e-01,-1.180319e-01,9.106077e-02,-5.284511e-01,9.144273e-01,8.387445e-01,1.476739e-01,-2.486070e-02,7.794358e-01,9.952527e-01,3.035031e-01,-7.201760e-03,5.104169e-01,-3.857605e-01,-2.911753e-01,-1.184588e+00,4.433644e-01,1.220896e-01,-1.888870e-01,9.900426e-03,-2.007278e-01,3.146150e-01,-2.118277e-01,5.275250e-03,3.411804e-01,5.555215e-01,-2.637139e-01,1.741829e-01,-1.272962e-02,-4.725435e-01,
2.512692e-01,-5.389672e-02,4.189497e-01,1.925590e-01,-1.246697e-01,-6.667351e-01,2.142239e-01,-6.268762e-02,4.430787e-01,-5.991930e-01,-6.642336e-02,1.416488e-01,1.376663e-01,-1.834507e-02,-4.592053e-02,-4.979988e-02,5.882582e-02,2.803882e-01,-1.863792e-01,4.127336e-01,9.130009e-02,5.853052e-01,-2.730864e-02,2.821634e-01,-3.777131e-01,-1.634708e-01,-4.703846e-01,4.013776e-01,-7.177394e-01,5.908990e-02,1.092194e-02,-3.433598e-01,-3.887865e-01,-4.779184e-01,3.509409e-01,-7.191695e-02,-2.496749e-01,-1.557412e-01,-6.443603e-03,-3.606260e-02,3.074870e-01,-3.232416e-02,1.493607e-01,-6.151208e-02,-6.360673e-01,
2.113751e-01,-1.462495e-01,-3.883776e-02,-2.706786e-01,1.640928e-01,1.961113e-01,2.121093e-01,2.609581e-02,-2.519743e-01,-7.934896e-02,-7.597563e-02,-6.154370e-01,-4.862716e-01,-2.559813e-03,-4.379091e-01,-1.648577e-01,1.543878e-01,2.404281e-02,8.834813e-01,-7.051373e-02,1.406832e-01,-4.940218e-01,-1.484010e-02,2.704591e-01,5.705359e-01,-2.829208e-01,3.727340e-01,7.684719e-01,-1.647269e-01,-8.790410e-02,-4.334064e-01,-1.867260e-02,-1.435335e-01,1.137656e-01,-3.750583e-01,2.412109e-01,7.989417e-01,-1.664370e-01,5.416808e-02,-7.693562e-01,9.911437e-02,-1.230853e-01,3.050708e-01,-7.812656e-02,-3.097420e-01,
-1.137370e-01,4.463320e-01,-2.168367e-01,1.641894e-01,-9.172974e-02,-4.080271e-01,2.987227e-01,-1.121817e-01,6.219281e-01,-1.607558e-01,1.300405e-01,-2.198011e-01,-5.139055e-04,-4.728812e-02,2.838138e-01,2.212581e-01,-8.198857e-02,4.128397e-01,3.125109e-01,-1.359666e-02,-8.181444e-02,-9.129516e-02,2.808547e-02,-4.042681e-01,2.288281e-01,-5.629176e-02,-1.104996e-01,2.522263e-01,-3.246300e-01,5.025185e-02,-7.994401e-03,6.954486e-01,-3.505108e-01,-2.084992e-01,-1.630481e-01,-1.755252e-01,-1.892768e-01,-4.903970e-01,-2.268787e-02,-3.077514e-01,2.288648e-01,3.231206e-01,7.504815e-03,-1.623326e-01,-6.036974e-01,
9.909640e-03,-1.344234e-04,6.719911e-01,-1.421315e-01,-2.729299e+00,3.576768e-01,-1.358252e-01,-1.363430e-01,3.091051e-01,1.998844e-01,2.682003e-01,3.732713e-02,-7.674190e-01,-3.447834e-02,-2.195762e-01,1.025852e+00,7.666852e-01,3.018828e-01,7.251990e-01,1.095326e-01,3.969530e-01,-7.090088e-01,-4.096803e-02,-1.050329e+00,6.266250e-02,-4.735624e-01,1.173221e-01,-1.702028e-01,-1.840692e-01,-2.448220e-01,1.586393e-01,-1.605227e-02,-6.972170e-01,-1.025427e-01,-2.235432e-02,2.195040e-01,-4.810120e-01,6.939059e-01,-4.009794e-02,6.149950e-02,3.779286e-01,8.379348e-01,-1.844482e-01,1.290573e-01,5.626966e-01,
-1.441715e-01,4.156323e-01,-1.217721e+00,2.008710e-01,6.681178e-01,-7.097548e-02,3.161116e-01,3.432678e-01,3.134816e-01,1.970911e-01,7.010386e-02,-1.306754e+00,-2.231125e-01,-3.386386e-02,2.298382e-01,2.583010e-01,-2.303724e-02,2.156272e-01,6.224375e-01,1.772951e-01,-2.535442e+00,-2.730941e-01,-2.815471e-02,6.203924e-01,-8.085116e-01,-6.271045e-01,-1.134011e+00,1.669828e-01,-8.565022e-01,7.329138e-02,6.932122e-02,-7.403377e-02,-7.074665e-01,-4.275323e-01,-2.088197e+00,3.552487e-01,7.272911e-01,-2.325261e-02,-6.111645e-03,5.636286e-01,3.795086e-02,-1.037442e-01,-5.013447e-01,3.000117e-01,-4.079821e-02,
2.332752e-03,-4.499418e-02,-5.010197e-02,1.084293e-02,1.288425e-02,-5.481841e-02,-5.803038e-02,-5.380844e-03,-8.440482e-03,2.467231e-02,1.861662e-02,-5.505346e-03,-5.581630e-02,-4.381192e-02,-2.316235e-03,-2.715718e-02,-6.273650e-02,-2.239262e-02,4.615767e-03,5.978531e-03,-2.669920e-02,-5.511157e-02,-3.280333e-02,2.601098e-02,2.527694e-02,1.008488e-02,2.206670e-02,-4.157843e-02,-1.684430e-02,-1.928568e-02,8.561418e-03,-6.346957e-02,-1.574711e-02,1.863247e-02,-5.600180e-02,-1.831159e-02,1.384272e-02,-2.097379e-02,-3.562727e-02,1.858798e-02,-3.211536e-02,-5.646100e-02,-3.760135e-04,-4.418889e-03,1.580514e-02,
7.583479e-01,1.415926e-01,-5.367014e-02,-2.085151e+00,1.112295e+00,6.203083e-02,5.727097e-01,4.226454e-01,8.430272e-02,1.613752e-01,-1.428636e-01,5.260698e-01,2.797104e-01,-4.739326e-02,8.520117e-01,1.406539e-01,-4.546669e-02,4.620218e-02,4.985156e-01,2.866996e-02,9.880253e-02,-1.138696e-01,4.894255e-02,1.042356e-01,2.240079e-01,-1.092184e-01,4.529002e-01,4.399200e-01,-3.188505e-01,7.111816e-01,9.833428e-01,3.239285e-01,-5.481945e-02,-9.898011e-02,-2.342146e-01,8.908615e-02,3.337028e-01,1.443433e-02,2.557809e-02,-8.782181e-02,3.777734e-03,1.609332e-01,2.622440e-01,-1.457188e+00,2.378683e-02,
-1.924708e-01,4.941265e-01,-1.696859e-01,2.859632e-02,-9.679804e-01,1.019672e-01,9.027526e-01,2.811964e-01,7.544473e-01,-1.688748e-02,-3.343204e-02,-4.169924e-01,-6.295213e-02,3.558640e-02,-1.005918e-02,2.513708e-01,3.235772e-01,2.074137e-01,5.937427e-01,-2.039205e-02,-1.049501e-01,6.191162e-01,-3.768886e-02,8.756853e-01,-2.986918e-02,-1.806890e-01,2.657978e-02,-3.014544e-02,-2.462531e-01,1.260109e-01,-2.372256e-01,1.188509e+00,4.466057e-02,5.282136e-01,-2.156897e-01,5.335563e-01,7.118770e-02,1.125337e-01,-5.374703e-02,-5.896649e-01,-8.703025e-02,-5.001709e-01,-2.081375e-01,-5.452614e-02,3.045655e-01,
-1.123574e-01,3.165846e-01,1.436511e-01,4.426862e-02,-4.785200e-01,-1.125213e-01,8.199797e-01,2.671874e-03,2.526955e-01,3.133161e-01,-8.945372e-03,-1.722745e-01,-1.679528e-01,1.271220e-04,1.188267e-01,-4.327295e-01,-2.560003e-02,3.112672e-01,2.524332e-01,4.075139e-01,-4.936973e-02,-1.005009e-01,-8.216032e-03,7.341216e-01,-2.626449e-01,-5.692301e-02,-5.850219e-01,-1.522908e-01,-3.352768e-01,3.919157e-02,-3.212395e-02,1.687333e-01,-1.654462e-01,1.821912e-02,-9.935716e-02,7.138287e-02,2.823509e-01,5.808814e-01,1.732408e-03,-5.843861e-02,7.864320e-02,5.304977e-01,-6.259526e-02,-5.271744e-02,3.860659e-01,
-5.947081e-02,1.593551e-01,3.891329e-01,-8.945949e-02,-9.492204e-01,-2.069448e-01,4.514509e-01,-4.464777e-01,4.013404e-01,6.550568e-01,1.108223e-01,4.955039e-01,9.725448e-02,-1.048485e-03,-3.837304e-01,-5.890892e-01,2.537485e-01,8.785123e-02,8.517280e-03,1.517353e-02,-3.060834e-01,-5.290086e-01,5.077198e-02,-5.392727e-03,9.529195e-02,3.044067e-01,-2.841525e-03,-2.612344e-03,-8.410039e-02,4.041344e-02,-1.737921e-01,1.532079e-01,3.862283e-01,2.064545e-01,5.297685e-02,2.101320e-01,5.762485e-01,9.662417e-02,3.330434e-03,1.865827e-01,-6.705431e-01,-6.914921e-01,-1.871688e-02,-1.140497e-01,3.345718e-01,
5.016143e-01,-2.174446e-01,-4.557492e-01,1.091529e-01,-5.059177e-01,-2.576045e-01,5.262505e-02,3.065294e-01,7.101335e-02,-8.010621e-02,-3.546157e-01,8.558402e-02,2.322279e-02,4.742514e-02,-1.099159e-01,-1.390673e-01,-1.775296e-01,1.323257e-01,4.780696e-01,4.863396e-01,5.892487e-01,4.504088e-02,-4.742089e-02,1.418717e-01,5.055301e-01,3.163705e-02,1.199174e-01,4.743255e-01,-1.930321e-01,4.918287e-02,-2.105266e-01,-1.889927e-01,-4.988269e-02,7.336855e-02,-2.542018e-01,2.389032e-02,-2.641469e-01,-8.010887e-01,-4.712887e-03,3.807313e-01,-1.464081e-01,3.364773e-01,2.682118e-01,2.139488e-02,4.749943e-01,
-7.847292e-02,-9.067558e-02,3.077224e-02,-1.168062e-01,1.453523e-02,-5.109163e-02,2.406561e-02,-4.174608e-02,-7.277487e-02,-1.406703e-02,-5.763965e-02,3.432198e-02,-8.417269e-02,-2.694200e-02,-1.882874e-02,-3.640290e-02,-4.963531e-02,1.156686e-03,-1.417432e-02,-1.137692e-02,1.327619e-02,3.801556e-02,3.618511e-02,-9.805927e-02,-1.569041e-01,-2.163358e-02,-5.701173e-03,2.579560e-02,5.874426e-03,-2.767284e-02,-9.274898e-02,-5.173460e-02,4.235561e-04,2.607928e-02,-3.861463e-02,5.669424e-02,-1.245114e-02,-6.953085e-02,3.604782e-02,-2.543044e-02,4.471995e-02,-1.719399e-02,3.816340e-02,-7.565926e-03,7.271900e-02,
3.486445e-01,-7.635570e-01,5.554482e-02,1.112301e-01,-4.721755e-01,4.985529e-01,7.103307e-01,2.982932e-01,-5.650243e-01,7.132717e-01,-7.163377e-01,-2.120445e-01,-4.208645e-01,-3.742186e-02,-5.142519e-01,4.938455e-01,3.132485e-01,1.864971e-01,1.073703e-01,4.474786e-01,-8.676489e-02,6.130415e-01,-1.271583e-02,4.558313e-01,-1.090277e-01,-2.482081e-01,-3.524809e-01,4.072042e-01,1.365915e-02,2.793326e-01,1.675299e-01,2.317634e-01,-1.242673e-01,-3.299011e-01,-3.306839e-01,1.158793e-01,5.708179e-01,-1.827631e-01,-3.567453e-02,-8.047072e-01,4.152682e-01,1.828325e-01,-1.015682e-01,1.784172e-01,-1.116767e+00,
1.160746e-01,6.251367e-02,4.199693e-01,-1.342859e-01,-4.637569e-01,1.599911e-01,9.189097e-01,1.380841e-01,-8.381226e-01,3.234361e-01,-4.882013e-01,-1.869534e-01,1.774076e-02,-4.143481e-03,-7.088169e-01,8.237660e-02,2.616327e-01,5.967280e-02,-8.934959e-01,1.452147e-02,-1.447505e-01,3.357737e-01,-3.073979e-02,1.291643e+00,2.766816e-01,6.528403e-02,-2.671952e-01,3.766947e-01,-3.100995e-01,1.433587e-01,-2.669998e-01,8.134313e-01,-2.440355e-01,1.415153e-01,-9.763304e-02,-9.623276e-02,1.769375e-01,9.234622e-01,3.325446e-02,-2.690336e-01,4.070446e-01,-2.732886e-02,-2.276575e-02,8.601784e-02,-3.787021e-01,
2.215377e-02,-4.981313e-02,1.152976e-01,4.506188e-02,-6.332546e-01,-5.604678e-01,1.491756e+00,2.024322e-01,6.393234e-01,9.447061e-02,9.214161e-02,-1.001226e-01,-1.799741e-01,-2.376579e-02,-2.129393e-01,-3.716387e-01,5.012736e-01,-1.595407e-02,-2.065612e-02,1.671308e-01,-4.193889e-01,1.930695e-01,3.482138e-02,1.141921e+00,4.829263e-01,-4.092916e-01,-1.453459e-01,-1.950228e-02,-4.267849e-01,5.815009e-02,-1.688047e-01,2.061072e-01,-1.798231e-01,2.625006e-01,2.621894e-01,4.657935e-01,6.992563e-02,1.853961e+00,1.461444e-02,7.321096e-02,5.908011e-01,-6.720350e-02,-5.474421e-02,1.231523e-01,8.073010e-03,
4.457395e-02,-6.007070e-02,-1.392233e-01,7.228136e-02,-3.365894e-01,-1.158943e-01,-1.997221e-02,7.799433e-02,-6.606078e-02,-1.042891e-02,-3.550557e-02,1.519980e-01,-1.144770e-01,-3.217873e-02,-7.877806e-03,-3.666817e-01,-5.260179e-01,2.500024e-01,7.002995e-01,1.766621e-01,9.563225e-01,1.306278e-02,-3.260655e-02,-9.401982e-01,-2.549837e-01,6.677080e-02,4.391565e-01,5.458041e-01,-1.582702e-01,8.006429e-04,-1.356538e-01,1.693336e-01,-1.516000e-03,4.929854e-02,2.528760e-01,-1.108508e-01,-1.404348e-02,-1.717927e+00,-2.513418e-02,1.460033e-01,2.395584e-01,-3.884102e-02,2.904117e-01,3.066253e-02,1.879112e-01,
3.640611e-01,1.150457e-01,4.090983e-01,1.494198e-01,-8.485838e-01,2.152785e-01,-7.419964e-01,-4.473417e-01,-2.887287e-02,6.901417e-02,-3.222086e-01,6.035977e-01,-3.924357e-01,1.189341e-02,-2.786580e-01,-9.993897e-02,-2.767001e-01,7.498337e-01,-7.896544e-02,-8.180982e-02,4.720474e-01,-1.145239e+00,-4.456610e-03,-7.070106e-01,4.771470e-01,-3.244277e-01,3.310042e-01,1.739210e-01,-4.339253e-02,-2.749821e-01,7.631641e-04,1.556971e-01,-2.542213e-01,1.140592e-02,-2.955691e-01,-4.086252e-01,9.287897e-01,-2.759858e-01,-5.230337e-03,-2.406261e-01,-2.300207e-01,-4.956417e-02,-1.864041e-01,-3.285070e-01,3.716915e-01,
1.438978e-01,-7.470623e-05,-1.202210e-01,1.036404e-01,-8.531667e-04,-4.342913e-01,4.484681e-01,5.099186e-01,3.595279e-01,-4.512033e-01,-7.585428e-03,-2.033051e-01,2.695284e-02,-9.701810e-03,-3.799761e-03,1.979639e-01,2.948658e-02,-1.856587e-01,2.307976e-01,1.573122e-01,-3.346060e-01,-5.010070e-02,4.510988e-02,5.863254e-02,-4.900237e-04,-2.057317e-01,-3.609572e-01,-1.830021e-01,-4.747741e-01,2.444289e-01,-5.831912e-02,1.035405e-01,-3.259486e-01,4.094809e-02,1.492895e-01,4.137846e-02,2.890045e-02,4.269911e-01,2.715884e-02,-1.541423e-01,3.975396e-01,6.545239e-03,2.620705e-01,1.283837e-01,8.934297e-02,
4.938436e-01,2.743982e-02,9.710830e-02,-4.790432e-01,1.581879e-01,-3.540875e-03,-1.040338e-02,1.168943e-01,-4.931371e-02,2.409827e-01,1.010873e-02,1.756616e-01,4.433740e-02,-1.996564e-02,8.006035e-01,-1.958986e-02,9.943714e-02,1.413563e-01,1.261180e-02,-1.664146e-02,9.702720e-02,-2.159677e-01,-3.233197e-02,-1.941966e-01,-3.326505e-01,-1.762923e-02,8.230044e-02,3.083059e-01,-6.498817e-01,2.184684e-01,-3.051571e+00,1.573161e-01,4.580842e-02,-4.218836e-02,-1.158989e-01,1.204958e-01,-2.847751e-02,-1.071147e-01,-1.133622e-02,-1.294428e-01,1.156083e-01,1.845335e-02,6.717450e-02,-6.100624e-01,1.086190e-01,
-8.335182e-03,-3.624292e-02,-6.127673e-03,-4.192920e-02,1.564514e-02,3.313204e-02,-2.621355e-02,-1.761248e-02,-2.620071e-02,-5.269824e-02,-2.322125e-02,-4.877149e-02,-5.349328e-02,-3.248075e-02,-5.208752e-02,-3.264594e-02,-8.505942e-03,-5.553433e-03,-5.362085e-02,-2.107856e-02,1.931779e-03,2.833568e-02,-4.099948e-02,3.935544e-02,8.311003e-03,3.699570e-02,-3.545331e-02,-4.818857e-02,-3.539643e-02,-1.644748e-02,4.257636e-04,-2.470522e-02,1.261586e-02,-4.221096e-02,2.493866e-02,2.022727e-02,8.548283e-03,1.115647e-02,-1.342081e-02,-5.390281e-02,4.225130e-02,-5.095239e-02,3.138711e-02,-5.356513e-02,3.286284e-03,
7.739217e-02,-4.140132e-01,4.830532e-02,6.802180e-02,-1.213983e+00,1.338690e-01,-7.882091e-01,4.721591e-01,9.838752e-02,-4.058158e-03,3.068308e-02,2.282291e-01,-3.210056e-01,-6.360808e-03,2.102487e-01,-2.513552e-02,1.900076e-01,1.204605e+00,1.030072e-01,2.369369e-01,6.010639e-01,5.219776e-02,-7.180913e-04,2.010895e-01,1.123057e-01,4.029077e-01,2.625893e-01,1.591835e-01,-3.791313e-01,-1.477266e-01,-1.549433e-01,1.426144e-01,2.457445e-01,-2.590173e-01,4.043363e-01,-2.346904e-01,-2.011109e-01,-5.742662e-01,-1.183531e-02,2.763323e-01,-3.347513e-01,1.498812e-01,7.769340e-01,1.366954e-01,-4.381827e-01,
9.009423e-02,5.855750e-01,2.334111e-01,2.707380e-01,2.499127e+00,-2.603951e-02,5.105387e-02,-1.535543e-01,-2.065095e-01,2.142745e-01,7.331520e-02,-1.699571e-01,-2.557038e-01,-7.681157e-03,-1.945331e-02,4.234345e-01,-8.955458e-02,-1.394185e+00,-4.060444e-01,3.673452e-01,3.404481e-01,3.126778e-01,-3.466535e-03,1.358704e-01,5.052240e-01,-5.705039e-02,1.370098e-01,3.417104e-01,-2.625331e-01,-1.643951e-02,-6.770073e-02,8.007763e-02,-2.621122e-01,-4.320379e-02,3.891345e-01,-1.622961e-01,3.313319e-03,1.133440e+00,-2.960863e-02,3.058690e-01,3.914867e-02,7.304936e-02,-6.101647e-01,1.084217e-01,-5.029811e-01,
9.509078e-03,-3.943784e-02,-3.711895e-02,-3.793159e-02,-2.438841e-02,-3.624677e-02,9.689068e-03,-1.557993e-02,-2.549864e-02,2.026861e-02,-6.261687e-03,8.362986e-04,-9.251389e-03,-1.514697e-02,-2.159309e-02,1.077820e-02,-4.555026e-02,-5.506341e-02,-1.666763e-02,1.811250e-02,1.321779e-02,-4.146640e-02,1.910547e-02,3.386470e-02,-2.287555e-02,4.730095e-03,2.922229e-02,-3.437640e-02,-2.949727e-02,-6.283604e-02,3.064040e-02,-5.879863e-02,-1.038351e-04,-5.118878e-02,-2.567829e-02,1.291301e-03,-4.644367e-02,1.735188e-02,-2.074356e-02,-4.660000e-02,-2.422386e-02,-1.302590e-02,-5.316076e-02,2.666491e-02,1.066078e-02,
1.572667e-01,-1.183350e-01,-3.264121e-01,-1.718486e-01,-9.239356e-01,4.741635e-01,-4.284488e-01,3.529155e-01,9.036419e-02,-7.383050e-02,2.904738e-01,4.008953e-01,-5.996234e-01,9.572125e-03,3.610088e-02,2.791599e-01,4.165510e-01,4.987705e-02,-7.098874e-01,1.048649e+00,6.867597e-01,-2.481919e-01,-3.102075e-02,-1.525548e-01,-9.504139e-02,1.690785e-01,-2.144748e-01,2.070137e-01,-2.835994e-01,-3.315283e-01,-7.254767e-02,-7.072729e-01,-2.714559e-02,-2.807945e-01,3.370866e-01,7.454778e-02,-7.078994e-02,-5.179931e+00,-7.150503e-03,-2.681007e-01,3.113102e-02,-3.317440e-01,1.770195e-01,2.186778e-01,2.211197e-01,
-1.338286e-01,-1.762166e-01,-1.238632e-01,7.598406e-02,3.890735e-01,2.095651e-01,-3.093134e-01,4.608421e-02,-4.745348e-02,-3.126478e-02,-1.199417e-01,8.380303e-02,1.838526e-01,-2.768182e-02,3.538536e-03,-5.185010e-01,-5.544111e-01,3.197242e-02,3.984491e-01,-2.374862e-01,5.892215e-01,-8.444725e-02,-1.690508e-02,-6.040583e-01,-1.280116e-01,-9.777648e-03,6.619921e-01,3.703051e-01,2.119815e-01,-2.214919e-02,1.136796e-01,-1.150346e-01,-8.747982e-02,-1.703828e-01,-3.800198e-01,-4.820007e-01,2.092676e-01,-1.327846e+00,8.086835e-03,-1.323393e-01,-9.208180e-02,1.057413e-02,1.077401e-01,5.866827e-02,-2.941028e-01,
3.288959e-01,1.101159e-01,1.003947e-01,1.628687e-01,-2.782431e-01,6.193072e-02,2.244183e-01,-9.434709e-01,2.798998e-01,3.506301e-01,-4.247371e-01,5.039291e-01,1.867077e-01,3.160216e-02,-1.093296e-01,2.894499e-01,-2.294250e-01,2.245827e-01,5.632879e-01,-5.970939e-02,2.557907e-01,1.982420e-01,-2.426081e-02,-7.120017e-01,9.300928e-01,-3.706370e-02,2.279422e-02,6.559103e-01,-4.084834e-01,-6.532338e-02,-5.737940e-01,5.418200e-01,-3.917885e-01,1.361188e-01,5.051515e-01,-3.363637e-01,-2.760617e-01,5.697654e-02,1.646320e-03,1.391751e-01,9.198686e-02,-3.203357e-01,-1.405522e-01,-2.791113e-01,-4.614928e-01,
-1.617171e-03,2.594250e-01,2.053684e-01,-4.399667e-02,5.572761e-01,3.245356e-02,-8.371438e-02,2.625799e-01,-3.174790e-01,2.955334e-01,1.129952e-01,-1.194041e-01,2.144093e-02,4.961148e-02,-6.686134e-02,3.951440e-01,-9.678062e-01,3.389583e-01,5.342885e-01,6.027245e-01,2.467838e+00,-7.055741e-02,3.266147e-02,1.578079e+00,-1.110202e-02,1.374260e-01,3.162158e-01,4.144967e-01,1.157449e-01,2.755424e-01,-2.089041e-01,4.857318e-02,1.515136e-01,9.713254e-02,-8.056000e-02,3.399602e-01,-1.023695e-01,-4.978622e-01,-2.086047e-03,-1.105211e-01,5.123343e-01,-2.212982e-02,2.103882e-01,-1.752463e-02,4.119075e-01,
3.841943e-01,1.819696e-01,6.412721e-01,-2.742969e-02,-7.525610e-01,1.904503e-02,4.953366e-01,2.937844e-01,1.893399e-02,3.763457e-02,3.958605e-01,6.448673e-02,2.820978e-01,-2.106070e-02,-3.669681e-02,5.497321e-02,-2.231340e-01,4.351131e-01,6.148567e-01,1.374710e+00,1.885157e+00,2.885776e-01,4.721458e-02,-7.177836e-01,5.303944e-01,2.944835e-01,4.201808e-01,6.250355e-01,-1.507874e-01,9.064068e-03,-2.124621e-01,3.293979e-01,2.237051e-01,3.789156e-01,6.764370e-01,3.819421e-01,4.634660e-02,-1.355671e+00,9.684801e-03,3.431577e-01,1.008636e+00,-2.670049e-03,5.233464e-01,1.601738e-02,4.023335e-01,
-3.571547e-02,8.200005e-03,-5.298582e-02,-8.088798e-04,1.655384e-02,-5.238578e-03,1.897199e-02,-4.712661e-03,-1.628531e-02,-3.347731e-02,-5.916524e-02,1.140142e-02,1.081498e-02,8.070976e-03,-3.433977e-02,3.105996e-02,1.464181e-02,-5.205214e-02,5.884771e-03,2.803462e-02,-3.269149e-02,2.000967e-02,-4.226433e-02,1.966656e-02,1.902517e-02,4.693117e-03,-2.463114e-02,-3.518125e-02,-3.385483e-02,2.755512e-02,2.808480e-02,-2.622745e-02,-1.926227e-02,2.161901e-02,2.130754e-02,-3.903199e-02,-3.531526e-02,-4.653405e-02,-5.029809e-02,2.050379e-02,1.036520e-02,3.403004e-02,-3.644276e-02,-1.962042e-02,-5.263507e-02,
1.885010e-01,
1.933790e-01,
-6.845117e-02,
1.807826e-01,
-1.794148e-02,
1.382841e-01,
1.972819e-01,
-1.694882e-02,
1.467790e+00,
-7.757504e-02,
-2.046996e-02,
1.812777e-01,
-6.542357e-03,
-6.458361e-04,
1.138314e-01,
1.759987e-02,
1.941275e-01,
3.560540e-01,
6.136147e-02,
3.892954e-02,
3.509959e-02,
-1.802731e-02,
-1.118873e-02,
-6.199558e-02,
-6.133978e-02,
6.170397e-02,
-1.319475e-01,
-1.102367e-01,
4.743243e-02,
2.338721e-01,
1.211832e-01,
-1.763092e-01,
1.225755e-01,
1.334478e-01,
6.952280e-01,
-5.794521e-03,
2.050238e-02,
-2.325740e-01,
-1.923177e-02,
-6.188052e-02,
1.819661e-02,
4.181503e-02,
-4.267001e-01,
-1.635590e-01,
-1.601990e-02,
2.548673e-02,1.670291e-01,4.175916e-02,1.740204e-01,2.583930e-02,1.017481e-02,8.359101e-02,2.961821e-02,-3.762890e-02,-1.916027e-02,-1.477997e-01,1.336500e-01,3.585638e-03,-1.062479e-02,2.204750e-01,1.690299e-02,-2.562381e-02,-3.477306e-02,1.879252e-02,9.657503e-01,2.047253e-01,2.678038e-02,-3.471674e-02,8.574827e-03,1.297484e-02,8.449468e-02,-2.197938e-02,-1.146807e-03,1.393154e-02,-1.317496e-01,2.274753e-02,-3.048293e-01,1.308511e-02,5.504664e-02,2.773519e-01,-6.577967e-03,-1.480026e-01,3.105259e-02,4.091141e-02,-1.454070e+00,-2.767516e-01,1.518448e-02,-1.839214e+00,-1.664093e-01,-1.207308e-02,
4.790887e-02,3.891969e-02,-2.440481e-02,-2.956320e-02,3.223730e-02,-6.916742e-03,-4.573045e-02,-4.094337e-02,-3.713792e-02,3.178738e-02,-4.130698e-02,4.123108e-02,1.345459e-02,7.626499e-03,1.788295e-02,-4.268492e-02,3.311091e-02,6.109651e-03,1.705417e-02,-4.004219e-02,-3.673279e-02,-1.700822e-03,-3.797045e-02,-3.747831e-02,2.943151e-02,-4.086285e-02,-4.440359e-02,1.109481e-02,-2.577966e-02,-1.046060e-02,-2.643039e-02,8.852232e-03,-2.606253e-02,2.709362e-02,3.566789e-03,-1.998076e-02,-2.795580e-02,1.362164e-02,-2.824532e-02,2.247069e-02,3.198664e-02,-3.636107e-02,5.954559e-03,-3.893870e-02,3.872719e-02,
-4.672742e-02,-1.906943e-02,-1.826396e-02,-3.068011e-02,-3.489803e-02,1.432866e-02,-4.506443e-02,4.665357e-02,-1.691302e-02,-2.120728e-02,-5.959519e-02,-1.686176e-02,-6.453825e-03,1.898032e-03,1.481798e-02,1.070860e-02,-5.703169e-02,2.288027e-03,-1.871518e-02,-1.690142e-02,4.777569e-02,6.227384e-03,-3.250086e-02,7.862879e-03,1.207506e-02,-5.111006e-02,-4.480482e-02,-1.848566e-02,-4.667532e-02,4.550858e-02,1.909183e-02,-4.584354e-02,1.477808e-02,-3.896065e-02,-1.040763e-02,2.117528e-03,-4.552102e-02,2.681890e-02,2.281502e-03,1.224758e-02,-1.500497e-02,-5.513942e-02,-1.678238e-02,-2.031296e-02,1.646465e-02,
-4.399532e-02,-3.077030e-02,-2.941247e-02,3.120166e-02,-4.162483e-02,-5.263563e-02,4.234518e-02,-2.101883e-02,2.884612e-03,1.330480e-02,-5.033842e-02,-1.062069e-02,-4.760120e-02,2.253006e-03,-1.646269e-02,-3.356813e-02,1.405440e-02,-3.430256e-02,8.460921e-03,1.824582e-02,-1.462774e-02,2.102669e-02,-3.013258e-02,-2.927065e-02,1.041711e-02,-4.804152e-02,3.300251e-03,1.259651e-02,4.269528e-03,-2.504538e-02,-5.468383e-02,-1.087488e-02,-4.324217e-02,-2.100930e-02,-6.806291e-04,3.229064e-02,-6.702318e-03,-5.245125e-02,4.400901e-03,-5.759130e-03,-2.453218e-02,3.983633e-02,-3.764565e-02,3.441711e-02,-4.066573e-02,
-2.212061e-02,-1.879176e-02,-8.401707e-01,3.310060e-01,-8.914093e-03,4.295875e-01,-4.665986e-01,1.260956e-02,2.051122e-02,-6.781501e-01,-4.493881e-01,-2.800561e-03,4.623770e-02,-4.910329e-02,-1.984568e-02,5.228630e-01,3.611121e-01,-3.125983e-01,4.166684e-01,1.953003e-01,1.987710e-02,-1.785290e-02,2.680267e-02,-8.151531e-01,2.585613e-01,-5.381859e-01,2.155088e-01,3.560853e-02,-6.329349e-01,-4.057897e-01,3.277684e-01,-7.593488e-02,-2.823475e-01,6.610960e-01,9.010279e-02,1.969977e-02,1.417053e-01,-1.204978e-01,-1.295941e-02,-1.804522e-01,6.097209e-02,1.454723e-01,-3.623915e-01,1.148017e-01,-4.506205e-03,
-4.314652e-02,1.106672e-01,1.369606e-01,4.120059e-01,2.119791e-02,6.846523e-02,-6.724716e-02,-3.279747e-02,5.250352e-02,-4.302063e-01,3.702011e-02,1.082181e-03,-1.304057e-02,-5.027822e-02,-1.260943e-01,-6.457693e-02,-1.875320e-01,5.069497e-01,-7.245478e-02,1.365301e-01,8.511862e-01,-5.218191e-02,-8.729061e-02,-4.227357e-01,2.785668e-01,4.726183e-01,-4.322485e-02,2.845406e-02,1.327091e+00,1.721256e-01,-8.914864e-02,1.507048e-01,4.868777e-01,6.385400e-01,2.236813e+00,-2.718178e-02,-2.130722e-01,-4.570470e-02,3.241758e-02,-1.497271e-01,4.327847e-01,-4.645211e-01,2.542192e-01,-8.807462e-03,-2.125630e-02,
2.152891e-02,2.898590e-02,-1.356194e-02,-2.603970e-02,2.903075e-02,-2.077707e-02,-1.459665e-02,1.423714e-02,1.332288e-02,-7.822672e-02,2.402708e-04,-5.998646e-02,-7.278302e-04,-3.216197e-03,-2.987969e-02,-5.163976e-02,9.211522e-04,-5.843572e-02,-1.076927e-03,2.322434e-02,-3.124066e-02,-2.728818e-02,-3.069028e-02,-3.252199e-02,2.837357e-02,1.308622e-02,-3.043267e-02,-3.838918e-02,-1.023671e-02,-4.371089e-04,-2.783773e-02,4.148464e-04,-8.096068e-02,-4.817797e-02,1.013174e-02,-4.605736e-03,-4.960210e-03,-2.250317e-02,-2.922990e-02,-1.294166e-03,2.365248e-02,-7.746425e-02,1.962937e-02,-1.897003e-03,3.548235e-02,
-1.693976e-02,-2.588980e-02,4.642448e-03,-1.921610e-02,-2.543065e-02,-2.959485e-02,-2.418139e-02,-2.082242e-02,-3.174350e-02,5.301461e-03,-2.924444e-02,-5.417150e-02,-4.341481e-02,2.496071e-02,-1.347958e-02,-4.903782e-02,1.560173e-03,-2.441028e-02,-1.584552e-02,2.981837e-02,-6.713367e-02,2.091026e-02,-7.781140e-03,-3.596212e-02,-9.430213e-03,1.137235e-02,4.533277e-02,-1.287493e-02,-1.926785e-02,-1.118098e-01,-1.306897e-01,-2.090733e-02,-5.441887e-02,6.375121e-02,8.523656e-02,-2.592560e-02,-4.507205e-02,-2.239914e-02,-3.262552e-02,-2.263368e-02,-5.154736e-02,8.326764e-02,4.111003e-03,-6.877866e-04,4.764123e-02,
2.879615e-01,-5.562056e-01,-3.469982e-01,-1.827968e-01,-2.546966e-02,-3.285256e-01,1.453296e-01,5.028458e-02,-7.707464e-02,-1.129411e+00,-3.071865e-01,-2.800690e-02,3.724506e-02,2.548057e-02,-5.077808e-01,9.185844e-02,-1.757654e-01,9.807958e-02,7.370928e-01,1.446515e+00,1.276299e+00,-3.547680e-02,-4.973998e-02,2.384844e-01,2.809921e-01,3.618126e-01,-9.307665e-02,5.287730e-02,1.728762e-01,2.697209e-01,4.616565e-01,-1.535635e+00,-1.448751e+00,5.486352e-01,5.849079e-01,1.856440e-03,2.363034e-01,5.894243e-01,-1.706112e-02,-5.229155e-01,4.549411e-02,-2.380538e-01,3.710612e-01,-2.201600e-01,-4.700622e-02,
-3.699714e-03,6.078703e-03,-7.976095e-03,-4.416943e-02,4.408956e-02,1.365650e-02,1.220368e-02,1.446829e-02,-4.586631e-02,-3.779611e-02,6.943121e-03,9.555968e-03,3.612981e-02,1.286067e-02,-4.972213e-02,-4.588952e-02,2.577356e-02,-1.273614e-02,-3.200806e-02,-5.222286e-02,-4.443921e-03,-4.531833e-02,-3.165601e-02,-1.653615e-02,2.278471e-02,-5.297695e-02,1.892952e-02,-3.397753e-02,3.333979e-02,-4.867517e-02,-4.883020e-02,-2.543740e-03,-2.217030e-02,-4.664152e-03,-3.282618e-02,5.355688e-03,-5.604640e-03,-2.224055e-03,1.116587e-02,1.962312e-02,-4.643571e-02,7.649957e-03,-4.450334e-02,-3.386752e-02,2.020350e-04,
2.283069e-01,3.446157e-01,6.468542e-02,-4.253688e-02,1.180406e-02,1.528190e-01,-1.564342e-01,4.345624e-02,3.167426e+00,1.175820e-01,8.279441e-02,-1.589715e-02,-2.442375e-02,6.526471e-04,7.202987e-01,-5.275574e-01,1.708422e-01,2.732617e-01,9.848278e-01,4.334227e-01,5.217903e-01,1.072418e-02,-8.285468e-02,3.545465e-01,7.580617e-02,6.920859e-02,-4.538324e-02,1.421690e-01,3.959302e-01,1.589313e-01,-1.057980e-01,2.579703e-01,2.810006e-01,8.169625e-01,5.950660e+00,-3.839740e-02,-4.332608e-01,4.510576e-01,3.773889e-02,8.258213e-01,2.802374e-01,2.790511e-01,-4.577482e-02,-1.476294e-01,2.615240e-02,
2.673695e-02,-3.277093e-02,3.102215e-02,-2.149988e-02,4.919508e-02,-1.124541e-02,1.600553e-03,-4.469057e-02,-3.094766e-02,-3.496416e-03,-1.488933e-02,-8.353937e-03,-2.128233e-02,3.068897e-02,-4.066577e-02,-1.377573e-02,-4.650416e-02,-3.423268e-02,-4.566216e-02,1.867191e-02,-1.013738e-02,3.070800e-02,-1.214532e-02,-9.135942e-03,6.112486e-03,2.967841e-02,-1.973981e-02,4.019335e-02,-3.603850e-02,-3.642843e-02,2.969498e-03,2.286435e-02,1.267682e-02,-2.106113e-02,-4.924392e-03,1.988167e-02,-1.540240e-02,-6.206809e-02,-4.825532e-02,2.098209e-02,-1.485925e-04,-6.111241e-02,-2.447787e-04,-5.255456e-02,-4.561416e-02,
-6.755464e-02,-4.409897e-02,-6.759805e-02,2.590971e-02,-3.650450e-02,-2.262631e-01,-1.145411e-01,-4.862986e-02,1.473342e-01,-1.173593e-01,2.278977e-01,-1.046562e-01,-2.871951e-02,-1.040715e-02,6.007872e-01,4.486601e-01,3.418186e-01,-5.814813e-03,8.089280e-01,1.458423e-01,1.651833e-01,-7.314676e-03,-6.049022e-02,-9.505169e-03,4.295081e-01,-5.394189e-01,-2.242196e-01,-2.303773e-02,4.815275e-01,-1.913646e-02,1.980636e-01,2.370366e-01,3.303008e-01,8.016869e-01,-9.964018e-01,-2.357702e-02,-7.504771e-02,-5.320256e-01,-4.400355e-02,1.924838e-01,2.668606e-01,1.099473e-01,-7.156966e-03,8.843701e-02,-3.438361e-02,
-4.673526e-01,-5.376113e-03,1.226688e-01,-1.374365e-02,-3.656136e-02,1.442283e-01,-4.221284e-02,-1.544038e-02,-3.199815e-01,4.589247e-02,-4.100917e-02,-2.119594e-01,2.656345e-02,4.120855e-02,2.489113e-01,-1.217044e-02,3.783718e-02,4.546535e-02,2.949716e-01,2.208617e-01,6.749670e-02,-3.073074e-02,1.376476e-01,-5.815520e-02,3.195945e-01,2.408374e-02,6.038159e-02,2.198452e-02,2.412793e-02,2.190255e-02,2.797230e-01,-2.642460e-02,2.574637e-01,4.194402e-01,-3.852364e+00,-2.196262e-02,2.605813e-01,2.679099e-01,-5.381212e-02,2.107591e-01,-2.667753e-03,1.992647e-01,-5.829659e-02,2.362283e-02,-3.173562e-02,
9.756820e-01,2.799684e-01,2.008106e-01,9.414249e-01,2.650250e-02,3.185006e-01,-1.697575e-01,-1.633109e-02,4.694350e-01,-1.628716e-01,-4.365283e-01,2.263035e-01,1.709918e-02,-4.108540e-02,-3.387812e-01,1.612134e-01,2.686732e-01,1.352074e-01,4.252019e-01,5.642115e-01,1.858218e+00,1.839462e-02,9.178535e-01,-9.103502e-03,1.914980e-01,-1.262773e-01,1.466411e-01,2.219978e-03,1.521943e-01,5.860763e-01,6.769474e-01,-9.422440e-02,-8.014402e-01,4.136337e-01,1.704489e+00,4.478300e-02,-4.964001e-02,-2.385279e-01,-5.460721e-02,-2.624706e-01,-6.681062e-01,-7.074406e-01,6.517122e-01,-8.110080e-02,-4.094626e-02,
-3.462440e-02,2.826831e-01,-8.167283e-02,-3.814485e-01,2.595602e-02,-3.921172e-01,3.230511e-02,1.284238e-03,3.013532e-02,1.572485e-01,-2.305508e-01,-1.886902e-01,2.506762e-02,4.630900e-02,-6.115727e-02,-4.656089e-02,5.554888e-02,1.594061e-01,3.096607e-02,-2.167497e-01,-2.520612e-01,4.567058e-03,-8.554526e-02,-1.502391e-01,2.547013e-01,1.031537e-01,-8.915605e-02,-2.901990e-02,-6.425938e-02,-6.854437e-02,8.167281e-02,-2.872361e-02,2.749244e-01,2.973036e-01,-4.935399e-02,4.675109e-02,1.369195e-01,8.897889e-02,2.938696e-02,1.043892e-01,3.887048e-01,-7.213563e-02,-1.196145e-01,6.858396e-02,9.733298e-03,
-1.444477e-02,7.899899e-02,7.208423e-03,9.218564e-02,1.191958e-02,8.019775e-01,-5.063290e-01,-7.049497e-04,-2.691915e-01,3.252489e-01,1.435256e-02,-1.631420e-01,-2.269273e-02,-5.024792e-04,-4.540711e-01,4.525885e-01,3.860551e-01,-1.508975e-01,5.516373e-01,3.589994e-02,2.275899e-02,-8.198598e-03,-1.683286e-01,2.449270e-01,-1.250144e-01,-5.895776e-02,-3.424030e-01,8.208521e-02,-5.645765e-02,6.167964e-03,6.351079e-01,-1.182708e-02,6.364283e-03,1.176876e+00,1.628244e+00,-4.180033e-02,-1.794233e-01,1.451502e-02,-2.612467e-02,3.328474e-01,-3.938437e-01,1.457081e+00,-1.380129e-01,-2.607494e-01,-3.630949e-02,
-1.155306e-02,-6.595109e-01,2.040504e-01,3.553933e-02,1.030609e-02,1.285236e-02,4.248679e-02,7.745835e-03,-2.761034e-02,-3.198241e-01,-1.171192e-01,-2.770525e-01,-7.942863e-03,6.880571e-04,2.293578e-01,4.397171e-02,-8.981144e-01,3.251089e-01,1.650551e-01,2.882154e-01,3.635689e-01,1.401631e-02,2.456773e-03,3.890137e-01,5.043543e-02,1.549072e-01,1.541873e-01,1.794282e-03,9.037189e-01,1.952221e-01,8.417659e-03,4.028736e-01,2.918746e-01,-6.376616e-01,-7.333021e-02,-1.396208e-02,-6.439956e-02,-2.954373e-01,5.317507e-04,-2.523873e-02,-5.866026e-02,-4.870301e-01,8.335242e-02,-2.130919e-01,2.814787e-02,
1.000806e-02,6.482805e-03,1.396349e-02,-8.588554e-02,-4.424249e-02,5.127966e-03,1.717657e-02,2.481270e-04,-4.359629e-02,2.685930e-02,-4.223710e-02,-4.902575e-02,2.029364e-02,4.223194e-02,-3.741546e-02,-3.418979e-02,-3.467739e-02,1.217985e-02,1.413831e-02,-8.999282e-03,2.432530e-02,2.118047e-02,-2.538829e-02,-6.010358e-02,-2.365578e-02,-2.575672e-02,1.737385e-02,-7.133186e-04,-5.500381e-02,3.135415e-02,-3.526968e-02,4.319003e-02,1.438160e-02,3.730918e-02,-3.019814e-02,-2.604314e-02,7.056667e-03,2.755589e-02,2.474285e-02,-4.939199e-02,1.626792e-02,-5.062040e-02,-2.279323e-02,-3.474537e-02,4.242773e-02,
-8.397399e-01,4.014767e-01,4.323437e-01,1.957377e-01,4.808276e-04,-4.340644e-01,-3.757000e-01,2.018139e-02,2.708809e-02,3.337621e-01,7.534275e-02,-2.066364e-01,1.509754e-02,-1.002250e-02,-7.710194e-02,4.697937e-01,-3.946260e-01,2.977971e-01,7.359631e-01,7.273242e-01,4.393754e-01,3.040768e-02,-9.730937e-02,-6.720576e-01,1.151268e-02,-5.520061e-01,2.303765e-01,-5.976699e-02,-1.911688e-01,-2.080726e-01,4.450339e-01,-1.332380e-01,7.727706e-01,1.759709e-01,-3.134418e-01,-1.134523e-02,9.045045e-02,3.751155e-01,8.552225e-03,1.430928e-01,4.551284e-01,4.411727e-01,-1.513274e-01,-2.037171e-01,7.118262e-03,
-3.434607e-02,3.492374e-01,-5.652712e-02,1.930530e-01,-2.309072e-02,6.592566e-02,3.272179e-01,6.461626e-02,4.515785e-01,-6.101834e-02,2.189046e-01,2.281606e-02,-1.653834e-02,-6.255900e-03,5.954381e-02,-2.230525e-01,-7.458237e-01,-1.068203e-01,-1.253163e-02,8.041971e-01,-1.225438e+00,1.872749e-02,-3.794420e-01,1.830163e-01,2.492942e-01,-2.751405e-01,-3.223422e-01,-2.078643e-04,3.639075e-01,2.328248e-02,1.765298e-01,8.975896e-02,-3.913240e-02,-8.743179e-01,1.952529e+00,2.280537e-02,-3.349443e-01,-8.600987e-02,2.913105e-02,7.705214e-01,2.778053e-01,-3.031728e-01,1.149072e-01,-1.154253e-01,5.459485e-02,
5.484535e-01,-5.309837e-01,2.226015e-01,-3.300953e-01,-3.113386e-02,-4.935100e-02,1.217075e-01,5.047623e-02,5.953124e-02,-1.803809e-01,1.152723e-01,7.709708e-02,3.040850e-02,-3.627346e-02,1.814785e-01,-2.981945e-01,1.445866e-01,-3.766657e-01,-7.863467e-01,3.611065e-01,-2.466876e-01,3.500170e-02,-4.572698e-01,1.101588e-02,-7.952669e-01,-1.794982e-01,-6.254797e-02,4.535904e-02,2.329773e-01,3.310780e-01,-1.798073e-01,-8.514990e-02,-3.100962e-01,1.448482e+00,2.456047e-02,4.858233e-02,-4.685098e-02,1.602423e-01,5.504554e-03,4.437413e-02,2.740991e-01,1.270291e-01,2.501681e-02,8.656460e-02,-6.655497e-03,
3.125864e-02,-1.114606e-02,3.270818e-02,-1.306860e-01,-2.157267e-02,3.516022e-02,-7.291201e-02,3.510083e-02,-1.082233e-01,7.480525e-02,-2.506313e-02,-7.488716e-02,-3.379011e-02,2.788677e-02,1.352525e-01,5.291451e-03,1.552639e-01,8.865161e-02,1.657174e-01,-1.998023e-01,3.374607e-01,4.094936e-02,8.478073e-02,-3.001232e-02,-2.201551e-01,-8.855058e-02,-4.674107e-02,-4.832725e-02,1.254850e-02,-6.303345e-02,-2.138810e-01,3.371957e-02,3.390027e-03,-4.635167e-01,2.385401e-01,9.916825e-03,5.459775e-02,2.051941e-01,4.867868e-02,2.101192e-01,-1.287024e-01,1.410166e-01,-5.685717e-02,-1.877791e-02,-4.127942e-02,
-1.924081e-01,-1.433939e-01,6.369078e-01,2.264242e-01,-4.810517e-02,1.532802e-01,-1.631488e-02,-5.813227e-02,1.579199e-01,-1.220169e-01,-5.118469e-02,-5.051853e-02,-3.048410e-02,4.965216e-02,-1.075687e-01,-2.935558e-02,8.150468e-02,-2.991381e-01,4.966994e-01,-1.295970e-01,-7.634001e-03,-2.386335e-02,-2.705444e-01,1.005968e-02,1.255700e-01,-2.796954e-01,-2.059156e-01,5.340768e-02,2.694195e-01,1.363908e-01,-2.726676e-01,-1.804543e-01,2.396789e-01,7.135499e-01,2.207094e-01,4.847331e-03,-2.589635e-02,-8.681877e-02,3.636232e-02,8.670504e-02,1.355296e-01,-7.025496e-02,8.380312e-03,1.512450e-02,-4.911146e-02,
5.177581e-02,2.135167e-01,2.792884e-01,-6.897807e-01,3.337092e-02,1.668987e-01,1.007389e-01,3.580920e-02,2.274438e-01,6.553839e-01,4.045046e-01,3.917283e-03,-4.367886e-02,-4.818743e-02,9.459141e-02,-1.080662e-01,2.390413e-01,-1.628998e-02,1.304232e-01,8.050086e-01,-1.968718e+00,4.379753e-02,1.294131e-01,1.964840e-01,1.136690e-02,3.526534e-01,6.798648e-02,-2.575935e-02,-8.472313e-02,-5.499648e-01,4.652188e-01,7.549047e-01,2.778940e-01,4.056218e-01,-6.143122e-01,-2.126567e-03,4.964331e-02,2.187115e-01,1.891634e-02,1.583335e+00,7.120580e-01,3.540654e-01,-3.274409e-01,3.042177e-01,-9.008306e-03,
2.569716e-01,-3.551407e-02,1.197594e-01,-3.072760e-01,2.020239e-02,9.123924e-02,-2.195492e-01,-1.604535e-03,2.550566e-01,1.763103e-01,1.173466e-01,-3.999310e-01,4.440443e-02,2.320668e-02,-1.930589e-01,-4.709846e-01,9.551253e-02,6.509250e-02,5.407971e-01,7.244896e-02,1.249899e+00,-2.492213e-02,-8.401237e-01,2.225508e-01,6.871460e-01,-6.312540e-02,8.336635e-02,1.197893e-01,3.584480e-01,5.267914e-01,9.387668e-01,2.296146e-01,4.543667e-01,-1.976966e+00,2.634676e+00,-6.777250e-03,-3.702245e-01,5.263396e-01,2.121743e-02,5.098998e-01,4.099474e-02,6.797584e-01,2.081685e-01,-1.781526e-01,4.062221e-02,
-6.773705e-01,6.019585e-01,7.999149e-02,4.674822e-01,-5.334945e-03,1.284088e-01,-3.590643e-01,6.433129e-03,7.833371e-02,-4.719086e-02,-1.562525e-01,2.361250e-01,3.338648e-02,3.245726e-03,7.150897e-01,-1.850131e-01,1.772826e-01,-9.406621e-02,7.936821e-02,1.108258e+00,2.555086e-01,-1.327591e-02,-8.098202e-01,1.724043e-01,-2.470199e-01,6.385399e-02,-7.490813e-02,-5.810073e-02,-1.087517e-01,3.225255e-02,-4.897434e-02,-1.019659e-01,1.485232e-01,1.038398e+00,-9.154735e-01,-4.267821e-02,-3.214568e-02,-5.382853e-01,1.242388e-02,6.223074e-01,2.903935e-01,1.969358e-01,2.400780e-01,1.080085e-01,-2.575337e-02,
-6.311869e-01,4.527156e-01,-8.558074e-02,5.246065e-01,9.767410e-03,-1.528120e-01,-1.006673e-01,-5.322230e-02,-4.067337e-02,3.347060e-01,-1.998215e-01,4.003163e-02,-3.146268e-03,2.974376e-02,6.212167e-01,1.826780e-01,4.156265e-01,-2.032955e-01,3.872597e-01,9.513070e-01,4.108911e-02,2.894936e-02,9.221135e-02,1.004066e-01,-8.837349e-02,1.152524e-01,-8.343596e-02,3.819912e-03,-4.032410e-01,3.923726e-01,-1.371029e-01,-3.821947e-01,2.069674e-01,5.786558e-01,1.538183e-01,-4.069464e-02,1.610051e-01,7.550459e-01,-1.487851e-02,1.514095e-01,-1.516964e-01,1.034128e+00,-1.333625e-01,1.039612e-01,-9.259743e-03,
1.751661e-02,-4.222766e-02,2.401836e-01,-1.773276e-01,-3.451215e-02,5.558701e-01,-2.797605e-01,-8.516352e-02,-2.429962e-01,-2.823998e-02,-2.552154e-02,-2.074442e-01,7.368419e-03,-2.124618e-02,-3.035779e-01,8.586644e-02,2.476871e-01,9.864796e-01,5.332569e-01,4.051810e-01,2.860801e-01,-1.453158e-03,-3.340156e-02,-3.324551e-01,-6.578982e-02,2.473277e-01,-9.501767e-02,2.178382e-01,9.558544e-02,3.746920e-01,5.550342e-01,1.042241e-01,2.061819e-01,6.314836e-01,9.192608e-01,-2.255037e-04,-7.489263e-03,-5.005061e-02,-1.168399e-02,1.169744e-02,6.227282e-02,-6.626850e-01,2.139398e-02,-4.701238e-02,-2.689190e-02,
3.463195e+00,-1.135915e+00,3.804235e-01,-1.332457e-01,3.545899e-02,9.036189e-02,-6.376472e-02,3.969629e-02,1.365217e+00,3.265261e-01,7.496039e-01,-2.979698e-01,-4.627755e-03,-3.079070e-02,-6.516673e-01,1.041598e-01,-6.703446e-02,-2.052267e-01,3.092859e-02,-3.817189e-01,1.078867e+00,4.256268e-02,2.115869e+00,1.801606e-01,-1.201241e-01,-1.811148e-01,1.781867e-02,-9.910094e-03,1.865693e-01,-1.252976e-01,1.135427e-01,1.929280e-01,-1.253059e-01,1.571468e+00,1.039045e+00,-2.944061e-03,-1.879408e+00,1.752509e+00,4.223031e-02,1.526468e-01,9.519030e-01,9.458866e-01,-2.882908e-01,-1.056061e-02,-2.931780e-02,
-5.958170e-04,3.381397e-02,2.816225e-03,-3.417596e-02,2.051420e-02,7.921713e-03,-1.920359e-03,3.455633e-02,-2.254074e-02,-5.036009e-02,-4.390198e-02,1.769388e-02,6.487608e-03,3.117301e-02,-2.209568e-02,-2.973836e-02,-3.773542e-02,2.251582e-02,-4.237004e-02,-2.017995e-02,-1.345418e-02,-3.736659e-02,-7.774821e-03,-3.135652e-02,-2.655659e-02,1.330036e-02,-1.248579e-02,3.369834e-02,-3.316038e-02,1.941716e-02,-5.041478e-02,2.879149e-02,-3.770668e-02,-1.458797e-02,4.148695e-02,-7.702396e-03,2.649633e-02,-2.377311e-02,3.780718e-02,-2.315776e-02,4.698929e-02,-4.237743e-02,-2.090662e-02,-3.299020e-02,2.011447e-02,
2.755835e-01,5.184760e-02,-3.088089e-01,2.116755e-01,1.109568e-04,-2.965738e-01,1.037444e-01,-2.364003e-02,-4.910412e-02,1.946073e-01,-2.404018e-01,3.049738e-01,7.779482e-03,-2.099998e-02,-2.111693e-01,2.167490e-01,2.083098e-01,5.688360e-01,6.358269e-01,-2.197081e-02,2.566759e-01,-1.662433e-03,-4.584593e-01,5.909582e-01,-6.381367e-02,1.387053e-02,2.933678e-01,-3.611522e-02,-4.878780e-01,4.906619e-01,-1.500656e-01,8.735589e-02,-1.880798e-01,-7.404650e-01,3.566502e-01,-4.749715e-02,-8.454987e-02,3.735523e-02,-3.468654e-03,1.380774e-01,1.004453e-01,6.656193e-01,-6.594896e-02,1.545800e-02,-6.036570e-03,
-2.672195e-01,-3.978579e-02,-7.615785e-02,7.279710e-03,-2.045119e-02,3.742009e-02,-5.729506e-01,4.841200e-02,2.302523e-01,-2.579893e-02,2.814296e-01,1.561905e-01,5.887481e-03,-2.274658e-02,-2.270497e-01,-2.416390e-01,1.143103e-01,7.975077e-02,5.495432e-01,-1.945882e-01,-9.373018e-02,-1.900799e-03,-7.519985e-01,-2.446094e-01,-7.129017e-02,5.971189e-02,-1.030504e-01,-3.210901e-03,1.246196e-02,-4.984195e-02,-1.713766e-01,-5.394979e-03,1.477205e-01,3.639820e-01,3.127051e-01,-4.581205e-02,-1.715201e-01,3.998033e-01,-4.660634e-02,3.294196e-02,3.046182e-01,-3.719271e-01,1.758008e-01,1.325167e-01,-4.516472e-02,
1.579049e-02,-2.480830e-02,-4.679595e-02,-4.518523e-02,-2.322382e-02,-2.003211e-02,-1.956820e-02,4.286549e-02,-4.140855e-03,-2.847284e-02,-1.970643e-02,-3.163310e-02,-2.772144e-02,1.091254e-02,-1.921003e-02,3.156602e-03,-9.454333e-03,-5.549441e-02,4.635082e-03,2.786647e-02,6.022516e-03,-8.588728e-03,-5.484156e-02,-2.799576e-02,-4.316554e-02,-2.418037e-02,3.199850e-02,-1.008058e-02,-3.427061e-02,2.645503e-02,4.072233e-02,-4.508366e-02,-2.614498e-02,-3.768644e-02,-5.773455e-02,-4.216623e-02,-2.768530e-02,3.416817e-03,1.781467e-02,-5.179906e-02,-5.006802e-02,2.267189e-02,2.912130e-02,-2.619976e-02,-2.233704e-02,
-9.833828e-03,1.725339e-01,-2.774157e-02,3.446014e-01,-2.416293e-02,-7.823486e-02,1.053996e-01,-2.515409e-02,6.862612e-03,-3.445202e-01,-2.185646e-01,2.426629e-01,5.078274e-03,-2.896929e-02,-1.466405e-01,1.165453e-01,1.994244e-01,2.565653e-02,-1.744006e-01,-1.369682e+00,5.888211e-01,-3.465259e-02,1.951988e-02,-9.940109e-02,8.393676e-02,3.053222e-02,-7.649400e-03,-1.352945e-02,-7.612994e-02,3.987148e-01,2.500780e-01,-1.000580e+00,-1.377813e-02,2.537250e-01,-2.337098e-01,-1.723167e-02,2.146631e-01,-4.528527e-02,1.847053e-02,-8.384944e-01,-3.888508e-01,-7.467689e-02,-5.393019e-01,-2.366321e-01,5.038764e-02,
-4.825710e-01,-3.433416e-01,-6.402946e-02,6.524525e-01,3.062457e-02,1.971243e-01,-2.182751e-01,-2.471492e-02,-1.257792e-01,3.261794e-01,-1.012500e-01,-2.464962e-01,2.118824e-03,4.043258e-02,4.377026e-01,-2.767840e-02,-3.655982e-01,1.686238e-01,7.669720e-01,1.572500e-01,3.160642e-01,4.740658e-02,2.582877e-01,5.544336e-01,1.461446e-01,-3.628711e-01,-1.715435e-01,3.667544e-02,2.100044e-01,-3.815927e-02,-2.137362e-01,-3.738202e-01,7.364296e-01,-4.968602e-01,1.115584e+00,1.581225e-02,1.158945e-01,1.614653e-01,-3.008994e-02,9.877626e-02,3.708300e-01,6.056298e-02,-2.498623e-01,-4.950916e-02,2.996106e-02,
-1.204218e+01,7.076193e-02,4.090053e-01,1.858940e-02,3.445540e-02,-1.845050e-01,-8.051329e-02,-2.921710e-02,2.004710e-02,2.124858e-01,-4.732584e-02,-1.906839e-01,2.255657e-02,2.087475e-02,5.280296e-01,2.475192e-01,3.986169e-01,1.617405e-01,3.260865e-01,1.084507e-01,2.712773e-01,3.810326e-02,-1.142122e+01,-4.212160e-01,-2.103039e-01,1.267788e-01,2.953999e-01,-4.961807e-02,-1.787107e-03,-3.821422e-02,2.993965e-01,3.207391e-01,6.491468e-03,1.437193e+00,1.360441e+00,-3.023997e-02,2.018456e-01,-1.983039e-01,-1.349285e-02,2.332748e-01,2.289160e-01,4.803200e-01,-4.579419e-02,1.997242e-01,2.118200e-02,
2.668730e-02,-5.413840e-02,5.379085e-03,-8.569856e-02,4.149405e-02,-5.382746e-02,-1.845408e-01,2.594297e-02,-8.745993e-03,1.764860e-02,-1.770430e-02,-4.259906e-02,2.099364e-02,-1.498159e-02,-1.217541e-01,1.008061e-02,4.782364e-02,-4.597050e-03,2.124475e-02,-1.047922e-01,1.661583e-03,9.081891e-04,-2.700899e-02,-1.492967e-01,-4.464100e-02,3.037451e-02,4.618648e-02,-2.128315e-02,-7.641990e-02,-3.665048e-03,9.834336e-03,-5.802945e-02,2.860243e-02,5.769950e-02,-1.895361e-01,-1.125170e-02,2.406776e-03,-7.512846e-02,4.052081e-02,-4.054522e-02,-2.979923e-02,-1.320051e-01,3.134256e-03,-2.414580e-02,4.957419e-02,
-1.186720e-01,1.407368e-01,-3.135730e-01,-1.542223e-01,-1.918168e-02,8.931715e-01,3.931802e-01,3.026455e-02,-9.692424e-02,-1.586199e-01,-1.697020e-01,-5.604171e-02,-2.263840e-03,-4.392233e-02,-1.394993e-01,2.423936e-01,-1.335721e-01,3.846924e-01,3.532945e-01,-1.727117e-01,1.758294e-01,1.760667e-03,1.013494e-01,-5.339620e-03,2.118213e-01,-1.587980e-01,9.378914e-02,5.148097e-03,-7.075753e-01,7.138529e-02,3.377258e-01,2.835566e-02,3.861267e-01,1.806224e+00,1.406751e-01,-2.663323e-02,1.466090e-01,9.607531e-01,-1.174233e-02,-1.594015e-01,-3.750123e-02,-1.747185e+00,-8.379060e-02,-9.308665e-02,3.454830e-02,
-1.092474e-02,2.389723e-02,-3.502125e-02,-2.023366e-02,1.593070e-02,-3.037795e-02,2.036172e-02,-2.874481e-02,-1.867348e-02,1.781451e-02,-3.060559e-02,-2.138530e-02,2.310229e-03,-1.913073e-02,-6.363219e-03,-1.804124e-02,9.122632e-03,-3.966516e-02,-4.794068e-02,1.537884e-02,1.439886e-02,-1.370054e-02,7.542881e-03,3.146651e-02,-2.828642e-03,1.480716e-02,1.487746e-02,1.288525e-02,-2.544386e-03,-2.903938e-02,2.327502e-02,-2.823696e-02,9.269278e-03,-3.497261e-02,-3.537006e-02,2.599182e-02,-2.604722e-02,-9.114090e-03,2.494186e-02,-1.272416e-02,3.699312e-03,1.349308e-02,-4.154181e-02,3.118237e-02,-2.676595e-02,
-2.871058e-02,2.714668e-02,-6.361112e-03,-3.229681e-02,7.547494e-03,-3.532219e-02,1.386389e-02,3.271436e-02,-2.647447e-04,2.274253e-02,-5.030744e-02,-6.980015e-03,3.091178e-02,4.212392e-02,-1.869375e-02,-6.357519e-02,-4.034193e-02,8.568873e-03,-6.872174e-03,1.608397e-02,-4.866095e-02,6.826545e-03,-1.851749e-02,-7.452227e-03,1.457199e-03,1.014994e-02,5.408762e-03,-4.421502e-02,-4.139194e-02,-3.437321e-02,1.254382e-02,2.768625e-02,-3.004196e-02,2.169907e-02,-3.784565e-02,-2.290276e-02,-4.937124e-03,-4.100878e-03,3.271404e-02,-4.262429e-02,-6.143721e-02,-8.598971e-03,-1.599193e-02,-5.431568e-02,3.148538e-02,
-3.827032e-01,2.927504e-02,5.200851e-01,1.502737e-01,-4.384874e-02,-3.028839e-01,-6.848584e-01,5.716319e-02,-2.957423e-03,3.537244e-01,-7.386299e-02,1.866282e-01,3.872712e-03,-8.013891e-03,1.711542e-01,-1.319475e-01,8.873137e-01,-1.008619e-01,5.330415e-01,1.659086e-01,5.873428e-02,-1.895078e-02,-3.435460e-01,3.258926e-02,-6.879506e-01,1.703463e-01,-2.810685e-01,-2.775832e-02,-3.491919e-01,-9.697992e-02,3.715283e-01,3.450164e-02,-2.337616e-01,-3.541753e-01,5.853474e-01,2.046055e-03,-7.935577e-02,-6.471171e-01,4.535126e-02,8.409380e-01,5.977586e-01,5.090279e-01,-2.503882e-02,5.617724e-02,3.835452e-02,
-3.063551e-01,3.191160e-01,-2.946815e-01,2.676684e-01,3.347223e-02,2.860372e-01,-3.570343e-01,1.445416e-02,4.507585e-02,8.536913e-02,2.906000e-01,1.415336e-01,3.075764e-02,4.781244e-03,-2.284746e-02,-1.007933e-01,4.737783e-01,-1.939360e-01,4.261824e-01,4.553356e-01,3.415371e-01,3.301392e-02,-1.168673e-01,1.143387e-01,1.495261e-01,2.173834e-02,-1.918067e-01,-1.757513e-02,-1.923416e-01,1.086529e-02,2.998327e-03,-1.009828e-01,-1.685577e-02,-5.357440e-01,4.996427e-01,-3.201441e-02,-2.823291e-01,-4.973741e-01,-1.800666e-02,5.996769e-01,3.269611e-01,-2.750456e-01,2.300556e-01,3.970702e-02,4.813445e-02,
4.461664e-01,-2.380820e-02,2.746546e-01,-7.806403e-01,1.446203e-03,-3.588879e-01,-4.253777e-02,1.962234e-02,-1.587622e-01,1.502920e-01,-1.832280e-01,-1.761153e-01,-4.140110e-02,-4.807093e-02,-7.812238e-01,-3.045411e-01,-2.928928e-03,-3.821733e-01,-3.428978e-01,5.202712e-01,-8.395176e-01,-1.808075e-02,5.116608e-02,4.854255e-01,5.016805e-01,7.463340e-02,-9.010458e-02,5.743416e-02,-4.708189e-02,2.127071e-01,-3.306971e-01,-2.516801e-02,-3.683633e-02,-9.160788e-01,3.253092e-01,4.631922e-02,7.885575e-02,1.964956e-01,4.690734e-02,1.967206e-01,-2.255977e-03,3.687356e-01,-2.860652e-04,-2.565066e-02,-2.915832e-03,
-9.469763e-03,-2.714578e-02,-2.838972e-02,-5.779012e-02,-2.560007e-02,1.856015e-02,-2.590118e-02,2.842327e-02,-4.239869e-02,-1.279502e-02,2.590038e-03,3.465805e-03,-6.636092e-03,-4.512712e-02,-1.204627e-02,-5.137156e-02,-3.859772e-02,1.167005e-02,-3.792679e-02,2.134518e-02,-4.318855e-02,1.793506e-02,-2.826197e-02,3.683034e-02,-3.296356e-02,-6.592191e-02,8.782390e-03,1.290846e-02,-4.099347e-02,-9.186224e-03,-1.103156e-02,2.024436e-02,-1.902233e-02,-2.099844e-02,-9.854561e-03,1.183048e-02,-5.590365e-02,-3.469343e-02,-1.310354e-02,-5.203017e-03,-2.680708e-02,-8.882395e-03,4.074730e-03,1.607458e-03,-3.688843e-02,
5.712391e-01,
-8.857563e-03,
-9.059706e-03,
-1.394048e-02,
7.396928e-03,
-4.363569e-01,
-1.685551e-02,
-5.705328e-02,
-1.776705e-01,
-1.593516e-02,
-2.575395e-01,
-1.831049e-02,
-1.661906e-01,
3.884771e-01,
-4.687222e-01,
1.309289e-01,
2.504918e-01,
1.974020e-01,
-9.810546e-03,
-1.585616e-01,
3.228528e-01,
8.745337e-02,
-1.190114e-01,
8.104063e-02,
1.220076e-01,
3.652816e-02,
1.808081e-01,
-4.095550e-01,
1.224992e-01,
2.867131e-01,
-2.040072e-02,
4.813589e-01,
5.798134e-01,
-1.234865e-02,
4.865563e-01,
-1.073084e-01,
6.711704e-01,
-3.279640e-02,
-2.753493e-01,
-1.098731e-02,
-1.082944e-02,
-3.758239e-02,
1.411583e-01,
-1.242850e-01,
-1.175334e-02,
6.697173e-01,-2.613602e-02,1.496431e-02,7.690179e-05,-5.655639e-01,-1.656034e-01,-1.061408e-02,-1.840186e-02,1.814635e-01,4.740735e-02,1.583724e-02,5.268024e-02,2.238570e-01,-1.554058e-01,-1.292003e-01,1.008301e-01,2.744452e-01,-7.574556e-01,-2.200685e-03,2.550865e-01,-9.890903e-02,-2.968552e-01,2.540140e-01,5.071161e-01,-1.108004e-01,-2.463818e-02,9.490234e-02,-1.759501e-01,7.664026e-01,2.589557e-02,-2.523485e-02,-2.470051e-01,-1.562422e-01,-2.285896e-02,6.956803e-01,-8.502324e-02,1.829155e-02,4.087424e-02,1.198479e-01,-3.278093e-02,-4.397615e-02,-3.497026e-01,2.537572e-01,7.319620e-02,-9.682942e-03,
1.767490e+00,-3.913371e-02,-3.397238e-02,3.191327e-02,1.734554e-01,1.111295e-02,8.384672e-03,-1.322900e-02,5.887136e-01,4.810968e-02,1.723367e-02,2.361658e-03,-1.532381e-01,6.983100e-02,-3.207884e-02,-6.280196e-01,8.585364e-03,-2.344663e-01,-2.398153e-02,1.277246e-01,-5.489343e-02,-3.927483e-01,-2.147593e-01,1.403434e-01,-4.649085e-01,-6.963110e-02,2.812101e-02,-6.084080e-02,-6.340692e-02,4.228735e-02,3.824270e-03,8.680410e-02,7.120870e-02,-2.742643e-02,9.901454e-01,4.129226e-01,2.268758e-02,-5.744065e-02,-7.498275e-02,-6.965476e-03,1.145344e-02,2.036196e-02,7.670090e-02,-4.191841e-01,-3.852456e-02,
-4.204919e-02,-2.971990e-02,-4.326025e-02,-9.933136e-03,1.161832e-02,6.021782e-03,-5.613078e-03,9.895330e-03,3.616414e-02,-2.482920e-02,-2.345370e-02,-4.304964e-02,-6.268147e-02,-7.431577e-02,-2.486021e-02,1.776226e-02,-3.274349e-03,-7.073845e-02,4.728972e-03,-1.215870e-02,2.049169e-03,-4.336756e-02,-2.794027e-02,-4.774131e-02,-4.598564e-02,-4.578224e-02,-6.453751e-02,1.985627e-02,-5.969397e-02,-3.385898e-02,4.921675e-02,-5.295064e-02,4.853641e-03,4.308618e-02,2.618320e-02,-4.063595e-02,2.399474e-02,4.576669e-02,-4.221556e-02,2.793937e-02,3.585165e-02,-4.254038e-03,-5.395802e-02,-1.632464e-02,3.491799e-02,
-9.070269e-02,-4.172785e-02,-1.982789e-02,4.755504e-02,1.103655e+00,-9.434436e-02,3.815945e-03,-1.919670e-02,9.637761e-02,-1.934320e-02,-6.225896e-02,2.308447e-02,-3.116035e-01,2.987660e-02,-8.986293e-02,2.575203e-01,-6.113726e-01,7.332271e-01,4.395536e-02,-3.744090e-01,1.814865e-01,-6.584607e-01,1.452043e-01,2.001866e-01,-1.601418e-02,1.482625e-01,-2.887202e-01,2.993369e-01,-1.709313e-01,2.040736e-02,3.593848e-02,3.833948e-01,1.354340e-01,5.943861e-04,-1.159078e-01,3.134297e-01,2.202634e-02,-6.705783e-02,-1.697915e-01,3.778494e-02,-2.637325e-02,-5.191786e-03,-1.738002e-01,9.092507e-02,-1.370859e-02,
-1.377749e-01,1.777884e-02,3.141748e-02,-4.613874e-02,-8.805530e-02,-8.990893e-02,5.462449e-02,4.847735e-02,3.230596e-01,4.726806e-02,-7.973012e-02,-4.107951e-02,7.991155e-02,-1.886754e-01,-2.319895e-02,-9.260589e-02,2.256527e-01,1.337942e-01,-4.427521e-02,3.844047e-01,1.134913e-01,-6.324618e-01,1.484046e-01,2.303272e-02,1.157358e-02,-8.905994e-02,7.163854e-02,-8.342588e-02,2.469510e-01,2.621550e-02,4.289900e-02,1.869021e-01,4.258440e-03,-3.455960e-02,2.060315e-01,1.209755e-01,3.104782e-02,-6.828384e-02,7.369685e-01,-2.399492e-02,-2.067021e-02,1.433364e-02,-1.549442e-01,2.987407e-01,4.958434e-02,
3.584583e-01,1.522921e-02,2.833568e-02,2.080901e-02,-5.249341e-01,-6.124820e-01,-1.470824e-02,-1.103299e-02,6.274042e-01,9.158187e-03,4.856676e-02,2.819004e-02,-3.675963e-01,-5.447413e-01,6.066595e-02,3.058345e-01,6.853715e-02,-2.506325e+00,4.541848e-02,6.150727e-02,-4.001306e-01,6.163733e-01,-2.810979e-01,6.483402e-01,-1.165306e-01,-4.007803e-02,7.125509e-01,-3.752064e-01,5.388041e-01,-3.749743e-03,2.084478e-02,-9.384588e-01,-1.053920e+00,3.808489e-02,2.730778e-01,3.385178e-01,-9.617574e-04,1.208234e-01,6.040467e-01,-2.268351e-02,5.283600e-02,5.779661e-01,7.005451e-02,-1.722321e-01,-3.595340e-02,
-4.591098e-02,1.316416e-02,3.376938e-02,1.847319e-02,2.999287e-02,-5.312686e-02,4.168330e-03,-4.258444e-02,-1.980793e-02,-2.961431e-02,1.323031e-02,-1.449154e-02,-5.679332e-02,-7.529449e-03,-3.690970e-02,-3.035539e-02,1.466093e-02,-2.115220e-02,1.983502e-02,-5.321871e-02,-6.244642e-02,-5.827644e-02,-3.533860e-02,1.343554e-02,-5.364219e-02,-3.163369e-02,1.251097e-02,1.201241e-02,-4.912974e-02,9.661379e-03,3.759756e-02,-5.822366e-02,1.071947e-03,3.587681e-02,-1.628419e-02,1.641358e-02,-4.340970e-02,-8.920664e-03,-6.087702e-02,4.018223e-02,4.320578e-02,-2.084926e-02,-3.222694e-02,-4.858666e-02,-7.837643e-03,
2.783235e-02,1.871387e-02,8.356245e-03,2.170664e-02,-3.276806e-01,-1.728422e-01,4.448679e-02,7.227574e-02,-1.782802e-01,-2.646863e-02,-3.166886e-02,-3.796709e-02,-3.111636e-01,-8.241566e-02,1.088929e-02,1.332970e-01,-5.790595e-03,8.099350e-01,-1.178057e-02,1.707232e-01,9.246906e-03,-6.914017e-01,-8.096819e-02,1.223064e-01,3.393122e-02,1.275546e-01,-2.013420e-02,5.435406e-02,-2.000289e-01,-2.094175e-02,-1.222761e-02,-1.127036e-01,2.285492e-01,1.824293e-02,6.665904e-02,2.201698e-01,3.071373e-02,1.544489e-02,2.395314e-01,3.189763e-03,-4.048653e-02,8.511473e-02,-1.694053e-01,2.480962e-01,-3.182176e-02,
5.552284e-01,2.473974e-02,-5.655119e-02,-7.899462e-03,3.923334e-01,5.026158e-02,-2.685620e-02,3.841523e-02,2.615529e-01,2.467132e-02,-5.488367e-03,2.487296e-02,-1.173186e-01,-3.524984e-01,-2.156845e-01,2.300556e-01,2.099067e-02,7.861575e-01,3.169993e-02,1.954903e-01,-2.790553e-01,1.515542e-02,-3.631865e-01,-8.677012e-02,-1.593939e-02,1.485528e-01,3.321354e-02,-1.803396e-01,-9.246934e-02,-2.868164e-02,2.051763e-02,6.749813e-01,-8.101394e-01,2.061695e-02,3.400425e-01,2.915673e-01,6.381469e-02,7.352377e-03,-7.870907e-01,1.855027e-02,2.413923e-02,-8.540373e-02,1.108596e-01,5.427316e-02,-5.125912e-03,
-9.898814e-02,4.387055e-02,-1.402077e-02,4.010329e-02,2.310529e-02,2.713058e-02,-2.000845e-02,-4.168805e-02,2.316054e-02,-3.120175e-02,-1.149083e-01,3.466051e-02,-5.793748e-02,-2.509238e-02,-8.483502e-02,-2.637244e-02,4.968986e-02,-4.103210e-02,-1.788046e-02,-4.079197e-02,-4.840156e-02,-2.447293e-02,4.372486e-02,2.410441e-02,4.914101e-03,-2.401286e-03,-1.238507e-02,-1.059051e-02,6.283027e-02,1.763054e-02,2.526452e-02,-2.403684e-02,-6.460381e-02,-1.787696e-02,-5.895282e-02,-5.381645e-02,-6.557199e-04,-1.187923e-02,-3.872894e-02,2.880867e-02,-4.497164e-02,-5.737423e-02,-2.232223e-03,-6.736899e-03,2.333280e-02,
-1.143263e-02,-1.322363e-02,5.363741e-03,-4.274929e-02,-2.880870e-02,-1.938513e-02,7.587152e-03,4.052162e-02,1.078746e-02,1.018827e-02,-3.566673e-02,4.685410e-02,-3.275943e-03,-2.733254e-02,-8.287948e-03,-5.912949e-02,-4.217124e-02,1.015207e-02,1.444397e-03,-4.606046e-02,-5.565131e-02,-1.482562e-02,-3.332670e-02,-1.997153e-02,-5.438441e-02,-8.688867e-03,3.211322e-02,3.290934e-03,-1.989824e-02,-1.952506e-02,-8.968409e-03,-4.822096e-02,-6.495166e-02,3.509660e-02,3.367636e-02,-2.903214e-02,1.196022e-02,-3.106176e-02,4.826171e-03,-9.485657e-03,1.948299e-02,-1.256996e-02,-2.936553e-02,-4.516341e-02,-3.607927e-02,
1.554733e-02,4.532067e-02,3.447795e-02,-2.421968e-02,2.665824e-02,-7.701036e-02,-3.744920e-02,-3.234012e-02,7.811856e-03,4.946081e-03,1.528313e-02,2.638973e-02,-4.983273e-02,-6.346505e-02,-5.491294e-02,-1.097742e-02,3.068534e-03,-1.485888e-02,-4.920844e-02,-4.117675e-02,-6.326291e-02,-4.755483e-03,2.876446e-02,-3.734110e-02,-1.391161e-02,-2.262435e-02,2.333507e-02,1.162879e-02,-6.825636e-02,-6.924158e-02,-3.319822e-02,-5.845051e-02,-2.019618e-02,-4.360978e-02,-2.126111e-02,5.436915e-03,1.689975e-02,-1.835030e-02,-3.718728e-02,4.137722e-02,2.724440e-02,-4.735762e-02,-3.797412e-02,8.360923e-03,-1.441469e-02,
7.834731e-01,-1.030923e-02,-2.141238e-02,4.502708e-02,-7.982717e-01,-1.674341e-01,-4.262852e-02,-2.299817e-02,2.144176e-01,-2.344298e-02,-2.098694e-02,-1.267758e-02,8.746008e-02,2.156956e-02,4.387819e-02,-1.188661e-01,3.206099e-01,-4.620422e-01,2.066396e-02,7.540289e-01,-1.619708e-01,3.077000e-01,-2.153702e-01,5.433656e-01,-5.254862e-02,7.194673e-02,8.162619e-02,2.753334e-01,2.615594e-01,8.644792e-02,3.756915e-02,2.175717e-01,-5.095660e-02,-5.023901e-02,3.110875e-01,3.173040e-01,5.880851e-03,-1.123009e-01,-3.591580e-02,3.985269e-02,3.376421e-02,6.537067e-02,-2.156089e-03,-1.988861e-01,4.588954e-02,
1.359978e-01,4.563691e-02,-2.305371e-02,-3.087099e-02,5.798208e-03,2.164207e-03,5.069659e-02,2.704918e-02,-3.117002e-01,2.069866e-02,-2.203491e-02,-2.708863e-02,1.973501e-01,-2.194970e-01,3.312658e-02,8.984645e-03,-2.610136e-01,-5.649768e-01,3.922625e-02,4.068165e-01,1.039423e-01,-3.825612e-01,3.662823e-02,1.629449e-01,-2.514186e-02,2.659620e-02,-6.144177e-02,1.031912e-01,-2.670097e-01,-1.580222e-02,3.187030e-02,1.981032e-01,-2.051818e-01,1.001093e-02,-4.700219e-02,-2.886152e-01,1.020617e-01,-3.097899e-02,-5.722259e-01,-2.547101e-02,1.881056e-02,-1.788963e-01,2.002057e-02,-1.918274e-01,-3.777790e-02,
1.278948e-01,-2.237642e-02,4.165709e-02,4.246233e-02,8.147619e-01,-3.138719e-01,-1.067473e-03,9.454427e-02,3.068935e-01,-1.250633e-03,-2.900827e-04,2.449054e-02,-1.363465e-01,-6.184065e-02,-3.735132e-03,6.478640e-02,9.257406e-02,-1.735006e+00,1.091758e-02,3.096970e-02,-5.340001e-02,-4.978918e-01,-1.011610e-02,1.971867e-01,-1.571050e-02,-8.331166e-02,-1.536288e-01,2.533435e-01,-1.248680e-01,-2.782532e-02,2.233165e-02,1.323628e-01,2.680873e-02,-2.047217e-02,-8.330666e-02,-1.495932e-01,3.954793e-02,1.057395e-01,1.493082e-01,-1.328661e-02,4.823382e-02,-1.146357e-01,3.374157e-01,-2.892729e-01,3.415733e-02,
-1.909352e-02,3.925225e-02,-1.333753e-02,-1.818400e-02,6.924165e-03,7.194242e-03,-2.438238e-02,1.480621e-02,-3.375295e-02,1.772752e-02,-6.211181e-03,-7.423938e-03,1.201323e-02,-8.146774e-03,-4.013370e-02,-4.904383e-02,3.663788e-02,-1.812147e-02,-4.530990e-02,2.688711e-02,2.822266e-02,2.376858e-03,2.360285e-02,3.365404e-02,-3.199354e-02,-4.852441e-02,-2.083045e-02,2.097136e-02,-3.211735e-03,6.604684e-04,6.714678e-03,3.075121e-02,-4.376543e-02,3.355368e-02,-4.753715e-02,-2.926622e-02,-2.055851e-02,-2.054043e-02,-3.024436e-02,9.069688e-03,2.225636e-02,7.740734e-03,-2.411922e-02,-1.624216e-02,4.646145e-02,
-1.022265e-02,3.153979e-02,-3.198548e-02,-4.991398e-02,-8.945071e-01,-3.318754e-02,-1.888650e-03,-2.745623e-02,-6.394364e-02,-3.036673e-02,-9.681927e-02,9.712107e-03,-2.345344e-02,2.377513e-01,2.934826e-04,-3.188602e-01,1.523997e-01,1.098742e-01,4.621388e-02,7.853860e-02,-1.170343e-02,-1.157042e-01,9.063084e-03,2.993428e-01,2.654322e-02,-1.234801e-01,-8.381092e-03,-5.151918e-02,1.851280e-01,3.052188e-02,4.908215e-02,3.542259e-01,-2.491122e-01,-1.795454e-03,-9.665085e-02,2.445768e-01,-7.762191e-02,4.638818e-03,4.675172e-01,2.088618e-02,-4.152517e-02,-2.754880e-01,-2.018145e-01,-2.555155e-01,-3.074609e-02,
1.503628e+00,5.928045e-03,-2.869267e-02,2.449445e-02,7.043129e-01,-4.497083e-01,-2.983185e-02,5.528301e-02,-4.375412e-02,9.345572e-04,-2.296785e-01,-3.137819e-02,-4.552126e-01,4.125585e-02,4.683367e-01,1.926777e-01,-4.738120e-01,1.413841e-01,2.414349e-02,2.004699e-01,1.585327e-01,2.795108e-02,1.995531e-01,3.474362e-01,-4.749954e-01,4.542023e-01,-1.993489e-01,1.399276e-01,8.073484e-02,-2.405911e-03,2.402200e-02,3.824429e-01,1.585338e-01,3.764086e-02,5.564945e-01,5.634562e-01,1.375582e-02,-8.972908e-02,-1.297099e-01,-5.162328e-02,-1.468773e-02,6.022276e-01,-3.618453e-01,3.933875e-01,2.472868e-02,
-1.091295e+00,3.213478e-02,-7.552066e-03,1.204204e-02,-8.873499e-02,1.120242e-02,2.093210e-02,5.908128e-02,-1.136943e+00,1.816750e-02,2.541624e-02,-3.507749e-02,3.200786e-01,-1.787568e-02,8.273154e-03,1.229508e-01,-1.688483e-01,-3.225740e-01,4.767524e-02,3.554449e-01,2.134023e-02,5.189391e-01,2.429159e-01,-2.972397e-01,-9.450080e-02,1.426739e-02,1.841648e-01,-4.412164e-01,6.833856e-01,-2.309346e-01,-5.141480e-03,-2.529283e-01,-1.374166e-01,-6.377644e-03,-8.345125e-01,3.222674e-01,2.748649e-02,3.227928e-02,7.030407e-01,1.776728e-02,1.598111e-02,-3.208729e-01,-2.281411e-01,-3.271412e-03,-1.488748e-02,
-6.495367e-03,2.398633e-02,4.345402e-02,-2.964503e-02,-4.268645e-01,-5.910912e-03,5.488848e-02,5.083579e-02,-2.539128e-02,4.423196e-03,9.759983e-02,-4.579997e-02,2.291762e-02,2.911492e-01,2.870767e-02,7.682860e-02,-1.089148e-01,9.920280e-02,4.725533e-02,-1.664128e-01,3.650033e-02,2.205666e-01,-1.045805e-01,3.276045e-01,-2.028804e-02,4.484255e-02,-1.165586e-01,1.436938e-01,6.778356e-02,3.458425e-02,3.102161e-02,-7.057225e-02,-8.896968e-02,1.922682e-02,1.813010e-03,-1.605467e-01,-8.667858e-01,1.868650e-01,1.696004e-01,7.516695e-03,3.913128e-02,3.371570e-01,1.705699e-01,3.825965e-01,1.302937e-02,
