// Neural Network File Format by Kyle Julian, Stanford 2016
7,4,6,45,
4,45,45,45,45,45,45,6,
0,
-8000.0,-100.0,-100.0,6.0,
8000.0,100.0,100.0,40.0,
0.0,0.0,0.0,23.84210526,-3.8529093497767,
16000.0,200.0,200.0,34.0,26.8591142426,
6.640157e-01,1.282147e-01,-1.167025e-01,2.946539e-01,
-3.643604e-03,5.788417e-02,-2.294498e-02,1.893684e-02,
-2.432643e-03,-2.541976e-03,-2.074500e-03,8.970978e-01,
3.960919e-01,1.371451e-01,1.879168e-01,-1.858896e-01,
-3.361587e-01,4.721182e-01,7.642481e-03,4.055418e-03,
-1.634099e-01,-5.423312e-01,5.499916e-01,-3.289933e-01,
-7.114956e-01,-1.106985e-01,1.037601e-01,-3.357669e-01,
-1.656202e+00,1.268100e-01,-1.954108e-01,4.460390e-02,
1.020420e-02,-3.303524e-01,3.357772e-01,2.256100e-01,
3.982523e-02,3.443746e-02,-1.179571e-02,3.645036e-02,
2.419973e-01,5.731682e-01,5.187370e-02,4.520007e-02,
2.569119e+00,-1.844992e-03,7.678001e-04,1.401555e-03,
2.187230e-01,-8.912629e-03,9.782822e-02,1.128211e-01,
8.716556e-03,-2.393031e-03,8.019788e-03,2.179407e-01,
2.185955e+00,1.750834e-01,-1.748233e-01,-1.151586e-01,
1.191555e+00,-3.320651e-03,-2.052194e-03,-3.919741e-02,
-1.880686e+00,3.953502e-01,-3.968285e-01,2.962766e-01,
-1.153802e-02,4.445820e-01,7.690501e-03,8.363148e-03,
-6.631505e-03,3.980430e-02,-2.845440e-03,1.805724e-02,
-1.233613e+00,3.887460e-01,-3.820654e-01,-2.193726e-01,
3.191970e+00,7.431369e-02,-2.363031e-02,4.115127e-03,
-9.587773e-03,4.649356e-01,7.412953e-03,7.386093e-03,
8.464628e-01,2.023036e-01,-2.045333e-01,4.756445e-01,
-3.530455e-02,1.912385e-02,6.422535e-03,1.942035e-03,
-7.816520e-01,-4.282731e-01,4.160423e-01,3.253979e-01,
7.308969e-01,-9.015266e-02,1.001471e-01,-4.847313e-01,
-2.590147e-01,6.662158e-02,3.858756e-02,3.597019e-01,
3.143467e+00,4.059283e-02,-8.739718e-03,9.174889e-03,
-2.395656e+00,-6.425069e-02,4.677459e-02,-1.141213e-01,
2.174280e-01,-3.527199e-02,3.712525e-01,1.970652e-02,
1.711943e-01,3.206910e-01,-3.497495e-01,9.035248e-02,
-2.039315e+00,9.413537e-02,-8.738251e-02,-2.155436e-01,
-1.487063e-01,2.523615e-01,1.670372e-01,3.652699e-01,
1.519212e+00,-4.906472e-01,4.908300e-01,-4.068267e-03,
-1.437750e-01,-4.118818e-01,-1.604065e-01,-5.060575e-03,
1.239921e+00,1.962713e-01,-2.146886e-01,4.946773e-01,
1.387271e+00,-8.337771e-02,5.407159e-02,-4.534665e-03,
-1.245151e-02,4.818829e-01,8.316991e-03,7.487279e-03,
7.291716e-01,3.366652e-01,-3.620429e-01,2.041262e-01,
-6.576940e-01,-2.660322e-01,2.552866e-01,5.725001e-01,
4.748960e-02,1.028718e+00,2.096468e-02,1.872285e-02,
-2.964302e+00,-4.436908e-02,2.718480e-02,3.263532e-02,
-8.026044e-01,4.733061e-01,-4.683180e-01,2.809449e-01,
-4.186948e-03,4.031404e-04,-2.975425e-03,9.772416e-01,
-2.465945e-03,-8.291083e-01,8.282446e-01,4.142921e-03,
-1.998849e-01,
-5.147726e-02,
-4.038399e-01,
-1.710194e-01,
-7.851245e-02,
-1.862022e-01,
-1.016721e-01,
-2.444374e-02,
1.147120e-01,
-6.295965e-02,
-1.134572e-01,
-1.207137e-01,
4.893100e-02,
-7.676326e-03,
1.077110e-01,
3.016134e-02,
4.531330e-02,
6.938813e-02,
-3.380173e-02,
-5.241618e-02,
-1.505883e-02,
7.593773e-02,
-1.646017e-01,
-3.303738e-02,
-5.962203e-02,
-9.042140e-02,
-7.585314e-02,
1.287604e-02,
9.720192e-02,
2.120041e-03,
1.114757e-01,
1.144371e-02,
-2.335596e-01,
7.442767e-02,
-8.859038e-02,
-4.877070e-02,
1.389682e-01,
7.638666e-02,
-1.723881e-01,
-1.533691e-01,
-2.026086e-02,
3.571913e-02,
1.853866e-01,
-1.029264e-02,
-1.862463e-03,
-8.069113e-03,-7.496572e-02,-1.119906e+00,5.964325e-02,-1.978129e-01,-3.795214e-03,1.288408e-03,-1.154572e-01,6.202131e-01,2.893942e-02,1.836033e-01,-9.918201e+00,6.211170e-02,-3.190580e+00,3.596559e-01,-7.626979e-02,-7.272725e-01,3.986585e-02,2.891391e-02,-3.661070e-01,-4.647641e-02,7.208496e-02,-1.001856e-01,8.481539e-03,-1.451289e-01,9.258714e-02,-5.525879e-03,-1.663462e-01,4.451294e-01,-9.928898e-03,-1.895199e-01,-1.209873e-01,-2.419953e+00,4.747941e-02,2.453019e-02,-1.672539e-01,-2.043941e-01,6.261694e-02,-6.855906e-01,-3.003598e-01,-1.199536e-01,-8.325932e-01,-4.256639e-02,-2.955130e+00,-1.952129e-02,
4.300949e-01,1.317538e-01,-2.625841e+00,-7.189011e-01,6.305181e-01,-1.606471e-01,-2.139137e-01,1.320647e-01,2.782176e-01,1.261159e-01,3.947745e-01,4.363175e-01,2.415667e-01,6.308109e-02,-7.171653e-03,-6.908685e-02,4.713924e-01,2.402167e-01,-2.928291e-02,-2.349687e-01,-1.183982e-01,1.952549e-01,-1.782219e-01,6.725265e-02,-2.521170e-01,-2.465092e-01,-5.843983e-02,6.518993e-02,-2.972597e-02,-4.165794e-01,-4.634229e-02,-3.731564e-01,-5.440653e-01,1.330514e-01,5.853836e-01,-3.893417e-02,5.395139e-02,1.950124e-01,-5.056094e-01,-8.550140e-02,-5.903121e-01,1.587666e-01,-6.373784e-02,1.921477e-01,-2.010917e-01,
-8.163413e-02,-1.481069e-01,-2.353967e+00,-5.579680e-01,-1.293067e-01,3.724717e-02,2.463367e-01,-5.885118e-01,-1.287009e-01,-2.080074e-01,-3.278379e-01,2.002717e-01,-3.807187e-01,2.015796e-01,-2.863627e-01,-2.455823e-03,-1.976444e-01,6.594293e-01,-7.149053e-02,-4.025463e-02,2.518962e-02,6.419280e-01,-1.469587e-01,-9.846458e-02,-2.211699e-01,-1.961091e-01,2.212615e-01,2.792329e-01,1.316421e-01,3.094370e-01,-4.048711e-02,2.212801e-01,-1.540238e-02,8.086490e-02,8.462585e-01,-1.151733e-01,-6.860423e-03,6.033632e-01,-1.720918e-01,2.816366e-01,-1.561396e+00,7.314863e-02,2.413279e-01,1.370205e-01,3.207759e-02,
1.049911e+00,1.364461e-01,-2.787943e+00,-3.329884e-01,4.959552e-02,-2.092583e-02,5.213669e-02,-4.313527e-01,-5.900164e-01,9.417787e-02,-5.609551e-02,-8.264634e-01,-3.963389e-02,-9.278670e+00,4.029817e-01,-3.451595e-01,-3.743699e-01,1.507550e-01,5.633773e-02,-5.962532e-01,-2.723876e-01,1.360750e-01,9.195871e-01,3.035703e-02,6.082134e-01,-3.004424e-01,-4.913352e-01,-6.492190e-01,9.947164e-02,-2.168133e-01,5.252194e-01,7.096475e-02,-5.461742e+00,-1.023596e+00,-1.370322e-01,8.037594e-01,3.567132e-02,1.143983e-01,4.250776e-02,1.249266e+00,6.560286e-02,-9.543954e-01,3.826303e-01,-9.106878e+00,1.049629e+00,
-5.801152e-01,1.948769e-01,2.926194e+00,1.893034e+00,1.170435e-01,1.276300e-01,1.214704e-01,4.085098e-01,3.136144e-01,6.411278e-02,-3.201097e-02,-3.164018e+00,3.603763e-01,2.365457e-01,4.287852e-01,5.468340e-01,4.827358e-02,3.294859e-01,-1.584828e-02,5.164320e-02,-1.159668e+00,3.011138e-01,1.832148e-01,1.068309e-01,2.341834e-01,-5.453563e-01,-4.250125e-01,-8.796631e-01,-3.223400e-01,-5.384668e-01,3.342969e-01,-1.901967e-01,-2.469081e-03,5.340189e-01,3.073431e-01,-4.645106e-01,4.077955e-01,2.636197e-01,8.629148e-03,1.790430e-01,-2.872141e-01,6.119560e-02,-2.061043e-01,2.417824e-01,2.550218e-01,
1.757869e-01,1.285930e-01,-1.067909e-01,1.326784e-01,-1.702850e-01,-3.632539e-01,4.800192e-01,-1.621177e+00,7.072958e-01,1.322551e-01,-2.290538e-01,-6.542895e-02,4.633382e-02,-1.040781e-01,2.550664e-02,-5.877501e-02,4.646102e-01,2.805243e-01,9.213632e-02,-5.418062e-01,-2.839100e-01,2.991129e-01,7.673238e-02,1.320526e-01,2.001912e-01,3.372214e-01,5.192090e-03,7.579120e-01,8.238136e-02,8.275484e-01,-2.091592e-01,-1.846826e-01,3.922423e-01,1.908066e-01,7.898750e-01,-1.781002e-01,9.350818e-02,2.583301e-01,-2.357985e-01,-4.285204e-01,-3.331740e-03,-2.711947e-01,1.236470e-01,-1.166103e-01,-1.081316e-01,
-1.263856e-01,9.088346e-02,6.087473e-01,1.029644e-01,-1.728059e-01,5.122124e-02,3.246767e-01,-3.856007e-01,7.395501e-01,7.239069e-02,-8.951646e-02,-1.933360e+00,-1.754448e-01,1.417921e-01,8.700977e-02,2.211892e-01,5.510093e-02,-2.905284e-03,-1.021462e-01,3.631272e-01,-1.371519e-02,1.581760e-02,3.059580e-01,4.876928e-02,-1.119168e-01,-1.868088e-02,-1.518690e-01,-3.463373e-02,-2.585705e-01,-1.751137e-01,-5.686624e-02,-4.761373e-01,1.342798e-01,-3.954665e-01,7.001222e-02,-6.416319e-01,1.123075e-01,3.447933e-02,2.185999e-01,-1.708798e-01,3.082042e-02,5.178028e-01,-2.590235e-02,8.382096e-02,-8.616556e-02,
2.815466e-02,8.537059e-02,4.796108e-01,-1.858652e-01,-1.971356e-01,-1.921125e-02,1.056596e-01,2.345040e-02,-1.800411e-02,1.507586e-02,-3.129559e-01,-3.138644e-01,-1.617875e-02,-7.596194e-04,-8.978181e-02,-5.042610e-02,1.241771e-01,2.048185e-01,1.004453e-02,-6.189995e-03,-6.395561e-01,1.954754e-01,-1.119247e-01,5.944318e-02,-1.111517e-01,-2.396190e-01,-9.653478e-03,8.444874e-01,1.938965e-02,-8.880121e-02,-1.711142e-02,1.483691e-01,7.618736e-02,6.762382e-02,2.471480e-01,3.555975e-02,-1.884855e-02,1.091209e-01,-2.040175e-01,-2.575650e-01,-2.369104e-01,-3.499349e-01,1.289193e-01,-5.558360e-02,1.205308e-01,
3.528508e-01,1.406688e-01,2.118830e+00,3.589501e-01,-6.191527e-02,-2.346825e-01,-3.860042e-01,7.700354e-01,4.541917e-01,4.371839e-02,-9.697869e-02,-3.881780e-01,4.117093e-01,-1.309946e-01,-1.198910e-01,8.106795e-02,-1.864582e-01,2.833146e-01,4.715605e-02,-4.400408e-01,-4.337460e-01,2.250184e-01,-8.983728e-02,1.008370e-01,6.383662e-02,-1.314398e-01,1.697812e-02,8.361133e-01,-2.118955e-01,-4.784603e-01,-3.944249e-01,-1.636169e-01,2.831307e-01,2.838945e-01,-7.196831e-01,-1.861342e-01,1.781741e-01,1.889144e-01,-4.594499e-02,1.347570e-01,-1.162243e-01,1.254960e-01,-1.111786e-01,-6.235947e-02,7.523070e-02,
-6.811883e-01,6.687743e-02,5.195055e+00,1.777023e-01,2.868017e-01,2.669949e-01,-5.208257e-01,-1.320737e-01,2.240258e-01,1.290696e-01,-5.283747e-04,-1.556604e+00,2.399038e-01,-1.814174e-01,-5.970690e-01,-2.900697e-02,-1.642206e-01,3.281263e-02,-7.893901e-02,3.212072e-02,-1.378050e-01,5.293625e-03,3.916090e-01,3.684567e-02,7.271752e-01,-5.332811e-01,-1.125658e+00,-2.026654e-02,6.620230e-02,5.200379e-01,1.447459e-01,-2.101143e-01,4.653497e-01,6.371559e-01,2.174629e-01,1.941300e+00,-5.643007e-02,6.647584e-03,8.576762e-01,-5.299783e-02,-2.184459e-01,3.973722e-01,6.176676e-02,-2.397991e-01,-1.431692e+00,
-2.609677e-01,5.917311e-03,1.337657e+00,-4.554855e-01,5.988615e-01,5.257811e+00,-7.399125e-01,1.446709e-01,6.241763e-01,1.358849e-01,4.878347e-02,-1.724617e-01,-2.630956e-01,1.638989e-01,1.400851e-01,-3.307885e-01,4.480051e-01,2.313860e-01,7.408820e-03,4.059407e-01,-2.448706e-02,1.935863e-01,9.229374e-02,8.007189e-02,-1.332697e-01,-4.512682e-02,3.753320e-01,2.870624e-01,-3.885266e-01,-5.511369e-01,1.741853e-02,-2.951169e-01,4.081569e-01,5.600727e-01,5.939667e-02,3.084235e-02,3.255315e-02,1.092265e-01,-7.909030e-02,-1.497347e-01,-6.059450e-02,-3.524128e-02,-5.069146e-01,-1.924064e-01,-1.463030e+01,
-5.340333e-01,-7.458717e-03,-9.012495e-01,6.479718e-01,-8.657481e-02,-7.524703e-02,3.231964e-01,-5.139230e-01,-1.746450e-02,-8.779731e-02,-4.022566e-01,6.735294e-01,-1.885552e-01,7.360210e-02,-6.565487e-01,4.244909e-01,3.216170e-01,5.109850e-01,-8.432017e-02,-4.616880e-01,-1.746981e-01,4.680746e-01,5.559874e-03,4.385722e-02,-2.352879e-01,-7.313770e-02,-3.047149e-01,2.259678e-01,-2.228771e-03,9.274594e-02,-1.650572e-01,6.990039e-02,5.542948e-01,5.151160e-01,-8.124620e-01,-9.870517e-02,-4.425696e-02,4.467908e-01,4.965424e-01,-3.281512e-02,-7.258700e-01,3.518977e-01,1.058929e-01,7.280232e-03,1.060478e-01,
-5.921781e-02,3.165453e-02,-6.375539e-02,-2.932642e-02,-3.926431e-02,5.329353e-03,-3.094371e-04,-3.520021e-02,-2.885803e-02,1.367770e-02,4.615993e-03,-5.535063e-02,-4.074326e-02,-9.061052e-03,-5.368925e-02,-2.647954e-02,8.098452e-03,-3.373110e-02,-2.825536e-02,-2.560830e-02,-4.494158e-02,2.925600e-02,-3.873125e-02,4.025069e-02,1.199844e-02,-2.625045e-02,-4.945271e-02,-4.062902e-02,-2.832744e-02,-2.291755e-02,-2.608831e-02,9.215049e-03,2.829486e-02,2.962106e-02,1.540859e-02,-2.787659e-02,3.791173e-03,2.386998e-02,3.882356e-02,2.899562e-03,1.161784e-02,-3.025147e-03,-2.781507e-02,-3.733572e-03,4.336103e-03,
-1.127694e+00,3.496481e-02,-1.756942e+00,3.928388e-01,-1.486616e-01,-4.393190e-01,-3.483039e-01,-4.129307e-01,4.329271e-01,-3.093787e-03,2.237451e-01,-2.753768e-01,-3.817389e-01,3.131875e-01,-4.205612e-02,3.821636e-01,-1.628469e-01,3.534804e-02,-1.134193e-01,8.365100e-02,-2.836357e-02,2.985716e-02,8.636964e-01,8.300090e-02,7.218253e-02,2.909361e-01,-4.879703e-01,-6.307126e-01,1.078720e-01,6.056841e-03,6.096781e-02,6.869882e-02,5.390021e-01,2.571424e-02,2.209330e-01,-1.856278e-02,1.113202e-01,3.608262e-02,8.648789e-01,3.037618e-02,1.647801e-01,3.660569e-01,-3.271976e-01,9.047966e-02,-4.008874e-01,
1.244679e+00,1.892751e-02,2.775445e+00,3.261797e-01,-6.512803e-02,8.840084e-01,9.362586e-01,-2.998981e-01,-5.560892e-02,-3.644263e-02,-1.227242e-01,-2.738912e-01,-8.508959e-01,8.734713e-01,2.262258e-01,-2.554045e-01,-2.866029e-01,1.776555e-01,4.724591e-02,9.016417e-01,-6.136565e-01,1.762037e-01,7.920060e-02,-6.245015e-03,6.301529e-01,1.120853e+00,8.422214e-02,5.363719e-01,-2.138958e-02,3.414918e-01,2.491348e-02,7.240476e-02,-1.125032e-01,-6.341127e-01,6.960641e-01,-1.396114e-01,2.411304e-02,1.600237e-01,-8.824631e-03,-5.738282e-01,-1.496161e-01,-3.363947e-01,-3.114155e-01,8.083900e-01,-4.603545e-01,
-3.652030e-01,1.422433e-01,4.695690e+00,-8.287174e-01,-1.001924e-01,3.186198e-01,2.686097e-01,-8.732374e-01,2.774830e-01,1.595019e-01,-2.056215e-01,7.134880e-02,2.387130e-01,2.133252e-01,-2.558204e-01,4.067563e-01,-2.418319e-01,9.351871e-02,4.552402e-02,-4.141114e-01,1.258370e-01,2.701196e-02,-1.526059e-01,7.790153e-02,-3.959063e-01,-3.487811e-02,8.015503e-02,-2.486411e-01,-1.236988e-01,6.405502e-01,-4.970069e-02,-3.726451e-01,-1.159604e-02,2.705859e-01,7.669603e-01,-3.016125e-01,-1.145993e-01,2.625804e-03,-4.071375e-01,9.715560e-02,1.119570e-01,9.407758e-01,-1.482826e-01,1.977548e-01,-3.577551e-01,
-1.550079e-01,1.524455e-02,-4.536343e-01,4.367482e-01,-2.515391e-02,-1.570143e-01,1.022086e-01,-5.993938e-02,1.523977e-01,4.994096e-02,-1.690422e-01,5.107067e-01,-7.143611e-02,1.798818e-01,-2.320290e-01,-3.589519e-01,1.467359e-01,4.730163e-01,8.795013e-02,4.950838e-01,4.509687e-01,4.587911e-01,-4.178674e-01,5.144713e-02,1.521469e-02,3.542171e-01,-3.956043e-01,-2.161065e-01,3.443681e-01,-4.774702e-02,-4.104110e-02,3.585267e-01,-2.653541e-01,1.934706e-01,-7.056493e-02,5.564590e-02,-2.580974e-01,5.191224e-01,-2.054388e-01,5.898865e-01,-2.558551e-01,6.781564e-01,5.154893e-02,1.143469e-02,2.241247e-01,
-3.253046e-02,1.487610e-02,-1.899843e-02,-1.985508e-02,-1.159178e-02,1.549991e-02,-1.700532e-02,2.283279e-02,2.000106e-02,-8.788963e-03,3.939914e-02,-1.781497e-02,-1.463282e-02,2.830307e-02,1.650850e-02,2.678749e-02,-4.729208e-02,-5.052222e-02,-5.941429e-03,-3.022023e-02,-3.423629e-03,-4.171729e-02,-2.412626e-02,-2.591923e-04,-2.393465e-02,-3.819385e-02,-2.387829e-02,9.456449e-03,1.190502e-03,6.054381e-03,-1.929718e-02,-4.629835e-02,-1.025427e-02,-5.451265e-02,-1.133857e-02,-2.423419e-02,1.526200e-02,-3.396757e-03,1.500437e-02,-3.507898e-02,1.202171e-03,-5.118235e-02,7.607221e-03,-1.954214e-03,2.806443e-03,
6.127988e-01,1.460330e-01,3.194459e-01,-3.532816e-01,-3.420407e-01,-8.921328e-02,2.310355e-01,-9.743236e-01,9.842127e-02,1.377545e-01,-3.799813e-01,-1.118267e+00,-9.889982e-02,1.483780e-01,4.476009e-01,1.007602e+00,-2.217630e-01,4.129643e-01,5.615143e-02,4.141631e-04,-1.841376e+00,3.642715e-01,2.399347e-01,8.256982e-02,1.543322e-01,7.546873e-02,-2.617939e-01,2.147744e+00,-7.689748e-01,-1.281540e-01,2.987700e-01,-4.447694e-01,1.082447e-02,5.990964e-01,4.198155e-01,1.838004e-01,2.624908e-01,3.251258e-01,-2.858101e-01,-2.140404e-02,9.904065e-02,-2.721641e+00,1.250452e-01,1.421738e-02,2.675530e-02,
1.055685e-01,-1.144581e-02,6.025788e-01,5.221117e-01,-1.162252e-01,-1.254038e-01,4.817899e-02,2.191791e-01,4.024481e-01,-2.469792e-02,1.978105e-01,-9.656991e-01,5.673678e-02,1.611350e-01,3.059589e-01,3.845932e-01,-1.950988e-01,1.447425e-01,5.019753e-02,-8.315981e-02,-1.631513e+00,1.208172e-01,7.685374e-02,3.043610e-02,-1.808660e-01,2.651804e-01,-1.946907e-01,1.400504e+00,-1.583317e-01,3.842601e-01,-4.973296e-02,2.165559e-02,1.037211e-01,4.086000e-01,3.935558e-01,2.969787e-02,2.459282e-01,1.538073e-01,9.835173e-02,-1.210225e-01,-1.467697e-01,-4.402782e-01,-1.151525e-01,1.801902e-01,1.045795e-01,
7.269393e-01,2.092794e-02,-8.122347e-02,-1.200890e-02,-2.945786e-01,-2.074492e-01,-1.209004e-01,-3.735670e-01,1.013288e-01,-1.005023e-01,-3.030475e-01,-4.630925e-01,-2.637462e-01,6.875662e-02,7.073113e-02,5.664925e-01,-1.669094e-01,1.581887e-01,-2.444857e-02,-4.178562e-02,-2.504694e+00,1.952930e-01,-8.915135e-02,-1.081638e-02,1.306536e-01,2.572113e-02,-2.710962e-01,1.937556e+00,1.565178e-01,-7.159010e-02,2.651778e-01,-6.525763e-02,-1.073040e-01,1.360206e-01,-6.128207e-02,-3.153686e-02,2.080198e-03,1.782005e-01,-4.207548e-01,9.136919e-02,-1.355697e-01,-1.704596e+00,3.357158e-01,3.963958e-02,1.758062e-01,
8.488499e-02,3.959317e-02,-1.095434e-01,-4.646688e-01,-9.081335e-01,-6.744127e-02,2.844301e-01,-4.082710e-02,1.169887e-02,3.757742e-02,-1.521585e-01,3.630356e-03,-6.257849e-02,-1.358488e-01,-1.965122e-01,-2.006924e-01,-9.480914e-02,3.473549e-01,4.433245e-02,2.485094e-01,-4.137575e-01,3.347531e-01,-1.003249e-01,5.150117e-04,-2.355121e-01,-2.821045e-01,-4.465871e-01,6.838561e-01,-5.339158e-02,-1.884065e-01,1.708515e-01,1.011016e-01,-7.611857e-01,-1.627587e-02,1.060135e+00,7.966049e-02,7.974103e-03,3.367280e-01,4.474355e-01,-3.771790e-01,-6.995777e-01,-3.282009e-01,1.448389e-01,-9.158610e-02,1.753577e-01,
1.332377e-01,1.476069e-01,-1.320700e-01,1.060520e-01,-1.413829e-01,5.878302e-02,-2.551890e-01,2.045523e-01,2.983753e-01,1.449409e-01,-3.282306e-01,4.924576e-01,5.037073e-01,9.663648e-02,4.421991e-01,-1.393478e-01,1.095133e-01,1.428626e+00,1.439305e-01,3.319066e-01,2.021530e-01,1.440112e+00,1.587867e-01,4.533792e-02,-9.737592e-02,3.608956e-01,-9.628379e-02,5.742305e-01,-1.844529e-01,4.130948e-01,-6.618763e-02,-1.948756e-01,1.151565e-01,3.928890e-01,-1.783194e-01,8.085444e-02,2.833211e-01,1.495465e+00,6.315161e-02,-6.601492e-02,7.186268e-02,8.372111e-02,-2.290003e-01,7.514077e-02,6.326006e-02,
-8.202852e-02,5.208424e-02,-1.158465e+00,-1.300158e-02,-6.074119e-01,1.200366e-01,3.151297e-01,1.341211e-01,-3.076628e-02,-7.660244e-02,-3.451373e-02,-8.503951e-01,-1.327961e-01,-8.336519e-02,1.491075e-01,-3.533923e-02,-3.001955e-01,5.441392e-02,5.389768e-02,2.845024e-02,-1.260428e+00,8.388644e-02,7.400022e-01,4.050970e-02,3.052606e-01,1.950201e-01,-2.647294e-01,7.692442e-01,-2.900779e-02,3.843241e-01,1.242633e-01,5.089921e-01,5.666783e-01,-6.077471e-02,2.170631e-01,6.403092e-01,2.845633e-01,3.309137e-02,8.231447e-01,-2.890058e-01,-4.934188e-03,-4.853986e-01,5.208577e-02,-1.139115e-01,-2.732355e-02,
-4.820762e-01,1.140600e-01,-1.435783e-01,-6.051260e-01,3.469343e-01,-3.081025e-01,5.336263e-02,6.292392e-01,9.211494e-01,5.413479e-04,-9.727076e-02,2.018723e-01,1.345776e-01,-1.340039e-01,2.434896e-01,-5.336219e-02,4.593686e-01,-1.431675e-02,-4.308758e-02,3.295581e-01,-1.899238e-01,-9.131867e-02,1.518057e-01,6.119106e-02,2.703480e-01,3.790124e-01,-1.689895e-01,8.262345e-01,-2.480509e-02,-2.730694e-01,-6.014491e-01,-1.646593e-01,4.512594e-01,2.749208e-01,-2.470005e-01,-4.514093e-01,1.473535e-01,-4.301243e-02,-1.536981e+00,-1.662083e-01,-1.351787e-01,5.621031e-01,-7.164984e-01,-1.496330e-01,8.061622e-02,
3.699990e-01,-2.562877e-02,9.773186e+00,1.033734e-01,-4.611317e-02,-1.947093e-01,-1.545225e+00,2.694886e-01,-1.225706e-01,-1.158988e-01,6.333427e-02,4.667747e-01,-2.310501e-01,2.660016e-01,-1.187826e-01,-1.188542e-01,-6.643561e-02,8.811543e-02,-3.845187e-02,-8.013525e-03,2.898518e-01,1.195451e-02,6.885585e-01,3.936370e-03,6.116804e-01,9.023370e-01,3.937336e-02,3.425407e-01,7.335456e-02,-1.502979e-01,2.689877e-01,-2.646637e-02,8.952107e-01,-1.220325e+00,1.303673e-01,-1.137122e+00,-1.806947e-01,1.981455e-02,-5.574858e-01,-9.603616e-02,-6.024767e-02,9.027687e-01,-4.034878e-01,5.580786e-02,-1.901056e+00,
-1.427926e-01,-1.433897e-02,1.662905e+00,6.145142e-01,-6.512168e-01,-1.075430e-01,-2.088092e-02,-4.879465e-01,4.204513e-01,2.053439e-02,-7.849917e-01,-1.178747e-01,8.502657e-03,4.469759e-03,-3.335243e-02,6.482736e-02,-3.271755e-02,-9.258670e-01,-3.600575e-02,2.916679e-01,-8.805429e-01,-8.670450e-01,2.940741e-01,-2.213030e-02,-2.697695e-01,-8.361813e-02,2.686375e-01,1.300545e+00,-2.931212e-01,1.272582e-01,2.923235e-02,-7.662036e-02,1.436622e-01,3.415092e-01,2.418264e-01,-5.646111e-02,7.206552e-02,-9.133267e-01,2.609973e-01,-3.280113e-01,-3.197235e+00,-1.322221e+00,4.046958e-01,1.230135e-02,1.319422e-01,
1.745437e+00,6.890488e-02,-9.508789e-01,7.212626e-01,-1.828347e-02,-7.918517e-01,-4.997611e-01,-1.003677e-01,2.106099e-01,5.411323e-02,2.297097e-01,9.171960e-02,-9.607753e-02,7.293386e-02,2.563300e-01,-6.265186e-02,-9.584210e-02,1.059516e-02,-4.189489e-02,-8.937775e-03,-2.693823e-01,-8.543941e-03,3.914198e-01,8.835804e-02,7.693406e-01,-7.971011e-02,-3.251818e-01,-3.601807e-01,-7.737606e-02,-2.554756e-01,3.038396e-01,-3.489694e-01,2.634384e-01,-7.268668e-02,3.726133e-01,-2.016525e-02,4.410330e-03,-5.333206e-02,-2.594502e-01,1.222739e-01,3.204285e-02,2.837386e-01,3.997324e-02,-3.259315e-01,-8.296403e-01,
8.875810e-03,-3.480916e-02,-9.328029e-04,-3.457385e-02,-3.928053e-02,-4.021213e-02,-4.293746e-02,8.700382e-03,3.658064e-02,-4.789573e-02,3.562813e-02,-4.477509e-02,-6.850980e-03,-4.185080e-02,1.498132e-02,-2.976139e-02,4.873159e-03,1.595328e-02,-2.405731e-02,3.033873e-03,-4.651851e-02,-4.494653e-02,-2.819409e-02,4.829771e-02,-2.813662e-02,2.284977e-02,-3.386752e-02,2.737735e-02,-3.570651e-02,4.280493e-03,1.158886e-02,-8.656360e-03,-1.752681e-02,-2.748247e-02,-3.031141e-02,-4.748199e-02,-1.002662e-02,-2.726112e-02,-4.599794e-02,-5.864631e-02,7.494292e-03,-4.232705e-02,-2.217004e-02,3.763706e-02,3.123798e-02,
1.774655e-01,-2.653729e-01,1.247593e+00,-2.150679e-02,6.997147e-01,2.443058e-01,-1.006359e-01,1.670037e-01,5.518409e-01,-1.641563e-01,7.346389e-01,2.283328e-01,-7.840138e-03,9.802742e-02,1.981972e-01,3.279538e-01,4.517035e-01,-1.067152e+00,5.189202e-02,4.912503e-01,6.205044e-01,-1.056058e+00,2.226353e-01,-2.458086e-01,4.670395e-02,3.134044e-01,6.049634e-02,2.462569e-01,-2.291127e-01,-3.760333e-01,-8.751832e-02,-6.475536e-01,-4.109849e-01,8.400213e-01,7.846587e-01,-1.399208e-01,4.154215e-01,-1.183675e+00,-6.661569e-01,1.137132e-01,7.103141e-01,4.078515e-01,-6.899559e-01,1.520885e-01,6.427607e-02,
1.689059e+00,5.497303e-02,1.567156e+00,-7.441460e-01,3.207875e-02,1.805246e+00,3.925351e-01,-6.993573e-02,-7.468089e-01,5.119731e-02,-1.485443e-01,-3.185872e-01,-1.094206e-01,2.336937e-01,-1.574222e+00,1.154420e+00,2.764826e-02,2.939280e-01,7.635532e-02,1.422878e-01,-4.868699e+00,2.937025e-01,1.539202e-01,1.366177e-02,-8.723426e-01,-4.530122e-01,1.284166e-01,-6.093954e+00,6.685060e-01,-3.156612e-01,7.619534e-02,7.277765e-01,8.393027e-01,-2.340601e+00,-4.188273e-01,3.459755e-01,-1.051551e+00,2.705259e-01,-2.194520e-01,-8.130475e-01,1.214318e-01,7.021728e-01,3.291332e-01,1.562858e-01,-1.373187e+00,
-3.352137e-02,1.252725e-01,1.571099e+00,-3.060518e-01,1.208546e-01,-4.582931e-01,1.545187e-01,2.445501e-02,3.520438e-01,8.784586e-03,-2.881297e-02,1.028806e-01,2.546590e-01,1.488003e-01,2.206438e-01,-2.966104e-01,-5.404421e-02,4.372067e-01,1.290656e-02,2.255484e-01,-3.825624e-02,4.330995e-01,1.913683e-01,5.802154e-02,1.812834e-01,4.801002e-01,-2.536366e-01,-6.318319e-02,-2.287769e-01,4.646819e-01,1.426364e-01,-1.183114e-01,-5.209333e-01,-1.804479e-01,-6.130633e-01,-8.855350e-02,-4.663406e-02,4.495599e-01,-2.441176e-01,7.639459e-02,-1.005087e+00,1.497971e-01,-1.053296e-01,-1.052659e-02,-3.545599e-02,
4.552970e-01,8.162457e-02,1.533884e+00,-3.492064e-01,-3.563332e-01,4.426465e-01,6.829830e-01,2.552880e-01,-1.106463e-01,1.566454e-01,-2.387329e-01,2.789859e-01,-5.597282e-01,-2.331869e-02,8.914528e-03,1.361140e-01,-1.261570e+00,3.244460e-01,4.682778e-02,-7.305721e-01,5.558211e-02,3.408933e-01,2.603376e-01,2.403865e-02,-2.634048e-01,7.038484e-01,1.884091e-03,3.506081e-01,-1.585124e-01,8.982068e-03,-2.860810e-01,5.455236e-02,-3.445760e-01,-5.951232e-01,-1.502521e-01,-2.669556e-01,-1.254699e-01,2.761852e-01,-1.045015e+00,1.359746e-01,5.249919e-02,2.089227e-01,-6.084824e-01,-1.753997e-02,3.008574e-01,
-5.475135e-01,5.662904e-02,-3.572409e-01,4.538066e-02,-2.458262e-03,2.104591e-01,9.724670e-03,-2.631539e-02,7.288654e-03,7.462686e-02,-1.526813e+00,1.628929e+00,4.927268e-01,1.113647e-01,-2.087151e-01,-4.093876e-02,-1.163063e-01,6.503603e-01,-6.421637e-02,-2.269466e-01,-2.605656e+00,6.426348e-01,-3.253818e-01,-7.725294e-03,9.433732e-02,-9.653552e-02,3.093141e-01,1.393514e+00,7.427537e-02,-1.006318e+00,-1.796478e-01,2.920603e-01,4.517641e-01,1.715338e-01,-1.396948e-01,1.465737e-01,3.437932e-01,5.982255e-01,5.140999e-01,-1.692055e-01,-3.820695e-01,-1.147588e-01,9.462918e-02,1.665429e-01,-5.091071e-02,
4.393080e-01,9.031249e-02,1.476048e+00,-1.622973e-01,-3.971205e-01,7.319095e-02,-1.557780e-02,-2.831615e-01,6.632487e-01,1.784838e-01,4.251361e-01,-3.134619e-01,2.019932e-01,-1.419692e-01,1.745903e-01,-2.708966e-01,3.511340e-01,-2.862853e-03,6.154183e-02,-3.869255e-01,-8.215634e-01,3.785013e-02,2.587553e-01,-1.733078e-02,7.702673e-01,-3.052192e-01,-2.369492e-01,1.802167e-01,-5.465938e-02,-6.662890e-01,1.881097e-01,-3.776566e-01,-5.566803e-01,2.878491e-01,1.218060e-01,1.085952e-01,2.963728e-01,7.164730e-03,3.273087e-01,2.510572e-01,-2.875491e-02,-5.805528e-01,1.789351e-01,-4.962974e-02,-2.086857e-01,
1.111112e-01,3.255449e-01,1.134904e-01,-1.514421e-01,-1.550050e+00,-2.424459e-01,-7.987311e-02,5.805791e-03,8.987892e-02,3.061743e-01,-1.206368e+00,-3.345023e-02,3.677432e-01,9.912938e-02,8.864076e-02,7.547422e-02,-2.348317e-01,-1.230064e+00,-2.267603e-01,-2.777276e-01,1.720434e-01,-1.272040e+00,-4.118888e-02,2.844353e-01,-5.220390e-03,2.836799e-01,-1.198701e-01,-3.638642e-01,1.875310e-01,3.477546e-01,1.771515e-01,1.289612e-01,3.888291e-02,3.817683e-02,3.281125e-01,1.310829e-01,1.810853e-01,-1.245665e+00,1.294477e-01,8.544751e-02,-4.929237e-01,8.982341e-02,2.466038e-01,-4.078600e-02,3.252565e-02,
1.582776e-01,5.047080e-02,5.279551e-01,1.096058e+00,-1.653879e-01,9.705706e-02,1.339211e-01,2.170753e-01,-6.197984e-02,-2.471227e-02,-8.220297e-01,4.761768e-03,3.392732e-01,8.880283e-02,-1.777034e-01,-9.524760e-02,2.453693e-01,4.506512e-01,-1.271009e-02,-1.567934e-02,-7.342463e-01,4.750369e-01,3.242086e-01,5.085845e-02,-4.235939e-01,-4.785750e-01,4.753957e-01,4.914833e-01,-1.412783e-01,2.141052e-01,-7.820445e-02,-1.423138e-01,9.378903e-02,3.774556e-01,1.604190e-01,1.018915e-01,4.586840e-02,5.283645e-01,-1.147136e-01,-2.738389e-01,-8.259238e-01,-3.422268e-02,1.846414e-01,1.058111e-01,1.724471e-01,
2.579524e-01,1.300473e-01,7.913085e-01,6.077254e-01,-6.241028e-01,-3.160690e-01,5.385456e-01,1.806544e-01,-2.856360e-01,1.046715e-01,1.505392e-01,-5.290964e-01,1.505731e-01,5.641990e-02,4.030113e-01,3.680262e-01,1.039893e-01,-1.756223e-01,-1.223582e-01,-2.753459e-01,3.527521e-02,-2.028686e-01,-5.701442e-03,9.854119e-02,-4.921752e-01,-1.099563e-01,1.074162e-01,-2.346419e-01,3.581283e-01,-2.519234e-01,-1.738452e-01,3.746630e-01,5.611351e-01,2.301272e-02,-2.407578e-01,1.227232e-01,4.137722e-02,-2.584729e-01,-1.003141e-01,-8.665397e-01,4.262162e-01,4.831694e-01,3.093644e-01,-2.224413e-02,-2.906704e-02,
-2.103593e-01,1.681511e-02,-1.457047e+01,7.405960e-01,8.155622e-02,8.019723e-01,1.050302e+00,-3.592890e-02,-4.226049e-01,7.879686e-02,1.343015e-01,-1.607452e-01,1.464109e-01,5.519233e-01,-1.616996e-01,5.645158e-01,-3.699961e-01,-6.943114e-03,-3.029566e-02,7.356013e-02,1.119003e-01,-2.316062e-02,-2.646424e-01,-2.175861e-02,-1.903777e-01,-7.676427e-01,2.177787e-01,6.405708e-01,-1.063337e-01,2.999980e-01,3.157852e-01,-2.183769e-01,3.670727e-01,-1.939162e-01,3.239493e-01,-4.028471e-01,-8.272343e-02,-3.412196e-02,-2.552310e-01,5.692223e-01,-1.383012e-01,-1.941235e-01,4.453371e-01,5.092106e-01,3.903875e-02,
8.908960e-01,5.760209e-02,1.433259e+00,-5.179184e-01,-5.872434e-01,4.411087e-02,6.173962e-01,-2.373987e-01,-1.147578e-01,1.467585e-01,9.609565e-02,-8.127847e-01,2.889151e-02,4.385116e-01,3.626137e-01,4.322565e-01,-2.487008e-02,-2.140348e-01,-9.377104e-02,-3.214746e-01,-7.575485e-02,-1.217073e-01,5.850605e-02,1.163471e-01,1.055016e-01,-4.613299e-01,2.979659e-01,-5.379369e-01,8.026423e-02,6.101371e-02,-1.471530e-01,1.695197e-02,-1.818800e-01,2.706617e-02,-4.739403e-01,4.240343e-02,4.122142e-01,-1.989561e-01,-1.852252e-01,1.506377e-01,5.644078e-01,5.432794e-02,2.920930e-01,2.263386e-01,1.880827e-01,
8.841096e-01,3.933642e-02,-1.912027e+00,9.127768e-01,6.279754e-02,3.947411e-02,-7.588045e-02,-6.016303e-01,1.681676e-01,-1.435488e-02,-6.101825e-02,-1.718218e+00,-4.064019e-01,4.021962e-01,-2.308879e-02,7.059243e-01,3.750113e-02,1.403846e-01,-5.128891e-02,-6.509174e-01,-6.369219e-03,5.797074e-02,-4.563272e-01,1.158897e-01,-3.511338e-01,5.847225e-01,-1.564653e-01,1.822837e-02,2.907042e-01,4.512355e-02,-3.984977e-01,1.582482e-01,8.005662e-02,-1.169175e-01,1.118284e-01,-2.779404e-02,-2.821382e-02,5.781185e-02,2.631598e-01,-3.167888e-01,-1.165478e-01,4.188773e-01,-2.635989e-01,3.203777e-01,-1.869981e-01,
-4.332501e-01,5.289458e-02,-4.213461e+00,1.843150e-01,4.115706e-01,-7.664016e-01,9.190842e-02,6.351950e-02,-1.307717e-01,-3.848994e-02,-2.060902e-01,2.305165e-01,-2.809964e-01,2.566066e-01,-1.808117e-01,-2.484126e-02,1.473447e-01,-9.388611e-02,4.244441e-02,1.153699e-01,-3.460883e-01,-6.232508e-02,-4.566345e-01,-2.004075e-02,1.641023e-01,4.605948e-01,-1.356045e-01,9.284234e-01,1.079348e-01,-5.917641e-01,8.891418e-02,-1.145948e-01,-3.511418e-01,5.453685e-02,1.098264e+00,-8.970212e-02,-4.070528e-01,-7.334273e-02,2.244982e-01,2.556627e-01,-1.083268e-01,-7.139218e-02,1.536997e-01,2.201659e-01,3.682105e-01,
-4.688532e-02,1.282256e-01,4.137321e+00,2.393302e-01,2.598338e-01,-2.643288e+00,-7.298799e-01,1.465519e-01,1.006655e+00,6.970336e-02,2.396286e-02,5.743725e-01,-6.166021e-02,1.877451e-01,1.192483e-01,6.490613e-02,4.194361e-02,-2.463646e-03,-2.210238e-02,7.525471e-01,1.357063e-01,3.299760e-02,-2.446733e-01,4.572685e-02,2.363131e-01,4.632696e-01,-4.438765e-01,3.026083e-01,-3.112675e-01,-1.659571e-01,3.786276e-01,-2.943716e-01,1.162308e+00,-6.687726e-01,-3.509602e-01,-9.990842e-01,-1.612837e-01,-6.272885e-03,-3.757159e-01,-3.143911e-01,-1.149947e-01,1.182879e-01,-1.289837e-01,6.225103e-02,-3.812549e-01,
-1.744603e-01,-2.418980e-03,9.432049e-01,-3.238682e-01,-4.806841e-01,-2.803320e-02,-2.718064e-02,-1.086856e-01,7.076736e-02,-4.136587e-03,-1.673649e-01,-9.208040e-01,-2.057220e-01,5.651770e-02,4.605550e-01,2.696803e-01,-1.793400e-01,3.302026e-01,8.310453e-04,-1.891255e-01,-1.720270e+00,3.465747e-01,5.073342e-02,3.001156e-02,1.567108e-01,6.297548e-01,1.643953e-02,1.565562e+00,-4.406433e-01,-3.789137e-01,3.465245e-02,-1.939952e-01,-2.658302e-01,1.591521e-01,5.633593e-01,2.881612e-01,2.697124e-01,2.588406e-01,-6.959432e-02,1.037946e-01,-1.542437e-01,-1.629154e+00,-1.219367e-01,-7.391469e-03,1.083925e-01,
-8.456103e-02,5.797622e-03,3.938142e+00,3.029170e-01,3.998627e-02,1.835497e-01,8.909610e-01,-4.354611e-01,-5.237155e-02,-5.114517e-02,5.074434e-02,-1.486363e-01,-9.519983e-02,4.727995e-01,9.717786e-02,6.375801e-02,2.032935e-01,1.264489e-02,-4.600446e-02,5.789259e-01,-1.023172e-01,-4.404824e-02,1.791938e-01,5.648488e-02,-2.953491e-01,7.275115e-01,-1.337213e+00,-2.400698e-01,-7.992062e-02,-1.992787e-01,3.721417e-01,-3.132211e-01,5.120935e-01,-2.751968e+00,-1.598875e-01,4.645514e-01,-2.205663e-01,-1.146675e-02,2.389955e-01,-3.510945e-01,1.113818e-02,3.828061e-01,3.012443e-01,3.052366e-01,3.205277e-01,
-9.271529e-03,
1.674470e-04,
2.087838e-03,
2.520280e-01,
-2.567109e-01,
-1.950846e-01,
7.815620e-03,
-1.617496e-01,
6.757824e-02,
1.648343e-01,
1.039271e-02,
-9.060581e-02,
-2.320568e-02,
-6.820865e-03,
-2.124852e-01,
-7.512180e-02,
-5.615509e-02,
-2.310798e-02,
-1.297660e-01,
-7.276936e-03,
-6.474662e-02,
-3.258416e-02,
5.560944e-02,
-5.506122e-02,
-5.510396e-03,
-2.627606e-02,
-5.275920e-02,
3.788560e-02,
-1.002760e-02,
3.397211e-01,
7.559076e-03,
2.981955e-02,
-1.585714e-01,
-1.695351e-01,
4.295720e-02,
4.688118e-01,
1.594564e-02,
-8.325192e-02,
-1.432819e-01,
-7.750048e-02,
-4.442280e-02,
-1.457535e-01,
-7.757330e-02,
-1.569422e-02,
8.629354e-03,
1.820163e+00,6.621183e-01,7.363395e-01,-6.639757e-02,2.112794e-01,6.985784e-02,-6.371895e-02,6.970447e-04,-7.665290e-02,3.854019e-03,-1.929015e-01,5.830086e-01,-3.228105e-02,-6.228932e-01,-2.847409e-01,-4.407805e-01,-9.490452e-02,-2.056903e-03,6.564845e-01,-1.543508e-01,-2.152006e-02,4.580750e-01,2.434750e-02,-3.774180e-02,1.311100e-01,1.170785e-02,-4.895276e-01,3.626764e-02,-7.266408e-03,-5.458089e-01,-2.726811e-02,6.251318e-01,6.049166e-01,6.668095e-01,1.642652e-01,9.130989e-01,3.285891e-01,-8.081992e-02,4.849496e-01,-4.026721e-01,-5.672884e-01,-5.818268e-02,1.849788e-01,-6.972326e-02,1.052424e-01,
1.127922e-02,-1.527189e-02,-6.225881e-02,2.840894e-02,-6.598935e-02,6.224292e-03,-4.125413e-02,-2.589471e-03,1.443505e-02,1.845085e-02,-2.260963e-02,2.739170e-02,1.668867e-02,-4.178651e-02,-2.083764e-02,-2.099273e-02,-2.026455e-02,3.630992e-02,3.415392e-02,-1.045141e-02,-4.891955e-02,-2.900778e-02,2.989111e-03,-7.552144e-02,-2.992263e-02,-3.102226e-02,5.602430e-02,2.152599e-02,-3.915773e-02,-3.641586e-02,-2.045708e-02,-3.094835e-02,-2.579857e-02,-3.940811e-02,3.872990e-02,2.416722e-02,1.177575e-02,-3.898879e-02,-3.103446e-02,-2.664988e-02,4.081884e-03,-4.617236e-03,4.215041e-02,-9.345247e-03,-2.756720e-02,
-4.242929e-02,3.179545e-01,-3.166311e-01,-1.921740e-01,3.820012e-01,2.831792e-03,4.970542e-02,-2.822070e-02,4.629061e-01,1.041352e-01,5.221603e-02,-4.871057e-01,-3.600423e-03,3.988282e-01,5.779621e-01,-2.690240e-01,-3.414413e-01,1.521963e-02,8.360959e-01,3.199279e-01,6.943733e-02,-1.496990e-01,5.106274e-02,2.099450e-01,-5.894969e-02,1.236575e-01,4.836827e-01,5.058560e-01,3.713427e-02,-3.265619e-01,2.144073e-01,2.401068e-01,-1.229526e-01,-5.083279e-01,2.082111e-01,1.885560e-01,-1.787232e-01,-9.971049e-02,-2.146638e-01,-2.463037e-01,5.741345e-01,3.212685e-01,2.214316e-01,3.921035e-01,-2.219179e-01,
-6.508646e-01,2.452978e-01,4.339410e-01,4.906251e-01,-5.193503e-01,1.290366e-01,3.211440e-01,1.463303e-01,-6.223573e-02,3.844597e-01,-1.136075e-01,5.611697e-01,-2.928124e-02,2.749420e-01,5.475927e-01,2.371232e-01,6.695919e-02,-4.507700e-03,-5.045186e-01,4.952392e-02,-9.628037e-02,1.776305e-01,2.116045e-01,-9.615644e-02,-1.639398e-02,-6.102254e-01,1.941396e-01,5.375689e-02,-3.502130e-02,-9.287670e-02,-8.167260e-01,-9.663205e-02,-5.715443e-01,-9.666891e-02,-8.254621e-01,2.008507e-01,-1.875649e-02,-5.818012e-01,6.994378e-02,5.475700e-02,1.556944e-01,-3.834406e-02,1.498436e-01,-2.075562e-02,-1.592414e-02,
2.514252e-03,-5.898368e-02,-2.310943e-02,-8.584295e-03,-1.581301e-02,-3.403170e-02,-1.208153e-01,-4.392337e-02,-4.199994e-02,-9.144048e-02,-3.512084e-02,-1.948987e-02,9.304770e-03,-6.881508e-02,-4.172475e-02,-1.277852e-01,-2.952983e-02,-4.738319e-02,-4.345152e-02,-3.299816e-02,-3.443360e-02,2.834941e-03,6.509851e-03,-4.525875e-02,-1.859348e-02,-5.428120e-02,6.251976e-02,-5.975125e-03,-3.448176e-02,1.952316e-02,-4.947270e-03,-2.835255e-02,4.733575e-02,-5.264177e-02,-1.743010e-03,-1.829052e-02,-5.809544e-02,-8.741530e-02,-1.354120e-02,-4.476418e-02,-4.654208e-02,3.294697e-02,-1.394629e-02,-2.924715e-02,-1.788542e-02,
-8.305599e-03,-1.685310e-02,-3.327360e-02,2.171449e-02,2.976495e-02,-3.006897e-02,2.551246e-02,-8.565227e-05,1.183017e-02,1.122236e-02,-2.711954e-02,5.841855e-02,-6.154868e-03,-1.627644e-02,-6.193087e-02,-1.179321e-02,-4.950474e-02,2.445964e-03,-2.214635e-02,-6.168470e-02,-1.850219e-02,-3.824572e-02,-7.040507e-02,-4.485806e-02,-2.887871e-03,-3.719339e-02,-3.587607e-02,-3.114973e-02,2.187221e-02,3.425993e-02,-8.681379e-03,-3.688477e-02,-2.983359e-02,1.010359e-02,6.919274e-02,-2.936427e-02,5.164050e-02,-4.241360e-02,2.078168e-02,-1.813398e-02,-1.591494e-02,-2.926589e-03,-1.129713e-02,-5.466939e-02,-1.477217e-02,
4.473964e-01,1.214055e-01,-3.700880e-03,8.319472e-02,-4.198972e-01,1.475943e-01,-3.499411e-02,2.279429e-01,-4.043424e-01,7.810268e-02,-5.006297e-01,1.634568e-01,-1.691051e-02,-2.584359e-01,3.111529e-01,-6.857916e-03,3.153037e-01,-3.836964e-02,3.630927e-01,-1.085129e-01,5.025963e-01,3.033142e-01,5.007229e-01,5.686228e-01,2.736208e-01,4.816433e-01,-8.526260e-02,6.346468e-01,-3.650375e-02,-2.266977e-01,6.054172e-01,1.852117e-01,5.596699e-01,8.511694e-01,8.786260e-02,-1.011238e+00,2.183070e-01,-2.334197e-01,2.002954e-01,-2.283060e-01,-1.265595e-01,4.693561e-01,-2.146990e-01,1.771314e-01,3.524166e-01,
1.218697e+00,1.203710e-01,3.734935e-02,6.745971e-01,5.598578e-01,-7.352895e-02,1.217815e-01,2.902814e-03,-3.448012e-02,-8.158541e-02,4.294392e-01,-2.759620e-01,2.342159e-02,-8.799619e-02,2.346724e-01,-3.197321e-01,1.528421e-01,-3.807746e-03,1.427459e-01,-3.917744e-01,-1.061283e-01,-1.134895e-01,4.546210e-02,-4.601643e-01,-2.624915e-02,3.403432e-01,1.149638e-01,-3.688523e-03,1.876950e-02,-3.606907e-01,-4.190971e-01,-7.776126e-02,-1.649016e-01,9.614620e-02,1.338530e-01,3.883346e-01,2.543314e-01,-1.416069e-01,-1.593138e-01,-4.372953e-01,-1.372755e-01,-1.760142e-01,-1.722566e-01,8.532831e-02,7.587522e-02,
-4.042481e+00,-5.268677e-02,2.634047e-01,-1.790865e+00,4.906458e-01,1.536919e-01,6.436512e-01,-9.692491e-02,1.818514e-01,-2.774700e-02,-3.292710e-01,1.664044e-01,-3.317637e-02,1.702466e-02,-1.442285e+00,-1.436139e-01,-3.508067e-01,-2.140690e-02,1.536070e-01,1.884168e-01,-2.037089e-01,5.847195e-03,4.539755e-02,3.925064e-01,-1.940912e-01,3.051558e-01,1.606856e-01,6.312809e-02,-4.642740e-02,-1.409493e-01,5.007384e-01,-1.862433e-01,1.236253e-01,1.920708e-01,1.859426e-01,2.562801e-02,-1.493611e-01,-3.606023e-01,2.212773e-01,-3.691071e-01,4.142662e-01,-9.911292e-02,8.164641e-02,-8.441305e-02,-8.785172e-02,
2.656536e+00,7.997632e-02,1.855430e-01,-9.677874e-01,-2.531387e-01,3.440603e-01,6.196700e-01,9.970288e-02,7.034931e-01,-1.682350e-01,-1.924046e+00,-4.123469e-01,-2.218772e-02,4.125198e-01,-1.763331e-01,-2.941553e-01,5.529980e-02,2.787380e-02,3.419818e-01,1.278186e-01,5.543079e-01,1.982311e-01,-1.651081e-01,3.765647e-01,2.717927e-01,3.490617e-01,1.359573e-01,1.400892e-01,1.293673e-02,-4.359243e-01,-1.065354e-01,4.497882e-01,-1.709503e-01,9.876916e-01,1.200693e-01,3.158028e-01,1.289086e-01,-7.332984e-02,4.041892e-01,-5.423887e-01,5.668359e-01,-4.751866e-01,7.268323e-02,2.443860e-01,3.212746e-01,
7.011796e-02,-2.816187e-01,-1.134550e-01,1.197588e-01,-2.382575e-01,-2.546964e-01,-1.887861e-01,2.405527e-01,-6.041185e-01,-1.535741e-01,2.133705e-01,2.775185e-01,4.619546e-02,4.027095e-01,1.179654e-01,-2.942093e-01,5.755658e-01,-9.819286e-03,3.327489e-01,1.882780e-01,6.082963e-01,1.086825e-01,-5.367156e-02,2.123362e-01,-1.372747e-01,-3.471672e-01,3.857744e-01,1.803839e-01,1.913837e-02,-4.376560e-01,-1.732187e-01,-3.654994e-01,6.379205e-01,1.052054e-01,4.977379e-02,3.076831e-01,-1.962816e-01,5.089532e-04,-1.064025e-01,-2.991669e-01,2.329337e-01,-4.009298e-01,2.310498e-01,-6.600928e-02,-1.906237e-01,
-8.437370e-04,8.051247e-03,6.494573e-01,5.952058e-01,5.504483e-03,5.512560e-01,5.601240e-01,8.941656e-03,-5.023108e-01,-1.752581e-01,2.293077e-03,2.027557e-01,-2.111424e-04,5.939899e-01,1.796383e-01,-1.378197e+00,1.007109e-01,-4.143874e-02,-2.133383e-02,3.664427e-01,1.403682e-01,3.062494e-02,-3.588780e-01,2.936670e-01,-5.953395e-01,5.457739e-01,-1.629172e-01,-1.349896e-01,3.851173e-02,-2.525636e-02,-9.199192e-01,-7.902691e-01,8.585199e-01,3.060142e-01,-3.523480e-01,1.475087e-01,-3.244191e-01,-1.534138e+00,6.726141e-02,4.245116e-01,5.404364e-01,1.181157e-01,-4.274558e-01,-7.466010e-02,-2.395003e-01,
8.950334e-01,4.919868e-01,-2.327066e-01,2.682390e-01,1.186941e-01,-1.689101e-01,2.761091e-01,2.969445e-02,6.407291e-02,-6.636628e-01,4.174872e-01,2.375991e-01,3.291734e-02,5.483314e-01,3.580174e-01,-4.759593e-01,-4.166427e-01,-2.520330e-02,2.527497e-01,3.449271e-01,1.846380e-01,1.694620e-02,-1.502645e-01,2.027415e-01,-6.419750e-02,7.623093e-01,3.322971e-01,-1.077202e+00,8.244032e-03,5.355290e-02,-7.659495e-01,-6.931684e-02,3.440576e-01,5.963617e-01,-2.040101e-02,-1.033287e-02,-2.525176e-02,-3.161404e-01,-7.763544e-02,1.951408e-01,8.145571e-01,8.483605e-01,-5.844725e-01,6.379444e-01,-3.496831e-01,
-1.459281e+00,-4.919990e-01,4.113583e-01,-6.888991e-01,1.256030e-01,8.934267e-02,3.942318e-02,1.599474e-02,3.088101e-01,9.022071e-02,-1.164109e-01,5.449656e-01,-3.239515e-02,1.994823e-01,-2.364129e-01,6.243564e-01,-1.247036e-01,1.758916e-02,3.657982e-01,6.766074e-02,3.948761e-01,2.293362e-02,1.307627e-01,-5.050081e-02,8.700275e-02,-1.255907e-01,-1.329221e-01,-3.105400e-01,9.844076e-03,-2.225793e-02,3.941278e-01,-3.751356e-02,2.505966e-02,5.577939e-01,5.041365e-02,1.949619e-02,9.591511e-02,-4.425646e-01,-1.222103e-01,-8.472862e-02,5.800066e-02,-1.824017e-01,-6.702074e-02,4.025028e-01,-1.226997e-01,
1.871409e-02,1.904474e-02,-5.922756e-02,-3.733929e-02,-5.966443e-02,-6.712816e-02,1.599095e-02,6.519963e-03,-7.284557e-03,-6.158551e-02,-1.833159e-02,3.441496e-02,2.366650e-02,-2.703336e-02,-4.695412e-02,1.991447e-02,-4.350350e-02,2.684430e-02,-1.864285e-02,-1.650319e-02,9.639272e-03,1.848815e-02,7.836993e-03,-3.389281e-02,-3.598604e-02,2.291927e-02,-6.393678e-02,-1.875708e-02,4.023997e-02,-6.106761e-04,1.252573e-02,-6.301976e-02,-6.605077e-02,-1.155274e-02,1.454148e-02,-1.296630e-02,-2.084815e-02,1.528630e-03,-2.076916e-02,-2.039121e-03,2.026416e-03,-2.468772e-02,2.508101e-02,-3.331700e-03,2.883359e-03,
-3.878532e+00,1.117000e-01,-2.992986e-01,-2.342248e+00,5.967534e-01,2.610548e-02,1.261812e+00,4.344613e-02,-1.186045e-01,1.010815e+00,3.498354e-01,1.026553e-01,1.706884e-02,-3.456674e-01,7.992228e-01,-1.225201e-01,4.835485e-02,4.789537e-02,1.097762e-01,-6.436107e-02,-3.013035e-01,-1.421394e-01,2.299126e-01,-3.917423e-01,3.250129e-01,3.130259e-01,-7.634882e-02,-1.443768e-02,1.761350e-02,-1.131341e-02,-1.089076e+00,-4.262043e-03,-9.850390e-02,1.174223e-01,-3.096666e-02,-6.636757e-02,-1.090558e-01,-6.302343e-02,-6.722338e-01,2.989889e-02,-1.229887e+00,-2.706160e-01,-9.955769e-02,1.684515e-02,9.269556e-01,
-4.560185e-01,1.195394e-01,-2.027589e-01,5.199757e-02,5.538206e-01,3.488024e-02,-3.168839e-01,3.765152e-02,2.596835e-01,-2.256589e-01,-2.892972e-02,-1.766742e-01,-3.710122e-02,-2.325609e-01,-2.250236e-01,3.633889e-01,-2.899781e-01,4.567808e-02,-9.516391e-02,5.282184e-02,-1.500462e-01,-7.462544e-02,2.524873e-01,1.043105e-01,2.048890e-01,1.219614e-01,3.498203e-01,-1.938046e-01,-3.407936e-02,-3.194079e-01,2.874169e-01,5.362560e-01,9.439571e-03,-4.303334e-01,-5.504861e-02,4.250419e-01,-1.367747e-02,-5.656258e-01,1.947398e-01,-2.603405e-01,1.123360e-01,5.424829e-01,-2.086850e-01,-1.137576e-02,5.393328e-02,
-2.367701e+00,2.094482e-01,4.575509e-01,-4.322748e-01,7.088944e-02,-6.685808e-02,4.043532e-01,5.465194e-03,-2.406836e-01,5.446762e-01,2.918489e-02,2.054155e-02,8.475279e-03,4.916759e-01,2.147505e-01,8.491059e-01,7.107595e-01,-1.785623e-02,-6.502523e-01,-1.228113e-02,-1.162559e-01,1.599270e-01,2.040485e-01,2.161712e-01,1.506108e-01,3.864098e-01,2.322952e-02,7.415310e-01,-1.263564e-02,7.823690e-01,1.719940e+00,4.258517e-02,5.856177e-01,-7.312832e-02,3.617870e-01,7.960593e-01,8.568028e-02,6.300378e-01,-1.762436e-01,5.545709e-01,4.782467e-01,2.250549e-01,-4.231079e-02,-3.029590e-01,6.899859e-01,
-3.487156e-01,5.355567e-01,2.561463e-01,-2.736881e-01,3.126351e-01,1.014228e-02,5.877487e-01,-1.166461e-01,5.323294e-01,3.266134e-02,1.256846e-02,-8.233617e-03,2.052238e-02,2.712517e-01,4.431552e-01,-4.487824e-02,2.435700e-01,-1.529387e-02,9.628804e-04,-1.820548e-01,6.734309e-01,-2.672560e-01,-5.697795e-02,5.523661e-02,-1.297307e-01,-7.362538e-01,4.676784e-01,-8.539475e-02,-2.818060e-02,-3.180121e-01,3.958133e-01,-1.050043e-01,-2.960734e-01,4.019960e-01,4.216260e-01,1.311140e-01,-2.367018e-01,-2.998997e-01,7.125855e-01,-4.665852e-01,7.110283e-01,2.860321e-01,-9.964412e-01,-1.705818e-01,-4.780671e-01,
3.108192e-01,1.831897e-01,-9.703919e-02,2.782058e-01,1.655307e-01,-2.561514e-02,3.782001e-01,7.721803e-02,3.064113e-01,9.965090e-02,3.467619e-01,-1.363080e-01,1.823278e-02,1.773891e-01,2.534380e-01,1.579491e-01,-1.213200e-01,1.778097e-02,2.021171e-01,2.361957e-01,2.680549e-01,1.423267e-01,-6.322480e-01,1.758206e-01,1.625433e-01,3.283666e-02,2.069795e-01,8.899860e-02,-8.576058e-03,4.678068e-01,1.612061e-01,-1.312726e-01,8.699281e-03,2.399427e-01,3.220754e-01,1.191213e+00,4.587283e-02,-2.604415e-01,3.251806e-01,-4.261655e-01,1.661170e-01,-8.814414e-02,1.222451e-01,2.350722e-01,1.676394e-01,
1.748173e-02,-5.954532e-02,1.477072e-02,3.061489e-02,2.837374e-02,2.135538e-02,1.025130e-02,-2.860566e-02,-4.563146e-02,-5.221886e-02,9.936072e-03,-1.245533e-02,-4.889166e-02,-4.770453e-02,-1.542766e-02,-4.700157e-02,1.905111e-03,-1.159178e-02,-4.984065e-02,-5.916198e-02,2.778719e-02,-5.060142e-02,4.595760e-03,3.307037e-02,-3.417931e-02,2.373988e-02,-5.758296e-02,-3.845970e-02,3.172933e-02,-4.843594e-02,-2.065565e-02,-4.340274e-02,1.669141e-03,2.241761e-02,-4.625172e-02,1.225465e-02,1.751689e-02,1.925448e-02,-6.260110e-04,-3.565935e-02,2.653252e-02,-2.937659e-02,-3.038875e-02,9.258481e-03,3.822627e-03,
-4.952934e-02,2.811743e-02,-5.766318e-02,-4.732028e-03,-5.253977e-02,-4.043650e-02,-4.660151e-02,3.428201e-02,-2.231922e-02,2.062343e-02,-1.846542e-02,-3.476527e-02,-3.560798e-02,1.855329e-02,3.596925e-02,-2.591177e-02,-3.996968e-02,4.801564e-02,6.808529e-03,1.277989e-02,-1.456773e-02,-2.965499e-02,-5.281587e-02,-4.614278e-02,-5.278107e-02,-5.094104e-03,-3.450823e-02,9.294772e-03,1.435113e-02,-1.676419e-02,3.912731e-02,2.573461e-02,5.681138e-03,2.805314e-02,-1.495726e-02,2.667502e-02,2.167994e-02,4.968751e-05,1.489471e-02,-2.512296e-02,-4.178869e-02,-5.433603e-02,1.671667e-02,-2.770420e-02,-1.798080e-02,
2.667896e+00,-4.374367e-01,1.435261e-01,4.137549e-01,5.230542e-01,-3.113006e-01,-1.371295e-01,1.480388e-03,3.051977e-01,3.455346e-01,1.003663e-02,-1.331091e-01,-1.499219e-03,-2.824551e-01,4.956362e-01,6.325594e-02,-1.112335e-01,-3.002868e-04,-5.139377e-01,-1.256103e-02,-3.520855e-01,1.068888e-01,3.034788e-01,-1.429470e-01,-8.159870e-02,-2.566952e-01,-4.387638e-03,-2.435393e-01,-5.096622e-02,7.012177e-02,-8.838836e-01,1.354127e-01,-7.046250e-01,-2.303315e-01,-7.769547e-01,1.393379e-01,2.953144e-01,-2.898617e-01,-3.668317e-01,8.501776e-02,-2.035073e-01,9.000760e-02,4.358221e-01,6.931296e-02,-6.851615e-02,
1.187659e+00,4.026548e-01,6.729018e-01,1.098266e+00,-7.155562e-02,-1.184105e-01,1.296660e-01,4.510061e-02,7.199281e-03,-5.071418e-02,-2.828007e-02,1.520623e-01,1.540445e-02,1.377228e-01,1.338980e-02,-1.418112e-01,5.586017e-01,4.949488e-02,-4.873649e-01,-2.693253e-02,-6.976447e-01,1.555589e-01,-2.654005e-02,1.249445e-01,2.387611e-01,-9.681180e-02,2.064232e-01,4.566774e-01,-2.541441e-02,-7.117508e-02,-8.042459e-01,2.529625e-01,-7.852758e-01,-4.446810e-01,-2.004690e-01,1.571241e+00,3.141989e-01,3.932777e-03,-1.002079e-01,-2.656640e-01,1.470264e-01,2.385775e-01,-6.518822e-02,-1.983039e-01,4.127354e-01,
-5.076719e-01,2.387817e-02,2.317497e-01,-3.371696e-01,3.374908e-01,-2.619776e-01,3.168156e-01,7.090759e-02,2.466034e-01,4.024020e-01,-6.874169e-02,-1.182207e-01,-2.801215e-02,6.830728e-02,-1.488013e-01,-3.257115e-01,-2.489327e-01,4.117405e-02,6.145455e-01,9.860066e-02,2.858941e-01,1.985363e-01,2.012476e-01,2.412177e-01,5.531977e-01,1.248096e-01,-2.678035e-01,1.602914e-01,-1.510973e-02,-2.352655e-01,-2.663895e+00,5.279850e-02,-6.211400e-01,-1.888412e-01,1.085089e-01,1.702965e-01,2.998769e-01,3.064536e-02,-6.882542e-01,9.642613e-02,-1.387775e-01,1.626687e-01,1.204849e-01,1.284405e-01,3.144814e-01,
-2.131961e-02,6.950905e-03,-6.644496e-02,3.477229e-02,-6.328231e-02,4.717672e-03,-4.561450e-02,3.368811e-02,1.112551e-02,-7.246391e-03,7.438491e-03,9.440986e-03,-4.472465e-02,-5.055854e-02,3.298315e-02,-1.929431e-02,-1.141056e-02,-4.189080e-02,-3.423334e-02,1.709402e-02,2.343159e-02,-6.006489e-03,-8.341813e-03,-1.839410e-02,-5.357787e-02,-6.268873e-02,3.225001e-02,-6.055091e-02,-4.828475e-02,-4.524725e-02,-2.119890e-02,2.412787e-02,-4.660022e-03,1.215588e-02,-4.132674e-02,-1.438748e-03,-4.336484e-03,1.751148e-02,-5.935327e-02,-4.834355e-02,-5.114703e-02,7.198718e-03,-6.334466e-02,-3.036531e-02,8.239318e-03,
1.711620e+00,8.426106e-01,-7.620018e-02,6.621377e-01,-7.026588e-01,5.262368e-01,4.883675e-01,1.740661e-01,-1.206025e-01,3.339257e-01,6.594201e-01,2.035359e-02,-2.291376e-02,1.266044e-01,7.858610e-01,-2.404979e-02,-6.771340e-02,-5.174185e-04,1.842379e-01,4.765165e-01,-3.844116e-02,3.138498e-01,-2.227890e-01,-2.874418e-01,3.221931e-01,-1.874334e-01,2.883467e-02,-3.289723e-01,3.161242e-02,-2.583109e-01,-1.615101e-01,-3.750221e-01,1.253610e+00,1.550322e-01,6.234399e-01,-5.773085e-02,-1.808980e-01,-1.822045e-02,-6.876403e-01,3.568427e-02,1.235666e+00,2.315612e-02,-1.420339e-01,4.681940e-01,-1.421284e-01,
1.569818e-02,-9.415679e-03,-6.473640e-02,-2.224077e-02,6.437680e-03,-1.799202e-02,-6.477107e-02,-1.798967e-02,-4.578274e-02,1.170115e-02,-2.900719e-02,7.196611e-03,2.582785e-02,8.280871e-03,1.930817e-02,-1.036077e-02,8.420989e-03,-1.980064e-02,2.345891e-02,6.775345e-03,-2.798686e-02,-2.001787e-02,-3.476131e-02,-3.004043e-02,-3.057682e-02,-5.573449e-02,-4.397352e-02,-2.166136e-02,-1.891032e-03,-6.052193e-03,3.711173e-03,1.489709e-02,1.911587e-02,2.956063e-03,6.995768e-03,9.948856e-03,-3.356601e-02,-3.575939e-02,-1.710484e-02,3.056769e-02,2.189449e-02,-5.484928e-02,1.051029e-02,-7.372277e-03,-2.203110e-02,
1.317236e+00,1.378846e-01,2.408487e-01,4.740253e-01,1.136834e-01,2.321663e-01,2.440108e-01,4.854687e-02,2.189205e-01,1.445403e-01,1.980931e-01,-4.301079e-02,-2.477432e-02,2.267573e-01,4.810624e-01,-5.256777e-02,4.550534e-01,2.072630e-03,1.825663e-01,1.174828e-01,-1.456467e-01,1.510342e-01,7.844444e-01,5.590177e-02,-6.664918e-02,-3.102717e-02,-5.487287e-01,2.260940e-01,2.430748e-02,-7.207076e-01,-1.621556e-01,1.824166e-01,-1.980822e-01,1.517958e-02,2.097089e-01,-1.069299e+00,1.958134e-01,4.185593e-02,2.729768e-02,-2.121038e-01,1.456316e-01,-1.855370e-01,5.785725e-02,6.835294e-02,2.706954e-01,
1.493030e+00,1.707870e-01,-2.317825e-01,3.853243e-01,-6.833728e-01,3.263434e-01,2.492204e-01,-1.597670e-01,5.435202e-01,3.058993e-01,-1.121820e+00,-2.394064e-01,1.746133e-02,-1.021350e+00,-1.834786e-01,-1.146183e-02,-2.574717e-01,1.527651e-02,-2.049950e-01,1.585574e-01,-3.604646e-02,-2.797574e-01,1.637996e-01,-3.898152e-01,3.831315e-01,-9.545560e-02,3.174663e-02,2.782032e-01,-1.293591e-03,-4.661335e-02,-2.713189e-01,6.828908e-02,5.204923e-01,-3.934982e-02,3.931388e-01,-6.204242e-02,-1.572703e-02,-1.771962e-01,-1.778417e-01,1.100246e-01,-6.256905e-01,-2.697913e-01,-8.574372e-02,-8.981290e-02,2.621834e-01,
-1.277013e+00,4.728310e-02,-1.004342e-02,-2.662339e-01,6.243632e-02,-1.428222e-01,1.736619e-02,-2.083540e-01,-5.607072e-01,7.862484e-02,-8.009090e-01,-4.889690e-01,4.355588e-02,-2.214561e-01,5.051544e-01,-2.696515e-01,-6.283752e-01,-1.608403e-02,3.724929e-01,4.591741e-01,-3.138076e-01,1.387691e-01,-6.745789e-02,4.307241e-01,-8.604703e-01,8.930255e-01,9.886531e-01,5.270534e-01,3.985453e-02,-2.768342e-01,1.020967e+00,4.900407e-02,-2.347806e-01,2.346086e-01,6.729337e-01,9.501046e-03,-3.721488e-01,-4.862719e-01,-9.163092e-02,-2.825181e-01,-1.241981e+00,3.103265e-01,-6.846876e-01,-5.296118e-02,1.436436e-01,
-1.123358e-02,3.195795e-03,-4.745626e-02,-3.347368e-02,2.856217e-02,2.979668e-02,-2.397134e-02,-3.468075e-02,-2.736604e-02,-1.564150e-02,-2.381163e-02,-1.068062e-02,-2.774921e-02,7.583588e-03,-9.277848e-03,-7.927499e-03,-4.677742e-03,-1.369115e-02,-3.230384e-02,2.214203e-02,3.005618e-02,-1.442766e-02,6.350530e-03,-2.544987e-02,1.042731e-02,-1.915186e-02,1.184069e-02,-2.881900e-02,-4.586179e-02,-1.638789e-02,-1.830771e-02,-3.278282e-02,2.976814e-02,-4.795934e-02,4.345452e-02,-2.654555e-02,3.705055e-02,1.202870e-02,-2.635614e-02,-3.473428e-02,7.742000e-03,3.237334e-02,-4.791989e-03,-1.590105e-02,-4.023422e-02,
1.974337e+00,3.428969e-01,-3.144754e-01,-8.027251e-02,4.924167e-01,2.052864e-01,6.595027e-01,-8.355283e-02,6.690090e-01,5.291384e-01,7.834086e-01,4.614543e-01,4.028502e-02,7.439980e-01,1.353212e+00,8.398260e-01,9.276120e-02,-2.636192e-02,5.981738e-01,-1.557584e-01,4.637902e-01,-3.293794e-01,-4.561205e-01,-6.352059e-01,-8.699705e-02,4.615733e-01,4.672455e-01,3.197522e-01,-6.521662e-03,-6.869794e-01,-1.247904e-01,8.024232e-01,1.627750e+00,2.734418e-01,3.974703e-01,5.216078e-01,-1.711099e-01,1.314582e-01,9.012970e-01,-2.131476e-01,1.285591e+00,-5.650001e-01,6.564341e-01,5.324699e-01,1.375674e-01,
9.714802e-01,1.023424e-01,-1.010342e-01,4.083998e-01,3.856588e-01,1.524601e-01,7.834941e-02,-8.140050e-02,2.982520e-02,-1.407048e-01,5.660604e-03,-1.790406e-02,3.746137e-02,6.312236e-01,-6.803689e-01,5.792630e-01,-2.844444e-03,1.533129e-02,5.245396e-01,8.947557e-02,2.973076e-02,3.325574e-02,-2.249894e-01,1.489606e-01,-4.038592e-01,-1.275127e-01,1.688507e-01,2.725337e-01,-2.635690e-02,-1.770046e-01,-1.015812e-01,4.394760e-01,-1.209887e-01,9.172808e-02,-2.574107e-01,1.679392e-01,-3.778814e-01,-3.642713e-02,5.166457e-01,1.239191e-01,4.058500e-01,-8.017390e-01,3.085066e-01,7.285559e-03,6.826892e-03,
3.129855e-01,3.162222e-02,-3.863129e-01,2.318169e-01,3.743340e-01,4.596799e-01,1.903410e-01,4.492356e-02,-1.136592e-01,4.278870e-02,6.002796e-01,1.216011e-02,1.749568e-02,5.739310e-01,1.840024e-01,-3.815889e-02,8.873838e-02,-1.203786e-02,-2.838229e+00,1.042009e-01,-7.247607e-01,-9.408946e-02,-3.479352e-03,3.675454e-02,-1.214523e-01,-1.428815e-02,-2.811210e-01,1.549569e-02,4.653043e-03,3.331389e-02,-3.437865e-01,-1.892847e-01,-6.553021e-01,5.636982e-01,1.814869e-01,7.986574e-02,9.524301e-02,-4.159438e-01,-4.775095e-01,2.030805e-01,-1.194388e-01,7.310135e-02,3.834276e-01,-3.818257e-01,2.928242e-01,
-4.803795e-02,-2.112661e-02,-9.886391e-03,4.269650e-02,-1.651102e-02,-2.495331e-02,-9.715259e-04,-4.539376e-02,3.206179e-03,1.863786e-02,-5.248229e-03,-4.740966e-02,-4.754000e-02,1.216466e-02,-2.517436e-02,4.037688e-02,-4.773819e-02,-2.469642e-02,4.192677e-02,-4.229710e-02,-2.801795e-02,1.444662e-02,-3.713318e-02,-1.210144e-02,-3.251141e-02,-3.183960e-02,7.963511e-03,4.407251e-03,2.142967e-02,-3.832607e-02,2.844055e-02,-6.302196e-03,-3.581496e-02,1.815620e-02,-2.863629e-02,1.594584e-03,-5.169543e-02,-2.750163e-02,3.020057e-02,-3.595877e-02,3.552021e-02,-6.250869e-03,-1.892856e-02,1.376577e-02,1.148328e-02,
1.300854e-01,2.565458e-01,5.029369e-01,-4.779689e-02,3.484331e-01,-9.332076e-02,1.872845e-01,-9.455014e-02,4.161687e-01,1.614068e-01,3.658132e-02,2.660336e-01,-1.213739e-02,6.139673e-02,1.080241e+00,-1.590261e-01,-7.854301e-02,1.125639e-02,8.862207e-01,5.581405e-02,3.682531e-01,-1.999539e-01,-1.536721e-01,-9.260764e-02,-1.605864e-01,-1.893915e-01,4.129531e-01,5.033647e-01,3.081108e-02,-3.104265e-01,2.494265e-01,-7.647076e-02,1.170702e-01,6.865678e-01,7.521031e-02,4.197145e-02,-1.255970e-01,-1.839265e-01,5.469325e-01,-5.479235e-01,4.847103e-01,5.122844e-01,3.312631e-02,6.281944e-02,-3.788428e-01,
-6.141439e-02,-2.756593e-04,-3.362947e-02,-8.170298e-03,-4.872301e-02,-2.744103e-02,5.514226e-04,-6.837457e-02,-8.117257e-03,-3.498908e-04,5.291780e-02,-3.535135e-02,3.464722e-02,-4.392906e-02,-2.951752e-04,3.099605e-02,-3.708164e-02,1.825478e-02,-3.718595e-02,-3.196536e-02,-1.697785e-02,-7.375644e-02,-4.594069e-02,-9.164891e-02,1.038960e-02,1.200514e-03,-4.416127e-02,-3.648799e-02,-3.818103e-02,-9.976617e-03,1.024562e-02,-7.806016e-02,-1.894802e-02,6.590040e-03,-7.380377e-02,-4.287836e-02,-6.690279e-02,2.603372e-02,-2.529078e-02,-4.072846e-02,-1.697757e-02,-1.211078e-02,3.222523e-02,-1.358538e-02,-5.859222e-03,
-5.079046e-01,-2.697661e-02,3.380835e-01,1.168853e-01,-9.436718e-01,-3.352148e-02,-3.494900e-01,3.051342e-01,-2.387179e-01,-2.311656e-01,7.806066e-01,-2.076506e-01,9.172803e-03,1.101251e-01,-2.962020e-01,6.934919e-02,2.544205e-01,-3.194205e-02,3.023854e-01,-9.051059e-01,8.203307e-01,2.248465e-01,-1.180731e-01,4.134743e-02,-2.275919e-01,-3.544810e-01,7.889380e-01,4.457690e-01,5.026344e-02,-3.129053e-01,-7.785861e-02,-2.299956e-01,5.439432e-01,3.129681e-01,-5.016743e-02,2.596867e-01,1.512313e-01,1.009635e-01,7.059284e-01,-4.158764e-01,1.439771e-01,3.721444e-01,-2.867568e-01,-6.091871e-01,9.918556e-02,
-2.419307e-02,5.391658e-02,3.736047e-02,-2.164705e-01,1.640277e-01,5.939637e-01,-1.808153e-01,2.011492e-01,5.544696e-01,7.615840e-01,-1.947960e-01,1.358740e-01,-4.663156e-02,-3.593129e-02,-7.188494e-01,3.236948e-01,-3.814327e-02,3.376386e-02,1.352956e+00,6.783966e-01,7.808020e-01,5.975643e-01,3.001814e-01,5.781484e-01,5.198924e-01,5.351198e-01,2.592739e-01,1.674749e-01,8.510290e-03,-2.102382e-01,-9.621750e-01,-3.055084e-02,-1.331108e-01,3.621024e-01,3.278347e-01,-7.382448e-01,5.592036e-01,4.513878e-01,6.952967e-01,4.637192e-01,-2.181275e-01,1.032503e-01,3.219105e-02,8.504129e-01,4.447230e-01,
1.346373e+00,5.071974e-01,4.110014e-01,2.908125e-01,5.694854e-01,1.836845e-01,9.267358e-01,-7.785081e-02,1.771687e-01,2.706743e-01,-3.472340e-01,3.876299e-01,-1.024249e-02,7.715514e-01,-2.620569e-01,8.888100e-01,9.126477e-01,-4.104920e-02,-4.806639e-01,-4.305375e-01,-1.460612e+00,-5.685731e-02,1.033096e+00,8.733308e-02,-3.267155e-02,3.188249e-01,-1.578764e+00,6.207164e-01,9.275966e-03,-8.525946e-01,4.288117e-01,5.950738e-01,-7.505464e-02,5.941767e-02,-4.950742e-02,-2.991708e-01,2.467135e-01,-5.592727e-03,-1.005437e-01,-1.988818e-01,9.828622e-01,2.855152e-01,4.412513e-01,-1.371403e+00,3.253129e-01,
-1.697851e+00,-9.854288e-02,-4.216530e-02,-1.657230e+00,8.865655e-02,1.038858e-01,-1.260873e-01,9.558021e-02,8.043265e-02,2.383764e-01,1.083661e-01,-8.177225e-02,3.488138e-02,-1.604897e-01,-6.439775e-03,-4.662888e-01,1.141534e-01,-1.931761e-04,1.839444e-01,6.919091e-02,-2.720352e-01,4.055977e-02,-2.242728e-02,-2.184056e-01,5.396340e-02,3.444712e-01,1.492634e-01,-8.246994e-02,-1.468295e-02,1.382516e-01,9.449456e-01,2.804846e-02,-3.351790e-02,-3.635264e-01,-2.143096e-01,-1.041859e-01,9.090604e-02,-2.283354e-01,-4.324794e-01,-2.503006e-01,4.923844e-03,1.946964e-02,2.429445e-01,2.068241e-01,2.707903e-02,
1.114090e+00,2.672546e-01,-3.195721e-01,4.503179e-01,2.921858e-01,6.789821e-01,1.164278e-01,1.611361e-01,4.990398e-01,4.373938e-01,2.200879e-01,1.819622e-01,4.450237e-02,3.466444e-01,-1.803942e-01,6.384662e-01,3.207161e-02,2.983599e-02,8.315558e-02,-6.927290e-01,-4.926518e-01,1.333025e-01,-1.440412e-02,-4.186000e-01,3.114151e-02,4.346969e-02,-4.811231e-02,2.095597e-01,4.357168e-02,-3.175641e-01,-5.149748e-01,2.414915e-01,-6.497615e-01,3.767096e-01,-2.041398e-01,3.371472e-01,-1.440234e-01,1.347324e-01,9.387966e-01,-2.352588e-01,7.409895e-02,-2.706331e-01,2.206319e-01,2.816223e-02,-6.319435e-01,
1.529763e-02,-4.152188e-03,3.912558e-02,4.005675e-02,-5.771113e-02,-5.470155e-02,-3.097179e-02,-4.923435e-02,-3.776925e-02,-5.592916e-02,8.430815e-03,-1.799535e-02,-8.456912e-03,-3.958388e-02,-6.491861e-03,1.082745e-02,-4.055170e-03,5.675380e-04,-3.430412e-02,-1.007747e-02,1.879756e-02,-2.388865e-02,-1.317299e-02,-5.447561e-02,-3.909304e-02,-1.759854e-02,-2.986505e-02,-4.553339e-02,-1.848736e-04,-5.154767e-02,2.366433e-02,-4.399534e-02,4.252051e-02,-1.576094e-02,-2.449700e-02,2.037716e-02,-2.752737e-02,1.464010e-02,3.081823e-03,-1.546591e-02,-4.892695e-02,-6.259064e-03,2.420027e-02,-8.944639e-03,-1.547600e-02,
-1.762798e+00,1.545870e-01,7.829513e-02,-1.773543e+00,-2.720668e-02,1.156142e-02,-5.558494e-02,4.129884e-02,6.509285e-02,4.128897e-01,-4.439113e-02,4.051141e-02,1.899381e-02,2.287176e-02,2.302183e-01,-1.704914e-01,6.197437e-03,-3.932705e-04,1.432147e-01,1.918563e-01,3.021535e-01,-5.650709e-02,1.873705e-01,2.626809e-01,2.351301e-01,-1.371586e-01,-1.245868e-01,-4.444454e-01,1.336179e-02,1.602307e-01,5.535312e-01,1.337328e-01,1.419058e-02,1.361697e-01,4.762927e-02,-3.039202e-01,1.768222e-01,-2.525513e-01,-4.507622e-01,-1.207445e-01,-9.839774e-02,8.349246e-02,-5.236597e-02,5.871385e-02,8.502825e-02,
-1.460015e-01,
-3.888708e-02,
6.147493e-02,
1.682712e-01,
-4.658692e-02,
-3.679323e-02,
-4.368925e-02,
3.882151e-02,
1.452450e-01,
-3.072590e-01,
2.072916e-01,
1.376508e-01,
-1.161548e-01,
1.388319e-01,
-2.582747e-02,
2.906612e-02,
-5.530253e-02,
3.853299e-01,
1.725718e-01,
1.421833e-01,
-2.126926e-02,
-2.625441e-02,
2.426252e-01,
4.426155e-01,
-1.585902e-02,
-1.448032e-02,
-3.141914e-01,
-2.391423e-02,
5.767207e-01,
1.603223e-02,
1.582594e-01,
-2.385901e-02,
-5.442977e-01,
-3.101273e-03,
7.613637e-02,
-1.710496e-02,
1.154823e-01,
-3.793153e-02,
1.634615e-01,
7.698938e-02,
3.063836e-01,
-4.733426e-02,
-9.635530e-02,
-1.497090e-02,
-2.557142e-03,
2.734290e-01,9.193351e-03,-6.242736e-02,1.541460e-01,1.434392e-02,-1.326326e-02,-1.857757e-01,-1.447366e-02,7.770431e-01,-2.783512e-01,3.170934e-01,4.742516e-01,3.845441e-01,-9.848870e-02,1.459132e-02,7.330421e-01,-2.836238e-01,-4.907629e-01,1.018912e+00,2.731439e-01,-2.865662e-02,-2.330536e-02,3.006894e-01,-4.263117e-02,1.118462e-01,-5.258438e-04,3.132770e-01,2.538810e-02,-3.500901e-01,3.141741e-01,7.054787e-01,1.028026e-03,-1.280164e-01,8.127671e-01,1.327559e+00,1.665467e-02,-2.854076e-02,5.289497e-02,2.733553e-02,-2.260656e-01,5.865604e-01,8.304888e-01,8.369557e-01,-3.548779e-02,1.359172e-01,
2.277846e-01,3.483461e-02,3.856148e-02,-1.046538e-01,6.487872e-02,-6.812237e-02,-3.126249e-01,-3.015366e-01,4.090379e-01,-7.761504e-02,4.693798e-02,-3.100005e-01,-2.971708e-01,-3.566469e-02,1.979327e-02,6.272459e-01,6.868957e-02,-9.808279e-02,4.303330e-01,2.394592e-01,5.833612e-03,2.600027e-02,-2.434842e-01,-1.032316e-01,1.932316e-01,4.717635e-03,-7.537048e-01,-2.311976e-02,-1.072270e-01,1.529408e-01,-4.980873e-01,-1.001219e-02,-3.626963e-01,-6.222106e-02,-1.774732e-02,-2.048327e-02,1.191819e-01,3.173188e-02,-1.895152e-01,-9.217822e-02,2.327955e-02,6.820894e-01,-1.472508e-01,-4.502515e-03,-7.735845e-02,
-2.106114e-01,2.781372e-03,1.869826e-01,4.931153e-01,-8.563537e-02,-7.262085e-03,-2.281631e-01,1.657037e-02,-2.339524e+00,-2.910619e-02,3.325444e-01,4.204773e-01,2.042298e-01,6.653090e-02,9.697749e-03,-3.260754e-01,9.506620e-01,8.879624e-02,-1.297891e+00,-2.196313e-01,-4.001977e-04,-4.035804e-02,2.429077e-01,3.720086e-02,-3.802464e-01,-1.340770e-02,2.014980e-01,-9.462965e-03,2.716195e-02,-1.059038e-01,3.904875e-01,-4.839111e-02,3.673436e-01,2.732068e-01,4.893038e-01,-4.506307e-02,-1.246131e-01,6.574171e-03,-1.249893e+00,6.453849e-02,1.415848e-01,-3.132244e-01,-1.214351e-01,-2.339476e-02,1.928000e-01,
1.748059e-02,-3.337746e-02,-9.782273e-03,2.801988e-02,-2.737200e-02,2.845918e-02,-2.173154e-02,-4.418569e-02,-1.928005e-02,-5.084615e-02,1.904849e-02,1.541288e-02,-2.929116e-02,2.033101e-02,9.427827e-03,-3.225049e-02,2.846651e-02,-4.935254e-04,3.210586e-02,-4.056461e-04,-1.234754e-02,2.279781e-02,2.685774e-02,-4.266330e-02,-5.210163e-02,1.297181e-03,-4.759143e-02,4.382996e-02,-5.495801e-02,-2.858135e-02,-5.199333e-02,3.040419e-03,-3.091346e-02,2.588403e-02,-3.879156e-02,5.856557e-03,-3.170375e-02,-4.449406e-02,-1.840520e-02,-6.231339e-03,-4.296812e-02,-1.418067e-02,4.746550e-04,1.118211e-02,2.173035e-02,
1.016948e+00,3.662886e-02,1.549911e-01,3.674455e-01,4.054991e-02,2.833367e-02,-4.619144e-01,9.441776e-01,3.124733e-01,6.927893e-01,4.573547e-01,-7.256884e-01,5.103310e-01,3.819190e-01,2.679532e-03,2.762338e-01,7.911280e-01,4.524710e-01,4.015834e-01,1.482396e+00,-3.997409e-02,-2.061074e-02,6.466489e-01,4.475736e-01,1.514471e-01,-4.501789e-02,3.196815e-01,3.860524e-02,-6.010584e-01,4.271835e-02,3.123464e-01,-3.412820e-02,1.019507e-01,4.825473e-01,-3.184969e-03,1.780840e-02,2.346810e-01,-1.336407e-02,6.271207e-01,-4.346099e-01,-4.984235e-01,4.893646e-01,5.544925e-01,2.198685e-03,4.378922e-01,
6.574675e-03,-2.829648e-02,-2.267411e-03,-4.649566e-02,1.909814e-02,3.633035e-02,-2.812087e-02,-1.409957e-03,-3.447939e-03,-4.783569e-02,-1.866721e-02,-1.916328e-02,-1.490036e-02,1.020305e-02,4.893577e-02,3.442372e-02,-1.020633e-02,-4.946839e-02,-3.705715e-02,-3.810231e-02,3.125887e-02,2.149316e-02,9.511309e-03,-2.601932e-02,-3.064092e-02,-1.085252e-02,4.923124e-02,3.526436e-02,-1.848146e-02,9.372800e-03,-3.797778e-02,3.088484e-02,3.281369e-02,-2.737222e-02,3.515461e-02,3.577501e-02,-4.024710e-02,1.509333e-02,1.542082e-02,6.853550e-04,-2.502843e-02,1.460882e-02,-4.154748e-02,-2.694625e-02,1.270929e-02,
-2.749141e-02,2.083001e-02,3.290829e-02,-3.242681e-02,-1.419656e-02,-9.490482e-04,2.200868e-02,-5.192168e-02,-3.495070e-02,2.205698e-02,3.026273e-03,8.443617e-03,5.489532e-03,-5.391607e-02,-3.571102e-02,2.386610e-02,-1.073355e-03,-5.409485e-02,-2.296044e-02,-4.207635e-02,-1.647052e-02,-4.106291e-02,2.093633e-02,-3.460389e-02,-4.646979e-03,-4.724648e-02,1.937807e-02,3.842227e-02,1.691948e-02,-5.496418e-02,-1.002883e-03,-3.417547e-03,9.590693e-03,-8.380931e-03,2.855860e-02,2.948717e-02,-7.009980e-03,-4.147645e-02,2.550270e-02,-9.467962e-03,7.757725e-03,-5.821172e-03,-3.599720e-02,-2.557458e-02,-5.016844e-02,
1.121835e+00,-2.566544e-02,9.275351e-02,-3.358740e-02,-1.491433e-02,-2.575334e-02,-5.507415e-01,-5.694627e-01,-1.599729e-01,1.489759e-01,-4.051029e-01,1.096480e-02,-6.595597e-01,9.061237e-02,3.317210e-02,-2.307969e-01,2.855842e-03,9.516610e-01,-5.464928e-01,1.445357e+00,2.899222e-02,1.425300e-02,4.429659e-01,1.191010e+00,-8.761181e-03,1.480803e-02,-2.058053e-01,-2.887033e-02,-1.586225e+00,8.012448e-02,-3.000900e-01,-1.216399e-02,2.046988e-01,-7.805858e-01,-1.567064e-02,-3.993378e-02,8.451046e-02,-1.046450e-02,-1.607000e-01,-4.410822e-01,-1.056322e+00,-2.899909e-01,-8.342777e-02,-4.313947e-03,-5.049361e-02,
-6.752656e-03,-2.318103e-02,-3.292171e-02,2.356597e-03,2.885079e-02,-8.773775e-03,-4.827884e-02,2.537084e-02,-2.491944e-02,-1.307507e-02,-2.671880e-02,-2.548299e-02,-2.718276e-02,3.102681e-02,-4.564886e-02,1.724989e-02,-5.611657e-02,-3.286079e-02,-5.530535e-02,-1.643927e-02,2.165106e-02,2.088265e-02,-3.902605e-02,3.128425e-02,-2.206216e-02,-4.779365e-02,3.579303e-02,3.569088e-02,3.086631e-02,-5.146565e-02,-3.427564e-02,-5.625269e-05,1.403572e-02,1.892847e-02,3.402072e-02,-2.738649e-02,1.550826e-03,-4.933846e-02,-1.971203e-02,-5.218869e-02,-4.398327e-02,-4.105053e-03,1.643245e-03,-5.035373e-03,3.300759e-02,
6.192873e-01,-3.573017e-03,-2.891338e-01,3.077968e-01,5.927493e-02,-8.910351e-03,3.680223e-01,3.407694e-01,7.291124e-01,7.246057e-01,4.501389e-01,2.027280e-01,8.468028e-01,5.243522e-02,-2.371408e-02,6.671319e-01,6.939655e-01,-4.464003e-01,4.865330e-01,-1.191944e-01,5.763091e-03,-2.282581e-02,9.175048e-02,-3.489768e-02,6.687859e-01,4.730839e-02,4.318416e-01,-1.043167e-02,-3.619932e-01,-8.835358e-03,4.550165e-01,3.723530e-02,4.075667e-01,8.268881e-01,-2.638266e-01,-3.194758e-02,2.731169e-01,2.013061e-02,2.752295e-01,-2.787232e-01,3.611023e-01,1.227699e-01,1.295957e-01,2.599608e-02,9.601572e-02,
1.101136e+00,-2.146477e-02,-1.467493e-01,5.481454e-01,-2.896952e-02,-4.653467e-03,-2.690700e-01,3.732431e-01,6.190491e-01,6.232628e-01,4.750465e-01,4.599824e-01,1.548848e-01,2.536646e-01,-1.711540e-02,2.003192e-01,-1.034845e-01,2.118147e-01,8.969469e-02,2.207319e-01,-1.775530e-02,-1.106306e-02,4.887238e-01,3.288586e-01,1.969833e-01,3.485430e-02,-7.378271e-02,-1.756079e-02,-2.369700e-01,4.089299e-01,3.171202e-01,4.187508e-02,-3.373183e-01,1.542238e+00,-6.000894e-01,-3.657235e-02,-8.936185e-02,-3.574949e-03,-1.816884e-01,-2.102897e-01,-6.720939e-01,2.759631e-01,7.043018e-01,-3.954191e-02,2.635617e-01,
8.345501e-03,-4.928631e-03,2.707517e-02,5.597134e-03,-1.419805e-02,9.351707e-03,9.879377e-03,-1.909325e-02,-3.956004e-02,-6.275569e-02,-3.286682e-03,2.703718e-02,2.858412e-03,-2.877665e-02,-3.416101e-02,1.379440e-02,-6.780264e-02,-3.072661e-02,-4.737740e-02,-9.856215e-03,-1.877332e-02,-9.355050e-03,3.537397e-02,-2.491660e-02,-6.328357e-02,5.559847e-03,1.577692e-02,2.940550e-02,-1.585593e-02,-3.269787e-02,1.993224e-02,-1.310210e-02,-4.234792e-02,2.512352e-02,3.073327e-02,4.164381e-02,-4.217603e-02,2.443126e-02,-5.163174e-02,-2.414390e-02,1.995638e-02,-5.134094e-02,6.300379e-04,-8.290421e-03,2.104948e-02,
8.727158e-01,1.208294e-02,-5.359368e-02,4.941169e-02,-4.700685e-02,-3.052811e-02,-5.815767e-01,-1.750448e-01,2.092385e-01,3.880806e-01,-6.916468e-02,-2.570557e-01,-1.267499e-01,-2.973749e-01,-4.968121e-03,-3.345670e-01,7.573447e-03,8.520270e-01,-3.070740e-01,1.369795e+00,2.293523e-02,-2.480453e-03,4.780463e-01,9.064649e-01,-2.808619e-04,-2.199037e-03,1.996862e-01,4.657896e-02,-2.163868e+00,8.169506e-02,1.316350e-01,4.699421e-03,2.623772e-01,-3.086020e-01,8.123586e-01,-1.477771e-02,4.298785e-02,-1.081495e-02,-1.147807e-01,-5.298870e-01,-9.878700e-01,-3.108582e-01,2.798834e-01,-5.283579e-04,-1.128213e-01,
-3.063722e-01,-3.492960e-02,1.265240e-01,9.075180e-01,-6.848656e-02,2.752625e-02,1.318461e-01,3.550392e-02,6.050155e-01,3.772990e-01,2.002719e-01,-1.385397e+00,-2.966615e-01,2.578926e-01,4.368487e-02,-2.649935e-01,3.662794e-01,3.107922e-01,3.115237e-01,8.921477e-02,1.803354e-02,-1.677538e-02,-3.451911e-01,-6.192179e-02,1.898213e-01,4.165641e-05,-5.016134e-01,2.835393e-02,-1.042301e-01,4.919682e-01,5.213437e-01,-1.721541e-02,1.805845e-01,9.158250e-01,5.981513e-02,1.805312e-02,-1.126008e-01,2.449684e-02,-3.575158e-01,-1.689278e-02,-8.167797e-02,2.027467e-01,5.742791e-01,-2.170727e-02,-3.182232e-01,
-1.679119e-01,-4.579424e-02,-6.739069e-01,6.276747e-01,7.542277e-02,7.097828e-02,5.078269e-02,4.291711e-01,-1.822858e-01,1.745442e-01,2.620576e-02,-5.407580e-01,5.676056e-01,3.907235e-02,-3.517190e-02,1.574280e-01,-5.974576e-01,-1.397555e-01,2.142313e-01,5.022665e-02,1.011194e-02,1.544100e-03,-3.388277e-01,8.956394e-02,-2.069332e-01,3.400938e-02,1.330641e-02,-3.532514e-02,9.874184e-02,-5.136968e-01,2.084406e-02,-3.568482e-03,-1.339357e-01,7.566565e-02,3.262841e-02,-1.119072e-02,1.429542e-01,2.807243e-03,-6.934294e-01,-1.129667e-01,-5.796242e-02,4.316260e-01,1.205701e-01,-2.048390e-02,-1.200388e-01,
3.513523e-01,-3.380380e-02,-5.936798e-02,1.795576e-01,-1.209121e-01,6.923271e-02,-1.479007e-01,5.178100e-01,-1.790204e-01,2.901115e-01,2.001313e-01,-6.947832e-01,-2.349908e-01,-1.229585e-01,-1.988894e-02,3.286916e-01,5.525036e-01,-1.515785e-01,3.868804e-01,3.480332e-01,-1.824496e-02,5.604686e-02,-5.631197e-01,-9.378150e-02,5.996283e-01,-3.882635e-03,-2.117076e-01,2.942689e-02,-1.313019e-01,-9.681598e-01,1.287686e-01,2.431308e-02,2.128159e-01,7.212918e-01,8.336313e-01,-3.642244e-02,-2.505637e-01,-1.331558e-04,6.877028e-01,1.060206e-02,-1.306622e-01,7.088568e-01,3.733146e-01,2.496652e-02,1.124209e-01,
1.377810e-01,5.358907e-02,-6.281073e-01,1.623180e-01,-1.790341e-02,-2.080082e-02,6.540190e-02,3.570070e-01,8.117477e-01,-8.887233e-02,1.841250e-01,-1.809024e+00,-2.719319e-01,-9.973084e-03,2.022014e-02,3.537713e-01,-6.309562e-01,-8.524670e-01,-8.527926e-01,4.885735e-01,8.614881e-03,-2.399892e-02,-3.860431e-01,1.544501e-01,9.368488e-01,-3.010426e-02,-9.759056e-01,1.258269e-04,8.559024e-02,1.787684e-02,6.510307e-01,3.077263e-02,9.913446e-01,1.688887e+00,-5.008231e-01,-1.731324e-02,-3.179344e-01,2.929516e-02,5.231188e-01,5.063002e-02,9.203067e-02,-8.243884e-01,3.088478e-01,-4.353090e-02,1.771334e-01,
6.762139e-02,-2.776656e-02,1.875979e-02,-4.744286e-02,-4.053641e-02,-2.043764e-02,1.531074e-01,-1.317081e-01,-2.779898e-01,-1.987562e-01,-1.634854e-01,9.989850e-02,-3.348804e-01,1.810162e-01,2.203743e-02,-1.198554e-01,7.526693e-02,-8.642280e-02,-1.570125e-01,-6.998309e-01,1.151277e-02,1.526086e-02,-1.180743e-01,-2.147379e-02,-9.499215e-02,-5.490493e-02,-1.122518e-01,-3.285135e-02,1.133007e+00,-2.449013e-01,-2.036034e-01,-1.751041e-02,-6.712841e-02,5.272964e-02,-3.130624e-01,-9.441382e-03,2.056244e-02,-4.182663e-02,-2.720653e-01,9.150930e-02,2.666921e-02,-1.652723e-01,-2.164939e-01,3.886618e-02,3.191518e-01,
-1.012277e-02,2.701555e-03,-4.053586e-02,-5.578340e-02,-3.850134e-02,3.224038e-02,-2.192476e-02,-1.261705e-02,2.275039e-02,-1.942828e-03,1.219790e-02,3.029464e-02,4.154783e-02,-4.640089e-02,-1.969777e-02,-3.722953e-02,1.103345e-02,-5.767891e-02,-5.096671e-02,-5.401532e-02,-4.558624e-02,-4.204667e-02,-3.803359e-02,-3.898134e-02,1.371271e-02,-2.317909e-02,3.719939e-02,-3.572213e-02,3.238445e-02,-2.184936e-02,3.878225e-02,1.105005e-02,7.786662e-03,4.080252e-02,3.317017e-02,1.188496e-02,-2.347455e-02,-1.496491e-03,1.983827e-02,-7.634178e-03,-2.215677e-02,4.149183e-02,-5.753794e-02,-1.774088e-02,-3.553115e-02,
-7.130955e-03,4.901246e-02,-4.763751e-02,-5.413692e-03,7.230981e-03,1.388126e-02,2.055945e-02,2.018305e-02,3.619451e-02,-1.566047e-03,-4.593978e-02,-3.830155e-02,-1.468956e-02,1.950350e-02,-5.572899e-03,-5.093783e-02,-2.973300e-02,-4.141713e-02,2.713289e-02,-2.968882e-02,-2.220027e-02,-3.655804e-02,-3.894940e-02,1.329770e-02,9.437629e-03,-1.367680e-02,1.922779e-02,2.134483e-02,-3.459239e-02,-5.275811e-02,-5.844684e-02,-1.996971e-02,-5.082525e-02,3.361734e-02,-4.322960e-03,-1.418121e-02,-6.445432e-02,1.857593e-02,-6.091417e-02,9.318548e-03,-3.077873e-02,-7.682879e-02,-1.056634e-02,-3.427805e-02,1.530765e-02,
1.685382e-02,-1.783977e-02,-3.090359e-02,-5.039308e-02,-3.027670e-02,1.149113e-02,4.851399e-03,9.430863e-03,-2.088134e-02,-4.881452e-02,-7.085061e-03,-1.464494e-02,-1.317644e-03,-5.157361e-02,4.216573e-02,4.597790e-02,-7.360429e-03,-5.576796e-02,-3.416082e-02,-5.485664e-03,-3.134205e-02,4.961518e-02,2.488832e-02,-4.271213e-02,3.988088e-02,4.132961e-02,-5.041005e-02,4.254383e-02,-4.529254e-02,1.804119e-02,3.185384e-02,-1.034350e-02,3.644506e-02,4.214488e-02,-3.122123e-02,-3.073238e-02,6.468807e-03,2.036407e-02,1.309187e-02,-1.487928e-02,3.168438e-02,2.123616e-02,-3.957532e-02,3.884999e-02,-2.095164e-02,
2.332304e-02,7.886974e-03,-3.454547e-02,-1.329904e-02,-3.272799e-02,-2.870451e-02,1.212714e-02,-3.104021e-02,-1.246886e-02,-9.509211e-03,-1.331817e-02,-1.904629e-02,2.269564e-02,-4.659208e-02,-2.348687e-02,-1.300594e-02,-1.703509e-02,-2.843517e-02,-5.626432e-02,-2.813279e-02,3.540689e-02,1.360457e-02,2.473597e-02,-4.732721e-02,-3.151437e-02,-1.527939e-02,-4.857041e-02,-4.536510e-02,-3.958193e-02,-1.169004e-02,-4.735731e-03,1.826958e-02,-2.579027e-03,-2.832844e-03,1.780234e-03,1.379115e-03,-4.187958e-02,-2.922196e-02,9.693791e-04,2.015672e-02,7.359989e-04,2.952326e-02,-4.961105e-02,2.913625e-02,-3.151847e-02,
1.540363e-03,8.087770e-03,-2.717576e-01,1.388444e-01,-2.002287e-02,3.619111e-02,-3.139469e-02,4.739516e-03,7.369255e-01,8.288148e-02,6.937328e-01,-8.610275e-01,-6.692063e-01,-4.493205e-01,-2.267169e-02,2.122591e-01,-2.612885e-01,-5.248137e-02,2.389463e-01,1.816584e-01,2.588406e-02,4.200362e-02,3.502360e-01,-1.799041e-01,-1.624360e-01,4.133958e-02,1.234271e-01,-1.971321e-02,6.160304e-02,-5.063269e-01,8.976985e-03,1.878267e-02,-1.161703e-01,6.270993e-01,-4.752249e-03,1.213063e-02,4.737378e-02,7.798491e-02,8.964342e-02,4.011578e-02,3.503833e-02,1.486091e-01,-6.496062e-01,-1.032387e-02,-3.257102e-01,
-1.014934e-01,-2.286918e-02,4.839603e-02,5.904321e-01,-4.425469e-02,-1.366528e-02,7.008088e-02,-1.645782e-01,-4.890209e-01,3.815351e-02,5.389802e-01,1.460715e+00,-1.239504e-01,1.048176e-02,5.191995e-02,-2.727150e-02,-2.254284e-01,-2.181406e-02,-1.439300e-02,-9.609370e-02,-4.944127e-02,-3.423224e-02,-2.586900e-01,2.189128e-01,-2.318496e-01,-4.406940e-03,-2.037656e-01,-4.316585e-02,5.970902e-02,-2.683986e-01,2.906834e-02,2.393857e-02,-7.070853e-03,3.380464e-02,-1.884858e-01,4.650211e-02,-5.967005e-02,5.552312e-02,-8.982703e-01,-6.432921e-02,4.851956e-02,-1.614184e-01,-5.370489e-01,2.289348e-03,2.795202e-02,
5.047644e-01,8.345559e-03,-1.100221e-01,-2.718137e-01,-7.511562e-02,1.404177e-02,-1.389757e-01,6.869926e-02,2.557825e-01,-2.951369e-01,-1.904662e-01,5.209669e-01,-7.911773e-02,4.841300e-01,4.099324e-02,-2.180065e-01,4.617930e-02,-5.007757e-01,6.716035e-01,1.812179e-01,-1.491066e-02,-1.421605e-02,1.940449e-02,1.192190e-01,5.677866e-01,3.835785e-02,1.299817e-01,3.674797e-02,-1.716239e-01,3.560666e-01,1.131261e+00,1.725613e-02,1.837017e-01,-3.302692e-02,-9.499394e-01,-3.496362e-04,-1.154383e-01,1.877794e-02,-2.632912e-01,-1.656089e-01,4.569631e-01,-8.153771e-01,-1.460204e-01,-2.423819e-02,1.700134e-01,
1.224031e-01,3.486483e-02,-1.149954e-01,1.535614e-01,-4.203536e-02,-3.730261e-02,-9.074880e-02,5.792360e-01,-3.530716e-01,3.915577e-01,-4.362689e-01,1.427341e+00,2.443973e-01,5.651412e-01,1.545620e-03,-1.144347e-01,4.175934e-01,-2.760481e-01,5.372294e-01,-3.562785e-01,-1.644407e-03,4.750646e-02,-3.205653e-02,6.820557e-02,3.885328e-01,-1.505435e-02,1.731643e-01,2.741300e-02,-9.154395e-02,3.652553e-01,6.765837e-02,-4.025938e-02,2.551717e-01,1.031331e-03,-6.863908e-01,3.510370e-02,1.217914e-01,1.607025e-02,4.178454e-02,1.888701e-01,4.218584e-02,6.894088e-01,2.216687e-02,1.802082e-02,2.125629e-01,
-2.237021e-01,4.911881e-03,-5.915583e-01,2.497445e-01,2.785975e-03,1.471060e-02,8.429645e-02,2.414504e-01,1.516869e+00,8.895286e-01,4.380282e-01,5.810372e-01,-2.407975e-01,-5.002535e-01,-2.613331e-02,3.373418e-01,9.064187e-01,1.038077e+00,5.705938e-01,-4.741747e-01,-7.437370e-03,1.916806e-02,4.891434e-01,7.603586e-02,-1.776387e+00,-3.066965e-02,-9.561647e-02,1.036491e-02,-2.581007e-01,2.245168e-01,2.063756e-01,2.789597e-02,5.346365e-01,-4.046924e-01,1.532507e+00,4.513961e-02,-8.937641e-01,1.719502e-03,5.286935e-01,-6.552521e-01,2.352315e-01,-2.156357e-01,6.365116e-01,3.693824e-02,-5.104013e-01,
5.648624e-01,3.190213e-02,1.481338e-01,3.244471e-01,-5.855278e-02,2.902123e-02,-2.308291e-02,5.483531e-01,6.103871e-01,3.756278e-01,-4.581508e-02,4.961015e-01,6.264060e-01,3.752154e-01,5.086985e-03,4.753560e-01,2.414596e-01,-4.297292e-01,3.453931e-01,1.461845e-01,-5.315418e-02,-7.185047e-04,-2.537489e-01,-9.137886e-02,8.036742e-01,4.539442e-02,-1.752063e-01,-1.444149e-03,4.860532e-01,2.761758e-01,3.083657e-01,-4.882966e-02,-1.419376e-01,3.333356e-01,-7.372038e-01,-3.175864e-02,-1.064642e-01,-1.424474e-02,4.425490e-01,-4.758037e-02,9.979845e-01,4.129951e-01,2.804708e-01,-1.859322e-02,4.852618e-01,
-2.834290e-02,7.640996e-03,1.636642e-01,3.903565e-01,-6.275713e-02,1.408339e-02,1.435837e-01,-1.134526e-01,-8.266192e-03,-8.876527e-02,4.584520e-02,-9.532531e-01,-5.430318e-01,5.005661e-01,-1.721334e-02,2.018570e-01,4.209707e-02,-5.700164e-02,-3.304999e-01,7.042290e-02,6.022179e-03,3.538871e-02,5.003610e-01,6.777880e-02,-4.260612e-01,2.074390e-02,-4.663428e-01,-4.287465e-02,-9.820158e-02,-4.176331e-01,2.964922e-01,-1.522991e-02,-5.171040e-01,6.596555e-01,-1.991583e-01,-6.104435e-02,1.459415e-01,-2.747385e-02,-4.673397e-01,4.152985e-02,4.977249e-03,-2.771435e-01,-2.613325e-01,-1.290080e-02,-5.820836e-01,
3.821788e-02,1.197924e-02,-5.088355e-02,-9.848557e-03,1.104909e-02,-1.553877e-03,3.890409e-02,-4.485443e-02,-3.690983e-02,2.374207e-02,-3.336990e-02,-3.977575e-02,2.421545e-02,-3.658904e-02,3.701148e-03,1.517022e-04,2.348199e-02,-4.178979e-02,4.282978e-02,-4.465855e-03,4.516918e-02,1.882209e-02,-3.074367e-02,-1.535983e-02,2.520985e-03,-4.725027e-02,2.836892e-02,2.735932e-02,-1.975906e-02,-3.057327e-02,-2.859960e-02,-3.908297e-02,2.733327e-02,-3.944235e-02,-3.096546e-02,-2.039234e-02,9.267018e-03,3.235947e-02,-4.814618e-02,-2.345104e-02,3.573427e-02,-3.493811e-02,-3.857490e-02,-1.510679e-02,-4.824223e-02,
4.124561e-01,-5.731341e-02,-5.667895e-02,-7.342536e-01,3.204868e-03,-2.672550e-02,1.765320e-01,3.549373e-01,-4.477212e-01,3.377734e-02,4.607373e-01,-1.001176e+00,-1.435399e+00,-9.838836e-01,-2.359495e-02,5.972641e-01,-1.347205e-01,3.841424e-02,-6.331757e-01,-3.259720e-01,-4.443624e-02,-4.912758e-02,-1.854237e+00,2.186776e-01,4.670808e-02,4.033867e-02,4.137288e-01,-2.903190e-02,1.767200e-01,3.505649e-01,2.357794e+00,3.938171e-02,2.112568e-01,1.075054e+00,-2.669775e-01,3.848553e-02,-5.505530e-01,-6.130476e-02,4.062640e-01,-1.803573e-01,3.220136e-01,-1.204747e-02,-1.094419e+00,4.217980e-02,-8.565795e-01,
2.578064e-01,3.707771e-02,-9.003756e-02,2.555173e-01,-1.068435e-02,1.874684e-02,-8.810570e-02,4.695669e-01,1.086530e-01,-1.544934e-01,1.653089e-01,-1.553758e-02,-3.859176e-01,-2.221989e-01,1.658030e-02,1.633158e-01,-9.651718e-01,-1.946386e-01,8.245546e-02,-6.907302e-02,3.411180e-02,-1.890484e-02,-4.404311e-01,3.037970e-01,-1.043345e-01,-1.779150e-02,1.593083e-01,1.785655e-02,1.095240e-01,3.678851e-01,2.978478e-01,-3.511124e-02,-8.208726e-02,2.708490e-01,-1.040125e-01,2.943936e-02,2.426709e-01,5.179707e-02,3.427213e-01,-1.300422e-01,1.402151e-01,2.264725e-01,-3.752752e-01,5.090661e-02,3.067578e-01,
-4.535723e-02,4.309563e-02,2.479665e-01,-5.499240e-02,7.738848e-02,8.359984e-02,3.949958e-02,5.032838e-01,-1.116872e-01,-7.727274e-01,2.881402e-01,-2.300566e-01,-1.507245e-01,3.667351e-01,1.385128e-02,6.723114e-02,-3.689942e-01,-6.155398e-02,1.259167e-01,1.335274e-01,7.581861e-03,1.616338e-02,-6.574699e-01,-1.842195e-02,2.096101e-01,-3.597903e-02,-1.855576e-01,1.384733e-02,2.644476e-01,-5.352820e-01,-2.481384e-01,-3.867351e-02,1.841388e-01,-3.109643e-01,1.366089e-01,-4.534093e-02,2.404154e-01,6.621017e-03,-4.866569e-01,-2.137093e-01,-9.919137e-02,3.651941e-01,8.494513e-02,-2.100779e-02,-4.071485e-01,
4.429593e-02,1.631821e-02,-2.409517e-02,2.751095e-02,-9.906610e-03,6.821161e-04,-1.216178e-02,-4.382755e-03,-4.231020e-03,-3.926659e-03,-3.185443e-02,3.822729e-02,-8.818451e-03,-4.998476e-02,-1.089144e-02,-4.612465e-02,-3.236831e-02,-5.489235e-02,-2.200445e-02,-2.665131e-02,1.587072e-02,-1.002923e-02,2.225748e-02,1.347163e-02,-2.043618e-02,4.670762e-02,2.510850e-02,-2.370747e-02,-5.228280e-02,-2.070605e-03,1.380437e-02,9.023693e-03,-2.542084e-02,-4.167884e-03,1.219214e-02,-5.707862e-03,3.148998e-02,-4.299966e-02,4.579768e-03,-1.994646e-02,-7.593361e-05,-2.898713e-02,-5.075793e-02,4.146250e-02,1.627949e-02,
-3.626731e-02,-3.373669e-02,-1.003954e-02,4.319150e-03,4.963325e-02,-1.016834e-02,1.907026e-02,-3.138060e-02,-6.160175e-02,-5.666296e-03,2.957439e-02,1.068150e-02,-3.251714e-02,1.520979e-02,8.402801e-03,1.867813e-02,-2.732689e-02,-6.416120e-03,-2.326753e-02,2.443996e-02,4.443459e-03,-2.512805e-02,1.317150e-02,-5.561422e-02,-4.445316e-02,-2.017802e-02,-2.279493e-02,1.890145e-02,-4.774283e-02,-1.661938e-02,-5.166855e-02,6.274097e-03,1.449522e-02,-5.329891e-02,-4.751499e-02,-2.980303e-02,2.757489e-02,-1.748309e-02,3.495577e-02,-4.856694e-02,-6.026451e-02,-3.204294e-02,2.865860e-02,3.120833e-02,1.681137e-02,
2.056341e-01,4.134352e-02,-1.638572e-01,-2.368829e-02,-3.291417e-02,6.976052e-02,4.519017e-01,4.180138e-01,1.033476e+00,7.786867e-01,7.520395e-01,-4.508155e-01,1.132040e+00,1.661542e-01,-4.782894e-02,-6.743397e-03,-1.582954e-01,-5.538000e-01,7.362611e-01,6.918168e-01,1.831173e-02,1.591915e-02,5.848922e-01,-2.487155e-01,4.912176e-01,-3.195593e-02,3.076597e-01,-1.318182e-02,-4.465000e-02,1.540909e-01,1.148260e+00,-1.315549e-02,1.173429e+00,1.866869e+00,-6.769307e-01,-2.210023e-02,2.081878e-01,-5.359899e-02,5.166274e-01,-8.293530e-02,2.187346e-01,-2.303180e-01,-1.365175e+00,-1.135146e-02,2.171310e-01,
-9.315482e-02,-4.935350e-02,3.875295e-02,-3.686882e-01,2.988189e-02,-5.096921e-02,-1.469434e-01,-2.058410e-01,-7.568682e-01,-9.898449e-02,1.175887e-01,1.833035e-01,-1.307770e-01,-4.880441e-02,4.803258e-02,-1.014012e+00,-1.637737e-01,-4.117925e-01,2.993049e-02,8.666597e-02,3.355117e-02,-1.368059e-02,-3.034523e-02,1.899111e-01,-2.049524e-01,1.186350e-02,1.305621e-01,-5.690678e-03,2.323915e-01,-1.989172e-01,-1.257626e-01,-1.855823e-02,2.710190e-01,-4.183710e-01,-2.715620e-01,-1.834025e-03,2.440354e-01,1.292675e-02,1.037795e-01,2.706848e-02,1.194525e-01,-1.272877e+00,7.990098e-02,-4.018033e-02,-4.496741e-01,
8.062146e-02,-1.226430e-02,-4.084713e-02,-6.983629e-03,-2.678115e-02,-4.516029e-02,-5.081597e-03,-1.098021e-01,-1.278420e-01,-5.517415e-01,8.193498e-01,-3.750074e-01,1.429534e-01,1.746156e-01,8.257015e-03,-5.679275e-02,-7.643425e-02,-2.345160e-01,-2.106743e-01,2.344823e-01,3.185697e-03,-1.403384e-02,-1.469888e-03,-1.435502e-01,5.104959e-01,-1.550973e-02,-3.573453e-01,1.462474e-02,-4.888815e-02,2.410015e-01,2.821006e-01,9.325972e-05,1.746542e-01,4.436084e-01,-3.745911e-01,1.870778e-02,-3.418465e-02,-3.467865e-02,3.871883e-01,-1.777006e-01,3.236834e-01,2.403678e-01,6.548840e-02,8.942618e-03,-1.857827e-03,
5.762769e-02,-3.236346e-02,-5.777067e-02,9.117915e-02,-4.866680e-03,-6.266711e-03,-1.800665e-02,9.333005e-02,-2.912725e-01,3.683572e-01,1.141623e-01,2.180261e-01,3.057036e-01,-1.763476e-01,-3.784965e-02,-1.558615e+00,8.623836e-02,-6.432192e-01,4.895639e-04,3.059312e-01,-3.723326e-03,-4.311818e-02,2.981644e-01,3.329939e-01,-3.906919e-01,-3.752093e-02,-5.720031e-02,4.745569e-02,4.075005e-01,2.556556e-02,-1.584780e-01,-7.621928e-03,2.994795e-01,1.898722e-01,2.656454e-01,2.078952e-02,-6.800185e-02,1.577189e-02,9.262491e-02,-6.415890e-02,1.325965e-01,-1.438427e+00,-4.752556e-02,-7.906021e-03,-5.017997e-01,
-4.148444e-03,-1.137647e-02,-4.680506e-02,-1.042003e-02,1.224136e-02,4.636550e-02,2.691555e-03,6.768701e-03,-3.313313e-02,-3.509751e-02,-5.385446e-03,-3.778699e-02,-2.686724e-02,3.041968e-02,1.159708e-03,-2.439101e-02,1.085071e-02,-5.205904e-02,-3.157846e-02,-4.472000e-03,-3.326323e-02,-2.775185e-02,1.567448e-03,2.493240e-02,-4.004354e-02,-6.389413e-03,-1.391018e-02,3.675396e-02,-4.229233e-02,-1.502061e-02,-3.570183e-02,-2.688928e-02,8.973539e-03,9.802188e-04,2.388171e-02,-4.721347e-02,-1.127879e-03,4.102431e-02,-2.811257e-02,4.112003e-03,2.890068e-03,-5.518251e-02,1.711524e-02,3.612204e-02,-3.995660e-02,
1.189019e-01,-1.283553e-02,1.968646e-01,-1.747091e-01,-1.290610e-02,4.870061e-02,-3.719946e-01,-4.050280e-01,6.442700e-01,-9.433232e-02,-4.993868e-01,-3.616968e-01,9.848705e-01,7.785782e-01,3.763565e-02,3.918979e-01,4.827165e-01,-4.344724e-01,2.594372e-01,2.491769e-01,-2.700810e-02,4.337279e-02,1.017582e+00,6.760886e-02,1.143164e-01,-1.208925e-02,6.674781e-02,-3.814145e-02,-3.692586e-03,5.176804e-01,1.988569e-02,2.289625e-02,-2.135939e-01,-4.951091e-01,-1.897407e-01,-1.535671e-02,1.613531e-01,-1.737635e-02,-1.099195e-01,-1.324690e-01,6.707839e-01,4.437193e-01,2.547095e-01,-2.215255e-02,2.173401e-01,
-4.587866e-02,7.405458e-03,2.915500e-02,1.758501e-02,-9.297785e-03,3.507674e-02,-3.975698e-02,-2.906535e-02,2.732205e-02,4.054269e-03,-4.746973e-02,-2.461151e-02,-1.438754e-02,-3.373455e-02,2.822759e-02,6.720594e-03,-4.781917e-02,-4.692139e-02,3.379346e-02,-3.245395e-02,-3.724963e-02,-4.167435e-03,3.044699e-02,-4.117667e-02,-5.575364e-03,-2.792674e-02,8.280246e-04,1.983425e-02,1.318369e-02,-4.248162e-02,-1.045429e-02,3.692416e-04,1.337858e-02,1.040190e-02,-3.203952e-02,2.624423e-02,3.204435e-02,-3.666268e-03,1.928799e-02,-2.297691e-02,-3.974536e-02,-2.146797e-02,3.915999e-02,2.556075e-02,2.690294e-02,
-1.381157e-01,6.674049e-03,-9.821709e-01,-8.278086e-01,4.725427e-02,-7.101861e-02,-2.446846e-01,-4.705557e-01,-3.262472e-01,1.596137e+00,7.525429e-01,2.827731e+00,-1.938055e+00,-5.074798e-01,-6.746477e-03,1.897523e+00,-4.196027e-02,1.265291e-01,6.794057e-01,-5.239350e-01,-1.398021e-02,-4.592269e-02,-3.248076e+00,2.755175e-01,7.292351e-03,-6.154077e-03,2.246486e+00,-4.834156e-03,-1.225150e-01,-4.512105e-01,-9.696587e-01,4.747045e-02,8.961557e-01,-1.688789e+00,-2.341875e-01,-3.781531e-02,-1.361487e-01,-8.636143e-03,5.011227e-02,-5.126529e-01,2.334217e-01,4.024034e-01,-2.347806e+00,1.182211e-02,-3.228014e-01,
4.732364e-01,-4.097582e-02,2.380130e-01,-4.122201e-02,1.954395e-02,-3.547861e-02,2.574682e-01,-2.814472e-01,7.686713e-01,3.487499e-01,1.199908e-01,-4.220699e-01,-2.418820e-01,3.808123e-01,2.042450e-02,1.319851e+00,1.295276e-01,7.388140e-01,3.571392e-01,3.694393e-01,-3.993670e-02,1.777033e-02,-4.387076e-01,1.203303e-01,5.618026e-01,-3.937391e-02,-2.362615e-01,-3.648240e-02,2.044052e-01,-2.527903e-01,-3.262451e-01,-4.052736e-02,1.912078e-01,-8.699048e-01,-2.916743e-01,-1.342308e-02,4.244043e-01,-7.922894e-03,3.097313e-01,4.219963e-01,2.802634e-01,1.810304e+00,1.033740e+00,2.946719e-02,8.694287e-01,
6.453393e-02,-2.734685e-02,-4.424552e-01,-7.057124e-02,2.341375e-02,3.545577e-03,3.532221e-01,7.987493e-01,2.219407e-01,1.862231e+00,3.015598e-01,-3.666513e-01,2.780155e-01,-1.832419e-01,4.717728e-02,7.500950e-01,5.423081e-02,1.221907e-01,-1.822296e-01,-2.973387e-01,-1.382767e-02,-1.641660e-02,5.297242e-01,-5.572039e-02,4.456486e-01,-3.780987e-02,6.007363e-01,-1.602610e-02,-1.652942e-01,8.182822e-01,1.033692e+00,-4.748563e-02,6.685838e-01,7.033262e-01,2.308892e-01,-5.445874e-02,-5.569082e-01,-8.052966e-02,-3.471768e-01,-1.901378e-01,-8.374349e-02,4.287685e-01,8.981383e-01,-8.645539e-03,2.575969e-02,
-1.549373e-01,
2.199779e-02,
-1.579050e-01,
-6.079371e-03,
2.154688e-01,
-6.935226e-04,
-1.386582e-02,
8.832760e-01,
-9.795323e-03,
-1.802805e-01,
1.767192e-01,
-1.256609e-02,
-9.938199e-02,
-3.306926e-01,
2.918994e-01,
-1.949392e-01,
1.551415e-01,
3.377936e-01,
-1.894287e-02,
-2.036243e-02,
-7.959595e-03,
-8.095925e-03,
1.945367e-01,
1.548353e-01,
2.072235e-01,
-9.026787e-02,
-1.123310e-01,
2.267593e-01,
5.399344e-02,
-5.586894e-03,
4.546193e-02,
-1.104283e-01,
3.251153e-01,
-9.658028e-03,
-1.142884e-02,
-7.605685e-01,
6.339087e-01,
1.071060e-01,
6.529598e-01,
-1.315478e-02,
1.163097e-01,
-3.831701e-04,
-2.127624e-02,
6.554732e-02,
6.424350e-02,
-1.828707e-02,6.767356e-02,1.229473e-01,2.123035e-02,-8.691328e-02,3.722301e-02,-4.976716e-02,-1.825937e-02,-1.662042e-02,-7.076725e-02,1.001399e-01,-3.779666e-03,2.102703e-01,-1.444526e-02,-9.226173e-02,-6.586435e-02,4.525810e-01,1.855240e-01,2.369659e-02,7.521472e-03,3.127627e-02,-2.608919e-02,3.768322e-03,1.265916e-01,9.739187e-02,2.926890e-01,2.588478e-02,-3.386318e-02,1.133367e-01,3.713755e-02,-3.076219e-03,-3.655902e-02,-8.119337e-02,-2.303631e-02,-4.217174e-02,5.517958e-02,8.608199e-01,-4.165684e-02,3.016872e+00,-1.602144e-02,8.963737e-03,3.851697e-02,-2.546208e-01,-4.483987e-01,9.555946e-02,
-1.331275e-01,-4.068971e-02,-2.536147e-02,9.496516e-03,2.645628e-03,4.384423e-02,4.671969e-02,1.378711e-01,-9.615011e-03,-2.339906e-01,7.241517e-02,3.815565e-02,-4.151336e-01,7.187136e-02,-2.041056e-01,-1.813720e-01,-1.173578e-01,-5.519874e-01,8.381147e-03,2.203811e-02,-1.978674e-02,1.587508e-02,-1.072776e-01,5.562126e-02,1.035975e-01,-5.323852e-01,-1.001674e-01,1.988226e-01,2.294009e-01,2.530821e-02,3.415316e-02,2.540975e-01,-3.082056e-02,-3.904264e-02,4.079219e-04,2.802370e-01,1.478529e-01,9.345896e-02,1.600258e-01,-1.472682e-02,9.936645e-02,-4.626051e-02,3.947084e-02,3.530399e-02,-1.475867e-02,
-1.522898e+00,-9.607961e-01,-4.082070e-01,-4.058476e-02,-2.372941e+00,-1.925375e-02,4.674787e-02,-4.869682e-01,-4.228915e-02,-9.525523e-02,-2.962441e+00,1.610299e-02,-5.721760e-01,4.849954e-02,2.859583e-01,-9.089166e-02,5.006953e-01,3.608266e-01,3.891690e-03,-3.005480e-02,-4.451059e-02,-3.671802e-03,-1.470816e-01,-3.523437e-02,-3.801649e-01,-2.189738e-01,-8.537567e-01,1.874176e-01,-4.658203e-01,-2.196865e-02,-3.204137e-01,2.158285e-01,-1.879685e-01,4.819025e-02,4.541997e-02,-4.914952e-01,1.519310e-01,3.756302e-02,2.697339e-01,1.691673e-02,-2.760460e-01,-1.746191e-02,3.396913e-02,-2.056985e-01,-2.190310e-01,
-1.304648e-01,5.346137e-02,4.523464e-02,1.300008e-02,4.994374e-02,5.052662e-03,5.162629e-02,4.042645e-02,1.648816e-02,4.344025e-02,-9.778747e-02,-1.730335e-02,2.095098e-02,-2.224267e-01,3.665556e-01,3.480940e-01,-5.983027e-02,-2.742710e-02,4.469050e-02,-5.678391e-02,4.292424e-02,1.731767e-02,-1.766417e-01,-6.212242e-01,1.164588e-01,-1.766940e-01,4.081970e-02,1.367848e-01,2.448427e-01,-3.867126e-02,3.126457e-01,6.565236e-01,-2.041616e-01,3.154432e-02,3.379296e-02,-9.733038e-02,-2.897844e-01,5.576261e-02,1.736031e-01,-4.292586e-02,-1.672982e-01,3.632905e-02,-3.578607e-01,-1.219741e-02,1.467942e-01,
-1.890081e-02,1.224685e-01,-1.209003e-01,-2.424734e-02,-2.361863e-02,2.788815e-02,9.747531e-03,8.995295e-02,3.703613e-02,2.242331e-01,1.246310e-02,4.532218e-02,-1.859596e-01,2.311899e-01,3.407035e-01,1.981395e-01,-1.922116e-02,1.064958e-01,-6.180376e-03,-3.059672e-03,-1.845327e-02,1.577058e-02,-4.427812e-02,1.621146e-02,1.385939e-01,6.926226e-05,1.067729e-01,-3.320058e-02,-7.176579e-03,-2.795941e-02,1.238028e-01,2.893672e-01,-2.673974e-01,1.672389e-02,4.162171e-02,-1.338197e-01,-2.460882e-02,-3.668232e-01,-2.979085e-01,4.350445e-02,-5.823469e-02,3.008886e-02,-1.682902e-01,-4.129716e-02,-2.109559e-01,
-7.237255e-01,-1.108560e+00,-7.478469e-01,-1.055024e-02,3.168202e-01,4.554462e-02,3.244368e-02,5.287416e-01,-3.585002e-02,2.549706e-01,1.755064e-01,-1.049813e-02,7.420982e-01,-2.300865e-01,-1.953787e+00,-1.794730e+00,-1.453650e+00,-3.364715e-02,-3.326802e-02,2.255251e-02,3.425894e-02,-3.144600e-02,-2.007821e+00,-1.217578e+00,-3.400730e+00,-3.852473e+00,8.838345e-01,-1.937628e+00,-2.661241e+00,-1.807335e-02,-1.193677e+00,-1.046852e+00,-2.313863e+00,1.725874e-02,1.146420e-02,-3.021140e+00,-2.628625e+00,-7.822732e-01,-2.128827e+00,4.982411e-02,-2.835015e+00,3.454314e-02,-1.504385e+00,-1.319242e-01,4.326558e-01,
9.430182e-02,7.671767e-02,5.746079e-02,-1.552455e-02,-8.505302e-02,2.692233e-02,-2.663142e-02,-1.162261e-01,-8.206076e-03,-5.761555e-01,1.277661e-01,-4.439517e-03,-7.147271e-01,7.004762e-01,-2.604874e-01,-3.046955e-01,-4.154540e-01,-9.455022e-02,1.723116e-02,-9.581526e-03,1.198258e-02,4.508136e-02,4.288024e-01,1.275999e-01,-9.557248e-03,6.255340e-01,-5.353867e-02,2.125311e-01,1.889176e-02,-2.591968e-02,-7.322376e-02,-5.118799e-01,-7.994932e-01,-2.146100e-02,7.851522e-03,2.964690e-01,-5.205215e-02,1.799894e-01,-1.562023e-01,5.164881e-02,2.321802e-01,-4.889420e-02,-1.273860e+00,-2.042050e-01,-4.328403e-02,
1.308617e-02,2.218126e-02,-7.467161e-03,-2.198758e-02,-3.978898e-02,3.543300e-02,1.271626e-02,-4.074439e-02,2.429692e-02,-3.255012e-03,-4.347609e-03,-3.583747e-02,-4.483360e-02,-5.594805e-02,3.326227e-02,-3.733027e-02,1.667973e-03,-3.567861e-02,-1.107818e-02,-6.483123e-03,-1.206336e-02,-2.200956e-02,-4.742805e-02,-8.522833e-03,-1.169066e-02,-1.065307e-02,-1.623689e-02,2.774351e-02,1.657707e-02,2.877812e-03,3.410906e-02,-4.281182e-02,-2.992227e-02,-4.845274e-02,-1.897145e-02,-5.001640e-02,-5.039794e-02,-4.368512e-02,1.987803e-02,-9.015344e-03,1.797343e-02,4.269422e-02,2.553267e-02,-5.889461e-02,-3.098221e-02,
-1.309729e+00,-3.065187e-01,-4.050333e-01,3.388154e-03,-5.594830e+00,1.321722e-02,-4.089667e-02,-5.647680e-01,2.643423e-02,2.705406e-01,-3.304518e+00,2.521182e-02,-6.494451e-01,-1.612598e-02,-1.866867e-01,-1.323455e+00,7.501976e-01,4.818887e-01,-4.687691e-02,-2.201365e-02,-2.671721e-02,2.957212e-02,-4.987369e-02,-3.682122e-01,-3.800074e-01,1.444395e-01,-1.457147e+00,2.020533e-01,-3.934213e-01,3.694768e-02,-5.028811e-01,3.350492e-03,-3.774332e-01,1.924183e-02,3.509139e-02,7.812076e-01,1.573192e-01,-6.003962e-02,3.116783e-01,-3.556618e-02,-1.199753e-01,1.154627e-02,-1.833061e+00,5.179451e-02,4.047870e-01,
2.148254e-01,1.085686e-01,-8.478724e-02,-2.446729e-02,-7.462029e-02,-4.969914e-02,4.321945e-02,-3.781794e-02,-8.497399e-03,1.513407e-01,2.364319e-01,-3.373992e-02,3.517080e-02,-3.239152e-01,2.958102e-01,4.163667e-01,1.808445e-01,1.494903e-03,1.009127e-02,-1.925597e-02,-3.630049e-02,1.472369e-02,3.777020e-01,8.536301e-01,1.848536e-01,-1.600094e-01,2.483566e-02,1.583740e-01,2.808597e-01,-4.643026e-02,-1.181387e-01,-7.812998e-01,4.922592e-02,-3.507222e-03,-1.649779e-02,4.326007e-02,2.754014e-01,2.679769e-01,-3.203678e-01,-8.688274e-03,-3.134480e-01,3.584813e-03,-7.967326e-01,-1.160711e-01,-7.275209e-02,
-1.093816e-03,1.174449e-01,1.627919e-01,2.286417e-03,1.457435e-01,-2.628617e-02,4.779757e-02,-6.094256e-02,-2.307557e-02,-2.042044e-01,-8.166081e-02,4.663488e-02,2.855491e-02,7.169637e-01,-1.670143e-01,-1.527265e-01,1.472818e-01,1.816481e-01,-1.011867e-02,3.955156e-03,1.932824e-02,1.354606e-02,-2.816511e-01,-3.309259e-01,2.297636e-01,2.211520e-01,5.356376e-02,-6.904128e-02,1.591974e-01,4.183551e-02,4.811552e-01,-8.708791e-02,2.425470e-01,-2.513259e-02,-3.268195e-03,-1.235253e-01,-1.568100e-01,-4.129574e-01,1.038098e+00,3.728367e-02,2.368025e-01,-3.629960e-02,-5.744500e-01,-3.975278e-01,-6.360525e-01,
-3.157817e-01,-2.475420e-01,-2.430510e-01,-2.216740e-02,-1.327229e+00,-2.042078e-02,-2.774484e-02,-4.392065e-01,8.107892e-03,5.857023e-03,-7.353055e-01,1.643964e-02,-6.866756e-01,-2.792455e-01,8.557498e-02,-3.153004e-01,2.004519e-01,-2.566065e-02,-3.869594e-03,-3.391860e-02,8.598607e-04,2.260022e-02,2.337253e-01,1.149367e-01,-1.016476e-01,4.268643e-01,-1.754894e-01,2.615831e-02,7.590033e-01,2.720641e-02,2.823372e-02,4.407026e-01,-1.357802e-01,-2.392973e-02,-4.432504e-02,1.910549e-01,-3.968007e-01,-1.314919e-01,1.454106e-01,-6.458228e-03,5.756209e-02,-1.764035e-02,-5.315406e-01,3.741885e-02,4.461638e-02,
8.051287e-02,-7.421595e-02,-2.304328e-01,1.011610e-02,-6.620967e-02,-9.322950e-03,5.567665e-02,1.717285e-03,-3.282116e-02,7.229162e-01,5.250836e-02,2.170159e-02,2.968099e-02,-1.363848e-01,1.544680e-01,-7.677684e-02,-7.836980e-02,-8.684018e-02,6.405369e-03,-4.247965e-02,5.300418e-02,-7.001550e-04,1.245711e+00,9.453998e-01,-2.214236e-01,-7.216240e-01,2.146387e-02,8.730906e-02,-1.330273e-01,-4.758418e-02,-4.184815e-01,1.268165e-01,-1.008062e+00,2.802497e-03,2.919739e-02,2.047141e-02,1.463818e-01,4.447825e-01,2.457815e-01,3.713391e-02,-2.953304e-01,2.045205e-02,2.219789e-01,7.027092e-02,-2.391002e-01,
-1.653092e-01,-8.760385e-02,6.196212e-02,3.031889e-02,-4.901133e-02,7.338452e-04,-9.535619e-03,4.524069e-02,3.189232e-02,1.238486e-01,2.876089e-01,3.756679e-02,-2.947913e-03,-1.434316e-02,2.970635e-01,-3.420733e-01,-4.357070e-01,-8.378582e-02,4.816604e-02,-5.511094e-02,-4.617925e-02,-2.872517e-02,8.497862e-01,-2.871092e-01,-1.124847e-01,1.591809e-01,-1.347746e-01,2.228817e-01,1.968155e-01,4.153929e-02,-4.089198e-02,-3.861167e-01,-1.717930e-01,1.107243e-02,2.351312e-02,4.755155e-02,1.497402e-01,2.922084e-03,-2.860810e-01,-4.160343e-02,-2.674868e-01,-3.845816e-02,3.229448e-02,-1.416156e-01,-7.050640e-02,
2.243716e-02,1.001396e-01,-4.434229e-01,9.230829e-04,-5.834718e-02,-6.247410e-03,-4.048466e-02,7.884645e-02,-4.379435e-02,6.152806e-01,3.342001e-02,1.950557e-02,-3.577663e-02,-3.882556e-01,6.120195e-01,2.324555e-01,9.038965e-02,1.300100e-01,-3.588640e-02,-1.007389e-02,-4.737310e-02,2.289433e-02,-1.910902e-01,2.882509e-01,3.947466e-01,-1.691746e-01,-2.963848e-01,-2.889768e-01,3.647698e-01,-1.742924e-02,-5.591908e-03,-1.214676e+00,-6.466427e-01,9.300476e-03,4.634290e-02,-1.141129e-01,6.337578e-01,2.651303e-01,4.732360e-01,3.747490e-03,1.959681e-03,-3.239572e-02,4.334230e-02,-7.737342e-02,1.951435e-01,
1.373454e-01,-1.118294e-01,-2.136356e-02,2.690885e-02,1.506232e-01,4.936900e-02,1.789269e-02,9.895513e-03,-5.072115e-02,4.123333e-02,4.219527e-02,3.232874e-02,-1.333646e-01,5.496256e-01,-3.150463e-01,-2.254041e-01,5.827912e-02,2.147483e-01,-3.954645e-02,-3.927373e-02,2.732770e-02,1.637755e-02,-1.662691e-01,6.232570e-01,-1.157552e-02,-1.346246e-01,-6.693240e-02,1.336505e-01,5.079546e-01,-2.825952e-02,-7.692499e-02,-9.468727e-01,-1.624784e-01,-2.888279e-02,-2.731088e-02,-4.332233e-02,-2.893152e-01,-1.796450e-01,-1.058230e-01,3.334818e-02,1.584329e-01,4.174871e-02,1.557739e-03,-1.788157e-01,-8.245491e-02,
-4.184483e-02,-2.262591e-03,-3.445726e-02,-3.022757e-02,-2.093220e-03,1.470287e-02,2.712193e-02,2.682573e-02,1.030297e-02,-3.552737e-02,2.470718e-02,-5.004307e-03,-3.669819e-02,2.153116e-02,1.910625e-02,-4.277261e-02,-4.891498e-02,1.680459e-02,4.920526e-02,2.249970e-02,4.666741e-02,5.823242e-03,-1.353442e-02,-9.985375e-04,-1.339797e-02,2.249927e-02,-1.835000e-02,-3.494390e-02,-5.231872e-03,7.240148e-03,1.247823e-03,-9.944993e-03,-4.176798e-02,2.473542e-02,-1.131143e-02,2.900671e-03,-1.340528e-02,-5.549762e-02,1.305694e-02,2.733211e-02,-5.184715e-02,-4.895779e-02,1.329194e-02,-3.446447e-02,-1.668844e-02,
1.386173e-01,-8.071492e-01,-5.210975e-01,-1.414750e-02,1.212080e-02,4.180679e-02,1.458010e-02,5.228120e-02,-3.686912e-02,8.820777e-02,-1.006426e-01,-2.072151e-03,5.103100e-02,-9.491627e-01,-7.787318e-01,-7.256733e-01,-1.057363e+00,-1.037502e-02,6.663374e-03,-4.134204e-02,9.024792e-03,-2.765605e-02,8.547117e-01,1.251533e+00,-1.436024e-01,-5.518819e-01,-2.011503e-01,2.239834e-02,7.024563e-01,-3.232208e-02,-7.543105e-01,8.485109e-01,4.701112e-01,3.860932e-03,-1.504804e-02,4.379525e-01,-7.017930e-02,8.492576e-01,-8.328770e-01,3.725249e-02,-2.907699e-01,-4.535932e-02,-2.287910e-01,1.075842e-01,-4.783249e-01,
-4.713919e-01,5.048776e-01,6.543704e-01,2.975518e-03,1.347916e-02,-5.336541e-03,2.047841e-02,3.944052e-02,4.003470e-02,2.969013e-01,-1.130287e-02,-4.255634e-02,-6.205203e-02,-2.309677e-01,3.553178e-01,4.021226e-01,-4.549927e-01,-5.183083e-03,2.721151e-02,-1.194296e-02,-5.566964e-02,-3.618043e-02,5.104986e-01,2.530243e-01,2.411271e-01,-3.357527e-01,1.385005e-01,-1.810561e-02,9.383664e-02,1.961683e-02,-4.715446e-01,2.956713e-01,2.388760e-01,4.782789e-02,4.245093e-02,-2.588882e-01,2.984664e-01,2.803374e-01,6.809310e-01,-2.861597e-02,-6.485390e-01,3.622947e-02,-8.001344e-01,-7.488964e-02,2.075611e-01,
2.953076e-02,-5.533302e-02,-4.431707e-03,4.986510e-02,-4.467430e-02,-1.773567e-02,-2.977713e-02,-4.730268e-02,3.715388e-02,-1.786825e-02,-9.164182e-04,3.831477e-02,-8.466679e-03,1.615262e-02,-1.764734e-02,-4.901084e-02,-1.991324e-02,-3.883387e-03,-3.473618e-02,3.587746e-03,1.164217e-02,-3.873535e-02,3.711396e-02,3.626827e-03,3.572329e-03,2.900710e-04,-3.474456e-02,-3.854061e-02,-1.417732e-02,4.304283e-02,-3.596664e-02,-3.740235e-02,1.742543e-02,4.657776e-02,-3.918886e-02,-4.403381e-02,-2.351795e-02,-5.525609e-02,3.015418e-02,-4.136999e-02,-2.905020e-02,1.517890e-02,4.982563e-02,-5.772704e-03,1.585384e-02,
