// Neural Network File Format by Kyle Julian, Stanford 2016
7,4,6,45,
4,45,45,45,45,45,45,6,
0,
-8000.0,-100.0,-100.0,6.0,
8000.0,100.0,100.0,40.0,
0.0,0.0,0.0,23.84210526,-3.8529093497767,
16000.0,200.0,200.0,34.0,26.8591142426,
1.272605e-01,2.958776e-01,-2.994473e-01,2.514305e-01,
4.594547e-01,1.225928e-01,-1.341523e-01,-4.849797e-01,
-1.072421e-02,-3.776137e-04,1.176484e-03,-5.715211e-04,
4.249473e-01,-2.308429e-01,2.307412e-01,6.859652e-01,
-1.230303e-02,2.601467e-03,-6.359790e-04,8.745608e-01,
-7.407615e-02,-7.051677e-01,7.118464e-01,1.723496e-03,
-2.536737e-01,-2.737139e-01,5.330337e-02,2.914987e-01,
2.727001e+00,2.412213e-03,3.919633e-03,-6.353344e-02,
-9.062415e-01,9.030402e-02,-1.022382e-01,1.999248e-01,
2.395793e+00,2.568199e-02,-1.805177e-02,6.297198e-02,
-2.738017e+00,1.168851e-02,-1.145870e-02,1.848207e-01,
5.593733e-01,7.393097e-02,1.850847e-01,4.182440e-02,
1.908279e+00,5.580857e-01,-5.595011e-01,2.567314e-03,
1.457591e+00,-5.277665e-01,1.054011e-01,-3.416355e-02,
-2.288779e+00,-5.623909e-02,6.747860e-02,-1.167795e-01,
-1.691921e-02,3.897345e-03,-4.332156e-03,6.725253e-01,
2.703293e-03,-2.471418e-01,6.058737e-03,9.443020e-03,
4.537145e-01,3.934048e-01,8.688076e-02,1.484391e-02,
1.066340e+00,-2.043924e-01,-1.160493e-01,2.422539e-01,
1.124667e+00,-1.992033e-01,3.046382e-02,1.288918e-02,
-5.014601e-01,-4.636323e-01,-6.567597e-02,2.934427e-02,
-1.153728e-02,5.366157e-03,-2.671841e-01,5.243993e-03,
-7.781688e-01,1.364047e-01,-1.050706e-01,-2.947822e-02,
1.089242e-02,-8.457090e-01,-8.680760e-03,2.155490e-03,
-2.179818e+00,-4.458139e-02,1.734302e-04,-9.005055e-03,
1.553099e+00,-5.105920e-02,2.398380e-02,-1.573773e-01,
2.141851e-01,1.350406e-01,-1.500517e-01,2.077644e-01,
-2.951741e+00,-3.637928e-02,3.716695e-03,-1.209527e-03,
-1.006047e+00,-3.865720e-01,3.816511e-01,-4.149173e-01,
-2.415328e+00,-1.638356e-02,6.611338e-02,-3.956207e-02,
-9.780084e-02,-4.541772e-01,4.423328e-01,3.105328e-01,
-9.468501e-01,-2.589715e-01,2.513335e-01,2.090124e-01,
-1.177097e+00,5.005829e-01,-4.939399e-01,4.891876e-02,
9.528569e-02,4.206859e-02,-3.222162e-03,-6.469880e-01,
-5.380704e-01,-4.209161e-01,-1.717760e-02,-4.525786e-02,
1.558021e+00,-4.400561e-01,4.594372e-01,-1.492131e-01,
-2.846377e-02,-1.278347e+00,-3.101914e-03,1.027150e-02,
2.985584e-02,-3.034346e-02,-1.334919e-03,-5.643390e-03,
-2.036714e+00,-1.842688e-01,-5.795773e-03,-1.625981e-02,
-7.823548e-01,1.405102e-01,-1.340535e-01,5.072474e-02,
3.680823e-01,-2.612217e-01,6.799731e-02,-2.138763e-01,
-2.712284e+00,-1.411960e-01,1.444930e-01,-4.604088e-04,
-1.086068e+00,3.685198e-01,-3.595784e-01,-2.541772e-02,
-2.136235e+00,2.281747e-01,-2.515114e-01,-1.613017e-01,
9.604700e-01,-5.913413e-01,5.852839e-01,1.942067e-01,
-1.150336e-02,
-2.472604e-01,
-6.448974e-03,
-2.699186e-01,
-1.144457e-02,
-5.067519e-03,
-1.040274e-01,
1.406260e-01,
6.866779e-02,
9.088196e-02,
1.253688e-01,
1.743414e-02,
9.511197e-02,
-1.553444e-01,
1.068286e-01,
-1.000308e-02,
2.383890e-02,
-1.595861e-01,
-1.369126e-01,
1.287160e-03,
-7.567220e-02,
-8.355022e-04,
7.364658e-02,
1.409117e-01,
-1.032751e-02,
9.732507e-02,
5.144049e-02,
1.318975e-02,
-2.627960e-01,
5.411299e-02,
-2.803744e-02,
-1.842117e-01,
7.550051e-02,
-3.177391e-02,
-1.826418e-01,
-2.735233e-02,
-2.318526e-02,
-3.771348e-02,
7.360525e-03,
4.329031e-02,
-5.111643e-02,
1.355256e-01,
5.238165e-02,
-5.514023e-02,
6.290082e-02,
-9.365041e-01,9.952336e-01,1.696901e-02,-6.311059e-01,1.105106e-01,-2.085541e-01,1.342343e-01,2.615567e-01,5.362146e-01,1.019330e-01,2.924852e-01,-7.177937e-01,1.393454e-01,-1.464337e-01,2.249997e-01,1.416176e-01,7.301185e-02,3.259209e-01,-9.761946e-02,4.063329e-02,8.730062e-02,5.012722e-01,-7.631978e-01,-4.248258e-01,-2.713773e-01,4.827187e-01,-9.111926e-01,3.165407e-01,7.323120e-03,2.688092e-01,5.675232e-01,-4.469171e-01,-2.584861e-01,3.250901e-01,-1.020178e-01,9.037519e-02,1.094172e-01,3.417052e-02,-1.472335e-01,-4.265556e-01,2.388004e-02,6.804752e-02,-7.837018e-02,-7.432008e-01,7.187362e-02,
7.759412e-03,-1.040175e-02,-1.754796e-02,1.375686e-02,-2.238948e-02,1.044096e-02,3.953884e-02,-1.070682e-02,1.055579e-02,-1.874274e-02,5.811613e-03,3.746556e-02,-3.543720e-02,3.141890e-02,3.424945e-02,2.395369e-02,-8.029988e-03,-3.944654e-03,4.121813e-02,-4.355048e-03,-2.033183e-02,2.516305e-02,-1.767158e-02,-2.682357e-02,-1.713954e-02,-5.708499e-02,-3.169210e-02,-4.601286e-02,2.192257e-02,-1.925849e-02,-2.346228e-02,3.620238e-02,3.814695e-03,-1.554092e-02,-7.911152e-03,-3.670138e-02,-5.755115e-03,2.120661e-02,-3.501984e-02,-1.410806e-03,-5.215495e-02,5.201255e-03,-5.156203e-03,-1.465883e-03,-4.188929e-02,
-5.824176e-01,-1.902871e-01,9.756926e-03,-3.483640e-01,1.618535e-01,-2.502375e-02,-6.249477e-01,-2.490336e-02,-3.674304e-01,1.848116e-01,-1.075282e-01,2.283462e-01,-7.016627e-02,-2.683331e-01,4.311220e-02,2.788496e-01,-1.962771e-01,-5.063525e-01,2.494289e-01,6.916960e-03,2.031560e-01,3.203518e-01,2.544775e-01,-2.261747e-01,3.638211e-01,-5.148877e-02,-5.153338e-01,-1.549535e-02,1.795239e-02,4.152218e-01,2.178359e-01,-4.301914e-01,3.221358e-01,2.397567e-01,5.279318e-01,-7.861851e-02,8.377302e-02,-4.511425e-02,1.929899e-01,-5.958601e-02,1.061940e-01,-2.636644e-01,5.018658e-02,-1.183349e+00,2.742372e-01,
-1.373074e-02,2.052840e-01,8.804637e-03,-1.454952e-01,-5.779557e-02,4.676277e-01,-2.405131e-01,4.089771e-02,3.313191e-01,-1.836243e-01,-3.117269e-01,1.156702e+00,1.710799e-01,-2.410025e+00,7.125492e-02,-7.060909e-02,-9.628620e-01,-1.943536e-01,-8.404168e-02,-5.701562e-01,4.595115e-01,1.622012e-01,2.135465e-01,-3.751881e-01,1.943385e-01,-1.086717e-01,-8.853479e-02,-4.095662e-02,-8.063607e-01,-1.704098e-01,1.072516e-01,9.640815e-01,-1.329734e-01,6.664264e-02,1.879977e-01,-4.374244e-01,1.621158e-01,1.710101e-02,1.347374e-01,2.153573e-01,2.671615e-01,-7.680090e-02,-9.257687e-02,-3.654701e-01,-8.477286e-02,
2.103828e-01,7.924038e-02,-8.972062e-03,5.031262e-02,4.459348e-02,-8.324896e-01,6.710231e-01,8.727376e-03,-2.403655e-01,4.980370e-03,7.240098e-01,2.590013e-02,-2.405774e-01,-7.154551e-02,5.497918e-01,3.381292e-02,1.721473e-01,6.140803e-01,-6.328732e-01,-8.029301e-02,1.151981e+00,-5.422578e-01,2.458051e-01,-4.709448e-02,4.133283e-02,2.667216e-02,-2.671133e-01,-2.757741e+00,1.185623e-01,-8.460160e-01,1.105692e-01,1.380874e+00,-1.830275e+00,-1.794656e-01,6.302881e-01,4.990035e-01,-4.005623e-01,-3.601479e-01,8.410452e-01,-3.535891e-01,8.090889e-02,-6.937401e-01,-3.030200e+00,-7.361085e-01,3.525111e-01,
2.782326e-01,-8.175383e-02,-3.044069e-02,-2.255213e-02,-7.289831e-02,8.252481e-02,1.017496e+00,9.431077e-02,3.980554e-01,-3.246572e-01,7.057004e-03,3.019516e-01,-8.990544e-01,1.044503e+00,1.370295e-02,-8.686431e-02,-2.958823e-01,-1.599155e+00,8.036537e-01,9.737504e-01,2.899011e-01,1.411020e+00,1.994546e-02,-3.216803e-01,-1.126862e-01,-1.281615e+00,5.260496e-01,5.758104e-01,-1.283634e-01,2.063598e-01,8.543820e-02,3.057108e-01,-4.122601e-01,-2.508902e+00,6.359521e-02,4.772122e-01,-2.297042e-02,-2.225151e-01,1.489971e-01,1.800381e-01,-1.025138e+00,-9.789819e-02,2.202950e-02,-4.994643e-01,-1.535088e-01,
4.640047e-01,-5.539831e-01,5.564003e-02,-5.030120e-01,-8.119335e+00,8.063001e-01,-2.807624e-01,-9.277737e-02,1.960239e-01,-2.589027e-01,-2.070340e-01,-2.623758e-01,7.467021e-01,-3.135013e-01,1.682193e-01,-7.402782e+00,1.526792e-01,-2.676874e-01,-5.038302e-01,-3.522534e-01,-8.841252e-02,6.527629e-02,3.159545e-02,1.913071e-01,-3.323264e-02,2.536795e-02,2.350532e-01,-1.846470e-01,-6.876491e-01,-1.102278e-01,5.945148e-01,1.028095e+00,-1.466759e-01,-3.020852e-01,-1.034766e-01,-3.145008e-01,-2.231358e-02,2.252439e-02,5.798095e-02,1.439462e-01,-1.334485e-01,3.993673e-01,2.086443e-02,-6.382291e-01,5.654627e-02,
1.090543e-02,5.866135e-01,-1.587888e-02,-2.648621e-01,2.952330e-01,3.734475e-02,7.770853e-02,6.857169e-02,3.003520e-01,-4.237550e-02,2.929245e-01,3.931782e-01,4.603426e-01,-8.035147e-02,-3.367497e-02,2.907706e-01,-1.382596e-01,5.828472e-01,7.314634e-02,-2.381143e-01,3.994310e-02,1.960437e-01,6.580456e-02,3.009089e-01,-1.359635e-02,3.405197e-02,2.280380e-01,8.153703e-01,-3.168969e-01,2.191526e-01,-6.731497e-03,3.575861e-01,2.298184e-01,8.085319e-02,2.048273e-01,-7.961466e-02,-1.851940e-01,-8.881599e-02,1.519098e-01,9.667561e-02,-7.837830e-02,8.435985e-02,4.415934e-02,-1.879923e-01,1.026899e-01,
4.264531e-02,-3.111827e-01,-2.543581e-02,-7.910413e-02,4.440594e-02,5.740689e-02,2.922952e-02,2.265690e-01,1.964751e-01,-8.684134e-02,1.905626e-01,-1.746273e-01,2.482301e-01,2.305971e-01,2.426191e-01,6.732165e-02,-2.699317e-01,5.029919e-01,-1.895317e-01,-5.172500e-01,-6.603076e-01,-2.955949e-01,3.220257e-01,-1.827348e+00,8.735238e-01,-1.673158e-03,2.463442e-02,4.807415e-02,-8.634022e-02,6.019287e-01,1.144406e-01,8.444495e-02,7.918260e-02,-6.858563e-02,-3.575357e-01,-5.981220e-02,-6.637698e-01,-1.468246e-01,1.064474e+00,2.041605e-01,6.421837e-02,2.540156e-01,-1.774292e-02,1.063707e-01,-4.394115e-02,
1.763325e-01,-1.546158e-02,-9.489042e-02,-4.835646e-02,1.009452e-01,-3.269308e-01,1.377133e-01,-7.511171e-02,-2.265188e-01,-2.164596e-01,-1.335234e-01,-3.669822e-01,1.377977e-01,-3.069831e-01,-4.344168e-02,8.056873e-02,-1.270806e-01,-6.183648e-02,2.771711e-01,-3.056029e-01,1.357691e-01,-1.608373e-01,2.765257e-01,2.697865e-01,-6.009370e-02,-5.028339e-04,1.504892e-01,4.252260e-01,2.287025e-01,2.119877e-01,-2.084184e-01,1.765314e-01,4.053933e-01,-4.755917e-01,7.479005e-02,-1.480214e-01,-5.642961e-02,-1.021668e-01,-1.282347e-01,7.665270e-02,1.220370e-01,-1.621637e-01,-9.683266e-02,-5.934948e-01,-3.907104e-02,
2.022017e-01,-5.039594e-01,1.122530e-02,2.681795e+00,-5.611753e-02,-1.076239e+00,-1.018574e+00,-1.674013e+00,-4.387340e-02,4.023261e+00,-2.642673e-01,-6.061141e-01,-9.041215e-01,-7.670326e-01,3.731264e-01,-8.006879e-02,-4.443020e-03,-3.852144e-02,-3.745653e-01,-9.674177e-01,3.603923e-03,3.391010e-02,1.399189e-01,-8.181228e-02,2.237830e-01,-7.716414e-01,1.442012e-01,4.654007e-01,1.011341e+00,2.003933e-01,-5.360842e-01,-6.415405e-01,5.873140e-01,6.368924e-02,-5.598468e-02,6.727844e-02,3.608504e-02,-2.493796e-02,1.812640e-01,9.783673e-03,-4.491683e-02,2.161961e-01,3.914702e-01,4.283253e-01,-8.309553e-01,
-1.981664e-02,2.914413e-01,-3.048814e-02,-3.162018e-02,5.003115e-02,-3.661218e-02,-2.043525e-01,-8.763544e-02,3.232800e-01,1.522967e-01,1.787986e-01,1.518512e-01,-5.690398e-02,-5.558702e-01,-8.478137e-02,9.795089e-02,-1.168476e+00,1.396033e-01,1.600478e-01,5.584029e-01,-4.976058e-01,-4.234374e-02,9.789989e-02,-2.147593e+00,-1.102902e-01,6.534679e-02,7.621980e-02,5.023860e-01,3.962079e-02,4.060076e-01,-8.639271e-02,-2.920491e-02,-5.481871e-02,6.903601e-02,-3.965442e-01,1.255746e-01,-2.261013e+00,-7.319939e-01,-1.574439e-01,1.609834e-01,-8.039949e-02,-2.018411e-01,1.556199e-01,-6.941495e-02,1.307527e-01,
-3.060551e-01,-1.051473e-01,2.678090e-02,-1.481463e-01,4.209951e-02,-1.461243e-02,4.461343e-01,1.090356e-01,1.166752e-01,1.973371e-01,5.648066e-02,6.833523e-01,6.777549e-02,-2.483825e-01,-1.598808e-01,3.730693e-02,-2.688274e+00,-1.821187e-01,-1.009835e-01,-4.491139e-01,-5.076116e-01,-3.012692e-02,-6.907658e-02,-4.129644e+00,1.072726e-01,7.878081e-02,-1.597711e-01,5.020676e-01,2.787463e-01,2.645130e-01,-1.739448e-01,3.281379e-01,1.041575e-01,-8.302286e-02,2.947262e-01,7.428464e-02,-4.238378e+00,-9.857438e-01,2.746852e-01,-3.404616e-02,-8.504644e-01,-1.252824e-01,1.954025e-01,-1.355395e-01,-1.238990e-01,
3.892909e-01,2.514093e-01,-3.642562e-02,1.296155e+00,6.225984e-01,-3.464596e-01,7.701344e-01,-1.966587e-01,-1.767922e-01,8.310737e-02,6.459087e-02,-8.584335e-03,-9.676363e-02,-2.860568e-02,-3.732620e-01,6.748386e-01,6.045318e-02,1.413419e-01,3.984581e-01,1.248337e-01,2.064986e-02,3.225144e-02,-2.573417e-01,-3.448328e-01,-2.072524e-01,-3.016814e-01,3.007978e-01,5.017713e-01,-2.736083e-01,1.514296e-01,1.465507e-01,2.453037e-01,-1.664818e-02,1.496912e-01,-1.454436e-01,-4.367801e-02,5.762742e-02,-9.091061e-02,1.860584e-02,-7.373166e-02,3.300016e-01,-7.541104e-02,-1.844974e-01,5.717841e-03,-2.379672e-01,
-2.994527e-03,-4.530401e-01,4.570730e-02,-2.897659e-01,-5.022162e-02,-4.934827e-01,2.397876e-01,-1.981791e-01,-4.826629e-01,2.794254e-01,-4.261213e-01,5.635867e-01,-6.618547e-02,-2.466019e-01,3.306302e-02,5.205231e-02,4.855899e-03,-2.937646e-01,7.472755e-01,-3.997575e-01,-1.432415e-01,-3.778258e-01,1.645594e-01,7.638427e-02,2.337045e-01,-2.061416e-01,-2.805194e-01,-4.118576e-02,2.683182e-01,4.687150e-01,-4.605260e-02,5.656514e-01,-1.548762e-01,-1.081363e-01,5.201412e-01,2.840515e-01,-9.858525e-02,-9.056052e-02,4.621401e-01,-2.698023e-01,9.686271e-02,-2.713517e-01,-2.622214e-01,-1.062044e+00,-3.920477e-02,
-1.247879e-03,-3.494351e-03,-4.193885e-02,2.259908e-02,-1.587961e-03,-3.488704e-02,-3.237614e-02,-1.999655e-02,-3.069937e-02,9.249276e-03,-1.713293e-03,-2.353366e-02,-4.315451e-02,1.141609e-02,2.932233e-03,-5.777647e-03,4.133277e-03,3.279347e-03,2.408531e-02,2.493635e-02,-2.452763e-02,-3.440596e-02,3.840910e-03,-2.434000e-02,2.848290e-02,1.754359e-02,1.192529e-02,-5.698797e-02,2.474677e-02,-4.662447e-03,-6.096692e-03,-6.162331e-02,-3.727474e-02,-5.987677e-03,2.613566e-02,-1.845356e-02,1.524964e-02,-3.748956e-02,3.366527e-02,3.473219e-03,-5.899273e-02,-2.538669e-02,-6.668133e-04,-1.089026e-02,1.469334e-02,
-3.220654e-01,-2.500460e-01,-3.960005e-02,3.541411e-01,2.113512e-01,3.940095e-01,2.198980e-01,3.450325e-02,6.141914e-01,-3.164936e-01,-1.410873e-01,-7.525568e-01,5.040402e-01,-4.040439e-01,-1.411265e-01,1.518062e-01,1.519007e-01,-1.613203e+00,-8.903441e-02,-6.901760e-02,-2.024475e-01,4.589073e-01,-1.099294e-01,3.187820e-01,1.071158e-01,2.737657e-01,1.830688e-01,6.192945e-01,-2.052088e-02,3.158372e-01,1.385996e-01,6.197830e-02,-1.764966e-01,2.642060e-01,-5.306951e-01,-3.767613e-01,-4.377752e-02,-2.680979e-03,-4.583274e-01,2.428901e-01,1.109854e-02,-2.460774e-01,-4.481461e-01,-7.091979e-01,-4.026129e-04,
8.104489e-02,3.756876e-03,-5.430006e-02,-1.019734e-01,6.028562e-02,-2.339195e-01,-1.769840e-02,-5.038508e-01,5.187225e-02,-3.499843e-01,3.249811e-01,1.020287e-01,5.852005e-02,-5.367480e-01,4.799563e-01,4.905592e-02,1.762369e-01,1.094383e-01,-6.027874e-01,-1.388847e-01,-9.154002e-02,-3.714131e-03,9.729951e-02,2.866586e-01,1.062936e-01,-1.677897e-01,-1.507316e-01,1.321072e+00,2.941386e-01,8.994462e-01,-9.115641e-02,4.333114e-01,2.323763e-01,3.223755e-02,2.714001e-01,6.905746e-02,1.531360e-01,1.088908e-01,1.662122e-01,4.899079e-02,-2.366614e-01,4.716599e-01,-3.988758e-03,-4.586976e-02,8.212245e-02,
6.866558e-01,-1.219842e+00,2.847346e-03,-1.035094e-01,-3.704904e-01,5.674101e-01,-2.069413e-02,2.261881e-01,1.823116e-02,3.397171e-01,2.488952e-01,-3.078261e-02,6.411076e-01,-6.305423e-02,1.113243e-01,-2.080321e-01,-5.860193e-02,1.387723e-01,4.928597e-02,1.937200e-01,1.087843e-02,1.369012e-01,-6.128566e-02,-3.879004e-02,1.882575e-01,2.744689e-01,-7.597641e-01,4.829404e-01,-1.032490e+00,3.704021e-01,6.560434e-01,1.095923e+00,-7.062157e-01,-3.377668e-01,5.382095e-02,-8.762939e-01,-2.094824e-02,-4.522572e-02,1.482146e-01,1.801053e-02,-1.449981e-01,2.113763e-01,-1.691171e-01,-4.764402e-01,-4.947770e-01,
-1.853456e-02,-3.852324e-03,-8.973141e-03,8.650802e-03,-1.685322e-02,2.996297e-02,-3.789159e-02,2.861135e-02,-2.880834e-02,-3.849524e-02,-4.425198e-03,-8.740644e-03,-4.418654e-02,-2.347464e-02,-9.844049e-03,-1.493153e-02,-3.286907e-02,-3.601500e-02,3.057532e-02,7.058675e-03,-3.276360e-02,2.887568e-02,7.976646e-03,1.234142e-02,-4.406208e-02,-1.884594e-02,-5.443729e-02,-4.239425e-02,-2.891743e-03,1.216349e-03,3.256514e-02,-3.960825e-02,-4.298382e-02,-7.363609e-05,6.783345e-03,2.050886e-03,-1.377528e-02,-2.065133e-02,-1.218313e-03,2.743839e-02,-1.188347e-02,2.595670e-02,-1.101227e-02,-4.621822e-02,-5.824683e-02,
-3.210055e-01,8.179322e-01,-6.630578e-02,-6.474920e-02,1.196429e-01,-6.956044e+00,1.993060e-01,-2.950162e-01,3.890359e-02,9.463602e-02,1.767139e-01,3.246367e-01,-7.124995e-02,-3.397861e-01,-2.388357e-01,1.195950e-01,-5.559076e-03,-3.894674e-01,-1.164525e-01,3.078281e-01,1.038034e-01,4.945949e-02,1.017536e-01,-1.372215e-02,6.573035e-03,-1.710587e-01,-4.864998e-01,7.589047e-01,-6.214284e-01,4.507408e-01,-2.702502e-02,-1.264868e+00,5.564175e-02,-3.861554e-01,4.328671e-03,9.071407e-01,9.979005e-03,-2.610965e-02,9.065700e-03,-4.593137e-02,1.021405e-01,-4.877110e-01,-6.245435e-04,-3.369351e-02,-6.318388e-02,
1.286032e-01,2.200356e-02,-3.644956e-02,-3.352387e-01,1.204288e-01,3.820826e-01,6.132929e-01,-2.350853e-01,-9.435368e-02,-4.009896e-01,-2.462597e-01,-2.066422e-01,-1.098814e-01,1.331205e+00,1.153532e-02,6.425769e-02,1.898028e-01,3.537743e-01,2.050574e-01,2.032257e-01,1.187579e-01,3.316030e-02,-1.563468e-02,4.640619e-01,-7.555240e-01,2.614149e-01,3.471624e-01,7.319140e-01,9.275914e-02,1.748012e-01,1.649028e-01,-2.370223e-01,2.822351e-01,2.572030e-01,7.675822e-01,-6.213990e-01,-9.746330e-01,7.875632e-04,-1.616233e-01,-1.343626e-01,-9.509659e-01,-6.679129e-03,2.686268e-01,-1.028817e-01,-3.822104e-01,
-3.285553e-01,-6.742305e-01,-1.403482e-02,7.957173e-02,3.038908e-01,2.853064e-01,-4.029628e-02,7.626227e-03,9.447453e-02,-2.698972e-01,-1.770992e-01,-1.291465e-01,2.544220e-01,1.848035e-01,-2.564282e-01,2.673592e-01,1.570882e-01,-1.047297e-01,2.763057e-01,-2.315657e-01,7.725843e-02,-1.238923e+00,-6.281330e-02,2.186248e-01,-4.987858e-01,4.248578e-01,-2.263481e-01,7.447581e-01,-3.089416e-02,6.464380e-02,-3.450988e-01,1.066909e-01,2.656942e-01,-1.275089e-01,2.191902e-01,-7.314840e-02,-8.680038e-02,6.715095e-02,-6.998099e-02,-1.347380e-01,-3.728984e-02,-4.331153e-02,1.553368e-01,-4.809760e-01,-9.118847e-02,
9.019603e-01,4.515526e-02,5.289638e-03,5.843288e-01,4.291164e-04,-1.474003e-01,1.146967e-01,-7.783931e-01,-3.253396e-01,-6.370184e-01,-2.146220e-01,4.685437e-01,-4.148134e-02,1.633721e+00,1.676401e-01,3.204926e-02,-8.252587e-02,1.943979e-01,-1.005722e+00,8.719248e-01,-5.868416e-01,-1.096771e-02,-1.448450e-01,-1.190433e-01,-7.720875e-01,1.883608e-01,4.507573e-01,1.066273e+00,-4.334655e-01,5.573264e-01,-4.172398e-02,-5.357482e-01,3.606136e-02,1.022777e-01,-6.490624e-02,-5.190295e-02,1.088127e-02,-1.688922e-01,-3.497480e-01,-5.114615e-02,-3.310475e-01,4.668480e-02,-2.149827e-01,-1.549224e-01,2.967299e-01,
4.543732e-01,-9.448798e-01,2.743316e-02,3.212362e-01,2.010053e-01,-9.840958e-01,4.998966e-01,7.988736e-02,-1.832572e-01,1.076736e-01,1.409668e-01,4.429938e-01,-8.260198e-01,1.863881e-01,2.543790e-01,2.201633e-01,-2.124007e-02,-2.937146e-01,4.393195e-01,1.124443e-01,-1.526930e-01,4.991121e-02,-1.193315e-02,1.369818e-01,-1.392357e-01,1.544294e-01,2.409222e-01,6.811531e-01,2.479380e-02,4.605070e-01,-9.796684e-02,-3.449028e-03,-2.859787e-01,-2.685960e-01,-6.506249e-01,4.010717e-01,2.207008e-02,3.579709e-02,-5.172407e-01,-7.014013e-03,-1.165310e-02,-4.612074e-01,-3.429994e-01,-1.708052e-01,1.073681e-01,
-1.701911e-01,-1.245292e+00,-3.287566e-02,-2.604384e-02,1.511067e-01,1.855578e-01,-3.223717e-01,1.153686e-01,-3.183287e-01,-3.057500e-01,-6.982358e-02,-6.206988e-02,9.210555e-02,2.912515e-03,-1.381196e-01,1.355015e-01,-4.585012e-02,3.535860e-01,-1.618201e-01,-2.275892e-01,3.337381e-02,8.889727e-01,4.807352e-01,8.537521e-02,5.372521e-02,4.341184e-02,1.082797e-01,2.283217e-01,5.964863e-02,7.092431e-01,7.394132e-02,-3.847934e-01,-4.603373e-02,2.603542e-01,-4.786530e-01,-5.565782e-01,2.294584e-01,-6.824420e-02,-2.406758e-01,1.002620e-01,-4.600334e-01,-3.546385e-01,-2.084208e-02,-4.773574e-01,-1.924751e-01,
-2.508977e-01,5.781308e-01,-1.977816e-02,1.867249e-01,4.442809e-03,-3.533196e-01,-6.665268e-02,-4.144760e-01,-3.315875e-01,-2.393830e-01,-3.629515e-01,-1.967547e-01,4.923712e-02,-2.275957e-01,-1.208875e-01,8.885916e-02,2.946354e-02,1.164920e-01,-1.321736e-01,-1.995881e-01,1.253749e-01,-8.032702e-02,6.490685e-02,2.284194e-01,-1.786515e-02,6.527134e-02,-9.276279e-02,6.849381e-01,3.583932e-01,5.181928e-01,1.772694e-01,1.225849e-01,-2.851142e-02,-6.512939e-01,1.886779e-01,-6.877623e-03,-2.760101e-01,1.323641e-01,1.735227e-01,-2.386008e-02,-4.088149e-01,-1.864514e-01,-2.199732e-01,-7.677910e-01,1.865826e-01,
-2.097966e-01,6.843963e-01,1.560785e-02,2.309278e-01,3.979270e-01,-6.454703e-01,-1.732216e-01,1.290615e-01,6.173193e-02,4.337288e-01,2.260177e-01,8.152804e-01,-3.245234e-01,8.707460e-02,-1.380207e-01,3.942874e-01,3.027815e-02,4.070010e-02,-5.460958e-01,4.969234e-02,4.717410e-01,3.118499e-01,1.077791e-01,-5.794444e-02,1.524674e-01,1.296391e-01,-3.174214e-01,4.039322e-01,4.003159e-01,4.788642e-01,-2.234842e-01,-7.677085e-01,1.571075e-01,1.084945e-01,2.664006e-01,4.290235e-01,-5.642606e-03,-3.311151e-02,5.024873e-02,-1.314167e-02,-4.145205e-02,-2.899378e-01,3.887599e-02,-1.556973e-01,2.407118e-01,
4.295333e-02,-2.642570e-01,4.877753e-02,-7.108256e-01,5.934432e-01,-1.985033e-01,-2.563828e-01,9.369603e-01,5.682777e-01,4.218991e-01,2.262310e+00,-1.341352e-01,6.354946e-01,-7.307804e-02,-1.175438e+00,5.684862e-01,8.152928e-02,-1.222568e-01,-4.514683e-01,-6.267978e-02,-5.231183e-02,-2.804583e-03,-1.739330e-01,-7.056627e-03,1.273832e+00,4.419126e-01,-1.243255e-02,-1.080170e+00,-5.332299e-01,1.392911e+00,3.118969e-01,7.598298e-01,-8.730961e-01,-1.000179e-01,-9.232589e-02,7.812042e-01,1.905625e-02,1.329464e-02,5.123534e-02,7.268028e-01,-7.158061e-02,-1.928617e+00,-4.666721e-01,-1.907655e+00,8.353851e-01,
3.534165e-02,8.559963e-01,4.894016e-02,-5.655077e-01,2.492360e-02,8.125136e-02,-3.801655e-01,-1.347615e-02,9.479340e-02,-2.651061e-01,2.779997e-01,1.442686e-01,5.036330e-01,-3.603218e-01,2.159023e-01,-2.108710e-02,8.733176e-03,6.276472e-01,-1.192488e+00,-4.247687e-01,-1.798851e-02,-4.990361e-01,-6.791443e-02,2.287918e-01,1.313311e-01,1.262407e-01,8.247580e-02,1.233345e+00,-2.822966e-01,6.313232e-01,-1.002333e-02,1.530259e-01,-1.366270e-01,8.908149e-02,2.912667e-02,-9.328713e-02,-1.342538e-01,-3.054253e-02,2.646925e-01,-3.305943e-02,1.901498e-02,3.404219e-01,-1.349469e-01,-4.034862e-01,4.056782e-02,
1.503141e-01,7.672753e-01,3.655518e-02,-6.863462e-01,4.108637e-01,8.753238e-01,-1.414561e-01,3.729112e-01,-1.936008e-02,3.337226e-01,2.952996e-01,6.824319e-01,4.286011e-01,-2.631271e-01,3.636016e-01,3.754913e-01,6.253017e-03,3.024258e-01,2.984822e-01,4.493066e-01,-8.293854e-01,3.945011e-01,3.964105e-01,1.012885e-01,-3.763716e-01,4.074274e-01,1.215916e-01,5.227163e-01,-3.872608e-01,3.896907e-01,9.422110e-02,-3.790565e-01,-2.052532e-01,-1.516910e+00,-1.134534e+00,-7.303871e-01,-5.673828e-02,1.478543e-01,-8.577979e-02,-4.789734e-01,5.678428e-01,2.718672e-01,1.196569e-01,-7.095422e-01,-4.500869e-01,
1.266139e-02,3.511551e-02,-1.057513e-02,2.296696e-02,-2.015122e-03,2.547679e-02,2.738672e-02,-4.346905e-02,-3.085411e-02,7.691563e-04,-1.044640e-02,6.056581e-04,-4.879672e-02,-1.060246e-02,-5.172624e-02,2.624301e-02,2.679240e-02,-3.352198e-02,-1.005228e-02,2.304120e-02,-4.897521e-02,-1.848910e-02,3.133869e-02,-3.337916e-02,1.155488e-02,2.419994e-02,3.770484e-03,3.134764e-02,-4.833793e-02,-2.718682e-03,-3.611631e-02,-3.707813e-02,3.800902e-03,-3.059761e-02,3.191483e-02,-2.504704e-02,-2.056309e-02,-5.097041e-02,-4.552552e-02,-1.042582e-02,-8.008997e-04,-1.913022e-02,2.867463e-03,1.904180e-02,-1.372487e-02,
-1.292497e-01,-4.673558e-01,2.944887e-02,-1.149943e-01,5.834930e-02,-1.984606e-02,6.544008e-01,2.578937e-02,-2.143241e-01,-2.560478e-01,5.544195e-02,4.244881e-01,-1.942067e-02,6.773291e-02,-6.355826e-02,5.501895e-02,-7.272010e-02,8.464574e-01,-5.573279e-01,-1.968750e-01,3.245314e-01,-7.351892e-03,-1.263197e-01,9.415466e-02,-4.130971e-01,3.713140e-01,8.730307e-02,8.913587e-01,8.466050e-02,4.597674e-01,-4.158966e-01,-2.034646e-01,4.046948e-01,-2.301476e-01,-4.371640e-01,2.138835e-03,-1.351618e-02,-5.030129e-02,-2.859064e-01,-5.086003e-02,-1.710407e-01,-5.726856e-02,-1.512005e-01,-7.571769e-01,3.314910e-01,
9.218931e-02,6.737236e-01,-8.772705e-04,-3.588496e-01,1.053713e-01,1.894911e-01,-2.416044e-01,-8.776983e-01,1.735727e-01,-1.181559e+00,5.278789e-01,-1.822718e-01,2.078729e-01,-2.784609e-01,3.443235e-01,8.386505e-02,3.216438e-01,7.330182e-01,-8.447056e-01,-1.009023e-01,-3.016278e-01,1.645571e-01,8.970530e-02,2.816220e-01,-1.286806e+00,-2.545416e-01,-9.335322e-02,1.604047e+00,-5.512173e-01,6.281017e-01,-5.202734e-02,-4.898736e-01,4.439513e-02,3.120778e-01,-9.246572e-01,-1.403709e-01,1.276425e-01,6.644193e-03,-3.752371e-01,1.209556e-01,-7.793919e-02,5.387062e-01,1.085231e-01,-4.264494e-01,6.330438e-02,
2.997346e-01,-9.086458e-01,8.713155e-03,-4.492592e-02,2.817261e-02,-2.118528e-01,4.878158e-01,-4.209521e-01,4.202820e-01,4.562706e-01,5.590531e-01,2.030259e-01,-1.790473e-01,-1.343665e-01,7.029560e-01,9.067671e-02,-4.234701e-02,-3.491551e-03,-4.083148e-02,1.451107e-01,1.201690e-01,9.864324e-02,2.308630e-01,1.249196e-02,4.142803e-01,-1.880686e-01,3.439978e-01,1.251091e+00,2.149455e-02,9.690444e-01,9.078024e-02,3.271335e-01,4.017168e-01,-1.657321e-02,2.024952e-01,4.843049e-02,-2.639347e-02,1.669387e-02,3.106219e-01,4.008665e-01,-1.634601e-01,6.951681e-01,2.612243e-01,2.112475e-01,-7.282132e-02,
-7.112189e-01,6.519374e-01,1.184813e-02,-2.359261e-01,2.715107e-01,-3.344550e-01,-1.917434e+00,9.574669e-02,-3.839585e-01,3.525830e-01,-2.158434e-01,4.794230e-01,-2.003530e-01,-1.119874e-01,4.323362e-03,3.040998e-01,-4.385869e-03,-2.771191e-01,5.175391e-01,2.779362e-02,-1.594889e-01,-7.712456e-01,1.671566e-01,5.798906e-02,-1.373249e-01,-1.058470e-01,3.124076e-01,5.821940e-01,1.057270e+00,4.487342e-01,-7.836604e-01,1.899167e-01,5.494989e-01,1.702446e-01,5.708087e-03,3.908243e-01,8.170547e-02,-8.855222e-02,6.249867e-02,-1.502139e-01,5.047705e-02,-3.267289e-01,3.429034e-01,7.428241e-01,-4.375663e-02,
-2.642257e-01,4.305330e-02,-3.828885e-02,1.489207e+00,-3.304901e+00,2.761861e-01,6.953048e-01,3.217103e-02,9.439184e-02,-6.237892e-02,1.024242e-01,-3.220589e-02,2.623400e-01,6.234011e-02,3.081107e-01,-2.917238e+00,-1.060731e-03,-3.856107e-02,-2.660903e-01,-6.138595e-01,4.490792e-01,2.914710e-01,5.432302e-01,9.339081e-02,-1.797454e-01,-4.939191e-02,-8.532705e-02,-3.170500e-01,3.293878e-02,5.489265e-01,-7.023802e-01,7.804872e-01,-2.599050e-01,6.233838e-01,-6.152465e-01,-1.752462e-01,1.318032e-01,2.612340e-03,-1.182168e-01,4.918845e-01,-4.510567e-01,-1.590565e-01,1.964578e-01,-1.251145e+00,1.157394e-01,
2.899681e-02,2.293117e-02,1.019602e-02,3.450162e-02,-4.474182e-02,3.577278e-02,-4.715111e-02,-2.025270e-02,2.508771e-02,-4.788255e-02,-3.995810e-02,-5.071177e-02,-4.124114e-02,-1.550358e-02,8.996493e-03,1.929633e-02,-1.551634e-02,-1.143995e-03,-3.020627e-02,-4.954862e-02,3.940023e-02,-4.829190e-02,9.555286e-03,-2.650703e-02,-1.552498e-02,1.953287e-02,6.332600e-03,-3.851541e-02,-5.374397e-03,4.244149e-02,3.950222e-02,-3.297357e-02,-3.012357e-02,1.439236e-02,7.660425e-03,3.065784e-02,-2.089450e-03,-7.316355e-03,-2.728882e-02,-4.264906e-02,-4.558408e-02,-3.137270e-02,-3.182651e-03,-2.349715e-02,-2.082367e-02,
-2.465388e-01,1.079653e-01,4.357068e-02,-7.350636e-03,1.827600e-01,-1.644147e-01,-1.225778e+00,-8.212630e-02,2.237798e-01,1.005679e-01,4.157524e-01,4.508772e-01,-1.886961e-01,-6.932446e-01,7.762394e-02,2.470550e-01,2.324512e-02,-8.257790e-02,-5.627171e-01,8.190553e-01,-3.440270e-01,-1.436153e-01,1.097867e-01,5.325055e-01,-2.985776e+00,3.602416e-01,-1.443346e-02,2.432096e+00,-4.459682e-01,9.472862e-01,2.252675e-01,-6.317206e-01,2.068581e-01,9.990455e-02,2.023392e+00,-2.705666e-01,-4.937133e-01,-9.260283e-02,-2.932134e+00,5.059813e-02,3.919065e-01,1.754198e-01,1.190345e-01,3.610592e-01,5.951145e-02,
2.025236e-03,1.879273e-02,-3.414008e-02,2.290825e-02,1.698896e-02,-7.795413e-03,-2.168295e-02,4.126240e-05,1.083408e-02,2.326212e-02,-3.636409e-02,-3.783354e-02,-3.115678e-02,-3.466638e-02,3.283444e-02,-2.879387e-02,1.810917e-02,-2.380303e-02,2.361639e-02,-6.238362e-02,-1.852978e-03,1.921781e-02,-4.790489e-02,-2.877941e-03,-1.173704e-02,-2.442626e-02,-1.759615e-02,-6.203813e-02,-3.113644e-02,2.507358e-02,-3.046229e-02,2.370125e-02,-5.180482e-02,-4.269560e-02,-5.903672e-02,1.957072e-02,-3.259036e-02,5.945903e-03,3.708013e-02,3.271273e-02,-1.700542e-02,2.440954e-02,-5.828637e-02,2.224641e-02,-1.766559e-02,
1.662201e-01,-1.404570e+00,-1.558887e-02,-5.257880e-03,-3.309182e-01,3.277421e-01,-1.946093e-01,7.384360e-02,-3.707986e-01,-8.287675e-02,-3.289974e-01,3.320122e-01,5.402130e-01,-5.762572e-03,-3.463178e-02,-2.223778e-01,-2.515136e-02,6.509124e-02,-1.084803e-01,-8.116353e-02,-2.907624e-02,-7.551824e-02,-2.453981e-01,1.043084e-02,3.930958e-01,7.602882e-02,2.535825e-01,4.119728e-01,-5.249833e-01,1.876097e-02,-5.705194e-02,5.132195e-01,-2.590127e-02,-4.365346e-01,8.315539e-01,-2.361159e-01,-1.692464e-01,1.188142e-02,2.438295e-01,-1.302996e-02,2.742845e-01,3.000367e-02,2.288875e-01,-6.098222e-01,1.750543e-01,
6.103645e-02,3.263064e+00,-2.538827e-02,4.867426e-01,1.026383e+00,-1.264258e-02,6.472212e-02,-2.810275e-01,-1.153450e+00,-8.862464e-02,-1.199118e-02,-6.058744e-01,2.479745e-01,-5.669037e-02,-1.015369e-01,1.029038e+00,-4.809418e-02,6.711880e-01,2.993388e-01,-5.036381e-01,-1.330420e-01,-2.953198e-03,-7.876333e-02,-1.909695e-01,-7.196752e-02,-5.482429e-02,-2.567559e-01,2.338991e-01,1.101911e+00,2.523685e-01,-4.878012e-01,2.319950e-01,-3.123731e-01,6.934167e-01,7.030649e-02,-1.845050e-01,1.444581e-01,-2.465282e-02,1.616340e-01,-2.046542e-01,1.376437e-01,4.772685e-02,-1.862395e-01,-2.307107e-01,-1.580011e-01,
-3.859019e-02,-1.595040e-01,3.977854e-02,-8.467468e-02,1.499848e-01,4.934835e-01,-4.086744e-01,6.499996e-02,5.969036e-02,-4.186674e-02,-2.156845e-01,-2.881060e-02,1.625974e-01,-2.689106e-01,1.001324e-01,1.054379e-01,2.615827e-02,-3.814896e-01,2.438840e-02,3.395920e-01,-1.265511e+00,-1.880279e-01,-9.446502e-02,1.393065e-01,-8.565750e-01,1.651777e-01,1.991355e-01,6.960139e-01,-4.006567e-01,3.184784e-01,5.702768e-02,1.241302e+00,1.433762e-01,-1.128132e-01,8.497146e-01,-8.678651e-01,2.290019e-02,4.546693e-02,-8.751770e-01,6.439976e-02,-2.068956e-01,3.701788e-01,1.284082e-02,-4.838362e-01,-3.142909e-01,
2.776088e-01,-4.218984e-01,1.006554e-01,-8.795950e-01,-2.067943e-01,6.670326e-01,-5.275727e-01,2.485769e-02,-7.013950e-02,-2.914994e-01,-2.984856e-01,-3.096641e-01,7.880839e-01,-5.633844e-02,1.100722e-01,-2.158168e-01,-8.405371e-02,-9.835061e-01,-2.480809e-01,-2.759616e-01,-7.713364e-02,2.132657e-01,8.956809e-02,2.772144e-02,1.878925e-01,-2.877001e-02,2.034791e-01,-3.364929e-02,-8.434400e-01,-6.613416e-02,3.879282e-01,7.551877e-01,-2.381756e-01,-4.817267e-02,8.236424e-02,-3.863367e-01,-1.320883e-01,-3.953029e-03,1.206716e-01,-1.361288e-01,2.973745e-01,3.105651e-01,-1.352236e-01,-4.286084e-01,-1.642316e-01,
-9.465508e-01,5.519420e-01,-6.901537e-02,-2.773768e-01,2.392188e-01,-4.907320e-01,7.628182e-02,-9.575088e-02,-4.427314e-01,-3.085370e-01,1.764849e-01,3.554142e-01,3.495730e-01,3.497161e-01,1.184798e-01,2.594456e-01,1.088499e-02,-1.862298e+00,6.470799e-01,8.881684e-02,1.307605e-02,-6.549226e-02,1.533561e-01,-1.092009e-02,-1.775494e-01,9.822045e-02,-5.048184e-01,2.631128e-01,2.403710e-01,7.177255e-01,-3.382609e-01,-3.403209e-01,-5.060449e-02,-7.716696e-02,3.236442e-02,-8.934475e-02,4.070149e-01,-6.019801e-02,-2.126004e-01,9.214947e-02,-4.116366e-01,-1.269480e-01,-9.962799e-02,-7.291836e-01,4.899461e-01,
-1.187626e-01,
-1.066316e-02,
9.723811e-03,
2.815964e-02,
7.975034e-02,
-3.241712e-01,
2.201742e-01,
-1.334099e-01,
4.240795e-01,
1.256796e-01,
-1.579615e-01,
4.306585e-01,
4.755560e-02,
-4.387716e-01,
2.505691e-01,
-1.531617e-02,
-2.624460e-01,
-1.798902e-01,
-1.438497e-01,
-1.271521e-02,
1.674036e-01,
2.245815e-01,
-1.944224e-03,
-2.479221e-02,
6.532429e-02,
1.490815e-02,
2.527330e-01,
-6.244177e-02,
1.116112e-01,
-1.445469e-01,
-6.699240e-01,
-1.110456e-02,
-6.622192e-02,
-8.468369e-02,
1.079896e-02,
-1.452973e-01,
-2.244800e-01,
-1.004327e-02,
-1.067262e-01,
-1.119081e-02,
-1.980847e-01,
-3.064671e-01,
-3.626052e-02,
-1.549925e-02,
-8.077465e-02,
-1.860692e-01,-4.477381e-02,-1.805391e-01,9.656615e-01,-5.154666e-01,-2.294537e-01,1.663951e-01,1.885622e-01,-8.226490e-01,1.005922e+00,-6.358141e-02,3.462232e-01,1.224295e-01,-1.112238e+00,3.857767e-01,-1.414932e-03,-2.172808e-01,-8.476002e-02,7.203854e-02,-1.006543e-02,2.990548e-01,3.260037e-01,1.126661e-01,3.232580e-01,-2.980111e-01,-1.749847e-01,-1.865928e-01,1.881302e-01,-6.483374e-02,4.260341e-02,1.215669e-01,-4.016817e-02,3.003392e-01,-4.375516e-02,2.885271e-01,1.105974e-01,-5.769697e-01,1.868724e-02,1.316779e-01,-2.510745e-03,2.747363e-01,-4.163987e-01,2.354072e-01,-2.073916e-01,-4.727174e-01,
-2.203032e-03,-1.594229e-02,2.202017e-01,5.978624e-01,2.731721e-02,-5.984744e-01,1.423225e-02,4.213766e-01,-5.758500e-01,3.772732e-01,-2.635755e-01,3.797059e-01,-7.889114e-02,-2.214787e-01,3.286798e-02,-2.455694e-02,-2.233826e-02,-2.762606e-01,4.575704e-02,-1.725889e-02,6.959097e-01,3.928973e-01,-2.867289e-01,-1.149161e-01,8.481978e-03,1.044729e+00,-3.784547e-01,3.637978e-01,-2.470485e-01,2.018103e-01,5.295142e-02,5.065403e-02,1.854756e-01,-1.853830e-01,2.327403e-01,4.255339e-01,1.659624e-01,-1.787737e-03,-4.324130e-01,3.578693e-02,4.330534e-02,1.907782e-01,1.458856e-01,2.684065e-01,-3.058421e-01,
2.076639e-01,2.161348e-02,1.573658e-01,1.702163e-01,9.189264e-01,8.892708e-01,4.335332e-02,-3.401451e-01,-6.209082e-01,4.756296e-01,2.129645e-01,3.739065e-01,-5.804706e-01,2.609891e-01,4.381344e-01,-1.138583e-02,2.290792e-01,-3.408977e-02,-1.091215e-01,-2.252573e-02,3.628664e-01,5.533604e-01,4.562275e-01,1.833563e-01,8.278572e-01,-3.025064e-01,3.026377e-01,-1.335895e-01,-8.536726e-02,-1.127062e-01,2.596020e-01,-3.052827e-02,1.886205e-02,2.882557e-02,2.323339e-01,-2.469433e-01,-7.433164e-01,-5.574070e-03,1.075444e+00,3.552507e-02,6.802819e-01,6.443030e-02,4.436134e-01,1.267282e-01,3.729149e-01,
4.426875e-02,-2.911972e-02,-1.249436e-01,1.682592e-01,-3.995504e-02,2.748676e-02,5.034349e-02,-1.027324e-01,-9.810247e-01,2.392543e-01,9.738930e-04,8.440080e-01,3.989937e-01,7.600268e-01,-2.889895e-01,1.427644e-02,2.093452e-01,1.774351e-01,2.718982e-01,1.521979e-02,4.408529e-02,5.477263e-02,4.819138e-03,2.642167e-01,9.105016e-02,-4.198882e-02,-1.404587e-01,8.850820e-02,-1.650091e-01,4.587668e-02,-2.450333e-01,-6.524459e-03,-1.543103e-01,3.874697e-01,1.150418e-01,2.161259e-01,5.583704e-01,2.051672e-02,5.872729e-01,-2.420310e-02,-2.068661e-01,6.885781e-01,3.449017e-01,1.653459e-01,2.824238e-01,
4.319216e-02,1.077529e-02,1.425401e-01,9.621726e-01,9.991133e-01,-1.683409e-01,-4.898051e-02,-2.241957e-02,-8.159505e-01,-3.972545e-02,3.956652e-02,4.961937e-01,1.210013e-01,-1.209062e+00,2.374108e-01,-1.242549e-02,2.531365e-01,1.313037e-01,1.772057e-01,-4.862375e-02,-3.810093e-01,-1.315752e-01,-6.146795e-01,3.640263e-01,3.342148e-01,2.369234e-01,4.878475e-01,3.845226e-01,-3.309851e-02,-5.532100e-02,6.460681e-02,5.696878e-03,2.087542e-01,-2.412545e-02,3.297737e-01,-5.936565e-02,8.221447e-02,-1.766905e-03,1.863410e-01,2.256183e-02,-8.920267e-02,-3.299031e-01,4.665962e-01,5.684584e-02,6.360840e-01,
-6.453092e-02,3.381043e-02,-9.976774e-02,-2.109413e-02,3.014567e-02,2.294543e-02,2.161972e-02,-8.755865e-02,-4.801115e-04,-6.962610e-02,-1.651330e-02,1.816074e-02,6.157979e-05,-1.844881e-02,-6.211186e-02,1.642552e-02,-3.887109e-02,-2.269476e-02,-1.708341e-02,3.805386e-02,-7.307439e-02,-6.549869e-03,-8.397374e-03,1.877961e-02,-4.704437e-02,-9.597677e-02,4.069314e-03,-1.046478e-01,2.112596e-03,-5.054700e-02,-3.474392e-02,-1.641777e-02,-4.326864e-02,3.053523e-02,2.917195e-02,-4.433497e-02,-3.210533e-02,1.959100e-02,-9.412506e-02,-2.895106e-02,3.466692e-03,-9.758136e-03,-8.013125e-02,-8.978822e-03,-2.029256e-03,
1.500221e-01,3.984363e-02,2.219123e-01,9.606119e-01,7.812411e-01,1.332718e-01,-3.137704e-04,-6.341691e-02,7.849241e-01,6.210914e-01,3.585495e-01,1.928379e+00,1.352950e+00,1.842098e-01,8.683504e-02,-4.561263e-02,-1.178345e-01,-2.964536e-01,1.436594e-01,4.616855e-03,-2.756093e-02,7.155188e-01,9.757780e-02,4.425647e-01,1.610529e-01,2.167035e-01,4.447244e-01,2.446655e-01,2.831842e-02,-1.436137e-01,1.273137e-01,2.240960e-03,3.252328e-01,-2.260590e-02,-1.268052e-01,-2.837420e-03,6.385283e-01,-1.047456e-02,7.401654e-01,2.781337e-02,-1.158003e-02,-2.261396e-01,3.146268e-01,1.564673e-02,3.978854e-03,
-1.925072e-02,-2.686649e-03,3.820355e-02,6.683381e-01,6.565050e-01,5.870056e-01,-2.465001e-02,-3.239334e-01,-8.415595e-02,1.006207e+00,4.042731e-01,-2.352453e-01,-9.739052e-01,-3.633648e-02,9.526056e-02,1.460667e-02,1.059394e+00,-1.150219e+00,2.565303e-01,8.899476e-03,2.063873e-01,-1.820252e-01,4.036155e-01,6.827646e-01,2.817600e-01,7.896097e-01,3.934528e-01,-1.336809e-02,9.576277e-02,-3.741691e-01,1.475337e-01,2.087258e-02,3.387962e-01,-1.136687e+00,-4.736956e-01,1.866907e-01,1.640578e+00,4.764313e-02,7.461408e-01,2.108887e-02,-1.399996e-01,-1.938422e-01,2.504020e-01,-2.589475e-03,2.597862e-01,
1.817121e-01,3.230344e-02,-2.402399e-02,-7.884211e-02,1.258177e-01,-3.040531e-01,-5.986082e-01,1.062107e-01,-5.232447e-01,-1.921998e-01,8.467682e-01,9.877641e-02,6.548058e-02,9.945960e-01,-1.367330e-01,-3.714576e-02,-4.808720e-04,1.271351e-01,-4.519016e-01,-1.391306e-02,9.416690e-02,-1.654943e-02,-1.113590e-01,6.849106e-02,1.289359e-01,-1.021932e-01,2.864824e-02,-3.203549e-02,9.368045e-01,1.260438e-01,-4.306281e-01,4.219294e-04,-5.011132e-02,9.809503e-02,5.710764e-01,-1.307408e-01,-4.108498e-02,-2.500439e-02,9.212903e-02,2.685921e-02,-2.261877e-01,3.939575e-01,1.241887e-02,-8.423302e-02,-7.208399e-02,
6.510417e-03,-2.975781e-02,-1.281882e-01,7.229500e-02,2.775801e-01,-1.003867e-01,-1.228425e-01,-5.690721e-02,-4.672056e-01,-4.722398e-01,1.826749e-01,5.808120e-01,-5.117445e-01,3.961050e-01,2.023825e-01,3.840810e-02,-2.095192e-01,1.979843e-02,-3.812734e-02,-2.682374e-02,3.786718e-01,-1.224698e-01,-5.162201e-02,1.500174e-01,6.701547e-02,-2.865780e-01,-3.071874e-01,-3.544668e-01,1.711376e-01,1.066687e-01,-1.384688e-01,-4.108683e-02,-4.477074e-01,7.407921e-02,2.604566e-01,-1.178328e-02,2.069401e-02,7.699110e-03,-2.066972e-01,3.914699e-02,-1.715426e-01,3.051135e-01,-8.349741e-02,1.520558e-01,2.638967e-01,
-1.362299e-01,-2.798352e-02,2.360415e-01,2.407967e-01,-1.245524e-01,5.001850e-01,2.437423e-02,-1.373151e-01,-9.245670e-01,3.965222e-01,1.159777e-01,2.732198e-01,4.464234e-02,5.519613e-02,2.395459e-01,-4.019471e-02,-1.017036e-01,3.027038e-01,1.047536e-01,-4.035490e-02,6.296582e-01,3.538003e-01,2.501095e-01,4.829803e-01,1.237856e-01,9.819505e-02,6.089239e-01,-2.490655e-01,-1.245325e-01,1.531134e-01,-5.749917e-01,-1.622636e-02,3.651143e-01,3.009417e-01,4.616241e-01,4.707473e-02,3.575411e-01,-4.480338e-02,1.041192e+00,3.183395e-03,5.644567e-01,-7.162996e-02,7.345611e-01,3.604284e-02,-1.039078e-01,
3.950367e-01,1.152386e-03,1.371294e-01,4.843900e-01,7.613162e-01,-3.186241e-01,-2.701596e-01,5.398486e-02,4.040632e-01,1.424388e-01,9.651144e-01,7.319630e-01,3.211617e-01,4.861546e-01,2.330631e-01,-2.763448e-02,-9.985717e-02,-4.664005e-02,-3.481880e-01,-4.493689e-02,2.162700e-01,2.391023e-01,2.454065e-01,5.356846e-02,3.664946e-01,-1.143505e-01,1.981504e-01,3.516522e-01,1.064288e+00,-1.802872e-01,-4.544633e-01,-2.736899e-02,1.625430e-01,-4.720258e-02,2.265439e-01,4.285187e-01,8.237830e-02,-1.682083e-02,1.420876e-01,-4.942077e-02,-1.166248e-03,3.209347e-01,-1.158874e-01,2.129808e-01,2.595381e-01,
-2.327310e-01,-3.093128e-02,1.933747e-01,6.471884e-01,-1.068410e+00,1.210696e+00,2.286977e-01,-7.412858e-04,-5.851940e-01,5.697427e-01,1.784086e-01,3.835632e-01,4.563314e-01,7.309449e-01,1.938228e-01,3.576491e-02,6.963307e-01,3.952240e-01,1.947205e-01,-1.722918e-02,1.117043e+00,1.266880e-01,2.703949e-01,-3.205103e-01,1.006046e-01,2.485187e-01,-2.133760e-01,3.230354e-01,-3.064947e-01,-2.036327e-01,-1.502091e-01,-5.925246e-03,2.570594e-01,5.788939e-02,-3.311736e-01,5.719708e-01,-2.960651e-01,-1.747547e-02,1.079834e+00,-7.241753e-03,5.594510e-01,-7.038161e-01,4.086394e-01,-2.048705e-01,-7.981970e-01,
-7.143509e-02,2.972288e-02,6.173265e-01,8.708825e-01,6.673508e-02,3.912410e-01,-4.665666e-02,3.103020e-01,-6.779470e-01,1.349917e-01,-5.078923e-01,3.952131e-01,6.487043e-01,8.790955e-01,2.417204e-01,-3.760556e-02,3.744840e-01,-1.159085e-02,1.287121e-01,-4.435798e-03,-1.742961e-01,3.529184e-01,3.800997e-01,4.174095e-02,-3.117355e-01,4.148560e-01,3.057259e-01,2.510214e-01,-3.344336e-01,1.026203e-01,1.655338e-01,6.792725e-03,1.292469e-01,-1.528596e-01,-2.624622e-02,-4.168943e-01,6.015663e-03,4.227114e-02,-2.558641e-01,-3.176498e-02,-1.360195e-01,5.630661e-01,6.259280e-01,2.084751e-01,-4.962463e-01,
4.153383e-01,4.975934e-02,-2.515056e-03,3.393103e-01,2.428492e-01,-3.457788e-01,-2.117399e-01,-8.977053e-02,-4.861421e-01,1.389003e-02,5.133395e-01,2.243428e-01,-4.822710e-01,3.886753e-01,1.246855e-01,-2.607365e-02,5.326967e-01,-1.788932e-02,-1.158873e-01,-3.041668e-02,1.477294e-01,2.372063e-01,4.140234e-01,-5.008464e-01,3.703870e-01,-6.949327e-01,-1.952774e-02,-3.038004e-01,3.956588e-01,4.833986e-02,-2.164555e-01,4.454755e-02,3.832643e-01,-1.453661e-01,3.368993e-01,1.448727e-01,4.137971e-01,4.569537e-02,5.390351e-01,2.517208e-02,-5.487610e-02,-8.464778e-02,1.224002e-01,9.935468e-02,-8.525991e-02,
5.914336e-01,3.466355e-02,1.292937e-01,8.709983e-01,3.109900e-01,-4.216602e-01,3.024951e-02,-1.339218e-01,-4.775000e-01,-7.808452e-01,1.560503e-01,1.540977e-01,1.659254e-01,3.470000e-01,4.431332e-01,-3.159993e-02,-2.396460e-01,4.553780e-02,-5.193619e-02,3.511209e-02,-1.154548e-01,1.055767e-01,1.698157e-01,1.942120e-01,-1.035788e-01,-7.408978e-02,3.957914e-01,-1.536776e-01,6.078444e-02,9.097102e-02,-3.803161e-02,-2.175317e-02,4.612170e-01,-5.006887e-02,1.872085e-01,-1.463865e-01,-4.536115e-01,1.439620e-02,1.813408e-01,9.887757e-03,4.554638e-02,3.854758e-01,6.109866e-02,1.250497e-01,-1.319630e-01,
-4.375911e-02,9.527452e-03,-8.847257e-03,-4.645407e-03,-2.618249e-02,-4.147824e-02,6.217315e-03,-1.728883e-02,-2.085111e-02,3.662704e-02,-2.216066e-02,2.186468e-02,3.675380e-02,-2.519348e-03,-1.889236e-02,-4.178818e-03,-5.305547e-03,-4.258059e-03,2.471223e-02,2.465173e-02,3.284080e-02,-3.079291e-02,-8.848872e-03,-5.185724e-02,9.542883e-03,-2.577995e-02,-3.112152e-02,-1.543615e-02,-2.601262e-02,3.663875e-02,-2.943611e-02,3.042870e-02,3.042955e-02,-4.597886e-03,-2.718196e-02,-5.194782e-02,-1.642590e-02,2.559036e-02,-4.131569e-02,-3.314124e-02,3.122745e-02,2.608640e-03,3.003091e-03,-3.137680e-02,-5.241543e-02,
2.365367e-01,-8.390376e-03,5.555369e-01,5.652380e-03,8.285061e-02,-6.545106e-02,1.768565e-01,-1.050056e-02,-3.732812e-01,-1.152213e-01,-4.226250e-01,2.129575e-01,2.065652e-01,-2.338323e-01,5.642127e-01,-3.187777e-02,-5.407397e-01,5.197796e-02,2.758380e-01,2.522561e-02,-1.081518e-01,1.190170e-01,3.345165e-01,2.435893e-01,5.338832e-01,1.282155e-01,-3.783764e-02,8.230488e-01,-7.418704e-01,2.712919e-01,4.072177e-02,-1.002804e-02,-1.101616e-01,7.695618e-02,1.011801e-02,-4.026250e-02,8.220997e-01,-7.717459e-03,4.739524e-02,1.106480e-02,-3.710840e-03,7.563230e-02,-3.667032e-01,-1.581178e-01,-8.634612e-02,
2.347886e-01,-2.238120e-02,-1.962803e-01,6.139567e-01,-2.839664e-02,-4.044150e-01,-1.453039e-01,-9.773722e-02,-4.483757e-01,-1.424937e-01,2.496459e-01,3.336974e-01,-5.640526e-01,2.447751e+00,7.340094e-01,4.310178e-02,2.383361e-01,1.426372e-02,-1.031461e-01,4.302648e-02,-5.965075e-02,1.514207e-01,1.735882e-01,-3.003440e-01,1.538432e-02,2.103261e-01,-1.771660e-01,-4.052331e-01,-7.428105e-02,8.936596e-03,2.763510e-01,-2.504040e-02,-2.624310e-01,-1.130574e-01,4.122540e-01,5.781031e-02,3.574219e-01,-4.322756e-02,5.436416e-01,-3.042149e-02,-1.891144e-02,1.114575e+00,-8.639211e-02,3.208545e-01,1.759333e-01,
-1.830427e-01,2.334302e-02,2.797339e-01,1.538851e-01,9.382041e-01,3.582086e-01,6.109761e-02,1.745753e-02,-7.256207e-01,3.748960e-01,-4.568496e-01,1.641358e-01,-9.628327e-01,-3.515402e-01,2.944854e-01,-1.982511e-02,-2.597377e-01,-1.537447e+00,8.747132e-04,2.368815e-02,-3.532720e-01,5.157484e-01,9.542645e-02,-6.045102e-01,-8.679322e-02,4.377657e-03,1.337992e-01,-8.150441e-02,1.839362e-01,-4.447573e-01,-6.099761e-02,-2.569151e-02,1.731158e-01,-1.949592e+00,2.040148e-01,1.813041e-01,7.168854e-01,-2.251086e-02,2.990160e-01,-3.721604e-02,6.570296e-01,2.864072e-01,2.841841e-01,4.421443e-02,1.761668e-01,
3.974101e-02,-2.534208e-02,-5.227156e-02,2.242273e-02,2.243416e-02,-1.150075e-02,-7.878426e-03,-1.859459e-02,3.363841e-02,-4.083974e-02,6.609580e-03,-1.251620e-02,2.524629e-02,2.681492e-02,-2.652794e-02,3.938180e-02,-2.900109e-03,-5.287511e-02,-1.800033e-02,-3.244276e-04,-5.541022e-02,1.391423e-02,-5.139960e-02,9.525988e-03,5.933900e-03,2.546898e-02,-1.709901e-03,-5.914364e-02,-5.463025e-02,-3.819192e-02,-4.172983e-02,-3.318017e-02,-4.387278e-02,-2.186744e-02,-4.685760e-02,-6.491751e-03,-6.891780e-03,3.717061e-02,-4.104072e-02,2.991646e-02,-3.609924e-02,-1.875704e-02,-5.595139e-03,-5.722333e-02,2.566776e-02,
3.690859e-01,-3.332553e-02,-1.285849e-02,2.404823e-02,4.741848e-01,-1.024392e-01,-3.033240e-01,1.301054e-01,-6.246457e-01,-5.833661e-01,8.994681e-01,7.901985e-02,7.936399e-02,5.923928e-01,-2.219782e-02,-2.146631e-02,4.658985e-01,1.775023e-01,-1.824759e-01,-4.104014e-03,3.679692e-01,-2.081865e-01,4.198175e-02,1.870546e-01,2.046070e-01,-7.148112e-02,-7.167988e-02,1.046706e-01,7.766053e-01,1.264248e-01,-3.978432e-01,-1.267198e-02,-1.104010e-02,1.179948e-01,6.077651e-01,1.948348e-01,-2.113619e-01,-2.731929e-02,-3.531703e-02,1.020027e-02,-3.187075e-01,6.488923e-01,-3.220721e-01,-9.185151e-02,1.262122e-01,
-2.098637e-02,-3.458986e-02,-3.052547e-01,-1.244843e+00,-4.122258e-01,-1.977225e-01,-5.621874e-02,2.464286e-01,-1.147241e+00,-9.663161e-01,1.064484e-01,-8.006242e-01,-1.439278e+00,-8.493350e-01,2.519857e-01,-2.190589e-02,1.236388e-01,5.215734e-02,-1.797160e-01,-6.001885e-03,-4.799380e-02,-2.121603e-01,2.119621e-01,-9.088722e-01,-9.344815e-02,-7.254225e-01,2.243109e-02,2.276091e-02,3.287418e-01,2.067383e-01,-3.818907e-01,-1.095446e-02,1.653456e-01,1.550617e-01,6.139169e-01,9.975584e-02,-5.269851e-01,4.969983e-02,-6.021281e-01,-2.329627e-02,-2.490685e-01,-1.072498e+00,-1.211505e+00,5.342498e-02,-6.635544e-02,
-1.239798e-02,1.869686e-02,-9.418217e-03,2.992523e-02,3.172790e-02,1.073937e-02,7.507302e-03,-2.037456e-02,-2.461112e-02,1.752218e-02,2.532460e-02,-4.065813e-02,4.372321e-03,-4.513510e-02,1.377439e-02,1.655194e-02,-2.840863e-02,-3.156483e-02,-2.763868e-02,4.620279e-02,3.313380e-02,-1.678142e-02,-5.106265e-02,-7.319112e-03,-6.188755e-03,-6.666023e-02,-2.681823e-02,-5.759268e-02,-1.942829e-02,2.354665e-02,1.720766e-02,1.952413e-02,2.496177e-02,-2.802677e-02,3.222065e-02,1.201355e-02,2.393671e-02,-3.175795e-03,-5.399117e-02,-5.091291e-03,1.960277e-02,-6.149766e-02,2.104411e-02,-1.064472e-02,-5.167802e-02,
5.240190e-01,-2.630962e-02,-2.547386e-02,3.337797e-01,1.052229e+00,9.918520e-01,7.364531e-01,-8.883236e-02,-4.503155e-01,-1.107140e-01,-8.651738e-01,3.606182e-01,-4.663415e-02,1.017664e-01,6.824826e-02,4.144294e-02,2.044051e-01,-1.798098e-01,6.536463e-01,-9.190069e-03,-4.968489e-01,1.266096e-01,3.971109e-02,4.511517e-02,2.390027e-01,6.784938e-02,2.751274e-01,-1.840677e-01,-1.000271e+00,1.876883e-02,-2.245163e-01,-1.151409e-02,-1.362443e-02,4.312804e-02,-1.377483e-01,-1.926685e-01,-2.805211e-02,3.732296e-04,9.970471e-02,1.324020e-02,2.155464e-01,-1.152511e-01,1.988375e-01,7.341415e-02,6.623967e-02,
2.404827e-02,-4.872615e-02,-1.793104e-02,-3.364020e-02,6.649641e-03,4.671929e-02,-3.673036e-02,-2.422909e-02,-4.100701e-02,8.848560e-03,-1.877840e-02,-4.804391e-02,4.451099e-02,-3.363138e-02,2.168559e-02,-7.310448e-03,-4.408560e-02,-3.459143e-02,1.333098e-02,1.427120e-02,3.042004e-02,-3.414194e-02,1.761669e-02,-1.674456e-02,2.262406e-03,1.235440e-02,-1.476068e-02,-5.415293e-03,-3.454508e-02,-1.889230e-02,-3.875685e-02,-9.247037e-05,5.308781e-03,-2.750165e-02,1.086836e-03,3.186003e-02,-2.478083e-02,-1.107877e-02,-5.296757e-03,-1.583703e-02,5.269649e-03,-4.550314e-02,3.882871e-02,-1.484269e-03,1.858146e-02,
-1.117970e-01,3.848031e-02,-3.554942e-02,3.860632e-01,7.851763e-01,-7.590680e-01,-2.103120e-02,-7.336845e-02,-7.775503e-01,1.321762e+00,3.070423e-02,5.920857e-01,3.278636e-01,-2.480495e-02,-3.277811e-01,-2.851692e-02,-5.849358e-02,-1.231288e-01,-1.480555e-01,4.008973e-02,-4.055657e-01,4.060625e-01,-4.679494e-02,1.877458e-01,5.542328e-03,6.593626e-01,-8.045614e-02,-1.904437e-02,-3.561591e-01,8.043521e-02,5.729825e-01,-2.971359e-02,-2.583503e-01,2.671391e-01,5.565189e-01,2.130977e-01,-3.659482e-01,-3.157008e-02,3.389626e-02,1.929396e-02,4.370477e-01,-2.140065e-02,2.609033e-01,5.902944e-02,-5.344613e-02,
3.318932e-01,-1.095434e-02,4.855681e-01,7.034640e-01,5.917444e-02,-1.950022e-01,1.102151e-02,1.495530e-01,-8.850195e-01,4.135850e-01,-1.455162e-02,-1.250570e-01,-3.338841e-01,2.171602e-01,4.104138e-01,2.559393e-02,3.781266e-02,3.168183e-01,2.481706e-01,-3.012891e-02,-1.642208e-01,3.481250e-01,1.949955e-01,7.988028e-03,1.302690e-01,9.735671e-02,3.571648e-01,2.235457e-01,-1.420645e-01,3.231938e-01,1.663290e-01,4.660166e-02,3.027872e-01,2.970393e-02,2.881017e-01,1.351784e-01,6.839446e-01,-2.856240e-02,6.994695e-01,4.740760e-02,-1.276461e-01,5.500316e-01,5.552527e-01,1.417950e-02,-1.844646e-01,
-1.487909e-01,2.074449e-02,1.740265e-01,-3.420909e-01,1.286364e-02,7.502182e-01,-2.298673e-02,-5.041362e-01,-2.068248e-01,5.213675e-01,-4.101436e-01,-1.288406e-01,7.535350e-02,-1.771175e-01,8.086149e-01,2.220762e-02,2.101954e-02,-5.855330e-01,-1.858396e+00,-4.725447e-02,7.433020e-01,-2.506562e-01,-1.270352e-01,1.054465e+00,2.079111e-01,1.259910e-01,1.229888e-01,1.550354e-01,1.567193e-01,2.515617e-01,-1.688993e-01,3.776050e-02,-9.616005e-02,1.443620e-02,3.177394e-02,3.926980e-01,2.406030e-01,3.547197e-02,-4.947433e-01,-2.881916e-02,9.302169e-01,9.091980e-01,-1.382860e+00,-1.310882e+00,-1.841761e-01,
-4.456883e-03,-4.542826e-02,-2.953483e-02,3.708144e-02,-1.887429e-02,4.869002e-02,-4.454541e-02,-3.082386e-02,-1.379483e-02,2.171339e-02,-4.090692e-02,-8.867264e-03,-3.810858e-02,2.145106e-02,-1.586688e-02,7.192947e-03,-1.993428e-02,4.414692e-03,-2.990180e-03,3.431077e-02,8.707044e-03,1.071756e-02,-2.523483e-02,-4.666055e-02,-1.130721e-02,-2.550261e-02,3.697772e-02,-4.040341e-02,-3.841670e-02,-3.823742e-02,2.943773e-02,1.891974e-02,-4.473528e-02,3.932502e-03,7.723240e-03,-3.335514e-03,-1.352831e-02,-3.583113e-02,3.805917e-02,3.585062e-03,4.350065e-02,1.480073e-02,3.593833e-02,-2.802042e-02,-1.482877e-02,
1.240320e-01,4.197372e-02,1.708244e-01,4.310974e-02,1.194937e-01,-2.757111e-01,-4.991353e-01,-8.126076e-02,-1.208104e-01,2.689801e-01,8.849705e-01,-9.655359e-02,-1.765267e-01,1.951452e+00,-1.112584e-01,2.571660e-03,2.436411e-01,-4.922021e-02,-4.961743e-01,8.812739e-03,-6.485817e-02,-9.146521e-02,-1.297358e-01,6.828599e-02,1.222801e-01,3.987176e-01,2.998249e-02,2.314015e-02,6.368964e-01,-1.337444e-01,-1.004221e-01,-2.397459e-02,-8.721340e-03,-1.211307e-01,4.846026e-01,-9.427315e-02,2.981297e-01,-2.120049e-02,-1.347820e-01,-3.459035e-02,-4.048844e-01,9.069908e-01,1.874577e-01,6.197109e-02,-1.645063e-02,
-1.650837e-01,3.756172e-02,-5.285463e-02,2.292566e-01,-5.600688e-02,1.793002e-01,1.282341e-02,2.345921e-01,-8.284451e-01,5.139181e-01,1.326169e-01,-5.025574e-01,-3.595728e-01,-2.986710e-01,-4.076795e-03,-2.684212e-02,-1.574097e-01,1.581357e-01,1.779657e-01,4.940392e-02,5.195277e-02,2.993022e-01,-1.156375e-01,-3.366739e-01,-1.912608e-03,2.171103e-01,-1.786019e-01,3.923930e-01,1.215496e-01,2.063545e-01,-1.099017e-01,1.206235e-02,-1.085383e-01,-4.151031e-02,3.991377e-01,2.484277e-01,1.064025e-01,-1.172696e-02,-3.495069e-02,-2.744868e-02,-6.569832e-02,-8.027751e-01,-1.780230e-01,-1.386789e-02,1.149535e-01,
-4.687890e-02,4.705179e-02,4.511671e-03,-2.508554e-02,-6.385343e-03,-3.229300e-02,-2.236087e-02,-7.958577e-03,-1.084915e-02,-2.532463e-03,2.721910e-02,1.618971e-02,-4.106411e-03,3.839925e-03,1.631272e-03,3.299981e-02,1.789277e-02,-4.359029e-02,-2.951133e-02,-9.403314e-03,3.085905e-02,-3.684192e-02,-3.718952e-02,8.479243e-05,-5.022223e-02,-3.389863e-02,-3.859913e-02,2.060244e-02,-1.349993e-02,-3.302113e-02,1.878194e-02,2.798450e-02,-1.922982e-02,1.146595e-02,-4.275303e-03,7.147893e-03,1.870035e-02,6.837994e-03,-2.560149e-02,4.057838e-03,-1.049424e-02,1.559079e-02,4.670929e-02,-9.878693e-03,2.857101e-02,
-2.759418e-02,1.478412e-02,-2.148060e-02,-6.471109e-02,-6.278569e-03,-4.746042e-02,-7.167515e-02,-3.740375e-02,2.519967e-02,-4.314683e-02,-2.731520e-02,-1.471375e-02,-8.980910e-03,-3.538438e-02,-6.962618e-02,4.075296e-03,3.094529e-02,-1.426008e-02,2.734417e-02,-1.759088e-02,-1.374535e-02,-2.065161e-02,1.783297e-02,4.601113e-02,-9.400400e-03,1.455372e-02,-3.261657e-03,3.268497e-02,-3.669128e-02,-3.176149e-02,4.462047e-02,-7.146626e-03,3.051997e-02,-2.599573e-03,1.665265e-02,-2.736337e-02,-2.035063e-02,3.438575e-02,2.129874e-02,-1.095396e-02,-3.209461e-03,5.823552e-02,-5.525468e-02,-3.474884e-02,-6.321465e-03,
4.355787e-01,2.564018e-02,2.071889e-01,6.364618e-01,4.297710e-01,-3.987837e-02,6.448254e-03,-1.854440e-01,-2.470328e-01,8.152892e-01,-2.180658e-01,-1.386996e-01,9.380078e-01,1.116398e+00,1.675597e-01,-4.937381e-02,-5.989248e-01,7.214165e-02,2.212869e-01,6.576291e-03,-2.748865e-01,-4.752095e-01,-1.783711e-01,1.072066e+00,3.180342e-01,4.975456e-01,2.867525e-01,2.409161e-01,-6.190432e-02,7.785384e-02,-1.947929e-01,-4.264254e-02,-1.346254e-01,2.112153e-01,-2.669729e-01,1.220395e-01,2.750996e-01,-2.616593e-02,-9.716839e-02,-1.522393e-02,-5.280145e-01,-1.559979e+00,-3.284722e-01,-4.996961e-02,3.785654e-01,
-4.606569e-02,-9.546242e-03,-2.050845e-02,2.559029e-02,-2.995731e-02,-3.799258e-03,-1.420808e-02,-2.264155e-02,-4.478988e-02,-3.891892e-02,2.973124e-02,3.393144e-02,-4.632890e-03,-3.727375e-02,-2.483479e-02,-1.919086e-02,1.987020e-02,-4.778430e-02,-5.537684e-02,-4.121956e-02,-3.371755e-02,-5.061864e-02,-2.466162e-02,-2.801987e-02,-2.754167e-02,-2.905134e-02,1.640744e-02,-2.110299e-03,6.316699e-03,-4.691733e-02,1.582898e-02,3.719803e-02,2.723586e-02,5.665719e-03,2.400878e-02,-2.454727e-02,-1.164503e-02,2.927837e-02,-3.726551e-03,2.024945e-02,-9.065537e-03,-5.495426e-02,-5.857812e-02,-4.442482e-02,-6.123140e-02,
-2.962757e-02,4.014258e-02,-8.630225e-03,1.223744e-02,-3.738687e-02,2.222833e-02,1.601162e-02,-4.048725e-02,-3.373301e-02,8.056898e-03,9.207585e-04,-1.855003e-02,1.377890e-02,1.619744e-02,6.926066e-03,-3.772752e-02,-2.923174e-02,1.718242e-02,1.877740e-03,1.929348e-02,-6.130278e-02,-5.732626e-02,2.347154e-02,5.956427e-03,-6.740364e-02,3.025981e-02,1.391477e-02,2.279956e-03,-8.355563e-03,-2.580192e-02,-2.474878e-02,-3.915013e-02,-4.264886e-02,-1.910313e-03,1.399302e-02,2.003185e-02,-3.557212e-02,-2.094104e-02,-2.573905e-02,-3.125543e-02,-2.055744e-02,-3.922340e-02,-4.294256e-03,-5.279740e-02,-2.776061e-02,
-5.615394e-03,8.671626e-03,5.141333e-02,5.139318e-01,-5.252231e-01,-4.184750e-01,4.309380e-01,1.411806e-01,-4.418893e-01,-1.279397e-01,-2.076361e-01,1.406055e-01,2.865822e-01,-2.719424e+00,-1.355618e-02,-4.654514e-02,1.115177e-01,-1.521750e-01,3.230633e-01,1.338866e-02,8.366792e-01,3.449979e-01,-2.702024e-01,2.956195e-01,-3.152325e-01,6.319079e-01,-8.665524e-02,2.790743e-01,-4.259489e-01,-5.974698e-02,6.920549e-02,3.472431e-02,-1.053745e-01,-9.448204e-02,-3.773975e-01,7.240828e-01,6.578929e-01,-2.382457e-02,3.459434e-01,-2.321514e-02,3.662807e-01,1.069719e-01,8.999008e-02,2.072217e-01,1.554323e-01,
-3.941695e-02,-5.045804e-03,-1.845508e-02,1.405129e-02,-1.799234e-02,-6.097537e-02,8.156844e-03,-4.369615e-02,4.649569e-03,-4.181692e-02,-3.149983e-02,-6.978294e-02,-3.104592e-02,-5.108673e-02,1.080710e-02,-4.218942e-03,-5.537338e-02,-2.324386e-04,-6.111497e-02,-4.021407e-02,1.404171e-03,-5.644367e-02,-4.627995e-02,1.861275e-02,-3.160806e-02,3.191985e-03,2.368609e-02,-5.005191e-03,8.121666e-03,1.643604e-02,-7.942152e-04,3.774584e-02,1.961325e-02,3.381179e-02,-6.276933e-02,1.508844e-02,-6.298213e-02,2.808955e-03,1.062680e-02,2.580929e-02,-5.149171e-03,-3.397497e-02,1.421504e-02,3.338887e-02,8.109033e-03,
-7.059046e-02,4.461770e-02,-4.286455e-02,4.867017e-01,1.534042e-01,2.527046e-01,-8.145003e-02,3.395419e-02,-7.472467e-01,-5.501399e-01,1.727059e-01,-1.132379e-01,3.591616e-02,1.980287e+00,1.824081e-02,-6.447438e-03,-1.260517e-01,-3.418272e-02,-2.124120e-01,-3.949309e-02,-1.324126e-01,4.288696e-01,4.507079e-01,2.060265e-02,-1.928408e-01,-1.404125e-01,2.695343e-01,9.681639e-02,3.273962e-01,1.072382e-01,-1.785980e-01,4.090589e-02,-5.021102e-02,-1.095070e-01,3.835651e-01,7.478673e-02,4.830409e-01,4.002084e-02,1.647412e-01,-9.999079e-03,-2.384276e-01,1.526377e+00,-3.053564e-01,-5.920940e-02,-1.585545e-01,
2.326124e-01,-3.158243e-02,-1.427639e-01,1.016428e+00,1.671331e-01,2.867856e-01,3.090908e-01,-1.112614e-01,-9.687170e-02,7.162008e-02,3.879516e-01,-6.332577e-01,-3.226117e-02,-2.427635e-01,-6.806989e-01,2.335203e-02,-7.654416e-01,1.013250e-01,5.685834e-02,2.557127e-02,1.763873e-01,3.040381e-01,-5.701819e-01,5.825331e-01,8.023505e-01,3.140509e-01,3.153700e-01,-1.560265e-01,1.016226e-01,-7.939760e-03,1.930479e-01,-4.868051e-03,2.938088e-01,1.578382e-01,-5.608367e-02,1.763812e-02,-1.232309e-01,-2.277402e-02,-7.780985e-02,2.052046e-02,8.890665e-01,-1.197586e+00,3.305981e-01,3.498640e-02,5.686799e-01,
-3.787226e-02,7.915841e-03,-3.002978e-02,1.569051e-03,3.512780e-02,1.032495e-01,1.917877e-02,-2.190685e-02,-3.037453e-02,3.770254e-02,-8.585501e-04,-1.399188e-01,-7.602936e-02,1.551941e-02,-4.932752e-02,3.266607e-02,3.683554e-02,-9.293643e-03,-2.123975e-02,7.913085e-03,6.805194e-03,-7.659202e-02,-5.253375e-02,-8.094562e-02,-4.646113e-02,-2.818433e-02,-8.639780e-02,2.535601e-02,-2.236076e-02,1.581795e-02,8.528889e-03,3.946025e-02,-2.834973e-03,-9.185495e-04,-2.167710e-02,6.132658e-02,3.267203e-02,3.250996e-02,-6.487347e-02,3.949495e-03,-1.356670e-01,8.275574e-02,-1.773987e-02,-5.499297e-02,4.372206e-02,
6.111574e-01,1.606124e-02,5.748817e-01,6.690657e-02,5.537655e-01,-2.981909e-01,4.145773e-01,-1.061416e-01,-3.978772e-01,1.586380e-01,-1.785273e-02,3.258110e-01,4.374900e-02,-5.239727e-02,9.429598e-02,2.077748e-02,2.817644e-01,3.342286e-01,1.342757e-01,2.451056e-02,-7.659646e-01,-1.220463e-01,3.804721e-01,7.643872e-01,3.132547e-01,-4.853337e-01,4.353676e-01,1.226456e-01,-6.317766e-01,7.094326e-02,8.397464e-01,-1.121536e-02,5.965337e-01,2.946222e-01,-4.282851e-01,-8.978913e-01,-4.973802e-01,-4.094833e-02,-4.057252e-02,-3.374372e-02,2.927504e-01,-2.378644e-01,-1.640254e-01,6.944869e-02,4.705809e-01,
-3.101823e-02,1.086549e-02,-4.052571e-03,-1.437691e-02,-3.228307e-02,-5.017649e-02,-2.290926e-03,1.833299e-02,-2.420955e-02,2.499278e-02,1.900825e-02,-6.641632e-02,-4.972588e-02,1.999344e-03,-3.200908e-02,-2.536622e-02,-2.259284e-02,-3.295949e-02,-2.173890e-02,4.314076e-02,-4.990691e-02,-9.157407e-03,-1.096749e-02,-4.172570e-02,-1.828180e-02,-7.785300e-03,5.475472e-03,-8.882119e-04,-4.222700e-02,-9.169028e-03,-1.305271e-02,-3.420613e-03,1.117787e-02,-1.588901e-02,2.323928e-02,-5.355353e-02,-1.635797e-02,-1.345803e-02,2.914516e-02,2.866222e-02,-1.850701e-02,-7.349425e-04,-6.534471e-02,6.298731e-03,-5.446620e-02,
-3.334750e-02,4.076162e-02,3.441943e-02,-2.652839e-02,3.847107e-02,3.428467e-02,1.149607e-02,2.962651e-02,-1.932981e-02,3.806863e-02,-1.890191e-02,-2.333448e-02,-4.480195e-02,3.178593e-02,-4.969072e-02,3.274924e-02,1.663095e-02,-1.546519e-02,-8.552218e-03,-2.627281e-02,-4.154103e-02,-5.793477e-03,3.305976e-02,-3.226865e-02,-3.765003e-02,2.336712e-02,4.624083e-03,3.201112e-02,-4.707052e-02,-4.613362e-02,-2.078028e-02,1.295453e-02,3.159997e-02,4.175493e-03,-4.993401e-02,1.358865e-02,1.048556e-02,-2.825882e-02,-3.419798e-02,-4.336410e-02,1.689503e-02,-6.800935e-03,7.882060e-03,-5.314860e-02,-3.154059e-02,
1.413141e-01,
1.859304e-01,
-1.178503e-01,
2.973434e-02,
1.260316e-01,
-4.460902e-02,
3.246482e-02,
8.145144e-03,
-3.032129e-01,
1.255315e-02,
-1.418100e-01,
-1.726279e-01,
2.417220e-02,
2.548688e-01,
-7.740591e-02,
6.903721e-02,
-1.134317e-02,
3.924163e-01,
-1.009409e-01,
4.966845e-01,
-5.413824e-03,
-2.934068e-01,
1.421475e-01,
-1.451163e-02,
5.520136e-01,
-6.943720e-04,
1.350378e-01,
6.637926e-02,
-1.810132e-01,
-6.869317e-04,
-1.135494e-01,
2.991674e-01,
-6.009217e-04,
-1.380071e-02,
-1.869572e-01,
-1.901402e-02,
-3.467694e-02,
3.587452e-01,
-3.175263e-02,
-3.217819e-02,
-3.214164e-01,
-8.079702e-03,
2.817200e-01,
-1.858087e-02,
-1.789743e-02,
1.821966e-01,-5.094949e-02,1.467215e-01,3.122341e-01,-1.479594e+00,1.724852e-02,2.871054e-01,5.075915e-01,-3.810931e-02,-7.441524e-02,1.556350e-01,-8.562315e-02,-4.413292e-01,1.036995e-01,3.326871e-01,2.498215e-01,-4.546084e-02,7.383421e-02,7.745247e-03,-2.741297e-01,4.502090e-02,-5.777963e-02,-1.390939e+00,-6.262506e-03,6.459486e-02,5.976493e-03,4.222799e-01,2.951145e-02,1.327821e+00,3.962332e-02,-9.903623e-03,-7.243537e-02,-1.001625e-02,-1.349174e-02,1.666281e+00,-3.609943e-02,4.787475e-02,-2.662557e-01,3.848184e-02,6.299327e-02,-5.456182e-01,-2.223513e-02,-2.827875e-01,-2.251585e-02,1.530048e-02,
-6.089768e-02,-2.183677e-01,2.753813e-01,5.901234e-01,4.245599e-01,-5.329398e-03,1.008411e-01,1.661553e+00,-4.412015e-02,1.000372e-01,1.999922e-01,-1.720337e-01,4.145949e-01,1.455093e-01,6.736378e-02,3.136203e-01,8.679902e-03,1.290652e-01,-1.225034e-01,-5.664111e-01,9.574699e-03,-2.424347e-01,4.732593e-01,-2.048489e-02,-7.760957e-02,2.245659e-03,5.383120e-01,2.732799e-01,6.736826e-01,-3.401727e-02,6.815021e-02,1.275871e-02,4.664898e-02,-5.570437e-03,1.092236e+00,-2.225564e-02,3.102295e-02,-1.736908e-01,-2.624109e-02,1.792249e-01,1.404635e-01,3.719178e-02,3.295287e-01,4.409777e-02,1.312108e-02,
1.388797e-01,2.210638e-02,8.456319e-02,-2.120059e-01,2.352203e-01,8.898263e-02,-1.578700e-01,1.546162e-01,5.351818e-02,1.107041e-01,5.194160e-02,1.113382e-01,2.091313e-01,-2.281406e-01,1.279005e-01,-2.127874e-01,1.792993e-02,-2.704216e-01,-4.378122e-01,-1.940547e-01,-3.871230e-02,-3.054882e-02,-3.391870e-01,-4.160741e-03,4.494361e-02,1.229669e-02,5.114458e-02,1.537006e-02,-4.734769e-01,-2.848738e-02,-1.042682e-01,1.759403e-01,-3.055291e-02,-1.456651e-04,-2.454038e-01,-1.872889e-02,1.701045e-02,-2.748159e-01,-1.134991e-03,-5.979303e-01,-1.478214e-01,-6.559273e-02,1.142285e-01,5.542202e-02,-3.623214e-02,
7.396376e-01,3.247108e-01,-1.837317e+00,-5.395261e-01,-9.011412e-01,1.809928e-02,2.984519e-01,-1.613892e+00,-2.990813e+00,-1.077761e+00,-4.621008e+00,3.250057e-01,2.587002e-03,6.178291e-01,-9.501204e-01,-5.929610e-01,4.847538e-02,-3.364162e-01,-2.256094e+00,1.126837e+00,3.611597e-02,-3.590926e+00,-1.839118e+00,-2.176975e-02,4.743764e-02,4.634042e-02,-1.132164e+00,-1.241492e+00,-1.635061e+00,4.859769e-03,-2.103935e+00,3.453401e-01,-6.577260e-03,-2.142864e-02,-3.726495e-01,-4.508226e-03,-2.856410e-02,4.442027e-01,4.453871e-02,-3.067908e+00,1.019164e+00,5.907593e-02,-2.055102e+00,-3.089314e-02,1.228305e-02,
5.171208e-02,7.226618e-02,-1.107726e-01,-3.636276e-01,9.681892e-01,1.543074e-01,6.091831e-02,1.968782e-01,9.844985e-03,-1.462134e-01,1.230895e-01,-1.103404e-01,-2.615356e-01,-1.418629e-01,-1.652634e-01,-2.444405e-01,-2.068186e-02,-1.256630e-01,-1.311831e-01,-1.448935e-01,3.753775e-02,-4.366556e-02,2.716332e-02,-1.774174e-02,4.959915e-01,1.953411e-03,-1.280874e-01,7.401287e-02,4.785186e-01,3.480859e-02,9.662195e-02,-4.352450e-02,1.674757e-02,5.214787e-02,-1.802595e-01,3.592117e-02,3.122141e-02,-4.101898e-01,-2.808934e-02,-1.980314e-01,-1.070325e-01,-5.084353e-05,-4.230070e-01,3.368358e-02,-1.633678e-02,
-2.066802e-01,-9.818599e-02,2.851412e-01,-1.329347e-01,-1.282147e-01,2.763800e-03,1.256678e-01,5.574677e-01,-1.005092e-01,2.437540e-01,2.183281e-01,-2.017967e-01,-1.409231e-01,-8.751259e-02,1.112263e-01,-8.105085e-02,-1.216493e-03,1.941167e-01,3.392843e-01,-3.939774e-01,-3.878063e-02,8.193601e-02,7.833087e-02,-7.857771e-03,1.798918e-01,-1.886669e-02,-2.872506e-02,-9.846739e-02,3.098015e-01,-9.717038e-03,3.125496e-01,-1.420357e-01,2.867688e-02,6.535491e-02,2.497366e-02,2.533763e-03,3.722370e-02,-2.421713e-01,1.284968e-02,-3.407153e-01,-2.249156e-01,4.089959e-02,2.157593e-01,-4.307593e-02,-3.109965e-02,
-3.685475e-02,-4.963021e-02,-5.070900e-02,9.356517e-03,1.281781e-02,1.610766e-02,-3.477611e-03,-7.155518e-03,-1.463392e-02,2.912387e-02,2.810218e-02,-2.418821e-02,-3.077294e-02,-4.090701e-02,-5.213013e-02,-1.984164e-02,-2.470605e-02,2.293997e-03,-1.477918e-02,-1.565710e-02,1.140376e-02,-1.117780e-02,1.486402e-02,-3.984384e-02,-4.414129e-02,-2.033198e-02,-4.648663e-02,-1.987122e-02,-2.938248e-02,2.877328e-02,-4.567135e-02,5.799987e-03,-8.576034e-03,2.452260e-02,3.006155e-03,-4.561198e-02,-1.306378e-02,1.696668e-02,-4.293881e-02,2.963293e-02,2.065694e-02,-1.188748e-02,2.894613e-02,3.397026e-02,4.845538e-03,
3.077080e-01,2.184889e-01,3.026502e-01,4.402630e-01,4.723409e-01,3.477667e-02,-7.281877e-01,-9.197057e-01,4.534661e-02,1.322326e-01,1.226051e-01,-5.298424e-01,-3.313464e-02,2.170220e-01,1.401261e-01,1.799548e-01,4.130019e-02,-1.513710e-01,1.289740e-01,6.545939e-02,6.321353e-03,1.247618e-01,3.905843e-01,2.428232e-02,1.427899e-01,2.349856e-02,1.785487e-01,2.237791e-01,-1.319311e+00,2.612962e-02,6.870966e-02,4.901673e-01,4.161324e-02,-3.345923e-02,-8.024860e-01,2.189270e-02,9.032429e-03,-3.245308e-02,3.423457e-02,2.935717e-01,-2.406635e-01,-6.099258e-02,6.852483e-02,-3.782872e-02,-2.576641e-02,
-2.681664e-01,-4.723959e-02,4.104733e-01,-6.565749e-02,2.322076e-01,7.892585e-02,-3.385565e-02,6.086200e-01,7.542382e-02,-1.701331e-01,1.111022e-01,-1.495892e-01,1.545062e-01,5.205586e-01,1.464399e-01,4.163333e-01,-4.502613e-02,-3.126372e-01,-5.288316e-04,9.010281e-03,1.565107e-02,-8.655525e-03,9.692334e-02,-2.308151e-02,4.774784e-02,-4.677595e-02,2.949789e-01,1.071502e-01,-2.221058e-01,7.520403e-03,1.201366e-02,-1.303163e-01,1.065083e-02,-3.645953e-02,5.055491e-01,-1.782672e-02,-4.476916e-02,9.716395e-02,-4.616980e-04,-1.536685e-01,-1.400411e-01,-2.065658e-02,-3.772417e-01,1.089772e-02,-2.055945e-02,
-1.172236e-01,-5.422662e-02,-3.455414e-01,-2.781751e-01,-3.234277e-01,-4.091602e-02,3.940363e-01,2.591246e-01,-1.406217e+00,-5.615319e-02,8.322811e-02,-1.670025e-01,8.365481e-01,5.688715e-02,-4.173703e-01,-1.956669e-01,-1.816586e-02,-1.497883e-01,-7.947838e-02,-3.125223e-02,1.106678e-03,-7.692910e-01,7.451022e-01,-1.441267e-02,2.146758e-01,-2.799838e-02,-4.146654e-01,2.731692e-01,1.977589e+00,2.475890e-02,-1.621413e-01,3.899519e-01,-3.448495e-02,3.227523e-02,-1.808013e+00,5.975164e-03,-1.551375e-02,-3.757806e-01,1.946305e-02,6.983938e-01,1.056936e+00,-8.361754e-03,5.124426e-01,-9.093232e-03,-4.477011e-02,
1.830741e-01,6.239282e-02,4.951455e-02,1.028116e-01,2.848531e-01,-8.301130e-03,4.362560e-01,-9.264169e-02,9.040700e-01,2.828576e-01,2.769980e-01,7.876945e-01,-1.062962e-01,2.297890e-01,3.428599e-01,4.178706e-01,-1.260021e-03,1.197080e-01,5.892477e-02,2.401159e-01,1.755775e-02,6.398483e-01,2.203346e-01,2.497856e-03,-2.814076e-01,3.307933e-02,2.152256e-01,2.199701e-01,3.795440e-01,1.067374e-02,5.616193e-01,-1.415921e-02,-2.982049e-02,-2.457692e-02,-4.193935e-01,1.460476e-03,4.085951e-02,-5.038740e-02,-2.785098e-02,1.135588e-01,8.798429e-02,7.402520e-03,6.544462e-01,-3.433014e-03,2.705167e-02,
-2.977386e-03,-1.020530e-03,-2.753251e-02,-1.454339e-02,-5.244510e-02,3.777977e-02,3.447389e-03,-4.650317e-02,-5.929742e-02,-4.428441e-02,-1.239296e-02,-1.697995e-02,-5.019097e-02,9.304759e-03,-5.970584e-02,3.423807e-03,4.059151e-02,-3.857566e-03,1.119655e-02,3.998247e-03,3.828005e-02,3.487187e-02,-3.949943e-02,3.204306e-03,-2.713638e-02,1.731136e-02,1.423051e-02,-3.245998e-02,3.860861e-02,-3.242538e-02,3.824429e-03,-1.567089e-02,-3.913207e-02,1.744056e-02,-2.910770e-02,-2.661612e-02,-1.548429e-02,-4.563930e-02,6.722777e-03,1.417995e-02,-4.968226e-02,-1.715881e-02,2.684070e-03,-3.320136e-02,-3.358322e-02,
1.465167e-02,1.553912e-02,1.321029e-02,-2.087908e-02,3.743816e-02,-4.955616e-02,-1.499740e-02,4.341596e-02,-2.701676e-02,1.080329e-02,-8.670396e-03,-2.466973e-02,-2.446792e-02,-3.977983e-02,-2.626568e-02,-2.386067e-02,-2.900003e-02,2.199435e-02,-7.442703e-03,-1.508203e-02,4.667388e-02,-2.821180e-02,-2.297445e-02,1.723399e-02,3.391808e-02,-2.952813e-02,-2.125362e-02,-5.081024e-02,-2.940437e-02,3.687579e-02,-3.142230e-02,-5.011944e-02,1.735033e-02,2.082392e-02,-1.846580e-02,2.109362e-03,1.841233e-03,4.636246e-03,4.106026e-02,-2.693837e-02,1.089556e-02,3.589025e-02,3.217018e-02,3.899432e-02,-8.217728e-03,
-2.141509e-01,1.068334e-01,-6.853751e-02,-6.500752e-02,7.819966e-02,5.812779e-02,-4.822516e-02,7.660275e-01,1.093569e-01,5.527889e-02,9.243388e-02,-3.821319e-02,1.545318e-01,5.237842e-01,1.588957e-01,-2.132158e-01,-4.157054e-02,2.771517e-02,-4.773111e-02,-1.718851e-01,-1.543941e-02,2.841539e-02,1.643767e-02,-1.856067e-02,-1.008378e-01,1.180347e-03,3.598357e-02,8.690775e-02,-4.886899e-01,-5.103387e-03,1.183919e-01,-1.612975e-01,-1.687745e-04,1.879480e-02,-3.575667e-02,-4.221005e-02,4.322395e-03,2.526038e-01,-2.804118e-02,-3.131913e-01,-5.237428e-01,1.084438e-02,1.222014e-01,-3.047124e-02,-1.322838e-03,
2.777544e-01,-4.146864e-01,-1.410116e-01,-1.132508e-02,2.637217e-01,-1.179517e-02,4.493753e-02,3.081571e-01,-2.741345e-01,3.712815e-01,-1.282770e-01,2.811375e-02,1.591402e-01,-2.805784e-01,3.077073e-01,4.453855e-01,3.562719e-02,-4.610364e-01,-1.762094e-01,-3.428208e-01,-4.106914e-02,-8.436362e-02,1.474271e-01,4.090862e-02,-3.365301e-03,-3.631984e-02,-2.079220e-01,-1.422154e-01,-4.579600e-01,-3.537177e-02,-2.584170e-01,2.311068e-01,2.891577e-02,-1.917655e-03,-5.130156e-03,3.007690e-02,-4.642104e-02,-1.370967e-01,-2.284348e-02,-2.866488e-01,1.806816e-02,2.601398e-02,1.136014e-01,-3.235973e-02,2.087910e-02,
-1.783158e-02,-4.083161e-02,-9.643972e-03,2.161600e-02,-5.031702e-02,3.790667e-02,5.646110e-03,3.951494e-02,-3.955491e-02,-5.538314e-02,-5.834803e-02,-1.268202e-02,1.411482e-03,-3.352899e-02,-2.087634e-02,-1.854633e-02,1.927776e-03,2.799114e-02,-4.240312e-02,-2.786900e-02,-1.310463e-03,3.778999e-02,-5.646040e-02,1.391984e-02,7.580486e-05,4.149714e-02,1.561217e-02,3.000468e-02,-7.185753e-03,-3.722712e-02,2.497924e-02,-2.204276e-02,-4.990555e-02,7.465257e-03,-4.317865e-02,-3.331472e-02,1.181853e-02,-2.344985e-02,-1.596318e-02,-2.072175e-02,2.914395e-02,-1.318556e-03,-4.697485e-02,-3.623829e-02,2.393604e-02,
-2.219187e-03,-9.373851e-03,-4.800141e-03,-5.210062e-02,1.022328e-02,2.916709e-02,-3.551864e-02,5.427913e-02,-4.053297e-02,3.336664e-02,-1.801073e-02,-1.201346e-02,-4.462139e-02,-3.690650e-02,-2.946572e-02,-2.791332e-03,-1.411633e-03,3.695277e-02,3.457237e-02,3.356161e-03,-9.297621e-04,-1.651357e-02,-3.267066e-02,4.576258e-02,-1.621602e-03,-3.289797e-02,1.210836e-02,1.933055e-02,-4.018120e-02,-2.103807e-02,-2.353650e-02,-6.076073e-02,-3.257980e-02,3.903634e-02,3.601902e-02,-4.975203e-02,1.634600e-02,-2.707427e-02,3.022760e-02,-5.751904e-02,1.443628e-02,-3.890283e-02,-2.617754e-02,-2.620811e-02,4.434394e-02,
-3.406599e-02,-2.691879e-02,6.889116e-03,1.358938e-02,-2.629815e-02,-3.185708e-02,-2.025404e-02,3.937070e-02,2.538653e-02,2.574792e-02,-1.097719e-03,-3.990838e-02,-2.715459e-02,-5.644833e-02,5.150383e-03,-3.043093e-02,-3.225841e-02,4.157611e-03,-2.177105e-02,1.691288e-02,2.834158e-04,4.519378e-04,-1.790076e-02,-1.310930e-02,-1.529870e-02,1.314695e-02,-5.875725e-02,-2.291251e-03,3.732550e-02,-7.218916e-03,-8.775962e-03,-5.442546e-02,1.597045e-02,-1.796946e-02,3.805786e-02,-4.415724e-02,8.289586e-03,1.000619e-02,-4.470766e-02,2.207511e-02,3.558585e-02,4.150940e-02,2.370030e-02,4.782611e-02,-4.193974e-02,
4.695170e-01,-1.750511e-01,2.653156e-01,-9.895425e-02,2.471701e-01,3.305389e-02,8.203961e-02,1.476933e-02,1.707160e-01,-1.863650e-01,3.414528e-01,-2.339901e-01,2.463959e-01,7.063834e-02,3.081391e-01,2.230809e-02,1.394571e-02,-2.122576e-01,-1.391216e-01,5.456550e-02,-2.116889e-02,-5.623844e-02,1.648403e-01,-3.691781e-04,1.957352e-01,-6.001865e-03,-3.945607e-02,-2.744982e-03,-4.662338e-03,-2.658876e-02,-9.618241e-02,-3.659924e-01,-4.522890e-02,-1.534211e-02,3.956588e-01,6.687451e-03,3.629374e-02,-2.390855e-01,6.814724e-03,1.217891e-01,-1.623589e-01,-2.465835e-02,-2.605668e-01,-1.483653e-02,2.430768e-02,
-3.014788e-01,1.882812e-01,-1.236876e-01,-6.524003e-02,-4.939829e-01,6.220815e-02,9.060612e-01,-5.089440e-01,-1.781124e-02,3.133617e-01,-9.058717e-02,5.565181e-01,2.451568e-01,1.588070e-01,-1.962991e-02,-1.469689e-01,4.586139e-02,-7.383171e-02,-1.228521e-01,-1.308321e-01,8.256769e-03,-1.109778e-01,-1.175777e+00,6.183712e-02,1.999080e-04,4.708213e-02,3.016748e-01,-8.210230e-01,4.012901e-03,2.446301e-02,8.148241e-02,-1.627148e+00,3.626603e-02,-4.218080e-02,9.722798e-02,-4.792249e-02,-3.094965e-02,2.218864e-02,8.964170e-03,-6.399411e-01,-2.109551e-01,-1.006138e-01,4.015127e-01,4.786630e-02,5.365771e-03,
-1.554014e-01,-5.130237e-02,2.033852e-01,4.569839e-01,1.149635e-01,7.611329e-02,-7.911646e-02,5.147843e-02,2.486423e-02,-1.743341e-01,6.288473e-02,1.038869e-01,-3.442133e-02,3.118820e-01,-8.483127e-02,-2.985799e-01,-2.030090e-02,-7.992197e-02,2.535816e-02,1.627020e-01,-4.981016e-02,-1.038787e-01,-4.198163e-01,2.382746e-02,2.799578e-02,1.721011e-02,-2.553310e-01,3.996258e-01,-7.956684e-01,1.147371e-02,1.388519e-01,-3.950128e-02,-8.152747e-03,-4.983080e-03,-8.127308e-03,6.206138e-04,2.467346e-02,2.935524e-01,-1.862958e-03,4.840804e-02,-4.923332e-01,6.724495e-02,1.117051e-01,4.056599e-02,3.848851e-03,
-1.041419e-02,2.618738e-02,-4.753425e-02,-4.719369e-03,-2.820356e-02,4.996287e-02,8.219323e-03,-1.458991e-02,6.075663e-03,-4.130794e-02,-3.467011e-02,-5.220244e-02,3.617400e-02,1.646712e-02,-5.853165e-02,-2.370932e-02,3.693444e-02,-3.837693e-02,-3.339089e-02,-6.598783e-03,1.501903e-02,-4.014802e-02,-2.555761e-02,2.874427e-02,2.965137e-03,-2.372387e-02,3.310216e-02,-2.189700e-02,5.870568e-03,-5.553097e-03,1.663571e-02,2.663024e-03,2.926527e-02,1.033104e-02,2.003894e-02,4.890283e-03,-2.603284e-02,-3.567076e-02,-3.132732e-02,-4.906161e-02,-2.379398e-02,4.264320e-02,2.832252e-02,-2.065432e-02,4.211925e-02,
-2.574377e-01,-2.062459e-01,1.081214e-01,6.091395e-01,1.652855e-01,5.856545e-02,1.764393e-02,9.206499e-01,1.050740e-01,1.424348e-01,1.531957e-01,1.977223e-01,1.436303e-01,4.254342e-01,-1.168453e-02,7.908391e-01,1.910407e-02,4.357702e-01,-4.383715e-01,-1.255205e-01,-3.081163e-02,-5.711962e-02,-7.020596e-01,-2.876960e-02,-7.643926e-02,-3.705117e-02,-1.467834e+00,-1.364966e-01,-1.383339e+00,-6.102594e-03,-5.070508e-01,-2.105581e-01,-3.845356e-02,1.966923e-02,-2.614191e-01,5.650871e-04,2.562593e-02,7.343225e-01,9.441826e-03,2.736656e-01,-3.776078e-01,-2.035245e-02,5.157214e-01,-2.766431e-02,-2.239658e-02,
-9.515571e-03,-2.767328e-03,1.767576e-02,1.445152e-02,4.129534e-02,-3.337890e-02,5.391687e-03,-1.030956e-02,4.400782e-03,-3.601053e-02,1.226056e-02,-4.582153e-02,3.971123e-02,-2.290983e-02,-1.782177e-03,-5.699792e-02,-8.348049e-03,-3.998485e-03,-1.993546e-02,1.317641e-02,-5.006052e-02,-3.387906e-02,1.027033e-02,3.292634e-02,-2.602980e-02,-3.694317e-02,-3.210956e-02,-1.357287e-02,8.433044e-04,-4.750462e-02,-2.665156e-02,-4.330097e-02,-1.447782e-03,1.471606e-02,3.773899e-02,-4.130786e-02,8.607117e-03,-2.796099e-02,-3.008755e-02,3.347430e-02,1.870587e-03,1.094474e-03,-2.533020e-02,4.865926e-02,-4.792624e-02,
-8.847062e-02,-2.032669e-01,2.703642e-01,2.054115e-01,4.170841e-02,4.089791e-02,-6.773935e-02,9.698448e-01,8.598650e-02,3.053426e-03,3.561049e-01,-1.253054e-01,1.819590e-01,1.778967e-02,2.258825e-01,3.929199e-01,-3.680635e-02,-7.296894e-02,-5.668365e-03,-8.003010e-01,-2.185837e-02,-2.939717e-02,-4.950451e-01,-1.976357e-04,2.762521e-01,-3.445723e-02,2.666289e-01,-3.784503e-02,3.741190e-01,-1.177105e-02,9.611562e-02,-3.424442e-01,1.285414e-02,3.620151e-02,-8.493530e-01,-1.603837e-03,1.247255e-02,6.793357e-02,-4.203626e-02,2.286720e-01,-7.145268e-02,-5.421514e-02,-6.291803e-01,-4.232144e-02,2.459649e-03,
5.191382e-02,-8.389661e-02,4.533384e-01,-2.885408e-01,-2.161635e-01,-1.407477e-02,8.285836e-03,1.005908e-01,8.010634e-02,-4.150545e-01,5.626276e-02,-3.463464e-02,-5.264666e-02,9.585618e-02,1.188114e-01,-2.086770e-01,-9.495764e-03,1.535370e-01,1.310018e-01,-4.987246e-02,-3.716492e-02,-6.295663e-02,4.426837e-02,-9.781474e-03,1.480688e-01,-1.165277e-02,-1.193458e-01,1.364420e-01,1.167228e-01,-3.474853e-02,8.223596e-02,-6.189835e-02,-2.877336e-02,-8.070136e-03,-4.729594e-01,3.601380e-02,2.044870e-02,9.758958e-02,-2.731525e-02,-1.147840e-02,6.929323e-02,-2.347543e-02,-4.056332e-01,-1.928154e-02,-2.251444e-02,
3.137193e-01,3.443420e-01,3.663269e-01,1.561169e-01,-3.035492e-01,1.986181e-02,-4.607503e-02,5.247482e-01,4.690956e-02,9.345984e-02,1.989124e-01,-1.165575e-01,5.123817e-01,-1.573736e-01,1.342566e-01,-1.842632e-01,-1.128640e-02,-3.461258e-01,-1.326024e-02,-1.147370e-01,-2.306456e-02,-1.262004e-01,3.129767e-02,6.541164e-02,-6.730123e-01,2.037402e-02,-2.950689e-02,-1.299230e-01,-1.529770e+00,-5.052575e-02,-7.720541e-02,8.947974e-03,2.917021e-02,-2.205361e-02,-1.032632e-02,-3.247863e-02,-3.725821e-02,-3.645325e-02,2.773429e-02,-8.072145e-03,2.469620e-01,-6.916852e-03,-4.172529e-01,4.689966e-02,-3.191192e-02,
-1.686258e-02,1.128050e-02,-3.611028e-02,-3.306791e-02,1.112340e-02,-4.409032e-02,-2.242118e-02,-1.970762e-02,-4.926813e-02,1.026072e-02,-4.245332e-02,-3.718006e-02,2.284048e-02,-4.622582e-02,1.352830e-02,3.248245e-02,1.427371e-02,-1.643936e-03,-2.127425e-02,1.867104e-02,4.015709e-02,-3.894897e-02,-9.838648e-03,4.831981e-02,-5.298031e-03,-1.909325e-02,1.125798e-02,2.437743e-02,-2.516299e-02,-3.952106e-02,4.357674e-02,-2.574209e-02,-4.887514e-02,3.497623e-02,-4.777228e-03,-1.958564e-02,1.239325e-03,-2.540929e-03,1.033237e-02,-3.588978e-02,2.633073e-02,3.172328e-02,3.391826e-02,-3.207580e-02,3.183907e-02,
8.076043e-02,4.103516e-01,-6.542276e-02,-1.121844e-01,8.326109e-02,-3.913153e-02,3.969494e-02,7.591471e-01,1.708607e-01,2.196109e-01,2.493030e-01,-8.481810e-02,3.821069e-01,-1.786794e-01,4.842878e-02,8.975765e-02,-1.077572e-02,-7.345689e-01,1.367607e-01,-3.509825e-01,1.572989e-02,8.325867e-02,1.574730e-01,-2.155934e-02,-1.092285e-01,-2.887604e-02,1.789566e-01,4.836006e-02,-6.551311e-01,8.633775e-03,-1.753327e-01,-4.295109e-01,1.479578e-02,-4.571592e-02,5.527321e-03,-2.251865e-02,-1.249026e-02,3.923417e-01,4.742091e-03,-2.573136e-01,1.789007e-02,-1.282815e-02,-3.678105e-01,5.198580e-02,5.101847e-02,
-9.321195e-02,-2.646174e-02,-1.273302e-02,3.654154e-02,5.274932e-02,3.057417e-02,8.027460e-01,-2.560020e-02,-1.669972e-01,1.009305e-01,5.876117e-02,1.123545e-01,-4.328354e-02,-1.973079e-01,1.172291e-01,-1.925628e-01,-4.572843e-02,7.850843e-02,1.730849e-01,-2.063496e-02,6.904353e-04,-1.300534e-01,7.639526e-02,-5.217391e-02,1.377302e-01,-1.539789e-02,1.150450e-01,4.649120e-02,-3.735390e-01,-3.300486e-02,-2.150214e-01,-2.549623e-01,-1.570092e-02,2.998501e-02,-5.672597e-01,2.379388e-02,-3.830796e-02,-2.795913e-01,-5.654701e-03,-2.847593e-01,-3.030658e-01,-4.463519e-02,-1.184148e-01,-4.189483e-02,-1.144331e-02,
-1.225575e-01,1.437543e-01,-1.018323e-01,1.657359e-01,2.173695e-01,-7.777383e-03,-6.142094e-02,2.354383e-01,7.899602e-02,-8.094974e-03,2.638142e-01,-8.558271e-02,1.396973e-01,1.793255e-01,6.927936e-02,5.203224e-03,-1.600831e-03,2.007462e-01,1.616248e-02,-3.464610e-01,4.356956e-02,-4.791087e-02,-1.651683e-02,5.393160e-02,-1.005590e-01,1.764134e-02,2.170588e-01,2.460048e-01,2.033673e-01,-2.081433e-02,9.587370e-02,-6.429138e-02,6.411750e-03,2.003026e-02,1.590127e-01,3.682401e-02,3.250980e-02,1.738555e-01,2.413293e-03,-1.192824e-01,-1.352365e-01,-4.250087e-04,1.316315e-01,4.538000e-02,-1.022552e-02,
-2.439922e-02,-3.463677e-02,1.336815e-01,-6.867602e-01,-2.405237e-01,1.249492e-02,-6.812578e-01,2.740609e-01,3.624834e-01,-2.840124e-01,3.679445e-01,-2.488585e-01,-7.584605e-02,-1.311155e-02,-1.118273e-02,2.261802e-01,8.643224e-03,-9.842891e-02,1.287459e-01,9.918448e-02,-3.507006e-02,1.146685e-02,-2.947417e-02,-2.478260e-02,-4.178789e-01,-1.365102e-02,5.659672e-02,2.802670e-01,6.539423e-02,3.414245e-04,1.987702e-01,4.615026e-01,-4.274784e-03,-1.652674e-02,1.768087e-01,2.977402e-02,-1.590750e-02,2.883289e-01,-1.166259e-02,5.597011e-02,3.197981e-01,6.410448e-02,-7.337688e-01,-2.507896e-02,-2.036881e-02,
2.436572e-03,-5.882066e-02,1.559701e-02,-6.824736e-04,2.303348e-05,3.796597e-02,-4.655553e-03,-2.713834e-02,-2.963566e-02,2.781365e-02,-4.278288e-02,-3.175258e-02,-2.900447e-03,-3.566768e-02,3.307077e-02,1.597595e-02,-2.940273e-02,-4.412270e-02,9.657853e-03,2.629205e-02,-1.895908e-02,-3.815109e-03,-2.584757e-02,-3.361636e-02,1.100953e-02,-1.000980e-02,3.546306e-02,3.579229e-02,2.041570e-02,-9.317646e-03,-3.314335e-02,-4.496216e-02,-8.902904e-03,1.717825e-02,2.051935e-02,-7.096049e-03,3.340509e-02,-3.874126e-02,1.947259e-02,3.404406e-02,-1.030804e-02,1.896477e-02,-1.527583e-02,-1.615596e-03,2.260315e-02,
4.101630e-01,1.728678e-01,-8.078627e-02,-2.840364e-01,-5.462198e-01,2.122322e-02,-2.059384e-01,-1.093815e-01,1.940368e-01,7.767452e-02,-1.173755e+00,2.711259e-02,2.250326e-01,-7.793709e-02,2.095667e-01,-1.638805e-01,-7.580327e-03,-2.532911e-01,-5.197782e-02,9.615602e-01,2.383886e-02,8.277456e-02,-5.483137e-01,5.506574e-02,-1.533049e-01,1.945348e-02,-5.240581e-01,-6.117374e-01,-3.240069e-01,-4.324352e-02,2.650954e-01,-3.511231e-02,-1.232506e-02,-3.187501e-02,4.344898e-02,3.194028e-02,-3.185171e-02,5.444162e-01,-5.558062e-02,-1.854945e-01,-2.176497e-01,3.844135e-02,1.253241e-01,-2.675093e-02,-2.092722e-02,
2.071796e-01,2.414073e-01,-1.968189e-01,2.370579e-02,-5.271413e-01,5.385261e-02,7.644058e-02,3.504127e-02,-8.881929e-02,1.013683e-03,1.600865e-01,-1.205633e-01,-2.365725e-01,-4.034995e-01,-1.311909e-01,-6.365009e-01,-1.623718e-02,2.760423e-02,-1.148787e-01,2.178382e-04,-4.963462e-02,-1.412654e-02,9.118647e-02,-5.826926e-02,1.862517e-01,-4.511146e-02,6.466121e-01,4.850118e-02,5.366717e-01,2.030319e-03,9.874427e-02,2.562868e-01,-4.394010e-02,-3.547578e-02,6.977412e-01,1.939218e-02,2.812888e-02,-2.127309e-01,1.230761e-02,4.188588e-02,-8.807630e-02,-4.824392e-02,-3.256526e-01,-8.607999e-03,3.253164e-02,
-3.402742e-02,3.528990e-02,-5.360379e-02,-3.854387e-03,8.456582e-03,3.533241e-02,-5.503744e-02,3.876027e-02,-4.785976e-02,3.090777e-02,-5.398646e-02,-4.442004e-02,1.355761e-02,-1.614350e-02,2.293763e-02,-5.417788e-02,-5.349131e-03,1.538548e-02,-2.820122e-02,3.241455e-02,7.700596e-03,-4.989785e-02,3.201065e-02,-1.229081e-02,-3.619786e-02,1.736619e-03,-5.488562e-02,2.228014e-02,-2.298819e-02,3.578917e-02,3.770150e-02,-5.621885e-02,-1.570497e-02,4.040708e-02,-3.477820e-02,3.366037e-02,-4.868582e-02,-4.700410e-02,-3.501578e-02,2.549595e-02,3.286685e-02,-4.314191e-02,-2.693521e-02,-4.811257e-02,4.010936e-02,
-3.687851e-01,-2.062299e-01,1.355903e-01,2.403107e-01,4.182732e-01,8.765412e-03,7.193359e-02,2.015735e-01,7.378680e-02,8.751154e-02,2.574518e-01,-1.436385e-01,-4.777900e-02,-2.972142e-01,3.503305e-01,2.967158e-01,1.240355e-02,-8.746762e-02,1.589614e-01,-1.568424e-01,-9.294596e-04,-1.344458e-02,1.738904e-01,4.490477e-03,-2.570390e-01,3.485629e-02,2.662469e-01,9.906047e-02,2.568068e-01,-2.721672e-02,-2.905501e-01,-4.829842e-01,-4.583534e-02,1.693175e-02,-4.663008e-02,-2.193266e-02,4.138765e-02,6.120447e-02,-5.228860e-02,6.828165e-02,1.145912e-01,-7.711468e-02,-5.645298e-01,-1.213569e-02,-4.268483e-02,
4.709096e-02,-1.525025e-02,-2.877022e-02,-8.276787e-03,-3.618309e-02,-9.734945e-04,-4.072164e-02,1.478018e-02,-3.933344e-02,-2.876619e-02,-6.079114e-03,-1.901199e-02,-1.458793e-02,-2.167561e-02,2.259539e-02,1.181271e-02,4.223715e-02,-3.130645e-02,2.201017e-02,3.138439e-02,1.104029e-02,2.152111e-02,-4.352094e-02,4.393075e-02,-2.984015e-02,3.873784e-02,4.467149e-02,-4.008191e-02,5.783397e-03,-2.560309e-02,-2.865936e-02,1.317758e-03,1.981609e-02,-5.963833e-03,-2.467608e-02,-3.474205e-02,-1.333128e-03,-4.121454e-02,2.297239e-02,2.180662e-02,3.980508e-02,-1.673420e-03,2.336622e-02,4.622655e-02,2.382138e-02,
-4.124321e-02,-6.539747e-04,2.475781e-01,8.081375e-02,1.238417e-02,1.590572e-02,-3.694457e-02,-1.924540e-02,1.041410e+00,4.664946e-02,1.841161e-01,6.275303e-01,1.062947e-01,-3.162692e-02,1.565673e-01,-5.019650e-02,2.877405e-02,-4.080279e-01,5.360907e-02,5.917967e-02,-2.356677e-02,6.862616e-01,-6.216370e-02,-3.648582e-02,-1.494797e+00,-1.154195e-02,9.630366e-02,-2.410887e-02,-2.504710e-02,1.548130e-03,6.084145e-01,-1.115901e-01,-1.544058e-02,9.274863e-03,-2.555661e-02,4.701850e-02,1.461595e-02,-2.855426e-01,4.585670e-03,9.231722e-02,2.217847e-02,1.552384e-02,-5.367765e-01,-8.280065e-04,9.678885e-03,
-6.046809e-02,1.009297e-02,-5.420669e-02,-3.774665e-03,3.222640e-02,3.765264e-03,2.705192e-02,-5.866506e-03,2.059279e-02,4.112677e-02,-4.133268e-03,-4.752301e-02,8.019296e-03,-6.046164e-02,3.371490e-02,2.247879e-02,1.268519e-02,2.355677e-02,1.910444e-02,-2.320248e-02,3.232202e-02,-1.220057e-02,-1.837754e-02,4.179699e-02,-2.980820e-02,1.166179e-02,-6.183372e-02,-1.534116e-02,2.739747e-02,-2.716690e-02,-4.055231e-02,-5.522655e-02,4.578386e-02,9.130878e-03,1.443496e-02,4.483349e-02,-3.194200e-02,-3.390949e-02,-2.032080e-02,-3.396414e-02,-4.393565e-02,-3.678863e-03,-7.341230e-03,2.924714e-02,8.887486e-03,
1.340085e-01,3.046479e-01,-2.926069e-02,4.673078e-01,-2.345258e-01,-5.973280e-02,-9.268167e-02,-3.703113e-01,-2.893943e-01,2.558220e-01,3.811382e-03,-2.447851e-01,4.041163e-01,3.198052e-01,-6.948725e-02,1.287526e-01,-6.776073e-03,3.200456e-01,2.462105e-01,3.094511e-01,2.110933e-02,-2.496036e-01,1.641827e-01,2.238622e-02,-1.817921e-01,4.524678e-02,-1.793287e+00,1.904694e-01,-9.979090e-01,-6.954752e-03,-4.614520e-01,-2.426098e-01,3.847534e-02,1.015286e-02,2.436507e-01,-4.634880e-02,-2.325132e-02,3.412808e-01,1.550206e-02,1.136445e-01,2.513058e-01,-1.044072e-02,2.303773e-01,-9.824828e-03,-3.989033e-02,
-1.382196e-01,7.249739e-02,4.862713e-02,-2.419457e-01,-2.375268e-01,3.495404e-02,-2.040253e-01,-9.704926e-02,1.069189e-01,-5.944011e-02,1.269437e-01,-2.879736e-03,-1.134720e-01,-5.690644e-02,1.907144e-02,3.202004e-02,1.769255e-02,-1.419837e-02,3.991990e-02,-1.184166e-01,1.996028e-03,1.436256e-02,-1.074870e-01,2.027840e-02,-1.315119e-02,-2.151810e-02,-7.774274e-05,2.489590e-01,1.199247e-01,-1.706034e-02,1.665155e-01,1.462374e-01,-3.625003e-02,1.578500e-02,-1.203782e-01,4.608068e-02,3.850888e-02,1.077659e-01,6.999425e-03,9.551740e-02,8.921779e-02,3.562216e-02,2.334042e-02,-2.509144e-03,-3.481552e-02,
-2.209709e-01,-5.908532e-01,1.743916e-01,-4.665782e-02,1.417287e-01,-3.224824e-02,7.055151e-02,1.261839e-01,7.905654e-02,1.414734e-01,1.021105e-01,-1.100508e-01,-9.214449e-02,3.110976e-01,1.467296e-01,3.585622e-01,-2.320887e-02,-1.571127e-01,-5.219527e-01,2.442431e-02,4.272228e-02,-1.384369e-02,1.064444e-01,6.613323e-04,1.577172e-01,-1.940478e-02,-3.548211e-01,5.500906e-02,9.973595e-01,-3.460217e-02,-3.242766e-01,3.583252e-02,9.833808e-03,2.487158e-02,4.340636e-01,1.006717e-02,-1.763809e-02,-5.329595e-01,-5.687257e-03,1.403410e-01,1.685549e-01,3.936180e-02,4.581356e-01,3.151578e-02,-2.788300e-02,
2.537213e-03,-4.153211e-02,-3.740884e-02,-1.436743e-02,-1.021693e-02,-3.871702e-02,5.576370e-02,4.336290e-02,6.606502e-01,-5.929637e-02,1.398406e-01,4.699209e-01,6.387603e-03,-1.389060e-02,7.472750e-02,4.628249e-02,4.571843e-02,-2.486103e-01,-7.224392e-02,-1.659158e-02,-7.847681e-03,4.161924e-01,-4.720511e-02,1.483978e-02,-1.028975e+00,1.060086e-03,1.571690e-01,9.229288e-02,2.080080e-01,-4.049698e-02,3.357033e-01,-6.127924e-02,-2.394185e-02,2.885656e-02,1.181501e-01,-1.089669e-02,-3.009420e-02,-1.046471e-01,-1.793905e-02,-1.027901e-01,3.565462e-02,-3.659170e-02,-2.314314e-01,4.428436e-03,4.358914e-02,
-4.702802e-02,5.089480e-04,2.210968e-02,-3.394742e-01,-8.115976e-02,3.385862e-02,-3.862333e-01,-7.835144e-03,1.372901e-01,-7.643516e-02,1.423923e-01,-8.025063e-02,-1.447741e-01,9.652629e-02,9.207242e-02,3.487214e-02,-3.895866e-02,-7.553867e-02,2.236678e-02,4.442466e-01,-7.375556e-03,1.424021e-01,-4.468872e-02,1.934796e-02,1.231498e-02,1.337830e-02,6.026134e-02,4.442757e-01,4.634596e-02,-1.915282e-02,9.564450e-02,5.710372e-01,-1.680348e-02,-3.350199e-02,-9.450319e-02,6.589562e-03,-3.116882e-02,1.052961e-01,1.974280e-02,6.108394e-02,2.192881e-01,1.484226e-03,-1.382311e-02,2.034572e-02,4.149288e-02,
-1.752857e-01,
-1.519861e-01,
3.595074e-01,
4.384194e-01,
2.314577e-01,
1.700028e-01,
-1.392820e-02,
-4.725099e-01,
-1.327121e-01,
-4.587435e-01,
-3.686320e-02,
-2.370659e-02,
-1.780673e-02,
1.549796e-01,
6.247793e-01,
-6.042587e-03,
-2.081042e-02,
-9.401877e-03,
1.705967e-01,
-9.743100e-02,
-4.906370e-02,
-9.951906e-03,
9.621885e-02,
-1.010672e-02,
2.665412e-01,
-2.991171e-03,
2.098366e-01,
-8.657530e-03,
2.063195e-01,
4.237979e-01,
1.158315e-01,
1.037557e-01,
-7.549864e-03,
1.921732e-01,
-4.718718e-02,
-6.744537e-03,
4.005066e-01,
-3.438686e-03,
-6.119875e-01,
-1.056257e-02,
5.602105e-01,
4.316723e-01,
5.076596e-01,
-3.899226e-01,
6.038612e-01,
1.520993e-01,-1.633215e-01,-1.021604e-01,1.980153e-02,-2.988985e-01,-4.591023e-02,-5.107765e-02,-2.667737e+00,-1.921130e-01,-1.188203e-02,2.258213e-01,1.676918e-02,-2.424227e-02,-2.461786e-02,-1.335667e-01,-4.769203e-02,-6.032632e-02,-3.267411e-03,-2.670400e-01,3.227566e-01,-1.126210e-01,1.696701e-02,6.527337e-02,-3.951696e-02,-1.358949e-02,-2.062437e-01,-6.797317e-02,-2.361013e-02,4.323289e-02,1.229089e+00,-1.934632e-01,-4.546032e-01,2.107503e-02,1.405730e-01,-2.151986e-01,-8.614328e-03,6.046619e-02,2.345417e-02,-7.276111e-02,2.392493e-02,-5.091611e-02,-4.922112e-01,-2.062334e-01,4.365209e-02,-6.827515e-01,
-8.642597e-01,1.471340e-01,1.241646e-01,-2.050021e-02,-5.586418e-02,1.144936e+00,-7.411172e-03,2.150224e-01,-2.947609e-01,-1.306414e-03,-2.111308e-01,-3.483581e-02,2.426025e-02,-5.485976e-02,2.004273e-02,-4.078684e-02,3.242085e-02,-2.819417e-03,-1.692259e-01,-1.820903e-01,5.341211e-03,1.602364e-02,-3.250213e-01,2.953187e-02,-1.804464e-01,-2.992037e-01,-6.350932e-02,1.019015e-02,-1.531018e-01,1.610741e-01,-2.340425e-01,-6.268350e-01,1.225495e-02,5.075424e-01,-6.717705e-02,-2.304310e-02,6.575053e-01,1.919921e-02,-1.869129e-01,-8.636037e-03,-6.912404e-02,2.335425e-02,-8.082988e-01,-1.381044e-01,1.721257e-01,
-2.326622e-01,1.311672e-02,2.370041e-01,-4.255260e-02,-1.739789e-01,-9.131881e-02,3.154707e-03,-1.621786e+00,-3.542711e-01,-9.882005e-01,-3.203126e-02,-2.655387e-02,-1.302167e-02,2.058688e-02,9.272197e-02,2.378828e-02,-2.342519e-02,3.207290e-02,-3.628924e-01,-7.916484e-01,3.693394e-02,-4.732635e-02,7.168649e-03,-6.570077e-04,-2.241283e-03,-1.554262e-01,-1.040375e-01,3.929889e-02,-9.316733e-02,9.507059e-02,1.781476e-01,-2.800904e+00,8.008738e-03,-2.766850e-01,-8.007321e-02,2.110712e-02,-1.754300e-01,-2.697373e-02,1.531704e-02,2.520853e-02,-6.164432e-02,7.220468e-01,2.320203e-02,-6.862246e-02,1.215959e+00,
4.306299e-02,-8.895204e-03,3.912073e-01,3.495837e-01,1.607200e-01,4.712482e-01,-3.188498e-03,6.853997e-01,-5.160490e-02,1.170214e+00,-1.035874e+00,1.952791e-02,-5.096773e-03,1.395036e-01,2.809114e-01,-2.320946e-02,1.108652e-02,4.372807e-02,1.052490e-01,2.633181e-01,2.943856e-01,-3.485994e-02,2.334381e-01,3.476487e-02,3.072341e-01,6.528398e-02,4.251788e-01,4.433789e-02,3.479263e-01,5.120959e-01,1.438543e-01,5.883970e-02,4.209232e-02,4.281296e-01,1.846794e-01,3.207409e-02,9.859557e-02,-3.257744e-02,-2.060179e+00,-2.815070e-02,9.510420e-01,2.209942e-01,-4.957493e-02,-9.782837e-01,2.939518e-01,
-3.445955e-01,2.226456e-01,2.649079e-02,-3.165905e-02,-9.779583e-01,4.887134e-01,4.641189e-02,3.641868e-01,-2.602993e-01,3.280496e-01,-2.334705e-01,4.228630e-02,3.186272e-02,1.181491e-01,-2.891774e-01,-2.108369e-02,-1.552900e-02,-1.248043e-03,-5.439265e-01,-1.786835e-02,-3.957721e-01,-4.550282e-02,2.839996e-01,-2.164510e-02,-1.907852e-01,-1.942265e-01,7.051020e-01,7.093051e-03,4.495129e-02,3.054010e-01,2.066812e-01,1.652105e-01,1.477377e-02,2.784440e-01,-3.101195e-01,-2.289106e-03,-1.750550e-01,1.272558e-02,-1.440802e+00,-6.476746e-02,1.234075e+00,1.806428e-01,-3.019966e-01,-3.062318e-02,-2.454808e-01,
1.014409e+00,9.503796e-01,9.664611e-01,-1.208080e-01,3.808276e-01,1.280654e+00,1.195972e-02,-2.060438e+00,-4.682805e-02,-2.649036e-01,-2.555793e-01,4.756691e-02,8.403425e-03,4.999082e-01,1.141727e+00,-2.612142e-02,-1.744759e-02,-4.735548e-02,5.810814e-01,-8.093844e-01,8.142832e-01,3.614667e-02,-3.442277e-01,-4.225340e-02,1.319929e+00,8.727238e-01,1.044145e+00,3.573377e-02,4.580955e-01,1.198244e-01,7.010856e-01,-2.064107e+00,2.508297e-02,1.661100e+00,1.287103e+00,2.912852e-02,1.481986e+00,3.762734e-03,4.586462e-02,1.640999e-02,1.099182e+00,1.483821e+00,4.361612e-01,6.368115e-03,2.179106e+00,
1.125817e+00,-5.735736e-01,-5.179537e-01,1.529054e-01,1.097450e-01,-3.136974e-01,8.029944e-03,-2.109615e+00,3.547554e-01,2.551351e-01,3.286329e-01,4.737522e-02,-4.487786e-02,-4.067320e-01,1.510359e-01,-2.236007e-02,-2.903130e-02,-1.559848e-02,2.215877e-02,-3.062792e-01,-3.941071e-01,-4.247759e-03,-4.227120e-01,-1.909693e-03,-2.944770e-02,7.922608e-02,-1.870482e-01,3.146317e-04,2.067361e-01,1.126521e-01,-4.002800e-01,-2.183316e-01,-2.224543e-02,6.356117e-01,-3.275909e-02,2.488376e-02,-1.606115e-01,-3.126816e-02,-2.218417e-01,1.699443e-02,3.815450e-01,-1.403345e-01,1.572822e-01,2.415618e-02,-2.334852e-01,
2.051012e-01,1.110842e-01,1.551150e-01,-5.007152e-02,-1.243440e-01,3.216537e-02,-2.470827e-02,-1.248583e-01,1.883518e-01,3.798162e-01,1.191411e-01,-5.064510e-02,4.174726e-03,4.858837e-02,1.949688e-01,-2.278079e-02,-2.933662e-02,2.792647e-02,7.324806e-02,2.683629e-01,-2.088573e-01,8.978145e-03,-9.376226e-01,-3.278817e-02,3.215994e-01,-2.351414e-01,1.589142e-01,-2.408208e-02,4.681697e-01,-3.442586e-01,9.767254e-02,-9.540646e-02,2.199039e-02,3.683092e-02,6.233257e-01,3.475241e-02,-6.582078e-01,3.038160e-02,-6.838092e-03,-4.568671e-02,-9.100165e-01,1.266696e-01,-3.518807e-01,-3.328247e-01,1.024503e-01,
-5.185482e-01,-1.683289e-01,-2.080189e-01,3.089397e-02,4.234444e-01,-3.321408e-01,-6.657559e-03,-4.994986e-02,5.111677e-01,2.007460e-01,1.746190e-01,2.809589e-02,-3.546131e-02,-1.327117e-01,9.860724e-01,4.255655e-02,5.562546e-02,1.580017e-02,1.657765e-01,5.211704e-02,2.254082e-01,2.890828e-02,4.836349e-01,2.255603e-03,2.060801e-01,1.004389e-01,-5.613619e-01,-3.808206e-02,-1.616298e-01,-5.040094e-01,-5.694659e-01,-5.559213e-02,-4.176925e-02,9.660333e-02,-1.460538e+00,6.025043e-02,4.285409e-01,-2.789873e-02,-1.125078e-01,2.690321e-03,2.872619e-01,-9.136440e-02,7.748572e-01,-2.302924e-02,-1.825700e-01,
-1.867733e-02,4.899196e-03,-5.128131e-02,-3.581534e-03,1.719457e-03,4.660956e-03,1.548858e-02,-1.533034e-02,-3.251261e-02,-6.369195e-03,-1.407301e-03,7.476028e-03,4.895626e-02,-3.500046e-02,-1.483638e-03,-3.258729e-02,-3.966215e-02,2.875189e-02,-1.505648e-02,-2.515196e-02,-3.969577e-02,2.971692e-03,3.854110e-02,-3.713614e-02,-4.393966e-02,2.963996e-03,-5.910029e-03,-1.487866e-02,-3.990342e-02,-5.043786e-02,-5.618508e-02,8.541578e-03,1.998914e-02,-1.492118e-02,8.028948e-03,-9.740457e-03,-3.418992e-02,-3.123658e-02,-1.973634e-02,-1.781670e-02,-1.723958e-02,-4.242107e-02,-5.722761e-02,-1.475016e-02,3.231593e-02,
1.801673e-02,-2.333759e-02,2.765877e-01,-8.933686e-03,1.059388e+00,-2.013746e-01,-1.906208e-02,-5.901274e-02,-1.595707e-02,-4.928173e-02,1.077063e-01,1.195576e-02,-2.139053e-02,1.165674e-01,1.507201e-01,-1.700736e-03,2.702356e-03,3.334024e-02,-1.316457e-01,-1.362275e-02,6.578778e-02,-1.755936e-02,3.073951e-01,-7.115496e-03,1.349991e-01,3.427053e-01,7.903545e-02,-2.559163e-02,-4.364496e-02,-6.512306e-02,5.915202e-02,1.004395e-01,-4.081526e-02,1.527688e-01,-5.067323e-01,-2.124915e-02,9.832051e-02,-3.482667e-02,-1.022499e-01,-6.152640e-03,-1.812792e-01,-3.795991e-01,-1.933415e-01,-4.045182e-02,1.081128e-01,
6.340046e-01,-9.701041e-02,-3.081001e-01,-8.176938e-02,2.847401e-01,8.863467e-01,-4.317091e-03,1.383213e-01,5.967119e-01,9.490541e-02,-2.481997e-01,-4.501479e-02,-4.259332e-02,2.340842e-01,-7.849228e-02,-3.674294e-02,2.544835e-02,1.012564e-02,1.523448e-01,-3.912599e-02,-1.673807e-01,2.820027e-02,-3.119672e-01,3.202091e-03,4.293045e-02,1.845617e-01,-8.692584e-04,-4.563617e-02,-5.861585e-01,2.206352e-01,-1.673009e-01,-1.130802e-01,4.977417e-02,3.385005e-03,-6.696759e-01,6.239115e-03,-4.554326e-01,2.216686e-02,1.698050e-01,3.870102e-02,-8.247394e-02,-6.591645e-01,2.465848e-01,1.077867e-01,3.765061e-01,
5.093781e-01,5.825187e-03,1.994837e-01,-1.158407e-01,-4.051313e-01,-9.171201e-02,-1.230073e-02,5.790231e-02,-1.247873e-01,-2.428818e+00,7.958455e-02,9.361375e-03,-4.703620e-02,7.086286e-02,7.738035e-01,1.147044e-02,3.541277e-02,3.153901e-02,-7.525575e-01,-5.763366e-02,1.274896e-01,-3.101286e-02,3.155301e-01,-4.601895e-02,7.207180e-01,5.074732e-01,-2.780544e-01,2.006644e-02,-5.963998e-02,5.192602e-02,4.751061e-02,7.131681e-02,1.529183e-02,2.062473e-02,-1.383155e+00,3.594509e-02,-1.515961e-01,4.738659e-02,4.810616e-02,1.797397e-02,-9.686005e-01,4.989650e-02,-7.355101e-01,-7.251727e-02,8.086704e-02,
-1.899411e-02,8.747575e-03,3.257923e-02,-4.221723e-02,-3.736899e-02,2.814320e-02,4.055605e-02,-5.054963e-02,-4.697236e-02,3.695055e-02,-3.407686e-02,-2.057665e-02,4.532719e-02,-7.337222e-03,-1.814380e-02,3.074699e-02,-1.316231e-02,-9.436049e-03,-1.397557e-02,3.498789e-02,9.163738e-03,-3.489564e-02,2.214256e-02,2.172758e-02,-3.473664e-02,-2.162752e-03,-5.554396e-02,-4.942822e-03,1.903171e-02,-5.159655e-02,2.772819e-02,3.013279e-02,-4.235715e-02,3.715821e-03,1.023955e-02,2.920648e-02,1.065005e-02,2.669525e-02,-2.164624e-02,-4.396093e-02,1.902971e-02,-1.708109e-02,-2.556637e-02,1.075480e-02,-4.022176e-02,
-1.250695e-02,-4.372106e-02,-5.028329e-01,-1.399275e-01,-3.816927e-01,-5.521498e-02,4.588056e-03,-1.494213e-01,2.435127e-01,-1.253833e-01,3.684414e-02,-3.551255e-02,-3.062515e-02,1.577473e-01,1.786768e-01,-2.880397e-02,2.690569e-02,2.998900e-02,-2.020474e-01,4.164806e-01,2.091989e-01,-2.971385e-02,-9.064733e-02,8.913966e-03,6.052091e-02,-5.111668e-02,-1.987198e-01,2.971350e-02,-6.195083e-01,-3.244468e-01,7.298587e-02,-2.100468e-01,-1.298093e-02,3.777824e-01,1.958846e-01,3.164274e-02,5.822176e-01,1.641135e-02,-8.559447e-02,9.701011e-03,1.950565e-01,3.927640e-01,-3.262875e-01,7.836397e-02,1.044568e-02,
-2.099385e-02,3.310886e-02,1.901006e-02,-4.630048e-02,-2.585088e-02,2.381190e-03,4.395938e-02,2.857626e-02,1.318674e-02,-2.595699e-02,-5.993981e-02,3.566208e-02,1.949873e-02,-3.524510e-02,3.867170e-03,-3.714881e-02,1.986173e-02,-2.802544e-03,-4.509698e-02,5.450567e-03,-4.957630e-02,-1.376261e-02,-4.387480e-02,1.323811e-02,-4.146292e-02,-4.778315e-02,1.262568e-02,9.539612e-03,-5.926192e-02,-5.608276e-02,1.348742e-02,-4.894802e-02,-4.230150e-02,-1.496513e-02,-5.765352e-02,-1.380130e-02,-1.132239e-02,-1.282506e-02,-4.342783e-02,-3.978668e-02,5.114839e-02,9.828710e-03,-3.353323e-02,-4.196765e-02,-1.546336e-02,
-4.719715e-01,-3.215955e-01,1.058463e+00,7.910732e-02,-6.102927e-02,-9.535482e-02,5.407518e-03,2.128841e-02,2.756957e-01,1.943581e-02,4.568457e-02,-3.975068e-02,-1.994121e-02,-6.090093e-01,-1.688653e-01,4.039070e-02,-3.086105e-02,6.576833e-03,1.321844e-01,-5.107315e-02,-7.457151e-01,-2.831186e-02,1.731119e-01,4.248817e-02,3.870999e-01,-4.452593e-01,1.144043e-01,-3.026979e-03,-1.656690e-01,2.785021e-02,-1.192344e-01,-5.636567e-01,4.417918e-02,-8.833439e-01,2.612257e-02,-2.508664e-02,5.904952e-01,-4.653855e-02,-9.722184e-02,-5.569771e-02,1.661160e-01,1.816935e-01,-1.626227e-01,8.707373e-02,1.458672e-01,
-3.195916e-02,-1.133738e-01,-3.551199e-01,7.636805e-02,-3.104191e-01,-2.858714e-01,-3.522330e-02,-4.032367e-01,5.408332e-01,1.858728e-01,-5.647540e-01,-1.618990e-02,4.052922e-02,4.353265e-01,-3.285448e-01,4.011141e-02,-4.425519e-02,-1.579496e-02,9.464695e-02,-9.844729e-03,-8.049749e-02,1.104964e-03,-2.132489e-02,-2.879685e-02,3.008538e-01,8.109362e-02,1.789263e-01,3.952074e-02,3.394346e-01,5.040890e-01,-3.819976e-01,3.950229e-01,-3.601890e-02,-1.889431e-01,1.263657e-02,-1.382025e-02,2.692758e-01,4.407062e-02,7.954484e-02,1.898720e-02,-1.257689e-01,-5.617249e-02,6.334879e-01,-2.412620e-01,2.449278e-01,
-5.783729e-02,-5.836602e-02,-1.720290e-02,-3.058608e-02,4.073286e-02,-1.211505e-02,9.311066e-03,1.545542e-02,-3.552404e-02,3.922930e-02,-2.078198e-02,-3.457750e-02,-3.433943e-02,-2.390206e-02,-6.328303e-02,2.311962e-02,2.563290e-02,-3.249228e-02,-9.911686e-03,2.685165e-03,-5.697813e-02,-4.225488e-02,-2.229064e-02,-1.339377e-02,2.335401e-03,-4.946220e-02,6.917484e-03,1.319741e-02,-4.984854e-02,1.632281e-02,-5.108470e-03,-1.525020e-02,4.959851e-03,-2.941945e-02,3.327814e-03,4.696816e-02,-1.359025e-02,-3.804211e-02,1.614978e-03,2.390924e-02,3.757951e-03,2.558778e-02,-1.401704e-03,-6.670802e-03,6.312251e-03,
-2.902183e-02,4.389086e-02,-6.468161e-01,8.844548e-02,6.929593e-01,1.515122e-02,1.272932e-02,-3.179930e-01,3.635656e-01,1.310974e-02,-1.804449e-01,-1.583555e-02,2.765080e-02,5.426781e-02,2.833924e-01,-3.020760e-02,-2.236480e-02,1.856057e-03,2.839489e-01,1.806756e-01,-2.843693e-01,3.436666e-02,-5.085185e-01,-3.898862e-03,-6.855792e-02,7.495289e-02,-4.033620e-02,-3.891071e-02,4.614629e-01,-3.844309e-01,-1.771747e-01,-4.156242e-01,3.978746e-02,1.941080e-01,3.132381e-01,-9.098448e-03,1.422985e-01,-8.190464e-03,3.579113e-01,9.715299e-03,2.814593e-02,1.469236e-01,-8.933841e-01,-3.057762e-01,1.475662e-01,
