// Neural Network File Format by Kyle Julian, Stanford 2016
7,4,7,45,
4,45,45,45,45,45,45,7,
0,
-8000.0,-100.0,-100.0,6.0,
8000.0,100.0,100.0,40.0,
0.0,0.0,0.0,23.84210526,-3.8529093497767,
16000.0,200.0,200.0,34.0,26.8591142426,
-5.172946e-01,-3.957892e-01,4.079070e-01,5.986759e-01,
-7.399473e-03,-1.769786e-03,-4.457264e-03,9.889364e-01,
2.252046e-02,-4.203130e-03,1.643327e-02,1.101609e+00,
-1.719674e+00,3.482888e-01,-3.526126e-01,1.870765e-01,
-4.055968e-02,-2.764784e-02,-3.206657e-01,8.189450e-03,
-1.355102e+00,1.525503e-01,-1.390988e-01,-5.064814e-01,
2.306803e+00,-1.096208e-01,1.076150e-01,-1.797552e-03,
2.949018e-03,3.961901e-01,6.302783e-04,-4.821841e-04,
1.504737e-01,-8.375069e-02,7.797342e-02,-5.837367e-01,
-1.945834e+00,9.803459e-03,3.749165e-03,1.941906e-01,
-1.000232e-02,6.352941e-03,6.061092e-03,6.448457e-01,
-3.904173e-01,1.726581e-01,1.561489e-01,2.390945e-01,
-2.431285e-01,3.102563e-01,1.859854e-01,1.324085e-01,
1.919525e-02,5.039107e-02,-1.626813e-02,7.843552e-01,
1.523048e-02,3.463282e-02,8.270011e-03,1.683909e-02,
1.902264e-01,3.401500e-01,-3.522014e-01,4.677327e-01,
6.901652e-03,1.883969e-02,-1.484737e-03,4.687242e-03,
1.554058e+00,5.047521e-02,-4.320648e-02,-4.430283e-01,
6.162228e-02,5.695490e-02,-9.746444e-02,2.216581e-01,
-1.959379e+00,2.244627e-01,-1.843918e-01,-1.049858e-01,
3.603359e-01,3.110074e-01,-2.414597e-01,4.609717e-01,
-2.411532e+00,-7.128272e-02,4.089400e-02,7.629835e-03,
-6.055795e-02,7.671860e-01,-7.559264e-01,1.010239e-02,
3.110403e-01,-9.553920e-02,6.064896e-03,1.897370e-01,
-2.591308e+00,-7.271343e-02,6.694077e-02,-7.949558e-03,
-5.466357e-02,2.173469e-02,2.280298e-01,5.944218e-03,
2.582165e-02,1.289905e-01,-1.294852e-01,-1.968618e-01,
1.349267e-02,5.928682e-03,1.531634e-03,1.237862e+00,
-1.916332e+00,5.307462e-01,-5.263258e-01,-5.650521e-02,
2.042849e-02,3.282315e-02,3.409422e-03,-2.992474e-03,
8.514409e-03,9.137101e-03,2.301397e-03,7.678693e-04,
-2.240331e-04,-7.803187e-05,1.892368e-04,1.599660e-02,
1.083906e+00,-4.262059e-01,4.408723e-01,4.486052e-02,
-1.849165e+00,-4.589231e-01,4.639052e-01,-1.305622e-02,
1.970591e+00,6.928988e-02,-2.451086e-02,3.975253e-02,
-4.488755e-02,7.949718e-02,8.141682e-04,3.464184e-03,
-2.277833e-02,6.981798e-01,1.264606e-02,1.059517e-02,
-1.867042e+00,2.122629e-02,-1.670122e-02,-1.836056e-03,
3.433667e-01,4.100063e-02,1.676587e-01,1.586613e-01,
-6.257615e-01,1.961431e-01,-2.370203e-01,1.953251e-02,
1.829845e-02,-6.855207e-03,9.136050e-03,8.860149e-01,
2.432957e+00,2.289573e-02,-4.027397e-02,-5.563939e-03,
6.647511e-01,5.903566e-01,-6.003876e-01,3.364216e-02,
5.782654e-04,-1.777059e-04,1.520927e-04,3.890096e-03,
-3.361947e+00,-4.232705e-02,2.109659e-02,2.206948e-03,
-4.353920e-02,
-4.452088e-01,
-7.788425e-03,
7.595531e-03,
-1.441472e-03,
-1.379058e-01,
1.052105e-01,
-4.094267e-03,
-3.139603e-02,
2.197798e-02,
-8.602383e-03,
-1.261418e-01,
-1.929622e-01,
-4.349850e-02,
-3.793399e-02,
-2.859171e-02,
-1.606400e-02,
-2.702878e-01,
8.787411e-02,
-5.360946e-02,
-2.364715e-01,
-5.586087e-02,
9.325113e-04,
-8.436085e-02,
1.271998e-01,
-3.424918e-03,
-1.627715e-01,
-9.200000e-03,
-3.040176e-02,
-3.664866e-02,
-1.084625e-02,
-1.008884e-02,
6.772612e-02,
-9.592948e-02,
-7.093829e-02,
2.050165e-03,
1.218776e-01,
1.196033e-01,
-4.311851e-02,
5.644568e-02,
-7.233991e-03,
2.728985e-02,
-2.552459e-01,
-4.317621e-03,
2.172375e-02,
1.932822e-01,-1.014791e+00,-4.562388e-02,-1.214910e-01,-1.968885e-01,2.090866e-01,5.863482e-03,4.057724e-01,1.016117e-02,-1.086357e-01,-1.316469e-03,-1.095200e-01,-3.511328e-01,-5.303783e-02,1.122798e-01,-1.889068e-01,2.780844e-01,-3.090944e-01,8.325587e-02,-9.235470e-03,-1.139454e-01,-5.166761e-02,-1.400358e-01,2.621133e-01,6.235940e-02,2.586327e-01,-6.855152e-02,5.457959e-02,2.499565e-02,1.742868e-01,2.566040e-01,3.902061e-02,-7.525646e-02,-8.973546e-02,5.522137e-01,-1.004120e-01,9.196506e-03,2.658427e-01,4.031765e-02,6.172116e-01,4.368375e-02,-1.050587e-01,6.071770e-02,-4.179919e-02,-2.138265e-01,
-5.450262e-01,-2.484041e+00,1.915681e-02,6.758389e-01,3.316520e-01,-4.988432e-01,3.980763e-01,4.320141e-02,-3.853917e-01,3.573504e-01,4.925647e-02,6.113780e-01,-1.697536e-01,2.673070e-01,2.053032e-02,-5.781031e-01,3.875181e-02,-1.477880e-01,-4.036151e-01,1.977767e-01,6.902874e-01,4.944066e-01,-3.076407e-01,-2.426790e-01,-1.284601e-01,3.079516e-02,-6.329553e-01,1.131635e-01,1.235152e+00,3.434467e-02,1.267919e-02,-1.824826e-02,7.167861e-01,-3.164654e-01,-1.006440e-01,-2.601390e-01,2.963035e-02,-3.747109e-01,1.052086e-01,-2.344768e-01,-2.402250e-02,5.704120e-01,-2.173809e-01,-3.319085e-02,-7.858796e-02,
1.508685e-01,6.309487e-01,2.832456e-01,3.430209e-01,-4.500693e-01,-3.646152e-01,5.016419e-01,3.311802e-01,1.676383e-02,2.568383e-01,2.532678e-01,7.597145e-02,5.189794e-01,3.566934e-01,1.248160e-01,2.869738e-01,5.928482e-02,7.158591e-01,1.031196e-01,6.231762e-01,5.595686e-01,-3.727141e-01,-4.040855e-01,-5.204565e-02,5.766668e-01,6.867380e-02,-6.134415e-02,3.287356e-01,4.664168e-01,1.218767e-01,1.715654e-01,-2.049151e-02,-3.668205e-02,-1.934896e-01,4.064062e-01,4.148468e-01,1.374200e-01,3.524324e-01,3.252386e-01,6.041156e-03,3.301506e-01,2.871430e-01,1.122513e-01,1.222550e-02,1.025739e+00,
-2.276634e-01,3.445983e-02,5.660437e-01,2.864158e-01,-7.173047e-02,4.320139e-01,5.547664e-01,1.665426e-01,1.854332e-01,-3.059316e-01,5.101870e-01,-5.376869e-02,-2.744924e-01,3.916970e-01,1.645006e-01,4.260474e-01,6.798820e-02,2.854618e-01,1.289218e-01,7.830329e-01,3.459058e-01,-2.154206e-01,-4.537948e-01,4.219622e-01,2.148641e-01,1.401554e-01,-3.907973e-02,6.972652e-01,7.924424e-01,9.601838e-02,1.233229e-01,1.772463e-02,-1.338502e-01,-5.119728e-01,3.335337e-01,2.470007e-01,1.288020e-01,9.538925e-02,9.811301e-03,2.691526e-02,6.108276e-01,7.939430e-01,-1.926456e-02,-1.316892e-02,8.182773e-01,
-3.080476e-02,-1.594918e-02,2.897070e-03,-5.046811e-02,9.481109e-03,-3.535036e-02,-4.886862e-02,4.052419e-02,1.812579e-03,4.236474e-03,-4.505759e-02,4.491118e-02,-2.326227e-02,1.397505e-02,3.753788e-02,3.076849e-02,-4.420459e-03,-2.459828e-02,-4.803831e-02,2.672365e-02,-4.510251e-02,1.194116e-03,-1.107826e-02,-6.828615e-03,3.016709e-02,2.378817e-02,1.108413e-02,1.730985e-02,-2.611592e-02,-3.853404e-02,-3.428724e-02,3.676752e-02,-2.196317e-02,-1.500594e-02,1.350438e-02,-2.373901e-02,-3.110748e-02,-1.174070e-02,1.038989e-02,-4.608623e-02,3.806870e-02,-1.879812e-02,-1.653223e-02,2.739478e-02,-5.915888e-02,
-1.190402e-01,-2.096986e+00,1.073614e-02,-1.472601e+00,1.093125e+00,-4.990803e-01,2.158628e-01,6.324824e-01,-3.068533e-01,-1.352356e-01,1.030011e-02,3.876040e-01,6.264538e-01,1.641783e-01,1.693514e-01,-1.376184e-01,1.625677e-01,7.027711e-02,2.167793e-01,1.609012e-01,-3.221287e-01,8.840691e-01,-3.293093e-01,-5.756638e-03,4.127813e-02,2.731606e-01,2.092645e-01,1.030117e-01,-3.724933e-01,5.480662e-02,1.479204e-01,-7.955314e-03,-8.243003e-02,-3.387514e-01,-4.680641e-01,4.017870e-01,1.744974e-01,-1.231193e-03,2.062789e-01,8.208866e-02,2.887380e-02,9.017769e-02,5.574960e-01,4.089719e-02,-7.795511e-02,
-8.837415e-03,-5.044208e-02,7.327327e-03,-5.430942e-02,-3.815491e-03,1.623799e-02,4.896106e-03,-1.893635e-02,1.094545e-02,2.434656e-02,-3.928535e-02,-2.537190e-02,5.219456e-03,3.800633e-02,-4.874025e-02,1.788211e-02,-4.198579e-02,-2.626837e-02,-3.100856e-02,2.204693e-02,1.744421e-02,1.196187e-02,3.413327e-02,-8.940523e-03,1.136534e-02,2.712142e-02,-1.962270e-02,-4.307064e-02,-1.109116e-02,-3.859390e-02,-2.378757e-02,4.127494e-02,-5.285916e-02,-8.740062e-03,-2.590568e-02,-3.116259e-02,-4.324863e-02,-5.549515e-02,-1.814937e-02,-3.738776e-02,-1.821210e-02,-4.585373e-02,-1.600333e-02,4.159296e-02,-1.776683e-02,
8.010882e-02,1.593177e+00,7.682233e-02,2.041155e-01,-7.078096e-01,3.562731e-01,3.213812e-01,1.040208e-01,2.406175e-01,-3.140077e-03,1.530120e-01,1.980465e-01,2.378444e-01,-2.446872e-01,1.324039e-01,5.233105e-01,1.645105e-01,2.243019e-01,1.479466e-01,-2.381616e-02,2.104681e-01,6.030777e-01,-1.260646e-01,-6.933973e-02,-2.099410e-01,1.403336e-01,-1.067912e-01,1.036651e-01,-1.853185e-01,4.066706e-02,2.137686e-01,-3.120114e-03,-4.180418e-01,-4.784467e-01,-3.470598e-01,-2.370229e-01,-2.275425e-01,-4.187013e-02,-1.857566e-01,-5.962329e-02,1.730409e-01,3.289260e-01,5.684902e-01,1.363907e-03,-1.072332e-01,
-1.852836e-01,1.526540e+00,6.138936e-02,3.704790e-01,-1.143958e-01,-4.179762e-01,8.174864e-02,3.531009e-01,1.121604e-01,7.427111e-02,1.217950e-01,-2.160544e-01,2.906172e-01,-3.032059e-01,4.772116e-02,-2.094630e-01,2.103894e-02,1.895697e+00,-6.119019e-01,7.047890e-02,-1.893505e-01,9.317501e-02,-1.161174e-01,5.682595e-01,1.510577e-01,3.557780e-01,3.195352e-01,1.652162e-01,3.005216e-01,1.031738e-02,5.624166e-02,-3.812143e-02,1.092333e-01,-3.026237e-01,-4.932555e-01,1.737542e-01,2.851436e-01,-2.068069e-02,-2.357564e-01,-7.200509e-02,1.581933e-01,-2.130944e-01,2.617942e-01,-3.143336e-02,3.966675e-01,
-1.657632e-01,5.304425e-01,2.583422e-01,7.152404e-03,6.863997e-01,4.622737e-01,9.049757e-02,1.142733e+00,1.964887e-01,9.526978e-02,2.150399e-01,5.867852e-02,1.073615e+00,-1.082998e-01,5.062899e-02,1.370285e-01,2.726763e-01,-1.221165e-01,1.229788e-01,1.833500e-01,-7.406873e-02,4.623456e-01,-1.063155e-01,-6.377403e-02,1.633964e-02,-1.482305e-02,-8.182450e-02,2.404840e-01,1.499572e-01,1.133707e-01,1.377054e-01,5.297525e-03,1.451878e-01,-2.207439e-01,7.504009e-02,2.019374e-01,6.860625e-01,-1.395407e-01,4.062617e-01,-8.830687e-02,1.567241e-01,4.815692e-02,9.442927e-02,-2.682160e-03,1.991594e-01,
9.579291e-02,8.334134e-01,-1.214044e-01,4.626651e-01,4.910857e-01,-3.135757e-01,-8.619025e-02,-4.718148e-01,1.292349e-01,-2.075858e-01,-3.458206e-02,-2.653525e-01,1.514478e+00,-4.906782e-01,5.650333e-02,3.612576e-01,2.527934e-02,5.905567e-01,-3.667747e-01,-3.164867e-01,3.099009e-01,-6.652484e-02,9.991110e-02,2.274569e-02,3.302147e-01,-4.630725e-03,-6.532930e-01,8.454214e-02,5.297475e-01,4.523471e-02,1.824795e-02,-4.508960e-02,-1.844925e-01,-3.269786e-01,2.155406e-01,-1.954010e-01,-1.642898e-01,1.573126e-01,-3.576307e-02,5.405618e-01,3.342613e-02,-1.394589e-01,-6.943237e-01,3.129493e-02,-8.044089e-02,
1.006924e+00,-9.999048e-01,-3.350298e-01,2.604915e-01,-1.612718e-01,-7.709099e-01,-3.187346e-01,-1.009262e-01,-9.922239e-01,-2.320688e-01,2.118910e-01,-2.329209e-01,-3.598867e-03,-2.582652e+00,3.162729e-02,6.724898e-01,-1.087425e-02,-2.131162e-01,2.746140e-01,-9.178242e-02,-9.316847e-01,-8.338065e-01,3.817751e-01,-2.908171e-01,3.273773e-01,-8.338679e-02,-5.780876e-01,-1.178888e-01,6.743929e-01,6.643076e-02,1.553623e-02,4.633028e-02,-8.025714e-01,-7.747406e-01,4.281364e-01,1.053990e-02,4.713083e-02,2.843772e-01,4.546311e-01,3.320657e-01,1.610955e-01,-3.107165e-01,6.182196e-01,9.537384e-03,-4.281869e-01,
1.416604e-01,-8.009257e-01,5.791785e-01,4.364093e-01,1.455635e-02,-4.359690e-02,8.875000e-01,-3.093562e-01,1.175348e-01,6.382377e-02,5.741702e-01,1.826901e-01,1.267525e-01,6.485813e-01,2.134195e-02,2.503797e-01,-4.657471e-04,3.125292e-01,3.080622e-01,-3.122260e-01,1.527450e-01,1.051869e+00,-3.898792e-01,1.203691e-01,-1.056641e-01,-3.361827e-01,-1.701519e-02,4.830286e-01,4.614939e-01,1.033342e-02,-2.234500e-02,-1.428434e-02,2.023389e-01,-6.216224e-02,2.003942e-01,-1.055874e-01,1.615999e-01,-4.314426e-01,3.316019e-02,-1.422410e-01,5.100452e-01,1.150707e+00,-3.724862e-01,1.246209e-02,-6.403002e-01,
2.123602e-02,-5.695069e+00,1.076359e-02,-1.149921e-01,-1.430516e-01,-6.819370e-01,4.299887e-01,8.805956e-03,7.444620e-02,-1.849706e+00,-5.487490e-01,-3.671378e-02,-3.099882e-02,1.121158e+00,-3.312692e-01,-1.318872e+00,-5.768790e-01,-9.562890e-01,-3.574045e-01,-8.593892e-02,9.609279e-02,-2.400440e-01,-4.145528e+00,-8.658876e-01,-5.214165e+00,2.978125e-01,7.624864e-02,-8.859339e-02,-1.095821e+00,-1.221792e-01,-9.497188e-01,4.614643e-02,2.938884e-01,9.420174e-02,-3.976465e-01,1.300162e-01,-1.242374e-01,-2.613718e+00,1.625465e-02,-4.480013e-01,-2.811412e-01,3.266512e-01,-4.951522e+00,-2.274721e-02,-4.839469e-01,
4.618634e-01,2.283858e+00,-1.678632e-01,-6.971686e-01,4.332182e-01,-1.357193e-01,-1.753267e-01,3.169472e-01,2.316507e-01,1.104262e-01,-3.279426e-02,1.109518e+00,-3.032041e-02,-1.171368e-01,9.013051e-02,2.523669e-01,1.179472e-01,-1.983287e+00,7.611721e-01,-4.229467e-01,3.769684e-01,2.115990e-01,2.985511e-01,-2.953392e-01,-2.197053e-01,-9.148576e-01,5.266253e-01,-8.626615e-02,-3.025491e-01,7.998800e-02,1.664930e-01,1.540047e-02,-2.346544e-01,3.815184e-01,6.090657e-02,2.229456e-01,3.708041e-01,-9.090526e-02,2.795739e-02,1.494744e-01,6.440130e-02,-4.033263e-01,-1.924732e-01,-5.772504e-03,-5.715748e-02,
8.868165e-02,5.050453e+00,2.225714e+00,5.172666e-01,1.415051e-02,-3.116129e-01,4.366135e-01,-9.576755e-03,-1.155790e-01,3.406307e-01,1.985857e+00,-1.669301e-01,-3.582400e-01,1.490206e-01,-3.992461e-04,-4.490901e-01,1.149158e-02,1.144494e+00,-1.288016e-01,3.983533e-01,-4.634599e-01,7.677360e-01,-6.520704e-01,-3.794456e-01,1.469484e-02,-8.216292e-02,7.371486e-03,2.426687e+00,6.284021e-01,5.215760e-02,4.837792e-02,-1.093033e-02,-9.160891e-02,-1.468502e+00,2.331000e-01,-6.011826e-02,7.257945e-02,-1.494899e-01,1.327707e-01,8.102958e-02,1.940666e+00,4.957215e-01,-4.166425e-02,-4.604758e-02,5.220410e-01,
-4.687274e-01,-6.416282e+00,2.755373e-01,-4.434838e-01,2.369860e-01,4.433569e-01,-4.674594e-01,2.965039e-01,4.628168e-01,-2.464459e-01,3.119213e-01,-1.073412e-01,6.345133e-02,-1.382761e+00,-2.533956e-02,4.420153e-01,-5.365690e-02,-3.020859e-01,4.354256e-01,-9.435980e-02,2.212936e-01,4.918947e-01,-1.303745e-01,-5.071713e-01,4.940997e-02,-8.008847e-02,-6.464148e-01,4.306076e-01,-2.618964e-01,-1.861292e-02,-6.481475e-03,-4.070028e-02,-2.550522e-01,1.159476e-02,4.285321e-01,-1.204991e-01,-1.112502e-02,2.510344e-01,-7.890732e-01,5.238109e-01,3.404490e-01,-6.782338e-02,2.339552e-01,2.169598e-02,-1.277595e-02,
-5.465608e-01,2.538005e+00,-3.166169e-02,-7.002109e-02,-1.213339e+00,7.554547e-01,-5.051322e-02,-3.526218e-01,6.185225e-02,-2.350844e-01,4.864271e-02,5.958817e-01,6.782437e-01,-2.951769e-02,8.189002e-02,3.381448e-01,3.965033e-02,3.033804e-01,8.584100e-01,-7.087184e-03,-1.672635e-01,4.186700e-01,-2.711366e-01,-1.727845e-01,-6.025082e-02,1.453208e-01,6.015081e-02,5.016535e-03,3.278018e-02,5.048530e-02,1.990578e-01,-2.916787e-02,-6.546287e-01,4.179115e-01,2.097684e-01,-2.935811e-02,1.612713e-01,3.021300e-01,-4.537885e-01,1.760270e-01,2.132263e-02,1.307316e-01,8.252088e-01,1.816222e-02,-4.140479e-01,
9.229224e-01,-6.905549e+00,-4.380919e-02,-8.313012e-02,2.448860e-01,-1.803331e-01,-3.102700e-01,4.481367e-01,3.531621e-01,-5.800799e-02,7.590177e-02,6.357965e-01,-4.325437e-01,-5.789002e-01,6.310911e-02,5.302520e-03,8.523584e-02,-1.459268e+00,2.981901e-01,-3.249678e-01,3.244148e-02,-2.208851e-01,8.474644e-01,8.186804e-01,-3.755669e-02,2.524997e-01,-1.928847e-02,1.173512e-01,2.211917e-01,4.964126e-02,8.240802e-02,1.408166e-02,-3.830104e-01,2.962852e-01,-1.541964e-01,3.904854e-01,1.364562e-01,-1.677491e-01,-6.026894e-01,3.698193e-01,1.818217e-01,-3.268480e-01,-1.566098e-01,-2.538268e-02,-7.237914e-01,
-1.011755e-01,8.326176e-01,-8.649468e-02,-3.110175e-01,1.988102e-01,9.018763e-01,1.988687e-01,-1.378710e-01,-3.990841e-01,-3.481861e-01,-2.717501e-02,1.485167e-01,1.913657e-01,-3.478580e-01,2.928773e-02,8.597823e-01,-5.752457e-02,-6.091907e-01,6.468937e-01,5.012187e-02,-2.415038e-01,5.989822e-01,-1.067924e-01,1.146900e-01,1.209750e-01,-1.164651e-01,-4.296031e-01,1.075810e-01,-3.970301e-01,1.062082e-02,7.130573e-02,3.564731e-02,-1.682494e-01,4.354480e-01,-1.376584e-01,6.595268e-02,1.039943e-01,3.021199e-01,3.541778e-02,-1.910248e-01,1.142746e-01,1.790226e-01,2.686474e-01,-4.047384e-02,-6.507692e-01,
8.606133e-02,-1.884522e-01,5.230280e-02,-1.494416e-01,-7.142947e-01,-5.449122e-01,-1.480259e-01,1.299086e+00,-1.339770e-01,-4.620209e-01,-5.677030e-02,-2.136779e-01,3.628730e-01,2.515372e-01,1.463690e-01,3.757390e-02,2.963798e-01,6.123095e-02,1.634809e-01,4.765401e-01,-3.522046e-01,-1.350889e+00,-8.165555e-02,1.172332e-01,3.248182e-01,-3.571290e-01,-2.502957e-01,2.670509e-02,1.870482e-01,1.545045e-01,1.052686e-01,-3.957496e-02,-5.391526e-01,-3.899920e-01,9.789018e-02,5.377617e-01,8.027887e-01,1.312755e-01,-3.875280e-01,3.000038e-01,1.686156e-03,3.599440e-01,-1.249106e-02,9.906832e-03,1.025230e+00,
5.407999e-02,3.282077e-02,-2.811777e-02,1.660392e-01,1.672382e-01,-8.567572e-02,1.254881e-01,-6.487234e-02,9.567875e-02,6.195463e-02,3.033992e-02,1.083762e-01,2.101524e-02,6.549167e-03,1.080154e-01,-5.674708e-02,1.090355e-01,-2.453997e-02,5.095875e-01,-6.013480e-01,8.921986e-03,6.522558e-01,-9.790578e-01,1.914807e-01,-5.084091e-02,-2.249770e-01,1.663725e-01,-5.077529e-02,-4.519301e-01,1.315924e-01,1.521088e-01,5.370799e-02,-1.322573e+00,3.531202e-01,1.649654e-02,1.181549e-01,2.009653e-01,-2.514962e-03,-3.947582e-02,-1.067612e-01,4.702015e-04,4.533542e-01,3.136008e-01,3.258049e-02,-1.205548e+00,
9.543370e-04,-8.396041e-02,6.487391e-02,-6.848716e-02,6.034763e-01,1.687535e-02,3.325194e-01,-1.175398e-01,-2.300444e-01,2.620371e-01,1.436727e-01,-4.593173e-01,7.904851e-01,-1.053475e-01,-1.240251e+00,-1.229275e-01,-1.393646e+00,-1.887939e-02,-4.202283e-01,-6.405453e-01,1.744115e-01,-7.724807e-02,-1.298461e-01,-4.323812e-01,3.890034e-01,-5.167151e-01,6.122410e-01,4.352490e-02,5.796691e-02,-1.455223e+00,-4.949803e+00,3.459384e-02,2.998762e-01,1.535656e-01,-3.630730e-01,-1.138535e+01,-6.134241e+00,3.393912e-01,-4.511437e-01,3.702882e-02,1.291620e-01,5.460703e-03,-2.744435e-02,9.156817e-03,-1.272046e-01,
3.577624e-01,-3.820424e-01,1.132111e-01,-7.107340e-02,4.733058e-01,-2.889813e-01,8.920070e-01,4.198679e-01,2.152341e-01,-1.049003e+00,1.051839e-01,-4.510612e-01,-7.251921e-01,1.180516e-03,2.450383e-02,1.321409e-01,4.904490e-02,-9.285867e-01,2.150848e-01,-4.619969e-01,-3.309516e-01,6.633502e+00,5.974912e-02,2.403747e-01,-6.535428e-01,-6.012508e-01,-9.749202e-01,1.945615e-01,-7.838679e-02,2.968986e-02,3.421903e-02,-1.425537e-02,4.177573e-01,1.083859e-01,-1.986869e+00,5.676177e-01,5.804631e-01,-3.589940e-01,-2.956330e-02,2.361215e-01,2.032717e-01,1.164790e+00,2.000095e-01,5.911894e-03,-5.258755e+00,
8.074237e-02,8.726187e-01,7.941530e-01,3.484154e-01,2.191435e-01,-1.502113e-02,5.703120e-01,1.469522e-01,8.839975e-02,4.047994e-01,6.014215e-01,-2.195934e-01,-4.153929e-02,-3.113399e-01,1.039517e-01,-1.332469e-01,1.545805e-01,5.832360e-01,-4.515482e-02,4.665864e-01,-5.334418e-01,7.786466e-01,-5.471973e-01,-5.626932e-01,-7.036446e-03,-1.839720e-01,2.284250e-01,8.758013e-01,4.847071e-01,1.949531e-02,1.085000e-01,2.305908e-03,1.278745e-01,-3.551903e-01,-7.363044e-02,-1.470629e-02,4.422767e-02,-3.146544e-01,3.491963e-02,1.062821e-01,5.805048e-01,4.612775e-01,-1.323757e-01,-4.658930e-02,5.978181e-01,
-1.170787e+00,1.967998e+00,3.597076e-01,2.871454e-01,-5.930189e-03,1.091202e+00,4.325492e-01,-5.165688e-02,4.044892e-01,-3.490427e-02,2.459038e-01,5.627710e-01,5.524503e-01,-9.269319e-02,-1.525279e-02,4.398251e-02,6.794579e-03,-1.969280e-01,1.888865e-01,6.444163e-01,-2.918171e-01,4.573573e-01,-3.608307e-01,-2.079705e-01,2.582606e-02,1.724889e-01,1.519778e-01,2.944188e-01,1.073305e+00,-1.334078e-02,-3.565993e-02,4.560036e-02,-5.274828e-01,4.949113e-02,6.922873e-01,-2.093486e-01,-3.145555e-02,-4.511969e-02,-9.317257e-02,7.010996e-02,2.750090e-01,7.578299e-01,1.524830e-01,-2.772807e-02,-2.681896e-02,
5.847749e-02,-5.816836e+00,7.560356e-02,6.284961e-01,1.484880e-01,4.326262e-01,1.897133e-01,-8.223784e-02,3.654263e-01,-1.435942e-01,3.235324e-02,9.785557e-02,-1.002484e-01,-6.645817e-01,8.258582e-05,1.040791e-01,-1.054344e-04,-2.068376e-01,1.102026e+00,-5.745240e-01,-6.061366e-01,8.865458e-01,-4.253851e-02,-1.232896e-01,-5.496331e-01,5.361979e-01,-7.615025e-02,1.919969e-01,-3.158503e-01,4.866925e-04,-5.678343e-04,2.255169e-02,5.353813e-01,-2.370943e-01,-9.041145e-01,-1.572708e-01,3.132330e-01,-1.819852e-01,-5.703984e-01,-8.148822e-02,8.838811e-02,3.439361e-01,-1.271988e-01,-3.350135e-02,9.038600e-02,
8.017851e-03,-1.190635e+00,2.467026e-02,1.867189e-02,3.287905e-01,-5.354116e-01,-9.213374e-03,3.109322e-02,4.400725e-01,2.480315e-02,1.047832e-01,3.558937e-01,-7.594996e-02,-2.015139e-01,8.180352e-02,2.568472e-01,1.806671e-01,8.573540e-01,-1.262113e-01,-8.448001e-01,-8.033644e-01,-2.572989e-01,-1.150498e-01,-4.815127e-02,2.933992e-01,2.584634e-02,3.407989e-02,1.442040e-01,-3.056198e-01,3.412484e-02,1.381430e-01,-2.921078e-02,-3.348581e-01,2.705263e-01,-4.846513e-01,-2.306887e-01,3.758105e-03,8.708253e-02,4.998713e-02,5.657629e-02,1.751430e-01,-8.081395e-01,6.811557e-01,-2.896377e-02,1.424205e-01,
-1.148844e-02,-2.489602e-02,-3.264086e-02,-4.234626e-02,-4.236999e-02,-2.753013e-02,-3.808321e-02,-2.188479e-02,-1.789808e-02,1.646544e-02,2.390682e-02,1.761435e-02,-5.089529e-02,3.808330e-02,4.703626e-02,-2.296121e-02,2.863768e-02,3.137903e-02,-1.547218e-02,-4.114817e-02,-4.733723e-02,-9.957680e-03,2.653655e-02,-2.626426e-02,-5.027661e-02,-3.829879e-02,-4.842458e-02,-2.875539e-02,-3.856044e-02,-9.168471e-03,1.763689e-02,1.994207e-04,-2.468805e-02,2.192073e-02,-4.401723e-02,7.832514e-03,3.317434e-02,1.252890e-02,-1.763326e-02,9.235811e-03,4.254013e-02,-4.612750e-02,-1.957177e-02,2.725830e-02,-4.236861e-02,
8.344435e-02,-2.242040e-01,-2.101227e-01,2.594673e-01,1.399039e-01,-8.449472e-01,-7.524746e-02,-2.200056e-01,-8.796940e-01,1.695036e-01,-1.927753e-01,-1.942942e-01,-2.211928e-01,-3.329612e-01,-3.323464e-02,7.029150e-01,-6.525061e-02,-3.645429e+00,5.978590e-01,-1.093658e-01,-7.206616e-01,4.332816e-01,-4.615672e-01,6.162648e-01,2.258940e-01,1.387738e-01,-5.341322e-01,-8.463476e-02,2.373036e-01,-6.933682e-02,3.895542e-02,4.365384e-03,4.373454e-01,-2.989713e-01,-7.910629e-01,-7.967486e-02,2.413710e-01,4.168250e-01,-4.801044e-01,-6.161191e-02,-1.866458e-01,-5.283785e-01,1.189125e+00,4.035622e-02,4.755392e-01,
5.481995e-01,3.329369e-01,5.736070e-01,5.537671e-01,3.001400e-01,2.957372e-01,4.085265e-01,2.521408e-01,-2.701637e-01,-1.020369e-01,5.164934e-01,5.863826e-02,2.087262e-01,3.984742e-01,1.372348e-01,5.259534e-01,1.006556e-01,4.629577e-01,5.914376e-01,8.888396e-01,2.440470e-01,-3.081564e-01,-2.291502e-01,4.252596e-01,5.400851e-01,-2.652903e-01,-1.896208e-01,4.917211e-01,8.314365e-01,1.369228e-01,2.129376e-01,-3.224578e-02,-4.745769e-01,-1.830536e-02,-4.822813e-01,2.713723e-01,5.608927e-02,5.971527e-01,1.628117e-01,4.435924e-01,5.137463e-01,1.045252e-01,-8.678149e-02,-1.071041e-02,8.124328e-01,
1.401558e-02,-4.974668e-02,-4.566211e-02,1.333609e-02,-2.337520e-02,1.260065e-02,2.768312e-03,1.787951e-02,-4.191055e-02,3.690425e-02,-1.165944e-02,-4.484380e-02,5.321235e-03,-3.043257e-02,-2.101315e-02,4.415607e-03,2.462790e-02,-4.123171e-02,-5.314133e-03,2.629817e-02,4.476522e-02,-1.486700e-02,-2.834211e-02,-1.573065e-02,6.268762e-03,2.840705e-04,-1.524049e-02,-4.498108e-02,-3.924216e-02,-4.418274e-02,3.344984e-02,-1.831161e-02,2.231979e-02,-3.210394e-02,-1.025487e-02,-1.637000e-02,-1.990095e-03,2.460269e-02,-5.154875e-02,-1.864664e-02,-1.656263e-02,7.787156e-03,-4.814594e-02,-3.353194e-02,-2.882122e-02,
7.579846e-02,2.260930e-01,8.203907e-02,3.962115e-02,1.769597e-01,2.515034e-02,-6.275574e-02,1.608130e+00,8.710683e-03,3.962206e-02,1.497729e-01,-3.157627e-01,-8.425823e-01,-1.855892e-01,1.027215e-01,-8.131060e-03,3.708954e-01,1.843916e-01,1.816798e-02,-4.239649e-02,-2.205961e-01,7.493800e-02,-1.170795e-01,1.632231e-01,1.893152e-03,-1.415029e-01,1.705436e-02,1.279321e-01,1.431968e-01,1.984930e-01,2.743471e-01,-4.263643e-02,1.129185e-01,6.047893e-02,1.188516e-01,2.785459e-01,1.071662e+00,-1.171705e-01,-4.730901e-01,-7.315948e-02,1.470410e-01,-1.472211e-01,-1.112123e-01,-3.250264e-02,-9.373360e-02,
-3.143772e-01,2.304148e+00,1.264473e-01,2.903864e-02,2.307763e-01,2.327643e-02,2.288154e-01,5.139441e-01,3.032113e-01,-2.780908e-01,6.964567e-02,-6.704625e-02,-7.175582e-01,1.701125e-01,7.158832e-02,-5.174853e-01,1.598312e-01,-9.601634e-01,1.034644e-01,-5.752315e-01,1.269378e-02,-7.926621e-02,2.697899e-01,6.487429e-01,6.987272e-02,-7.255067e-02,1.387219e-01,1.283523e-01,5.724559e-01,-4.869209e-03,7.154560e-02,-2.341357e-02,-3.284071e-01,6.221019e-01,-2.055168e-01,8.795686e-02,-9.859344e-02,-2.306819e-01,-2.295520e-02,3.049099e-01,5.381676e-02,-7.920386e-02,-3.125625e-01,-2.094488e-02,-6.524629e-01,
6.902227e-01,-1.389845e+00,-6.685156e-02,1.790389e-01,9.327286e-03,-1.553445e-01,4.509932e-01,5.650587e-02,5.317947e-01,4.686452e-01,-1.325740e-01,-1.322098e-01,-3.375325e-01,-3.972264e-01,8.031760e-02,5.369965e-01,1.123140e-01,6.847961e-01,-2.020924e-01,-1.342089e+00,6.112760e-01,9.361476e-01,-3.719986e-02,-2.086880e-01,-2.154944e-01,1.607068e-01,4.723387e-01,-2.004987e-02,5.517303e-03,2.277648e-02,4.301871e-02,-5.255845e-04,4.557544e-01,5.469534e-01,-1.850442e-01,2.225111e-01,2.708433e-01,-3.224620e-01,-2.309329e-01,-2.095013e-01,-4.215082e-02,3.873753e-01,2.308302e-01,1.860606e-03,-1.037617e+00,
-1.963193e-01,-2.995592e+00,1.396772e+00,3.240124e-01,6.565104e-02,5.297245e-02,5.229903e-01,1.304719e-01,4.347689e-01,3.087027e-01,1.277864e+00,-5.714970e-01,-3.181022e-01,2.766989e-01,-2.942868e-02,-2.778229e-02,2.192689e-02,5.780127e-01,-1.147549e-01,3.012690e-01,5.171011e-01,5.343051e-01,-3.918467e-01,-2.441801e-01,1.086687e-01,-1.916946e-01,9.755087e-02,1.590328e+00,3.500930e-01,3.053444e-02,-2.786161e-02,1.314004e-02,4.910196e-02,-2.146145e-01,2.959286e-02,-1.746034e-02,-3.148352e-02,-1.831960e-01,-3.325666e-01,2.446361e-02,1.254013e+00,2.834178e-01,-1.679856e-01,4.243806e-02,4.110680e-01,
-4.305988e-02,-1.899698e+00,-1.058742e-01,2.510508e-01,3.160141e-02,-2.421732e-01,-3.276246e-01,-4.332693e-02,3.372673e-01,1.643579e-01,-2.204947e-02,-5.430635e-02,-1.291683e-03,-1.386629e-01,1.659866e-03,-3.182403e-01,5.696729e-02,1.072148e+00,-2.556906e-01,-3.076816e-01,1.544391e+00,-2.626918e-01,-9.992332e-02,-1.032643e+00,1.701824e-01,-2.731789e-01,2.572948e-01,-3.938452e-02,1.162632e-01,4.781516e-02,-1.207890e-02,-3.288842e-02,3.757226e-01,-6.390918e-02,-8.300726e-01,-9.183224e-02,4.465983e-02,2.596317e-01,2.166553e-01,-4.579840e-01,2.002074e-02,-7.962871e-01,-3.027159e-04,1.308390e-02,-9.585986e-02,
5.879886e-01,-4.524799e-01,-1.416635e-02,2.981273e-01,-4.510687e-01,-5.638645e-01,-4.485207e-01,1.297331e-01,5.922857e-02,-1.831380e-01,8.654294e-03,-3.282250e-01,-4.400180e-01,-4.294870e-01,1.389337e-01,-2.251271e-01,-5.189160e-02,2.249416e-01,1.156962e-01,-5.103356e-02,1.055907e+00,7.894207e-01,2.519694e-01,7.882736e-03,-3.211146e-01,-4.043078e-01,-4.483735e-02,8.565478e-02,8.237534e-01,9.013741e-02,1.196403e-01,-2.041405e-02,3.665646e-01,6.629801e-02,-1.398505e-01,7.936747e-02,-3.331291e-02,-2.403895e-01,1.522949e-02,6.638300e-01,5.354555e-02,-3.940527e-02,3.432154e-02,1.600089e-02,-7.045226e-01,
-3.078847e-01,-1.370710e+00,-2.480081e-02,-2.000918e-01,-7.108471e-03,-1.790603e-01,6.285088e-03,9.662230e-02,-2.815182e-01,-3.425352e-02,-1.546867e-05,-1.568823e-01,1.361398e-03,3.794825e-01,2.063679e-01,1.118014e-01,1.570002e-01,-2.387122e-01,7.909415e-02,-1.218857e-01,1.402928e-01,2.577464e-01,-6.968559e-02,-9.182021e-01,1.654340e-01,-7.401401e-01,5.404675e-02,-1.198953e-02,-2.206942e-01,1.270992e-01,2.035852e-01,-1.512016e-02,-6.033386e-01,2.786649e-01,4.119363e-01,8.366319e-02,-2.448240e-03,1.256315e-01,5.594932e-01,7.099018e-01,2.430303e-02,-1.978137e-01,1.345365e-01,-1.225618e-02,-1.542810e-01,
-9.671012e-02,-1.986132e-01,-3.678977e-02,1.075959e-01,1.778808e-01,1.538813e-01,6.929287e-02,5.389507e-01,3.336869e-02,1.730620e-01,6.077473e-03,3.699859e-01,6.225551e-01,1.663834e-01,2.479381e-01,1.277244e-01,2.550067e-01,-8.262131e-02,-2.026019e-01,-1.130604e-01,5.578443e-01,1.468697e-01,5.147899e-02,-2.344963e-01,-1.706561e-01,3.480324e-01,5.826141e-02,-5.341073e-02,-3.664083e-02,1.697786e-01,3.343178e-01,6.808840e-03,-7.323953e-02,1.390649e-01,1.158548e-01,1.865236e-01,6.421347e-01,3.030898e-01,5.684128e-01,-5.104648e-02,6.052864e-02,-1.169693e-01,2.645173e-02,-1.095913e-02,-3.034671e-01,
5.009789e-01,-2.738775e-01,-5.530385e-02,-1.486882e-01,-2.316777e-02,1.774066e-01,-1.519104e-01,-1.458748e-01,3.925076e-01,8.683460e-02,7.757865e-02,-1.046629e-01,3.997911e-01,1.048920e-01,8.165796e-02,-5.553655e-02,-1.759109e-02,5.280890e-01,-1.087626e-01,-5.814558e-01,-1.661345e-01,2.858857e-01,1.902133e-01,-1.527929e-01,-1.048189e-01,1.266371e-01,5.061315e-01,-1.155993e-01,-8.976666e-02,1.288571e-01,6.633274e-02,4.225838e-04,1.090564e-01,-1.030661e+00,-6.131036e-01,-1.849013e-02,6.329301e-02,2.158808e-01,1.954287e-01,9.374706e-02,-5.084133e-02,-2.765070e-01,3.228725e-01,-4.528195e-02,-7.636818e-01,
-4.321661e-01,-2.411265e+00,-1.295289e-01,-4.593356e-01,-2.129863e-01,-8.383666e-01,1.678214e-01,4.151518e-02,-2.905650e-01,9.031060e-02,-5.998889e-03,8.773265e-01,1.166275e+00,7.099065e-01,1.155873e-02,4.831208e-02,-1.386647e-02,-1.977182e+00,6.430025e-02,-1.010857e-01,-1.783354e-01,4.976355e-01,-7.060460e-01,-1.655867e-01,2.150138e-01,2.988575e-01,-1.506539e-01,-3.742431e-02,-3.811038e-01,4.300034e-02,2.956116e-02,3.416565e-03,9.276077e-04,-1.386646e-01,5.526321e-01,1.927712e-01,3.845586e-01,1.322289e-02,2.342006e-01,-4.095734e-01,-2.260790e-02,4.373154e-02,-2.741157e-01,5.079385e-02,1.108304e-01,
1.876164e-01,-6.203590e-01,-6.827595e-02,-1.482030e+00,2.556826e-01,-7.300801e-01,1.327667e-02,2.094929e-01,-7.590020e-01,-3.238674e-01,-4.558593e-02,9.080133e-01,1.908806e-01,1.972901e-01,2.389561e-02,3.017551e-01,2.993069e-02,-1.082952e-02,3.260249e-02,6.898564e-01,-1.961996e-01,1.244210e+00,-8.512694e-02,-5.535811e-01,1.361428e-02,-2.835487e-01,-3.804035e-01,-9.917265e-02,4.779452e-03,8.279644e-02,1.083800e-01,-1.210961e-02,-1.368698e+00,-1.010072e+01,2.951523e-01,4.101719e-02,1.375287e-01,-3.947036e-01,7.399661e-02,4.283355e-01,-1.501815e-02,3.928786e-01,1.327956e-01,5.581602e-03,2.353263e-01,
4.983197e-01,-9.723282e-01,1.760273e-01,-8.175996e-02,-1.276504e-01,2.512071e-01,-1.935465e-01,-1.441822e-01,7.233462e-01,-3.034732e-01,1.984996e-01,1.011515e+00,8.160717e-01,-6.951151e-01,6.611001e-03,6.339540e-02,1.133936e-01,-1.492550e+00,4.076905e-01,-1.689951e-01,2.188806e-01,6.850030e-01,3.955328e-01,2.109372e-01,-3.206596e-01,-4.141816e-02,2.944557e-01,1.655962e-01,-4.329123e-01,2.477962e-02,1.035957e-01,3.275112e-02,-8.290842e-01,8.296038e-01,1.549098e-01,-1.415291e-01,-4.594008e-02,-2.610930e-01,-1.895447e+00,5.135469e-01,1.443976e-01,4.294648e-01,-5.955936e-02,-3.342887e-02,-5.549256e-01,
1.100819e+00,-6.881340e-01,-2.186980e+00,2.242815e-01,5.935209e-01,4.592952e-02,-3.792079e-01,2.645593e-01,1.742474e-01,7.783998e-03,-1.471204e+00,-1.875844e-02,-1.086461e-01,-3.766452e+00,1.347156e-01,1.640424e-01,7.361215e-02,-4.940522e-01,3.592820e-01,-5.311673e-01,-2.669900e-01,7.001486e-02,2.893837e-01,-3.864588e-01,-9.397942e-03,-5.333447e-01,-8.659757e-02,-2.375526e+00,9.401063e-03,1.087694e-01,9.855410e-02,4.788482e-02,-2.401607e-01,3.884815e-01,3.696162e-01,3.292428e-01,3.139196e-01,9.753979e-02,3.783802e-01,2.525439e-01,-1.107038e+00,-3.137776e-01,1.383699e-01,1.793906e-02,-3.649706e-01,
-4.490439e-02,
4.667185e-02,
-1.780993e-01,
-2.739497e-01,
-1.185561e-02,
4.051778e-02,
-1.694925e-02,
2.031624e-02,
-1.021232e-01,
-1.269775e-01,
3.805614e-02,
3.332386e-01,
5.433418e-02,
4.213975e-02,
-1.634827e-02,
-1.326905e-01,
1.740150e-02,
-8.040936e-03,
2.529784e-01,
-3.021790e-02,
1.182107e-01,
2.843609e-02,
3.848540e-01,
2.220263e-02,
-2.235404e-01,
-1.510091e-01,
-1.383107e-01,
7.123650e-03,
-7.050056e-03,
1.612631e-01,
-1.202896e-01,
-1.627748e-02,
3.772462e-03,
7.926013e-02,
3.891930e-02,
-1.755226e-01,
1.936811e-01,
1.709828e-01,
8.450525e-02,
-4.617863e-02,
1.682932e-01,
1.140904e-01,
2.419028e-01,
-3.724773e-02,
2.749794e-02,
-2.747041e-02,6.172788e-03,1.214108e-02,-1.881988e-02,1.706490e-02,-4.109831e-02,-7.061689e-03,-1.141001e-02,-5.411328e-02,4.220410e-02,-3.848546e-02,-3.784138e-02,1.314456e-02,-4.380775e-02,6.713529e-03,-4.971348e-02,-3.034794e-03,1.603363e-02,-1.409293e-02,-2.198455e-02,-1.134953e-02,2.869134e-02,4.141114e-03,2.548862e-02,-2.299374e-02,-1.008347e-02,2.837292e-02,8.731951e-03,-4.841523e-02,-5.243620e-02,-2.441481e-02,-4.051172e-02,-9.304795e-03,-1.393135e-02,-5.128026e-02,-5.359035e-02,-9.628788e-03,-4.089929e-02,1.344418e-02,2.978447e-02,-3.423167e-02,2.656160e-02,9.351305e-03,-1.877984e-02,-1.362295e-02,
-1.438510e-01,7.254303e-02,-2.681317e-01,-3.826077e-02,-3.864135e-02,1.833195e-01,2.446190e-02,2.090112e-01,3.715275e-01,2.352142e-01,5.241181e-01,-5.254700e-02,3.748254e-02,4.990788e-01,5.170505e-02,9.638513e-02,3.679344e-01,-2.410893e-01,2.045364e-01,5.426674e-01,-3.937144e-01,-2.421169e+00,-3.038093e-01,3.366160e-01,2.451918e-01,2.777388e-01,-7.910910e-01,7.413469e-01,-3.381519e-02,2.821130e-01,-3.117333e-01,-3.738541e-02,5.095753e-02,8.547159e-02,-1.178655e-01,-1.090958e-01,3.981768e-01,2.980334e-01,-1.834221e-01,5.343218e-01,1.272183e-01,-1.644355e-02,-2.150574e-01,2.778021e-01,-3.573547e-02,
3.712238e-02,-2.797258e-01,-1.116799e-01,-3.099539e-01,4.703087e-02,7.823875e-02,3.998259e-02,3.132176e-01,4.266168e-01,-2.125424e-01,1.226255e-01,-5.474154e-02,5.784285e-02,8.543550e-01,9.466546e-01,1.147986e-01,2.182007e-01,-5.048997e-02,1.186980e-01,-2.745562e-01,-3.270733e-01,4.079291e-01,-1.189130e+00,-1.395272e-01,8.323500e-02,4.585125e-01,2.113161e-01,2.835729e-01,-3.835935e-02,5.248317e-01,-1.952630e-01,-8.001355e-03,-5.216141e-01,2.368113e-01,1.880628e-02,1.216725e-01,5.058690e-01,2.577243e-01,1.145460e+00,-5.946051e-01,2.068318e-01,5.327654e-01,1.156165e-01,-4.534611e-02,2.656003e-01,
-8.544885e-03,-2.216655e-01,-5.115161e-01,-7.260892e-01,-3.139038e-02,-3.260540e-02,-2.283772e-02,-5.805527e-03,-3.518986e-02,2.450092e-02,1.694035e-01,-1.614395e-01,-6.257981e-01,-7.381260e-01,-3.672600e-02,-1.345593e+00,1.538664e-01,-1.074820e-02,6.382630e-01,-5.519149e-01,6.224511e-02,-2.843171e-02,1.790699e-02,-4.980546e-02,-9.366204e-01,-1.656783e-01,-8.831833e-02,2.589336e-02,-2.292939e-02,1.822742e-01,-5.091522e-01,1.771449e-02,1.896646e-01,9.946761e-02,-2.055765e-01,-2.439590e-01,2.731186e-01,3.147351e-01,9.629154e-02,6.259032e-02,5.946689e-01,5.902787e-02,-4.383177e-01,1.242110e-01,3.995481e-02,
-4.102546e-02,1.613092e-01,-1.649267e-03,-1.310616e-01,-3.106347e-03,-1.098825e-01,-2.228658e-02,-5.710263e-01,1.282351e-01,-2.848342e-01,2.557475e-01,1.208031e-01,8.535738e-02,-1.561418e-02,3.195516e-01,7.071047e-02,3.669313e-01,-9.254319e-02,3.010654e-01,1.345233e-01,-5.251938e-01,1.169267e-01,-1.089708e+00,-4.349765e-01,1.115204e-01,1.595834e-01,3.036159e-01,6.937923e-01,4.582021e-02,2.598396e-01,-1.722631e-01,-1.775430e-02,6.923072e-02,-1.911940e-01,5.430631e-01,2.127672e-01,7.122007e-01,-4.288572e-01,1.795602e-01,-1.202412e-01,2.483518e-01,1.287743e-01,1.015365e-01,1.454340e-01,1.234863e-01,
9.781080e-02,-2.473567e-01,-3.671556e-01,-4.010598e-01,2.350922e-03,-2.589741e-01,5.157325e-03,1.482601e-01,2.528937e-01,-1.203922e-01,4.932301e-01,8.140802e-02,1.151357e-01,8.185284e-01,5.674946e-01,2.559209e-01,-6.607664e-01,3.522739e-01,-4.406843e-01,6.001270e-02,-4.931171e-01,1.754145e-01,-2.182166e-01,-7.216906e-02,2.883905e-01,1.706081e-01,1.656467e-01,-1.273506e-01,1.296961e-02,5.786750e-01,-2.479869e-01,3.777060e-02,4.569127e-01,2.551443e-03,3.515213e-01,9.977599e-02,6.081717e-02,-1.166615e-01,-6.872742e-01,2.560876e-01,5.283299e-01,-6.730378e-01,-1.259702e-01,-2.071528e-01,-1.232277e-01,
2.132515e-01,6.052282e-01,-4.565760e-01,-4.745534e-01,-3.489875e-02,2.804188e-01,-4.851703e-02,1.772843e-02,8.376720e-02,2.396339e-01,6.423122e-01,5.919466e-02,-1.949229e-01,1.517922e+00,4.109254e-01,2.235249e-01,1.637379e-01,-2.030850e-01,9.249495e-02,2.496859e-01,-5.217954e-01,4.949513e-01,1.036038e-01,-2.053496e-01,6.687792e-02,2.644646e-01,1.094920e-01,6.570653e-01,7.001579e-03,3.836650e-01,-1.697535e-01,-4.107014e-02,1.410049e-01,2.406694e-01,2.575547e-01,2.568578e-01,2.928027e-01,-1.435411e-01,-1.769174e-01,1.345088e-01,2.333445e-01,-9.158811e-03,4.062990e-01,2.617815e-01,-1.011140e-01,
3.060314e-01,-1.200260e-02,-2.525194e-01,-1.393901e-01,3.966215e-02,1.683462e-01,2.848771e-02,-3.149147e-02,-2.791341e-02,-1.580722e-01,4.617842e-01,-2.257124e-02,-1.716413e+00,3.905967e-02,-1.279165e-01,-1.122364e+00,3.605585e-01,6.918743e-01,-5.159550e-01,-2.490588e-01,2.890757e-02,-2.061410e+00,1.874371e-02,-1.102799e+00,-2.689957e-01,1.734134e-02,1.993020e-01,2.485686e-01,1.302792e-02,-2.918079e-01,1.310481e-02,1.720646e-03,1.796955e-01,-1.320741e+00,-9.637483e-02,-1.104410e+00,2.640836e-01,3.597578e-01,1.034097e-01,-3.013284e-01,2.882839e-01,9.631592e-02,-5.152582e-02,5.048235e-01,6.645282e-01,
-6.122646e-02,-3.714206e-02,-8.412743e-03,-6.939914e-02,-4.878321e-02,3.097110e-03,-1.487892e-02,-6.868426e-03,5.190699e-03,-6.391218e-02,-1.627583e-02,-1.716684e-02,8.503561e-03,3.797737e-02,-1.108715e-02,-5.740288e-03,1.209914e-02,-4.009960e-02,-6.877992e-02,-2.322090e-03,-2.289506e-02,-1.118659e-01,1.988575e-03,-5.201850e-02,1.012143e-02,-9.961718e-02,-2.859767e-02,-4.773638e-02,-3.467696e-02,-2.296498e-02,4.787359e-03,-3.289996e-02,4.008740e-02,-5.616414e-02,-3.801320e-02,2.897323e-02,9.768507e-04,-8.592998e-02,4.432489e-03,-2.924376e-02,-3.363885e-02,-2.996283e-02,-2.543147e-02,-7.038499e-02,-1.779529e-02,
-4.820336e-02,-4.950272e-01,-2.756942e-01,1.344526e-01,-2.574629e-02,-6.214960e-01,2.408542e-02,-2.205544e-02,4.203720e-01,8.772652e-02,5.619230e-01,3.509803e-01,-1.392631e+00,6.553789e-01,2.190334e-01,3.888221e-01,7.734178e-01,6.044748e-01,7.012651e-02,6.580903e-02,-3.250699e-01,-1.691940e+00,-2.038886e-02,-6.710490e-02,5.344570e-03,8.849147e-01,9.271656e-01,3.174153e-01,-6.604691e-03,1.707397e-01,-1.296556e-01,-3.474470e-02,5.810196e-02,-8.888575e-02,6.845443e-01,1.601383e-01,5.051250e-01,4.867620e-01,1.996021e-01,8.383334e-02,-1.648886e-01,-3.149526e-01,-5.181614e-03,4.493979e-01,-2.571772e-01,
-6.164826e-01,-6.420681e-01,-1.786561e-02,-2.712346e-01,1.616863e-02,4.694212e-01,-5.596305e-03,4.863753e-01,-1.660375e-03,-2.624444e-02,-6.822620e-02,-2.134862e-01,1.237996e-01,-2.456492e+00,-7.546553e-02,-1.454942e+00,-1.391320e-02,-1.646426e-01,-8.349495e-02,-4.002921e-01,5.656110e-02,6.467792e-01,-4.004584e-02,-1.959309e-01,2.686767e-02,9.443335e-02,-6.136510e-01,1.206064e-01,2.835518e-02,8.615711e-03,-2.986044e-02,4.050556e-02,1.771404e-01,3.802919e-01,3.203160e-01,-8.207361e-01,-2.344324e-01,-1.889215e-01,-6.317044e-01,2.148010e-01,3.223880e-01,7.731488e-03,1.741165e-01,3.540625e-01,1.951671e-01,
-1.904655e-02,3.018489e-02,-3.378147e-02,8.433643e-04,-2.707925e-02,1.700027e-02,4.122368e-02,2.330517e-02,3.098516e-02,1.825757e-03,-2.556368e-03,-5.344452e-02,-2.949475e-03,-1.936470e-02,-2.933939e-03,2.520852e-03,2.041077e-02,-2.723793e-02,-1.760857e-02,2.435767e-03,3.111949e-02,2.854859e-02,1.435600e-02,-5.844070e-02,5.177990e-03,3.382538e-02,-4.355431e-02,-8.037927e-03,4.408682e-02,-6.592289e-02,9.051649e-03,2.635907e-02,-2.889647e-02,-2.290819e-02,-5.873080e-02,-3.500899e-02,-4.007481e-02,8.851025e-03,-3.706693e-02,-5.655544e-02,-5.263599e-02,-5.857914e-02,-4.181348e-02,-6.924445e-02,-1.237502e-02,
-2.394908e-02,2.097458e-02,-5.775486e-02,3.830990e-02,-3.263530e-02,3.924522e-02,-5.788304e-04,1.308486e-02,9.884060e-03,7.593050e-04,1.206195e-02,2.984296e-02,-1.991009e-02,-3.498968e-02,1.913563e-02,-1.523530e-02,2.794370e-03,3.366467e-02,-1.666710e-02,-2.271846e-02,2.866427e-02,-2.027965e-02,6.169138e-03,-5.134599e-02,-4.362709e-02,2.799298e-02,-4.614703e-02,-3.659189e-03,-1.012787e-02,-2.204171e-02,-8.858200e-03,2.963966e-02,-2.200879e-02,-5.073901e-02,2.071431e-02,-2.531402e-03,-7.415436e-04,-1.545203e-02,-3.532077e-02,-3.033637e-02,-4.010614e-02,-5.975132e-02,-3.200968e-02,-2.470513e-02,-2.903946e-02,
-1.852280e-01,6.136129e-02,2.749560e-01,-1.670358e-01,-3.820155e-02,1.328394e+00,-3.325141e-02,9.398465e-02,9.784734e-02,6.475124e-02,-3.962108e-01,-7.625408e-02,-2.252576e-02,2.657276e-01,2.815023e-01,-1.670073e-01,5.923164e-01,-3.385758e-01,2.721493e-01,3.205909e-01,-3.715619e-01,-3.747649e+00,-3.807206e-01,1.009247e-01,3.594047e-01,-1.175479e-01,2.321271e-01,2.497986e-01,-2.949675e-02,2.387925e-01,-2.350138e-01,-2.383440e-04,-1.111795e-01,1.953956e-01,-1.337290e-01,1.602209e-01,1.817897e-01,-2.463915e-01,-7.595482e-01,1.359302e-01,-1.178456e-01,1.396542e-02,-2.610127e-01,7.930542e-03,1.212245e-01,
3.471748e-02,3.036080e-02,-4.581098e-02,4.246756e-03,-2.343461e-02,-1.518659e-02,-2.772096e-02,-4.498109e-02,3.287483e-02,-5.288439e-03,-4.610371e-02,1.176734e-02,-2.441590e-02,-2.616368e-02,1.021873e-02,2.810451e-02,-4.050738e-02,1.287394e-02,-3.376774e-02,-4.726052e-02,-1.905306e-02,2.205781e-02,-5.475204e-03,-3.379070e-02,-3.605440e-02,-3.396514e-02,-1.864573e-02,-4.816012e-02,2.026468e-02,-4.792709e-02,-1.768894e-02,1.003101e-02,-3.297083e-02,-3.992044e-03,-1.674954e-02,2.607266e-02,4.028544e-02,-3.616902e-02,-3.099793e-02,2.977036e-02,-1.478890e-02,4.201058e-02,3.112989e-02,-3.359038e-02,-4.221236e-02,
4.755175e-01,-1.690043e-01,-4.073624e-02,-2.687899e-01,1.262427e-02,-2.513410e-02,3.810520e-02,4.254151e-01,5.537028e-01,2.261020e-01,3.627495e-01,-7.179014e-02,1.420144e-01,4.597965e-01,-8.396635e-01,7.023294e-02,2.179930e-01,-1.909234e-01,1.570225e-01,1.562695e-01,-4.260596e-01,-1.328271e+00,1.188270e-01,6.347290e-01,-1.384810e-01,-4.215764e-01,-6.145756e-01,1.080379e+00,2.174995e-02,2.985264e-01,-3.449282e-01,5.374374e-03,2.160523e-01,3.149718e-01,2.614613e-01,2.828152e-02,2.512439e-01,-1.262960e+00,-4.281100e-01,4.679729e-01,2.466121e-01,-3.774725e-01,1.669312e-01,2.542732e-02,9.873807e-01,
-1.922252e-02,-2.763536e-02,-1.009442e-02,-4.444166e-02,4.033919e-02,2.510715e-02,-4.410009e-02,8.128604e-04,2.507474e-02,2.794231e-02,-1.621567e-02,-2.254052e-02,-2.979914e-02,4.178166e-02,4.020778e-02,-3.185264e-02,-2.521885e-02,-5.487568e-02,-2.953906e-02,-3.546667e-02,-1.136322e-02,-2.732155e-02,6.602757e-03,2.167426e-03,-4.061202e-02,1.398538e-02,-3.724896e-02,-1.562576e-02,4.922528e-02,-5.615500e-02,2.026712e-03,-1.598580e-02,3.100892e-02,-4.931178e-02,-3.618957e-02,-4.242257e-02,-5.232314e-02,6.473578e-03,-1.320259e-02,3.324275e-02,-4.122594e-02,-5.653475e-02,-3.225120e-02,3.535493e-02,3.228017e-02,
4.608519e-02,2.391871e-01,-2.123289e-01,-8.817360e-02,3.494468e-02,5.353575e-01,3.439971e-02,-3.185019e-01,-2.165343e-01,1.017567e-01,4.600210e-01,-8.209109e-01,1.788003e-02,2.293750e-01,1.500843e+00,1.468528e-01,-2.982279e-01,-6.541204e-01,-1.330654e-01,-7.025214e-01,-5.567103e-02,-6.016815e-01,4.090317e-02,5.199487e-02,-1.228314e-02,-2.238699e-01,2.784123e-01,3.881774e-01,3.480304e-02,-4.486877e-01,-7.089919e-01,-3.313737e-02,2.083172e-01,-1.118782e-02,7.597073e-02,-2.684817e-02,1.729463e-01,-1.971342e-01,-6.657828e-01,4.530507e-02,1.463247e-01,-1.333910e-01,-5.564148e-01,-8.510396e-02,1.629349e-02,
2.374203e-03,5.263973e-03,-4.514187e-02,2.607894e-02,-4.033254e-02,-4.754342e-02,-3.139176e-02,2.368507e-02,-2.135816e-02,-7.676057e-03,-4.697695e-02,1.917613e-02,-5.470813e-02,4.477530e-02,-2.015361e-02,-3.731900e-02,-9.392841e-03,-3.212463e-02,2.387438e-02,1.466689e-02,-5.852017e-02,-1.462808e-03,1.893996e-02,-6.629060e-03,-3.392782e-02,-9.590855e-03,-1.642325e-02,-2.052280e-02,3.795681e-02,-1.347207e-02,-3.321097e-03,8.783164e-04,1.131755e-03,-1.222277e-02,-3.061095e-02,1.245126e-03,-1.585052e-02,2.755163e-02,-4.048277e-02,-2.346269e-02,2.242383e-02,-3.531391e-02,2.767945e-02,1.914228e-02,-4.777656e-02,
-1.099885e-01,1.804310e-01,-9.051692e-01,-3.135679e-01,-9.115800e-03,2.468179e-01,-4.010633e-02,1.701401e-01,-4.875799e-01,-5.052848e-04,6.256369e-02,9.172376e-02,5.916427e-01,1.100602e+00,8.409467e-05,8.634756e-02,-1.410932e-01,3.846765e-02,-1.201506e-01,3.955633e-01,2.425460e-02,-1.698282e-01,-5.663477e-01,1.615102e+00,9.853383e-02,1.507738e-01,-8.692320e-02,-3.678938e-01,-2.918356e-02,-8.088789e-02,-5.318342e-01,3.589472e-02,-3.357015e-02,-3.619998e-02,2.647363e-01,3.417172e-02,-2.388696e-01,-6.212905e-02,1.143228e-01,5.289657e-01,3.012796e-01,1.614791e-02,1.134876e-01,2.406398e-01,-8.803102e-02,
3.240944e-02,2.005727e-02,1.057737e-02,3.682016e-02,-3.013881e-02,-3.168293e-02,1.217752e-02,1.997209e-02,-5.700164e-02,-4.870903e-02,-3.337360e-02,-3.131056e-02,-3.636985e-02,-1.819944e-02,7.484704e-03,-4.890085e-02,-4.864048e-02,-1.922962e-02,-9.566743e-04,-5.597729e-02,4.483582e-02,2.282794e-02,2.110398e-03,3.332487e-02,1.829760e-02,1.085078e-02,-4.740370e-03,-9.341221e-03,4.568856e-02,-5.212515e-02,-1.392370e-02,-4.422982e-02,-1.730751e-02,-4.973813e-03,-1.916837e-03,-4.230770e-02,9.393780e-03,-5.090489e-02,-4.819366e-02,-3.889769e-02,3.501847e-02,-9.061209e-03,-9.648009e-03,-5.609694e-02,-2.643874e-02,
1.685779e-02,-1.270741e-02,-1.340490e-02,1.372902e-02,2.272506e-02,8.543159e-03,1.864021e-02,-5.714145e-03,3.006344e-02,3.179983e-03,-4.675152e-02,4.394256e-02,3.031093e-02,1.943840e-02,-3.108086e-02,-1.542697e-02,-3.346691e-02,-1.063636e-02,-5.243857e-02,-3.675314e-02,-4.447218e-02,3.872508e-03,5.846666e-03,-5.665921e-02,-3.474902e-02,-2.330251e-02,-5.772788e-02,-1.261374e-02,4.499245e-03,-6.293136e-02,-7.083397e-03,4.229474e-02,-2.546993e-02,-3.707403e-02,2.019008e-02,-1.145287e-02,1.385760e-02,2.335263e-02,4.695132e-02,-1.846839e-02,-1.447948e-02,9.694782e-03,9.400459e-03,-1.811237e-02,-4.127885e-02,
-2.865364e-02,-4.039113e-03,2.352772e-02,-2.033860e-02,3.036832e-02,2.745546e-04,4.705671e-02,-5.154099e-02,-1.258867e-02,-4.354521e-02,-4.023121e-02,3.329213e-02,-4.464519e-02,-3.085422e-02,-1.059422e-02,3.324782e-02,-1.048555e-02,1.046541e-02,-2.460269e-02,1.196038e-03,3.446485e-02,3.850666e-02,-1.972657e-05,2.804181e-03,2.303124e-02,-1.486017e-02,-6.327691e-03,1.511076e-02,-1.131681e-02,-4.163550e-02,-2.113908e-02,-2.638657e-03,-4.400009e-02,-5.495326e-02,-3.138145e-02,-1.863962e-02,-1.206247e-02,4.007549e-02,-3.231836e-02,4.418072e-03,3.473391e-02,-3.897840e-02,-3.608694e-02,-1.278783e-02,-2.648737e-02,
2.530163e-02,-1.987079e-01,1.044446e-01,-5.690426e-01,1.685421e-02,-5.096267e-01,-1.433516e-02,5.264493e-01,1.702915e-01,1.196690e-01,-1.080237e+00,2.491291e-01,-9.249936e-02,1.746924e-02,1.561845e-02,1.554637e-01,-5.968828e-01,-2.688029e-01,4.442186e-01,-3.072819e-01,-5.437994e-01,-2.860646e+00,8.207069e-03,5.657975e-02,1.654449e-01,-2.192379e-03,-1.765970e-01,-1.308566e-01,3.837829e-03,4.030166e-01,-4.184121e-01,-2.035131e-04,2.401208e-01,-3.203007e-01,8.621390e-02,2.271930e-01,2.100180e-01,-3.558243e-01,4.359555e-02,6.850675e-02,1.354300e-01,3.657943e-01,5.902629e-02,6.884524e-02,-5.611041e-01,
6.287174e-01,1.128729e-01,-9.828716e-02,-7.527687e-02,1.214657e-02,-5.361581e-01,-2.524211e-02,4.316476e-01,6.039135e-01,-1.852202e-01,5.030434e-01,-1.419972e-01,-2.441968e-01,6.906882e-01,-3.606224e-01,6.921429e-02,8.577726e-01,-3.219003e-01,3.228882e-01,-1.405588e-02,-8.070107e-02,3.857001e-01,-4.834778e-01,2.933669e-01,1.107176e-01,1.144013e-01,6.758133e-01,6.962193e-01,-4.008671e-02,4.204701e-01,-3.152806e-01,4.326499e-02,-1.553875e-01,1.652936e-01,6.948834e-02,1.659404e-01,1.215958e-01,3.017696e-01,1.935403e-01,6.566012e-02,1.370230e-01,-8.614738e-02,5.734288e-02,-1.347176e-01,9.871943e-02,
3.722933e-01,1.168917e-02,-4.199689e-01,-2.035449e-01,-8.140573e-03,4.719619e-01,2.061999e-02,1.829486e-01,2.430602e-01,5.159680e-01,3.735200e-01,4.513451e-02,-3.436909e-02,7.159529e-01,4.229013e-02,1.232370e-01,-3.445097e-01,-4.051435e-01,-1.422642e-01,-2.278650e-01,-3.164036e-01,3.856173e-01,5.623860e-02,-7.303531e-03,1.881824e-01,1.176771e-01,2.283310e-01,3.889414e-01,2.297632e-02,6.525259e-01,-3.019060e-01,-4.530486e-02,7.871803e-01,2.596294e-01,5.351931e-01,3.480346e-02,3.362402e-01,-5.217939e-01,-1.262422e-01,1.081511e+00,-4.265394e-01,-1.333279e-01,-1.606351e-01,6.813284e-01,4.506322e-01,
-1.542708e-02,-2.069451e-02,-5.032604e-02,-1.282600e-02,4.965932e-02,9.324837e-03,1.191844e-03,-5.380832e-02,-1.572211e-02,1.622448e-02,2.160531e-02,-1.411657e-02,1.990259e-02,-2.592169e-02,2.172781e-02,-1.159364e-02,-4.413406e-02,-4.261838e-02,-2.726801e-02,-2.708576e-02,2.053426e-02,-1.278582e-02,-3.911219e-02,-1.413707e-02,-1.995779e-02,-4.708106e-02,1.146066e-02,-4.168304e-02,-1.969590e-02,2.530991e-03,-1.712290e-02,-1.645603e-02,-6.300051e-02,-3.557808e-02,2.073111e-02,6.548474e-03,-9.789549e-03,-9.834911e-03,2.237188e-03,-5.259897e-02,3.386247e-02,1.563407e-02,2.437564e-02,1.060457e-02,2.945411e-02,
3.271599e-02,-4.313280e-02,3.062301e-02,-7.224215e-05,6.019877e-03,1.030043e-02,-4.141451e-02,-2.659053e-02,-5.381590e-03,3.928337e-03,-1.973276e-02,-3.339704e-02,-4.662102e-02,-3.433659e-03,-1.053074e-02,-5.464233e-02,1.722617e-02,-5.514045e-02,2.329622e-02,1.637049e-02,-3.707167e-02,-2.898425e-03,-2.164718e-02,-2.394867e-02,-5.896090e-02,1.699826e-02,-5.120609e-02,-1.485713e-02,-3.299299e-02,1.978029e-02,-2.825225e-02,3.927281e-02,-3.117179e-02,-3.289292e-02,-5.230496e-02,-1.535998e-02,-6.140547e-02,2.400537e-02,-4.830017e-02,-7.152874e-03,1.270047e-02,-4.805243e-02,2.540727e-02,1.193478e-02,-5.656330e-03,
-4.759005e-01,-3.994251e-03,1.352415e-01,-9.908126e-02,-3.108506e-02,-2.300980e-01,-1.674108e-02,1.238242e-01,2.679424e-01,3.032487e-01,-8.996186e-02,1.098675e-01,-3.166146e-01,3.912797e-01,-1.601359e-01,3.569961e-02,1.790261e-02,-3.361243e-01,2.555260e-01,2.103191e-01,-3.977624e-01,1.673419e+00,-5.090486e-01,1.468405e-01,2.730771e-01,3.846798e-01,-3.120122e-01,4.680575e-01,-2.073363e-02,-2.200308e-01,-3.186759e-01,1.384135e-02,-5.164585e-02,2.464794e-01,-2.986644e-01,4.935544e-02,2.682132e-01,2.577410e-01,-4.289013e-01,-1.597537e-01,1.512310e-02,4.541894e-02,-1.918705e-01,1.973916e-01,-6.074786e-01,
-4.790068e-02,2.869280e-04,3.220405e-02,-1.592750e-02,7.409351e-03,3.275611e-02,-4.751377e-02,-1.375718e-02,-7.689137e-03,-8.739734e-03,3.351650e-02,-3.507869e-02,3.224249e-02,-5.924551e-03,3.287491e-02,-2.190287e-02,2.692644e-03,-7.158451e-03,-4.687939e-02,-5.673265e-02,-5.638061e-02,3.774821e-02,2.012010e-03,-2.674530e-02,-5.206198e-02,-2.948266e-02,2.279743e-02,-4.602934e-02,4.171996e-02,-1.158554e-02,3.122380e-02,4.342438e-02,3.925281e-02,2.266740e-02,-5.139699e-02,-5.341449e-02,-8.252149e-03,-4.508439e-03,6.881228e-03,1.746768e-02,7.747130e-03,-1.380085e-02,-4.209227e-03,-5.079367e-02,2.509505e-02,
1.318145e-01,-3.612759e-01,-1.918749e-01,-8.199723e-01,2.706005e-02,-1.025546e-01,-2.221962e-02,4.268904e-01,1.676697e-01,-4.560278e-02,7.224243e-02,-2.781622e-01,-9.007030e-02,-2.268352e+00,3.968437e-01,-9.769233e-01,2.198440e-01,3.069106e-01,-6.820793e-01,2.052987e-02,-1.676436e-01,5.070412e-02,8.419798e-02,2.285409e-01,-2.375547e-02,-9.727436e-01,1.029360e-01,2.245964e-01,3.363093e-02,5.839034e-01,-3.451647e-01,2.951266e-02,1.742023e-01,2.393877e-01,-2.141429e-01,-3.108540e-01,3.722256e-01,-3.653388e-01,1.906291e-01,4.124116e-01,8.519028e-01,3.035002e-01,-1.104363e+00,-7.781335e-01,5.559372e-02,
4.613051e-01,2.911921e-01,4.230637e-02,-2.963350e-01,-4.823104e-02,3.515902e-01,-3.644949e-02,2.083354e-01,2.197957e-01,8.067403e-01,2.276446e-01,2.172202e-01,-9.584489e-02,8.856968e-01,1.086709e+00,3.219517e-02,6.116169e-01,7.484148e-01,6.676857e-02,1.070238e-01,-2.065775e-03,6.132735e-01,1.179671e-01,1.733643e-01,1.987214e-01,4.849970e-01,3.728152e-01,4.258228e-01,4.853836e-02,2.171651e-01,-1.186708e-01,-4.108883e-02,9.258008e-01,1.115450e-01,3.260438e-01,6.282689e-02,7.155950e-02,5.571799e-01,5.214714e-01,8.994223e-01,1.500399e-01,1.936487e-01,4.102978e-02,-7.915826e-02,1.319202e-01,
-1.216142e-02,-5.077408e-02,-2.062201e-02,4.516277e-02,9.989769e-03,2.514268e-02,4.656863e-03,-2.710713e-02,-1.850944e-02,-3.665012e-04,-2.085494e-02,1.911242e-02,-3.102259e-02,2.146041e-02,1.280783e-02,-2.973380e-02,3.274166e-03,2.178509e-02,1.039691e-03,-5.979083e-03,-1.508185e-02,-4.251070e-02,3.241054e-02,-1.368819e-02,-1.146100e-02,2.552522e-02,6.124011e-03,-3.738503e-03,8.929295e-03,-5.462689e-02,-3.822757e-02,-4.711083e-02,-5.606059e-02,-4.819503e-03,-4.751569e-02,2.640183e-02,-2.564366e-02,-2.348997e-02,-1.475294e-02,-6.161574e-02,-3.895283e-02,1.060905e-02,-4.923798e-02,-1.657102e-02,3.111016e-03,
-1.230450e-01,-6.877189e-02,-8.356282e-01,-3.964310e-01,-1.587277e-02,-2.978813e-01,-1.253182e-02,4.004398e-01,3.997734e-01,5.892683e-02,1.625746e-01,-6.023421e-01,4.608958e-01,8.189527e-01,9.170779e-02,-3.413362e-02,-5.454412e-01,1.601959e-01,4.238178e-01,-7.366809e-02,-4.969134e-01,-1.382649e-02,5.910805e-02,3.594757e-01,2.849668e-01,4.819529e-01,-1.995724e-02,-2.344501e-01,-1.582530e-02,1.130695e+00,-7.682613e-01,2.942338e-04,7.712151e-02,3.917301e-01,4.451658e-01,3.442723e-01,-3.237694e-01,4.758272e-01,-5.654321e-01,1.669411e-01,4.431353e-01,6.499210e-01,-3.326323e-01,2.990721e-01,-9.228947e-02,
-2.911341e-03,-2.330638e-03,-2.082637e-02,-4.256988e-02,6.821081e-03,2.054396e-02,-1.475771e-02,-4.670617e-02,1.501380e-02,-5.520939e-02,1.022948e-02,-2.513702e-02,2.837866e-03,4.117906e-02,-4.938031e-02,-3.553628e-02,-3.742423e-02,5.192003e-03,-4.952329e-02,1.174054e-02,-2.382612e-02,-1.587150e-02,-4.900857e-02,2.625738e-02,2.982195e-02,1.536023e-02,3.395408e-02,1.821097e-02,3.837053e-02,3.209294e-02,-2.034805e-02,2.632294e-02,1.193516e-02,-5.518050e-02,-1.715134e-02,-4.737432e-02,-3.404480e-02,-5.450655e-02,-3.302272e-02,-1.430055e-02,-1.911501e-02,-2.514301e-02,-3.976214e-02,-2.946593e-03,-1.120853e-02,
-8.413915e-02,-6.014607e-02,6.087486e-02,1.536097e-01,-3.318446e-02,8.478919e-02,3.323570e-02,-2.447875e-02,-3.232598e-02,-4.291366e-01,1.832803e-01,6.422579e-02,-1.142853e-02,2.415339e-01,2.867178e-02,5.026262e-02,1.110516e-01,-7.892084e-03,5.729168e-02,8.635291e-02,-8.448722e-01,-1.776068e-01,1.164019e+00,-9.154000e-02,-5.010018e-02,5.818310e-03,7.280078e-02,5.033309e-02,-2.830333e-02,2.237554e-02,9.950387e-02,-4.003813e-02,-1.362069e+00,8.019900e-02,1.241642e-01,9.440660e-02,1.659131e-01,-1.420424e-01,8.177922e-03,-1.410696e+00,4.404463e-02,2.126183e-04,-2.495113e-03,-9.720406e-03,-3.020070e-02,
1.420215e-01,1.540580e-01,-7.263790e-01,-6.626220e-01,7.174306e-03,-2.541641e-02,-2.172492e-02,9.490798e-04,-2.569640e-01,-7.739968e-03,9.535044e-02,9.120808e-01,-3.322369e-01,-1.275766e+00,2.771117e-01,-1.598886e+00,1.341471e-01,1.802523e-01,2.471768e-01,3.607540e-01,1.085236e-01,1.170238e-02,5.001075e-02,3.480648e-02,-1.534337e+00,-3.517696e-02,-1.005592e-01,9.176416e-02,7.827498e-03,-7.023278e-01,-3.510807e-01,-2.222804e-02,2.394908e-01,1.459077e-01,4.739925e-02,-1.192796e+00,6.446317e-01,1.369141e-01,8.798464e-02,1.418777e-01,-8.835687e-02,-2.498614e-01,5.947471e-01,2.727537e-02,3.983082e-01,
1.904857e-01,3.425781e-01,-2.656420e-01,-3.455445e-01,1.630573e-02,-1.287641e-01,-1.054861e-02,7.448386e-02,-1.879458e-02,-8.645164e-02,8.967333e-01,1.821777e-02,1.370467e-01,5.263128e-01,1.010858e+00,1.083123e-01,1.264954e-01,1.432510e-01,4.881882e-02,3.724650e-01,-6.163238e-01,1.046242e+00,-7.998827e-01,-6.830198e-02,1.985739e-01,4.174722e-01,-3.362635e-01,1.276639e-03,3.026233e-02,3.820042e-01,-1.360435e-01,-4.435147e-02,-6.893962e-01,2.126448e-01,3.984293e-01,2.040772e-01,3.231214e-01,-2.542436e-01,1.395029e-01,-4.768049e-01,-6.073570e-02,-1.050704e-01,7.645584e-02,6.967493e-01,8.988328e-01,
-1.584037e-01,-5.661693e-01,-2.352123e-01,-1.320951e-01,-4.514085e-02,2.589309e-02,1.117087e-02,7.479548e-01,-1.004715e+00,-2.294069e-01,5.816442e-01,2.977186e-01,3.048977e-01,-1.182051e+00,-2.864132e-01,-2.299965e+00,-1.017817e-01,4.777005e-01,-6.122625e-02,4.225247e-01,-1.469750e-01,1.007923e+00,1.126357e-01,1.231684e-01,-5.681927e-01,1.686331e-01,6.552651e-01,-5.334825e-01,2.604604e-02,-1.623598e-02,-2.383214e-01,-2.000580e-02,1.601100e-01,-1.333975e-01,1.451007e-01,-8.378132e-01,5.836071e-01,-1.333092e-01,1.050062e-01,5.071453e-01,1.302877e-01,6.088296e-01,3.426978e-01,5.663595e-01,5.820029e-02,
-1.613065e-02,3.024066e-02,1.516948e-02,4.003064e-02,3.916505e-02,-4.630324e-02,3.401849e-02,-4.669132e-02,-5.540391e-02,3.500458e-02,3.352185e-02,2.132261e-02,-7.568208e-03,1.102685e-02,-4.567783e-02,-3.172337e-02,-8.846581e-03,2.383852e-02,-2.309744e-02,-8.097156e-04,-3.043038e-02,-1.429016e-03,2.298461e-02,2.242565e-02,-1.594469e-02,3.134000e-02,6.599798e-03,-2.953012e-02,-8.413932e-03,-4.411484e-02,-3.372834e-02,1.338682e-02,-1.218629e-02,-4.430402e-02,-4.453557e-02,-3.998347e-02,-2.649500e-02,-5.760297e-02,1.639575e-02,-2.634695e-02,-5.409798e-02,-2.335515e-03,-2.960234e-02,-2.291388e-02,1.371194e-02,
-1.076408e+00,-2.885691e-01,-5.616058e-01,-9.105782e-01,4.498762e-02,-3.121453e-01,-2.766958e-02,2.283189e-01,-1.048159e+00,1.092118e+00,-1.883107e-01,3.404024e-01,-3.455942e-01,-3.982214e+00,-1.744010e-01,-9.267362e-01,3.015825e-01,8.311138e-02,-3.320511e-01,1.197180e-01,-5.388550e-01,-2.523550e-01,2.291323e-01,2.040172e-01,-1.871002e+00,4.459150e-02,-4.625439e-01,4.642417e-01,-4.519735e-02,-2.333703e-01,-4.794788e-01,-2.519194e-02,-1.788635e-01,-2.271264e-02,-1.712653e-01,-1.587238e-01,4.909004e-01,3.729930e-01,-1.848806e+00,-2.126403e+00,-5.206772e-02,1.925257e-01,-1.631961e-01,1.951192e-01,4.533044e-01,
-3.697021e-02,-5.101296e-02,1.764065e-02,-2.951163e-03,-4.898430e-02,-3.911340e-02,-1.346076e-02,-4.353544e-02,-2.996677e-02,2.657989e-02,-1.526181e-02,-5.587971e-03,1.778270e-02,2.303517e-02,1.167979e-02,6.288072e-03,-4.112751e-02,4.058841e-02,-3.536371e-02,3.475595e-02,-1.605618e-03,-1.372243e-02,1.162091e-02,-3.688713e-02,-3.337659e-02,-7.530400e-03,-1.877820e-02,-5.167655e-02,4.192764e-02,-2.566555e-03,-2.090213e-02,-4.061675e-02,-3.122535e-02,-3.368297e-02,-1.679633e-02,-1.424401e-02,-3.845165e-04,-4.166061e-02,-1.974510e-02,-6.645987e-04,-3.158283e-02,-2.845176e-02,-3.075469e-02,-5.106322e-02,1.904357e-02,
9.474286e-02,6.204579e-03,1.473426e-01,-5.447778e-02,2.656177e-02,-2.929731e-02,-4.472107e-02,-4.351987e-02,-1.613121e-01,-6.604283e-02,2.146982e-02,-1.023248e-01,1.168339e-01,-5.374451e-01,-1.618887e-01,2.087583e-01,-1.805322e+00,1.020956e-01,-5.548154e-01,-3.833062e-01,-6.110866e-02,-5.171641e-01,-3.374705e-01,2.438889e-02,4.789115e-02,-2.478398e-02,-3.262943e-01,4.500000e-01,-4.758247e-03,-7.055051e-01,-2.945604e-01,9.444812e-03,6.761650e-02,1.091534e-01,3.013184e-01,-2.409266e-01,5.627835e-01,-2.629088e-01,3.796832e-02,-2.803045e-01,2.357177e-02,5.077276e-01,2.207807e-01,1.683003e-01,1.372207e-01,
4.387494e-02,1.025290e-01,-1.686080e-01,-3.019010e-01,3.875838e-02,-4.558901e-01,-9.232987e-03,8.526896e-02,2.885148e-01,3.660816e-01,-2.753671e-02,-8.539882e-02,-2.535137e-02,5.614031e-01,2.540334e-01,5.174498e-02,-7.671305e-02,-2.085118e-01,3.110287e-01,2.617808e-03,3.012217e-02,-5.895005e-01,8.702285e-02,-1.278305e-01,1.689375e-01,1.897160e-01,-6.994891e-02,-2.006322e-02,-3.329517e-02,2.372364e-01,-2.110976e-01,-1.704106e-02,1.071634e+00,1.133102e-02,2.346738e-01,1.955187e-02,2.893019e-01,-1.536063e-01,-3.430713e-01,5.899661e-01,1.487923e-01,-8.816671e-02,1.320788e-01,2.626377e-01,9.781139e-02,
-2.497226e-02,7.362763e-01,9.146442e-01,-2.695730e-01,1.350787e-02,4.595190e-01,4.785303e-02,-2.911515e-02,1.399354e-01,-7.520264e-01,-3.256948e-03,2.178553e-01,-2.365910e-01,8.424521e-02,1.570568e+00,3.957700e-01,6.933665e-01,-1.150970e+00,-3.364601e-01,-2.963476e-01,-1.352020e+00,9.181195e-01,-1.819792e-01,2.138917e-01,-9.390937e-01,-1.572757e-01,1.574520e+00,-1.596218e-01,-3.433844e-02,-4.515106e-01,-1.175449e-01,4.172662e-02,4.929853e-01,-2.377141e-01,2.709395e-02,-1.616143e-01,9.123290e-02,1.875839e-01,6.328184e-01,3.770415e-01,8.807754e-01,-2.663891e-01,3.903279e-01,-1.132356e-01,4.742955e-01,
-1.370878e-02,
-1.505238e-01,
3.028172e-01,
5.473254e-01,
2.276803e-01,
2.833020e-01,
1.441521e-01,
1.026658e-01,
-3.957761e-03,
2.517967e-02,
7.305142e-02,
-1.821550e-02,
-1.313858e-02,
2.700079e-01,
-7.867805e-03,
1.115458e-01,
-1.012361e-02,
-1.131425e-01,
-2.344723e-02,
8.117275e-02,
-9.968313e-03,
-1.718711e-02,
-1.392171e-02,
2.846514e-01,
5.990291e-02,
-2.554633e-01,
-1.493189e-02,
-2.145538e-02,
5.103610e-01,
-1.538076e-02,
3.401571e-01,
-1.732664e-01,
-1.882752e-02,
2.662008e-01,
-1.799295e-02,
5.688805e-01,
2.924283e-01,
2.232078e-01,
-4.346826e-01,
-2.748325e-02,
2.591241e-01,
-1.613587e-02,
5.893493e-01,
-7.806746e-02,
-2.351957e-01,
-3.811524e-02,-2.353899e-02,-2.043330e-02,1.676005e-02,-7.766651e-03,-1.365074e-02,1.295341e-02,4.018248e-02,1.988648e-02,-4.583491e-02,1.970655e-02,1.606979e-02,3.754825e-02,-1.607747e-03,-7.111850e-03,3.540894e-02,2.628383e-03,1.954355e-02,-4.146550e-02,-3.404449e-02,-3.587124e-02,2.339372e-02,3.423989e-02,-4.864791e-02,4.609019e-03,-4.190362e-02,-6.967862e-03,-1.912465e-02,-4.577924e-02,-3.152576e-02,2.045632e-02,-4.629128e-02,-2.726008e-02,-1.838581e-02,1.404175e-02,-4.537680e-02,-2.785098e-02,-3.901643e-02,-2.061440e-02,1.372148e-02,-2.533514e-02,1.945632e-02,2.201846e-06,2.877135e-02,2.958069e-02,
4.685665e-03,2.448736e-01,2.316838e-01,-5.338899e-01,1.446148e-01,1.651658e-01,-1.953744e-01,1.323249e-02,-2.850766e-02,-1.974230e-02,5.752337e-01,2.948070e-02,3.427801e-02,9.368172e-02,1.166844e-02,4.361467e-02,1.378936e-02,-1.978344e-01,2.222443e-02,-4.574022e-02,1.362023e-02,1.045230e-02,-4.522800e-02,-1.233679e-01,1.621526e-02,1.225747e-01,1.759978e-02,-4.438575e-02,2.706548e-01,1.125094e-02,-7.240304e-01,8.437848e-02,5.626137e-02,2.004530e-01,-2.851800e-02,-2.633131e-02,-3.228090e-01,-1.468959e-01,-6.061610e-01,-2.065046e-02,1.215340e+00,2.866319e-02,-8.719661e-02,4.656576e-03,-3.856201e-01,
4.712508e-02,-1.165923e-01,-2.047724e-01,-7.389479e-01,1.141804e-02,2.511951e-01,5.499557e-02,6.092166e-01,3.120456e-02,5.958598e-02,7.717233e-01,2.204229e-02,2.814834e-02,6.469128e-01,3.082273e-02,-2.292024e-02,-2.415344e-02,2.192737e-02,1.901907e-02,-1.168673e+00,2.744075e-02,-2.416251e-02,-2.263580e-02,-7.232773e-01,-1.469271e-02,1.387003e-01,4.536487e-02,9.098113e-03,-6.660983e-02,2.079799e-02,-4.076159e-01,2.527216e-02,3.612398e-02,-4.444822e-01,6.687598e-03,4.368308e-02,1.927413e-01,8.080608e-02,-1.876037e-02,-1.427037e-02,-1.687841e-01,4.915972e-02,-7.939410e-01,-1.989387e-02,-5.483567e-01,
-3.906652e-02,-1.450404e-01,-1.573141e-01,-1.196080e-01,7.533207e-02,-1.941907e-02,-3.782854e-02,3.360298e-01,-8.438837e-02,-1.117145e-01,1.052379e+00,3.635890e-02,4.001889e-02,4.052807e-01,-2.737644e-02,-4.719815e-02,1.932138e-02,3.469120e-01,3.232341e-02,-4.040238e-02,4.937814e-02,2.399801e-02,2.336466e-02,-4.981143e-01,4.837789e-01,-1.523825e-02,2.313274e-02,-2.613122e-02,4.076570e-01,-3.809466e-03,1.955157e-01,-9.311786e-02,3.962075e-02,-2.281632e-01,1.854600e-02,-1.461155e-02,1.962440e-01,-3.991716e-02,-3.655895e-01,-4.726471e-02,-1.533056e-01,-4.879470e-02,-3.095331e-01,-2.652927e-02,-2.828074e-01,
-4.668403e-02,-4.530076e-01,1.656784e-01,4.160804e-01,3.688065e-01,2.194935e-02,-1.382352e-01,4.990237e-01,-3.995897e-02,3.819141e-01,1.939972e+00,-1.635644e-02,4.668424e-03,-1.415144e+00,3.719378e-02,-6.713291e-01,9.609632e-03,-1.161853e+00,2.357983e-02,4.516562e-01,-1.481499e-02,2.467885e-02,2.145743e-02,1.861851e-01,3.498763e-02,7.484449e-02,-2.298168e-02,3.788065e-02,-8.670293e-02,-4.026065e-02,-4.082586e-01,-2.133762e-01,-5.423721e-02,-3.936406e-01,-5.258849e-03,1.475374e-01,-3.348564e-01,-7.801890e-02,-1.275309e+00,-7.337125e-03,7.782779e-01,2.615325e-02,-1.213796e-01,3.059130e-01,-4.497545e-01,
-2.332718e-02,1.095965e-01,-8.872417e-03,-1.988544e-01,7.219635e-02,-5.064830e-02,1.963396e-02,9.483342e-02,-1.763330e-02,-8.654114e-02,-2.474829e-01,-4.122759e-02,1.057657e-05,2.289761e-01,-2.029664e-03,9.531432e-02,6.904076e-03,-9.062934e-02,-1.929717e-02,3.242275e-02,-6.298139e-03,3.492812e-02,-4.654090e-03,9.013829e-02,2.436274e-01,4.810343e-03,-3.499762e-02,-3.779830e-02,4.928706e-03,-3.863937e-02,1.772267e-02,1.028987e-01,-1.674043e-02,-1.723354e-02,5.050107e-02,-3.356707e-01,2.154798e-01,-8.644990e-02,2.092278e-01,-3.099749e-02,3.811042e-02,-4.371970e-02,6.081412e-02,4.653980e-02,-4.557500e-01,
-1.380439e-02,1.217253e-01,-8.530203e-02,3.079681e-01,-1.658973e-01,2.073861e-02,1.295133e-01,-7.053757e-01,-4.475140e-03,1.003796e-02,7.538561e-01,5.238747e-02,4.711506e-02,1.180000e-01,-1.013359e-02,4.210800e-01,-2.586617e-02,-1.898847e-03,-1.622681e-02,6.545379e-02,1.468775e-02,3.022934e-02,-3.950493e-02,4.099231e-01,-8.678813e-02,3.824766e-02,1.683159e-03,1.433771e-02,1.506606e-01,-3.118135e-02,5.660495e-02,-2.462515e-02,4.192756e-02,2.795002e-02,-2.440224e-02,-2.288176e-01,-3.279039e-02,-1.157850e-01,-3.226317e-01,-2.740579e-02,4.529532e-01,-6.836265e-03,5.884759e-01,-1.501199e-01,2.555152e-01,
3.364824e-04,-2.488652e-01,-4.510245e-01,1.873860e-01,-7.252870e-02,9.854922e-02,3.381684e-01,-8.011315e-01,-3.088634e-02,1.709921e-01,1.042226e+00,-4.185111e-02,-1.544509e-02,2.111827e-01,2.185933e-03,1.247837e-01,3.602616e-02,-8.489277e-01,1.214218e-02,-5.429529e+00,-1.172238e-02,6.101695e-03,-1.380357e-02,1.353541e-01,1.364535e-01,2.131668e-01,-3.434870e-02,-4.428616e-03,-2.692291e-01,-2.284505e-04,1.331128e-01,1.008371e-01,-1.978506e-02,-5.106927e-01,-3.438117e-02,5.810674e-01,3.229698e-02,-2.936170e-02,-4.929189e+00,4.103163e-02,-1.068158e+00,-3.918647e-02,-3.349613e-02,1.722790e-01,-4.444939e+00,
2.451875e-02,-7.576950e-01,2.883803e-01,-2.699116e+00,4.030505e-01,-8.193007e-01,-1.021141e+00,-1.709105e+00,-5.043573e-02,-1.474051e+00,-1.253190e+00,-3.984291e-02,9.179205e-03,-2.701191e-02,3.453999e-02,9.725027e-01,-2.321743e-02,4.035361e-02,-4.856380e-03,-4.094619e-03,-3.421988e-02,-1.865567e-02,-2.342406e-02,2.350165e-01,4.547508e-02,1.285013e-01,1.703760e-02,1.388900e-02,4.261567e-02,2.967072e-02,-2.090268e-01,-3.541396e-01,2.474871e-02,-2.685566e+00,4.045231e-02,3.961094e-01,-4.928584e-03,-4.915446e-02,7.186314e-03,1.730268e-02,-4.646342e-02,8.689971e-03,-4.689559e+00,7.261783e-01,2.144594e-03,
-2.113959e-02,-1.433743e-01,2.101685e-01,-1.802446e-02,4.521693e-01,6.345990e-02,5.881441e-02,-6.611676e-01,-1.996127e-02,-5.653954e-02,-3.602512e-01,2.357067e-02,-4.850551e-03,4.152401e-01,4.996436e-02,8.429532e-02,3.591242e-02,-6.163420e-03,3.236651e-02,-4.778612e-03,-1.529206e-02,-3.286349e-02,1.160925e-02,-1.155386e-01,1.648737e-01,-1.625792e-01,-4.894131e-02,-4.525872e-03,3.820271e-01,-4.167536e-03,-2.730317e-02,-4.166585e-02,4.642042e-03,-6.781334e-02,-3.569486e-02,-1.866485e+00,-1.008939e-01,3.604424e-01,-1.405729e-01,4.642223e-02,-1.462521e-01,3.728287e-02,1.761298e-01,-4.127815e-01,1.379871e-01,
-1.679110e-02,-3.055394e-02,-4.902787e-01,-1.441714e-01,-6.679356e-02,8.592196e-03,3.224200e-01,-5.338128e-01,1.662133e-02,-6.068834e-02,-5.250378e-01,2.440891e-02,3.396717e-02,-4.661778e-02,-3.528277e-03,2.168861e-01,-3.607685e-02,-4.464025e-01,-3.577813e-02,1.963637e-02,5.611479e-03,-3.724167e-02,1.253002e-02,-4.475220e-01,2.343421e-01,-1.635732e-02,-1.789060e-02,-9.922349e-03,2.762307e-02,2.383062e-02,-2.739491e-01,1.046558e-01,-2.671703e-02,-6.291829e-02,4.630309e-02,-3.277794e-01,-4.043146e-01,6.506452e-02,-1.965649e-02,-4.364971e-02,-4.692448e+00,2.618561e-02,-2.071469e-02,2.316267e-01,-8.820701e-02,
1.563808e-02,-4.898014e-03,-2.404741e-02,1.885895e-02,-1.938793e-02,-3.714666e-02,3.541864e-03,-1.394191e-02,4.501618e-02,-3.800950e-02,3.395405e-02,8.191976e-03,2.420418e-02,1.916442e-03,1.159362e-02,3.829233e-02,-4.893130e-02,-7.548063e-03,-3.179537e-02,-3.532306e-02,-1.183849e-02,2.026785e-02,1.873177e-02,-7.195240e-02,-2.119667e-03,-3.162006e-02,-2.552190e-02,1.014394e-02,-7.996433e-03,2.495028e-02,-1.997157e-02,-2.590635e-02,2.881534e-02,-4.861753e-02,-9.348115e-03,-2.225073e-02,3.015458e-02,1.880624e-02,6.384013e-02,-3.155126e-02,2.619593e-02,2.177057e-02,-4.457899e-03,-3.008102e-02,1.785841e-02,
-4.791721e-02,-5.074399e-01,1.932767e-01,-3.008534e-01,5.114650e-01,-2.031355e-01,-5.532905e-01,3.738977e-01,-8.531363e-03,-1.048339e-01,3.026363e-01,-2.142155e-02,-4.889651e-02,2.549613e-01,-2.320156e-02,2.202454e-01,-1.801198e-02,2.743422e-04,-3.391660e-02,-1.779459e-01,2.470433e-02,4.027530e-02,-1.943930e-02,2.579030e-02,-3.485869e-01,2.192289e-01,2.227546e-02,-2.173759e-02,2.727604e-01,2.168238e-02,2.403598e-02,3.892842e-02,-9.608965e-03,-6.862373e-02,1.620902e-02,9.443069e-03,8.123050e-02,-6.633295e-02,-1.667119e+00,-2.057239e-02,1.478957e-01,-1.437885e-02,-7.794349e-01,2.369494e-01,-2.767397e-02,
4.008216e-02,-2.544763e-01,3.836252e-01,1.400802e-01,2.855617e-01,1.311095e-01,-1.293892e-01,-2.176192e-02,2.188329e-02,2.549785e-02,4.711972e-01,-3.881547e-03,-2.376038e-02,1.521590e-02,1.770990e-02,-7.199853e-02,4.929337e-03,-5.497082e-02,-1.255853e-02,-7.402396e-02,1.952155e-02,4.211720e-02,-2.617134e-02,9.939906e-01,1.943244e-01,2.489322e-02,-5.867669e-03,-4.364448e-03,3.409920e-01,1.808524e-02,-2.194553e-02,-4.385341e-02,-2.296527e-02,8.295476e-02,-2.037286e-02,-4.761846e-01,-4.337801e-02,7.854500e-03,1.057702e+00,1.318896e-02,-4.133571e-02,2.626129e-02,4.392898e-01,-2.541248e-01,-2.547655e-01,
2.265088e-02,-1.179304e-02,1.689750e-01,-1.743613e-01,-2.360284e-01,-1.205702e-01,1.313376e-02,3.590634e-01,-1.769828e-02,6.207418e-02,2.574177e-01,-3.035041e-02,2.233457e-02,7.062825e-02,1.716045e-03,-3.380075e-01,2.573111e-02,7.600535e-02,1.114846e-02,-5.466305e-02,-1.464488e-02,2.081197e-02,6.163011e-03,2.220448e-01,2.572835e-01,4.553743e-01,-6.785620e-03,1.796910e-02,-2.760910e-01,-4.035547e-02,5.599117e-01,-1.499528e-01,3.738783e-02,-1.291770e-01,2.826156e-02,-1.654151e-01,-8.211902e-02,3.337144e-01,5.423476e-02,4.337490e-02,-6.834321e-02,1.430423e-02,2.448118e-01,-1.426280e-01,5.441796e-01,
2.209822e-03,2.325859e-02,-2.588663e-02,-5.466070e-02,-1.102431e-02,-4.816841e-02,-1.871900e-02,-4.832236e-02,3.666119e-02,1.894138e-02,-1.764876e-02,1.073525e-02,4.119157e-02,-1.423641e-02,3.891076e-02,1.065608e-02,4.725659e-02,4.470036e-02,1.279911e-02,-1.307960e-02,-3.699674e-02,2.987467e-02,3.165631e-02,2.951407e-02,-2.576850e-02,-2.777344e-02,-1.021791e-02,3.289792e-02,3.453699e-02,3.695379e-02,-3.364644e-03,-1.614005e-02,1.894856e-02,-2.703935e-02,1.617634e-02,-2.499797e-02,2.648452e-02,-5.590287e-03,4.168211e-02,1.574790e-02,4.224239e-02,3.731939e-02,7.428603e-03,-2.916520e-02,-3.610266e-02,
4.031930e-02,7.512385e-02,3.642533e-01,-3.164050e-01,1.561999e-01,2.410716e-01,4.792652e-02,1.197507e-01,-1.956410e-02,2.346676e-01,1.319285e+00,-3.874070e-02,4.193513e-02,2.083444e-01,3.519887e-02,-1.684778e-01,-7.721744e-03,1.961318e-02,3.928789e-02,1.741932e-01,-1.804878e-02,-2.857766e-03,4.585933e-02,-2.210438e-01,-4.104561e-01,-5.015823e-02,-3.251834e-02,-3.812670e-02,-1.492122e-01,1.613558e-02,-2.045623e-01,-1.114274e-01,-3.416162e-02,-1.166765e-01,-1.419566e-02,-2.166679e-01,-7.519171e-02,-1.273190e-01,-6.404732e-01,-3.091348e-02,4.027861e-01,-2.293271e-02,-7.404250e-03,-1.209478e-01,-1.592450e-01,
4.536682e-02,-2.061347e-02,-3.919291e-02,3.889143e-03,1.008769e-03,1.250353e-02,-6.950815e-03,2.604686e-02,-4.557161e-02,-3.901138e-03,-4.128872e-02,-3.372652e-02,2.099197e-02,1.388188e-02,3.314653e-02,-4.231402e-02,-4.793866e-02,-4.630621e-03,-2.276395e-02,1.181405e-02,-2.895673e-02,4.731245e-02,-2.678661e-03,-5.869348e-02,2.166821e-02,-2.210857e-02,3.380111e-02,3.180735e-02,1.424471e-02,3.396756e-02,-5.735995e-02,-4.473349e-02,-1.585040e-02,-3.934546e-02,-1.714180e-02,-8.765900e-03,1.731112e-02,9.619961e-03,-3.449183e-02,4.533538e-02,3.497992e-02,-4.323397e-02,-8.852484e-03,-2.970838e-02,-1.739801e-02,
5.306432e-02,-2.399322e-01,-2.137071e-01,-1.697906e-02,1.567850e-01,3.519720e-01,4.188814e-01,-7.372785e-01,-3.902867e-02,1.676700e-01,2.880056e+00,1.472118e-02,2.272492e-02,-1.733312e-02,2.811034e-02,-6.025890e-01,4.520142e-03,-1.091988e-01,9.997098e-03,-4.527244e-01,3.904742e-03,-1.440280e-02,-4.837988e-02,-1.006713e-01,-1.922632e-01,2.216895e-01,-3.800575e-02,-1.447245e-02,4.599570e-01,3.898927e-03,3.530993e-01,-1.089822e-01,-4.090695e-02,-1.656246e-01,-4.920483e-03,1.947899e-01,2.805235e-01,6.030538e-02,8.127407e-01,-3.588707e-02,-7.541100e-01,-3.596338e-02,3.064902e-01,3.743017e-01,-1.126238e-01,
1.224477e-02,3.613503e-02,-1.838452e-03,-3.020195e-02,3.227228e-03,5.549230e-02,-3.325935e-02,-2.872952e-02,4.439060e-02,2.024546e-02,-4.980910e-02,2.658397e-03,4.149057e-02,-3.413743e-02,3.104120e-02,-1.156508e-01,-2.491974e-02,2.172109e-03,4.990764e-02,-6.159526e-03,-3.692316e-02,9.551962e-03,4.389116e-02,-2.325102e-01,-7.771187e-02,-8.916710e-02,-3.708579e-02,-4.083474e-02,-4.597753e-02,4.439200e-02,3.899295e-02,-1.094591e-02,2.427726e-02,6.626756e-03,2.859040e-04,-8.168574e-02,-3.854481e-02,3.763396e-02,2.731094e-02,3.106312e-02,-1.718868e-02,1.354583e-02,-3.220895e-02,1.886564e-02,5.063008e-02,
2.004313e-02,-2.375152e-01,4.484873e-01,-1.505537e-02,1.324850e-01,1.803908e-01,2.619034e-01,-4.496786e-01,-2.469576e-02,2.858784e-01,-1.491243e-01,3.498762e-02,-2.813789e-02,2.804156e-01,5.621014e-03,1.181351e-01,1.810031e-04,-2.364253e-01,3.106983e-02,5.192609e-02,1.281877e-02,6.859803e-03,2.334275e-02,2.265731e-01,2.177499e-01,-4.680789e-01,1.220435e-02,1.183526e-02,3.701045e-01,-1.415123e-02,-2.762629e-02,-7.653497e-01,-1.820428e-02,-6.302246e-03,4.273291e-02,8.318568e-01,-4.946869e-02,7.369655e-01,9.038222e-02,-4.833859e-02,-5.982494e-01,-2.451404e-02,1.118714e-01,-9.798304e-01,1.559269e-01,
3.745709e-02,5.378522e-01,-4.958349e-01,-2.200720e-01,2.529525e-01,-2.651510e-01,9.693716e-02,-4.244452e-01,8.218397e-03,-2.133867e-01,9.385478e-01,-1.046490e-02,2.942327e-02,2.178831e-01,-3.465270e-02,3.077651e-01,-3.181525e-02,2.664081e-01,4.450933e-03,8.659205e-02,-2.672373e-02,-3.355529e-02,-4.436544e-02,7.995989e-01,-7.949383e-02,7.822184e-02,3.043103e-02,3.376099e-02,7.126318e-02,1.450181e-02,-7.346906e-02,-8.684282e-02,-3.452566e-02,6.037061e-02,3.868986e-02,-3.155492e-01,3.780254e-02,2.682160e-02,-2.307317e-01,-1.103465e-02,2.936617e-01,5.379187e-03,-4.980571e-01,3.279865e-02,-4.641851e-01,
1.498755e-02,4.902448e-02,9.995530e-02,2.161429e+00,5.398572e-02,-1.899655e-01,-1.894739e-01,2.414083e-02,3.609667e-02,-7.118620e-01,-5.508825e-02,1.667824e-02,2.254530e-02,3.666153e-02,-3.314899e-03,-1.780350e-03,1.808058e-02,9.234948e-02,-1.979083e-02,3.079204e-02,-2.171409e-02,-3.605561e-02,3.226284e-02,1.465505e-01,-1.138100e-01,-9.146663e-02,-1.705437e-02,-2.260250e-02,1.969193e-01,-3.872771e-02,1.804595e+00,-2.017059e-01,9.931860e-03,-6.063672e-01,-4.373203e-02,5.018283e-02,2.270952e+00,-5.156828e-02,3.414038e-01,1.557196e-02,-3.912406e-01,3.622506e-02,-2.585423e-02,2.105733e-02,-2.155625e-02,
-6.406531e-03,-6.509411e-01,-6.439510e-02,1.083697e-01,4.176423e-01,-4.307435e-02,-4.288675e-03,3.727974e-01,1.088115e-02,-6.090638e-02,3.334607e-02,3.824023e-02,1.527033e-02,8.729448e-02,1.112904e-02,5.455696e-02,-4.421007e-02,9.791163e-02,8.748239e-03,3.188640e-01,-1.931449e-02,3.581336e-02,3.342117e-02,-3.511380e-01,-1.015383e-01,1.318642e-01,1.110954e-02,-4.957419e-02,-3.615178e-01,4.157556e-02,4.128023e-02,-9.693532e-02,3.448290e-02,-2.064393e-02,3.343367e-02,1.162199e-01,1.379506e-01,-7.205103e-02,-1.778583e-01,4.596885e-02,2.403592e-01,7.981093e-03,-7.636663e-01,7.419748e-02,-5.567970e-01,
-3.791609e-02,-6.164970e-02,1.817287e-01,-7.125506e-02,1.463146e-02,-6.739423e-01,1.859094e-01,-3.162774e-01,-2.992373e-02,-5.564943e-01,1.006511e-01,-1.327228e-03,4.100205e-02,-1.880865e-02,-8.814346e-03,1.570218e-01,-1.668535e-02,8.656030e-02,2.620761e-02,1.034371e-01,4.046826e-02,-3.717723e-02,-2.314319e-02,4.628114e-01,4.367618e-02,-1.938842e-01,1.301664e-02,-3.066523e-03,6.333633e-01,-4.098163e-02,3.339032e-01,1.578481e-02,-4.323783e-03,-2.098655e-01,2.836465e-02,2.663085e-02,-6.161054e-01,-1.456682e-01,1.328291e+00,5.510059e-03,3.434701e-01,2.719670e-02,-6.442845e-01,8.775251e-02,3.596702e-01,
-2.552788e-02,-6.324322e-02,-6.090483e-02,1.425473e-03,-5.609664e-02,-1.330653e-02,-5.422644e-02,-4.254894e-02,2.780120e-02,-6.562106e-02,2.182357e-02,-7.508960e-05,1.750921e-02,4.954571e-04,3.795730e-02,-3.147857e-02,-2.808599e-02,2.934009e-02,1.243701e-02,1.059309e-02,-4.070830e-02,-2.664058e-03,2.833497e-02,-6.663172e-02,-8.440803e-03,-2.658550e-02,2.441703e-02,-1.141309e-03,2.240288e-02,4.545382e-02,2.362655e-03,3.163683e-03,-4.516785e-02,-6.009245e-02,3.086623e-02,-6.625962e-02,-2.517535e-02,2.047494e-02,-3.812280e-02,2.708920e-02,2.827803e-02,-3.644517e-03,2.936609e-02,-8.569524e-02,-2.319333e-02,
4.208825e-02,-5.066216e-02,-2.075192e-02,-2.486677e-02,-5.460761e-02,1.271109e-02,-1.814592e-02,4.292725e-02,3.467719e-02,-2.183218e-02,-4.662958e-02,-7.462008e-03,-4.931108e-02,-2.298280e-02,-3.034678e-02,-3.217028e-03,1.979568e-02,1.880741e-02,1.499281e-02,-3.267441e-02,1.025604e-02,-4.904072e-02,2.880395e-02,2.834106e-02,-3.123218e-02,-5.942367e-02,-1.998839e-02,2.796173e-02,2.631931e-02,-1.212046e-02,3.753959e-02,-6.256213e-02,8.253712e-03,-5.164013e-02,-4.691986e-02,2.820669e-03,1.277456e-02,-3.776095e-02,2.730969e-02,-3.419498e-02,-8.493250e-03,-2.476289e-02,-4.225371e-02,-5.124047e-02,-5.372601e-02,
3.005221e-03,-2.878743e-01,-1.319497e-01,-3.362598e-02,2.325120e-01,2.787903e-02,-6.059129e-02,1.461849e-01,-1.280615e-02,-5.543388e-01,1.483045e+00,-2.892878e-02,4.734320e-02,2.455569e-01,-2.519852e-02,-6.910261e-02,-1.986918e-02,1.803331e-01,-2.026820e-02,4.032856e-01,-3.972115e-02,-2.276436e-02,-9.201255e-03,1.796181e+00,-8.828067e-01,5.488480e-01,-2.866194e-03,-1.581426e-02,1.537617e-01,5.018853e-02,3.011819e-01,-3.169546e-01,6.999106e-03,3.181703e-01,-1.166337e-02,-1.841959e-01,-1.114810e-01,1.003154e-01,4.496546e-01,2.068212e-02,4.774521e-01,2.179194e-02,1.263281e-02,2.656710e-01,-6.244542e-01,
3.126179e-02,1.235182e-02,-4.624885e-02,-2.203721e-02,-4.579486e-02,8.061355e-03,2.495684e-02,3.816941e-02,7.093870e-03,-2.976536e-02,-4.904651e-02,-4.531745e-02,-4.334214e-02,-5.163703e-03,-1.693789e-02,1.566673e-02,2.129715e-02,-3.535159e-02,-3.584654e-02,1.239608e-02,3.317751e-02,-2.220542e-02,-1.475066e-02,-1.249349e-02,-1.507147e-02,-1.039493e-02,-1.368763e-02,-3.198109e-02,8.856576e-03,5.473491e-03,-1.640229e-02,-3.430866e-02,4.291050e-03,-4.235459e-02,2.710998e-02,-4.999711e-02,1.303032e-02,-5.827831e-04,-3.348409e-02,-3.560964e-02,-4.963567e-02,2.916360e-02,1.139718e-02,-2.319193e-02,2.552056e-02,
-1.791975e-02,-2.096077e-03,1.521787e-01,-6.446008e-02,2.117964e-01,1.776887e-01,2.322445e-03,2.300792e-01,-1.862738e-02,8.612218e-02,1.186601e-02,-3.237650e-02,-4.847204e-03,3.169319e-01,-2.178589e-02,1.373098e-01,-3.995592e-02,5.137457e-02,-4.002120e-02,-2.369582e-02,-3.210923e-02,-3.828980e-02,-2.773111e-03,2.538703e-01,-8.203091e-02,-2.497028e-01,1.403141e-02,3.121822e-02,1.027069e-02,-1.716138e-02,2.292306e-01,-2.141795e-01,-1.179252e-02,-2.196102e-02,-4.236672e-03,-1.238980e-01,3.473152e-02,2.854068e-01,-3.486971e-01,-3.006889e-02,-5.834349e-01,-3.984487e-02,-1.127605e-02,-1.851688e-01,1.982330e-01,
4.243175e-02,-1.438413e-01,1.087333e-01,-3.633328e-02,-3.604153e-01,1.643633e-01,2.172144e-02,-2.605175e-01,8.697915e-03,-1.824825e-01,-6.227694e-03,4.399708e-03,1.350379e-02,2.368137e-02,-4.373736e-02,5.939153e-02,-2.556180e-02,-1.435487e-01,4.554915e-02,-5.248902e-01,-4.027743e-02,4.207569e-02,-1.887669e-03,3.286368e-02,2.648240e-01,9.902064e-02,3.927826e-02,-3.304363e-02,2.579740e-01,4.664936e-02,-6.235186e-02,6.418755e-02,2.515896e-03,1.911304e-01,1.866775e-02,-3.537804e-02,2.436013e-01,-9.353344e-02,-4.591341e-02,2.018346e-02,-9.526236e-02,3.057987e-02,-8.214699e-03,-3.966192e-01,-3.926134e-01,
-1.133159e-02,1.320458e-01,5.267910e-02,6.418835e-02,-1.270485e-02,1.305461e-01,-3.208018e-01,-5.764242e-01,2.018907e-02,1.468048e-01,6.414101e-02,2.995912e-02,-3.021112e-02,-6.027690e-02,-2.924957e-02,-1.425752e-01,4.533231e-02,-1.916666e-01,5.052003e-02,3.000228e-01,-2.885989e-02,-1.891903e-02,-8.388423e-03,1.193404e-01,1.079110e-01,-1.937553e-02,-1.238439e-02,3.441368e-02,-1.091169e-01,2.761645e-02,4.304583e-01,-1.236168e-01,1.594228e-02,1.057548e-02,4.988522e-02,-4.022590e-02,7.333576e-02,1.400505e-02,2.181397e-01,1.897818e-02,8.677282e-01,4.354556e-02,-3.500707e-01,-2.244927e-02,-2.904552e-01,
1.164057e-02,-2.454259e-01,1.463091e-01,1.208570e-01,-1.859392e-01,1.987799e-02,2.845878e-01,-1.847932e-01,-3.778422e-02,2.598751e-01,7.255329e-03,-4.760543e-03,3.252831e-02,3.371698e-02,-4.103439e-02,-1.351448e-02,-3.700039e-02,-8.466288e-01,-1.640959e-02,-1.821786e-01,-3.725138e-02,-2.081750e-02,2.620852e-02,1.389404e-01,1.004485e-01,7.895597e-02,-3.304851e-02,6.724972e-03,-5.537125e-02,-3.259176e-02,-6.193934e-02,-1.957314e-01,-6.150512e-03,1.585291e-01,-2.351396e-02,-1.290656e-01,-6.768493e-02,-8.784382e-02,9.419516e-01,-4.029688e-02,-1.049482e+00,3.971541e-02,2.466750e-01,-6.942931e-02,-2.570919e-01,
-3.764333e-02,8.411804e-02,-3.089279e-02,9.132839e-03,-1.515013e-02,-6.816620e-02,2.064153e-02,-6.040553e-02,-9.727290e-03,-5.204853e-02,-1.738930e-02,8.316978e-03,-4.509607e-02,-3.623664e-02,2.760323e-02,-1.839175e-02,-3.133933e-02,5.781664e-02,-3.417493e-02,-1.095167e-01,-4.765674e-02,2.182681e-02,1.131183e-02,-7.636723e-02,-3.106446e-02,-1.468848e-03,4.921782e-02,-1.608196e-02,-1.375094e-02,1.993837e-02,2.414219e-02,-2.837547e-02,8.905418e-04,-1.131075e-01,-3.031141e-02,-1.553685e-02,8.609118e-02,-2.400960e-02,-1.066379e-01,8.734936e-03,-5.364840e-02,-2.432903e-02,-5.474256e-02,-8.977796e-03,1.841474e-02,
-8.595495e-03,-1.416007e-01,-9.348223e-02,-2.472084e-01,1.911000e-01,-1.654586e-01,9.914394e-02,1.070320e-01,2.230871e-02,-3.184218e-01,1.166673e+00,-1.600379e-02,-2.439185e-02,-1.612388e-01,-1.091460e-02,-1.220846e-01,-2.220682e-02,-2.832557e-02,-1.320105e-02,1.552976e-01,-1.233229e-03,-4.312114e-02,-1.020537e-02,-1.489450e-01,-2.250085e-01,1.017769e-01,-3.063363e-06,-1.255495e-02,3.789610e-01,5.224567e-02,2.478594e-01,-1.250000e-01,-4.194911e-02,1.565315e-02,4.184938e-02,1.201675e-01,1.009067e-01,1.231487e-02,-1.955697e-02,-4.007470e-02,-3.651877e-01,-3.158848e-02,-1.818351e-01,1.032342e-01,-2.066364e-01,
3.102874e-02,4.958553e-02,1.268667e-01,-1.189677e-01,2.473221e-01,-6.372803e-02,8.129592e-02,3.908370e-01,-4.165513e-02,3.883656e-02,-1.583313e-01,-2.408737e-02,3.981199e-02,4.607092e-01,1.498931e-02,1.423997e-01,4.577321e-02,1.134152e-02,1.352497e-02,6.178080e-02,1.505611e-02,-1.995369e-02,2.330181e-02,1.103872e-01,-1.079842e-01,-3.672162e-01,-3.344654e-02,4.003497e-02,-3.760952e-01,-3.165603e-02,-4.641642e-01,-6.910256e-02,-4.427819e-02,-6.351969e-02,-3.688317e-02,-1.328125e-01,9.355295e-02,9.562578e-02,-1.725836e-01,-2.098387e-02,1.061064e+00,-4.075200e-02,-2.001266e-01,1.713255e-01,2.786535e-01,
1.098468e-02,2.156710e-02,1.094199e-01,6.911523e-02,8.260788e-02,-2.199409e-01,2.049836e-01,-6.114299e-01,3.481142e-02,-3.024884e-01,1.328652e-01,-4.040555e-02,1.245685e-02,2.213528e-01,1.918616e-02,-1.807745e-01,4.938474e-02,-2.992861e-01,-7.345137e-03,-4.968676e-02,-4.855383e-02,2.019698e-02,-2.118569e-02,2.500237e-01,-2.828505e-03,8.743085e-02,1.287895e-02,-4.257532e-02,3.588825e-01,4.821485e-02,-3.199345e-02,-2.320223e-01,2.724293e-02,-5.907909e-02,3.653091e-02,-1.664157e-01,1.313999e-01,2.672661e-01,-3.944805e-02,-2.251220e-02,-4.466746e-01,6.826365e-03,1.145792e-01,-1.119481e-01,5.666633e-02,
1.773280e-02,-3.321010e-02,7.137008e-02,1.045106e-01,5.636640e-02,7.234692e-02,4.562589e-02,-3.850034e-01,-9.444701e-03,-1.990620e-02,-5.757227e-01,5.186365e-02,-4.307794e-02,-1.669766e-01,-4.240069e-02,-1.000428e-01,4.351042e-03,1.113969e+00,1.925327e-02,-8.208379e-02,4.148490e-02,-4.272674e-03,1.364267e-02,1.911168e-01,-3.376909e-01,7.939078e-02,7.743515e-03,3.816391e-02,-2.781563e-01,7.711431e-03,-7.140729e-02,7.344467e-02,5.050638e-02,-1.259660e-01,-1.425139e-02,-1.363394e-01,1.224883e-01,1.429106e-01,-1.767255e-01,3.676255e-02,2.598385e-01,-2.194637e-02,-2.120503e-01,-4.275130e-02,3.119892e-01,
5.329284e-02,-1.637236e-01,-4.318452e-01,2.407169e-01,2.003399e-01,-8.609802e-02,2.092737e-01,-2.748090e-01,6.239107e-03,-2.532561e-02,1.045944e-01,-2.451418e-03,3.112878e-02,4.946344e-02,-8.901444e-03,2.326828e-01,-3.709733e-02,-2.085854e-01,8.012589e-03,2.609828e-01,3.522696e-02,-1.817456e-02,1.975350e-02,3.354872e-01,-1.139012e-01,3.534296e-01,6.894350e-03,2.021408e-02,2.540016e-01,-3.542097e-02,-2.859628e-01,-2.524169e-02,-7.943585e-03,-2.993606e-01,5.496068e-02,-9.151917e-02,-1.723850e-01,1.657970e-01,1.731588e-02,-1.983512e-02,-2.306104e-01,-3.302586e-02,2.710252e-02,1.029995e-01,-1.982775e-01,
2.473135e-02,-2.233352e-01,2.790326e-01,-9.320766e-02,-6.701962e-02,-1.754503e-01,-3.898188e-01,2.205290e-01,3.953065e-02,1.120824e-01,7.635199e-01,-1.142393e-02,3.646635e-02,-6.609467e-01,4.646868e-02,-8.961181e-02,4.126590e-02,-3.077629e-01,-3.631068e-02,8.592257e-02,-4.081054e-02,-2.224615e-02,-4.353744e-02,7.409183e-01,-3.189538e-02,-9.346669e-02,2.915356e-02,2.615508e-02,-1.435461e-01,-2.922510e-02,1.607830e-01,2.383302e-02,-3.306851e-03,4.444462e-01,2.150868e-02,-2.460987e-01,2.896613e-01,-1.214094e-01,-2.888765e-01,2.012669e-02,-2.589461e-01,4.470279e-02,8.662471e-02,4.925340e-02,3.799790e-02,
-3.722653e-02,2.458389e-02,-2.905636e-02,1.353996e-01,7.608924e-02,2.233997e-01,1.097291e-01,-2.241136e-01,8.922411e-03,8.274314e-02,3.440608e-01,4.347881e-02,3.060172e-02,1.867263e-01,2.143116e-02,-1.992569e-01,-1.169751e-02,4.945922e-01,4.108537e-03,1.210921e-01,1.682011e-02,4.978819e-02,-3.606223e-02,-3.755525e-01,-2.541512e-02,-7.989924e-02,-4.526531e-02,-1.913929e-02,3.693844e-01,3.568883e-02,-5.012872e-02,-1.884420e-01,-4.105432e-02,-2.925176e-01,-2.876234e-02,-8.595218e-02,1.193451e-01,2.694421e-01,-3.415337e-02,2.701369e-02,-8.021869e-01,-1.085456e-02,-9.148600e-02,2.536848e-01,-1.844191e-01,
-9.088467e-03,-4.072932e-02,-3.348340e-02,-2.926486e-02,3.348587e-02,-5.291579e-02,-5.394158e-02,-3.665637e-03,1.652754e-03,-1.351359e-02,-6.451913e-03,4.373546e-02,2.706364e-02,-4.713897e-02,2.720510e-03,-2.769102e-03,-1.890169e-02,4.693901e-02,5.425624e-03,2.694650e-02,-8.377635e-03,-6.748647e-03,4.235537e-03,-1.743423e-03,2.338511e-02,2.502299e-02,2.025966e-02,-1.665364e-02,-2.798182e-02,-1.512680e-02,-2.088189e-02,-3.245334e-02,2.064334e-02,-1.703053e-02,3.916895e-02,-2.116427e-02,-1.372806e-02,-2.655694e-02,2.107986e-02,3.211590e-03,-1.217682e-02,4.516000e-02,-2.111675e-02,-4.741604e-02,2.022604e-02,
-2.734362e-02,-1.799147e-02,2.835543e-02,4.301572e-02,-3.869667e-02,1.372299e-02,-4.597118e-02,2.333443e-02,6.513511e-03,8.494950e-03,3.153304e-02,-4.424384e-02,-3.468408e-03,1.596817e-02,1.621631e-02,-1.218131e-03,3.847969e-02,1.138563e-02,-1.589506e-02,1.307451e-02,-4.318972e-02,-4.735542e-02,3.455174e-02,1.109068e-02,-3.998315e-02,3.688100e-02,3.765221e-02,-3.250134e-02,-3.102592e-02,3.970315e-02,-5.236605e-02,-2.365099e-02,4.505569e-02,-5.701638e-02,4.933324e-03,4.252907e-03,-2.046269e-02,3.175451e-03,-5.008965e-02,-1.014541e-02,-4.760642e-02,1.768785e-02,1.294906e-03,-2.573382e-02,-1.277306e-03,
-3.305173e-02,3.463980e-02,2.552669e-02,3.262303e-02,-9.042189e-03,3.081694e-02,-5.631205e-02,7.637628e-04,1.626812e-02,2.951702e-02,-4.860469e-02,-6.194729e-03,-1.307021e-02,-8.004577e-03,4.066263e-03,-5.780256e-03,9.623812e-03,4.346475e-02,4.199647e-02,2.210533e-02,4.449330e-02,-7.495192e-03,7.352576e-03,-1.236454e-02,7.071095e-03,4.966488e-02,-4.459660e-02,-1.181670e-02,5.695668e-03,4.208102e-02,3.047792e-02,-6.851847e-02,1.060332e-02,1.482523e-02,-1.556032e-02,-8.656953e-03,-3.435250e-02,-3.727375e-02,-2.542726e-02,1.883926e-02,-5.002756e-02,3.431420e-02,-4.478988e-02,-4.146776e-02,5.120384e-03,
2.863869e-02,3.443898e-02,1.353274e-02,-2.581839e-02,-6.445399e-02,4.453593e-03,-3.282468e-02,3.606266e-02,4.358793e-02,4.399524e-03,-4.255316e-02,-2.228928e-02,3.390297e-03,-5.611707e-02,-2.814865e-02,-4.278910e-02,-3.961433e-02,2.890474e-02,3.472976e-02,-5.036807e-02,-4.700557e-03,3.639820e-02,-4.775473e-02,-9.432109e-03,-5.115393e-02,-5.592403e-02,2.760702e-02,4.139790e-02,1.236959e-02,-3.853139e-02,3.801452e-02,-5.550792e-02,-2.647760e-02,1.857500e-02,-3.181249e-02,-4.359609e-02,1.819625e-02,-2.267045e-02,-4.487959e-03,-2.281809e-02,2.469022e-03,2.052155e-02,2.739310e-02,-5.537212e-03,-1.254746e-02,
-6.943708e-04,
4.599603e-01,
-7.182771e-02,
2.954861e-01,
-7.093858e-04,
3.015411e-01,
3.710500e-02,
2.140162e-01,
-1.727849e-01,
4.155936e-01,
3.877559e-01,
-3.655512e-02,
-1.093205e-01,
3.844810e-01,
3.245477e-01,
-1.948634e-02,
4.942004e-01,
-6.796669e-03,
-5.240013e-02,
-4.064046e-02,
6.034974e-01,
2.706532e-01,
4.035575e-02,
2.236428e-02,
-2.868543e-02,
-2.807068e-02,
-3.411058e-02,
-2.297653e-01,
-8.987777e-03,
1.346268e-01,
-2.505820e-02,
1.855905e-01,
2.237681e-01,
-2.540384e-02,
1.159169e-01,
2.457326e-01,
-6.416505e-02,
3.556501e-01,
-6.478325e-03,
1.937781e-01,
2.862456e-01,
-6.123664e-03,
-3.432914e-02,
-2.148364e-02,
-9.827069e-03,
5.402700e-03,-1.240589e-01,-3.422321e-01,8.421115e-01,-8.731249e-01,-4.384786e-01,4.358233e-01,8.803264e-02,-3.681732e-01,-7.494961e-01,-1.406971e+00,-7.383380e-02,1.716651e-01,4.317324e-02,-1.270929e+00,-3.973738e-02,-9.386708e-01,-2.706601e-02,-3.088894e-01,2.750767e-02,3.611670e-02,-4.463610e-01,-1.166881e-01,3.340132e-01,6.358912e-03,3.927556e-02,-3.543631e-02,-4.452055e-01,-4.811012e-02,1.263838e-01,-3.403816e-01,4.050678e-01,-7.623555e-01,6.308598e-03,4.939355e-01,1.459819e-01,-1.440490e-01,-8.791536e-01,1.241823e+00,-1.666744e+00,2.986025e-01,-1.878977e-02,3.566789e-03,-1.384727e-02,-2.199295e-02,
-2.697087e-02,-9.409784e-02,-1.358447e-01,6.409464e-02,-6.519420e-04,1.565299e-01,-8.630522e-02,1.512157e-01,3.331468e-01,7.587502e-01,3.379551e-01,2.081245e-02,1.641710e-01,1.846389e-01,1.118252e-01,2.025665e-02,3.312886e-01,6.457109e-03,-2.706946e-02,3.662039e-03,-1.071265e-01,2.481660e-01,5.069490e-02,-2.690078e-01,4.898785e-01,-1.007576e-02,-1.993994e-02,7.860807e-02,-4.430706e-02,-3.320987e-01,1.411361e-01,-6.440038e-02,7.744733e-02,-3.333996e-03,1.075044e-01,-2.418151e-02,1.071324e-01,2.988716e-01,9.213024e-02,3.497532e-01,1.596490e-01,4.132019e-02,-3.606343e-02,5.116006e-03,-6.082642e-03,
4.803830e-02,3.306781e-01,6.259742e-02,-1.400978e-01,1.353771e-01,-1.033914e-01,6.334096e-01,4.165558e-02,-2.083214e+00,-5.215457e-02,3.262779e-04,-4.930796e-02,-3.552380e-01,3.228719e-01,-1.414305e-01,1.038017e-02,-2.975404e-01,3.000623e-02,1.372001e-02,-8.132871e-02,4.908228e-02,9.311262e-02,-1.834250e-01,2.613297e-01,-4.072108e-01,-9.106496e-02,-2.589130e-02,6.968492e-01,-4.531019e-03,-2.949847e-01,-2.951554e-01,4.579129e-01,4.158776e-01,4.228870e-02,3.773925e-01,-2.746257e-01,1.839442e-01,3.839526e-01,1.010513e-01,-2.021763e-02,-2.624385e-01,9.054828e-03,3.026752e-02,3.587912e-02,7.141444e-03,
3.801325e-02,-1.479109e-02,3.799109e-03,-3.491420e-03,2.136234e-03,2.472883e-02,2.115797e-02,-1.385871e-02,-1.664235e-02,-4.878074e-03,-2.366815e-02,4.798825e-02,4.426998e-02,-7.527385e-04,-4.309302e-02,3.483305e-02,-3.307753e-02,5.962617e-04,-2.020321e-02,4.755215e-02,-6.755347e-02,2.620371e-02,-4.655667e-02,-1.676623e-02,2.361095e-02,2.932686e-02,-2.477228e-02,1.706013e-02,2.057786e-02,2.229590e-02,2.569400e-02,1.713506e-02,-2.464970e-03,7.425922e-03,-1.975897e-02,-2.434773e-02,9.915339e-03,-6.654311e-02,-7.373178e-02,4.078641e-03,-7.657738e-03,8.929202e-03,-5.039033e-02,2.388159e-02,4.137663e-02,
-2.335289e-03,-2.885867e-02,-1.461319e-02,6.494469e-03,3.272419e-02,1.678913e-02,-7.578240e-02,1.046148e-02,1.342187e-02,-1.781590e-02,-4.874087e-02,-4.257571e-04,3.984757e-02,-2.037392e-03,-1.062800e-02,1.145392e-02,-5.737951e-02,-3.457601e-02,-5.416177e-02,-1.011997e-02,-1.355191e-02,-4.212137e-02,9.339326e-03,6.571469e-03,4.788772e-04,2.422716e-02,1.043720e-02,-5.227974e-02,3.739594e-02,-2.487658e-03,-1.629423e-02,-2.190553e-02,-5.704661e-02,-1.834131e-02,-4.068447e-03,-4.513796e-02,4.721842e-02,-4.482258e-02,-4.258287e-02,-7.094843e-02,-1.976859e-02,4.545565e-02,8.673448e-04,-3.531288e-02,-4.293795e-02,
2.617456e-02,1.480103e-01,3.498186e-02,6.427873e-02,9.823226e-02,8.204963e-02,5.678604e-01,-7.285916e-02,8.411378e-02,-6.411435e-02,-1.828888e-01,-2.277470e-02,-8.456036e-02,5.754194e-03,1.573520e-01,2.103128e-02,-2.645553e-01,2.087615e-02,2.124558e-01,8.205761e-03,-3.289150e-02,3.469465e-01,-3.977034e-02,-4.322240e-02,-3.899002e-02,3.174132e-02,5.464312e-02,3.210029e-01,-1.222960e-03,6.297258e-02,2.780839e-02,-1.540873e-02,4.730770e-02,5.632592e-03,-1.072561e-01,4.556345e-02,1.371437e-01,-2.403023e-01,1.418974e-01,-1.838905e-01,-2.507078e-01,-3.670295e-02,-1.020781e-02,4.007946e-02,-1.730958e-02,
5.555783e-03,-1.428642e-01,3.983387e-01,2.087099e-01,-1.465620e-01,3.160061e-01,8.909579e-02,-1.259906e-01,2.493395e-01,1.468854e-01,6.679641e-02,5.009752e-02,2.685379e-01,-1.810736e-01,-1.376468e-01,5.028190e-02,2.383586e-01,-1.688117e-02,-1.686445e-01,2.213251e-01,2.256338e-01,2.466840e-01,-6.782550e-03,-6.768447e-01,-1.946138e-01,-8.140077e-03,1.828934e-03,-4.068737e-01,1.824553e-02,9.725663e-02,5.014053e-01,2.576212e-01,2.152253e-01,8.044235e-02,-5.997781e-01,-3.675294e-01,2.423994e-02,4.730399e-03,4.220686e-02,-1.735605e-02,3.271662e-01,-4.938232e-03,2.560012e-03,-1.586436e-02,-6.749529e-03,
3.713373e-02,-2.713488e-02,-1.976952e-01,7.501380e-02,1.260320e-01,-1.350937e-01,1.303387e-01,-1.560685e-01,1.827391e-01,4.126820e-01,-4.543474e-01,-2.134067e-02,-1.251529e-01,-2.403598e-01,-4.375022e-01,6.243063e-02,-8.708928e-02,-5.448699e-02,4.562809e-01,3.484296e-02,7.783397e-02,2.508630e-05,-7.530329e-02,1.561976e-01,-1.204207e-01,4.733701e-02,2.219854e-02,-1.902835e-01,1.756049e-02,6.053292e-01,-4.358833e-02,3.623161e-01,-3.142280e-01,-4.959492e-03,-3.153279e-01,-8.958696e-02,-7.016104e-02,-8.732815e-01,5.081004e-01,5.353903e-02,1.306703e-01,5.122940e-02,3.971204e-02,-2.627887e-02,2.765324e-02,
4.358613e-02,-3.759072e-02,4.248973e-03,5.289672e-03,-4.394337e-02,-2.246698e-02,-4.575063e-02,-1.018191e-02,-1.080335e-02,6.525342e-03,-2.229952e-02,-4.565095e-02,3.130681e-02,-7.812891e-03,-5.023381e-02,-2.637488e-02,9.354304e-03,3.557028e-02,2.524316e-03,3.679274e-02,-1.236160e-02,3.272378e-02,4.868947e-03,2.391858e-02,-4.601722e-02,1.201360e-02,3.853037e-03,-4.119856e-02,-3.254399e-02,-1.070057e-02,2.889366e-02,-4.294867e-02,-1.991800e-02,4.308283e-02,-1.682147e-02,-4.077211e-03,1.277456e-02,-4.831223e-03,-2.110423e-02,-3.155128e-02,-3.940087e-02,2.835774e-03,-4.318647e-02,-2.145061e-02,2.958070e-02,
-2.261060e-03,3.227268e-02,-3.693594e-02,1.508298e-01,-7.883143e-02,1.751804e-01,1.022189e-01,1.374338e-01,-9.966869e-02,-1.700579e-01,-8.226122e-03,1.849636e-02,3.343370e-01,1.073705e-01,-7.176927e-03,4.544132e-02,1.155124e-01,-5.606534e-02,-1.116418e-01,-2.423221e-02,5.467356e-01,1.740809e-01,-3.688751e-02,1.198274e-01,2.401518e-01,-3.169674e-02,8.777415e-03,2.070338e-01,1.598719e-02,-2.075305e-03,6.562995e-01,1.148375e-01,3.642930e-02,-4.485518e-02,5.298027e-01,-6.990386e-02,-1.378395e-01,-1.015576e-01,4.041318e-02,1.679646e-01,3.159097e-01,1.622783e-02,-2.818065e-02,-2.765199e-02,-2.922777e-02,
4.021307e-02,1.211388e-02,3.095716e-02,-5.512554e-02,2.191674e-03,-2.884983e-02,4.364005e-03,1.522296e-02,-1.504741e-02,7.445212e-03,-1.934740e-02,-3.168856e-02,-2.784774e-02,-2.101489e-02,-6.049822e-02,1.825807e-02,-6.510894e-02,4.472173e-02,-4.935722e-02,1.494825e-02,-1.873392e-02,-1.273176e-02,-5.627928e-02,-2.881335e-02,-4.038639e-02,4.256651e-02,4.747171e-03,-6.399710e-03,3.705582e-02,-5.609722e-02,-3.852765e-02,-1.559417e-02,-1.429743e-02,4.796196e-03,-5.045343e-02,3.260856e-03,-4.657433e-02,-5.999232e-02,3.509439e-02,-4.535426e-03,-9.437131e-03,-8.275619e-03,-3.312961e-02,-7.631559e-03,2.597144e-02,
4.970271e-02,2.000599e-01,8.178010e-01,-1.479704e-01,-3.478111e-01,1.677157e-01,1.262060e-01,-6.470425e-01,2.108422e-01,7.633009e-02,3.256015e-01,-5.954133e-02,5.884933e-01,-4.044349e-02,-1.448713e-01,-3.270886e-03,4.394819e-01,-2.891807e-02,-4.131052e-01,7.817888e-02,1.254477e-01,-1.046127e-01,-1.515418e+00,-3.039224e-01,-7.730437e-01,2.749413e-03,-4.330845e-02,-8.008954e-01,-4.667182e-02,-4.575984e-01,1.469424e+00,3.957961e-02,-3.496435e-01,-2.617456e-02,-1.373091e-01,-1.866544e-02,-6.882932e-01,-2.863340e-01,1.402193e-01,-2.181688e-01,-2.687695e-02,2.512011e-02,-1.246563e-02,-8.943444e-03,4.523883e-02,
4.908254e-02,1.036548e-01,2.729185e-02,5.328362e-03,2.257657e-03,-2.213768e-01,-3.700713e-02,7.008270e-02,-1.796234e-01,-3.501974e-01,-2.165907e-01,8.319846e-03,7.410762e-02,-1.302435e-01,-2.336109e-02,-2.599364e-02,-8.679168e-02,4.339306e-02,1.295734e-02,-2.714197e-02,7.474234e-01,-9.329607e-02,-8.215559e-03,2.141661e-01,-8.214269e-02,2.620929e-02,1.595604e-02,4.395620e-02,8.840559e-03,1.692268e-01,-9.535821e-02,-4.688849e-03,-1.359055e-01,1.714298e-02,1.381433e-01,-1.271750e-02,8.795512e-02,-1.545316e-01,-9.093099e-02,-1.078253e-01,-1.088108e-01,1.520011e-02,-2.557471e-02,2.953723e-03,-1.670166e-02,
1.702754e-03,-1.855437e-01,-6.360867e-01,5.519453e-01,-2.823790e-01,-3.498404e-01,2.480679e-01,5.249690e-02,4.820487e-01,2.093122e-01,-7.586133e-02,1.966745e-03,5.195531e-02,4.253371e-01,-7.612292e-02,1.646711e-02,-3.098344e-01,1.638914e-02,-2.320701e-01,5.368984e-02,5.315384e-02,4.723454e-01,1.358855e-02,-2.414363e-01,1.464458e-02,-5.342751e-02,-2.777946e-02,-8.033882e-01,4.483366e-02,6.206940e-02,2.585098e-01,2.788660e-01,-1.950962e-02,3.733724e-02,6.611266e-01,7.547232e-03,-6.075704e-02,-3.448187e-01,7.832165e-02,1.040781e-01,-4.455870e-01,-2.270971e-02,-2.894898e-02,-1.712653e-02,1.569735e-02,
2.254008e-02,2.973654e-01,1.251786e-01,3.984663e-02,-6.113082e-02,-9.430807e-02,2.931888e-01,-3.568314e-02,1.173010e-01,-1.118067e-02,3.674028e-02,4.813654e-02,-3.913663e-01,2.095446e-01,8.432872e-03,1.568871e-02,-1.288056e-01,-4.476418e-02,1.322810e-01,-2.474685e-02,6.704382e-02,-9.156013e-03,-2.014553e-01,2.544537e-01,-3.178740e-01,5.749264e-02,3.275783e-02,6.865138e-01,-2.957534e-02,-1.046639e-01,7.410926e-01,1.849351e-01,3.586217e-02,-1.265675e-02,2.292672e-01,-3.187070e-01,-3.496171e-02,4.137578e-01,-5.306233e-02,1.829935e-01,-2.233295e-01,5.128608e-02,-3.039159e-03,1.915267e-02,-2.045607e-02,
4.956819e-02,-9.497508e-02,7.663018e-04,1.118739e-01,7.652865e-02,2.156736e-01,9.230761e-02,-5.163952e-02,2.613401e-01,6.022240e-01,2.564807e-01,-2.188881e-02,-1.332472e-03,1.349955e-01,4.566511e-02,-2.905856e-02,8.155163e-02,2.036825e-03,-5.123469e-03,-4.475355e-03,-3.947079e-01,1.093300e-01,-1.538314e-02,-3.875032e-01,5.210249e-02,-2.241816e-02,-8.183017e-03,9.188232e-04,2.093886e-02,5.397489e-02,3.884424e-01,1.119891e-01,-2.605109e-03,3.171489e-02,-1.728206e-01,2.573156e-02,-5.533372e-02,4.002357e-02,-1.109875e-02,8.671471e-02,2.953932e-01,2.338550e-02,3.435999e-03,2.762640e-02,-1.554534e-03,
3.668424e-02,1.664509e-01,1.729870e-03,-1.323679e-02,2.270256e-01,1.597549e-01,-1.762981e-01,9.206424e-02,-2.026086e-01,7.279844e-01,-9.176441e-03,-6.782715e-02,-7.459885e-01,-1.476546e-01,-2.245683e-01,5.023292e-02,-9.967297e-02,-1.283357e-02,1.105342e-01,2.275879e-02,-1.350006e-01,-1.969310e-01,-4.553554e-02,-2.855402e-01,3.325269e-02,-3.927069e-02,3.913248e-02,-2.711496e-02,-3.218989e-02,2.872460e-01,-5.538280e-03,-2.081689e-02,-1.857945e-01,-5.848994e-03,1.608884e-02,1.941931e-01,-1.343845e-01,-4.849259e-02,1.686171e-01,9.687856e-02,-1.558512e-02,4.668623e-03,2.440703e-02,-1.183549e-02,-1.025964e-03,
-2.737213e-02,-4.146035e-01,-6.998487e-01,-4.853349e-02,1.432474e-01,1.885880e-01,-1.703897e-01,-1.376611e-01,-2.791211e-01,-1.299346e-02,2.703995e-02,3.149305e-02,5.130299e-01,7.514497e-02,1.174065e-01,8.181748e-03,-2.731705e-01,-3.186939e-02,-1.986696e-01,-1.630134e-03,-3.755801e-02,-9.198166e-02,1.885014e-02,-1.967023e-01,-1.115788e-01,-2.519459e-02,-3.720137e-02,8.799652e-02,-1.607795e-02,-2.044047e-01,2.152353e-01,-1.824996e-01,-1.184819e-01,3.047302e-02,-7.381603e-01,6.387822e-02,7.504911e-01,4.819086e-01,9.976539e-02,-1.701176e-01,-1.586099e-01,-4.427905e-02,-6.585169e-03,-8.877763e-03,-4.192353e-02,
-2.997038e-02,9.723015e-01,-1.547386e-01,9.309995e-02,-3.321773e-01,2.280184e-02,-2.456222e-01,-9.325371e-03,-2.224383e+00,-1.309962e-02,-3.242017e-01,6.975667e-03,1.150837e-01,-1.842658e-01,-2.358320e-02,-8.082804e-03,1.536773e-01,-4.647751e-02,-1.124616e-01,-5.326363e-02,1.193732e-01,-4.310810e-01,-3.047387e+00,2.109174e-01,-7.587594e-01,1.990818e-02,-1.000944e-02,3.036335e-01,-2.733892e-02,-3.593741e-01,-5.044648e-01,-2.048763e-01,-5.789905e-01,2.234822e-02,-3.629121e-01,3.440830e-01,-2.632680e-01,2.180755e-01,1.032138e-01,2.598274e-01,-1.429305e-01,-3.208673e-02,4.695019e-02,1.388845e-04,-2.844108e-02,
1.855616e-02,4.130918e-01,8.189132e-01,6.926767e-01,1.086882e+00,5.438951e-01,3.891387e-01,-4.838113e-01,8.020262e-02,-1.574736e+00,8.655059e-01,-1.101660e-02,-1.584949e-01,1.244629e+00,6.671056e-01,2.206649e-02,9.238812e-01,-4.621204e-02,-4.170377e-01,4.026051e-02,-6.868638e-01,9.693693e-02,5.053467e-02,5.965183e-01,7.094294e-01,2.247334e-02,1.747489e-02,-6.385106e-02,-2.605317e-02,7.863591e-01,7.348904e-01,1.079859e-01,9.611731e-01,1.011058e-01,7.088796e-01,2.874815e-01,-2.826264e-01,1.003954e+00,3.567771e-02,-1.255914e-01,1.057338e+00,3.668676e-02,4.769577e-03,5.023882e-02,4.325587e-03,
