// Neural Network File Format by Kyle Julian, Stanford 2016
7,4,6,45,
4,45,45,45,45,45,45,6,
0,
-8000.0,-100.0,-100.0,6.0,
8000.0,100.0,100.0,40.0,
0.0,0.0,0.0,23.84210526,-3.8529093497767,
16000.0,200.0,200.0,34.0,26.8591142426,
-5.299334e-01,-1.024959e-01,2.214078e-01,-6.442840e-02,
3.029297e+00,5.179241e-02,-8.546696e-03,-2.745407e-04,
-9.044337e-01,2.315508e-01,-2.156032e-01,-2.256208e-01,
7.584503e-01,7.650550e-01,7.189284e-03,-1.073887e-01,
-2.238247e+00,-3.134944e-02,1.261637e-02,1.521336e-02,
2.036139e+00,2.519054e-03,1.669525e-03,9.613664e-03,
6.572509e-01,-4.476357e-02,-2.283247e-02,8.568047e-02,
1.138105e+00,-2.090027e-01,1.748723e-01,-2.907232e-01,
8.521906e-01,8.237723e-02,-7.416628e-02,-1.701467e-01,
3.092718e-02,9.445634e-01,-9.433314e-01,7.474759e-03,
4.970625e-01,-8.752859e-02,1.944349e-02,1.192550e-01,
-3.313619e-02,3.854330e-01,9.605010e-04,1.342581e-02,
5.759321e-01,5.816365e-02,2.356321e-01,-1.546393e-01,
1.440902e-02,8.288915e-01,-6.947215e-04,-3.245578e-03,
-7.110688e-02,4.734312e-01,1.491781e-03,-6.868070e-04,
3.225779e-01,3.534431e-01,1.046243e-01,4.827073e-02,
2.626462e-01,5.341081e-01,-4.477755e-02,4.664403e-01,
8.105444e-01,3.335646e-01,-3.585485e-02,-7.163663e-02,
3.965443e+00,5.911439e-02,3.839706e-03,4.179097e-04,
6.323243e-01,-3.345930e-01,3.566650e-01,2.601755e-01,
-1.483181e+00,6.532494e-01,-6.549022e-01,-1.679351e-01,
-5.978084e-02,4.281781e-01,5.407684e-03,-5.004901e-03,
-1.474831e+00,4.067315e-01,-4.105596e-01,2.161233e-01,
2.356655e+00,1.536940e-01,-3.436328e-02,5.308319e-02,
2.032853e-03,5.623857e-03,1.648658e-03,6.327503e-01,
1.206998e+00,1.676824e-01,-2.420503e-01,3.492511e-01,
7.134398e-01,-3.044148e-02,2.345137e-02,3.255060e-01,
3.867080e-01,2.470464e-02,-2.806168e-02,3.228028e-01,
4.310507e-01,1.288707e-01,-1.388723e-01,1.946282e-01,
2.979186e+00,5.803193e-02,-2.219163e-02,-1.315930e-02,
-1.165737e+00,-2.230356e-01,2.308552e-01,5.828462e-01,
-1.307983e+00,1.426229e-01,-1.323169e-01,-4.261963e-01,
2.302288e+00,3.278866e-03,2.772247e-03,4.715357e-03,
1.569465e+00,1.263155e-01,-1.324990e-01,-1.734490e-01,
1.041685e+00,1.039231e-01,-3.372929e-02,6.227265e-02,
5.178759e-01,6.504707e-01,2.587103e-02,7.000811e-02,
2.025760e+00,1.750120e-01,-1.695084e-01,-1.037456e-01,
2.358127e-01,-1.041549e-01,1.061351e-01,9.646034e-02,
1.913568e+00,-3.594211e-03,5.611390e-03,-2.464541e-01,
5.671794e-03,6.092588e-04,2.556722e-03,2.257979e+00,
-1.798485e+00,5.769705e-01,-5.759210e-01,1.837408e-01,
-1.142098e+00,4.180020e-01,5.162604e-02,-4.029955e-04,
-3.734072e-01,3.436420e-03,-2.963237e-01,-1.203352e-02,
3.861075e+00,-1.540036e-01,3.368752e-03,5.026174e-03,
1.353717e+00,-1.574084e-01,2.657081e-01,-1.839339e-02,
-6.332151e-02,
1.623828e-02,
-6.355905e-02,
-3.785716e-01,
1.174333e-02,
-8.877599e-02,
5.003904e-03,
-9.004816e-02,
-5.253582e-02,
-2.075455e-03,
3.955664e-02,
5.312069e-02,
-1.394859e-01,
6.289458e-02,
8.127526e-02,
-1.363875e-01,
-2.459966e-01,
-1.184104e-01,
1.471888e-02,
1.268577e-01,
-4.873279e-02,
6.429473e-02,
1.019467e-01,
5.024213e-04,
-1.712298e-02,
-1.788303e-01,
2.304028e-01,
-6.850851e-02,
5.199270e-02,
2.342675e-02,
-9.885464e-02,
-1.145017e-01,
-1.012199e-01,
5.699649e-02,
9.239765e-02,
-9.656781e-02,
8.853471e-02,
4.805054e-02,
1.066336e-01,
-1.733511e-02,
1.217110e-02,
-2.735369e-01,
-5.408248e-03,
-3.267840e-02,
6.626126e-03,
1.804865e-01,-1.487478e-01,1.946678e-02,5.306548e-01,2.352076e-01,6.319790e-02,-2.162609e-01,4.134946e-01,4.075938e-01,-1.715754e-01,5.682856e-01,-9.617813e-01,-3.664490e-01,-1.200044e+01,-1.343574e+00,4.299019e-01,4.493576e-01,-8.365289e-02,-8.830509e-02,2.858433e-01,6.085188e-02,-9.549272e-01,-1.919586e-01,-2.074583e-01,-1.282908e-02,1.422394e-01,1.423977e-01,1.170152e-01,1.847120e-02,1.100986e-01,-1.037096e-01,7.721476e-02,7.577858e-02,2.117594e-01,2.092926e-01,-2.645861e+00,9.478560e-02,1.926170e-01,3.198124e-02,-2.523101e-03,5.086889e-01,-3.115129e-01,3.134735e-01,-5.922267e-03,-6.128559e-02,
6.788242e-02,4.652489e-01,3.709740e-01,1.272325e-01,4.076572e-01,-3.941738e-02,6.969613e-03,2.090959e-02,-2.762594e-01,-9.700086e-01,-4.719276e-02,-6.034140e-02,2.952139e-01,-6.174314e-04,-7.994290e-02,-2.382846e-01,-3.535453e-01,3.447401e-02,4.631275e-01,-3.956242e-01,3.658312e-01,-7.841802e-02,4.376992e-01,2.827929e-01,8.065215e-02,-9.902229e-01,-4.932826e-01,-3.167055e-01,-1.801530e-02,3.978330e-01,-6.359060e-01,4.454132e-01,1.646008e-01,-1.869261e-01,1.206710e-02,3.140740e-02,-4.705617e-01,-6.545750e-02,-3.515079e-01,1.128945e+00,8.526069e-01,-9.479983e-02,1.283364e-02,4.577425e-01,3.318895e-01,
-2.444657e-01,-4.507656e-02,3.009683e-01,-6.608043e-01,-3.600433e-01,6.046057e-01,-2.464186e-01,-6.659259e-01,-3.884371e-01,-2.168741e+00,-1.592598e-01,1.640108e-02,2.008045e-01,-3.271322e-02,4.843891e-02,-3.537384e-02,-5.733778e-01,1.966749e-01,1.919058e-01,1.722659e-01,1.576352e+00,2.051720e-02,-1.904129e-01,-1.828779e-01,-4.335181e-01,-3.927882e-01,4.011767e-01,2.121890e-01,2.511793e-01,4.128273e-02,7.105694e-01,-1.415874e+00,1.317332e+00,1.583589e-01,3.710734e-01,-1.640794e-02,-1.916556e-01,2.144584e-01,3.105711e-01,-1.559919e-01,8.736801e-01,-2.619847e-01,-7.087597e-02,1.128362e-01,-2.339429e-01,
6.387471e-01,3.085113e-01,-9.985173e-02,1.783178e-01,-1.157693e-01,-2.293952e-01,1.815346e-01,1.076780e-01,-6.133118e-02,-3.385239e-01,-1.588158e-01,1.245597e-01,7.851120e-02,-1.557283e-01,1.221003e-01,-1.716498e-01,2.457539e-01,6.323603e-01,4.313050e-01,-4.410312e-01,-3.129351e-01,7.201221e-02,-5.631622e-03,1.353254e-01,1.085762e-01,-2.512906e-01,-3.778160e-01,-6.345252e-02,8.785445e-02,3.779856e-01,-8.318455e-01,4.856743e-01,5.389653e-01,-1.537788e-01,-6.603992e-02,-5.885519e-02,-5.784469e-02,-2.179660e-01,-1.851594e-01,2.412458e-01,5.763389e-01,-6.760743e-01,1.548238e-01,4.194700e-01,-5.504692e-02,
-8.000146e-02,-4.366966e-02,-3.793844e-01,3.477609e-02,3.466276e-01,-2.088481e-01,-2.367477e-01,-2.646641e-01,3.261977e-01,3.393427e-01,-7.832069e-01,-5.854760e-02,-3.942115e-01,6.351504e-02,-1.030384e-02,-3.623129e-01,-2.709833e-01,3.604125e-01,1.245543e-01,3.356192e-01,-8.346487e-01,-3.235250e-02,-1.483822e-01,2.731718e-02,4.406477e-01,-2.390005e-01,3.498765e-01,6.406513e-01,-1.182856e+00,1.248123e-01,-1.167876e+00,-1.637273e-01,-1.874109e-01,1.542659e-01,-3.445919e-01,-6.969537e-02,5.627121e-01,9.206726e-02,-1.863166e-01,-1.873237e-01,-2.801538e-01,-4.694624e-01,1.481530e-01,-1.870445e-01,2.810649e-01,
4.576514e-01,-4.185324e-03,-6.752958e-01,-3.337385e-01,2.566082e-01,4.573294e-01,-3.906975e-02,-4.504036e-01,5.174797e-01,-5.536904e-01,-7.368287e-01,1.281209e-01,-1.662287e-01,1.889599e-01,1.562897e-01,-2.729920e-01,5.214392e-02,8.243644e-01,-2.915162e-02,3.671332e-01,4.690411e-01,1.698888e-01,-5.261454e-01,1.901036e-01,9.930841e-02,2.412940e-01,-1.311958e-01,4.177249e-02,-2.676582e-01,5.873027e-02,1.533240e-01,-1.670589e-01,-2.302379e-01,1.248778e-01,-1.234608e-02,1.293645e-01,1.907024e-02,2.506132e-01,2.544880e-01,6.408727e-03,4.410738e-01,-6.499882e-01,1.007744e+00,-5.059210e-01,1.267824e-01,
3.622681e-01,1.874720e-01,-1.894253e-01,2.232799e-02,-5.126328e-01,1.540034e-01,3.812902e-01,-3.798107e-01,4.469829e-01,-2.362277e-01,2.249740e-01,-6.462317e-02,6.895397e-01,9.236073e-02,9.227166e-03,-3.269159e-01,-1.113727e-01,-1.265647e-01,4.010195e-01,6.587093e-01,4.484781e-01,-2.288094e-02,3.479356e-01,1.732232e-01,-1.553279e-01,8.070387e-01,1.748506e-01,9.733612e-02,-1.930901e-01,3.508670e-01,3.083948e-03,8.237552e-02,-2.934972e-01,8.256348e-02,-2.087402e-01,-3.486483e-01,-8.356969e-02,2.702577e-01,-1.252722e-01,-8.809316e-02,-1.631336e-01,-5.240862e-01,1.981772e+00,-1.242690e-01,-4.652067e-01,
-1.673579e+00,1.827222e-01,4.097756e-03,-4.407988e-01,-1.193641e+00,-3.352858e-01,1.259584e-02,-4.270675e-01,-4.106516e-01,-1.250697e-01,-9.354344e-02,-6.351755e-03,9.129573e-01,-2.985479e-03,-7.932687e-02,9.328818e-02,-5.895539e-01,-3.241519e-01,3.425219e-01,3.111856e-02,2.636840e-01,-4.506242e-02,2.607887e-01,2.047402e-01,6.901343e-02,1.697004e-01,2.404935e-01,-9.267046e-02,8.430601e-02,3.259811e-01,-1.064231e-01,2.499266e-01,-1.767129e-02,-4.811889e-02,9.405577e-02,4.175857e-01,3.031369e-01,6.636546e-03,-1.273526e-01,7.267293e-02,-5.364443e-02,1.574582e-01,6.503371e-02,-1.000439e+00,2.575594e-01,
-2.381322e-01,1.212499e-02,-5.280233e-01,-2.403782e-01,1.593060e-01,-1.035814e-01,-5.106935e-01,4.807827e-01,4.716717e-01,-3.870262e-01,-5.195522e-01,-3.772493e-02,-2.719510e-01,6.694343e-02,-4.678063e-02,1.583992e-01,2.524936e-01,1.172156e-01,2.145483e-01,6.998033e-01,5.590205e-02,-3.520048e-02,-4.661072e-01,-8.422393e-02,-4.497333e-02,-6.880488e-01,4.423548e-01,-3.247027e-01,-4.182841e-01,2.885949e-02,4.668203e-02,-6.539898e-02,1.533881e-01,1.889017e-01,2.682164e-01,5.199435e-02,4.360862e-01,2.959658e-01,-6.492672e-03,-1.440338e-02,1.147101e-01,-7.969997e-01,-2.135894e-01,-2.959285e-02,5.674455e-01,
-4.610589e-02,4.280879e-01,3.079494e-01,-1.018922e-01,2.874285e-01,2.548678e-01,-4.837254e-02,1.733513e-01,-4.106325e-01,-6.822355e-01,-2.583797e-01,2.510773e-02,-4.654557e-02,3.893674e-03,6.768599e-02,-3.343247e-01,-4.567410e-01,-2.323236e-01,4.626015e-01,-6.138378e-01,2.854617e-01,-4.281037e-03,5.662401e-01,3.830050e-01,-8.012848e-02,-6.256355e-01,-6.418464e-01,5.209596e-02,-1.264863e-04,4.455724e-01,-4.740425e-01,4.846853e-01,2.083616e-01,-6.550865e-01,-4.000209e-02,-1.183030e-01,-1.210387e+00,-1.314274e-01,-5.939261e-01,4.402579e-01,6.768359e-01,3.133457e-01,9.168316e-03,5.512736e-01,-1.300728e-02,
5.439115e-01,2.433365e-01,5.099390e-01,6.009415e-01,-1.536999e-01,-1.114205e-01,-2.015300e-01,-2.082311e-02,-3.668054e-01,-7.133004e-03,-2.553015e-01,-3.932076e-01,-7.076032e-01,2.522150e-01,-4.259749e-01,-3.120847e-01,-6.790197e-01,8.403509e-02,3.516773e-01,-8.599992e-02,3.364470e-01,-3.453416e-01,-1.482760e+00,1.049815e-01,-7.169339e-03,-3.617744e-01,-8.037696e-01,-7.772817e-02,-1.207146e-01,2.366540e-01,-4.285562e-01,4.138112e-01,1.095277e-01,1.313681e-01,-1.089389e-01,-1.289673e-01,3.107686e-01,6.774324e-02,1.395750e-01,1.828538e-01,5.163212e-01,1.417998e-01,2.337254e-01,-7.871484e-02,-6.634456e-01,
-3.616708e-01,9.731574e-02,9.913602e-02,3.533187e-01,2.460549e-01,4.843755e-02,-7.067302e-02,-9.399883e-02,1.004965e-01,-2.151750e-01,-2.121974e-02,1.153336e+00,1.563610e-01,1.806977e+00,1.128737e+00,8.009088e-01,5.904531e-02,4.926308e-01,-4.763253e-02,-9.163782e-02,1.686003e-01,1.191913e+00,-3.174538e-01,8.824079e-02,2.751430e-02,-3.988636e-01,9.969401e-02,-9.797796e-02,1.385174e-01,-7.214686e-02,-8.392987e-02,-2.298024e-01,2.035563e-01,3.158190e-02,1.565198e-01,1.247488e+00,6.589047e-02,-6.748669e-02,-2.750296e-02,4.813179e-02,7.194366e-02,1.623846e-01,3.696434e-01,1.067173e-01,1.176251e-01,
-1.220930e-01,-1.087237e+00,-4.633500e-01,-3.185497e-01,4.141385e-01,-2.324162e+00,-5.609320e-02,2.812347e-01,3.005730e-01,9.013401e-02,3.185833e-02,-5.097085e+00,8.190000e-02,-4.879942e-01,-5.861789e+00,-3.426210e+00,-1.320275e+00,-1.304993e+00,-2.476162e+00,3.102053e-02,2.771712e-01,-5.901616e+00,-3.207688e-01,-8.034505e-01,-6.577402e-02,3.978474e-01,1.301330e-01,-3.530212e-02,-4.327415e-02,-1.082983e+00,-2.922359e-01,-4.416566e-02,-1.109177e-01,1.460442e-01,4.970528e-02,-4.706245e-01,2.038637e-01,4.622816e-02,-3.043558e-01,8.535919e-02,-2.281206e-01,-5.919401e-02,4.624536e-02,-1.887748e+00,2.382453e-02,
-2.047222e-01,7.709710e-02,7.784464e-01,4.491560e-01,7.030859e-01,-2.149777e-01,-1.460407e-01,7.559460e-01,1.766429e-01,-8.277180e-01,-2.391935e-01,7.133989e-02,-3.497348e-01,-7.253010e-02,2.603619e-02,6.188567e-02,-7.653648e-01,-2.222186e-01,3.149681e-01,5.580606e-01,4.443320e-01,1.057832e-01,-1.848700e+00,-2.027919e-02,-5.861072e-02,-2.294453e-01,-5.391395e-01,-3.364715e-01,-6.121187e-01,2.453169e-01,1.188259e-01,5.892287e-01,-1.325278e-01,2.752331e-01,2.421926e-02,-2.993728e-01,1.519616e-01,-5.507431e-02,4.409938e-01,9.398384e-02,-3.565928e-02,-2.769243e-01,3.660181e-01,1.003920e-01,4.965397e-01,
2.211487e-02,4.895210e-01,1.516116e-01,4.264609e-02,5.880288e-01,2.958672e-01,7.238628e-02,1.309189e-01,1.718530e-01,-9.562306e-01,8.045825e-02,9.673093e-03,3.648476e-02,-6.736440e-04,-1.620080e-02,5.086042e-02,1.097631e-01,4.121127e-02,5.802325e-01,-2.565415e-01,4.214863e-01,1.121803e-02,2.778599e-01,2.415437e-01,1.622863e+00,-1.375413e+00,-3.605769e-01,-5.461768e-01,-4.115118e-02,4.556259e-01,-3.977591e-01,3.071167e-01,9.069951e-01,-2.280650e-01,-5.290297e-02,7.889402e-02,-4.090961e-01,2.627080e-02,-2.837586e-01,3.349059e+00,8.623363e-01,7.646700e-02,1.105413e-01,6.405593e-01,6.467102e-02,
-2.244284e-01,5.546972e-01,1.587148e-01,-3.789429e-01,4.706109e-01,5.856159e-01,-1.094800e-01,3.367867e-02,-1.459151e-01,-3.733217e-01,-1.906445e-01,-8.316482e-03,-2.186595e-01,4.488593e-03,-2.400518e-02,9.661864e-02,-6.045460e-01,-2.395098e-02,6.173201e-01,-3.001421e-01,3.159506e-01,-4.787019e-02,3.961711e-02,2.252402e-01,-2.849543e-01,-1.904999e+00,-3.855579e-01,-2.044698e-01,-1.499497e-01,5.136849e-01,-3.573869e-01,1.637993e-01,1.516640e+00,-3.707834e-01,-1.754139e-01,4.229837e-02,-4.104708e-01,-2.396263e-01,-4.950230e-01,5.701226e-02,5.423375e-01,-1.066892e+00,-5.046164e-02,7.829213e-01,1.510611e-01,
2.212356e-01,-1.667395e-01,2.145318e-01,3.462474e-01,4.407730e-02,2.784244e-01,-2.018103e-01,5.006602e-02,2.798468e-01,2.721215e-01,-5.030693e-01,1.864247e-01,-2.828715e-01,4.117930e-02,1.668313e-01,1.673150e-01,-1.206696e-01,3.885811e-01,-8.403347e-02,3.288192e-01,-1.129108e-01,1.437850e-01,2.874825e-02,4.114812e-02,4.538817e-02,5.130037e-02,9.063636e-03,-3.314435e-01,-7.900297e-02,-1.394984e-01,-5.715032e-01,-4.043323e-01,-2.096260e-01,-3.765107e-01,-1.542897e-01,5.084532e-02,-5.574824e-01,-1.911335e-01,-4.408830e-02,1.940726e-01,-9.023014e-01,2.375374e-01,5.901461e-01,6.889700e-01,-1.097643e-01,
2.438292e-01,2.888523e-01,1.656029e-01,2.563456e-01,2.529522e-01,6.590702e-01,2.262482e-01,-5.420525e-01,-3.280745e-01,-6.276828e+00,6.472474e-02,-1.480595e-01,1.335153e-01,1.300941e-01,-1.010470e-01,-6.745876e-01,-1.600547e-01,5.333974e-01,4.741906e-01,1.098164e-01,-2.133625e+00,-9.522112e-02,3.171525e-01,1.127385e-01,1.970448e-01,-2.154285e+00,-2.589098e-01,-6.069304e-01,-5.292609e-01,3.605944e-01,-7.781996e-01,3.196319e-01,2.137177e+00,-3.898668e-01,-1.869305e-01,-2.482168e-02,-1.197202e-01,3.358282e-01,-3.629817e-01,5.210792e-01,-1.850080e+00,-6.354226e-01,-9.015623e-02,1.461952e-01,8.975460e-02,
6.942683e-02,-1.977078e-01,-3.592366e-01,6.157714e-02,-2.587614e-01,5.279078e-01,-4.436181e-01,-2.272971e-02,1.293953e-01,3.255190e-01,-4.429839e-01,-1.176686e-01,1.824231e-01,-1.554958e-01,-8.866762e-02,-1.851303e-01,1.065095e-01,-6.899970e-01,-8.589652e-02,2.350172e-01,3.700988e-01,-8.665781e-02,-1.551716e-01,-2.167236e-01,-5.013152e-02,-6.544182e-01,1.916070e-01,-1.923764e-01,-1.004183e-01,-1.535313e-01,1.922899e-01,-3.105029e-01,1.970303e-01,-6.289792e-05,2.749500e-02,9.827893e-02,1.145341e-01,1.603928e-01,2.171907e-01,-1.538207e-02,5.115458e-02,-9.168214e-01,-1.265429e+00,6.445820e-02,4.776648e-01,
-3.660292e-02,1.698617e-02,1.310604e-02,-1.452505e-02,-3.443448e-02,1.623906e-03,1.037569e-02,-8.774547e-03,1.695819e-02,-4.879183e-02,1.335334e-02,-2.702093e-02,1.072850e-02,1.656453e-02,-6.581128e-03,-3.655239e-02,-3.119851e-02,2.188799e-02,7.664526e-03,-5.893740e-02,-2.198566e-03,-2.223648e-02,-2.333480e-02,-5.295584e-02,1.452184e-03,-2.888520e-02,-3.991539e-02,-1.338537e-02,-5.069020e-02,1.162033e-02,-2.266348e-02,-4.691788e-02,-3.654462e-02,3.156113e-02,-2.083360e-03,2.751981e-02,-2.872670e-02,-3.705982e-02,7.976454e-04,2.623597e-02,8.127128e-03,-1.767609e-04,-2.820085e-03,2.021796e-02,3.219561e-02,
-2.574656e-02,1.826324e-01,-1.007517e-02,-2.753298e-01,-6.003225e-01,3.268176e-01,1.940892e-01,2.714573e-01,2.265896e-03,-1.542389e+00,-7.372646e-02,4.843351e-02,-4.915737e-02,-2.322059e-01,3.538603e-02,2.831323e-01,-2.521808e-01,-3.443507e-01,3.534699e-01,3.926215e-01,1.000094e+00,-1.083963e-01,-3.162042e-01,-7.805755e-02,3.335746e-01,-1.076359e-01,4.694266e-01,6.693747e-02,-3.300615e-01,1.259980e-01,1.030718e+00,-9.541639e-01,1.641475e+00,-1.720009e-02,1.906209e-01,-4.747442e-01,3.083788e-01,3.659711e-01,1.393865e-01,5.286106e-01,1.004391e+00,2.936809e-01,-3.267257e-01,3.884868e-01,7.802947e-02,
-3.404389e-02,-1.586836e-01,-2.317205e-01,3.912703e-01,-1.306708e-01,5.347360e-01,-1.379071e-01,-3.283726e-01,2.315204e-01,-6.003289e-01,-3.115298e-01,1.053376e-02,-4.437471e-01,-3.539314e-01,3.225372e-02,4.137148e-01,6.283469e-01,-1.399164e-01,-9.067080e-02,-2.141413e-01,2.072525e-01,5.787514e-02,-6.492392e-01,-1.502118e-01,1.229505e-01,8.755625e-01,-2.459346e-01,1.619532e-01,-3.612877e-01,-1.673265e-01,4.665063e-01,-5.489454e-01,5.272363e-01,2.945790e-01,-6.243338e-02,-1.095770e+00,2.388180e-01,-3.094811e-01,3.942808e-01,2.780531e-01,4.598502e-01,-1.868384e-02,-1.454226e-02,9.739199e-02,-5.704090e-01,
4.101933e-02,-8.062314e-02,-1.250711e-01,7.194345e-02,-1.855825e-01,-1.375572e-01,-1.360632e-01,3.845122e-01,3.497455e-01,7.429882e-01,-1.073638e-01,1.159667e-01,-4.081576e-02,1.330783e-01,1.025898e-01,-2.001153e-02,2.085819e-01,3.585975e-02,-1.113713e-01,4.099560e-01,-5.083698e-01,1.458569e-01,-9.893153e-01,1.375202e-01,3.164616e-01,1.902548e-02,-2.597029e-01,-4.932740e-02,-5.641271e-01,3.191816e-02,-3.198520e-01,2.536817e-01,-3.793325e-01,1.088517e-02,7.596516e-02,-1.375634e-01,6.858464e-02,5.240694e-01,3.736223e-01,2.768942e-01,-9.616444e-01,8.027202e-01,1.233530e-01,-4.011609e-01,1.445520e-01,
7.136707e-02,-7.475666e-02,8.097463e-02,-4.972037e-02,-1.784975e-01,1.933136e-01,1.592713e-02,-7.170556e-02,3.002701e-01,-5.909343e-01,3.991495e-01,7.264889e-04,-3.020527e-01,3.850159e-02,1.127054e-02,2.405742e-01,-1.677985e-01,2.084828e-01,4.062026e-02,3.318262e-01,3.910828e-01,-9.159008e-03,1.449042e-01,-2.318540e-01,-7.719760e-02,7.952583e-01,3.167334e-01,3.462356e-02,5.491990e-01,-4.932002e-02,5.106606e-01,-8.803829e-03,-4.036449e-01,-2.099507e-01,2.297395e-01,-4.004188e-03,-2.448807e-01,4.842997e-02,-1.136273e-01,9.613243e-02,3.977693e-01,-3.885861e-01,-3.320540e-01,2.283405e-01,-1.480996e-01,
-1.847144e-01,3.345910e-01,3.265561e-01,-3.619851e-01,5.430524e-01,5.951425e-02,2.391062e-01,2.212775e-01,9.697125e-03,-7.026859e-01,-2.526769e-02,1.292435e-02,1.456626e-01,1.901137e-02,-4.429180e-02,-1.958973e-01,1.084564e-01,-1.220335e-01,5.145369e-01,-5.405341e-01,3.699795e-01,-2.961280e-02,1.839409e-01,1.565720e-01,1.224409e-02,-1.095782e+00,-4.729692e-01,-1.496335e-01,-2.051678e-01,3.648034e-01,-6.317097e-01,6.239218e-01,5.938402e-01,3.490220e-02,2.416540e-02,-3.484972e-02,-1.876716e-01,-2.198575e-01,-1.836934e-01,3.789839e-01,6.009021e-01,7.232349e-02,-1.160208e-01,5.073465e-01,1.587082e-01,
3.331822e-01,1.733134e-01,3.313940e-01,8.944712e-01,-2.933286e-01,-1.521218e-01,5.772729e-01,3.644559e-01,1.662508e-01,-3.018332e-01,-4.449791e-01,-2.197443e-01,-2.486001e-01,-2.883964e-01,-2.980962e-01,-9.887650e-02,3.770493e-01,-5.717461e-02,-3.089388e-02,-2.929386e-02,-3.845786e-01,-3.094062e-01,2.101281e-01,4.488012e-01,4.783893e-02,2.006289e+00,-3.598187e-01,1.425020e-02,5.297564e-01,5.834278e-02,1.454478e-01,-6.275737e-02,-1.499641e+00,-6.432230e-02,-1.219844e-01,2.256830e-02,5.135871e-03,-1.603218e-01,4.501392e-02,-2.196541e-02,-7.642008e-02,1.444886e+00,-7.060651e-02,-1.938195e-01,-7.410175e-02,
-8.029478e-01,2.493263e-01,-3.576720e-01,5.197449e-01,6.043509e-01,1.077176e-01,-1.963106e-01,1.023850e+00,2.129597e-01,-6.464519e-01,-3.381756e-01,5.888911e-03,-1.660121e-01,7.559275e-02,4.195587e-02,1.697755e-01,-5.729229e-01,-4.424654e-01,2.782246e-01,1.382772e-02,1.201616e-01,4.236545e-02,-4.145708e+00,1.052633e-01,5.667694e-01,-8.703570e-01,-4.737506e-01,-8.120959e-01,-7.598719e-01,1.665908e-01,-1.424212e-01,-2.511176e-01,2.370741e-01,1.208628e-01,-2.995622e-02,-2.706555e-01,8.482195e-02,-3.893669e-01,3.417796e-01,9.167108e-01,1.814300e+00,1.480567e+00,2.271614e-01,1.691268e-01,1.006054e-01,
4.861688e-01,1.272022e+00,-4.546854e-01,-4.456748e-03,1.797274e-01,-8.530738e-01,-2.776740e-01,5.433946e-02,1.684495e-01,-3.606576e-02,-7.524824e-02,-3.544532e-02,-3.743317e-01,-4.644303e-03,-1.072128e-02,-3.221420e-01,-6.834176e-02,-1.559168e-01,1.673770e+00,2.282059e-01,-2.039820e-02,-4.104513e-02,-2.888914e-01,9.534847e-01,7.245408e-02,-3.511243e-01,1.441098e-01,-5.159497e-02,6.108803e-02,1.460629e+00,-1.052517e-01,-1.389808e-01,-8.526986e-01,3.683134e-01,7.409527e-01,-2.255717e-01,8.855246e-01,-1.416145e-01,-4.263914e-03,6.446534e-02,-2.659386e-01,-8.104930e-01,1.237034e-01,-6.400575e-01,-2.234074e-02,
7.689709e-01,7.392658e-02,2.335531e-01,3.560549e-01,-3.808429e-02,6.526366e-01,-1.542908e-01,-7.989542e-01,2.638737e-01,9.650347e-01,-1.543632e-01,-3.722191e-01,6.155214e-01,1.001952e-01,-3.789081e-01,1.731817e-01,-5.564149e-01,-2.718754e-01,1.148568e-01,-1.512647e-01,-1.722640e-01,-3.146160e-01,-8.040835e-01,2.952435e-01,4.299447e-02,-4.309706e-01,1.374606e-02,1.466414e-01,3.409180e-01,8.302461e-02,-3.252842e-01,-7.015456e-02,3.545388e-01,-7.738645e-02,-1.184772e-01,1.737971e-01,1.761081e-01,-1.118123e-01,-4.028316e-01,7.327597e-02,-1.387287e+00,1.248983e+00,1.086339e-01,-2.063649e-01,-1.093036e+00,
3.081289e-01,-1.904241e-01,-2.962259e-01,1.146868e-02,3.318648e-01,-3.966867e-02,2.906442e-01,7.047909e-01,5.358359e-01,3.611544e-01,-5.284784e-01,1.130283e-01,-3.440357e-01,1.864021e-01,8.627637e-02,1.546211e-01,3.604485e-02,-1.792681e-01,-3.349242e-01,3.899918e-01,4.831066e-02,1.377074e-01,-7.244915e-01,4.524156e-02,4.179694e-01,1.221128e+00,-4.908832e-01,6.820496e-01,7.633083e-03,-4.818832e-02,-1.225301e+00,-1.624440e-01,-1.235777e+00,1.409854e-01,-1.796053e-01,2.173221e-01,1.643060e-01,2.789510e-01,1.643004e-01,9.605354e-02,-7.783496e-01,-4.200582e-01,1.211906e+00,-3.544301e-01,-5.921597e-01,
-2.708821e-03,1.354103e-01,-1.494148e-01,6.840347e-02,-1.556067e-01,-3.725430e-02,3.118486e-01,-1.903748e-03,-2.374610e-01,-7.827742e-02,2.877664e-01,6.287643e-02,1.104006e-03,-1.504893e-01,5.341278e-02,8.505169e-02,4.945229e-01,-2.233850e-02,2.137980e-01,-1.542384e-01,1.020628e-01,6.256650e-02,-1.133077e-02,1.275851e-01,3.722357e-01,3.956778e-01,-4.728973e-01,-5.926885e-02,4.523914e-02,1.095819e-01,1.078366e-01,-3.816053e-02,1.099566e-01,-3.889762e-01,-2.134535e-01,-2.319293e-01,-4.425688e-01,-2.620345e-01,-4.057044e-01,8.367336e-01,-3.609990e-02,-5.831105e-02,-1.768544e-01,1.103935e-01,-4.595653e-02,
-1.043832e-01,7.636601e-02,1.598689e-01,-9.912244e-01,3.267712e-01,-1.221521e-01,8.757611e-02,1.620730e-01,4.321424e-01,-6.763110e-01,4.369665e-01,5.660095e-01,1.024965e+00,-1.838586e+00,4.461745e-01,2.249346e-01,-3.800398e-01,7.542124e-01,-7.112227e-02,2.760673e-01,3.810698e-01,6.707208e-01,-2.128902e-01,9.440055e-02,-4.230507e-01,4.250531e-01,9.263344e-02,-1.944054e-01,3.695997e-01,2.436558e-02,-1.346048e-01,-1.456191e-01,-3.887330e-01,1.997501e-01,-1.745672e-01,-7.726304e-01,-9.774844e-02,7.945646e-02,-4.984504e-02,-7.057112e-01,7.817193e-02,-4.522784e-01,-4.567709e-01,-3.490148e-01,2.102796e-01,
-1.224349e-01,1.681847e-01,5.441187e-01,1.155702e-01,1.287753e-01,3.346848e-01,-1.107617e-01,-3.436050e-01,-1.119442e-01,-1.623029e+00,9.053705e-02,1.483706e-03,5.069088e-01,-3.436800e-02,5.285359e-03,1.296238e-01,-5.238358e-01,-4.033171e-01,3.480890e-01,1.153363e-01,6.901170e-01,4.814360e-02,4.628424e-01,-3.853630e-02,-2.640114e-01,-9.483638e-01,3.550328e-01,-3.635795e-02,-2.454306e-01,1.415961e-01,3.363957e-01,-5.155216e-01,7.365752e-01,2.131044e-02,7.918546e-02,1.643540e-03,-1.604909e-01,2.514496e-01,-3.271691e-01,2.343831e-01,5.276667e-01,-1.014495e-01,-1.942959e-01,4.257655e-01,1.320814e-02,
3.988822e-01,1.378679e-01,1.400143e-01,1.949205e-02,-1.329849e-01,8.346615e-01,1.596131e-01,6.712462e-01,2.891062e-01,-3.429820e-02,4.430179e-02,-3.554200e-02,-1.626232e-01,-1.880075e-02,1.255739e-02,-5.900946e-02,-5.672240e-01,1.456518e-01,1.055076e-01,3.598758e-01,3.018813e-01,8.690429e-03,-1.478313e+00,8.593068e-02,5.559928e-01,-9.948413e-01,-1.239904e+00,-5.651175e-01,3.961341e-03,2.291996e-02,1.609816e-01,7.709463e-01,6.768378e-01,-9.849907e-02,-1.518384e-01,-3.183932e-01,2.477897e-03,2.094516e-01,5.671905e-01,5.337110e-01,6.911457e-01,-1.321862e-01,-2.467294e-01,3.229674e-01,7.424605e-02,
7.772443e-01,-9.041233e-02,-7.753941e-01,3.704239e-01,-4.696822e-01,3.170810e-01,-6.231737e-01,-4.402046e-01,-2.819342e-01,-9.579365e-01,-1.800233e-01,-1.013706e-01,-5.650526e-02,5.823864e-02,-9.165819e-03,9.063683e-02,6.326289e-01,-2.455381e-01,1.232898e-01,-1.333195e-01,6.146620e-01,-1.707022e-02,-3.144249e-01,-3.076205e-01,-2.084153e-01,-3.619104e-01,1.132550e-01,4.829636e-03,5.909176e-01,-9.754493e-02,-9.658093e-02,-3.410758e-01,2.913995e-01,3.375594e-01,1.555510e-01,3.432270e-01,2.508393e-01,-2.965998e-02,1.123678e-01,1.403248e-01,5.142624e-02,-9.920489e-03,-3.042439e-02,7.401408e-02,-5.543270e-01,
-9.328896e-02,-1.290298e-01,-1.842078e-01,-2.239514e-01,-4.169626e-01,1.298407e-01,-7.551378e-03,-2.678955e-01,3.979261e-02,9.138856e-01,2.956941e-01,5.157939e-02,7.948398e-02,1.162079e-01,-2.320805e-02,-2.585744e-01,-5.284516e-01,-2.410589e-01,-3.184842e-01,5.897060e-01,-4.047159e-01,1.069903e-02,-1.812526e-01,-7.564317e-02,2.750611e-01,5.416531e-01,5.459980e-01,-1.185306e-01,-4.514382e-02,-1.869835e-01,1.591410e-02,-4.366392e-01,5.785617e-02,1.502240e-01,1.548812e-01,-1.486297e-01,4.337054e-01,2.714958e-01,1.814331e-01,-3.107371e-01,-8.967777e-01,2.957303e-01,3.349444e-03,-3.918698e-01,2.216554e-01,
3.139978e-02,2.516456e-02,-1.057231e-01,-6.424854e-01,-1.701737e-02,-2.893768e-02,7.072575e-02,-1.034126e-02,1.146470e-01,-1.901173e-01,1.007817e-01,-1.125155e+00,-1.683922e-01,-1.588940e+00,-1.039752e+00,-7.729861e-01,-3.721233e-01,-3.362909e-02,4.308616e-03,3.436732e-02,2.515523e-01,-1.164103e+00,-5.980173e-02,6.277208e-02,-5.250252e-02,1.562803e-01,-7.918790e-02,3.272513e-02,1.142090e-01,-1.066890e-02,3.989206e-02,-5.646811e-02,8.340272e-02,4.018425e-02,3.803007e-02,-7.508482e-01,-4.123761e-03,5.258937e-02,-9.971534e-02,-1.744367e-03,6.717087e-02,-1.734251e-01,2.016426e-02,4.478371e-04,5.911336e-02,
6.840657e-01,2.701966e-01,-2.088245e+00,-6.115630e-02,7.811494e-01,5.283162e-01,1.651011e-01,-9.740325e-01,1.996997e-01,1.368629e+00,1.428301e-01,1.570406e-02,-4.909469e-01,7.478631e-02,-8.639871e-02,1.438418e-01,5.636914e-02,1.582480e-01,1.713961e-01,7.247478e-02,-1.509190e+00,5.147447e-02,9.031517e-01,3.397528e-01,1.148086e-01,-2.937279e-01,2.152707e-01,6.295938e-02,2.158946e-01,1.961396e-01,4.549539e-01,-1.857009e-01,1.096891e-01,-1.930616e-01,-5.791036e-02,8.431203e-02,-1.132076e-01,5.219959e-02,-2.010942e-01,-2.789787e-01,-1.158901e+00,4.115788e-01,2.220792e-01,2.417532e-01,-2.668271e-01,
2.452102e-01,-8.776644e-04,-2.104862e-01,3.971544e-01,-5.047352e-01,6.772566e-02,3.074877e-01,2.800567e-01,2.780581e-01,8.989669e-01,4.361923e-01,3.832347e-02,4.609318e-01,5.070078e-02,2.550702e-02,3.346567e-01,5.765673e-01,4.855822e-01,-1.231808e-01,7.795467e-01,-6.313124e-01,1.769773e-02,-3.990098e-01,1.152089e-01,1.406426e-01,1.509371e+00,6.309996e-01,1.615075e-01,2.754823e-01,3.375833e-02,-9.478130e-01,-2.649995e-01,5.856197e-02,3.664882e-01,2.897443e-01,3.645757e-01,6.560379e-01,4.381495e-01,5.368003e-01,-3.761151e-01,-9.698612e-01,5.817701e-01,1.718621e-01,-2.359190e-01,3.752795e-01,
2.303963e-01,-1.072538e+00,-4.253047e-01,-3.407330e-01,2.175902e-01,-8.199638e-01,9.236891e-02,1.097639e-01,8.628893e-02,-8.984634e-02,7.261198e-04,-5.865126e+00,-1.496439e-01,-4.830943e-01,-6.698469e+00,-4.242057e+00,-1.768412e+00,-1.232425e+00,-2.437805e+00,1.613807e-02,1.194869e-01,-6.568246e+00,1.869714e-01,-6.475409e-01,-1.070268e-01,1.240169e-02,-4.607853e-02,-7.964911e-02,-5.322837e-01,-1.047192e+00,5.350483e-02,1.475089e-01,-2.043895e-01,7.105406e-02,7.273028e-02,-3.878113e-01,1.033433e-01,-1.541073e-02,-2.859197e-01,5.199790e-02,-2.144076e-02,2.005717e-01,1.485475e-01,-1.903380e+00,-3.857461e-02,
5.007747e-01,1.431273e-01,8.123970e-02,-1.187382e-02,-6.341369e-02,7.809597e-01,2.160901e-02,-2.886256e-01,-1.384417e-01,-3.425011e+00,1.541679e-02,-3.490783e-02,8.817336e-02,4.589774e-02,-3.569949e-02,-4.583517e-01,4.698243e-01,-6.486670e-01,2.413770e-01,1.608631e-01,4.067283e-01,6.895282e-03,3.327972e-02,-2.609950e-02,-2.701734e-02,-7.081221e-01,-1.295419e-01,-1.204135e-02,2.951906e-01,1.023784e-01,-9.947309e-02,-7.372305e-02,2.097068e+00,-1.935916e-01,4.298549e-02,3.541358e-01,-3.494768e-01,-1.265364e-02,6.769723e-02,1.171570e-01,6.801341e-02,-4.713777e-01,1.399539e-01,2.778588e-01,-2.254256e-01,
2.332181e-01,2.354670e-01,3.098158e-02,2.589949e-01,4.350422e-01,5.078309e-01,8.659835e-01,-7.804456e-01,-6.476929e-01,-6.712952e-01,4.269342e-01,-3.074565e-04,1.459203e-01,-9.104367e-02,-3.203261e-02,2.255127e-02,7.435582e-01,3.610699e-01,2.228626e-01,-7.550020e-01,2.555203e-01,-3.132545e-02,6.424854e-01,2.582819e-01,-1.092782e-01,3.268524e-01,-2.760340e-01,2.726349e-01,5.515158e-01,2.242038e-02,-2.897146e-01,4.531670e-01,6.513603e-01,-1.679852e-01,-6.847429e-02,-2.369850e-01,-3.878850e-01,-2.084615e-01,-7.808585e-02,1.551119e-02,2.765681e-01,8.551312e-01,1.877918e-01,-3.107708e-01,-1.106476e+00,
1.915357e-01,-1.707426e-02,-2.099168e-01,-3.396017e-01,-3.622605e-01,4.006639e-01,-2.753358e-02,2.752374e-01,-1.708744e-01,8.897185e-04,-3.673404e-01,1.182928e-01,-4.968403e-01,1.022632e-01,1.463555e-01,2.856737e-02,-3.584027e-01,-5.111638e-01,-1.784130e-02,-1.808968e-01,-1.286825e-01,1.719698e-01,-7.177316e-02,5.130788e-02,-4.402760e-03,-1.822455e-01,3.435401e-02,-1.642180e-01,3.544737e-01,2.247347e-02,3.953238e-01,-1.372914e-01,-5.297501e-02,-1.887724e-01,-2.886841e-02,-1.194588e-01,-1.444860e-01,-1.383317e-01,5.012836e-02,1.108770e-01,-3.624522e-01,-1.113314e+00,-2.396070e-01,6.569085e-02,-1.249998e-01,
-1.231604e-02,-1.114200e-02,-2.071781e-02,-2.471369e-03,-5.136594e-02,1.102256e-02,1.425644e-02,-4.967662e-02,-2.629743e-02,2.916884e-02,3.984327e-03,1.915745e-02,-7.777931e-04,-3.054527e-02,-4.624841e-02,-3.904587e-02,-4.238034e-02,1.226177e-02,-5.945680e-02,7.480713e-03,5.511543e-03,1.233898e-02,7.122803e-04,-4.652886e-02,-3.089202e-02,3.509789e-03,-2.128980e-02,1.287276e-02,1.882515e-03,3.715599e-03,2.485299e-02,-3.626031e-02,6.337910e-04,1.616385e-02,-8.038152e-04,-2.369673e-02,2.265107e-02,-5.029200e-02,-2.009374e-02,-2.695949e-02,-4.899020e-02,1.857751e-02,1.394010e-02,2.373433e-02,-2.533037e-02,
1.045716e-01,2.524610e-01,-5.233329e-02,1.184636e+00,1.405773e-01,-3.645102e-01,2.041517e-01,3.292721e-02,1.505180e-01,-7.069419e-01,6.372947e-02,-2.945998e-02,-6.065425e-01,-1.336002e-01,1.155750e-02,2.438052e-01,1.188686e+00,-3.832298e-01,2.841783e-01,-4.349023e-01,4.790800e-01,5.372464e-02,4.402741e-01,2.002258e-01,-1.479623e-01,-8.780746e-01,-2.646409e-01,-2.578329e-02,4.733660e-01,2.918024e-01,-8.178804e-01,2.347655e-01,-3.545786e-01,-1.014166e-01,5.751184e-04,-7.494727e-01,-3.749156e-01,-1.979042e-01,-9.695819e-03,4.798377e-01,4.742282e-01,-3.419144e-01,-1.161539e-01,3.952684e-01,-1.307168e-01,
6.762769e-02,
-7.048529e-02,
-3.911664e-02,
4.149516e-02,
-9.474333e-03,
-2.338624e-02,
-6.586649e-02,
5.375527e-02,
-6.051679e-02,
2.841088e-03,
-5.080986e-02,
-5.180181e-01,
1.355200e-01,
-2.612049e-02,
-1.073409e-01,
-1.883171e-02,
6.894354e-02,
1.110220e-01,
6.375025e-02,
-1.270853e-02,
-6.474222e-02,
1.094147e-01,
1.978610e-01,
1.416987e-02,
-4.403985e-02,
1.229037e-01,
-6.823377e-02,
-1.094680e-01,
1.760831e-01,
1.135158e-02,
-7.216341e-01,
-7.821156e-02,
-3.823015e-02,
-1.531243e-01,
9.293958e-02,
1.303369e-01,
5.352194e-01,
-2.312381e-01,
1.940695e-01,
1.911319e-01,
3.426788e-02,
1.943279e-01,
7.619926e-02,
-1.945988e-02,
5.567192e-02,
-1.929220e-02,1.668819e-02,-2.215656e-02,2.739207e-02,-4.207640e-02,2.649500e-02,-4.538408e-02,-7.122451e-03,2.639174e-02,5.912784e-03,-1.010670e-02,1.320915e-02,2.586025e-02,-4.034193e-02,-3.722601e-02,-3.868597e-02,-5.150641e-03,-3.746859e-02,-1.410959e-02,3.162678e-02,2.663254e-02,1.411027e-02,-5.027056e-02,1.844566e-02,1.703023e-03,4.967715e-03,1.123676e-02,-1.475443e-02,3.773190e-02,4.510260e-03,-9.083139e-03,-1.814945e-02,-4.969544e-02,-2.485373e-02,-2.382139e-02,2.685218e-02,-2.256906e-02,1.283215e-02,-1.617158e-02,-2.794293e-02,-5.541633e-02,-3.288350e-02,-5.913435e-03,3.130277e-02,-4.305717e-02,
-7.654991e-03,-2.107765e-02,1.885043e-02,-2.871675e-02,3.451297e-02,-1.131770e-02,-1.333941e-02,1.759922e-02,2.735783e-02,-8.616204e-02,-3.754230e-02,-2.144945e-02,-3.249894e-02,-3.564080e-02,-4.329735e-02,-2.493755e-02,-1.793619e-02,8.595081e-03,-3.240452e-02,-1.539410e-02,-7.990948e-02,-4.152195e-02,-5.571174e-02,3.478592e-02,-8.035845e-02,-5.077532e-02,1.086917e-02,-4.209260e-02,3.846608e-02,-3.322591e-02,-6.089100e-02,-2.976313e-02,-2.363780e-02,-2.774985e-03,2.455420e-03,6.301088e-03,-6.947421e-02,7.025426e-03,-4.484534e-02,-1.013686e-03,-3.433991e-02,5.588009e-03,-5.345152e-02,4.660635e-02,-7.489060e-02,
-2.462811e-01,6.296089e-02,3.012823e-01,-5.857089e-01,-3.090904e-01,1.449683e-01,-6.070665e-01,-1.336057e-01,-2.409411e-01,-4.800856e-01,-2.483994e-02,-1.743128e-02,2.925023e-01,1.670281e-01,2.546988e-02,7.444197e-01,5.452266e-01,2.932458e-01,3.021417e-01,2.696209e-02,-2.894835e-01,8.953962e-02,2.669782e-01,5.468437e-01,-1.146002e-01,3.131224e-01,-2.624239e-01,1.737584e-01,6.962370e-01,-3.649018e-01,-4.794745e-01,-7.699189e-01,-6.401350e-01,-6.856909e-01,9.233140e-01,1.097292e-01,7.325772e-02,-1.052907e-01,-1.542756e-01,-1.578026e-02,2.046854e-01,-2.390965e-01,4.169019e-01,-1.394440e-02,-7.527273e-01,
-6.582457e-01,-1.495635e-01,-3.270642e-01,8.397653e-02,-4.350753e-01,9.385942e-01,-7.510910e-02,-4.115055e-02,-3.920973e-01,1.174181e-01,1.942994e-01,-1.299728e-01,-1.897217e+00,-2.039425e-01,2.436501e-01,-3.850091e-01,6.640740e-01,5.266742e-02,4.200364e-01,8.888648e-03,-9.693866e-02,-1.322910e-01,2.259350e-01,-4.591917e-01,-5.771988e-01,-1.042874e-01,-2.700238e-01,-5.046727e-02,4.883057e-01,-9.914380e-02,1.345770e+00,5.227901e-01,-8.242501e-02,-2.793045e-02,-7.420914e-01,1.854696e-01,1.371147e-01,-4.113202e-02,1.251039e-01,-2.454068e+00,-1.064850e+00,-2.294919e-01,-3.389699e-01,5.972807e-02,-2.295322e-01,
5.178265e-03,2.060773e-02,-3.150114e-01,1.125167e-01,4.415753e-01,3.363354e-01,1.615386e-01,-4.704015e-01,1.209542e-01,-3.467095e-01,3.738897e-01,5.527373e-02,-3.862951e+00,1.009313e-01,1.012287e-01,3.192885e-02,2.116582e-02,-1.281241e-01,-2.312055e-01,-4.297469e-02,-2.550552e-01,-1.845538e-02,2.969460e-01,2.046580e-01,1.557544e-01,-2.002537e-01,2.076270e-01,-1.573627e-01,2.555256e-01,2.467587e-01,4.069103e+00,-5.998218e-02,2.716110e-01,8.866902e-02,1.691669e-01,1.618968e-01,9.020480e-02,-2.380941e-01,1.763036e-01,-3.865529e+00,1.299918e-01,-8.270589e-01,3.413174e-01,4.155822e-02,-6.178119e-01,
-4.472778e-02,-2.803933e-02,-6.353883e-02,1.271554e-02,2.441045e-02,-7.057079e-02,-5.345161e-02,-6.069138e-02,2.328184e-02,-5.108600e-02,9.894520e-03,1.750032e-02,-1.858191e-02,1.605906e-02,-2.923227e-02,2.774822e-02,-3.252673e-02,-2.364865e-02,1.396137e-02,-1.528495e-02,-3.907357e-02,-6.489287e-02,-6.272189e-02,-3.247984e-03,2.835114e-02,2.251716e-02,1.499281e-02,-3.126157e-02,2.166147e-02,2.342088e-02,1.357654e-02,-4.082940e-02,-5.223297e-02,2.018249e-02,-5.530807e-02,-3.282113e-02,-2.248708e-02,-2.026244e-02,1.581244e-02,-9.169838e-03,-2.832942e-02,3.911144e-03,-5.788506e-02,1.690213e-02,-3.354166e-02,
-9.448901e-02,4.143329e-02,2.780060e-01,-5.502313e-02,-7.456753e-01,2.383186e-02,-2.624235e-01,-7.159733e-01,-2.020586e-01,5.429189e-01,1.647531e-01,1.041281e-01,-5.637191e-01,-1.857592e-01,6.562485e-02,3.855915e-01,2.780478e-01,-4.317888e-02,2.782134e-01,3.042063e-02,-4.207685e-01,5.570038e-01,-6.127526e-03,-6.168402e-04,-2.204330e-01,8.669911e-01,7.341816e-02,-3.524429e+00,-3.894021e-01,1.976887e-01,1.170912e-01,-9.078376e-01,8.361740e-02,3.299889e-02,3.145279e-01,5.182425e-01,3.675327e-01,-2.132148e-01,-3.832869e-01,-4.663264e-01,1.282639e-01,-2.751829e-01,3.916907e-01,2.330561e-02,6.830281e-02,
3.203790e-02,-1.615220e-02,2.622675e-02,3.188488e-03,-5.086298e-02,-4.871161e-02,2.645107e-02,2.277720e-02,1.061324e-02,1.307803e-02,-1.838227e-02,-1.716548e-02,1.848620e-02,-4.963141e-02,-4.154058e-02,-1.244360e-02,-9.942926e-03,2.009682e-02,-1.699405e-02,-1.857977e-02,-3.499802e-02,-4.719831e-02,-2.588428e-02,-1.864539e-03,-2.008372e-02,-3.593614e-02,-3.997131e-02,3.083575e-02,-2.445455e-02,3.988192e-03,-5.864886e-02,-3.570189e-02,-4.457425e-02,3.398110e-03,-1.343863e-02,-3.746794e-02,4.675167e-02,2.664718e-02,-6.283573e-02,-3.022275e-02,-4.760571e-02,-8.447879e-03,5.751129e-03,-3.362771e-02,-3.182944e-02,
3.863881e-02,-5.918754e-01,-9.089453e-01,8.768032e-02,2.880805e-01,-4.001695e-02,-8.314988e-02,8.672151e-02,-2.070887e-02,-5.664358e-01,-1.114504e-01,-4.052179e-02,3.121380e-01,-2.379815e-01,-3.131845e+00,3.691304e-02,1.224946e-01,-9.566997e-01,7.028089e-02,-4.814528e-02,-2.801856e-01,-2.564979e-01,1.208948e-01,-1.939183e-01,-2.052350e-01,1.012263e-01,-4.603154e-01,-6.557815e-02,4.482849e-01,2.645803e-01,-6.717945e-02,1.741406e-01,-3.223226e-01,-5.000818e-01,-1.759004e-01,5.253827e-01,7.434150e-02,9.267031e-01,4.592682e-01,2.143230e-01,-5.442596e-01,-6.027860e-02,2.918708e-03,-3.424535e-04,-1.660713e-01,
2.147658e-02,-7.204124e-02,-6.069708e-02,-5.475605e-02,-7.594272e-02,1.526917e-02,-4.601420e-02,-7.231881e-02,-7.078123e-03,-2.313626e-02,-3.446037e-02,2.199374e-02,2.147669e-02,-8.786811e-03,6.773782e-03,-6.541112e-02,-5.016540e-02,-7.598387e-02,-5.898706e-02,-2.930825e-02,-4.010029e-03,-4.785479e-04,-8.349054e-02,8.153069e-03,-1.116548e-02,-3.520878e-02,-2.187163e-02,1.534748e-02,-4.167038e-02,-1.718927e-02,5.878787e-03,-2.151987e-02,-6.505428e-03,-4.174744e-02,-5.422452e-03,-4.795272e-02,-1.898330e-02,-3.461175e-02,-4.650918e-02,4.084941e-02,-5.113155e-02,1.369783e-02,-5.381852e-02,2.189526e-02,-7.919331e-02,
9.936674e-03,-8.076840e-03,3.301956e-03,1.065761e-02,-3.764213e-02,-3.588107e-02,-5.593636e-03,-2.159962e-02,3.873959e-02,8.274884e-04,-1.429173e-02,-1.066269e-03,3.920700e-02,-4.673751e-02,-1.385447e-02,1.084453e-02,-1.778585e-02,1.704559e-03,7.825729e-03,-4.651484e-02,-1.498118e-02,-3.030691e-02,-5.622859e-02,9.290221e-03,2.346680e-02,-3.281662e-03,-1.738275e-02,-4.024248e-02,-2.100986e-02,-3.253898e-02,-2.023097e-03,-4.132451e-02,-2.372071e-02,3.548797e-02,-3.305265e-02,-2.769677e-02,-5.001873e-02,-4.055438e-02,1.273761e-02,3.169954e-02,-2.136550e-02,2.462263e-02,3.253367e-02,2.549181e-02,-5.601379e-02,
-7.877837e-02,1.716281e-01,1.654009e-01,1.426486e-01,-8.814139e-01,3.014114e-01,2.261100e-02,-2.283661e-01,-3.636811e-01,7.132450e-01,2.540450e-02,-8.785420e-02,8.800956e-02,-1.407625e-01,3.412271e-01,3.938617e-01,-5.087696e-01,-2.636566e-02,-2.766383e-01,-1.321699e-02,-4.409984e-01,2.600308e-01,3.185885e-01,-4.712580e-01,-6.936908e-02,2.209878e-01,8.534572e-03,8.564114e-02,-8.239204e-02,4.990801e-01,1.225119e+00,3.654442e-01,1.265377e-01,3.226040e-01,5.062723e-01,-3.991003e-01,1.654463e-01,-2.007304e-01,-1.766981e-05,-7.155920e-03,-4.067301e-01,-4.984565e-01,4.200250e-01,-6.423355e-03,-3.047774e-01,
-6.217123e-01,-6.622201e-03,-3.751040e-02,1.574957e-01,8.084504e-01,-1.490555e-01,-4.705968e-01,-4.258728e-01,4.366726e-01,1.201802e-01,2.576378e-01,-1.745683e-01,-3.898633e+00,3.138099e-01,1.653356e-02,-3.287967e-02,7.954252e-01,-2.760003e-01,-1.576667e-01,9.686283e-03,-1.170644e-01,4.138450e-02,1.767221e-01,2.362375e-01,-2.474015e-03,-9.153979e-01,2.492742e-01,1.120613e-01,-4.637122e-02,1.491097e-01,1.072454e+00,7.330783e-01,-5.506165e-02,-7.700906e-02,1.029702e-01,1.337927e-01,-1.518880e-01,-3.046333e-01,2.433435e-01,-3.494339e+00,3.060463e-01,2.078701e-01,2.391810e-01,-1.377541e-02,1.992756e-01,
1.016841e-01,-3.540450e-02,1.824330e-01,2.319583e-01,-2.585251e-01,-5.813825e-01,2.764580e-02,2.165720e-01,6.641265e-03,1.816025e-01,1.811523e-01,1.360978e-01,6.592962e-01,-1.063023e+00,2.692106e-01,5.204778e-01,9.384260e-01,-2.637751e-01,8.824418e-01,5.133069e-03,2.490735e-01,-5.337290e-01,-1.287911e-01,-1.541951e-01,1.427086e-01,6.031649e-01,-6.392204e-01,1.019558e-01,2.133463e-01,5.680943e-01,2.847013e+00,1.168133e+00,4.733828e-01,2.262775e-01,4.351911e-01,2.228610e-01,-4.703099e-02,1.848739e-01,-2.348345e-01,7.741067e-01,-5.784962e-01,-1.126031e-01,4.208772e-01,1.786269e-02,2.732494e-02,
-1.393814e-01,7.080361e-02,1.005728e-01,-1.416929e-01,1.060447e-01,7.962395e-03,-7.149377e-01,1.160094e-01,5.230366e-01,-8.759826e-02,6.420134e-01,-1.837589e-01,-4.356726e+00,-2.457634e-01,-3.857294e-02,-7.721914e-03,3.121690e-01,4.388812e-02,-4.965920e-01,1.252051e-02,-1.711219e-01,2.431142e-01,7.191283e-01,3.590413e-01,-2.610694e-03,1.165322e-01,-1.921552e-01,1.666787e-01,5.206509e-01,-1.129053e-01,-2.908093e+00,-2.686909e-01,1.564647e-01,-2.140054e-02,2.247525e-01,1.667386e-01,3.084456e-01,7.487582e-03,3.470343e-02,-3.830483e+00,9.409523e-02,-4.421411e-01,3.203999e-01,-3.286490e-02,4.985332e-02,
-2.562121e-02,2.371236e-03,9.085102e-03,-3.810227e-02,9.408904e-03,-4.235236e-02,-4.324551e-02,1.990966e-02,-4.456339e-02,-2.617822e-02,-4.765416e-02,-2.665494e-02,9.186655e-03,2.920470e-02,-1.491378e-02,-3.709958e-02,-1.698262e-03,-2.776873e-02,-1.215544e-02,-1.917762e-02,-4.721742e-02,-5.061316e-02,-6.116651e-02,3.006532e-02,1.865407e-02,-1.760538e-02,-2.851106e-02,4.283121e-03,-5.784030e-02,8.864526e-03,-5.579332e-02,7.526355e-03,-2.319224e-02,-5.603226e-02,1.876059e-02,-3.786918e-03,2.759074e-02,-2.217607e-02,1.928289e-02,2.320530e-02,1.381502e-02,-4.409573e-02,-2.804209e-02,-1.605123e-03,5.764799e-03,
-3.370922e-01,2.104117e-01,4.832852e-01,-6.278104e-01,-2.957382e-01,1.572742e-01,2.370682e-01,-1.088351e-01,3.010891e-02,4.605497e-01,-6.616981e-01,-2.123686e-02,3.231960e-01,2.444845e-01,9.944953e-03,-3.555650e-01,-2.176833e-01,4.399881e-01,8.724677e-02,2.767013e-04,-4.844863e-01,5.120524e-01,-4.204996e-02,-1.091951e-01,-1.480411e-01,6.733475e-01,3.668169e-01,-3.323705e-02,-9.288136e-01,9.316857e-01,1.015673e+00,5.119923e-01,-6.960678e-02,2.481162e-01,7.869138e-01,-4.839135e-01,-7.683747e-02,-3.805293e-01,1.027207e-02,1.200651e-01,4.666014e-01,-6.683688e-01,5.259640e-01,-4.148128e-02,-2.911113e-01,
2.188949e-02,3.436829e-01,-1.541457e-01,-2.343239e-01,-1.228656e-03,1.063867e-01,1.936461e-01,2.821015e-01,2.528233e-02,-6.231967e-01,4.697500e-01,-4.531339e-03,-7.371703e-01,1.116748e-01,-3.022416e+00,-1.878286e+00,3.402824e-02,7.678934e-01,1.825539e-01,2.138650e-02,-2.951410e-01,5.555729e-01,2.120233e-01,4.614258e-01,-2.588296e-02,-1.212598e-01,7.573575e-01,-1.356584e-01,-8.284735e-01,-1.697863e-01,1.193038e-01,1.075184e-01,-3.041434e-01,5.967276e-01,4.429056e-01,-1.131064e-02,2.205260e-01,8.742881e-02,-1.402033e-01,-2.538898e-01,-2.026268e-01,-8.091480e-02,4.852229e-01,1.024467e-02,2.569619e-01,
3.259923e-01,-1.555053e-01,5.230802e-01,2.539021e-01,-3.023370e-01,1.070791e-01,-1.108044e-01,2.911370e-01,-1.664404e-02,1.018268e-01,-2.183346e-01,-1.187451e-01,6.984817e-01,-2.782216e-02,7.788776e-02,1.729474e-01,-1.154027e-01,-1.252877e-01,3.034163e-01,-2.550008e-02,3.350497e-02,2.357681e-01,1.117775e-01,2.552111e-01,-2.048559e-02,-4.172219e-01,1.460083e-02,-4.371979e-02,-4.069661e-01,-2.503421e-01,5.689854e+00,2.333291e-01,-1.501035e-01,-1.449928e-01,3.038798e-01,3.826054e-01,1.841054e-01,-2.524389e-01,6.487318e-02,-2.403133e-01,1.789357e-02,-5.766943e-01,-6.060101e-02,2.665864e-02,-2.656199e-01,
-2.750296e-02,9.747882e-02,6.112322e-01,-2.406741e-01,-2.907401e-01,-8.907057e-02,-6.049088e-01,-1.828047e-02,-3.406506e-01,-7.594785e-01,7.043126e-01,-1.254916e-01,-3.940464e+00,6.628834e-02,-1.979787e-03,-1.975029e-01,-1.220028e-01,4.257103e-01,-2.061649e-01,-4.189800e-02,1.002572e-01,3.699638e-01,1.659821e-01,7.317407e-02,-1.676357e-01,1.222421e-01,3.121618e-01,-3.675830e-02,-2.818921e-02,1.838624e-02,2.168821e-01,-1.329509e+00,-3.908112e-01,-1.895093e-01,3.225856e-01,1.130929e-01,2.517299e-01,-2.880327e-01,1.667248e-01,-3.797593e+00,-1.453921e-01,-1.113239e-01,1.585138e-01,-6.290244e-03,2.403711e-01,
9.933195e-02,5.112872e-02,-5.034473e-01,-2.870907e-01,7.556099e-02,1.693402e-01,-5.284357e-01,-5.088607e-03,3.092650e-01,-2.146818e-01,1.511495e-01,-1.188805e-01,-3.503081e+00,-4.069513e-01,3.980545e-03,-2.225168e-01,4.317652e-01,-1.244046e-01,-8.951908e-01,-1.227034e-02,-1.061776e-02,1.856767e-01,1.237953e-01,1.761735e-01,-1.167183e-01,1.456057e-01,-2.221567e-01,6.428086e-02,5.480297e-01,-3.161320e-01,-1.539480e+00,4.606894e-01,1.645570e-01,-7.564686e-02,3.366320e-01,2.184969e-01,-6.845012e-02,1.154155e-01,1.187278e-01,-2.373836e+00,5.353634e-01,-7.277910e-02,7.283262e-01,-4.291930e-02,-3.340197e-01,
3.832535e-02,-8.403655e-02,1.265422e-02,-2.165238e-02,3.786410e-03,-1.366093e-02,3.150447e-02,-1.023113e-02,-6.900085e-02,-3.811482e-02,-6.507553e-02,1.223170e-03,2.551515e-02,3.818989e-03,-4.820564e-02,-1.276234e-02,-5.460083e-02,-1.422170e-02,-5.414261e-03,2.716460e-02,6.435739e-03,3.223069e-02,-2.518721e-02,-7.012574e-03,-9.271591e-03,1.747340e-02,-8.545465e-02,-1.777601e-02,1.608705e-02,-3.612043e-02,-1.199223e-02,-1.808607e-02,-7.551610e-02,-5.927285e-02,-1.726126e-03,-2.578638e-02,8.421162e-03,-2.353937e-02,-6.402300e-02,2.216783e-03,-2.141930e-02,-3.823446e-03,-9.011622e-02,-5.420421e-03,-4.084330e-02,
-2.213721e-01,6.347805e-03,5.888781e-02,8.315545e-02,3.275367e-01,2.661259e-01,-1.367387e-01,2.439805e-01,4.435373e-02,-2.807450e-01,2.148147e-01,-6.013153e-02,1.320823e-02,3.599055e-02,-4.441569e-02,3.866692e-03,3.334186e-01,7.349897e-02,7.125331e-02,-3.534017e-02,3.896235e-02,-4.550416e-02,3.295446e-01,2.313277e-01,-7.691459e-03,2.754484e-01,8.353814e-03,3.008935e-02,3.545838e-01,2.534334e-01,-1.384952e-01,7.159617e-02,-4.123702e-03,-3.071437e-02,1.416744e-01,2.515115e-01,-5.977572e+00,7.313570e-02,-1.826304e-01,2.187751e-04,2.197423e-01,3.360743e-01,6.036258e-02,-4.504931e-02,-1.338013e-01,
-5.647913e+00,9.809020e-02,-1.838222e-01,-1.040973e-01,-1.073447e-01,5.570776e-01,1.886804e-01,-9.067763e-03,1.623746e-01,5.927879e-02,-4.440649e-02,-1.167680e-01,2.434879e-01,1.190309e-01,2.029997e-01,4.001994e-01,1.424958e-01,-1.185187e-01,6.267160e-01,-3.212704e-02,-2.291152e-01,1.391806e-01,2.454636e-01,-9.281413e-02,7.979958e-02,-5.923011e-01,-1.942453e-01,6.432921e-02,-2.052344e-01,-2.960904e-01,-7.499113e-01,-3.266142e-01,2.224757e-01,-6.000103e-02,-3.837800e-01,1.162705e-01,-1.057061e+00,-2.093613e-01,1.640600e-01,1.253795e-01,6.806678e-02,5.215782e-01,2.366429e-02,5.147073e-02,-1.870647e-01,
-4.141805e-01,1.093149e-01,1.478106e-01,1.851297e-01,2.708994e-02,6.228902e-03,-7.944669e-02,2.450671e-01,-2.679298e-01,1.662620e-01,1.962576e-01,1.299285e-01,-5.743052e-01,4.014215e-01,2.579874e-01,8.399293e-02,-1.127008e-01,8.099629e-02,8.243559e-02,-1.060626e-03,-6.530069e-01,-3.113611e-01,3.853306e-01,-4.983911e-01,1.774154e-01,5.720685e-01,-3.228779e-01,1.516458e-01,-2.047418e-01,5.902591e-01,-9.579915e-02,-5.525751e-01,5.638804e-03,-8.489010e-03,-9.926111e-02,-9.592610e-02,2.049962e-01,-4.221185e-01,-9.295915e-02,-5.669658e-01,1.432828e-01,-2.518500e-01,9.710902e-02,-3.359009e-02,-7.513409e-01,
-4.607447e-02,1.595301e-01,3.204822e-01,-3.897637e-01,-2.089790e-01,4.678274e-02,-1.123074e-01,9.937541e-02,-1.084584e+00,1.511233e-02,-3.246698e-01,-5.452345e-02,-4.092137e-03,-4.361540e-02,3.066486e-02,1.958023e-01,-1.242611e-01,4.239924e-01,-1.459550e-01,3.624540e-02,-3.466181e-01,5.876556e-01,-5.827186e-01,-2.269939e-01,-1.121754e-01,-2.214204e-01,4.778466e-01,-5.007876e-02,-5.238026e-02,6.150968e-04,1.480411e+00,6.448260e-01,2.206253e-02,-4.266580e-01,2.359117e-01,1.241785e-01,-9.299444e+00,4.753030e-02,2.463701e-01,2.831553e-02,-6.732823e-01,1.565282e-01,3.178474e-01,-3.786336e-02,2.548490e-01,
-2.124585e-01,3.007304e-01,-3.114144e-01,2.408938e-01,7.041220e-02,3.920990e-02,-2.220141e-01,4.226091e-01,4.691957e-01,-1.249985e-01,-3.842278e-01,-8.694299e-02,-3.562611e+00,-9.328760e-03,4.517663e-02,-9.623738e-02,3.739013e-01,-1.734634e-01,4.244887e-01,-4.181828e-02,-5.113971e-01,5.236591e-02,-6.094249e-01,5.670012e-01,-5.019201e-02,4.021805e-02,2.395109e-01,-4.686965e-02,-3.740862e-01,-5.273231e-02,2.557962e+00,-7.557583e-02,-3.724283e-02,-2.226547e-01,3.112324e-01,5.828307e-01,5.749708e-02,1.936075e-02,2.857779e-01,-3.120217e+00,1.535025e-01,-1.979626e-02,1.014997e-01,5.630483e-03,1.567303e-01,
-4.598130e-02,-3.727517e-02,-4.751843e-02,-5.324227e-02,-5.137206e-02,-3.154140e-02,-5.268442e-02,-3.561565e-02,2.413007e-02,-7.449633e-02,7.935178e-03,-6.639438e-03,3.529987e-02,2.975673e-02,-3.888129e-02,-6.312710e-02,-5.334575e-02,1.041264e-02,-5.466273e-02,-4.116412e-04,-4.022818e-02,-4.432860e-02,-3.277330e-02,-5.499114e-02,-1.354762e-02,-2.002706e-02,-7.660468e-03,2.631225e-02,2.074414e-02,6.388692e-03,-5.787993e-02,-1.793150e-02,-6.432927e-02,-1.394376e-02,2.524678e-02,1.110762e-02,-2.747243e-03,-5.282798e-02,-1.845495e-03,-1.310479e-02,-1.859371e-02,-1.239910e-02,2.956509e-02,3.280109e-02,-5.060877e-02,
-1.419766e-01,2.210538e-02,-8.967330e-02,2.931879e-02,1.519079e+00,1.612626e-01,2.456599e-01,2.383912e-01,1.411216e-01,5.108096e-02,-8.395512e-01,1.621175e-01,-2.532277e-02,5.401151e-01,-5.510900e-02,5.738558e-01,-5.222889e-01,-1.209623e+00,2.851501e-01,2.277520e-02,1.681547e-01,6.040511e-01,-9.572764e-01,2.842670e-01,-6.223380e-02,4.099264e-01,-4.231899e+00,1.234288e-02,-2.948818e-01,-1.945589e-03,-1.004107e+00,-1.230061e+00,-3.611056e-01,-2.707209e-01,-1.000772e+00,-1.485132e-01,-7.933219e+00,-1.393416e-01,-6.412677e-02,-9.697749e-02,-2.123615e+00,-2.073476e-02,-5.512384e-01,-2.998930e-02,8.374412e-02,
-1.571323e-01,-1.504695e-01,-4.511008e-01,-2.506316e-01,3.986896e-01,4.668429e-01,-1.326431e-01,-1.750697e-01,1.214113e-01,2.612253e-01,-6.301326e-02,-9.074027e-02,-5.161328e-01,3.682816e-01,3.591230e-01,9.839031e-02,-3.219382e-01,-9.288030e-03,1.596789e-01,-4.431061e-02,-4.025666e-01,-5.349367e-01,-6.828166e-02,-1.364933e-01,-2.088897e-01,9.271485e-02,-1.784516e-01,1.811318e-01,9.078610e-01,8.391414e-01,7.384919e+00,4.099473e-01,-7.361240e-01,3.957889e-01,-1.169505e-01,-2.696047e-01,1.228005e-01,2.465627e-01,-1.380809e-01,-2.587158e-01,5.580690e-01,-6.710962e-02,1.934425e-01,1.637755e-02,-3.228347e-01,
-1.519918e+00,1.023996e-01,3.656089e-01,2.408529e-01,2.233301e-01,-1.881915e-01,-1.243122e-02,5.129888e-01,-2.632034e-02,1.298174e-01,2.386936e-01,-3.045408e+00,-1.135189e-01,1.199528e-01,-3.996399e-02,2.165786e-01,2.465481e-01,3.009263e-02,6.418368e-02,-6.014597e-03,-7.734396e-02,3.439807e-01,2.707835e-01,1.450665e-01,6.859804e-02,1.156556e-01,1.163071e-01,1.307642e-02,5.235301e-01,-7.381612e-02,4.244128e-01,-1.024309e+00,2.620594e-01,4.580470e-02,1.489446e-01,6.683307e-01,-4.578370e-01,1.923168e-01,-1.525722e-01,-1.974881e-01,1.397727e-01,1.308633e-01,5.737364e-01,4.821875e-02,3.377124e-02,
-2.874037e-02,-1.737614e-01,6.382629e-01,1.275228e-01,-1.033195e+00,-2.922121e-02,-4.758096e-01,-7.136487e-01,-9.108551e-01,1.162369e+00,3.639629e-01,-3.345670e-04,5.485374e-01,-2.938411e-01,3.063886e-02,-5.274892e-02,-1.319270e-01,5.927853e-02,-1.778506e-02,-2.156189e-03,-2.207056e-02,-3.245679e-01,3.688353e-01,-2.643963e-01,-5.271491e-03,-1.936300e-01,-1.219957e+00,-3.311075e-01,1.313781e-01,5.121450e-01,-1.181032e+00,2.788694e-01,-4.710602e-01,6.567850e-01,3.416212e-01,-3.536595e-01,-4.020334e-02,1.138670e-01,-3.924296e-01,5.462294e-01,-4.564075e-01,3.081264e-01,-5.711853e-01,4.359842e-02,-5.465266e-02,
2.132073e-02,1.271831e-02,-1.998256e-02,-3.715081e-02,-4.561772e-02,-1.235019e-03,-4.230789e-02,-5.555364e-02,-6.509489e-02,-2.876037e-02,-1.815654e-02,1.650306e-02,-2.869298e-02,-3.598785e-03,1.121267e-02,1.217789e-03,-4.465856e-02,-1.505435e-02,-1.646793e-03,2.128493e-02,8.734653e-03,1.568812e-03,2.109580e-03,-1.724190e-02,-5.923175e-02,5.217774e-03,-6.108474e-02,-6.771922e-04,-1.821138e-02,1.427133e-02,-2.269027e-02,2.576807e-02,1.276279e-02,-7.038834e-02,-3.727462e-02,-6.097987e-03,-3.344364e-02,-1.855609e-02,-4.102140e-02,-3.891378e-02,-7.225259e-02,-6.443130e-02,-5.369534e-02,4.764612e-02,-5.977277e-02,
3.758063e-01,-6.152710e-01,2.319716e-01,9.395238e-02,-3.260579e-02,8.616604e-02,3.628424e-01,2.637222e-01,8.970069e-03,3.649372e-02,-8.402783e-02,1.335927e-01,-1.433170e-01,1.726632e-01,4.219747e-01,2.409214e-01,1.348200e-01,-2.827300e-01,3.649658e-01,5.311682e-03,2.401621e-01,-2.108113e-01,6.171878e-02,4.215938e-02,-8.275658e-02,3.661501e-02,-1.456971e-01,1.238689e-01,4.557517e-01,1.157269e-01,-1.745646e+00,1.144445e-01,-1.629097e-01,-2.699262e-02,1.255165e-01,1.594436e-01,3.877426e-02,8.385556e-03,-3.939557e-02,-9.993427e-02,-6.086903e-01,1.052925e-01,1.211328e-01,-5.272165e-03,-2.152126e-01,
4.834350e-01,-1.424762e-01,1.872162e-01,2.679214e-01,-2.303803e-01,-1.277149e-01,-3.353417e-01,-1.737155e-01,-8.564565e-02,1.026693e-01,1.187055e-01,-1.189469e-01,-1.568227e+00,-1.826124e-01,1.170254e-01,3.459824e-01,2.729854e-02,3.908597e-02,-4.297065e-01,-3.745604e-02,-4.538335e-01,5.519763e-01,5.148324e-01,-1.813815e-01,-2.743449e-01,-7.072673e-01,-3.872544e-01,2.699434e-01,1.850372e-01,6.340320e-01,-2.032691e+00,5.012544e-01,1.974304e-01,2.488412e-04,1.203801e-01,-1.443608e-03,-3.001474e-01,-4.826276e-02,-1.680965e-01,-8.028807e-01,6.512573e-02,-2.712555e-01,-8.365542e-02,-1.003378e-02,-3.078454e-03,
3.087833e-02,-3.272575e-02,3.060523e-02,9.576062e-03,-4.418947e-02,5.823893e-03,-5.050130e-05,-5.554875e-02,1.328736e-02,-4.098372e-04,-2.918588e-02,3.303717e-03,3.751953e-02,-4.027037e-02,-6.914185e-03,-4.131820e-02,-1.962865e-03,2.833717e-02,1.189825e-02,-4.267300e-02,-3.280215e-02,-1.280600e-02,2.569598e-02,-1.301633e-02,3.519245e-02,-4.259009e-02,-4.037526e-02,1.036947e-02,2.709783e-03,-5.585755e-02,-1.221522e-02,-1.885977e-02,1.913792e-02,-3.877001e-02,-4.538872e-02,-1.209850e-02,-2.487046e-02,3.758231e-02,-3.621189e-02,-3.593312e-02,5.570554e-03,-5.674629e-02,5.192598e-03,3.544647e-02,-4.552979e-02,
3.927180e-01,8.509418e-02,1.778374e-01,-4.520300e-01,4.700092e-01,2.520654e-01,-2.038840e-01,-1.693612e-01,1.458367e-01,3.322028e-01,-7.235863e-01,-4.295515e-03,-3.894840e+00,1.509475e-01,-1.218378e-03,3.922909e-01,-4.273746e-01,3.409874e-01,8.521249e-02,-3.722949e-02,-7.672901e-02,-5.183054e-01,1.646896e-01,-1.489859e-01,-2.745452e-01,-1.314157e-01,-5.610425e-01,-2.405799e-01,2.189236e-01,4.103721e-01,1.713615e-01,-6.087055e-02,1.365778e-01,2.636224e-02,2.885345e-01,4.985109e-02,1.249612e-01,5.753636e-01,1.114029e-02,-3.561939e+00,-7.858691e-01,-4.610777e-01,-2.362602e-01,-2.750586e-02,2.551919e-01,
1.843337e-02,-2.656653e-02,-5.250300e-02,3.650453e-03,-2.252719e-02,1.796162e-02,-4.090711e-02,2.966686e-03,-4.623175e-02,-3.570914e-02,-1.984156e-02,-9.457987e-03,-3.433615e-02,-1.581415e-03,3.621201e-03,-5.696752e-02,-4.981908e-02,-4.769477e-02,-1.326666e-02,-1.112175e-03,4.276966e-02,1.669807e-03,-8.151954e-04,-1.974376e-02,-5.628465e-02,-4.653574e-02,-2.292117e-02,-4.806701e-02,-4.854657e-02,3.938155e-02,3.116572e-02,4.243800e-02,-8.115607e-03,-3.267176e-02,4.015563e-02,-5.528979e-02,-4.310110e-02,4.226459e-02,7.195391e-03,2.026130e-02,-4.369218e-02,1.735617e-02,-1.897982e-02,-2.477343e-02,5.326646e-03,
8.762683e-02,3.899592e-02,6.122065e-02,4.196301e-01,4.728110e-01,-4.193803e-01,-1.204679e+00,1.236958e-01,-5.872914e-02,-4.572575e-01,8.153867e-01,-1.480593e-01,4.579246e-02,-1.173395e-01,2.501403e-01,4.035133e-01,-9.007796e-02,4.255815e-02,1.840863e-01,-3.560110e-02,6.004019e-02,2.456397e-01,3.202666e-01,3.117657e-03,3.401172e-01,-2.652103e-01,-2.288230e-01,-3.366676e-02,-3.876485e-01,-2.661785e-01,1.555330e+00,4.830088e-02,8.430681e-02,2.420540e-01,-4.486673e-01,2.686497e-01,2.179275e-01,-3.234605e-01,8.437064e-02,1.496371e-01,2.960992e-01,7.683979e-01,1.084152e-01,1.553992e-02,-2.267058e-01,
-1.155926e-02,-5.345245e-02,-2.404779e-01,-1.458068e-01,2.049195e-01,-5.667824e-01,-1.071875e-01,6.958129e-01,4.780130e-01,4.333002e-01,3.230250e-01,-6.811535e-02,-2.828570e+00,-3.962100e-01,1.243565e-01,-2.201804e-01,1.183703e+00,-7.344238e-01,4.030924e-01,2.670723e-02,-3.415463e-01,2.954707e-02,-1.064715e-01,-6.467933e-01,-9.246358e-02,3.029552e-01,-3.145300e-01,1.995580e-01,3.007345e-01,-3.659195e-01,-3.604956e-01,3.641067e-01,-5.137340e-02,-7.253583e-02,6.122850e-01,-3.821634e-01,8.579662e-02,2.083724e-01,-1.887997e-01,-1.485945e+00,-2.510428e-01,-9.754892e-02,5.003619e-01,3.674360e-02,3.535750e-01,
-4.504708e-02,-5.437180e-02,-1.346060e-02,9.117165e-03,-2.444425e-03,-2.087519e-02,-3.310990e-03,2.331357e-02,-6.242106e-02,-2.588142e-02,-1.029848e-02,1.435867e-03,4.145091e-02,-5.532257e-02,-4.011416e-02,6.134821e-03,-7.394855e-02,-4.181362e-02,-1.654900e-02,4.640365e-03,1.784142e-02,-2.399907e-03,-4.985560e-02,1.643179e-02,-5.316071e-02,-3.465449e-02,-5.587417e-03,-1.269729e-03,-6.240404e-04,-4.467009e-02,8.723325e-03,2.278969e-03,1.499461e-02,-2.004849e-02,1.290848e-02,-3.679899e-03,2.972514e-02,-1.470810e-02,1.334431e-02,2.408492e-02,-3.934909e-02,-2.770400e-02,-1.665451e-02,-3.548955e-02,-5.213311e-02,
-1.261263e+00,-3.331748e-02,1.970448e-02,-1.077377e-01,-4.922272e-02,-2.806219e-02,-8.925478e-02,4.865927e-02,2.161934e-01,2.640045e-01,7.809049e-02,-4.370646e+00,-3.381444e+00,9.628918e-02,9.771615e-02,1.304910e-01,1.464358e-01,6.163451e-03,5.546173e-02,-4.074304e-02,1.001453e-01,-6.665119e-02,-1.540603e-02,-4.485560e-02,1.470426e-01,-2.241085e-01,8.944754e-02,9.669294e-02,-3.247194e-01,-4.963322e-02,-3.775843e-01,4.280412e-01,6.778327e-02,2.722653e-01,-1.924723e-01,-1.657181e-01,5.981728e-01,2.001229e-01,2.730676e-01,-3.629428e+00,1.051206e-01,6.423631e-02,-7.002149e-01,-3.742356e-02,-6.804354e-02,
-2.232291e-01,1.036401e-01,3.777885e-01,1.852537e-01,-1.886357e-01,-4.303034e-02,1.816138e-01,1.841323e-01,-3.387566e-01,5.526911e-02,-4.671070e-01,-6.798282e+00,3.206271e-01,-1.558697e-02,1.115165e-01,4.220607e-02,-3.594125e-01,1.327038e-01,-6.566082e-01,-3.022798e-02,-3.891430e-01,4.365941e-01,-3.870117e-01,-2.308374e-01,-1.113384e-01,-3.993773e-01,1.880150e-01,-2.535505e-02,4.635726e-01,-3.912030e-01,5.156955e-01,-4.832079e-01,-1.737871e-01,-3.117225e-01,4.549856e-01,3.537403e-02,1.084819e-01,-1.423603e-02,-6.610579e-02,-2.963426e-01,-6.230302e-01,4.801120e-01,-1.282122e-01,-3.752144e-03,1.686248e-01,
-3.248988e-01,-1.422031e-03,-4.245194e-01,-2.048878e-01,-1.979617e-01,2.131583e-01,2.527529e-02,1.938189e-01,-1.146796e-01,-4.212396e-01,-4.236243e-01,-1.044827e-01,2.851223e-02,-7.799687e-01,-1.313037e-01,-6.515175e-02,4.576827e-01,-2.491105e-01,-2.910935e-01,1.834441e-02,-1.132059e-01,8.360980e-01,6.687995e-01,5.920220e-01,1.975518e-01,2.828953e-01,2.649883e-01,6.164854e-02,4.901851e-01,7.368459e-01,-1.005784e+01,1.425112e-01,8.733120e-02,-5.414217e-01,8.261638e-02,6.422797e-02,2.492751e-01,2.396888e-02,2.066937e-01,5.136590e-02,5.432525e-01,-1.348546e-02,-4.261957e-01,-8.995126e-04,1.962275e-01,
-2.436187e-02,1.202232e-01,6.387414e-02,-5.730953e-01,-5.161479e-02,-2.243104e-01,1.614799e-01,-4.201405e-02,1.487875e-01,3.105645e-01,-3.835167e-01,3.618913e-02,-3.813328e+00,-9.873658e-02,1.412464e-02,-2.796648e-01,-2.058935e-01,8.579647e-02,2.358808e-01,-3.021999e-02,7.710232e-02,-8.391367e-02,2.664787e-01,-3.829280e-01,-9.022365e-02,2.890989e-01,4.402886e-02,-2.842346e-02,-5.014371e-01,-1.176168e-03,9.141062e-01,-8.823875e-01,6.697949e-02,-3.015750e-01,8.353222e-02,1.171377e-01,5.772080e-02,4.032853e-01,2.197161e-01,-3.571667e+00,5.564991e-01,-3.081161e-01,-4.286878e-01,-3.213746e-02,2.277044e-01,
-2.520464e-02,
-5.740654e-03,
-3.990779e-02,
2.027836e-01,
-1.039037e-01,
-2.889020e-02,
4.394730e-01,
-2.443687e-02,
2.588798e-01,
-2.263753e-02,
-1.311400e-02,
2.755231e-01,
-3.715211e-02,
-3.923677e-01,
7.163348e-02,
-1.658705e-02,
1.409245e-01,
1.269764e-01,
-7.086045e-02,
3.651859e-02,
5.684472e-02,
-1.316626e-02,
3.497705e-02,
3.923180e-01,
-2.463923e-02,
2.786091e-01,
-1.827028e-01,
-2.328506e-02,
4.958038e-02,
-2.275162e-01,
4.142585e-01,
4.596747e-01,
-2.427340e-02,
1.274426e-01,
1.775757e-01,
-1.419481e-02,
1.115730e-01,
-1.560047e-02,
-4.550666e-02,
1.791304e-01,
-2.235635e-02,
5.615776e-03,
3.563227e-01,
-1.573790e-01,
2.614886e-02,
2.992555e-02,-3.569424e-02,7.712523e-01,1.254287e-01,-1.967215e-01,-3.052403e-02,-4.669596e-02,8.813770e-03,2.139753e-01,-2.005030e-02,-2.306127e-02,1.309793e-01,1.323569e-01,1.922204e-01,1.094347e-02,-3.970845e-02,2.869401e-01,-3.615356e-02,-1.960101e-01,1.973104e-01,-4.779349e-02,1.902792e-02,4.760632e-01,-8.370270e-02,-2.618124e-01,3.472735e-01,-6.639640e-01,-2.619093e-02,-2.758206e-01,1.237799e-01,1.238169e-02,-5.076062e-01,1.371951e-02,-6.303333e-01,4.007470e-01,-4.129353e-02,8.703860e-01,3.338523e-03,6.185699e-02,8.909544e-01,-9.284319e-03,3.246110e-01,1.159036e-01,1.367359e-01,-1.374420e-01,
-2.167798e-02,-4.252989e-03,4.183899e-01,-1.993583e-01,-5.662053e-02,-1.608866e-02,-3.885011e-01,1.969298e-02,3.687204e-01,9.715879e-03,1.934420e-02,9.892192e-03,1.710027e-01,1.538294e-01,4.949313e-01,-4.451402e-02,1.368297e-02,3.138741e-01,5.719648e-01,-1.282070e-01,-3.233369e-01,-3.000226e-02,4.874493e-01,-9.964904e-02,-2.273648e-01,3.429430e-01,1.553156e-02,2.400584e-02,-1.591900e-01,5.345884e-02,-6.060904e-01,-1.899968e+00,-2.771116e-02,-6.887200e-02,-2.175418e-02,1.197293e-02,-1.160967e-01,5.249233e-02,-1.754642e-02,-1.854029e-01,-3.866459e-02,-2.945364e-01,-2.008928e+00,4.541690e-01,-8.502744e-02,
-2.208685e-02,-3.077360e-02,-4.526187e-01,2.863593e-01,-4.872224e-02,2.544465e-02,2.866205e-01,-4.462281e-03,-1.547796e+00,2.776882e-02,5.118683e-03,-2.755838e-02,1.132173e-01,-5.652903e-01,2.720098e-01,2.862484e-02,2.556890e-02,-1.493566e+00,-5.335537e-01,-3.796679e-01,2.456559e-01,-6.043625e-02,-3.164629e-01,-2.504418e-02,3.733663e-01,-2.299749e-01,-2.089026e-01,3.584231e-02,-5.275533e-01,-2.018598e-01,-3.573955e-01,2.388155e-01,-7.459679e-03,5.359571e-01,8.382661e-02,-2.254355e-03,-1.805464e-01,3.611618e-02,1.795992e-01,-3.891832e-02,6.039738e-02,2.078786e-01,-2.010408e-01,3.338501e-01,2.045605e-01,
-6.627310e-03,-1.411888e-02,-3.903930e-02,4.807073e-02,4.941055e-01,-1.661618e-03,-3.301233e-01,-4.615626e-02,-3.636354e-01,7.937694e-03,-2.539643e-02,3.316052e-01,3.409837e-01,-8.705045e-02,3.213993e-01,4.008484e-03,5.080171e-01,-3.880176e-01,2.283511e-01,2.054484e-02,3.631167e-01,3.998658e-02,6.913293e-01,-1.355619e-01,4.818246e-01,-8.397005e-01,5.567670e-01,9.553075e-04,-1.439753e+00,1.838735e-01,-4.195952e-01,2.672053e-01,-7.051522e-03,1.396068e-01,4.528892e-01,-5.090916e-02,2.099418e-01,3.750272e-02,-1.506750e-01,3.380278e-01,-2.394496e-02,9.775778e-01,-7.150040e-01,-3.784434e-02,4.369546e-01,
-2.037512e-02,-2.704864e-02,-5.755864e-02,1.551203e-02,9.002608e-03,-3.395797e-02,-4.036869e-03,3.774709e-02,-1.195604e-02,-3.814743e-02,1.077727e-02,-5.055546e-02,-5.730512e-02,-2.321381e-02,-2.648582e-02,-2.153814e-02,-2.355621e-03,1.828392e-02,-1.145198e-02,-1.692924e-03,-5.313306e-02,-4.730564e-02,-3.991387e-02,1.749901e-02,-2.814234e-02,-2.046708e-02,-1.785226e-02,-2.116442e-02,-3.343922e-02,3.980292e-02,-4.054205e-02,-4.441040e-02,-2.142625e-02,-1.184210e-02,2.622173e-03,-4.996571e-02,5.780547e-03,1.754311e-02,3.262645e-02,-3.237826e-02,-3.919556e-02,-3.727396e-02,3.236385e-02,-3.609181e-03,-8.914353e-04,
-1.538097e-02,-7.709192e-03,-6.048638e-02,2.353662e-02,9.732950e-02,-2.531538e-02,-6.577883e+00,-2.476086e-02,-1.917810e-02,-1.328014e-02,-4.769058e-02,-2.297849e-02,8.264869e-03,2.389891e-03,-8.885974e-02,4.252962e-02,-2.386829e-02,-4.366741e-02,-8.555360e-02,8.024952e-02,8.755785e-02,1.294196e-02,-7.094754e-02,1.556728e-01,2.271161e-02,-6.297740e-02,5.435015e-02,1.642985e-02,2.328167e-02,1.863152e-02,-5.637538e+00,2.209905e-01,1.363163e-02,-1.974592e-03,-4.188028e-02,3.060215e-02,5.083354e-02,-1.971427e-02,-4.913627e-02,-8.671738e-03,-2.125137e-02,-3.279724e+00,7.972005e-01,-6.701618e-02,8.760039e-02,
-4.068999e-03,1.963168e-02,6.529117e-01,9.348804e-02,-1.626548e-01,-1.037885e-02,1.819763e-01,-3.689817e-02,-7.263520e-02,-2.813876e-02,2.158289e-02,2.408953e-01,-7.653511e-02,-3.997334e-01,6.869394e-02,2.556759e-02,3.218445e-01,9.385049e-02,-3.065192e-01,-2.581229e-02,1.625336e-01,-3.193218e-02,-4.800639e-01,1.085503e+00,2.765196e-02,-8.754598e-01,-8.262537e-02,-2.139871e-02,-8.408371e-01,-2.729104e-02,3.179362e-01,-6.775640e-01,-4.044249e-02,-2.046753e-01,-1.266880e-01,-3.167146e-02,5.412331e-01,1.730034e-02,-1.592372e-01,-5.221880e-01,-3.847087e-02,1.003754e-01,-1.539326e-01,-3.718420e-01,1.188441e-01,
1.345274e-02,-9.745469e-03,3.162788e-02,-6.396412e-01,2.164581e-02,3.004354e-02,2.685814e-01,-8.185118e-03,-1.873013e+00,-1.071206e-02,-3.247324e-02,2.110305e-01,1.281288e-01,-6.277016e-01,1.132424e-01,4.122185e-02,-2.172673e-01,-9.310679e-01,9.371012e-02,-2.224959e-01,9.278777e-02,7.775974e-03,-1.408775e-01,-1.359764e-01,-7.475994e-03,-3.040367e-01,-3.866216e-01,4.906635e-03,-5.805326e-01,9.551710e-02,-5.137831e-03,4.613211e-01,4.979453e-03,6.212274e-01,1.607003e-02,5.443058e-03,-3.908883e-01,3.136193e-02,6.082695e-02,-1.939930e-01,-4.363050e-02,3.360287e-02,-1.837739e-01,-3.892705e-01,-1.970013e-01,
1.751257e-02,-3.257025e-02,-2.629677e-03,1.625552e-02,-4.472726e-02,3.915816e-03,-4.035424e-02,-2.593380e-02,-2.014286e-02,1.854748e-02,1.913281e-02,-5.378269e-02,-7.970682e-04,-4.160766e-02,-3.104445e-02,3.975281e-02,-5.131376e-02,3.770634e-02,-6.634860e-02,-1.057984e-02,1.669141e-02,-1.532895e-03,1.664244e-02,-1.501309e-02,1.087537e-02,-3.247115e-02,-3.856206e-02,2.424592e-02,-4.064268e-02,1.251777e-02,-2.235544e-02,-5.101245e-03,-7.959335e-04,-1.840166e-02,9.206693e-03,-1.316789e-02,-6.054447e-02,7.761403e-03,-7.262454e-03,2.318951e-02,1.974252e-02,1.238164e-02,-2.954081e-02,1.686104e-02,-1.551522e-02,
2.247922e-02,-1.480613e-02,3.236986e-01,2.074850e-01,4.591156e-01,-9.276678e-03,1.867878e-01,-6.065840e-02,-7.048258e-02,-2.697906e-02,-4.224326e-02,-2.029384e-01,5.913450e-01,5.948960e-02,6.440721e-01,2.838367e-02,1.091181e-01,-2.757054e-01,-6.095476e-02,1.755545e-01,2.685517e-01,1.098615e-02,-2.519315e-01,3.141310e-02,-1.078830e-01,-9.269991e-01,-1.472595e-01,6.857645e-03,-9.706800e-01,-4.709236e-01,2.392590e-02,-1.098093e+00,-4.418220e-02,9.326111e-02,2.896958e-01,-3.172120e-03,-1.116170e-02,-2.937572e-02,-2.278413e-01,-2.400080e-01,5.344781e-02,2.692899e-01,-2.279827e-01,4.525380e-01,3.263001e-01,
1.997187e-03,-4.402133e-03,-6.693458e-02,2.445356e-01,4.301285e-01,5.383364e-02,-2.106347e-01,1.241597e-02,-1.944565e-01,2.464923e-04,-6.808601e-03,-7.296170e-02,-2.018536e-01,9.607074e-02,-2.340628e-01,-3.928315e-02,3.324100e-02,1.698857e-01,-1.197029e-01,2.631411e-01,1.076706e-01,-2.759546e-02,7.492081e-01,3.183907e-01,1.331660e-01,4.231802e-01,-2.787169e-01,5.434679e-02,-2.666290e-01,8.744140e-03,-4.440353e-01,-8.647240e-01,-4.893624e-03,-5.826952e-02,-1.928992e-01,-1.491830e-02,-1.582889e-01,-5.469535e-02,-1.981100e-01,5.360958e-02,5.110565e-02,-1.314297e-01,1.752572e+00,6.101137e-01,4.684866e-01,
1.914812e-03,-3.226255e-02,-3.432437e-02,6.209945e-02,3.289475e-01,4.426870e-02,1.244471e-01,3.119326e-02,5.125112e-03,-4.276226e-02,4.802095e-02,-4.154128e-02,1.359266e-01,3.855416e-01,-3.293817e-01,4.152788e-02,-3.119501e-02,2.140224e-01,-1.168896e-01,-4.336404e-01,4.250193e-01,-7.900669e-03,2.144949e-02,1.825052e-01,-6.308520e-01,-7.607441e-02,-1.078182e-01,-1.584770e-02,-4.732260e-01,-1.521085e+00,-1.247407e-01,-2.730337e-01,-2.018848e-02,-8.990126e-02,-2.715735e-01,3.113838e-02,3.087368e-01,4.959128e-02,-9.327266e-01,-1.182531e+00,-2.626439e-02,5.591772e-02,-8.441411e-01,4.261150e-01,3.021793e-01,
-1.319343e-02,-8.416507e-04,-2.118906e-01,3.861503e-01,-1.874049e-01,3.048677e-02,2.088226e-01,1.146985e-02,-4.801063e-03,1.152217e-02,3.358261e-03,-6.690125e-03,-1.389302e-02,1.748905e-01,5.648877e-01,-4.805566e-02,4.603520e-01,-1.262615e-01,-4.064921e-01,1.539940e-01,6.352631e-01,5.229982e-04,5.762146e-01,2.193354e-01,-2.313320e-01,1.172634e-01,-1.033001e-01,1.328913e-02,3.585769e-01,-5.836396e-02,-2.550708e-01,-5.588484e-01,-8.131397e-03,-1.906374e-01,3.138652e-01,-3.311057e-02,-8.948403e-03,-3.356283e-02,-5.431438e-02,6.741448e-02,4.870540e-02,6.932151e-02,5.677527e-01,-3.518636e-01,2.338003e-01,
-4.621989e-02,2.707496e-02,-3.841418e-01,-3.594256e-01,1.528753e-01,4.681083e-02,3.283072e-02,-3.380477e-02,1.500265e-01,-2.044615e-02,-1.043903e-02,-7.163244e-02,-3.590062e-02,1.788832e-02,-3.433123e-01,-7.763560e-04,-3.073994e-01,-1.583366e-01,3.741483e-01,1.067535e-01,1.820182e-01,-1.787082e-02,5.678878e-02,-3.892865e-01,9.016505e-02,-3.248183e-01,-5.308931e-01,-3.771561e-03,-1.976821e-01,-1.460198e-01,-3.090139e-02,-2.234291e-01,-1.828697e-02,-2.201985e-03,-4.581645e-02,-1.064620e-02,-1.819694e-01,2.996120e-02,-3.203464e-01,-4.346899e-01,-4.847711e-02,-9.821153e-02,5.040633e-01,2.775143e-01,1.625064e-01,
-2.835224e-02,-3.659397e-02,1.769508e-01,4.006820e-01,2.747454e-01,-1.005357e-02,-2.540668e-01,-4.815162e-02,3.490145e-01,5.162034e-03,1.584314e-02,3.798295e-01,-5.551168e-01,2.694690e-01,-1.677683e-01,-5.088085e-03,4.711278e-01,1.504701e-01,6.834736e-02,-8.554608e-02,2.680547e-01,-4.646712e-02,-1.394792e-01,3.253230e-02,-1.042778e-02,-3.360303e-02,-7.158165e-01,-5.564405e-03,2.543958e-02,6.261881e-02,-9.329101e-02,-3.002345e-01,-1.187865e-02,-1.888124e-01,3.181042e-02,3.279779e-02,-1.936763e-01,-8.027350e-04,-3.047936e-01,-2.372282e-01,-4.851225e-02,6.515560e-02,-8.817557e-02,2.790591e-02,3.642284e-01,
3.109660e-02,-3.367071e-02,6.495792e-02,-2.585798e-01,2.321752e-02,-1.506301e-02,1.607091e-01,-1.941067e-02,5.845349e-01,1.039987e-02,-2.141588e-02,-1.399656e-01,2.984704e-01,1.060908e-01,-2.087255e-01,8.329026e-03,7.063401e-03,-4.197958e-02,-7.265496e-02,-8.759128e-04,-6.458116e-02,-2.489681e-03,-1.451071e-01,4.673416e-01,-4.045963e-01,-2.191460e-01,-7.030166e-03,1.394210e-02,4.951311e-01,-1.227714e-01,1.557286e-02,6.990273e-02,3.291050e-03,-1.682907e-02,-3.764528e-01,-1.700234e-02,1.748259e-01,-4.055674e-02,5.799668e-02,2.040007e-02,1.381169e-03,1.026673e+00,5.515234e-01,-7.683393e-02,2.806058e-01,
4.072393e-02,1.717007e-02,-5.861378e-02,-5.319345e-01,1.738429e-01,9.815512e-03,1.395013e-01,-1.814571e-02,6.307861e-02,-8.377352e-04,-4.820928e-02,-3.484963e-02,-3.247319e-01,-5.673906e-02,3.744824e-01,4.516769e-02,1.553403e-01,-1.178213e-01,-5.040775e-02,-2.128131e-01,-3.136372e-01,-2.984471e-02,3.723759e-01,2.113741e-01,4.293745e-01,2.340553e-01,-7.047445e-01,7.580634e-02,1.159913e-01,-2.363103e-02,1.645618e-01,-8.780558e-02,2.780305e-02,2.483606e-02,1.463749e-01,3.220579e-02,-3.850557e-02,3.972845e-02,-1.562704e-01,4.217387e-01,-1.096378e-03,-2.555850e-01,1.972905e-01,3.935131e-01,5.170600e-01,
-1.026221e-02,3.549154e-02,3.327599e-01,6.630002e-01,-1.648563e-01,5.897090e-02,-1.563979e-01,-8.695996e-03,4.293234e-01,3.388078e-03,4.859440e-02,-5.637735e-01,-1.301800e-02,2.006877e-01,-7.031406e-02,4.415224e-02,-5.198145e-01,1.145085e-01,3.404678e-01,-2.045248e-01,-1.124188e-01,-2.994686e-02,-6.661449e-02,2.976968e-01,1.095177e-01,2.973913e-02,-9.286186e-01,-3.440387e-02,8.161151e-02,-1.523282e-01,-4.386277e-02,-1.677129e-01,-3.581390e-02,-1.993451e-01,-1.892352e-01,1.261216e-02,3.309427e-01,-3.815056e-03,1.874921e-01,-1.698572e-01,-2.140722e-02,-1.321826e-01,-1.153354e-02,-2.237868e-01,-1.248059e-01,
4.773395e-02,-3.446089e-02,-9.389302e-02,1.745160e-01,-2.857874e-02,3.512316e-02,-7.653680e-02,-5.393493e-02,1.041507e-01,1.219528e-03,-1.986954e-02,-5.943917e-02,-1.708280e-01,1.743924e-01,6.994241e-02,2.556112e-02,2.185819e-01,5.414346e-01,5.225468e-01,7.854305e-02,-1.344943e-01,3.294997e-03,5.892044e-01,-1.361324e-01,2.309541e-01,1.740100e-01,1.520030e-01,-1.736005e-02,1.125825e-01,1.983840e-01,3.553685e-01,-2.291167e-01,-2.412054e-02,-1.707938e-01,-1.690654e-01,2.242403e-02,1.641246e-01,-2.824215e-03,-6.074797e-02,8.736810e-02,-1.062597e-02,-8.404752e-02,2.698800e-01,1.992953e-01,-2.714098e-01,
-1.644522e-02,5.920012e-03,5.969041e-02,-5.546889e-01,-3.153750e-01,-2.935413e-02,-6.641622e-02,-3.523308e-02,3.918408e-01,-1.353192e-02,-5.365321e-03,3.759212e-01,1.603045e-01,4.133807e-01,2.317030e-01,-5.345894e-02,2.065579e-01,2.592897e-01,2.739283e-02,7.594727e-02,5.840092e-01,4.618707e-02,2.560000e-01,1.152497e-01,-5.588097e-02,-4.482351e-01,-1.192237e-01,-3.917389e-02,1.518162e-01,-1.837231e-01,-9.039076e-02,-1.709304e-01,-3.111776e-02,-2.690197e-01,3.534568e-01,4.151356e-02,2.267236e-01,4.307962e-02,-6.946200e-01,3.059637e-01,3.815166e-04,-6.286490e-02,6.643164e-02,-1.837931e-02,-2.037917e-01,
-2.019068e-02,1.241350e-02,-1.185022e-01,-5.839702e-02,1.165157e-02,-5.200867e-02,1.330049e-01,-7.037437e-03,-2.292717e+00,-4.962662e-02,-3.147288e-02,-3.059126e-02,1.187012e-01,-6.733823e-01,1.351833e-01,6.940085e-03,-4.104277e-01,-7.899424e-01,-9.089342e-02,-2.806634e-02,-2.527982e-02,-2.263741e-02,-1.029072e-01,8.834478e-03,-1.248227e-02,-1.511317e-01,-1.639138e-01,-3.744094e-02,-1.712613e-01,-4.646467e-01,-1.131153e-01,3.514512e-01,-1.231133e-02,4.599043e-01,8.804583e-02,3.788150e-02,-3.392200e-02,3.436827e-02,-1.661030e-02,1.087602e-02,2.904039e-02,8.618913e-02,-6.785509e-02,1.420570e-01,-2.333165e-01,
-3.772234e-02,1.049147e-02,-3.177605e-02,-6.355964e-02,-3.105517e-03,4.566479e-02,-1.517765e-02,2.982138e-03,-2.826197e-02,-3.849225e-02,4.011596e-02,-5.395946e-02,-6.678955e-02,3.441202e-02,-5.261783e-02,-4.369123e-02,2.035995e-02,-1.727941e-02,-9.918107e-03,-2.207727e-02,3.021088e-02,-7.970906e-03,-2.177159e-02,-7.651987e-05,-3.876142e-03,-4.055852e-02,2.940364e-02,1.068073e-02,-1.664542e-03,-5.492102e-02,1.627525e-02,1.907597e-02,3.986984e-03,-6.230935e-02,-4.196305e-02,2.202866e-02,-2.468443e-02,3.561251e-02,-1.866237e-02,-1.875172e-02,-2.228726e-02,-4.949477e-02,1.790716e-02,7.554789e-03,-4.588383e-02,
2.075624e-02,-3.303881e-02,2.920744e-01,1.518491e-01,8.710703e-02,3.087944e-02,-1.086753e-01,5.128121e-02,-1.602834e+00,8.959562e-02,-3.362904e-02,1.808256e-02,-7.989849e-02,-2.921764e-01,-4.207743e-01,3.970025e-02,1.946663e-01,-2.656510e-01,1.077957e-01,-7.852998e-01,-2.636450e-01,-2.051190e-02,2.099956e-01,-2.073998e-02,-7.843635e-02,-2.649098e-02,2.260732e-01,-4.054188e-03,4.656120e-01,-2.721746e-01,5.621330e-02,2.015791e-01,-1.767772e-02,4.216500e-01,-1.728442e-01,1.583550e-02,1.223939e-01,5.953681e-03,1.417955e-01,2.612170e-01,-2.922408e-02,-6.073916e-01,-7.150053e-01,-1.469552e-01,-1.729382e-02,
3.488114e-02,-1.787665e-02,2.045664e-02,1.271062e-02,-2.907682e-02,-1.251298e-02,-3.846053e-02,-4.273974e-02,1.070449e-02,1.103237e-02,9.448997e-03,-1.629419e-02,-1.202894e-02,3.399489e-02,-3.749108e-02,2.779329e-02,2.563222e-02,1.215402e-02,-5.415750e-02,-3.233001e-02,4.704844e-02,-3.073952e-02,-1.999572e-03,5.642033e-03,3.379301e-02,-4.193687e-02,-3.017617e-02,4.827745e-02,-4.236776e-02,-4.206135e-02,-1.844946e-02,-3.870313e-02,1.410212e-02,-2.969661e-02,-5.608903e-03,4.929204e-02,-2.345308e-02,4.860669e-02,-5.147386e-02,-2.450183e-02,-4.877163e-02,-1.405293e-02,4.255815e-02,4.424104e-03,-3.218466e-02,
4.239540e-02,8.855616e-03,-3.744570e-01,1.108328e-01,3.455022e-01,4.346684e-02,-5.153292e-02,1.324519e-02,7.042214e-02,4.808582e-02,-6.193545e-03,-1.042168e-01,4.559346e-01,1.561079e-01,-5.746441e-02,2.392756e-02,-1.884575e-01,-1.287804e-04,-5.636878e-02,5.974635e-01,6.149665e-01,-5.538386e-02,1.427941e+00,1.302162e-01,-3.095384e-02,1.390964e+00,5.038924e-01,-3.679595e-02,9.511370e-02,2.359738e-01,-5.569977e-01,1.882453e-01,-2.205000e-03,1.320157e-01,1.689762e-01,-4.587864e-02,2.822696e-01,2.314390e-02,-1.840820e-01,-4.951569e-01,6.288514e-02,-5.521250e-01,2.122588e-02,1.962977e-01,5.144298e-01,
1.999017e-02,6.326195e-02,1.416023e-01,7.007630e-01,-8.137819e-01,-1.262442e-02,7.872112e-01,-8.884248e-03,-1.974273e-01,-8.366155e-02,1.700395e-02,-6.441322e-02,1.697562e-01,5.289467e-02,-2.318794e-02,2.754678e-02,2.732074e-01,3.007963e-01,-7.211807e-01,1.586305e-01,3.242237e-01,-3.361026e-02,3.508959e-01,4.095508e-02,-3.281708e-02,5.298657e-01,-9.313112e-01,-4.543569e-02,4.105417e-01,3.978753e-01,-1.483755e-01,-5.030118e-01,3.117590e-02,-8.864085e-02,4.615736e-01,4.798162e-02,9.393936e-01,6.899741e-03,-9.367572e-02,8.885407e-01,-2.505481e-02,3.489681e-01,2.475181e-01,6.406980e-02,-1.104087e-01,
1.182546e-03,8.443257e-03,3.167112e-01,-3.976918e-01,-3.576531e-01,1.579449e-03,-6.556651e-03,4.512118e-03,-2.320454e-02,-6.318875e-02,3.698981e-02,3.700422e-01,9.006985e-02,-5.321345e-02,2.688327e-01,-7.576155e-03,6.175883e-02,-1.622051e-01,-4.331899e-02,1.494969e-01,7.041366e-01,-1.555095e-03,-4.527389e-02,5.539413e-02,-4.877550e-03,3.217001e-01,-1.219869e-01,1.415856e-02,1.118447e-01,1.321896e-01,-4.812614e-02,2.466793e-01,3.019164e-02,3.468227e-01,4.206164e-02,1.469633e-02,1.118905e-01,2.482070e-02,-5.574821e-01,-1.289176e-01,-7.590853e-03,8.120811e-02,3.902588e-01,3.877169e-01,-6.656891e-01,
-1.823929e-02,9.152731e-03,7.109147e-02,1.689288e-01,7.139809e-02,1.079084e-02,9.183352e-02,-2.715491e-03,-1.241224e-01,4.786302e-03,-9.891163e-03,6.779929e-02,-2.536207e-01,-2.074383e-01,5.147750e-01,4.719192e-03,9.637459e-02,-1.808013e-01,-1.283694e-01,-1.565941e-01,3.434736e-01,1.737462e-02,9.132522e-02,-1.811297e-01,-5.909251e-02,-5.097480e-01,-3.511910e-01,7.139090e-03,-4.403656e-01,-4.616958e-01,-3.504937e-02,-2.707088e-01,-2.139947e-02,2.467131e-01,2.034557e-01,1.066701e-02,2.211436e-01,-1.020046e-02,-9.164877e-02,1.331702e-02,-3.285822e-02,2.208639e-01,-3.628658e-01,6.342481e-01,-1.151249e-01,
-1.536836e-02,5.010428e-03,2.194339e-02,-1.574549e-02,1.169878e-03,-3.927196e-02,3.208863e-02,1.317786e-02,-3.607650e-03,4.514394e-03,3.212800e-02,-1.707351e-02,-5.381973e-02,6.926915e-03,3.267810e-02,-9.021807e-03,2.352253e-02,-4.306863e-02,-3.916298e-02,-6.326586e-03,-5.603067e-02,-4.045876e-03,3.632750e-02,1.721135e-02,-2.309019e-02,-4.227919e-02,-5.975526e-02,-4.744377e-02,4.331938e-02,-5.243367e-02,-1.215076e-02,-4.904955e-02,-4.348128e-02,-1.515046e-02,-2.891202e-02,-1.781432e-02,-4.163083e-02,3.824488e-02,-4.515564e-02,-1.884062e-02,-6.643584e-03,-1.452890e-02,4.294337e-02,-4.181601e-02,2.323403e-02,
4.258903e-02,-5.885786e-02,-3.000839e-01,3.962342e-01,3.924770e-01,2.051021e-02,4.348243e-02,-2.711889e-02,-7.563398e-01,5.008554e-02,-3.733711e-02,2.535373e-01,8.597720e-02,-5.986227e-01,1.489507e-01,-2.241387e-02,-1.901572e-01,-1.921048e-01,1.524957e-01,-2.330479e-02,-1.156670e-01,-8.142348e-03,-2.375160e-01,7.573382e-02,9.839632e-02,1.259913e-01,1.961363e-01,-2.413293e-02,9.987585e-02,3.246434e-01,1.296477e-01,4.981370e-01,-1.600108e-02,5.888935e-01,-1.307235e-01,-1.097600e-02,1.827158e-01,-2.942960e-02,2.407491e-01,2.140835e-01,4.477677e-02,1.553804e-01,-6.246224e-02,-6.549875e-02,2.792784e-01,
5.041507e-02,-1.074119e-02,4.866268e-01,-3.629015e-01,8.993567e-01,4.450925e-02,3.937376e-01,-3.175341e-02,1.688474e-01,-2.907684e-02,-3.383378e-02,-1.099658e-01,6.473743e-01,1.066158e-01,-7.740042e-02,3.551377e-02,-1.326407e-01,-1.590254e-01,3.127367e-01,-2.022832e-01,3.372898e-01,-3.144078e-02,-5.436015e-01,8.634136e-01,-3.397177e-01,5.638136e-02,9.069152e-01,-2.514979e-02,2.564851e-01,2.282467e-01,-4.104690e-03,-2.239513e-01,1.292241e-02,6.512937e-02,-1.212264e-01,3.341230e-02,4.727050e-01,6.795261e-03,-2.330371e-01,-7.993708e-02,8.049761e-02,2.034861e+00,4.488305e-01,-3.748313e-01,4.544037e-01,
-3.403358e-02,-2.589437e-03,-5.094774e-01,3.908040e-01,9.250678e-01,4.913298e-02,-1.350564e-01,-3.284928e-02,5.443245e-01,-8.564190e-03,-3.476068e-02,-3.741294e-01,-1.161430e+00,1.556071e-01,-1.243994e-01,-2.722979e-02,3.254834e-03,3.392655e-01,-2.503597e-01,7.935556e-01,-8.507313e-01,-3.095825e-02,1.949617e-01,1.778058e-01,-5.592568e-01,2.262644e-01,-2.866487e-01,-4.230710e-02,3.721056e-03,-1.037982e+00,1.002296e-01,-4.280757e-01,3.508804e-02,-2.938764e-01,5.621493e-01,-1.573630e-02,9.038842e-01,5.252164e-03,-2.055636e-01,-7.639311e-01,-2.117646e-02,-3.362812e-02,1.028274e+00,-2.553926e-01,-3.692847e-01,
1.890818e-02,-3.188232e-02,1.886761e-01,-6.550932e-01,1.257743e+00,-2.248482e-02,1.202335e-01,2.769104e-02,6.195949e-01,-3.482474e-02,-6.273418e-03,3.740996e-01,-2.240434e-01,5.197055e-02,-4.234582e-02,-4.155745e-02,-4.431384e-01,2.608527e-01,4.726763e-01,-4.843061e-01,7.444571e-02,6.188103e-03,1.704417e-01,2.648471e-01,3.074462e-01,-1.745834e-01,3.995349e-02,4.790255e-02,2.369000e-02,-8.628991e-01,5.589838e-02,1.857507e-01,4.051281e-02,-1.941407e-01,5.793668e-02,-2.167617e-03,-3.465882e-01,6.538268e-04,-1.019981e+00,-5.453716e-01,5.890598e-02,5.072320e-01,-5.093246e-01,-1.202046e-01,1.791110e-01,
-2.630451e-02,-7.146273e-04,1.752151e-03,-6.746211e-03,-1.270338e-02,-4.566946e-03,-5.207754e-02,4.339508e-02,4.650474e-04,4.701539e-02,-4.694792e-02,1.459276e-03,-1.846188e-02,-5.252659e-03,-4.704100e-02,4.933286e-02,-2.766764e-02,-3.432633e-02,-4.713129e-02,-3.953991e-02,2.370883e-02,2.224980e-02,1.997558e-02,-1.793030e-02,-2.755553e-02,1.466774e-02,-2.631306e-02,-6.813906e-03,-4.324283e-03,-3.297205e-02,-4.943755e-02,1.096635e-02,-1.274746e-02,-3.372334e-02,-2.233218e-02,-2.586070e-03,-1.090000e-02,-2.978106e-02,3.155215e-02,-4.292124e-02,-2.174690e-02,-1.185993e-02,-5.050293e-02,-5.625635e-02,-5.065328e-03,
-1.290664e-02,4.073840e-02,-4.064126e-01,-2.696010e-02,-5.745915e-02,-2.880232e-02,1.625386e-01,-1.473386e-02,-2.190216e+00,2.805489e-02,-2.072243e-02,3.264215e-02,-2.508097e-01,-2.554536e-01,-1.998532e-01,2.333652e-02,4.038985e-01,-4.061433e-01,3.900984e-01,2.824702e-01,-8.682568e-02,4.184907e-02,5.786014e-03,5.260478e-02,1.510249e-01,-1.650578e-02,2.170645e-01,-1.292731e-02,-1.260568e-01,2.265431e-02,7.847913e-02,3.998740e-01,1.573862e-02,5.517154e-01,-3.943426e-01,1.683196e-02,-1.517898e-01,2.378398e-02,-1.321844e-01,-1.869479e-01,3.527033e-02,-1.573734e-01,1.054742e-01,-1.068653e-02,3.253089e-01,
5.349120e-02,-4.892085e-02,7.892655e-02,-2.296641e-01,7.009966e-01,-5.303324e-02,9.504028e-02,-2.684691e-02,-4.798557e-01,-5.063329e-03,-3.628419e-02,-3.554227e-01,8.036108e-02,-4.850903e-02,-8.332685e-02,3.037092e-02,5.527856e-01,3.321677e-01,-8.925367e-02,-1.448172e-01,-2.626838e-01,4.575278e-02,4.017414e-01,-1.362049e-01,-2.320735e-01,-4.508907e-01,5.699666e-01,-4.372144e-02,-2.957823e-01,-2.832538e-01,-1.690376e-02,1.268185e-01,2.972718e-02,-1.220167e-02,-2.775359e-01,-4.236265e-02,9.041575e-02,-3.920482e-03,2.906652e-02,5.419303e-01,-2.906721e-02,4.575482e-02,-1.812788e-01,6.804604e-03,3.591710e-01,
-4.224179e-02,1.087814e-03,8.057414e-03,-3.132756e-02,2.151665e-03,-3.163506e-02,1.086986e-03,-1.051750e-02,-2.018557e-02,1.514513e-02,-2.013342e-02,7.839268e-04,-5.045961e-02,-3.135057e-02,-4.441612e-02,1.525113e-02,-1.748953e-03,-2.540939e-02,-2.023956e-02,-5.247585e-02,2.385095e-02,-1.403606e-02,2.758367e-03,-5.984403e-02,-2.317384e-02,-2.078612e-02,3.047960e-02,1.715610e-02,-5.964455e-04,-4.329179e-02,-5.415883e-02,1.290090e-02,3.118276e-02,-2.796370e-02,1.804834e-02,-4.251857e-02,-4.010192e-02,2.744971e-02,8.958356e-03,-5.429757e-02,2.273479e-03,-1.214677e-02,-3.048116e-02,-5.771426e-03,4.018173e-03,
-1.738813e-02,-2.113053e-02,3.940964e-01,1.531062e-01,-9.636071e-02,-1.777989e-02,1.047025e-01,-1.901626e-02,-8.309366e-02,-4.817564e-02,1.619262e-02,6.454250e-01,5.430125e-02,-4.879363e-01,2.985453e-01,-4.840481e-02,2.336497e-01,2.582220e-01,2.693653e-02,1.500041e-02,-1.344823e-01,4.227269e-02,6.102664e-02,8.980216e-02,9.599641e-02,-3.588291e-01,-5.404304e-01,-2.768608e-02,-1.535028e-02,4.103011e-01,-6.234441e-02,-5.916341e-01,3.096270e-02,-6.589038e-03,1.853513e-01,-2.434867e-02,-9.721494e-02,-3.236324e-03,-4.127900e-01,4.050179e-02,2.138998e-03,9.555171e-02,-2.716100e-01,5.095398e-02,-6.019491e-02,
2.297224e-03,1.477022e-02,2.563276e-02,-1.182480e-01,-1.957643e-01,-3.629921e-02,-7.667550e-03,2.451124e-02,6.036340e-03,4.337915e-02,-3.994475e-02,-3.006600e-02,1.760013e-01,-1.491672e-02,-2.207246e-01,-3.034970e-02,1.539347e-01,-2.408969e-01,8.123811e-02,-2.703780e-01,1.802709e-01,1.201304e-02,8.141018e-01,-7.607171e-01,-7.157341e-02,1.246506e+00,-6.785718e-02,4.147426e-02,4.059981e-01,-2.173478e-01,-9.332741e-02,9.321205e-02,1.688243e-02,2.764769e-01,3.019813e-01,-4.006551e-02,-1.043007e-02,-3.210017e-02,2.746977e-01,2.805528e-01,-2.993052e-02,-3.508344e-01,-2.957668e-01,-4.359556e-02,3.501379e-02,
-1.693104e-02,2.422145e-03,-3.802983e-01,-6.347035e-01,1.324471e-01,3.239058e-02,-8.011639e-01,-1.831555e-02,-9.498349e-03,1.220861e-02,1.257040e-02,4.683065e-04,1.101631e-01,-1.128329e-01,3.930244e-01,2.473885e-02,6.168038e-02,2.428614e-01,3.727445e-02,6.411797e-01,4.773311e-01,4.085581e-02,4.603843e-01,1.183056e-01,2.307720e-01,4.287038e-01,-1.528137e-01,-6.019158e-02,-2.685041e-01,1.585066e-01,1.145054e-01,1.689485e-02,5.543321e-02,2.016515e-01,-5.542451e-01,4.860820e-02,7.927384e-02,2.551173e-02,-2.577974e-01,5.001180e-01,3.227756e-02,6.962626e-02,3.959483e-01,-3.429409e-01,8.607722e-01,
-9.506510e-03,-2.058628e-02,-4.490646e-02,-4.805002e-02,2.706584e-02,-3.839012e-02,-4.092886e-02,2.588982e-02,-2.173831e-02,-1.359617e-02,3.680427e-02,-9.828079e-03,-3.382913e-02,1.425069e-03,8.289513e-03,-4.546027e-02,1.443141e-02,4.602907e-02,-3.686755e-03,-5.032175e-02,-4.893315e-02,-2.629483e-02,-2.845431e-03,7.116320e-03,1.718039e-02,1.238370e-02,1.837751e-02,-3.283634e-02,1.189238e-02,-2.526068e-02,-1.193770e-02,-1.589179e-02,-3.971085e-02,-3.262822e-02,-5.623037e-03,-7.523045e-03,-3.467190e-02,3.979493e-02,-3.189685e-03,2.195719e-02,-1.949660e-02,-4.782544e-02,4.541183e-02,-9.832480e-03,-5.987985e-02,
-3.332026e-02,-2.273163e-02,-8.688011e-02,2.862595e-02,5.092821e-01,-1.940519e-02,1.406289e-01,-9.218005e-03,-1.814011e-02,-3.515241e-02,1.977080e-02,-3.875898e-01,7.956536e-02,9.406474e-02,1.719230e-01,4.468121e-02,1.810448e-01,-3.072702e-01,2.577499e-01,3.655230e-01,-4.965202e-02,-1.150648e-02,1.160207e+00,-7.563036e-01,2.026449e-01,9.713445e-01,-4.845717e-01,3.375100e-02,-1.807530e-01,-2.002486e-01,-3.856404e-01,-9.836935e-02,-3.000258e-02,1.488649e-01,-3.706623e-01,-1.040688e-02,2.385234e-01,-7.152477e-03,4.481300e-02,2.868085e-01,3.346826e-03,8.484254e-01,4.519022e-01,1.549932e-01,8.075958e-01,
-2.446857e-02,4.332056e-02,3.709569e-01,-3.940041e-01,-8.103259e-02,-3.343159e-02,6.178827e-01,-2.040669e-02,1.940673e-01,-1.788914e-02,-1.007668e-04,-5.355200e-01,-1.907814e-01,-3.866956e-01,2.187368e-01,-2.886974e-02,2.337162e-01,7.035732e-01,3.883553e-01,1.199947e-01,-3.345834e-01,-5.283329e-03,3.902759e-02,1.983964e-01,3.188181e-01,-2.062184e-01,-1.009822e+00,-5.076377e-02,-1.550689e-01,-4.627734e-01,1.183345e-01,-1.906002e-01,1.513991e-02,1.203594e-01,-1.588085e-01,2.224745e-02,-1.713395e-01,3.261916e-02,-3.099428e-01,6.855339e-01,-3.296210e-02,1.147027e-02,-3.170033e-01,3.218725e-03,1.155379e-02,
-2.906492e-03,1.955068e-02,-9.376200e-02,1.810173e-01,-4.671674e-02,-1.916135e-02,1.769511e-01,-3.124828e-02,-1.374445e-01,-1.983053e-02,1.802245e-02,3.067910e-01,-2.338857e-01,-2.755180e-01,-1.854381e-01,4.702663e-03,3.052879e-01,-1.494802e-01,-1.931714e-01,3.719920e-02,-2.857758e-01,-2.318424e-02,3.910853e-01,-6.404146e-01,-9.418022e-02,5.744237e-01,2.375762e-01,-1.825929e-02,-3.439226e-01,6.138734e-01,3.953345e-01,2.096467e-01,5.553316e-02,3.111639e-01,4.787011e-02,-4.195938e-03,7.688923e-02,-2.078917e-02,-9.249011e-03,-1.559811e-01,-1.219635e-02,-5.253531e-02,-1.200656e+00,1.489155e-02,-4.742317e-02,
-1.457756e-02,-2.406733e-02,2.082222e-02,-1.340786e-02,-1.212256e-02,4.515269e-02,2.847673e-02,-1.087085e-03,1.163232e-02,-2.346097e-02,4.473795e-02,-2.577150e-02,4.083658e-03,-4.518366e-02,3.197918e-02,4.797342e-02,-3.794531e-02,-2.792163e-02,-4.290970e-02,-5.378174e-02,-2.817955e-02,3.666762e-02,-2.988993e-02,-5.057026e-02,1.837086e-02,-3.490458e-02,-1.178531e-02,-1.852743e-02,4.421968e-02,3.841425e-03,2.360288e-02,3.280462e-03,-2.006078e-02,-3.586097e-02,-2.632493e-02,-1.127065e-02,-5.455773e-05,1.482077e-02,1.372224e-02,1.350700e-02,-4.095442e-03,-2.745684e-02,-2.833900e-02,-4.101016e-02,-5.438740e-02,
1.238820e-01,
3.473861e-01,
1.090412e-01,
-4.144228e-01,
-2.211434e-02,
3.954190e-01,
1.255651e-01,
1.425813e-01,
-1.869290e-02,
-5.248336e-01,
1.955525e-02,
1.955533e-01,
-4.238134e-01,
-3.146717e-02,
9.582067e-02,
-1.801295e-01,
-1.560775e-01,
1.309176e-01,
-1.826103e-01,
1.298153e-01,
2.279831e-01,
-1.768686e-02,
2.423008e-01,
-1.563788e-02,
-1.568523e-01,
-1.383082e-01,
-1.670403e-01,
2.929496e-01,
-2.640267e-02,
1.505359e-01,
-6.162995e-01,
1.239159e-01,
-2.417187e-01,
-2.277128e-02,
8.060544e-02,
1.022893e-01,
-1.807630e-02,
2.547702e-02,
3.030340e-01,
-1.204731e-01,
-2.783742e-02,
-1.095908e-01,
-1.814843e-01,
2.742601e-02,
-3.023103e-02,
-2.276645e-01,-1.581063e-01,2.222177e-01,-6.735043e-03,-1.433614e-02,1.014454e-01,1.036095e-01,-1.332668e-01,-4.150920e-02,-5.533078e-01,-1.151557e-01,-7.007915e-02,4.202216e-02,-4.617272e-02,-2.687757e-01,-1.510557e-01,-2.488210e-01,-3.311086e-01,1.749253e-01,2.150559e-01,-5.735964e-01,-4.068689e-02,4.595658e-02,1.145602e-02,-1.488108e-01,3.437642e-02,2.529604e-01,4.660282e-01,-5.095851e-03,-2.438598e-01,-1.948514e-02,-2.663354e-01,1.567417e-01,-5.046205e-03,-1.724237e-01,3.543845e-01,4.647261e-02,-1.471633e-01,-9.883243e-02,3.691910e-02,-5.478618e-02,-1.146811e-01,-4.400894e-01,-2.061707e-01,-4.252785e-02,
-3.291256e-02,3.217572e-03,1.059166e-01,-1.173209e-01,-3.344223e-02,-6.275557e-01,-2.093442e-02,1.632897e-02,2.817566e-02,1.041986e-01,-1.153046e-01,3.637491e-02,2.284689e-01,1.821680e-01,2.374950e-01,-1.180092e-01,1.747316e-01,-5.839803e-03,9.956408e-02,5.740701e-02,-9.805175e-02,-2.348538e-02,2.406847e-01,2.082473e-02,1.039449e-01,-3.582264e-03,7.665331e-02,2.631043e-01,1.236146e-02,-7.892222e-02,1.231248e-01,-2.345249e-01,1.517773e-02,-5.884994e-02,-1.930263e-01,2.266181e-02,3.446549e-02,3.213635e-01,-7.008287e-02,1.029503e-01,1.078656e-03,-4.649651e-02,1.046925e-01,1.058724e-01,-4.935641e-02,
-1.263959e-02,-3.933991e-02,5.041591e-03,-3.448441e-02,-3.309270e-02,-4.993924e-02,-2.376613e-02,-1.559249e-02,-6.807484e-03,-7.094807e-03,-6.022579e-03,-3.480232e-02,-5.912996e-02,-4.948236e-02,-2.988157e-02,-1.672797e-02,-2.123424e-02,-4.341087e-02,-3.898799e-02,-4.649566e-03,-6.366969e-02,2.705029e-02,5.011293e-03,-5.140243e-03,1.662369e-02,-3.804574e-02,-4.669925e-02,3.002477e-04,-4.967510e-02,-2.357858e-02,1.688852e-02,4.041711e-02,-4.745658e-03,-3.460595e-02,-9.317591e-04,9.339152e-03,2.043838e-02,3.553072e-02,-4.383977e-02,-3.318639e-02,1.212110e-02,2.621817e-02,3.213335e-02,-2.992260e-02,4.811795e-02,
-4.016552e-02,-1.005448e-02,1.993217e-02,-1.937712e-02,1.883303e-02,1.130040e-02,4.909222e-04,-5.750683e-02,3.715583e-02,-2.602010e-02,-3.031960e-02,-1.129699e-02,-6.399856e-02,-7.674107e-03,-4.662338e-02,8.043665e-03,5.515723e-03,-2.567534e-02,1.281210e-02,1.080373e-02,-6.734589e-02,-4.739753e-02,-3.793636e-02,1.208412e-02,6.147066e-03,-8.062433e-02,-7.500774e-02,-1.180361e-02,-4.704060e-03,-6.193766e-02,1.504824e-02,-1.014155e-02,-5.069841e-02,-4.300708e-02,-2.245462e-02,4.332031e-02,3.346611e-02,-2.802113e-02,1.748261e-02,-2.541950e-02,-4.145406e-02,-5.329411e-02,-6.751724e-02,-1.702079e-02,3.813273e-02,
-2.728105e-02,8.181714e-02,-2.735208e-01,7.271634e-02,-4.001639e-02,-4.523788e-02,6.863943e-02,-1.660506e-01,-6.073852e-03,5.967447e-02,-9.760676e-02,-1.703877e-01,-1.951461e-01,1.052572e+00,-2.791463e-01,6.916328e-03,-1.986944e-02,-4.306341e-01,-1.754840e-01,-2.545870e-02,1.952711e-01,-2.197596e-02,-1.454750e+00,-3.045763e-02,2.112623e-02,1.822311e-01,-1.609504e-02,-1.182308e-01,1.624079e-02,-1.267940e-01,-7.817647e-02,3.070078e-01,1.339817e-01,1.170078e-03,-7.610494e-01,-6.100874e-01,1.886933e-02,5.570202e-01,-2.773104e-02,-2.093961e-02,-1.464125e-02,1.917210e-01,2.707561e-01,9.460633e-02,-1.153607e-02,
-4.502415e-02,-3.882806e-02,2.422531e-02,8.664437e-02,6.414808e-03,-7.873043e-01,-8.690490e-02,6.031281e-02,-2.138793e-02,4.455918e-02,3.746960e-02,5.269444e-03,-3.027731e-01,6.665838e-01,-2.487432e-01,1.026056e-01,-1.674450e-01,2.285068e-02,6.350235e-02,-9.975518e-02,2.487973e-02,5.113871e-02,-1.410266e-01,-2.353271e-02,-4.475779e-02,4.673127e-02,-1.447624e-02,-2.735493e-02,-4.098653e-02,3.977108e-02,-8.217108e-02,2.267557e-01,-1.884250e-01,-1.907301e-02,1.385874e-01,-1.480895e-01,-2.303984e-02,-1.273097e-01,-3.225217e+00,-5.270789e-02,-5.241483e-02,-2.651036e-02,-5.352127e-02,1.061237e-02,-4.237754e-02,
-1.227133e-01,-7.899077e-02,-1.100637e-01,-4.271429e-02,-3.887381e-03,2.083353e-01,1.716751e-01,1.300922e-01,-1.679076e-02,3.800343e-03,6.866740e-02,2.335778e-01,9.358410e-02,1.039268e+00,1.013898e-01,8.866589e-02,6.785137e-02,-1.340561e-01,-9.922008e-02,1.730277e-01,-1.138324e-01,2.789095e-02,5.501292e-01,1.958543e-02,-6.326174e-02,7.195514e-02,3.359331e-01,3.021650e-01,-3.349589e-02,6.863191e-02,-1.281714e-01,7.503375e-02,4.793151e-01,-1.786713e-02,7.458641e-02,3.279342e-02,-4.173027e-02,-4.202990e-02,-2.385973e-01,-8.381826e-02,-1.552721e-02,3.121838e-01,2.047186e-01,1.128853e-01,-2.221622e-02,
-6.769667e-02,-6.036872e-01,-3.606618e-01,-3.326473e+00,-7.466764e-03,4.612776e-01,-5.458180e-01,-6.801379e-03,-1.611714e-03,-1.716071e+00,-1.120186e-02,1.736343e+00,-3.521055e+00,-1.025947e+00,-1.484436e-01,-4.548902e-01,-2.302466e-01,-7.328930e-02,-3.531638e-01,2.952232e-01,1.039726e-01,4.109970e-02,2.238752e-01,-3.202078e-02,-2.565511e+00,-4.783803e+00,2.421515e-01,2.865723e-01,-1.001005e-02,1.888504e-01,-4.654822e+00,-4.591267e-01,3.763793e-01,-1.205974e-02,7.521135e-02,5.183833e-01,-3.370511e-02,1.154741e+00,6.584668e-01,-2.445430e+00,2.688431e-03,-1.200345e+00,-1.245173e+00,1.929247e-01,-2.206702e-02,
2.509638e-02,1.545462e-01,1.693351e-02,-8.706091e-02,6.508515e-03,9.686431e-01,-8.459157e-02,-2.998917e-02,3.453684e-02,1.354621e-01,-2.217230e-01,4.012587e-01,2.791525e-01,1.092414e-02,3.682618e-01,-2.512062e-01,4.373339e-02,3.064800e-02,6.029910e-03,1.171520e-01,1.459532e-01,-9.295618e-03,-8.018391e-02,-1.227376e-02,-1.640440e-01,-1.392404e-01,-1.636068e-01,1.182073e-01,5.062895e-02,6.162983e-02,1.343811e-01,4.180052e-02,-2.614482e-01,-1.577768e-02,-9.012820e-03,2.242247e-02,-4.561710e-02,4.356925e-01,4.407979e-02,4.559129e-02,-7.521477e-04,-4.288033e-02,2.556898e-01,2.000035e-01,2.740146e-02,
-1.939519e-01,-1.321493e-01,2.646151e-01,2.055669e-03,-2.247619e-02,-8.634735e-02,6.605352e-02,-4.683412e-02,3.316030e-02,-2.831681e-01,8.064252e-03,2.071328e-01,-4.796558e-02,-1.569322e-01,-8.689680e-02,-4.844523e-02,-9.861750e-02,-3.871468e-02,-3.250305e-02,-2.743292e-01,-2.254082e-01,-5.235796e-02,-1.539163e-01,-4.543322e-02,3.943546e-02,1.386587e-01,2.386242e-01,6.427741e-02,-9.101253e-03,-1.541790e-01,1.989479e-02,-2.624195e-02,4.602936e-02,-1.943973e-02,-3.001996e-03,1.851707e-02,2.474980e-02,4.895675e-02,5.110028e-02,-7.921458e-02,-4.848726e-03,4.691057e-03,-9.489712e-02,-1.628301e-01,2.645139e-02,
5.474697e-02,1.615164e-01,-2.126894e-01,-1.691517e-01,-2.864420e-02,2.218697e-02,4.899811e-02,-2.189149e-01,-1.863285e-02,-2.877085e-01,1.469139e-01,-3.068802e-01,-4.727536e-01,-2.368540e-01,3.164884e-01,-1.931402e-01,4.038537e-02,1.291415e-01,4.115135e-01,-1.789825e-01,3.413553e-01,-3.608837e-02,-1.799750e-01,9.915391e-03,-2.189891e-02,8.948839e-02,6.275343e-01,3.662163e-02,4.346800e-02,3.471798e-01,4.715886e-03,1.849822e-03,2.720533e-01,-4.312594e-02,-9.505194e-02,3.960344e-01,3.165538e-02,-1.449733e-01,-3.657082e-02,1.239163e-01,2.201751e-02,-5.592257e-03,-7.046617e-01,-3.432646e-01,-6.451272e-04,
2.243998e-02,3.805123e-03,-4.150181e-03,-1.088592e-02,9.837745e-03,-1.911896e-02,-9.188169e-03,-2.145753e-02,-8.121522e-03,-5.475059e-02,2.470794e-03,4.608570e-03,2.877633e-03,2.211033e-02,-4.786086e-02,-4.836651e-02,1.204746e-02,2.403304e-03,1.335245e-02,-2.091314e-02,-4.317130e-02,-2.835624e-02,-5.720713e-02,4.036261e-02,-1.824496e-02,1.105257e-02,-3.468852e-02,2.061113e-03,3.690726e-02,1.469498e-02,-2.538394e-02,9.478373e-03,-4.980543e-02,2.805582e-02,-4.601378e-02,-1.589882e-03,2.293987e-02,-2.445367e-02,-1.486756e-02,-2.203505e-02,-6.875311e-03,2.626822e-02,-1.715510e-02,-3.561747e-03,2.900352e-02,
-2.744251e-01,3.504125e-01,-2.186546e-02,-4.045621e-02,3.574996e-02,1.321536e-01,1.289461e-01,2.655544e-03,-6.519763e-03,2.483079e-01,-3.175540e-01,1.396420e-01,2.439588e-01,8.598908e-03,4.020635e-02,-3.319411e-01,4.553198e-01,1.160616e-01,-4.430731e-01,1.868284e-01,-8.740702e-02,3.922635e-02,-7.779730e-02,-1.169139e-02,-3.199104e-02,-2.871012e-01,9.961139e-02,-6.853539e-02,2.689385e-02,8.823097e-02,1.759813e-01,4.716427e-01,-2.641838e-01,-2.221411e-02,-1.022455e-01,-1.680584e-01,-3.763051e-02,-2.213524e-01,1.383878e-01,1.468266e-01,-3.059542e-02,1.041576e-01,1.249592e-01,-2.767411e-01,3.455117e-02,
6.630073e-02,-1.005095e-01,1.782978e-01,-3.278989e+00,-3.214082e-02,7.611924e-01,-5.946029e-03,9.802375e-02,1.538632e-03,-2.456185e+00,-2.478491e-02,2.216557e-03,-3.448823e+00,4.616782e-02,1.916281e-01,9.035376e-02,1.672499e-01,2.499926e-01,2.445638e-01,-1.075140e-01,-1.078786e-01,-5.374802e-02,2.785020e-01,4.678676e-02,-9.302005e-01,-2.874111e+00,3.518899e-01,4.400955e-02,1.867152e-02,-4.779072e-01,-4.308182e+00,1.697015e-02,-3.620417e-01,5.285478e-04,-1.027034e-01,-2.813351e-01,4.237629e-02,2.350924e-01,6.078011e-01,-6.290202e-01,-1.481473e-02,-1.561342e-01,3.507780e-01,3.098576e-02,3.868968e-02,
-1.934868e-02,9.220210e-03,-4.951821e-02,-1.054596e-02,-9.431696e-03,-2.654834e-02,-1.038215e-02,-2.967182e-02,2.359820e-02,3.516816e-02,-4.365327e-02,3.736434e-02,-2.696803e-02,3.638409e-02,-4.314697e-02,-4.544130e-02,-5.621341e-02,2.860807e-02,1.789653e-02,-4.655939e-02,-5.966553e-02,-4.125575e-02,2.137771e-02,-4.195277e-03,3.010541e-02,-1.455937e-02,7.145206e-03,-5.694467e-02,7.054825e-03,-2.268251e-02,-1.922061e-02,-1.439559e-04,2.740634e-02,-4.697213e-02,-4.136029e-02,-6.857884e-02,-2.939190e-02,-6.862633e-02,-1.241669e-02,-7.153733e-03,4.733452e-03,-1.161088e-02,-3.176711e-02,-6.633914e-02,-3.268246e-02,
-5.533713e-01,6.398944e-02,1.148349e-01,-7.547958e-02,4.292429e-02,-4.259535e-02,3.529887e-01,-3.030789e-01,-1.496723e-02,-4.434688e-01,-1.730940e-01,1.229523e-01,-2.078076e-02,4.120570e-02,-7.574878e-01,1.637117e-02,-1.623991e-01,-2.035362e-01,2.805191e-01,-7.594970e-02,4.069603e-01,3.614842e-02,-2.109852e-02,-1.882531e-02,1.737067e-01,-2.114279e-03,3.401578e-01,2.616516e-01,2.135786e-02,-5.399798e-01,9.889016e-02,4.356984e-01,5.381742e-02,3.513107e-02,-4.002571e-01,-1.584511e-01,1.586721e-02,3.686019e-01,1.510473e-01,-2.108778e-02,-2.898630e-02,1.759136e-01,-3.273543e-01,6.449837e-01,-1.876559e-02,
-5.209007e-02,-3.713229e-02,-6.423894e-02,-6.272203e-02,-2.980704e-02,-2.794180e-02,-1.753313e-02,-9.432296e-03,-3.320307e-02,1.572512e-02,-6.381854e-03,-4.913769e-02,-5.496261e-03,4.136467e-02,-4.747050e-02,1.073958e-03,-1.115696e-02,-1.834397e-03,-3.129469e-02,-3.432212e-02,2.143361e-02,4.659694e-02,-3.587460e-02,1.986987e-02,4.983326e-03,-3.123743e-02,-6.594749e-02,-5.409409e-02,2.159847e-02,1.651539e-02,-1.442965e-02,-6.495377e-02,-8.302003e-02,-2.341081e-03,2.157611e-02,-5.251381e-03,1.317169e-02,1.149151e-02,-8.088204e-02,-7.677220e-03,2.482513e-02,1.325750e-02,4.347677e-03,-2.182051e-02,3.018902e-02,
-3.735372e-01,2.581067e-01,-3.964135e-01,-2.280193e-01,4.156424e-02,-6.571854e-02,2.409797e-01,-1.968535e-01,1.097907e-02,-3.879261e-03,7.588284e-02,9.341042e-02,1.054328e-01,4.091141e-01,1.478532e-01,-4.556934e-01,1.109791e-01,-1.338334e-01,-5.391214e-01,1.232350e-01,9.032325e-02,-3.016496e-02,-6.674107e-01,3.670983e-02,-1.663733e-01,4.039810e-02,-1.589817e-03,3.022056e-01,1.568882e-02,-1.123281e-01,1.291382e-01,-1.581061e-01,4.296042e-01,4.807887e-02,1.137475e-01,-2.639604e-01,-4.211699e-02,-4.630629e-01,2.939354e-01,1.456492e-01,-5.958670e-02,3.904732e-02,3.829603e-01,-1.155510e-01,-8.453046e-03,
-5.058635e-02,1.635370e-02,-1.837683e-01,-1.127884e-01,-4.517147e-02,-2.418824e-01,-5.510239e-01,1.335042e-02,1.094344e-03,-9.247213e-02,-2.563278e-01,1.056777e-01,-9.996270e-02,6.801236e-02,2.001930e-01,-1.357701e-01,-5.002530e-01,-1.175651e-01,2.877538e-01,-4.195618e-02,2.311539e-01,3.145135e-02,-2.316313e-01,3.550365e-02,3.087052e-02,6.035304e-02,-6.318689e-02,2.562838e-01,4.959987e-02,3.472913e-02,1.305753e-02,1.893012e-01,-1.128452e-01,4.302974e-02,8.731592e-03,1.136983e-01,4.619552e-02,1.769847e-01,1.662817e-01,-1.600096e-01,5.867985e-02,3.642443e-01,9.453105e-02,-7.593045e-02,2.982477e-02,
-1.113699e-01,3.221625e-01,3.149382e-01,2.595891e-02,2.540765e-02,1.591026e-01,-4.143801e-02,4.990078e-02,-1.224671e-02,-7.808516e-02,1.207088e-02,-2.576452e-01,1.182648e-01,1.804632e-01,8.197765e-02,3.147432e-02,3.296757e-01,3.037539e-01,2.415849e-01,3.264899e-01,6.094731e-02,3.716473e-02,4.292278e-01,-3.857714e-02,3.776324e-01,7.042895e-02,-1.127657e-01,-1.614032e-01,-1.720127e-02,1.094445e-01,-1.246042e-01,-3.964976e-02,-1.964686e-02,-2.280096e-02,-2.572014e-02,1.728363e-01,-2.697484e-02,-2.107167e-01,5.128583e-02,6.272451e-03,-3.031871e-02,-1.248282e-01,3.897571e-01,8.642421e-02,6.299912e-03,
