// Neural Network File Format by Kyle Julian, Stanford 2016
7,4,8,45,
4,45,45,45,45,45,45,8,
0,
-8000.0,-100.0,-100.0,6.0,
8000.0,100.0,100.0,40.0,
0.0,0.0,0.0,23.84210526,-3.8529093497767,
16000.0,200.0,200.0,34.0,26.8591142426,
-1.326361e+00,-9.794803e-02,1.050590e-01,2.539653e-01,
-2.329005e-03,-6.027374e-03,3.240453e-03,3.500472e-01,
6.028752e-01,4.870459e-02,-5.266789e-02,2.446217e-01,
2.611162e+00,1.888057e-01,-1.090738e-02,2.039263e-02,
2.875877e-02,9.438460e-01,-2.648856e-02,-1.812769e-03,
-6.949613e-01,-3.733280e-02,3.811726e-02,-4.395887e-01,
1.782378e+00,-2.112886e-01,2.851849e-01,7.935534e-02,
4.000293e-03,-3.061045e-03,2.291937e-03,1.209319e+00,
-5.487875e-02,4.696436e-03,-2.109499e-01,-1.665281e-03,
1.067600e+00,-1.634874e-01,2.283677e-01,2.678890e-01,
1.393374e-03,-9.222021e-01,-1.966035e-02,1.160264e-02,
1.311130e-02,5.234329e-01,-1.593599e-02,4.126270e-02,
-4.091531e-02,6.049427e-01,4.365304e-02,-1.806897e-02,
-2.134141e-01,5.877712e-02,9.023216e-02,1.235450e-01,
-2.690992e+00,-4.977483e-02,6.306823e-03,6.401722e-02,
-1.010472e+00,1.112546e-01,-9.494513e-02,-1.521842e-01,
-4.983331e-01,-1.070103e-01,9.191230e-02,3.741907e-01,
-4.928774e-03,-6.330175e-01,6.306810e-01,-3.441853e-03,
-6.037490e-02,-7.500173e-01,1.246629e-02,3.966574e-02,
-1.164662e+00,4.103200e-01,-4.226203e-01,2.552807e-01,
1.008093e-02,3.918587e-03,-3.129753e-04,6.597996e-01,
-1.141175e+00,4.457335e-01,-4.455964e-01,-1.666259e-01,
2.986958e-03,-4.275712e-01,3.855281e-02,8.683078e-03,
3.878701e-01,1.526477e-01,-1.549737e-01,1.177749e-01,
-1.132826e+00,2.378486e-01,-3.001268e-01,-6.936729e-02,
-4.745093e-01,-1.293245e-01,1.351476e-01,-3.972457e-01,
1.224817e+00,-3.203642e-01,3.206522e-01,2.108745e-01,
3.221267e+00,-6.716260e-02,-7.661432e-03,-3.951689e-02,
-1.503893e+00,1.848692e-01,-2.245760e-01,7.454815e-02,
5.067671e-02,-1.570196e-02,2.243792e-02,4.995576e-01,
-3.461294e+00,-3.743086e-02,2.760493e-02,-2.586245e-03,
1.654317e+00,-5.111684e-01,5.098576e-01,-2.315881e-01,
1.184286e+00,-1.343641e-01,1.026763e-01,-4.763710e-01,
1.377614e-02,5.823239e-02,-8.606380e-02,7.023235e-02,
-1.570347e+00,-5.596256e-02,1.157162e-01,9.788486e-02,
3.006345e-03,-3.949917e-01,-6.367051e-02,4.345870e-02,
1.478708e-01,-1.203977e-01,8.165514e-02,3.803596e-01,
4.807226e-01,-7.839908e-02,-1.871488e-01,-3.639048e-02,
1.317018e+00,-7.232177e-02,7.054613e-02,-4.381199e-01,
-2.006190e+00,1.060361e-01,-3.274090e-02,-9.499235e-02,
2.614045e-02,-4.202717e-01,4.188217e-01,3.635446e-01,
-1.756946e-02,1.192836e-01,6.261828e-02,3.932071e-02,
7.887741e-01,8.059089e-02,-6.617396e-02,5.779434e-02,
1.534631e-01,5.759165e-01,-5.717471e-01,2.627975e-02,
-9.951711e-01,-1.530797e-01,1.725269e-01,1.811316e-01,
-8.174911e-02,
-1.795345e-01,
1.054499e-01,
-1.094476e-02,
-1.102855e-01,
-2.322705e-01,
4.243419e-02,
-1.453542e-02,
3.626400e-03,
-9.564064e-03,
3.125224e-02,
-8.266556e-02,
-2.899124e-02,
-6.512392e-02,
-5.514998e-02,
-4.574732e-02,
-1.047907e-01,
-4.345073e-03,
-1.114235e-01,
-2.288843e-02,
-2.989685e-01,
-3.772942e-02,
1.815562e-02,
-8.576774e-02,
-1.043801e-01,
-1.626599e-01,
4.441604e-02,
-9.774981e-04,
3.665129e-02,
2.296488e-03,
2.112693e-02,
-4.066892e-02,
-1.350323e-01,
9.768964e-03,
9.288590e-02,
-4.678722e-02,
-3.093077e-02,
-1.527955e-01,
-2.042424e-01,
-2.077888e-02,
6.377865e-02,
-6.619842e-03,
-3.366611e-02,
1.266711e-03,
-1.404310e-01,
-1.028848e+00,2.532246e-01,6.404739e-02,9.112191e-01,-1.248499e-01,-7.865126e-01,1.820763e-01,3.486746e-02,-2.183039e-02,3.762910e-01,-4.255127e-01,-1.547375e-01,2.612348e-02,-4.109762e-01,1.509686e+00,-2.663055e-01,-3.699797e-02,-1.642074e-01,5.087575e-02,-2.981801e-01,2.183913e-01,1.525517e-01,-2.380338e-01,-3.261879e-01,-2.752553e-01,-3.644611e-02,2.168695e-01,-1.154655e+00,-1.521288e-01,1.086423e-01,-1.845298e+00,1.721520e-01,2.936896e-02,-3.484656e-02,-3.073622e-01,1.689267e-01,2.090053e-01,-1.757397e-01,1.268397e-01,-5.630318e-01,-2.198632e-01,-1.736852e-02,2.668746e-01,1.129827e-01,-3.499197e-01,
-4.831013e-02,2.904247e-03,-4.992522e-02,-4.649277e-02,2.291842e-02,9.281205e-03,3.558113e-03,-4.805448e-02,3.037784e-02,2.283374e-02,-4.439094e-02,1.650235e-02,1.470944e-03,-3.720836e-03,-1.632739e-04,-3.577857e-02,1.027111e-02,-2.263392e-02,-2.549108e-02,-4.394520e-02,-3.186478e-02,-4.540931e-02,8.048521e-03,-1.186818e-02,-5.948708e-02,5.987912e-04,4.643548e-02,-2.248923e-02,3.268550e-02,-2.435895e-02,2.610937e-02,-4.753343e-02,-1.339735e-02,-7.536902e-03,-1.053356e-02,-4.527489e-02,-1.242619e-02,-4.969107e-02,4.616119e-02,1.777929e-02,3.437570e-03,-2.070202e-02,3.378397e-02,-9.623825e-03,6.870954e-03,
1.359509e-01,-1.233224e+00,4.608042e-01,6.885481e-02,-1.100407e-01,-7.083752e-01,1.028045e-01,-9.046568e-03,1.825921e-01,3.514759e-01,1.143677e-02,-8.615865e-02,-9.472024e-02,-6.634190e-01,7.520015e-01,2.009174e-01,-2.209552e-02,2.452135e-01,-1.976836e-01,-3.408780e-01,-3.041156e+00,3.851610e-01,-9.837878e-02,-2.771547e-01,-2.863582e-01,2.403126e-01,2.296834e-01,3.304150e-02,-1.047975e-01,1.536167e-02,-3.376559e-01,-3.075036e-01,-7.887560e-01,-2.986731e-01,5.509572e-02,3.260503e-01,2.788239e-01,-2.119642e-01,5.108430e-01,3.472643e-02,-3.024574e-01,-5.694121e-02,6.292081e-03,1.621130e-01,-3.015411e-01,
3.008766e-01,1.796546e+00,-2.202000e-01,-7.970523e-01,6.754386e-02,2.542531e-01,4.428148e-01,1.597127e-01,-7.505731e-01,-3.669778e-01,-5.012505e-02,1.355206e-02,9.923507e-02,1.024999e-01,-4.338483e-01,-6.466749e-02,-4.199608e-01,-1.751314e+00,4.140504e-02,1.754206e-01,3.679541e+00,4.744322e-01,9.065614e-02,8.611592e-01,-7.635136e-01,-1.744303e+00,2.845060e-01,5.312340e-01,4.702446e-01,4.261533e-02,6.038605e-01,4.725824e-01,-5.781041e-01,-1.456717e-04,-1.470964e-01,2.128599e-01,-3.301105e-01,3.413388e-01,-1.279075e-01,3.620832e-01,1.420608e-01,-2.016357e-01,2.369879e-01,-4.382120e-01,3.456302e-01,
2.479025e-01,-2.812997e-01,-4.638996e-01,-5.865094e-01,1.591988e-01,-3.199160e-01,-2.102242e-01,2.812449e-02,-5.481628e-01,-3.712968e-01,1.490768e-01,3.317363e-01,-5.553743e-01,-4.011839e-02,-1.326624e+00,-3.094024e-01,-1.140426e-01,-8.821679e-02,-5.614894e-02,1.400800e-01,-5.487092e-01,2.348156e-01,1.916174e-01,1.829037e-02,1.118794e+00,-1.468948e-01,-1.099857e-01,-2.836927e+00,5.440608e-02,8.936294e-02,1.287211e+00,-4.026362e-02,-5.110564e-02,-5.265833e-01,4.907482e-02,1.184614e-02,-3.559332e-02,-1.506892e-01,2.846823e-01,-1.530499e+00,2.985503e-01,-7.224608e-02,-4.646666e-01,-1.035592e-01,-1.949783e-01,
-2.670389e-02,-1.790546e-02,2.906670e-02,-9.745929e-03,-4.018097e-02,-4.945161e-02,7.086065e-03,-1.904106e-02,-1.855426e-02,1.309919e-02,4.698447e-03,1.522401e-02,-1.828736e-02,-3.504367e-02,1.467399e-02,-6.328467e-02,2.069706e-02,3.263753e-02,1.357541e-02,-2.572590e-02,-2.208763e-02,1.875732e-02,1.438679e-02,-3.833219e-02,-2.020114e-02,2.992417e-02,-6.168122e-02,-5.167011e-02,-4.507143e-02,1.271859e-02,4.374406e-03,-3.192042e-02,-1.501113e-02,3.110302e-02,-3.166882e-02,-5.378511e-02,3.326197e-02,7.156697e-03,1.416540e-02,-1.506453e-02,-5.721078e-02,3.920148e-02,-2.244850e-02,-9.823192e-03,-4.533203e-02,
-2.788501e-04,-5.652240e-03,1.225102e-02,-1.500720e-02,2.744931e-02,-2.035873e-02,-5.669443e-02,3.930566e-02,2.083695e-02,-2.251527e-02,2.179382e-02,-1.586149e-03,2.988987e-02,3.255367e-02,3.494149e-02,-1.907182e-02,4.267979e-02,1.712673e-02,-2.329053e-02,-4.492799e-02,-2.726720e-02,-4.840690e-02,-3.007367e-02,3.126648e-03,-4.399377e-02,-8.162523e-03,1.955425e-02,-3.861541e-02,1.873351e-02,-4.127051e-02,-3.099564e-02,1.203023e-02,2.964100e-03,-1.860509e-02,-1.841055e-02,6.919764e-03,-4.360359e-02,-5.028726e-02,-4.922579e-03,-1.973009e-02,-3.787706e-02,-1.560218e-02,-4.186466e-02,-2.480543e-02,-7.172754e-03,
-3.609225e-01,-1.122995e-01,-1.364708e-01,5.433942e-02,-6.333744e-02,7.076979e-01,4.573115e-02,3.977792e-01,-4.733282e-01,-2.245992e-01,6.337075e-02,-3.973847e-01,-3.383393e-01,2.398600e-01,9.123635e-01,-3.665460e-01,4.822425e-02,-2.849771e-01,-3.384370e-01,3.177730e-01,1.891465e-01,-1.349345e-01,1.279805e-01,-2.670456e-01,-1.345064e-01,-5.461822e-01,3.575691e-02,9.523265e-01,-7.126878e-01,3.223034e-01,-4.445076e-01,1.079926e-01,1.583986e-01,-2.676571e-01,-2.940252e-01,-4.676548e-02,3.069264e-01,2.286891e-01,2.073619e-01,6.869671e-01,-1.596376e-01,-3.221525e-01,-3.708176e-02,-3.410075e-01,7.174723e-02,
-1.315140e-01,6.806531e-01,-5.130630e-01,1.436297e-01,3.058593e-02,3.296732e-01,-1.959491e-01,-2.274659e-02,1.610978e-01,8.464139e-02,2.067775e-01,-2.279327e-01,1.161122e-01,-4.546140e-01,-2.456907e-02,1.690291e-01,7.750951e-01,-6.606929e-01,-4.669419e-01,-1.599197e+00,8.756724e+00,3.070905e-01,2.184972e-01,-1.011123e+00,3.411196e-01,-3.472698e-01,5.618954e-01,2.157798e-01,-5.855544e-01,2.615063e-02,2.927378e-01,-7.780845e-02,2.672305e-01,-7.661746e-01,-4.290567e-01,-2.678934e-01,-1.006476e-01,8.538461e-01,-3.141306e-02,3.675346e-01,3.247287e-01,-3.188622e-01,-6.291838e-02,2.313723e-01,5.263060e-01,
1.667754e-02,-3.477670e-01,2.881382e-01,7.663445e-02,1.165189e-01,-2.200013e-01,1.022194e-01,1.462295e-01,9.168215e-01,9.899205e-02,6.456380e-01,-9.116687e-02,2.787845e-01,-1.057855e+00,2.538614e-01,-1.528516e-01,-3.115029e-01,-1.092360e-01,-2.855952e-01,-6.404655e-01,-1.828021e+00,-4.546793e-01,3.938405e-01,3.120881e-01,1.153929e+00,1.951885e-01,1.860728e-02,-3.167895e-01,-6.995978e-02,1.500139e-01,-1.036003e-01,4.417010e-02,6.587978e-02,6.480385e-02,1.723670e-01,1.925081e-01,-3.960159e-01,1.005173e-01,-6.549225e-02,-1.593554e-01,-6.052032e-01,1.132343e-01,1.696460e-01,9.946586e-02,1.108862e-01,
-7.071689e-01,-9.721775e-01,5.291478e-01,-1.273567e-01,-5.184852e-02,-1.156094e-01,-2.345067e-01,-7.216688e-01,3.873553e-01,-2.345950e-01,-1.364675e-02,5.261093e-02,1.242378e-01,3.452046e-01,-6.406108e-01,-1.283638e-01,6.010944e-01,2.355589e-01,-1.109820e-01,3.635392e-01,6.904186e-01,-3.609653e-02,-6.090664e-02,-1.360577e-02,-1.269137e-01,1.703262e-01,-3.631223e-01,-2.311137e-01,-3.416184e-01,-4.172045e-01,2.147952e-01,-3.181223e-01,-2.061128e-01,-3.505585e-01,2.322534e-01,-8.203902e-02,2.678935e+00,-2.703283e-01,-6.283278e-01,-1.038094e-01,-2.293165e-01,3.488983e-02,5.121107e-01,-1.218075e-01,-4.820150e-01,
7.437928e-02,4.698997e-02,-5.134759e-02,1.954303e-01,1.431374e+00,-6.468386e-03,7.785378e-02,2.173303e-02,1.552320e-01,5.524551e-02,8.761638e-01,1.199108e+00,8.902256e-01,-3.155641e-01,-1.551223e-01,-1.272115e-01,-1.034814e-01,-9.059297e-02,1.221043e+00,-1.690574e-01,-6.263610e-01,1.086272e-01,7.253596e-01,-1.094527e-01,-1.625228e-01,-1.451090e-01,4.342796e-02,-1.850134e-01,-4.816116e-03,3.716364e-02,2.770208e-01,1.026261e-01,-7.708200e-02,-3.112002e-01,6.019177e-02,6.131381e-01,-1.284227e-01,2.064092e-01,1.134088e-01,-1.688275e-01,-6.118183e-02,3.018562e-01,7.824982e-02,-1.715898e-01,6.270774e-02,
1.398915e-01,-4.482890e-01,-8.482143e-02,1.413080e+00,-9.649285e-02,-7.067708e-01,2.175540e-01,2.195706e-02,6.599162e-01,-1.577637e-01,1.793260e-01,-3.848630e-01,1.652500e-01,1.869377e-01,-4.662873e-01,-2.568559e-01,2.944541e-01,5.358147e-02,4.526009e-02,2.638168e-01,-2.035252e+00,1.557273e-01,9.914102e-02,1.706418e-01,-2.264613e-01,4.344246e-01,2.865080e-01,-1.418857e+00,7.919588e-02,-7.986089e-02,-5.553738e-03,-1.687603e-02,2.080520e-01,-3.702976e-01,1.828742e-01,1.262040e-01,-2.321264e-01,-7.322616e-01,4.199902e-02,-1.784602e-01,1.490559e-01,7.097441e-02,5.997292e-02,-1.542460e-02,9.078605e-01,
2.071098e-01,1.267757e-01,2.368577e-01,-1.058371e+00,3.134291e-02,-3.248863e-01,-3.390551e-02,1.427830e-01,1.387387e-01,-5.694953e-02,-6.823700e+00,-4.124288e-02,3.545728e-01,-1.614307e-01,-2.042778e+00,5.138746e-03,-6.533349e-02,1.878539e-01,-3.182850e+00,1.730111e-01,2.843345e-01,7.467628e-02,-4.841907e+00,1.045118e-01,-2.306724e-01,-2.520451e-01,1.588061e-01,1.156151e+00,3.112195e-01,1.345360e-01,1.340970e+00,-9.181064e-02,-6.238411e-02,1.940823e-01,2.206965e-01,2.459239e+00,1.035163e-01,-2.118356e-02,-3.826055e-02,2.269430e-01,2.661869e-02,2.717782e-01,-1.495696e-01,-4.588536e-02,-8.281519e-02,
7.052971e-03,1.448944e+00,-1.532787e-02,3.065487e-01,8.010405e-02,-3.395059e-01,-4.350072e-01,5.842149e-02,-1.165545e+00,3.902208e-02,1.600900e-01,-9.868892e-02,1.433565e-01,2.174076e-01,3.639306e-01,-2.393093e-01,1.186143e-01,-1.049980e+00,1.133461e-01,-5.630845e-01,1.601732e+00,-1.104644e+00,1.416256e-01,1.636157e-01,-2.016935e-02,7.181984e-01,3.392366e-01,9.452949e-02,-3.709061e-01,2.457864e-02,4.901522e-01,-5.196352e-01,2.814974e-01,-3.211172e-01,1.117305e-01,1.184732e-01,-1.156176e-02,-1.241630e-01,2.999863e-02,4.018036e-02,-3.490183e-01,-4.109366e-01,5.765159e-03,-4.405378e-01,-3.909122e-01,
-2.797980e-01,9.644116e-01,4.934182e-01,4.510824e-01,-5.003396e-03,3.426015e-01,7.275047e-01,8.399352e-01,-1.729291e-02,3.530477e-01,3.965963e-01,1.448065e-01,-1.825257e-01,4.010156e-01,-6.013781e-02,1.621304e-01,2.288207e-01,-7.064737e-01,-5.649311e-01,4.070857e-01,3.746700e+00,3.400081e-01,3.328314e-01,1.825208e-01,1.658558e-01,-1.608002e-02,8.321770e-01,4.750885e-01,1.649039e-01,8.970271e-01,9.743416e-01,1.080225e-01,-4.271515e-01,-2.072202e-01,2.516566e-01,-1.285856e-01,1.800208e+00,2.340756e-01,1.020058e+00,7.742421e-02,-9.018466e-01,8.820275e-02,9.414957e-02,-4.465129e-01,-7.393999e-01,
1.406978e-02,-4.001001e-02,-4.942653e-02,1.727064e-02,-3.936580e-02,-2.839615e-02,-1.650455e-02,-3.114786e-02,2.867561e-02,-3.674864e-02,-3.913878e-02,-4.236386e-02,-3.906488e-02,2.104015e-02,3.875155e-02,-5.787474e-02,-2.727636e-02,1.379251e-02,-3.804482e-02,6.425015e-03,-2.806326e-02,-4.524772e-02,6.488337e-03,1.194665e-02,-6.115505e-02,2.643799e-02,2.934452e-02,-8.710832e-03,-3.209227e-03,3.887042e-02,4.590238e-03,3.569009e-02,-1.383217e-02,1.095846e-02,-4.443651e-02,3.821540e-02,-1.389551e-02,-5.110133e-02,2.250295e-02,-8.302951e-03,-7.738700e-04,-1.455440e-02,-8.772889e-03,3.760589e-02,-1.742809e-02,
-1.632583e-01,-1.136920e+00,1.636978e-01,-6.868272e-02,-9.939948e-02,-1.035815e-01,-3.420556e-01,-1.801960e-01,2.614062e-01,6.935796e-01,6.343654e-02,8.249777e-03,1.312942e-01,5.807458e-02,-1.114201e-01,2.950827e-01,-4.359564e-02,-2.759978e-01,8.739310e-02,7.466902e-01,-7.533626e-01,-7.013837e-02,-1.371497e-02,1.973949e+00,-8.252283e-02,-9.316455e-01,-2.867014e-03,-7.951004e-01,2.234416e-01,-2.125348e-02,2.836976e-01,5.910189e-01,-3.706657e-03,-2.742679e-01,1.634701e-02,9.898001e-02,-7.250763e-01,1.359038e-01,1.456175e+00,-1.165413e-01,1.442099e-02,2.850021e-01,1.276508e-01,-1.053858e+00,1.745903e-01,
-3.981389e-01,8.532884e-02,2.952988e-01,-6.077295e-02,-1.749630e-03,-2.081759e+00,7.856230e-03,-4.913620e+00,-1.666110e-03,8.678370e-03,-2.631133e-01,-1.276742e-02,-1.173356e-02,1.831364e-01,-1.756285e-01,-2.923726e-02,-1.436787e+00,1.746006e+00,-2.182735e+00,1.949786e-02,-1.064181e+00,-1.116748e-01,2.568680e-01,8.074775e-01,-5.882125e-01,1.323719e+00,-5.921613e-02,-2.151851e-01,-8.530421e-01,-2.919030e+00,-5.305002e-01,-1.404422e+00,-6.340058e-01,4.435225e-02,-7.819586e-01,-4.514507e+00,-4.656393e+00,1.175362e-01,-8.880706e-01,-6.060574e-01,-9.063359e-01,1.208590e-01,-1.836504e-01,5.725650e-01,3.504841e-01,
-2.140546e-01,-4.547559e-01,-2.687620e-01,-5.448410e-01,1.333457e-03,8.083414e-01,-1.521687e-01,-1.114231e-01,4.056515e-01,7.019881e-01,-4.587836e-02,-4.190978e-02,1.767391e-01,6.211184e-01,5.150250e-01,8.696153e-01,4.769768e-01,-3.985571e-01,1.473417e-01,6.101663e-01,-6.079718e+00,1.458328e-01,-1.106481e-02,5.461147e-01,-1.330384e+00,3.759009e-01,3.435452e-01,-1.986123e-01,-1.393357e+00,-2.546745e-02,-8.335224e-01,-1.008787e-01,-4.317341e-01,6.190262e-01,-5.416467e-01,5.751548e-02,-8.422199e-01,4.567365e-02,-2.063669e-01,2.481071e-01,3.783282e-01,-3.807200e-01,2.233099e-01,-1.870022e-01,3.948430e-01,
-1.085023e-01,2.636989e-02,-1.032531e-02,4.011070e-01,-4.789082e-01,6.648594e-01,3.649752e-01,1.999092e-01,-6.893375e-01,4.119919e-01,1.174564e-02,-2.087448e-01,-7.540569e-01,-4.886262e-01,2.439131e-01,2.437668e-01,4.782269e-02,-9.517844e-01,-2.606304e-01,-4.158456e-02,-1.217108e+00,4.779316e-02,5.122771e-02,-2.939842e-01,3.370238e-01,-3.702156e-01,3.054827e-03,2.103780e-01,1.778316e-01,2.709071e-01,2.435624e-01,-6.302906e-01,-1.204081e-01,2.432260e-02,-1.259973e-01,2.176961e-01,3.396773e-01,-1.732769e-01,2.095559e-01,4.176905e-01,-3.697589e-01,-6.751651e-02,7.072654e-02,-4.951561e-02,1.095141e-01,
-3.487795e-01,9.587639e-01,-1.737322e-01,-3.662742e-01,-1.620420e-02,6.412990e-02,-8.808917e-02,3.530962e-01,-6.047349e-02,1.080377e-01,-8.876535e-03,4.978852e-02,7.280856e-02,-4.987283e-02,4.824437e-01,-1.925204e-01,-1.734617e-01,-6.303807e+00,1.268192e-01,-2.787264e-01,7.491280e-01,-6.519450e-02,-5.626074e-02,3.966561e-01,3.943144e-03,-8.712710e-01,5.054390e-01,5.030994e-02,1.446150e-01,3.077851e-02,2.272990e-01,2.917108e-01,-6.652975e-01,-6.028200e-01,1.303820e-01,-2.024451e-02,-1.101000e+00,-2.649047e-01,4.557097e-01,-1.781616e-01,1.600740e-01,1.429255e-01,7.133380e-01,-1.821366e-01,-1.037700e+00,
3.155735e-01,-4.846019e-01,4.728445e-02,-3.474560e-01,-5.198426e-02,-2.911969e-01,4.349749e-01,2.793093e-01,-4.339953e-01,-2.622978e-01,-9.737401e-02,8.561594e-02,-1.069996e-01,-1.833318e-02,-3.518872e-01,-3.713553e-01,-4.697174e-01,-3.718929e-01,-7.755905e-02,2.462625e-01,2.629761e-01,4.525917e-01,5.703666e-02,1.065082e-02,4.602451e-01,1.326955e-01,3.816907e-01,5.920122e-01,-2.870019e-02,9.892843e-02,3.027632e-01,3.145912e-01,-7.543041e-01,5.134283e-01,-1.474828e-01,5.997485e-03,-1.853282e-01,1.287501e-01,-8.120633e-01,-1.228141e-01,1.879838e-01,-2.380850e-02,3.586292e-01,-1.333739e+00,9.968787e-02,
-1.876434e-01,1.371819e+00,-4.006335e-01,2.185309e-01,7.644987e-01,-2.551172e-01,1.149597e-01,1.416141e-01,-7.496400e-01,-2.749851e-01,6.366785e-01,7.624794e-01,8.974822e-01,7.856465e-02,-4.222860e-02,1.173019e-01,-2.600701e-01,2.109255e-01,8.998095e-01,-2.537536e-01,2.112480e+00,2.575535e-01,5.592241e-01,7.138470e-02,-1.344307e-01,2.488237e-01,2.209931e-01,-1.457157e-01,3.558498e-01,1.463649e-01,-1.546848e-01,-1.546601e-01,2.148100e-02,5.455115e-01,1.456888e-01,1.134319e+00,-3.468563e-01,7.143468e-02,1.536658e-01,6.886573e-02,2.372815e-01,9.429817e-01,-1.870265e-01,4.236610e-01,-2.870782e-02,
-2.625363e-01,-5.431505e-01,2.400431e-01,9.130905e-02,3.672182e-01,5.732199e-01,-3.553039e-01,-9.649269e-01,3.002638e-01,8.476787e-01,3.121921e-01,2.241978e-01,2.463526e-01,-1.243758e+00,4.601512e-02,1.350107e-01,-6.345526e-01,7.974727e-02,-4.151095e-01,-9.031566e-01,-5.267083e+00,-1.396146e-01,2.450087e-01,2.937858e-01,-3.046828e+00,8.876227e-01,-3.908106e-01,1.614439e-01,-3.903044e-01,-5.809192e-01,2.149293e-01,-4.642907e-01,-3.141688e-01,3.742698e-01,1.459300e-01,-4.031512e-02,-3.620457e-01,2.051303e-01,-5.566797e-01,3.519977e-01,-8.031977e-01,-1.073930e-01,9.158179e-02,1.234016e-01,-6.713232e-02,
-5.978337e-01,6.954182e-01,3.514994e-02,2.911121e-01,-4.371992e-02,7.250618e-01,2.691689e-01,-7.294221e-01,-7.737131e-02,2.792991e-01,4.366563e-03,-8.581445e-02,5.707104e-02,-5.975843e-02,-4.629442e-01,3.217217e-01,-9.201235e-01,-5.598654e-01,8.197051e-02,1.869757e-01,1.688736e+00,7.896640e-01,-1.067039e-02,2.900815e-02,-1.749132e-01,7.138036e-02,4.667313e-01,6.332101e-01,7.801470e-02,-1.234945e+00,8.773957e-01,2.828643e-01,3.512601e-01,-1.319868e-01,-1.711847e-01,-1.596259e-02,-1.587758e-01,-6.564740e-02,5.451360e-01,6.081929e-01,-8.579209e-02,-1.264564e-01,-4.865381e-01,-7.187581e-01,3.949782e-02,
7.317748e-06,-1.770176e-01,-1.360382e-01,1.882804e+00,2.806743e-02,-8.581512e-02,-3.516640e-01,-1.798824e-02,7.668035e-02,3.586001e-02,3.685275e-02,-1.694456e-01,-5.663980e-01,-5.652896e-01,-1.516578e+00,-9.495594e-02,8.420534e-03,5.079713e-02,-7.710810e-02,2.650859e-01,-8.936421e-01,1.917141e-01,1.158586e-01,-1.318143e+00,-3.436835e-01,-3.566893e-01,-1.706058e-01,-1.982933e+00,1.648115e-01,-8.442723e-02,1.370763e+00,1.163193e-02,-3.016093e-02,-4.022216e-01,2.791505e-01,6.611964e-02,2.561860e-02,1.102727e-01,6.437151e-01,-4.180771e-01,1.140244e-01,-9.789412e-02,9.221786e-02,-4.130374e-02,-7.016519e-02,
-1.471521e-01,-2.122207e+00,2.102910e-01,1.468017e-01,-9.046617e-02,8.728626e-02,-6.009085e-01,1.406963e-01,3.332340e-01,-9.898901e-01,4.435940e-02,1.962869e-02,1.546382e-01,-8.709169e-02,-4.700795e-01,6.738979e-02,-1.806603e-01,-7.172415e-02,-3.286438e-02,-2.458581e-01,-4.186723e+00,-3.394128e-01,-1.386755e-01,-2.426979e-01,3.991925e-01,3.608122e-01,-4.788396e-01,4.991013e-02,1.851440e-02,2.765785e-01,6.695312e-01,-7.723865e-01,-2.325849e-01,1.544488e-01,-1.373588e-01,3.321249e-01,3.240322e-01,-3.848251e-01,-1.255457e+00,9.913189e-02,-3.878230e-02,-2.043964e-01,-4.691550e-01,2.167866e-01,-4.658975e-01,
-7.790280e-01,-1.103485e+00,9.703350e-02,3.160182e-01,-1.143255e-02,1.846591e-01,3.777135e-01,5.812528e-01,1.812406e-02,1.451991e-01,1.434568e-02,3.027867e-03,-5.327224e-02,-2.214464e-01,3.853677e-01,2.227713e-01,-7.366490e-01,-6.577986e-01,-2.874193e-03,6.639497e-01,-2.388258e+00,4.250837e-01,-2.073399e-02,-5.002448e-01,-3.094696e-01,2.861768e-02,1.124558e-01,7.790115e-01,2.658351e-01,-1.735824e-01,5.534357e-01,5.686926e-01,-4.614476e-02,-8.419844e-02,-3.009762e-01,-2.552526e-02,-8.170926e-02,-1.285529e-01,-3.004690e-01,5.457226e-01,-6.780622e-02,1.192310e-01,-3.626411e-01,-7.817277e-01,-3.236619e-01,
-2.365568e-01,7.007140e-02,1.097990e+00,-5.674867e-01,-9.137510e-02,2.930963e-01,-3.702249e-01,1.515865e+00,1.788249e-01,-5.611559e-01,-8.105675e-02,-1.602244e-01,1.330548e-01,-3.638407e-01,-3.681779e-01,-2.218946e-01,-3.718352e-02,-4.608366e-01,-1.225891e-01,-3.624149e-01,-4.709912e-01,-8.150326e-02,-4.526472e-02,1.260503e+00,-7.767215e-01,7.959468e-01,5.284690e-01,-1.170294e+00,1.038959e-02,1.320221e+00,6.813394e-01,1.488061e-01,6.071610e-01,9.297470e-01,2.308817e-01,-1.051042e-01,9.997683e-01,1.003575e+00,-1.501142e+00,1.027408e-01,-4.269552e-01,2.239436e-02,1.043734e+00,5.217465e-01,-1.357205e-01,
-5.182237e-02,2.495037e-01,1.772565e-01,-7.399874e-02,-3.192787e+00,1.138040e-01,2.222627e-01,3.325945e-01,8.807959e-02,-5.749699e-02,-6.645787e-01,-1.506983e+00,-1.192670e+00,3.719124e-01,-4.986061e-02,-1.467573e-01,2.633544e-01,-7.874502e-02,-8.557592e-01,1.879549e-01,9.841633e-01,3.242565e-01,-3.027794e-01,3.129287e-01,-8.729933e-02,3.594559e-01,6.702272e-02,8.681402e-02,-1.541889e-01,3.760802e-01,3.145707e-01,7.999725e-02,7.449716e-02,-5.119843e-02,1.738266e-01,-3.414066e-02,2.333384e-01,1.336853e-01,1.292443e-01,-1.236518e-01,1.938808e-02,-1.575531e-01,1.244795e-01,3.305389e-01,-2.565355e-03,
-2.400791e-01,5.510616e-01,3.191354e-02,5.092851e-02,1.242810e+00,1.745329e-01,-1.001757e-01,-2.586830e-02,-2.310809e-01,1.576922e-01,9.249219e-02,1.045627e+00,9.698845e-01,-7.697418e-02,-2.716818e-01,1.422847e-01,-5.031696e-01,-7.399251e-01,3.921732e-01,-3.764329e-01,-6.876401e-01,3.409183e-01,3.700878e-02,2.064424e-01,-2.566103e-01,4.441364e-01,9.728903e-02,-1.232125e-01,-7.680992e-02,8.042470e-02,5.737269e-01,1.172690e-01,1.854649e-01,-2.242409e-01,-7.234234e-04,-3.551139e-02,-2.476261e-01,-9.941864e-02,-1.638776e-01,3.562394e-01,-1.849748e-01,4.057298e-01,-1.040603e-01,-7.250255e-02,-3.862836e-02,
3.213545e-02,4.453685e-01,2.930466e-01,8.144186e-02,-8.433004e-02,-8.874308e-02,8.041970e-01,-9.559949e-02,-9.350565e-01,-4.340823e-01,-3.701802e-02,4.836312e-02,-1.428202e-01,9.888519e-02,-1.315582e-01,-2.176657e-01,3.471375e-02,-4.015355e-01,-3.663806e-04,8.897741e-01,-1.386389e+00,-4.761536e-02,7.799572e-02,-8.631480e-01,4.397365e-01,-7.197292e-01,4.783969e-01,7.227758e-01,5.975754e-01,-2.141885e-01,1.018463e-01,-1.360552e-01,-4.045208e-01,2.315749e-02,2.837383e-01,7.695151e-02,-3.392547e-02,2.479873e-01,8.705017e-01,8.110427e-03,3.210666e-01,1.632918e-01,-8.471726e-04,-5.936742e-01,-3.660258e-02,
-1.139931e+00,7.467149e-01,3.074128e-02,4.598737e-01,-5.647749e-02,-8.320132e-01,2.308999e-01,2.465865e+00,7.289054e-02,-4.726390e-02,-4.605127e-02,-5.700222e-03,-2.735943e-03,3.763134e-01,1.335620e-01,-7.127585e-02,4.406115e-01,-4.673793e-01,-3.648605e-02,1.747341e-01,1.543077e+00,4.690919e-01,-4.351752e-02,3.558652e-01,-2.202617e-01,-6.732838e-01,5.290756e-01,4.213358e-01,1.249079e-01,1.602252e+00,6.577958e-01,1.678270e-01,-7.292057e-02,3.414103e-02,3.674559e-01,1.028432e-01,-1.109660e-01,1.438491e-01,8.784363e-01,5.333781e-02,9.680192e-02,2.052685e-02,-4.950663e-02,-2.761697e-01,-6.963788e-01,
-1.043653e-01,4.461732e-01,7.141444e-01,-4.009198e-01,1.108612e-01,5.073528e-01,-5.129740e-01,2.451105e-01,2.496805e-01,3.651224e-01,1.493444e-01,1.950772e-01,-1.626053e-01,3.526186e-01,-6.775413e-01,7.931783e-02,-2.766438e-01,-2.923444e-01,1.511245e-02,2.064156e-01,-1.606573e+00,4.927542e-01,3.986650e-02,9.515048e-01,-7.529516e-01,4.939602e-01,4.883946e-03,1.105574e-01,-1.477249e-01,2.397919e-01,8.204408e-01,4.366936e-01,-2.477279e-01,3.699847e-02,-1.738540e-01,1.678431e-01,-3.947473e-01,-4.547805e-01,-2.115584e-01,7.133538e-01,-5.158589e-01,-3.077687e-01,1.391795e-01,1.232547e-01,-5.289066e-01,
-6.889661e-02,-9.033752e-01,2.018261e-01,-5.238352e-02,-7.142740e-02,-4.031755e-01,-9.876818e-02,-4.233539e-01,8.854413e-02,-2.914255e-01,-1.340925e-01,4.424107e-02,6.525607e-02,2.526760e-01,-2.319666e-01,-6.996753e-02,1.457153e+00,2.702449e-01,6.687925e-02,-7.686482e-02,-2.375938e+00,-2.598249e-01,3.344775e-02,4.544370e-01,-1.345850e+00,6.676312e-02,-1.386235e-01,2.331882e-01,-1.437260e-02,-2.121471e-01,-1.138729e-01,-2.325912e-01,-3.936036e-01,3.678192e-01,4.630018e-01,1.445912e-01,3.426418e-01,2.166053e-01,3.762411e-01,2.534167e-01,1.222149e-01,2.000919e-01,3.924648e-01,2.503302e-01,-2.072872e-01,
-3.203703e-02,-1.403668e+00,1.591828e-01,3.398386e-01,-1.197291e-01,-2.667438e-01,8.170018e-02,8.663277e-02,5.896553e-01,-5.095125e-01,-1.153489e-01,1.829810e-01,1.970026e-01,-3.931656e-01,2.111497e-01,-4.409722e-01,-1.632712e-01,3.916645e-01,-4.294890e-01,-2.444180e-01,-1.042879e+00,-1.528482e-01,-1.304218e-01,3.830504e-01,1.656595e+00,-2.396439e-01,2.741873e-01,-3.629318e-01,-6.961302e-02,-3.164339e-02,-7.773451e-03,3.828263e-02,-2.041161e-01,-8.332279e-02,1.068293e-01,-5.824769e-02,-2.722128e-01,1.324458e-01,1.348395e-01,-6.242780e-01,-1.111898e-01,-2.403731e-02,2.303514e-01,-4.848146e-01,1.745144e-01,
3.743989e-01,3.191137e-01,3.107394e-01,1.758709e-02,-2.728178e-02,-1.378605e-01,-2.862221e+00,-5.552754e+00,6.779125e-02,-3.870521e+00,2.154781e-02,3.553462e-02,-5.986799e-03,-5.463716e-02,-1.863623e+00,-3.977676e-02,2.054743e+00,1.198371e+00,-1.210243e-04,1.781749e-01,-8.807223e-01,2.469795e-01,1.783351e-02,4.552212e-01,-4.260774e-01,8.143738e-02,1.750554e-01,-3.416160e+00,-1.804960e-01,-2.681032e+00,-6.896764e-01,-3.205596e-01,1.121033e-02,1.532865e-01,-1.880859e-01,-2.152834e-02,-2.516405e+00,3.701549e-01,6.142020e-01,-6.049744e-01,1.705489e-01,-1.592402e-02,-8.863107e-01,1.863010e-03,-4.588835e-02,
4.066769e-01,-5.180724e-01,2.942368e-01,1.649432e+00,-1.434732e-01,-1.135374e+00,-2.718822e-02,-4.102064e-02,-1.924474e-01,-4.874462e-01,2.503384e-01,-1.415906e-01,7.356755e-02,-7.668045e-01,2.225665e+00,5.036851e-03,-1.991806e-01,2.999085e-01,-2.310185e-01,-6.061827e-02,-1.098210e+00,7.624653e-02,2.766752e-01,-2.178838e-01,-6.212620e-01,-3.227923e-01,1.058702e-01,-2.215316e+00,-2.154776e-01,1.594350e-03,-2.110002e+00,-1.292900e-01,-1.950285e-02,-3.150401e-01,-3.632163e-02,1.411555e-01,9.610138e-03,1.355613e+00,6.592226e-01,-3.836327e-01,1.094289e-01,-1.880074e-02,-8.838661e-02,-1.295316e-02,8.767960e-01,
-8.500153e-02,-2.831996e-01,1.110895e-01,2.462523e-01,1.128271e+00,-2.510729e-01,2.401044e-02,-8.116374e-02,-2.253194e-02,-1.608713e-01,1.226293e+00,5.858661e-01,4.519395e-01,-1.146437e-01,-2.379441e-01,-9.830157e-02,-2.598936e-01,-4.561181e-02,1.340929e+00,-5.120833e-02,-1.197197e+00,-4.633820e-02,1.026680e+00,1.246362e-01,-7.751238e-02,8.946027e-02,-1.873491e-02,-4.354815e-01,1.113406e-01,-5.022560e-02,1.627267e-01,9.431226e-02,-1.187440e-01,4.403130e-02,2.301354e-02,6.056235e-01,-1.577966e-01,1.539358e-01,1.937634e-01,-1.352004e-01,1.579131e-01,-1.006522e-01,9.002654e-02,-2.575307e-02,1.120838e-01,
-2.156908e-01,8.290613e-01,5.538253e-01,-5.024608e-01,7.669087e-02,-6.406193e-03,-8.053634e-01,-7.525153e-02,4.860235e-01,6.597907e-02,1.164844e-01,7.427639e-02,-1.757791e-01,-4.293806e-01,-2.180866e-01,5.330639e-01,-5.457723e-02,-6.731199e-02,-1.484550e-01,-1.203986e-01,9.844954e+00,8.099076e-02,-7.122542e-02,8.460336e-01,-1.493014e+00,7.618545e-01,2.504643e-02,-3.149246e-01,7.751743e-01,-7.346772e-02,1.491150e-01,2.709205e-02,-4.193071e-01,5.455783e-01,-9.944896e-02,2.459712e-01,3.656911e-01,-9.712524e-01,-1.229987e+00,6.164310e-01,-5.422946e-01,-3.393730e-01,6.103969e-01,6.779954e-01,-1.413776e-01,
-1.359532e-02,-4.593357e-01,4.874621e-01,7.983379e-01,-6.910021e-02,6.180068e-01,1.694240e-01,2.574725e-01,1.113406e+00,5.016981e-01,2.294650e-01,-5.598116e-02,1.069126e-02,4.722999e-01,4.123497e-01,1.331499e-01,-3.274757e-01,-4.427491e-01,-2.500745e-01,6.008275e-01,-2.165725e+00,6.220366e-01,-1.476292e-02,7.763418e-01,3.021904e-01,1.739827e-01,6.446368e-01,7.295170e-02,1.599914e-01,1.749276e-01,3.106046e-01,1.926766e-01,2.681802e-01,4.769044e-01,1.321341e-01,-6.035925e-02,1.691028e-01,-2.375441e-01,2.379068e-01,2.683524e-01,-7.073779e-02,1.289628e-02,-6.180297e-02,2.246211e-01,-9.091929e-02,
-5.019281e-01,-2.928825e-01,4.618493e-01,3.473171e-01,6.023325e-01,7.814606e-01,2.938003e-01,-1.222050e-01,3.732967e-02,-1.373133e-01,3.092578e-01,2.475122e-01,5.870652e-01,4.491697e-01,1.824745e+00,1.519820e-02,-5.162787e-01,1.633458e-01,-8.568710e-01,-2.220796e-01,-6.728872e-01,-5.236225e-02,-7.241049e-01,-5.388448e-01,1.370664e-01,3.867273e-01,-3.004967e-01,-5.406966e-01,-1.090473e-01,-1.198601e-01,-1.393960e+00,1.430652e-01,5.966555e-03,4.151230e-02,-4.457800e-02,9.063317e-01,-2.891592e-01,-2.854063e-01,-9.815338e-02,-3.597473e-01,-3.295125e-01,5.138537e-01,-5.088022e-02,-2.523188e-03,-3.236733e+00,
-8.967244e-02,-2.925635e-01,-5.472586e-02,-8.805395e-01,1.948250e-02,-9.718415e-02,-6.397405e-02,-2.788893e-02,1.762511e-02,6.242709e-01,1.947964e-01,-6.942735e-01,2.646541e-01,3.601685e-01,-4.945251e-02,2.322383e-02,2.866885e-01,8.873354e-02,-8.162932e-02,-6.659702e-02,-5.695125e-02,-3.547069e-01,1.389856e-01,-7.632875e-01,-2.635408e-01,1.159248e-01,-2.186269e-01,5.704501e-02,3.016359e-01,-1.966336e-02,9.009953e-02,1.428605e-01,-3.031214e-02,-3.658687e-02,-5.490818e-02,1.743604e-01,-2.900312e-01,2.486199e+00,8.468832e-02,1.306605e-01,-2.317280e-01,-4.214385e-01,1.233452e+00,1.034655e-01,-2.405427e-01,
-1.602331e-01,-3.270178e+00,-4.223011e-01,1.099543e-01,2.217227e-02,1.723772e-01,-9.141577e-01,2.207635e-01,6.426778e-01,2.022456e-01,1.199965e-03,-2.237442e-01,3.320255e-01,5.378089e-01,-4.808989e-01,-3.524992e-01,5.392357e-01,-2.879731e-01,-1.345936e-01,-2.831587e-01,-1.366346e+00,5.032955e-01,-3.197156e-01,-4.745954e-01,-1.327082e+00,2.537002e-01,3.777948e-01,3.533834e-01,-6.561577e-01,2.456612e-01,4.504560e-01,2.244146e-01,-2.665368e-01,-7.839076e-01,1.838640e-02,5.379058e-01,-7.712453e-02,3.499817e-01,-2.626737e-01,3.184026e-01,-3.666135e-02,-4.613623e-02,4.618091e-02,-2.906865e-01,1.321139e-01,
1.475016e-01,
-1.801312e-02,
-5.336435e-02,
-2.643523e-02,
1.747605e-01,
-1.509307e-02,
-2.299738e-02,
6.018970e-02,
-3.733141e-02,
-4.690297e-02,
-1.862663e-02,
-1.800747e-01,
-1.282532e-01,
2.929250e-01,
3.509095e-02,
-4.065708e-01,
-3.027367e-02,
1.054597e-01,
1.160795e-01,
1.552608e-01,
2.266174e-01,
8.903753e-02,
5.742964e-02,
-4.781695e-01,
-1.415809e-01,
-2.102866e-01,
1.002144e-01,
1.712198e-01,
-1.979635e-01,
1.411993e-01,
1.082768e-01,
-2.758603e-02,
1.750944e-01,
-1.291578e-01,
-5.271881e-02,
-6.208171e-02,
8.163755e-02,
3.306625e-01,
1.482808e-01,
-3.755722e-02,
-1.327508e-02,
-1.575982e-01,
-3.220893e-02,
-2.761154e-02,
7.253981e-02,
-1.692802e-02,-4.771367e-02,-1.889102e-02,4.215402e-02,-4.434626e-02,-3.899550e-02,-2.024109e-02,-4.981610e-02,-2.566940e-02,1.539219e-02,3.386360e-02,-4.229899e-02,-2.994717e-02,1.941328e-02,-1.039338e-02,-5.666422e-02,-5.994463e-03,3.337960e-02,-1.168560e-02,2.248478e-02,5.800178e-03,-2.205648e-02,-2.984410e-02,-1.601827e-03,1.407163e-02,-5.425591e-02,-3.422672e-02,1.454763e-02,-4.596017e-02,-5.370866e-02,2.279481e-02,-1.570698e-02,1.528908e-02,9.735554e-03,-5.894523e-02,-2.731082e-02,-4.810651e-02,2.325567e-02,-5.646361e-02,-7.829680e-04,-1.637477e-02,2.077689e-02,2.758756e-04,-3.817854e-02,1.898362e-03,
4.780560e-02,-4.310973e-02,-2.499545e-01,3.049999e-01,4.580650e-01,3.652772e-02,8.499294e-03,4.705223e-01,1.339222e-01,5.260225e-01,8.861858e-01,-2.510260e-01,1.323441e-01,8.147419e-02,3.455786e-01,-1.333469e-01,4.287067e-03,-2.352611e-01,-9.995434e-02,3.251895e-01,-1.991126e-01,-6.345435e-02,3.346207e-01,2.676417e-01,-3.653533e-01,4.043560e-01,-1.859096e-01,-3.066030e-01,2.892825e-01,-1.233864e-01,-4.889457e-03,-2.695157e-02,-1.410483e-01,1.597747e-01,-4.685032e-01,2.688767e-01,2.621531e-01,6.368227e-02,1.296726e-01,-7.921475e-02,5.549991e-01,-2.241467e-01,8.973633e-02,4.869101e-01,-1.939456e-02,
6.877936e-01,-1.812649e-02,-7.347631e-01,4.717673e-01,1.559210e+00,-4.056710e-04,-1.371369e-02,-5.737351e-01,-1.387532e-01,2.174294e-01,-7.016075e-01,-9.395008e-02,4.574318e-01,-6.711867e-01,3.331161e-01,-6.801028e-01,-2.976369e-02,4.640838e-01,2.561237e-01,-1.554804e-01,3.661228e-01,-3.208869e-01,-3.230511e-01,-1.041870e-01,-3.833209e-01,4.823994e-01,9.788856e-01,-1.219594e-01,1.607332e-01,3.134758e-01,1.831383e-01,4.834294e-02,-9.174768e-01,1.351061e-01,-2.368355e-01,-2.509084e-01,-6.041537e-02,-1.470870e-01,6.823830e-02,1.025918e-01,-4.524074e-01,1.808584e-01,3.203471e-01,-3.808851e-01,-1.484278e-02,
4.736680e-01,1.737708e-02,4.521783e-01,-6.525272e-01,-5.612214e-01,3.748797e-02,3.285330e-02,1.081818e-01,-6.785709e-01,1.606514e-01,1.043532e+00,-2.796173e-01,-1.251630e-01,-5.270836e-02,9.461260e-01,3.511572e-01,1.743126e-02,5.431848e-01,-6.278079e-01,2.598997e-01,1.617586e-01,2.036227e-01,-4.377437e-04,1.077675e-01,-1.668429e-01,-7.925932e-01,-9.575844e-01,9.237306e-01,-7.317250e-01,-2.195261e-01,1.541951e-01,9.468575e-02,-4.349190e-01,1.436613e-01,-1.906088e-01,-6.775099e-01,7.082160e-02,-1.789591e-01,2.281790e-01,1.386579e-01,-6.107755e-01,4.090426e-02,1.473541e-01,-3.379936e-01,6.279439e-02,
-3.705425e-02,4.682773e-02,1.103712e-02,2.790850e-02,6.154598e-03,9.304962e-03,1.046694e-02,-4.997116e-02,-4.636555e-02,-3.239118e-02,-4.472042e-02,-1.441520e-02,-9.297949e-03,-9.865188e-04,2.190622e-02,-3.331925e-02,1.700453e-02,-6.215728e-02,-8.643336e-03,-5.830623e-02,-9.166044e-03,2.237053e-02,6.167368e-04,8.134307e-03,-1.487083e-03,-7.988870e-03,-5.817636e-02,1.724371e-03,-6.260591e-02,-1.803754e-02,1.760510e-02,-2.100128e-02,-4.033719e-02,2.186617e-02,1.091560e-02,8.416376e-03,-4.344709e-02,1.193452e-02,-2.620721e-02,-2.573149e-02,2.858751e-02,-3.329635e-02,4.104680e-02,-5.810073e-02,7.969235e-03,
-3.872865e-01,-4.966889e-02,5.635377e-02,4.038103e-01,8.808401e-01,-2.379152e-02,-6.614289e-03,-4.016867e-01,3.514355e-01,-4.770261e-02,8.354319e-01,1.932380e-01,4.335431e-01,-5.484584e-02,-1.645554e-01,7.429197e-01,-5.898098e-02,-8.987370e-02,2.928690e-01,4.265696e-01,1.275404e-01,4.898406e-01,-1.624244e-02,-1.950740e-01,-6.846420e-02,2.664454e-01,3.322083e-01,1.985873e-01,4.315783e-01,2.977255e-01,1.525689e-01,-1.060317e-02,6.703417e-01,-1.066411e-01,1.141867e-01,2.663270e-01,2.421210e-02,-2.000936e-01,1.551840e-01,1.772024e-01,1.153357e+00,-2.377141e-01,1.504958e-02,-2.834550e-01,5.150262e-02,
-5.826350e-01,-4.681904e-02,1.791059e-01,1.917920e-01,-1.208714e-01,-7.704460e-03,-1.376196e-02,2.496966e-01,1.819422e-01,4.360529e-02,-9.254401e-01,-7.869508e-02,4.131928e-01,-1.062553e-01,3.725784e-01,-7.001565e-01,-3.880201e-02,-2.709926e-01,1.322308e-01,-7.787258e-04,7.219297e-01,-6.987742e-02,-3.513568e-02,3.109192e-02,-1.136969e-01,-2.254409e-01,-7.260389e-02,-1.858321e-01,8.998941e-01,1.361425e-01,-1.038088e-01,1.600459e-01,3.698108e-01,1.943155e-01,-2.131938e-02,4.223970e-02,-1.654797e-01,2.041013e-01,2.765974e-01,3.357689e-02,1.412682e-02,-5.435233e-01,-3.825105e-01,3.791983e-02,6.332392e-02,
3.660333e-01,3.079002e-02,-2.229819e-02,5.731693e-02,-9.981436e-02,-3.795418e-02,1.084551e-02,-2.296597e-02,2.051416e-01,1.618074e-01,3.639866e-01,-8.408534e-02,2.411784e-01,8.647767e-01,-5.398243e-01,-3.576811e-02,-4.497588e-02,1.665465e-01,-8.787571e-02,-4.720685e-02,-8.694614e-02,-4.380058e-01,-1.150486e-01,4.539112e-02,3.070613e-02,1.368585e-01,-9.423713e-02,5.779402e-01,8.912846e-02,-1.160896e-01,3.142545e-01,1.257171e-01,-2.827690e-01,3.119060e-02,-1.144346e-01,-7.601910e-01,4.559148e-01,-6.386482e-01,-2.241528e-01,4.762973e-02,-3.675656e-01,-5.259824e-02,-2.325988e-01,-3.544092e-01,5.058200e-01,
-1.366991e-01,-6.937695e-03,1.670252e-01,7.362958e-02,-2.704638e-01,-4.247772e-02,4.932338e-03,-1.989042e-01,7.059179e-02,-5.036322e-03,-1.310957e+00,-1.436727e-01,-3.747310e-01,3.652874e-01,-1.479327e-01,3.392722e-02,-2.828221e-02,1.599969e-02,-2.016182e-01,-6.932756e-02,2.338721e-01,1.191190e-01,-2.312665e-01,2.001351e-02,-8.885815e-02,6.418680e-02,4.416459e-01,3.197919e-01,-3.740964e-04,3.397482e-02,-1.242584e-01,5.752162e-02,1.089362e-01,2.029892e-03,2.207855e-01,-3.971443e-01,-6.608571e-01,2.543475e-02,-8.474236e-02,4.612186e-02,5.662068e-01,-1.156034e-01,2.208220e-01,1.122675e-01,-5.731624e-03,
-3.201227e-01,-1.779417e-02,-2.826912e-01,6.357966e-02,-1.210786e-01,-9.549227e-03,4.614023e-03,1.036105e-02,-3.957983e-01,4.684011e-03,-5.510300e-01,-2.850234e-02,-2.798552e-01,9.026202e-02,-1.421953e-01,-1.159817e+00,-1.708213e-03,-3.429557e-01,-2.406483e+00,-2.485743e-01,1.257433e-01,-3.520827e-02,6.682699e-02,8.700215e-02,-7.420016e-03,3.710938e-01,-1.178808e-01,1.296037e-01,1.878799e+00,3.584121e-01,-8.081031e-03,1.250905e-01,-9.130269e-02,3.615758e-01,3.855733e-02,-3.186846e-01,-8.779222e-02,-4.833126e+00,-6.844898e-01,9.883102e-03,-2.478729e-02,3.027260e-01,-1.092401e-01,-6.463328e-03,4.152854e-02,
-4.745830e-02,-2.935499e-02,8.823862e-03,-4.699295e-02,-4.603763e-02,1.746576e-02,3.519305e-03,-6.506518e-02,3.466453e-02,-5.459859e-02,1.517342e-02,-4.537918e-02,-3.552251e-02,-4.972030e-02,-5.086488e-02,2.723157e-02,1.332635e-02,-4.342067e-02,-4.812476e-02,1.241852e-02,2.528369e-02,-3.279810e-02,-4.854061e-02,-4.202353e-02,-4.242343e-02,-6.278207e-03,-2.651216e-02,-3.810476e-02,-2.972034e-02,1.434164e-03,-5.910458e-03,2.888352e-02,1.536277e-02,-1.205080e-02,-3.768978e-02,-4.944781e-02,-1.030002e-02,3.323542e-02,-7.700877e-03,7.138106e-04,-4.390477e-02,1.845003e-02,7.606580e-03,-2.051198e-02,-8.865336e-03,
-5.133839e-01,1.133895e-02,-1.412699e-01,2.362249e-01,-4.046003e-04,7.504717e-03,-1.301524e-02,9.676486e-03,6.240885e-02,-6.643011e-01,6.494012e-01,3.436703e-01,2.919424e-01,1.412400e+00,7.698451e-03,-1.210060e-01,2.074623e-02,-2.176073e-01,2.094346e-01,1.771666e-02,-7.607418e-02,1.028999e-02,-6.725474e-02,-1.182085e+00,2.876195e-01,-8.733203e-02,4.727954e-02,1.670285e-01,-2.092563e-01,6.562182e-02,-1.561222e+00,5.440219e-01,2.447571e-01,1.973082e-01,1.742683e-01,6.720533e-02,1.334963e-01,1.919848e-01,-4.231571e-01,-1.894417e-01,1.198361e-02,1.420327e-01,7.046341e-01,-1.384825e+00,2.032284e-01,
5.152196e-01,-7.893830e-03,-4.894922e-01,1.835915e-01,1.346257e-01,-4.075983e-02,3.257598e-02,4.120757e-01,1.537377e-01,7.357440e-02,8.249062e-01,5.822653e-02,2.456051e-01,2.038505e-02,-1.221744e-01,-4.767507e-01,1.415828e-02,-4.777986e-01,-1.138374e-01,-6.555445e-01,-2.505060e-01,-8.130630e-02,2.774995e-01,-3.623288e-02,-1.720537e-01,-4.063555e-01,-6.093680e-01,-7.263585e-01,9.338339e-02,-6.165360e-02,4.895334e-02,-1.379427e-01,7.550594e-01,1.321265e-01,-3.896749e-01,-1.459899e-01,5.110933e-01,-1.253033e-01,9.286114e-02,1.188268e-01,4.857601e-01,-1.070289e-01,8.404496e-02,-1.743494e-01,-5.062100e-01,
-2.358844e-02,-2.368439e-02,1.307381e-01,4.765994e-01,2.766839e-01,-2.807101e-03,3.651896e-02,-5.383620e-02,-2.763857e-01,1.650606e-01,-3.151508e-01,1.244698e-02,2.295650e-01,1.821357e-01,-3.397306e-01,-5.336396e-01,-2.041824e-02,-2.522211e-02,-5.297371e-01,1.205139e+00,-1.855800e-01,4.678189e-03,-1.137986e-01,6.654258e-02,-7.429277e-01,2.283925e-02,1.757808e-01,-3.128301e-01,9.310866e-01,3.121121e-01,-4.642761e-03,4.980102e-02,3.195376e-01,-5.979891e-02,-6.513737e-01,4.236435e-01,-3.043455e-01,-5.266384e-01,2.334191e-01,-6.622630e-02,2.011329e-01,-3.796561e-01,-2.823145e-01,-3.774964e-01,5.656745e-01,
4.782961e-01,2.791310e-02,4.787753e-01,9.097649e-03,4.065173e-01,1.045266e-02,-7.546220e-03,2.581654e-01,3.495767e-01,-5.156362e-01,1.239880e+00,-1.475397e+00,3.845650e-01,6.808921e-01,2.219919e-01,-1.344985e-01,-2.983443e-02,2.497428e-01,2.568064e-01,-3.953286e-01,2.791111e-01,-2.193548e-01,2.050312e-02,-2.389293e-02,1.087088e-01,8.001190e-02,1.933283e-01,1.461408e-01,7.016630e-02,1.009900e-01,7.020636e-01,-2.682358e-01,2.758072e-02,-8.276606e-02,4.738244e-02,4.960865e-02,1.335908e-01,1.459318e-01,4.470159e-01,-1.154154e+00,-1.464853e-01,-2.008017e-01,1.990820e-02,1.867014e-01,-1.663827e-01,
-1.937364e-01,-2.122041e-02,1.987807e-01,-7.646985e-02,6.390924e-02,-1.886844e-02,4.104926e-02,1.060619e-01,2.926017e-01,-1.810081e-01,8.724707e-01,-2.602959e-01,-1.176907e-01,-1.099794e+00,-3.444293e-01,2.221929e-01,8.946211e-03,8.292621e-02,-3.383112e-02,1.990323e-02,-1.197184e-01,-9.206739e-02,1.106542e-01,7.546113e-02,-4.504179e-01,-5.776277e-02,5.533564e-01,3.589023e-01,-4.122303e-01,-1.757676e-01,2.825885e-01,-9.763728e-02,2.328669e-01,-4.369987e-02,4.254015e-01,-1.052103e-01,3.645512e-01,-2.354556e-01,-5.499468e-01,-1.130769e-02,1.541092e-01,-1.682967e-02,7.521513e-01,-1.361656e-01,1.834254e-01,
-1.991532e-02,-4.483551e-02,-3.091726e-02,-3.636466e-02,3.842010e-02,-3.847026e-02,4.265017e-02,1.436559e-02,-1.508863e-02,1.541587e-02,2.850743e-02,-1.911900e-02,2.660053e-02,5.802144e-03,-3.376764e-02,-1.190337e-02,-2.028382e-02,-3.472043e-02,-3.435606e-02,-1.692349e-02,1.826551e-02,-4.481706e-02,-3.895340e-02,1.963614e-02,4.270136e-02,-3.496213e-02,-3.988190e-02,1.031529e-02,-4.172069e-02,1.782136e-02,-3.852023e-02,-4.814199e-02,-2.270627e-02,-4.863362e-02,-2.280780e-02,-1.748648e-02,-4.637460e-02,-8.272038e-03,8.896934e-03,-4.182616e-02,1.953987e-02,-4.394953e-02,-1.656709e-02,2.137466e-02,-2.735806e-02,
-3.857978e-02,-3.784117e-02,-5.885151e-02,-2.779372e-02,-5.630881e-02,-2.606825e-02,3.229238e-02,-2.688976e-03,-5.254175e-02,-7.101152e-02,2.481539e-02,1.133587e-03,1.249387e-03,1.286479e-02,-6.463451e-02,-2.899900e-02,2.284064e-02,-1.231744e-02,2.714382e-02,-2.979509e-02,2.273414e-02,2.055371e-02,-5.042672e-02,8.307551e-03,1.497263e-02,-6.139879e-03,-3.260610e-02,1.839663e-02,2.810593e-02,-5.078556e-02,2.096777e-02,2.288110e-02,-1.159727e-02,-1.237354e-03,-1.264260e-02,-2.992199e-02,-5.027172e-02,-3.779335e-02,-7.157156e-02,-2.252621e-02,-8.417854e-03,-1.218521e-02,-2.582006e-03,-6.215871e-02,1.760340e-02,
-1.302401e-01,-1.389130e-02,-3.264773e-01,1.702979e-01,2.130683e-01,1.440910e-02,-9.182902e-03,2.729205e-01,1.585475e-01,6.798222e-02,-6.816322e-01,-1.439959e-01,-4.022622e-02,6.488943e-01,-9.482057e-02,-2.550315e-01,-6.382307e-03,7.033995e-02,3.780535e-03,2.143033e-01,-4.154738e-01,4.846199e-01,1.239535e-01,-2.196498e-01,-1.688155e-02,3.070051e-01,7.122942e-02,4.950877e-01,6.042712e-01,2.053459e-01,2.537151e-02,-1.511209e-01,-1.974526e-02,2.651528e-02,-4.962015e-01,-1.280369e-01,3.885529e-01,1.126743e-01,1.423846e-01,3.239662e-01,-2.704684e-01,-1.634258e-01,4.080530e-01,-9.890067e-01,2.226451e-01,
-3.865516e-01,4.193306e-02,2.864013e-02,1.160130e-01,8.856133e-01,4.412498e-02,-8.530919e-03,3.910487e-01,4.987433e-01,-1.085926e-01,5.178340e-01,2.271082e-01,5.503790e-01,1.624427e-01,1.030383e+00,-7.459624e-01,-1.223610e-03,-3.285446e-01,5.017822e-01,1.579574e-02,1.803938e-01,8.239949e-01,-2.281631e-02,-2.638896e-01,5.671083e-01,8.460531e-02,-2.081744e-01,-7.898711e-01,5.668257e-01,2.192970e-01,-1.471962e-01,4.666978e-02,-6.109180e-02,2.532646e-01,3.050718e-01,1.700023e-01,3.251143e-01,-6.841557e-02,-2.217441e-01,1.029011e-01,-4.298384e-01,-1.589061e-01,5.128789e-02,-6.567206e-01,2.646204e-03,
-5.592926e-01,1.972384e-02,3.223203e-01,5.650895e-02,-2.428464e-01,4.742880e-02,-9.801673e-03,7.412139e-02,-2.152544e-01,-9.365929e-02,3.300184e-01,1.585004e-01,1.532072e-01,2.518781e-01,-3.366553e-01,-1.255763e+00,5.424931e-03,-7.091935e-01,-1.213321e+00,3.916848e-01,-4.459037e-02,-4.730863e-01,-8.703548e-02,-5.599620e-02,-4.569094e-02,3.131723e-01,-6.940331e-02,-1.057933e-01,1.619356e+00,4.532818e-01,-2.517785e-01,4.156388e-02,-1.150316e-01,4.430850e-01,5.567591e-02,-4.742000e-01,-1.708397e-01,1.728654e-01,6.554306e-02,-2.376416e-02,-1.725220e-01,-1.298780e-01,-3.274247e-01,-2.464007e-01,5.988455e-01,
-4.746816e-02,-2.788160e-02,9.288751e-03,-5.067864e-02,1.191219e-02,1.782280e-02,4.607255e-02,-7.591320e-03,-3.404308e-03,-4.423553e-02,1.743476e-02,5.878740e-03,-4.877944e-02,-9.990595e-04,-3.995273e-02,2.138775e-02,4.171170e-02,-3.381815e-02,2.656829e-02,-4.214951e-03,2.207292e-02,4.055276e-02,3.946314e-03,-3.733529e-02,4.365806e-02,-1.390466e-02,-1.572586e-02,-4.510064e-02,-4.961957e-02,-2.957476e-02,1.706457e-02,-3.199852e-02,-1.739651e-02,-1.965490e-03,-4.716846e-02,1.011448e-02,-3.440127e-02,4.166651e-03,2.914009e-02,-2.754983e-02,9.973847e-03,1.400242e-03,-2.104334e-02,6.327739e-03,1.375976e-02,
5.560454e-01,-3.596050e-02,3.725950e-01,2.690256e-01,5.858772e-01,-5.935604e-03,-1.915550e-02,4.977420e-01,6.031293e-01,9.601126e-01,-1.553406e+00,-1.564282e+00,8.150960e-01,2.837502e-01,6.759782e-01,-3.486087e-01,4.651469e-05,1.824467e-01,-1.078887e+00,-6.272123e-01,5.447614e-02,9.769812e-01,-1.195127e-01,2.137817e+00,-1.889109e-01,1.160712e-01,2.143514e-01,2.755193e-03,3.774466e-02,1.334172e-02,6.077514e-01,-1.744655e-02,1.087402e-01,2.338512e-02,6.161938e-02,-1.730707e-01,8.641847e-02,5.109660e-01,2.342974e-01,-7.268668e-01,3.749246e-01,-1.656957e-01,7.235821e-01,9.351667e-01,-3.363113e-01,
8.557738e-02,-9.871750e-03,1.531092e-01,8.918108e-02,-5.093366e-03,5.286349e-03,-2.814425e-02,-5.864811e-02,7.773375e-02,1.248916e-01,3.025814e-02,-1.993330e-01,5.200615e-02,3.976115e-02,1.606401e-01,7.266657e-03,4.584143e-04,3.803666e-02,-2.064103e-01,2.536622e-01,-2.546870e-02,9.872801e-02,7.988700e-02,6.844890e-02,-2.172490e-01,3.693040e-03,-1.523138e-02,-3.081663e-02,-3.841830e-02,-3.156670e-02,-2.726731e-02,-2.842363e-02,4.440369e-02,-1.949555e-02,-4.687996e-02,2.691496e-04,-2.033539e-02,-1.127969e-01,-1.411995e-02,-1.889424e-01,3.809875e-02,-5.312304e-02,1.216463e-01,7.934331e-02,1.020472e-01,
3.362219e-02,-4.521095e-02,-4.088903e-03,-3.839159e-02,-3.781825e-02,1.785760e-04,2.770521e-02,-4.640006e-02,-4.553376e-02,-4.260737e-02,-1.266205e-03,3.353440e-03,-2.292278e-02,-2.097509e-02,-4.818426e-02,-3.809068e-02,-2.158098e-02,-4.058181e-02,1.025303e-02,2.023866e-02,-4.874046e-02,7.895702e-03,-5.118430e-02,2.360367e-02,8.818149e-03,-3.054404e-02,-2.698022e-02,2.405243e-02,2.651196e-02,2.164550e-02,-2.641534e-02,-3.895528e-02,3.079626e-03,3.145341e-02,-4.897599e-02,2.412025e-02,1.944594e-02,1.886231e-02,-2.828790e-02,-2.698253e-02,3.347473e-02,-4.069040e-02,-4.894380e-02,2.237817e-02,-5.198054e-02,
-2.295341e-02,1.002942e-02,1.122517e-01,5.948548e-01,-1.251429e-01,-4.165508e-02,-2.573899e-02,1.032001e-01,1.556177e-01,-2.653554e-02,-3.245263e-03,5.879745e-02,-5.275575e-02,-1.455504e-01,3.522979e-01,-1.690075e+00,3.211314e-02,-2.055757e-01,-2.691956e+00,8.788496e-02,-5.491960e-02,5.924107e-01,2.301927e-01,3.991559e-02,5.220726e-02,1.228691e+00,-4.811803e-02,-2.911506e-01,1.815962e+00,7.270551e-01,4.825217e-02,6.485351e-03,4.537307e-02,1.123230e+00,1.839873e-01,1.102953e-01,5.343181e-02,-3.707360e+00,2.158462e-01,-2.946208e-02,2.655947e-01,3.822394e-01,-4.573608e-03,-7.211116e-02,-8.189461e-02,
-2.251320e-02,-3.259177e-02,-1.039430e-01,1.729134e-02,6.662362e-02,3.872734e-02,-1.748835e-02,-3.634240e-02,-3.153065e-01,-2.182710e-02,2.195960e-02,3.500749e-02,1.323714e-02,-7.757990e-03,2.901969e-02,1.021696e-01,-3.368825e-02,3.632905e-02,-4.977714e-02,1.138959e-01,-8.718104e-02,-4.215572e-02,-5.634330e-02,2.106333e-02,9.454307e-03,-3.738143e-02,-1.220590e-01,-2.836101e-02,-5.877873e-02,1.160596e-01,1.241171e-02,-1.084962e-01,-1.764657e-01,1.347355e-01,1.024582e-02,1.207290e-02,-1.490064e-01,2.524148e-02,-5.688734e-03,-3.640291e-02,-9.613837e-02,1.434370e-02,4.392344e-03,2.835670e-02,-8.283185e-02,
-1.507729e-02,3.850537e-03,-3.805873e-02,-3.782041e-02,-3.383144e-02,2.508252e-02,7.554819e-04,4.923480e-03,-1.203616e-02,-4.554076e-02,-3.938386e-02,-4.340286e-03,-2.805324e-02,-3.711892e-02,-4.797838e-02,1.619182e-02,-2.938699e-02,-1.911316e-02,3.768367e-02,-1.914628e-02,2.964743e-02,2.916637e-03,1.467650e-02,-4.965347e-02,-3.829242e-03,-2.834939e-03,-3.467096e-02,-2.926532e-02,-3.066990e-02,-1.423282e-02,2.759570e-02,2.315217e-02,-2.184818e-02,-1.541951e-02,-3.968291e-02,-4.845543e-02,-3.073535e-02,-2.366037e-02,-1.231813e-02,-3.513233e-03,-4.511560e-02,-3.280941e-02,-1.767402e-03,1.597265e-02,-1.746942e-02,
-4.514705e-02,2.605199e-02,2.668982e-01,1.099114e-01,-6.360962e-01,-3.716760e-02,-1.541109e-02,2.442322e-01,-8.886488e-02,-1.845132e-01,-3.031876e-02,-1.779869e-01,2.203577e-01,-5.722268e-02,9.270955e-01,-4.145996e-01,-1.017596e-02,4.581766e-01,9.892474e-01,-7.792719e-01,-1.777091e-02,-9.672282e-01,4.027848e-01,-3.087208e-02,2.569482e-01,2.520538e-02,2.123904e-01,4.506592e-01,4.184934e-01,-2.166568e-02,-3.917471e-03,1.071980e-01,-4.823688e-03,1.769652e-01,-3.778092e-02,-2.986219e-01,-6.750001e-01,1.027055e-01,4.807983e-02,5.717849e-02,-3.548180e-01,-1.070729e-01,-5.928915e-02,9.251932e-02,-1.246450e-01,
6.501237e-01,-4.250456e-02,-3.199830e-01,-1.400967e-02,-3.374018e-01,-4.605008e-02,5.557829e-03,4.554477e-01,1.897524e-01,6.056963e-01,1.200578e-01,1.276806e+00,7.953287e-01,-3.440089e-01,4.813012e-01,-9.981961e-02,1.941544e-02,-6.385477e-03,-8.326722e-01,-1.207056e-01,3.863599e-02,1.980225e-01,1.945583e-01,-2.325266e+00,3.292758e-01,7.175726e-01,1.182995e-01,2.957709e-01,8.968889e-01,1.675210e-01,-1.429467e-01,5.849262e-01,3.276123e-01,6.993669e-01,3.994290e-01,-5.987703e-01,6.586885e-01,-6.814980e-01,5.426518e-01,1.123953e+00,6.304243e-01,7.779498e-01,5.770888e-01,1.276709e-01,-4.167810e-02,
5.114523e-01,2.238435e-02,-2.189978e-01,-1.478281e-01,-9.570821e-01,-1.775764e-02,-1.902650e-02,4.510265e-01,-1.962596e-01,1.765835e-02,3.901005e-01,-2.026859e-01,-4.413235e-02,-2.212896e-02,4.384134e-01,-8.142727e-01,-4.805174e-02,3.569720e-01,-5.614448e-01,-4.761889e-01,2.285589e-01,1.358306e-01,7.206811e-03,3.030929e-01,2.494353e-01,9.034154e-03,6.185430e-03,-7.210177e-02,9.369103e-01,3.026969e-03,-2.246484e-01,1.731675e-01,-2.311208e-01,1.831779e-01,1.465316e-01,-9.081458e-02,-4.502681e-01,-3.639716e-01,-7.068683e-01,-5.567110e-02,-2.815931e-01,-4.424014e-02,-1.873937e-01,3.747143e-01,3.288158e-01,
8.494282e-01,-1.767923e-02,1.120242e+00,-5.523746e-02,8.374455e-03,-4.639821e-02,-5.680135e-03,2.803795e-01,-2.249993e-01,9.274932e-02,1.055169e+00,2.154542e-02,3.801903e-01,-2.965418e-01,-1.033210e+00,-6.663858e-01,-1.550761e-02,-1.447559e-01,7.469246e-01,-2.836021e-02,1.810511e-01,7.437577e-01,-5.709317e-02,-9.175133e-02,-1.117948e-01,4.549897e-01,2.917841e-01,8.451400e-01,1.097903e+00,6.158754e-01,3.441458e-02,-8.950619e-02,2.799728e-01,3.365724e-01,1.961399e-01,4.634407e-01,2.136485e-02,-6.089202e-01,9.671697e-01,-5.762742e-02,-3.949073e-01,3.481861e-01,3.302329e-01,-1.105459e-01,4.039217e-02,
3.059558e-01,2.117404e-02,5.114735e-01,7.143965e-02,5.514330e-01,-2.405275e-02,5.904103e-02,2.771545e-01,-9.184785e-02,-1.497963e-01,-6.619656e-01,-8.893444e-01,-8.930071e-02,7.473540e-01,-8.008258e-01,-8.236470e-02,1.871246e-03,2.824176e-01,-3.911782e-01,9.738930e-02,2.474144e-02,3.835943e-01,-1.245557e-01,1.782716e+00,-4.041271e-01,1.062530e-01,2.452105e-01,2.449065e-01,1.955132e-01,2.555212e-01,6.548775e-01,-1.160777e-01,-7.094274e-02,-1.562857e-01,1.608177e-01,5.794315e-01,2.409835e-01,4.183395e-01,-3.228653e-01,-4.061801e-01,8.261093e-02,-3.961764e-01,1.837032e-01,1.746726e-01,2.186987e-02,
2.429352e-02,-2.630056e-02,-3.622060e-02,-3.543033e-02,-3.800691e-02,-3.201512e-02,4.631250e-02,-3.576956e-02,-2.644136e-02,-6.059096e-02,-2.710471e-02,-5.442576e-02,1.442542e-02,-1.805942e-02,-5.809867e-02,-5.053599e-02,-1.321160e-02,-5.264857e-02,-1.786793e-02,3.650856e-03,-4.466208e-02,-1.646344e-02,1.313105e-02,2.847414e-02,2.079487e-04,-3.060192e-02,-1.577872e-02,-3.883176e-02,-2.584223e-02,3.109492e-02,3.482588e-02,-5.977146e-02,2.481685e-02,-7.478500e-02,1.938858e-02,1.356578e-02,-1.795974e-02,-2.377932e-02,-6.064006e-02,6.448390e-03,-5.565336e-02,-2.504274e-02,-1.896892e-02,4.409370e-03,-8.420385e-03,
-7.535911e-01,-4.522271e-02,8.598221e-02,3.283317e-01,1.503269e+00,4.283325e-02,3.010420e-02,-4.964967e-01,-5.292103e-01,-1.493872e-01,-3.238311e-01,2.863580e-02,-2.357284e-01,-3.318041e-02,6.532048e-02,-8.410447e-01,3.997234e-02,-1.544039e-01,-2.038157e-01,-1.697773e-03,-1.689792e-01,6.110455e-01,4.852599e-01,1.400812e-01,4.928873e-02,4.839076e-01,1.171581e+00,5.853873e-01,1.222739e+00,6.054763e-01,2.115728e-01,-1.661640e-01,1.444156e-01,4.067091e-01,1.429403e-01,-2.876512e-01,6.624043e-01,-1.814518e-01,-2.537200e-01,1.787976e-01,1.188571e-01,-5.364935e-02,-1.247411e-01,4.466001e-02,9.488721e-02,
3.699022e-01,3.574028e-02,1.817993e-01,5.707038e-01,-2.126799e-01,-2.080932e-04,-2.700100e-02,3.827945e-01,-2.998343e-01,4.306184e-01,9.240181e-02,6.984877e-02,2.788050e-02,-4.737018e-01,-8.287284e-01,-4.679854e-01,-1.118590e-02,1.914811e-02,1.843098e-01,4.776549e-01,2.930355e-01,2.999142e-01,-9.187006e-02,-2.995354e-01,1.618552e-01,-2.354198e-01,-1.177354e-01,5.349568e-01,8.041864e-03,-6.667285e-02,2.567849e-01,-4.630571e-02,-3.068551e-01,1.449987e-01,1.838572e-01,3.537060e-03,2.128853e-01,6.446719e-02,1.691444e-01,1.096321e-01,1.820849e-01,2.212545e-01,4.262248e-01,-1.407463e-01,-9.070221e-02,
-1.188429e+00,-1.013122e-02,-4.388466e-01,-4.043812e-02,2.583190e-01,-1.880062e-02,-9.364447e-03,3.702289e-01,1.581264e-01,3.176137e-01,4.429788e-01,1.413618e+00,3.391880e-01,-4.542336e-01,-2.177665e-01,-5.090094e-01,-3.254237e-02,-3.611868e-01,-5.074916e-01,1.402109e-02,-1.132259e-03,-6.893869e-02,8.584642e-02,-1.659622e+00,2.218581e-01,3.747736e-01,2.656350e-01,5.081708e-03,8.069201e-01,-4.707593e-02,-1.530411e-02,2.896350e-01,7.624177e-02,3.620718e-01,-8.505252e-02,-5.922399e-01,3.116918e-02,1.202908e-01,-2.396563e-01,1.091983e+00,2.498569e-01,1.939783e-01,-9.393349e-02,-9.669272e-02,1.936898e-02,
1.515017e+00,3.472242e-02,2.475792e-01,-2.147404e-01,2.244614e-01,-1.560285e-02,-3.097448e-02,-1.634631e-01,2.681471e-02,1.134256e-01,-1.127357e+00,-6.693654e-02,9.181120e-02,-1.168788e+00,-1.026270e-02,3.392718e-01,1.489904e-02,-4.433430e-02,1.793390e-01,2.466520e-01,-4.590496e-02,8.038965e-02,-2.623936e-01,-6.957103e-02,1.627620e-01,-6.270916e-02,1.396685e-01,-1.470889e-01,-2.701179e-02,5.295515e-02,-7.183836e-01,-1.000247e-01,1.229338e-01,3.461248e-02,-1.866632e-01,2.721639e-01,1.047959e-01,1.948016e-01,8.915697e-01,-1.034814e-01,6.647781e-02,3.265015e-01,5.759696e-01,1.574776e-01,1.995635e-01,
-1.145440e+00,4.309081e-02,-3.998026e-02,5.747082e-01,4.610052e-01,4.147173e-03,-3.179253e-02,2.305871e-01,6.286062e-01,3.683060e-01,8.907482e-01,1.137296e-01,5.459116e-01,2.398180e-02,-1.446498e+00,-4.617652e-01,-4.269171e-02,-3.653637e-01,5.787691e-01,5.842038e-02,9.905598e-02,2.437359e-01,-1.643127e-02,-1.143771e-01,-1.614851e-01,2.553126e-01,5.137571e-02,-5.536348e-01,4.363504e-01,2.499236e-01,-1.088191e-01,1.317367e-01,-1.789626e-01,3.463689e-01,-8.922255e-04,5.754142e-01,5.767741e-01,-1.519662e-01,-6.699335e-01,1.064585e-01,-4.466084e-01,1.225878e-01,-1.192397e-01,-7.236234e-01,5.392995e-01,
-3.982344e-01,1.660243e-02,1.220564e-01,4.824869e-01,2.881659e-02,5.205064e-03,-3.605016e-02,3.851797e-01,-4.925669e-01,1.078797e-01,8.316214e-01,1.144940e-01,-3.110051e-01,-3.320569e-02,2.263306e-01,-1.073689e+00,-2.445891e-02,6.881260e-02,3.255993e-01,-6.172619e-01,-4.339775e-01,-4.018401e-02,1.092858e-01,-1.977235e-01,-4.155613e-02,7.424830e-01,-2.171739e-01,-7.185438e-01,4.209442e-01,3.050213e-01,5.492754e-02,-1.166229e-01,-3.314849e-01,3.965302e-01,-1.130341e-02,-1.869192e-01,3.179646e-01,-8.889850e-01,3.203162e-01,9.039226e-02,2.839859e-01,1.237852e-01,3.603962e-02,2.557927e-02,-6.079174e-01,
4.427702e-01,2.834842e-02,1.051374e+00,1.701683e-01,6.265090e-01,-3.020669e-04,3.761737e-02,4.810361e-01,6.911048e-01,2.048512e+00,-4.890001e+00,-1.005067e+00,2.898300e-01,2.601037e-01,5.075531e-02,-1.445558e-01,1.943005e-02,2.400734e-01,7.448198e-01,3.304586e+00,-2.443711e-01,3.907312e-01,4.534200e-01,1.359339e+00,1.212444e+00,3.134235e-03,6.592706e-01,4.918479e-01,3.561882e-01,-2.052479e-01,3.000659e-01,-4.641421e-01,-2.744587e-01,-1.634366e-02,3.745747e-01,7.192889e-01,2.554581e-01,3.537280e-01,-3.436617e+00,-7.189663e-01,-6.554949e-01,-2.336427e-01,1.049402e+00,5.034173e-01,6.880886e-01,
8.022095e-01,2.790955e-02,5.991793e-01,5.367016e-02,4.515462e-01,-4.460141e-02,5.486353e-02,2.439150e-01,1.587152e-01,2.697339e-02,7.807285e-01,-1.768583e+00,-1.657569e-01,-1.777428e-01,4.833589e-01,-4.535251e-01,-1.624172e-02,2.440677e-01,6.732719e-02,4.163830e-01,1.771592e-01,1.600792e-01,3.806675e-01,-1.005161e+00,-6.305965e-02,9.828523e-03,2.339589e-01,5.721103e-02,2.330956e-02,3.275954e-01,4.067584e-01,-4.756541e-01,3.058835e-01,-1.573740e-01,3.235264e-02,1.829306e-01,3.634564e-01,8.477417e-02,4.996816e-01,-1.036457e+00,1.331717e-01,-3.124950e-03,-7.083641e-01,-9.538882e-02,1.751112e-01,
2.635331e-01,-1.484592e-02,-1.938479e-01,4.722726e-02,8.246050e-01,3.535708e-02,-1.956117e-02,3.727664e-01,4.962736e-01,-2.549500e-01,1.305734e-02,4.139101e-01,-2.194057e-01,-1.391906e-01,7.706843e-01,-3.190766e-01,3.567135e-02,-3.394165e-01,-1.271703e-01,-6.065533e-01,1.714323e-01,-1.372619e-01,4.220387e-02,-5.305095e-01,-7.743188e-02,7.183094e-01,7.270388e-02,-3.664121e-01,1.032203e+00,2.303360e-01,2.930012e-01,1.705808e-01,-7.207540e-02,4.659710e-01,-1.572433e-01,-8.790891e-01,-6.957866e-02,-4.083712e-01,3.128809e-01,3.528140e-01,-1.063809e-01,2.957454e-01,-2.531699e-01,1.468887e-01,2.252519e-01,
3.727882e-01,-3.501956e-02,4.827407e-01,2.298022e-01,4.141666e-02,3.598655e-02,3.362321e-02,3.353770e-01,1.289073e-02,1.192629e-01,2.169163e-01,-8.548803e-01,1.349651e-02,2.687029e-03,3.950570e-01,-3.612650e-01,-4.831820e-02,1.818731e-01,6.393290e-01,5.566726e-01,1.027199e-02,-9.098144e-02,1.706566e-01,-1.894516e-01,-1.301768e-01,3.853372e-02,2.071080e-01,-4.359743e-02,2.414199e-01,9.623566e-02,6.098766e-01,1.085725e-01,5.415462e-02,1.544272e-02,1.610535e-01,5.476501e-01,2.735831e-01,-1.023852e-01,1.887959e-01,-3.095441e-01,-8.079943e-02,-2.156560e-01,-1.192825e+00,5.523762e-01,-3.987548e-02,
-5.592813e-02,-4.516152e-02,-2.265913e-02,-2.585075e-02,-3.132490e-02,-1.902931e-03,4.385208e-02,-7.079308e-02,2.470073e-02,-5.250639e-02,4.129954e-02,1.509856e-02,-6.980416e-03,-1.967627e-02,-3.832212e-02,1.471184e-02,-3.358681e-02,1.096771e-02,2.000530e-02,-7.479527e-03,-1.087881e-02,-1.104489e-02,-4.194460e-02,-3.975775e-03,-4.446697e-02,3.382439e-02,-4.402547e-02,-3.407020e-02,-1.264793e-02,5.232777e-03,1.660746e-02,2.479869e-02,-2.645036e-02,9.983882e-03,-4.755560e-02,-1.407575e-02,-1.798570e-02,-5.572933e-02,2.834625e-02,-9.055672e-03,-5.166413e-02,5.164632e-04,-3.188469e-03,2.112191e-02,-5.489828e-02,
-1.415302e-02,
-2.926859e-02,
2.278799e-01,
2.544259e-01,
-1.049218e-02,
-2.493844e-01,
-6.388807e-02,
8.891067e-02,
-3.598820e-02,
-1.683957e-02,
-2.123350e-02,
-1.573188e-01,
2.665826e-01,
-5.278262e-02,
-1.230065e-01,
2.910923e-01,
-7.911753e-03,
-3.116705e-02,
-4.206651e-01,
-1.606604e-01,
-1.725795e-02,
-9.202375e-03,
-3.209286e-01,
-1.196184e-01,
-2.236816e-02,
-2.411876e-01,
-4.134816e-01,
-1.278549e-02,
1.231336e-01,
5.016854e-03,
7.527431e-02,
5.217527e-03,
-1.791697e-01,
-2.716149e-02,
-7.615273e-02,
-4.990971e-02,
1.219719e-01,
3.475426e-01,
9.018096e-02,
2.810234e-01,
-5.593711e-01,
5.119116e-01,
-6.957747e-02,
-1.247233e-01,
-3.863896e-02,
-4.901814e-02,-6.583821e-02,-5.428595e-02,1.673182e-02,2.286316e-02,-4.740402e-02,-5.312232e-02,-6.036523e-03,-4.794453e-02,2.037619e-02,-4.055271e-02,-5.072981e-02,-2.205474e-02,-5.507739e-02,-6.740329e-02,-1.162272e-02,4.492866e-02,3.584513e-02,-5.418649e-02,-5.087416e-02,-4.519470e-02,1.902816e-02,2.385094e-02,-1.837877e-02,3.153000e-02,-3.099971e-02,2.998103e-02,-4.357383e-02,-4.556816e-02,2.886075e-02,1.020741e-02,1.502211e-02,-1.294404e-03,3.535905e-02,-7.203459e-02,-4.599347e-02,5.993380e-03,-4.486555e-02,1.045799e-02,-2.463399e-02,-5.526443e-02,2.182882e-03,-5.866624e-02,2.146739e-02,2.105646e-03,
-1.750057e-03,2.443787e-01,-3.641401e-01,4.416772e-01,-4.176326e-02,6.795953e-04,-2.822762e-01,3.972174e-01,-7.407483e-01,1.457711e-01,-4.293011e-02,5.466142e-01,2.065124e-01,2.229550e-01,-8.099734e-02,-4.559754e-01,-1.155643e-02,-1.143501e-02,1.082552e+00,1.932545e-01,1.537094e-01,4.327738e-03,-8.327257e-02,1.885744e-01,1.677943e-03,1.154395e-01,1.519833e+00,-1.820697e-02,-1.799277e-01,1.324304e-01,-2.340830e-01,1.174049e-01,4.035735e-01,-4.546556e-03,-3.843930e-01,9.571873e-01,-4.368664e-01,3.825924e-02,-7.104604e-02,-1.501060e-01,2.868936e-01,-1.590766e-01,-3.188277e-01,-4.399724e-01,-2.528035e-02,
-1.293328e-02,-2.341040e-01,-2.118659e-01,-3.954081e-02,-6.008238e-02,-1.806448e-01,1.011753e-01,5.699729e-01,-1.078497e+00,-2.417731e-01,6.535633e-03,1.674718e-01,5.260361e-01,2.187157e-01,2.742984e-02,1.472181e-03,-4.416886e-02,-2.496065e-02,3.098108e-01,5.976902e-02,-1.536783e-01,-4.594468e-02,-1.519862e-01,-6.004434e-02,1.278517e-02,6.454670e-02,-3.546394e-01,3.060579e-02,1.327243e-01,-5.790353e-02,3.683622e-03,-2.007256e-01,1.340748e-01,3.211552e-02,1.655091e-01,-1.642144e-01,-9.391426e-05,2.776996e-01,5.996165e-01,1.865741e-01,4.306747e-02,-1.381298e-01,1.814588e-01,2.072973e-01,2.475513e-02,
4.379708e-02,3.513818e-02,-4.487002e-02,-1.113853e-02,4.504366e-02,-6.388405e-02,-2.908174e-02,-2.003849e-02,-1.418069e-02,-4.773445e-02,1.439474e-03,1.085272e-02,-4.631501e-02,-5.654384e-02,3.574694e-02,1.563131e-02,2.748221e-02,-3.303232e-02,-7.388573e-02,1.406279e-02,-7.357907e-02,-3.070945e-02,-6.883685e-02,-3.932034e-02,-1.449548e-02,-2.343197e-02,3.508800e-02,-2.076976e-02,-4.527420e-02,3.275200e-02,-5.242235e-02,-3.546396e-02,1.115512e-02,2.797135e-03,2.394915e-03,7.252615e-03,-1.580603e-02,2.172807e-02,-5.993544e-02,3.274696e-02,-6.410757e-02,-4.887517e-02,-2.488077e-02,4.291174e-02,-4.264893e-02,
3.132559e-02,4.595331e-01,1.904631e-01,2.543969e-01,7.875370e-03,8.926202e-02,-1.716667e-02,1.771878e-01,3.759843e-01,1.630222e-01,4.225764e-02,-3.498209e-01,-1.912647e-02,-1.789163e-01,5.279807e-01,1.063259e-01,-2.515832e-02,4.330128e-02,5.173863e-01,4.936638e-01,1.989241e-01,-3.521350e-02,1.588578e-01,1.193673e-01,1.360228e-02,3.535542e-02,7.946104e-01,1.290962e-02,-1.440094e-01,-1.696351e-01,1.869564e-01,1.555670e-01,2.730221e-01,2.029231e-02,-1.970896e-01,2.427922e-02,-3.690197e-01,1.521478e-01,-6.415637e-01,1.060340e-01,2.610169e-01,1.208867e-01,-8.284017e-02,8.055414e-01,-1.523668e-02,
2.506528e-02,-9.569298e-03,-2.486082e-02,-8.579374e-03,1.515345e-02,8.819901e-04,-2.251052e-02,-2.350098e-02,2.433897e-02,1.085052e-02,-1.599022e-02,-7.794204e-03,3.202854e-02,-1.205523e-02,-3.886630e-02,-3.573975e-02,3.359126e-02,2.289341e-02,-1.268880e-02,-2.196630e-02,2.376212e-02,3.081818e-02,-1.126971e-02,-3.965405e-03,-4.491542e-02,1.550998e-02,-3.621749e-02,3.632604e-02,-2.270541e-02,-2.598669e-03,-3.736207e-02,-4.373534e-02,-3.092546e-02,-4.466856e-02,-4.030178e-02,-5.681106e-02,6.300326e-03,-3.781990e-02,-1.413544e-02,8.395220e-03,4.250814e-02,-4.354195e-02,-2.079408e-02,-1.950836e-02,-4.628894e-02,
3.859586e-02,6.544612e-03,2.897494e-01,6.972245e-01,-3.261196e-02,-3.102013e-01,2.729741e-02,4.631811e-02,3.395208e-01,-1.580451e+00,4.101091e-02,2.034102e-02,7.983486e-02,-2.436833e-01,1.667752e-01,3.332309e-01,-3.558630e-02,3.674593e-02,-1.788409e-01,-1.681709e-01,-6.903826e-01,-1.606998e-03,2.238084e-01,3.317517e-02,2.219465e-02,-2.182981e+00,1.730436e-02,-4.121312e-02,9.770536e-02,3.482567e-03,1.612932e-01,-3.188212e-01,9.822946e-02,2.395857e-03,1.821729e-02,8.404880e-02,2.246864e-02,8.550221e-02,-1.857632e-02,8.241228e-02,1.088363e+00,7.173306e-02,-1.933550e-01,-1.517284e-01,4.904676e-02,
1.252502e-02,3.843188e-02,-1.401264e-01,-3.679586e-01,-5.866730e-03,5.113192e-02,-2.438123e-01,7.105749e-01,-3.709566e-01,1.054978e-01,4.284355e-02,5.275632e-01,1.271067e-02,1.189287e-01,6.125562e-01,-1.443849e+00,1.341859e-02,4.012724e-02,-9.714126e-02,-5.826923e-02,-2.682144e-02,3.896379e-02,-3.178409e-02,-6.664396e-02,3.209914e-02,-5.768792e-02,-5.843666e-01,1.666258e-02,-2.598368e-01,2.034821e-01,4.725084e-02,-6.111125e-03,1.704924e-01,-1.301815e-02,-3.816389e-02,-1.522687e-01,-3.235574e-01,-3.037111e-01,-3.181460e-01,-1.763683e-01,-2.520215e-01,2.365892e-01,-5.588572e-02,-1.184201e-01,4.778331e-04,
5.005081e-02,-2.376225e-03,1.002700e-01,3.033035e-01,1.637292e-02,-4.110091e-01,8.685413e-02,-8.097860e-04,2.712500e-02,6.732599e-01,-1.207425e-02,-2.078034e-01,1.864062e-01,3.515306e-01,-3.455234e-01,-4.760300e-01,-4.952322e-02,1.722175e-02,2.754423e-03,9.512065e-02,-9.517547e-02,-1.730312e-02,-6.090231e-02,-1.071987e-01,4.521117e-02,1.926176e+00,-1.861940e+00,-8.991481e-03,-2.705212e-01,4.731798e-02,-8.589780e-02,1.954028e-01,2.097152e-01,-2.679722e-02,3.424509e-01,2.490648e-01,-3.076760e-03,-3.954459e-01,1.097945e-01,1.765847e-01,-8.361015e-01,-8.696190e-02,-2.436837e-01,-3.554755e-01,-3.811874e-02,
-2.849833e-02,1.120120e+00,1.092409e-01,1.915723e-01,3.740206e-02,-1.207454e-01,6.602423e-01,-9.261706e-02,5.346014e-01,-2.539255e+00,2.958958e-02,4.622884e-01,1.260183e-01,2.332381e-01,2.879091e-02,5.463772e-01,-5.269842e-02,4.528475e-03,6.808301e-02,-1.391516e-01,2.248276e-01,3.942118e-02,3.810618e-01,3.644782e-02,1.769179e-02,-1.652259e+00,8.742069e-02,2.487621e-02,3.459038e-01,-1.081842e-01,7.768410e-01,-6.509692e-01,3.982684e-04,-3.675879e-02,1.930309e-01,-5.993935e-02,8.881009e-02,-1.427857e+00,-1.436087e-02,-3.924040e-02,-1.800155e-01,3.117909e-02,-1.016281e-01,7.136442e-01,4.800300e-02,
7.485794e-03,5.804696e-01,-1.121152e-01,1.787183e-01,4.316994e-02,-2.956204e-02,-1.781700e-01,4.488474e-02,5.668483e-01,-1.986040e-01,2.794010e-02,3.130176e-01,9.631677e-02,-1.247658e-01,7.497574e-02,2.997206e-01,-3.503170e-02,4.719247e-03,-4.976519e-01,4.051525e-01,-4.962980e-02,2.425788e-02,2.631571e-01,-1.466452e-01,-3.084248e-02,3.172246e-01,1.092517e-01,4.134881e-02,5.928075e-01,2.902563e-02,5.881143e-01,3.293350e-01,-1.913781e-01,3.967211e-02,3.245761e-01,3.204716e-01,9.970059e-03,-1.337582e-01,-3.029196e-01,-8.209597e-02,-3.282668e-01,1.529350e-01,2.211563e-02,2.512406e-01,-2.063092e-02,
2.756777e-02,2.251651e-02,-5.177660e-02,-3.667251e-03,4.793670e-02,2.347284e-02,-6.904856e-02,2.613642e-02,-1.542736e-02,1.075631e-03,1.011067e-03,-4.885283e-02,2.586900e-02,-5.394357e-04,1.218909e-03,2.053733e-03,-3.098054e-02,-1.018265e-02,1.261369e-02,-4.374790e-02,-6.507737e-03,-2.394819e-02,-6.636071e-03,-1.639019e-03,-1.459298e-02,-1.489029e-02,2.094451e-03,-8.926024e-03,-7.308005e-03,-5.043034e-02,-1.861960e-02,-4.273255e-02,-1.503715e-02,3.383809e-02,-5.363424e-02,-7.043383e-02,-6.513608e-02,-4.849095e-03,-1.298726e-02,-5.548731e-02,2.685365e-04,-3.943367e-02,-2.728607e-02,-3.627693e-02,4.130061e-02,
-3.298375e-02,7.273123e-01,-5.296403e-02,-2.356757e-01,6.231965e-03,-7.030218e-02,2.243709e-01,1.601912e-01,4.905911e-01,3.585878e-01,-3.293037e-03,1.387056e-01,4.925940e-01,2.206996e-01,3.834561e-02,-2.315167e-01,-5.323024e-02,3.618655e-02,1.215750e-01,-2.208511e-03,1.209903e-01,-3.426563e-03,3.262922e-01,-1.820177e-02,-1.633095e-02,1.423067e+00,1.144194e+00,2.301525e-03,2.473127e-01,-5.049631e-02,4.710806e-01,-3.949604e-01,-2.378466e-01,-2.095248e-02,5.548592e-02,-1.569815e-01,2.984612e-02,-1.354091e-01,3.363298e-01,3.115140e-01,-3.221822e-01,6.440421e-02,-1.270465e-01,4.293292e-01,-4.125841e-02,
2.013027e-03,-7.355494e-01,-1.857100e-01,7.307097e-02,-6.921857e-04,3.424831e-01,-4.139736e-01,-1.272442e-01,-7.008490e-02,1.800567e-01,-4.072002e-02,1.858177e-01,5.099289e-02,3.059295e-01,1.129977e-01,4.160959e-01,1.301025e-02,2.581705e-02,-3.223979e-01,-2.482182e-01,1.217644e-02,1.247407e-02,7.449868e-02,2.150213e-02,-4.542925e-02,-9.659293e-02,1.648978e-01,1.892580e-02,-2.556241e-01,-2.302668e-01,1.528226e-02,3.496530e-01,2.115259e-01,3.149901e-02,-8.631925e-02,7.841364e-03,3.281928e-01,3.781960e-02,3.408184e-01,2.495471e-01,-1.893763e-01,4.163717e-02,-4.297113e-01,1.462854e-01,2.438818e-02,
3.608342e-02,-4.543906e-02,-2.530973e-02,3.150862e-02,3.558726e-02,-5.636732e-02,2.420332e-02,2.068972e-02,1.394937e-02,-2.218889e-02,2.496135e-02,-4.827214e-02,-4.844872e-02,-3.564440e-02,3.870533e-02,-1.526249e-03,3.708030e-02,-1.515449e-02,9.866548e-04,3.041505e-02,-1.581555e-02,2.080192e-02,-2.815012e-02,-2.913913e-02,7.210941e-03,3.555377e-02,2.118514e-02,-4.532446e-03,-3.547538e-02,9.443228e-03,-4.029430e-02,-4.015746e-02,-1.853735e-02,3.329526e-02,-1.594065e-04,3.001247e-02,-2.740846e-03,-1.932794e-02,-5.619176e-02,-3.119651e-02,-1.630312e-02,-2.437258e-02,1.728654e-02,-3.816976e-02,-2.507845e-02,
-1.585782e-03,1.284958e-02,3.315120e-02,-9.312067e-03,7.866305e-03,-4.956239e-03,1.126125e-02,-4.130992e-02,-3.120781e-02,-4.867376e-02,-2.563160e-02,2.307830e-02,-5.293204e-02,2.907388e-02,2.671377e-02,-4.315910e-03,2.825417e-02,-3.988150e-02,7.790396e-03,2.327163e-02,2.952860e-02,3.220969e-02,-3.326788e-04,3.900580e-02,8.986069e-03,-2.988573e-02,-5.244152e-03,4.586691e-02,-2.158862e-03,-1.370890e-02,1.363613e-02,5.951445e-03,-4.214002e-02,1.930841e-03,-4.297889e-02,-5.741053e-02,-2.831240e-02,-1.480739e-02,-1.285273e-02,-4.861189e-02,3.657798e-03,-1.553993e-02,-5.025473e-02,3.538704e-02,3.496191e-02,
1.213130e-02,-6.400640e-02,4.381357e-01,5.139375e-02,-1.716765e-02,-2.582164e-01,-6.673817e-02,4.434680e-03,5.600035e-01,-1.237084e-01,-2.318314e-02,2.029871e-01,-7.471026e-02,5.000105e-03,-1.887337e-01,-3.133310e-02,2.799482e-03,1.126631e-02,2.162170e-01,1.269201e-01,4.531335e-02,8.816563e-03,-3.213368e-01,4.362904e-02,1.512983e-02,3.054978e-01,7.261304e-01,4.006992e-02,-1.878473e-01,1.732419e-01,-5.825555e-01,2.090299e-02,1.544527e-02,1.272134e-02,-1.125710e-02,6.243833e-01,-4.310431e-02,7.171663e-02,-4.622222e-01,1.242238e-01,7.711291e-02,1.807229e-01,-1.966169e-01,1.314373e-01,5.358063e-02,
-3.317030e-03,-3.355065e-01,3.044297e-01,-1.236554e-01,2.156086e-02,-3.296071e-01,3.039447e-01,-2.890729e-01,-1.517949e-01,-2.483687e-01,4.562043e-02,-5.551242e-01,-6.282930e-02,6.001508e-02,-2.488572e-01,1.049964e+00,2.412377e-02,-2.228980e-02,-3.351491e-01,-3.252831e-01,-1.554973e-01,-3.832931e-02,-2.083479e-01,6.280676e-03,-4.711012e-02,1.925640e-01,-8.512661e-02,-2.640035e-02,2.283192e-02,2.198273e-01,1.129663e-01,2.105494e-01,-1.470260e-01,-3.140426e-02,3.635714e-02,6.053171e-01,2.017692e-01,1.053223e+00,-1.695697e-02,5.032001e-02,-5.002844e-01,1.943793e-01,-1.582037e-01,-6.175716e-01,-2.185363e-03,
-2.199117e-05,2.272112e+00,2.535479e-01,1.237574e+00,-4.979054e-02,2.687834e-01,4.255500e-01,3.565980e-01,9.993662e-01,8.276690e-01,-3.583619e-02,-3.762028e-01,5.280964e-01,1.902585e-01,1.286800e+00,6.685438e-01,-1.532493e-02,1.017611e-03,5.250028e-01,-1.948218e-02,1.936604e-01,3.863167e-02,1.319036e+00,2.227965e-01,-3.492023e-02,2.890932e-02,4.809407e-01,-3.659451e-02,2.641993e-01,-7.494727e-01,7.892386e-01,-4.363092e-02,8.132492e-01,6.679542e-02,-1.633869e-02,8.923716e-02,-1.414078e+00,-1.101159e-01,-1.585632e-02,1.713356e-01,1.360540e+00,1.477348e+00,1.144525e-01,1.440439e+00,1.098232e-02,
-2.296284e-03,-1.855972e-01,5.446888e-01,-7.610551e-02,-5.247689e-02,-2.192942e-01,1.296504e-01,2.024689e-01,-6.214397e-02,4.071175e-01,-2.209972e-02,-1.715629e-02,2.922982e-01,-2.657079e-01,6.023427e-02,-4.278774e-02,-6.328784e-03,-8.598037e-02,-1.372006e-01,-3.874715e-01,-2.866189e-01,7.102990e-03,2.695690e-01,-1.025948e-02,-3.809623e-02,3.149597e-01,-3.229841e-01,3.775854e-02,-4.008178e-01,-3.310768e-02,1.019738e-01,-3.473165e-01,2.670956e-01,2.323801e-02,-4.307815e-01,7.787855e-01,3.528957e-02,5.683700e-02,-1.268772e-01,-3.014115e-01,-2.545885e-01,4.368754e-02,1.494103e-01,-3.236999e-01,2.847197e-02,
4.394542e-02,-5.577260e-02,1.783891e-03,-5.340828e-03,-1.203765e-02,-3.490966e-02,-3.405314e-02,-4.802459e-02,-9.742366e-03,-2.583386e-02,-6.954432e-03,-3.617776e-02,4.549610e-03,8.386785e-03,-1.496262e-02,-2.166281e-02,-2.051440e-02,-3.564480e-03,1.434130e-02,-1.910209e-02,1.836340e-02,4.218677e-02,8.686518e-03,-3.108808e-03,-3.724190e-02,-9.661988e-06,-2.757422e-02,3.237496e-02,9.837288e-03,2.450570e-02,-5.414709e-02,-2.271083e-02,-3.605908e-02,3.384709e-02,5.686154e-03,-4.637541e-02,-1.008229e-02,-4.027525e-02,-3.098265e-02,-1.213332e-03,-2.676692e-02,-2.777957e-02,-2.540482e-02,-6.316902e-02,1.128533e-03,
1.638177e-02,-1.448129e-01,-1.545102e-03,2.801253e-01,2.766117e-02,-6.981558e-02,1.511038e-01,-3.094929e-01,1.052335e+00,-9.571560e-02,-2.522265e-02,7.055696e-04,6.933331e-01,-6.433683e-02,1.408171e-01,-9.457052e-02,2.925072e-02,-2.938119e-02,-4.210614e-01,4.122521e-01,-3.268099e-01,-3.336066e-02,-2.429498e-01,-3.209500e-02,2.785218e-02,4.367699e-01,3.269694e+00,-3.976565e-02,-1.117346e-01,-1.102948e-01,1.155438e-01,-1.450203e-01,2.844129e-01,6.291185e-03,6.423522e-02,2.763319e-01,-7.669716e-03,-1.144581e-01,-1.327281e-01,9.527273e-02,6.336498e-02,-1.127837e-01,2.226618e-01,-4.158901e-01,-1.818943e-02,
2.989895e-02,1.172329e-01,-3.284785e-02,-3.716577e-02,-5.605204e-03,1.341801e-01,8.832068e-02,-2.595930e-01,4.006088e-01,9.617839e-02,-1.071908e-02,5.856385e-02,1.309758e+00,-3.718707e-02,6.411903e-02,5.780557e-02,-3.670420e-03,-5.836944e-02,5.360621e-03,-1.593611e-01,-4.992725e-02,-4.688226e-02,-9.720191e-02,-3.145604e-04,-3.942876e-02,1.335494e-01,-2.035780e+00,-3.876594e-02,4.305200e-01,-1.905017e-02,1.968852e-01,1.544300e-01,-4.033657e-02,5.743083e-02,1.710917e-01,-1.151748e-01,7.900020e-02,-1.283996e-01,-6.457338e-02,-4.707344e-01,4.639548e-01,-1.273734e-02,-3.814400e-01,9.237481e-03,-1.682664e-02,
1.771861e-02,-3.463559e-01,3.448828e-01,-1.896033e-01,3.498639e-02,1.131822e-01,6.887370e-01,7.718110e-02,5.466565e-01,-2.108237e-01,2.980720e-02,-4.960554e-02,3.192313e-01,2.802071e-01,-1.589211e-01,4.359245e-02,-3.229247e-02,-2.532107e-02,3.813612e-01,-2.037703e-01,7.183702e-02,4.614859e-02,1.409063e-01,-9.302641e-02,1.314090e-02,-1.393528e-01,2.022910e+00,-3.841877e-02,-7.065408e-01,-6.663350e-02,-1.886266e-02,1.757774e-01,1.225590e-01,6.078128e-02,-2.722476e-02,-1.460147e-01,-8.420237e-02,9.475743e-02,-8.245246e-03,-3.840311e-01,2.237311e-01,-5.324428e-02,1.788859e-01,1.431218e-01,-2.467791e-02,
-2.877840e-02,-7.259855e-01,-2.290331e-01,3.918377e-01,3.589861e-02,-3.947017e-01,-3.369194e-02,8.035119e-01,-3.163226e+00,3.501600e-01,-7.803445e-03,1.652263e-01,3.243681e-01,-3.084306e-01,1.639859e-03,-1.217448e-01,1.712272e-02,3.367051e-02,3.800136e-01,-5.318373e-01,-2.273703e-01,-4.267168e-02,6.565083e-02,1.001204e-01,-1.278249e-02,-2.977786e-01,1.589356e+00,-4.333869e-02,-8.448210e-02,-8.068806e-02,3.243576e-01,1.100577e-01,1.427808e-02,4.789232e-02,1.752395e-01,-3.391906e-01,-8.803421e-02,-6.720319e-02,2.752842e-01,-1.711112e-01,1.867245e-01,-6.626480e-02,3.425462e-01,-2.200498e-01,-8.270370e-03,
1.592919e-02,1.534747e-01,2.036754e-01,1.406702e-01,3.074133e-03,-2.597976e-01,1.157233e-01,-5.825203e-02,2.283066e-01,8.798484e-02,6.896595e-03,-9.951744e-01,2.467294e-01,-1.216389e-01,1.191622e+00,1.266847e-01,-1.940513e-02,-3.762084e-02,3.117956e-02,-2.976210e-01,-9.537280e-02,3.570155e-02,4.089952e-01,-3.412323e-02,3.639517e-02,9.112650e-02,5.083834e-01,2.772452e-02,-1.076330e-01,-1.822460e-02,1.481276e-01,1.791674e-02,-2.825795e-01,1.302761e-03,5.745608e-02,-7.574058e-02,-1.296728e-01,-6.664933e-02,1.324620e-01,-1.822107e-01,1.894072e-01,1.413463e+00,4.732742e-02,5.631154e-01,1.422002e-02,
-1.676043e-02,-2.434263e-02,-4.776944e-02,-5.248215e-02,2.079253e-03,-4.586800e-02,-2.240120e-02,-4.545654e-02,-1.526449e-02,-2.581190e-02,3.373638e-02,-3.681262e-02,-5.895657e-02,2.732142e-02,-2.548089e-02,2.057102e-02,3.559616e-02,-3.048553e-02,-1.443977e-02,-1.594762e-02,2.855781e-02,2.658298e-03,1.552149e-02,-1.164722e-02,-1.650655e-02,1.052603e-02,-2.234877e-03,2.062484e-02,1.228192e-02,-3.212827e-02,-5.566159e-02,1.359777e-02,-4.364336e-02,4.302055e-02,-3.620142e-02,-5.272847e-02,-9.507273e-03,2.383630e-02,-2.814283e-02,9.663074e-03,3.743562e-03,1.333275e-02,-1.946236e-02,-2.351643e-02,-4.476034e-02,
-2.669438e-03,-2.692646e-02,-3.655031e-02,-3.354250e-02,-1.394038e-02,-2.349969e-02,-2.473880e-02,-2.243380e-02,-4.141231e-02,-2.853590e-03,3.087054e-03,-3.381678e-02,2.740734e-03,3.296651e-02,-1.515254e-03,-4.658023e-02,-3.085035e-02,3.907872e-02,-2.890597e-02,-2.312299e-02,-4.085172e-02,-2.159727e-02,-3.326055e-02,1.650271e-02,-8.092483e-03,-4.331282e-02,3.674718e-02,3.321619e-02,-4.791033e-02,-1.712829e-02,-4.536881e-03,6.552079e-04,2.410736e-02,2.093370e-02,-4.590431e-03,-4.450130e-02,2.902460e-02,-2.699398e-02,-4.273207e-02,2.390938e-02,3.107365e-02,-2.884523e-02,-5.744792e-02,-3.151468e-02,4.321232e-02,
9.088671e-03,-4.043112e-02,-1.314170e+00,1.043159e+00,-3.187765e-02,-4.484061e-01,2.625358e-01,2.863134e-02,8.790947e-01,5.721357e-01,-4.633387e-02,-5.156408e-01,5.449740e-01,4.585763e-01,-1.063936e-01,-9.324225e-02,-4.101131e-02,-6.514496e-02,-4.141134e-01,4.638766e-01,8.907862e-02,-5.750107e-03,-4.026793e-01,4.400322e-02,1.207875e-02,3.379868e-01,3.084544e-01,-2.607275e-02,1.476244e-01,2.981644e-02,-2.321225e-02,6.210977e-02,-8.579066e-01,2.836825e-02,-8.751730e-01,3.360804e-01,-3.548608e-02,-1.542966e-01,7.887933e-02,2.023279e-01,3.681681e-01,3.753209e-02,2.989546e-02,-9.487955e-02,-4.423739e-02,
7.257439e-04,-1.919859e-02,5.575168e-02,-3.221768e-02,4.493693e-02,-2.234141e-02,-6.851356e-03,-3.924029e-02,4.787144e-02,-6.366543e-02,5.899584e-03,2.215865e-02,2.480947e-02,2.625190e-02,-3.178873e-02,-4.399953e-02,-1.066149e-02,2.423226e-02,-4.636190e-02,-2.192369e-02,-7.631668e-02,3.346222e-02,-4.519917e-02,-6.397879e-03,-3.635274e-02,-5.504343e-02,-1.785941e-02,-2.818925e-02,-3.124500e-02,3.117112e-02,-1.602539e-02,-2.533542e-04,1.180683e-02,-1.278116e-02,-5.286705e-02,2.544335e-03,-7.427221e-02,-4.720614e-02,-5.055244e-02,-7.966437e-02,-8.051309e-02,-1.123720e-02,-7.742374e-02,-8.998541e-02,4.550830e-02,
5.545607e-03,-2.590673e-01,1.296404e-02,1.979870e-01,-1.691999e-02,-1.532001e-01,2.301911e-01,-2.409407e-01,-4.858961e-01,2.779365e-01,-1.473367e-02,3.957344e-01,3.365692e-01,-9.357938e-02,7.416643e-02,-2.088742e-01,1.385281e-02,-6.655276e-02,-3.020324e-01,4.643642e-02,-2.073844e-01,4.387461e-02,2.168270e-01,6.669942e-03,-1.463083e-02,7.739512e-01,2.024319e+00,1.290498e-02,-1.213224e-02,-1.462562e-02,5.141475e-01,-1.551048e-01,-2.742434e-01,4.860127e-02,1.677794e-02,2.745397e-01,-4.751201e-02,3.261782e-01,1.258586e-01,-5.845473e-02,-2.958832e-01,6.034074e-01,9.840409e-02,4.966959e-01,-3.805510e-02,
1.794445e-02,-3.273259e-03,-3.956952e-02,3.829742e-02,3.372608e-02,-4.162407e-02,7.999039e-03,-4.940519e-02,-3.211893e-02,3.957110e-02,-4.010253e-03,-4.234173e-03,3.472096e-02,3.480022e-02,-2.727387e-02,-1.814597e-03,-3.047103e-02,9.118112e-03,3.136905e-02,-2.552260e-02,-4.101171e-02,-3.371702e-02,-4.394855e-02,-1.409693e-02,1.990070e-02,-4.502976e-02,2.675281e-02,2.363647e-02,-4.494813e-02,-1.626874e-02,-1.185760e-02,-3.494323e-02,1.217564e-02,4.609613e-02,-3.876753e-02,-2.436809e-02,-3.596963e-02,-4.030707e-02,4.348216e-02,-1.211676e-02,3.557544e-03,-1.486055e-02,3.856833e-02,1.793419e-02,4.092276e-02,
-1.532964e-02,-6.169820e-01,2.156259e-01,4.632542e-01,-5.653116e-02,-1.420066e-01,-6.594621e-02,5.748655e-01,-1.438686e+00,5.833503e-01,-1.264729e-02,6.466511e-02,-4.077676e-01,6.400652e-01,-2.726678e-01,-1.745060e-01,-7.262693e-03,2.952777e-02,5.290148e-01,-4.728212e-01,-3.201217e-03,3.995163e-03,2.432183e-01,1.337864e-01,-2.416407e-02,-3.069396e-01,-4.319774e+00,2.477596e-02,1.498523e-01,-6.206251e-02,6.918496e-02,1.198665e-01,4.736861e-02,-2.834722e-03,7.533386e-02,5.192381e-01,-3.806158e-02,4.925987e-02,3.709779e-01,-6.568579e-02,1.060391e-01,-9.782629e-02,-6.138577e-02,-6.408399e-02,-4.230893e-03,
5.431227e-03,3.561261e-02,3.656969e-02,4.591042e-03,2.837120e-02,-1.904430e-02,-4.827930e-02,-5.177867e-02,-3.854033e-02,-4.146564e-02,2.992479e-02,-1.854741e-02,-6.761192e-02,-9.056120e-04,-5.733991e-03,-1.102781e-02,1.555527e-02,2.744609e-03,-3.842488e-02,1.827707e-02,-6.191680e-03,-4.939186e-02,-1.512245e-02,1.898281e-02,-1.334879e-02,-3.351140e-02,-4.897759e-03,-3.361303e-02,3.157908e-02,-1.032295e-02,-3.228456e-03,-3.763084e-02,3.794787e-02,-1.464122e-02,-5.797607e-02,-2.452321e-02,2.046570e-02,-5.899656e-02,3.102285e-02,-5.207719e-02,4.734655e-03,1.885049e-02,3.462760e-02,-6.364243e-03,-8.908572e-03,
-2.609897e-02,-1.243805e-01,-5.498919e-01,4.845430e-01,3.741931e-02,-1.202657e-01,3.283159e-01,-5.614481e-02,-1.669428e-01,2.075267e-01,1.748490e-02,4.191066e-01,4.892794e-01,3.235237e-01,5.921721e-01,2.741526e-01,-3.953141e-02,3.823282e-02,-1.333731e-01,-4.007330e-01,3.967133e-01,-1.435037e-02,-4.101174e-01,2.714511e-01,-2.336124e-02,5.229624e-01,-5.965031e-01,1.198443e-02,-4.808010e-02,5.511072e-03,-4.681966e-01,-1.379716e-01,3.585836e-02,-2.699184e-02,-6.412694e-01,3.570260e-01,9.848239e-02,1.681280e-01,-7.244077e-02,1.457535e-02,5.581100e-02,5.774986e-02,-2.730095e-01,2.839281e-02,-2.938559e-03,
4.506502e-02,2.572214e-02,-4.719185e-02,-4.198456e-02,2.663490e-02,-5.206263e-02,-3.904004e-02,-4.057753e-02,-1.764440e-02,-4.234619e-02,9.877807e-03,1.049332e-02,-2.882040e-02,1.894120e-02,-7.943233e-04,-4.405465e-02,-2.751457e-02,2.014007e-02,-4.100740e-02,-5.921899e-02,-4.016394e-03,1.451595e-02,1.538789e-02,-3.869672e-02,2.407772e-02,3.394556e-02,3.915677e-02,4.889961e-02,1.241182e-02,1.038337e-02,-2.895270e-02,-4.856739e-02,1.931634e-02,3.345020e-02,8.482954e-03,-4.567864e-02,-4.759102e-02,-4.326934e-02,7.593329e-03,1.829853e-02,-3.398772e-02,-5.045144e-02,2.957100e-04,2.822174e-02,3.342628e-02,
-2.607381e-02,1.233979e+00,3.644033e-01,1.146825e+00,8.870126e-03,8.573747e-02,2.552617e-01,-1.364563e-03,9.810970e-01,5.326928e-01,3.041225e-02,-4.232949e+00,4.213860e-01,1.768453e-01,4.593185e-01,2.459045e-01,-5.123708e-02,-3.949336e-02,3.199893e-01,-1.243251e-01,-1.668479e-02,4.923581e-02,4.732499e-01,5.475318e-02,2.771478e-02,-3.590218e-02,3.526119e-01,-3.157097e-02,2.986875e-01,-5.005113e-01,2.721912e-01,2.731013e-02,3.452359e-01,-2.612281e-02,9.762456e-02,1.824556e-01,-6.458231e-01,3.073229e-01,9.162931e-02,1.077192e-01,7.981861e-01,1.366031e+00,8.027618e-02,8.213071e-01,-3.561361e-02,
4.433757e-02,6.013792e-01,2.051637e-01,-1.425396e-01,3.559231e-02,-2.267856e-01,-9.440733e-01,1.303380e-01,-1.637217e-01,1.937101e-02,-3.488575e-02,1.351400e-01,-2.787509e-01,-1.291565e-01,1.896508e-01,3.084028e-01,3.793833e-02,-4.003480e-02,3.786503e-01,4.632579e-01,-1.857474e-01,-2.163509e-02,-1.243666e-01,-9.204319e-02,4.212572e-02,-5.868465e-01,-9.112621e-04,3.102587e-02,-1.507730e-02,-5.808738e-02,-8.354555e-01,-5.174372e-01,-2.738484e-01,2.406452e-02,2.246002e-02,8.437818e-02,1.673619e-01,2.053718e-01,-2.036733e-01,3.136044e-01,2.089756e-01,8.625578e-02,-2.046475e-01,5.908159e-01,5.824966e-03,
4.473530e-03,-2.377632e-01,5.179875e-01,5.558110e-01,-2.042281e-02,-3.138417e-01,1.330001e-01,1.234137e-01,2.875460e-01,-1.766846e+00,-3.860314e-02,5.636771e-01,3.150462e-02,1.286705e-01,2.489263e-01,5.743314e-01,-4.266943e-03,-1.065352e-02,-5.626834e-01,3.503453e-02,-2.581034e-01,8.194116e-03,-1.639352e-01,-9.387854e-02,3.181687e-02,-2.585382e+00,6.940318e-02,-1.337619e-02,1.263841e-01,-8.973786e-02,8.336626e-02,2.090899e-03,1.575700e-01,2.216001e-02,-2.380919e-01,4.755490e-01,1.394419e-01,-2.498774e-01,-1.413806e-01,1.177390e-01,9.701464e-01,1.785777e-02,-5.001551e-01,3.296814e-01,2.072839e-02,
-1.231158e-02,1.013572e+00,-3.125426e-01,-2.021084e-01,-7.074545e-03,3.288001e-01,1.082094e-01,7.285920e-02,3.869413e-01,3.348368e-01,3.947670e-02,3.401719e-01,-3.275044e-01,8.556317e-02,2.868132e-02,-1.727358e-01,-1.317251e-03,4.920758e-02,-3.459138e-02,1.465020e-01,2.817087e-01,-3.733601e-02,8.364188e-02,1.345367e-01,-1.619578e-02,-4.232724e-01,3.645379e-01,-1.641829e-02,8.833406e-02,-3.306160e-01,-5.581622e-03,-2.320006e-01,-1.132362e-01,-2.075597e-02,7.084730e-01,-1.205195e-01,1.925270e-01,-1.552962e+00,7.326425e-01,8.322781e-02,5.528912e-01,-1.214980e-03,-2.363161e-03,1.814850e-01,-3.410158e-02,
-2.881843e-02,-2.298904e-02,-3.166344e-02,5.567856e-01,2.930143e-02,-3.934347e-01,2.907200e-01,2.920326e-01,-5.511880e-01,-1.425222e-01,4.577423e-02,-3.083863e-02,-4.522146e-01,-5.800401e-02,5.435211e-02,1.098421e-01,-1.708473e-02,8.480065e-04,-2.473290e-01,-8.814853e-02,-1.363499e-02,-3.701968e-03,1.601523e-01,9.564009e-02,-2.966190e-03,2.277668e-01,-1.250610e+00,3.005112e-03,8.924510e-02,2.258264e-01,3.749500e-01,-2.177021e-01,-1.695028e-01,-1.156174e-02,4.051015e-01,-5.116981e-01,-5.216621e-03,-1.393711e-01,2.836710e-01,-6.193142e-02,-2.883060e-02,-8.256346e-02,-1.019592e-01,5.556710e-01,3.332676e-02,
-4.745486e-02,7.330458e-02,-3.254103e-01,9.463139e-01,3.715117e-02,1.765110e-02,5.006794e-01,-1.410230e-01,3.097201e-01,1.177996e-01,-2.957992e-02,2.774315e-01,3.906387e-01,1.811857e-01,-1.079198e-02,3.205312e-01,-5.572678e-03,2.250588e-02,-1.646540e-01,1.748294e-01,3.614781e-01,-3.963703e-02,1.135439e-01,1.404575e-01,1.653685e-03,1.006195e-02,3.028058e-01,3.191088e-03,8.595929e-02,3.823172e-02,1.094583e-01,-5.221045e-01,1.176211e-01,2.193472e-02,1.890986e-03,6.343384e-01,-3.103333e-01,-8.925086e-01,-5.729149e-01,-2.172371e-01,4.527587e-01,1.136770e-02,3.736521e-01,7.307366e-01,2.290735e-02,
1.762867e-02,-1.221106e-01,3.088347e-01,-2.928874e-01,-1.998143e-02,-4.110068e-01,-8.057367e-03,3.562406e-02,5.957501e-01,-2.789679e-01,1.040087e-02,1.902504e-01,1.645369e-01,-5.429351e-01,1.253695e-01,8.979539e-02,-5.152472e-02,-1.643145e-03,7.550699e-02,1.518205e-01,-2.281156e-01,-3.627916e-02,1.390205e-01,-6.090079e-02,1.639178e-02,2.328914e-01,-8.592542e-01,-1.597876e-03,-1.054540e-01,1.515491e-01,2.541136e-01,-2.826313e-02,-4.769792e-01,-3.100848e-02,-1.212483e-01,1.589221e-01,-6.031891e-02,-3.856465e-01,-7.552753e-02,-5.866075e-02,-1.160520e-01,1.635932e-01,6.762359e-02,-4.146577e-02,1.770412e-02,
-3.334040e-02,-1.233537e+00,-7.474248e-04,5.811036e-01,-1.202614e-02,-7.941995e-01,3.764939e-01,2.286091e-01,-1.020533e+00,1.880439e-01,3.767202e-05,1.715709e-01,-5.207281e-01,-4.316089e-01,3.482118e-02,-2.397571e-02,2.289319e-02,-1.282491e-02,5.019141e-01,6.327319e-02,-1.939414e-01,2.562650e-02,-1.191721e-01,-1.142368e-01,-4.340037e-02,-3.010406e-01,-6.923333e+00,6.741619e-03,7.653225e-02,1.590840e-02,-6.448629e-02,5.184801e-01,5.041633e-02,-3.344991e-02,4.611772e-01,-7.793722e-02,9.668663e-02,-1.095063e-01,5.874151e-02,-5.631902e-01,3.907537e-01,-8.627509e-03,-1.421119e-01,1.512204e-01,-4.256162e-02,
4.413157e-02,1.574832e-01,2.270465e-01,1.285838e-01,-5.450501e-02,8.775057e-02,-5.790362e-02,1.597443e-01,-6.185464e-01,8.722978e-02,-1.704316e-03,-7.558621e-02,-6.474977e-02,1.087535e-01,7.776600e-02,1.171409e-01,1.942145e-02,-5.802516e-02,2.494763e-01,-7.416853e-01,2.174575e-01,1.071451e-02,-3.012755e-01,2.850490e-01,-2.616676e-02,2.805290e-02,3.281263e-01,8.534896e-03,9.712642e-01,5.264528e-02,-1.815185e-01,-2.152818e-01,6.125540e-02,-2.529290e-02,1.540803e-01,-6.801797e-01,-1.376026e-01,2.120609e-01,-2.413682e-01,1.018721e-01,-2.075295e-01,-1.042447e-01,-1.155851e-02,1.681461e-01,-2.499115e-02,
-2.438263e-02,
2.509582e-02,
8.967930e-02,
-2.741360e-02,
-2.843602e-01,
-8.617233e-03,
4.161635e-01,
5.367812e-01,
-2.669521e-01,
-1.191472e-01,
-3.535271e-01,
-1.360581e-02,
-8.824449e-03,
-1.918229e-01,
-1.018095e-02,
-5.983139e-03,
-2.460469e-01,
4.042464e-01,
-5.153500e-01,
7.409668e-02,
-1.843949e-02,
-2.949922e-02,
-1.724464e-01,
-1.337608e-01,
2.260784e-01,
1.307694e-01,
-1.830555e-02,
-1.427616e-02,
2.025409e-01,
1.451347e-03,
3.693763e-02,
-6.943377e-04,
1.980995e-01,
-1.983727e-02,
-2.001461e-01,
-1.931714e-02,
1.947894e-01,
2.588801e-01,
4.280224e-01,
-3.130422e-01,
-7.212417e-02,
-7.629494e-02,
-1.048268e-01,
1.894145e-01,
2.542707e-02,
2.207164e-04,2.277883e-01,-1.533886e-01,5.699129e-03,-2.642316e-01,3.708649e-02,1.341651e-01,6.390219e-01,-2.987816e-02,5.225578e-02,-1.743197e-01,-1.392904e-02,1.868987e-01,-1.169666e-01,-3.667189e-02,-1.465607e-02,1.480799e-01,2.855845e-01,7.864559e-03,-6.972060e-02,5.663406e-02,1.129334e-01,2.923759e-03,5.999184e-02,2.224097e-02,6.228398e-02,2.174641e-02,1.070429e-02,3.861067e-02,-4.374354e-02,-2.316187e-01,1.021233e-02,-1.677439e-01,-2.786870e-02,-8.028529e-02,3.201830e-02,9.529615e-02,-6.919765e-02,-8.670738e-03,-6.900840e-01,4.293817e-02,-4.825862e-01,-2.550967e-02,2.489281e-02,-8.131979e-02,
1.123376e-02,-2.769100e-01,1.200574e-01,-5.412907e-02,-3.971407e-01,-3.880459e-02,-3.026908e-01,1.943081e-01,7.619464e-02,2.446954e-01,-2.307926e-01,1.571689e-03,-7.125563e-02,5.585013e-02,-2.653802e-02,-7.678981e-03,-2.573447e-01,-2.525052e-01,-1.474679e-01,-2.730845e-01,6.247410e-02,-4.942575e-02,-1.348407e-01,-1.217858e-01,-3.553922e-01,1.657396e-01,6.622395e-03,4.395700e-02,2.034697e-02,-3.784415e-02,-2.675549e-01,9.976541e-03,1.031394e-02,1.626446e-02,1.241694e-01,2.665237e-02,-5.481697e-02,2.524692e-01,-9.876356e-02,-8.143467e-01,2.916797e-02,4.029496e-01,-2.501532e-01,-5.864454e-01,3.404884e-02,
1.414214e-02,2.370027e-02,-1.034029e-01,-1.692023e-02,-2.822658e-01,-8.617195e-03,-1.784838e-02,-1.171687e+00,-4.043444e-02,3.941644e-01,-1.545998e-02,-5.024218e-02,5.043649e-02,1.331500e-01,4.771450e-02,3.283249e-02,4.716865e-02,1.103535e-01,-6.800229e-02,-1.196089e-02,3.967756e-02,4.680323e-02,-1.993457e-02,2.129827e-02,-2.200069e-01,3.765956e-02,5.674803e-03,3.862510e-02,3.317263e-02,-3.846657e-03,-5.370444e-02,4.934792e-02,1.973922e-01,2.259293e-02,-3.972514e-02,-1.835811e-02,3.120751e-01,-3.941914e-02,4.174811e-03,3.432854e-01,3.915078e-02,9.488565e-02,-1.867080e-02,-4.179683e-02,-1.036984e-02,
1.754096e-02,-4.676691e-02,-2.206313e-02,-2.756038e-02,3.811273e-03,3.899778e-02,-6.208118e-02,-1.896808e-02,-3.022085e-02,-5.565570e-03,2.585615e-02,-1.777102e-02,7.590795e-03,-3.794896e-03,-3.613885e-02,2.230008e-02,-4.470524e-05,-5.955032e-02,-9.649863e-03,1.589645e-02,-1.215075e-03,-3.297061e-02,5.721777e-03,-7.263403e-02,-6.334078e-02,-4.285177e-02,-1.709415e-02,1.066483e-02,-1.108265e-02,9.623891e-03,-3.652174e-02,1.347349e-02,6.453650e-03,-3.126062e-02,-6.538027e-02,-1.977821e-02,1.456158e-02,3.316738e-02,-3.470238e-02,-9.257884e-03,-1.771836e-02,2.507715e-02,-2.729013e-02,1.359676e-02,-7.315602e-02,
3.531719e-02,-6.083972e-01,-1.497862e+00,-4.491027e-02,-8.253506e-01,-2.808477e-02,-1.209708e-01,-1.079690e+00,-2.550797e-02,-6.798564e-01,-1.606130e-01,1.277195e-02,2.204035e-02,6.292269e-01,-3.464404e-03,2.451907e-03,1.992945e-01,1.056015e-01,-2.075129e-01,2.400132e-01,-4.185901e-02,5.173241e-02,-2.995912e-02,-1.529347e-01,1.813394e-02,-8.127267e-02,4.918839e-02,2.519425e-02,-1.658372e-01,-1.494073e-02,5.004792e-02,1.093544e-02,-2.129242e-01,-6.937240e-03,1.103559e-01,-1.184575e-02,1.251888e-01,1.718133e-01,1.175102e-01,-2.968309e-01,1.384744e-01,2.079591e+00,-2.896331e-01,-8.202949e-01,-5.939589e-02,
-1.907841e-02,-4.911171e-02,-3.782153e-01,-3.859062e-02,-2.994971e+00,1.080919e-03,-3.386403e-01,5.960426e-02,-2.126548e-01,2.717293e-01,7.591906e-02,-2.825309e-03,2.834972e-01,-3.427545e-01,4.480012e-02,-2.798991e-03,-3.500965e-01,1.949322e-01,-9.832781e-02,-3.271716e-01,-5.843993e-03,1.802746e-01,2.143791e-01,-6.000711e-02,-1.016472e+00,-1.861177e-01,2.242693e-02,3.073935e-03,-3.304879e-02,1.161825e-02,-1.152551e-01,-1.802920e-03,1.826040e-01,1.848358e-02,-1.366340e-01,4.588292e-03,1.242483e-01,-3.462778e-02,1.312493e-01,-9.624541e-02,3.688119e-01,4.271138e-01,-7.717045e-02,7.026898e-01,-1.575513e-01,
5.465559e-02,-4.463083e+00,-3.224602e-02,4.020922e-02,-2.522545e+00,-2.273311e-02,-1.179770e-02,-1.661260e+00,-1.524368e-02,-1.172251e-01,-1.036073e-02,3.714572e-02,4.296835e-02,1.450743e-04,4.023723e-02,3.070661e-02,-4.096458e-03,5.820452e-02,-5.628529e+00,1.433153e-02,-3.363139e-02,1.109194e-02,-1.272620e-02,2.824146e-02,-5.631036e-02,-1.179684e-02,4.610527e-02,4.474256e-02,-6.593560e+00,-2.228220e-02,-4.571757e-02,-4.496149e-02,2.535969e-02,-9.495308e-03,-6.861660e+00,-1.574743e-02,2.606688e-03,7.656237e-03,8.901925e-03,4.449623e-01,1.290831e-02,-1.568441e+00,-2.079480e-02,-2.545989e-02,-1.139240e-02,
2.015056e-02,2.698450e-01,7.793991e-02,1.882728e-02,5.823467e-01,4.758009e-02,-5.213704e-02,2.755286e-01,-1.373109e+00,2.992533e-02,-4.227285e-01,-1.519791e-02,-3.338234e-01,5.028454e-01,1.128367e-03,2.892825e-02,-1.631020e-01,-2.654235e-03,-1.561711e-01,4.040665e-01,-1.987379e-02,-1.330226e-01,-1.770703e-02,4.723551e-01,-5.037974e-01,-1.475590e-01,5.644270e-03,-1.101100e-02,1.082739e-01,4.372536e-02,4.204835e-01,-4.939669e-02,-1.068085e-01,1.268718e-03,4.883194e-02,-1.185603e-02,-5.444602e-03,6.238604e-01,-3.363168e-01,1.960308e-02,9.670693e-02,4.223771e-01,1.838314e-01,-9.303910e-02,-5.229672e-01,
-3.455546e-02,1.028482e-02,9.765486e-02,-8.668028e-03,1.238584e-01,-2.922613e-02,-1.610323e-01,-9.615036e-02,-1.431126e-01,-2.233132e-01,8.257266e-03,-1.747809e-02,1.268435e-01,-9.172948e-02,-2.905073e-02,3.493992e-02,-4.554273e-02,-1.124611e-02,-7.581489e-03,7.318969e-02,-3.551741e-02,1.996230e-01,-1.434184e-02,1.003973e-01,1.592302e-01,2.189369e-02,-1.416019e-02,2.899120e-02,3.587911e-02,4.291627e-03,1.951922e-01,1.892971e-03,-1.862575e-02,1.305902e-02,1.644212e-01,6.007724e-03,-6.535838e-02,-5.074060e-02,1.596903e-01,-2.561151e-02,3.948044e-02,1.365048e-01,1.073579e-01,-3.199947e-01,6.189429e-02,
-4.117747e-02,-6.638597e-01,2.791850e-01,-3.177270e-02,-2.664385e+00,4.076811e-02,1.581061e-01,1.552874e-01,-7.944312e-02,-3.891383e+00,-3.815141e-01,2.443470e-02,-3.860129e-01,-2.866757e-01,-3.778357e-02,-2.505169e-02,-9.624990e-01,2.813821e-02,1.453454e-03,4.903215e-03,1.514198e-05,2.318606e-01,-1.425873e+00,-2.302961e+00,-6.292763e-02,-2.804171e+00,-4.707809e-02,3.469108e-03,8.451896e-02,1.564757e-02,8.742703e-03,-2.408523e-02,-2.174778e-01,1.536981e-02,1.370846e-01,-2.583479e-02,-1.200654e-01,-7.939943e-01,-4.103126e-01,-3.069236e+00,3.128801e-01,3.799173e-01,1.700420e-02,1.732491e-01,-2.189381e+00,
-1.580314e-03,1.032309e-01,9.066723e-01,8.211898e-03,-2.260761e-01,-2.501227e-03,-2.876212e-01,1.260780e-01,-1.194100e+00,1.318386e-01,-1.017309e-01,-3.918030e-02,-7.152299e-01,-7.925495e-01,5.906910e-03,3.485753e-02,-4.506310e-01,-1.618273e-01,-1.422358e-02,5.107988e-01,-4.796404e-02,1.538973e-02,-4.399793e-01,2.339145e-01,-6.950687e-01,3.444006e-02,1.476194e-02,4.726452e-02,3.071798e-01,4.955606e-03,4.658032e-01,-1.836570e-02,5.564879e-01,-1.846047e-02,-2.675870e-01,2.010825e-03,4.643888e-02,1.553668e-02,1.903038e-01,-3.851251e-01,-2.456390e-01,1.487579e-01,9.204908e-02,2.790569e-01,2.278484e-02,
-4.967783e-03,-2.471440e-01,-4.680086e-02,1.817859e-03,-2.927723e-01,-1.243175e-02,-2.873784e-01,2.046455e-01,-4.096540e-02,-2.478433e-02,1.912572e-01,3.604237e-02,9.611581e-02,3.985975e-01,-1.518761e-03,5.094497e-03,-1.217070e-01,1.369074e-01,-8.831885e-03,3.626158e-02,4.539579e-02,8.824773e-02,7.127634e-03,2.439475e-01,-7.939880e-02,1.954737e-02,-4.322869e-02,-5.975142e-02,-8.749908e-02,-8.038465e-02,-1.795045e-01,-2.326356e-02,3.488110e-01,-4.629789e-02,-9.319384e-02,-2.002808e-02,2.503152e-02,-2.935749e-01,9.972966e-02,-8.360920e-02,1.624930e-01,3.731432e-02,6.001357e-02,-7.863299e-01,-8.078658e-03,
-2.520344e-02,4.924864e-01,7.092339e-01,3.284055e-03,-1.191688e-01,-6.548426e-03,2.580792e-01,-1.312495e-01,2.176985e-01,2.138236e-02,-1.288429e-01,4.701970e-04,-3.105449e-01,-9.703621e-02,2.770917e-02,3.612816e-02,-2.377157e-02,-1.011846e-01,5.616914e-03,2.288898e-01,-5.629714e-02,-2.437052e-01,1.125534e-01,-1.606923e-01,2.887987e-01,7.919741e-02,2.809268e-02,-2.645656e-02,9.167338e-02,3.903309e-02,1.659006e-01,-1.944952e-03,2.599861e-01,2.744422e-02,-2.477126e-01,-4.525901e-02,-4.342498e-03,2.558678e-01,-1.710321e-01,-1.161297e-01,-2.175299e-01,-4.891026e-02,-2.060674e-01,3.095694e-01,-1.436152e-03,
2.755642e-02,1.236516e-01,2.753782e-01,-1.321089e-02,-1.211654e-01,1.516716e-02,-2.954008e+00,2.582771e-01,-3.101220e-01,-1.864752e+00,2.091156e-01,4.722328e-02,1.406957e-01,-7.017851e-03,-1.534032e-02,8.147226e-03,4.139576e-01,1.332710e-01,7.351796e-02,8.559211e-02,1.571472e-02,2.297876e-01,1.265515e-01,-9.792474e-02,-8.784220e-02,3.191185e-02,3.447079e-02,2.003127e-02,-5.321678e-02,7.517322e-03,3.510721e-01,3.671901e-02,-1.891659e-01,2.164396e-03,3.221349e-02,-2.828990e-02,-8.250737e-02,-7.197351e-01,-2.061192e+00,-7.653876e-02,3.143717e-01,4.715963e-02,2.353598e-01,-4.339735e-01,-1.480711e-02,
-5.056397e-02,-2.509582e-01,-1.313403e-02,-3.083021e-02,-1.511310e-01,-7.224115e-03,-4.606704e-01,-2.381057e-01,1.178904e-01,4.038050e-02,6.030429e-02,1.169517e-03,-9.069669e-02,-7.355992e-02,-4.451258e-02,4.902253e-02,-7.851690e-03,3.321483e-02,1.569566e-01,1.755482e-01,3.668213e-02,-2.876987e-02,-1.860259e-03,-6.087009e-04,6.485523e-02,1.439468e-01,-2.568991e-02,-4.904569e-02,6.620669e-03,1.401873e-01,-1.809204e-01,2.797469e-02,1.476876e-02,-4.231707e-03,-2.869380e-02,-2.122163e-02,-4.422135e-02,9.390339e-02,3.834454e-01,2.066925e-02,-1.385251e-02,-1.148074e-01,7.796034e-02,-6.570867e-02,-1.099066e-01,
-1.791905e-02,3.555572e-01,-3.991742e-01,-6.659634e-02,-2.600537e-01,-4.841582e-03,1.224838e-01,1.879025e-01,7.480820e-02,2.179645e-01,-9.276474e-01,3.119296e-02,2.942201e-01,-4.771927e-02,-3.173382e-04,-1.124974e-02,-2.926787e-01,5.992954e-02,-5.720576e-03,-2.497480e-01,3.488958e-02,-2.549307e-01,-8.306950e-01,-6.633479e-01,-6.964056e-01,1.175366e-01,2.538827e-02,1.814856e-02,7.247394e-02,-5.962851e-02,-6.865816e-02,4.169675e-02,3.677254e-01,-2.047204e-02,2.212006e-02,4.408452e-02,3.276747e-02,5.131859e-02,9.759703e-02,-2.303424e-01,-2.242342e-01,-3.173594e-01,-2.450353e-01,8.588083e-01,9.546783e-02,
5.442385e-02,1.409754e-02,3.329365e-03,-3.141687e-02,-4.328137e+00,-3.544604e-02,2.036628e-03,1.391997e-02,-4.900914e-03,-1.023434e-02,6.372109e-03,-1.093584e-02,9.609101e-03,-6.607364e-03,1.501369e-02,-1.190972e-02,1.002468e-02,8.537856e-03,-6.928529e+00,1.575201e-02,3.154564e-02,-5.740482e-03,2.640703e-03,-6.711578e-03,6.588526e-03,-6.851335e-01,-3.286231e-02,-1.039801e-02,5.892848e-03,-1.897861e-02,-1.114541e-02,4.410983e-03,3.193388e-02,-6.548076e-03,-3.788852e-03,2.176288e-02,-4.527071e+00,1.981811e-02,1.408219e-02,-7.639919e-03,-8.121864e-04,-1.759792e-02,1.782556e-03,1.685426e-02,7.246539e-03,
8.533327e-03,-2.778049e-02,-5.642219e-02,-4.166184e-02,4.413226e-02,-4.062806e-02,-2.845777e-02,-1.467219e-02,-9.405396e-03,-3.195025e-02,9.404574e-03,2.402372e-02,-4.494753e-02,1.220326e-02,-3.470721e-02,3.490789e-02,-2.740896e-02,-2.992122e-02,-3.723873e-02,-6.189574e-03,7.923551e-03,-4.881743e-02,-5.329184e-02,-3.115767e-02,-2.091353e-02,2.114570e-02,3.549802e-03,-2.773702e-02,-2.826708e-02,-2.775601e-03,1.802406e-02,2.712504e-02,1.488108e-02,-4.111415e-02,-2.563439e-02,-4.348478e-03,-9.678575e-04,-3.378455e-02,-9.190269e-03,-3.082577e-03,-1.568902e-02,1.237811e-02,3.407332e-03,1.846465e-02,1.368201e-02,
-2.048632e-02,2.783729e-02,-1.823730e-01,3.455469e-02,3.286563e-01,-9.296992e-03,-1.599286e-01,4.203849e-02,3.830432e-02,1.040391e-01,-2.133174e-01,-3.478548e-02,-2.746846e-02,7.653335e-02,1.806286e-02,4.669637e-02,-1.090570e-01,-7.170648e-02,3.372401e-02,2.160917e-01,4.829842e-03,-1.305171e-02,1.076336e-01,3.912275e-01,-4.169989e-02,-1.215184e-01,-3.476866e-02,4.271299e-02,2.274589e-01,-1.000166e-01,2.082281e-01,2.993991e-02,-5.689834e-01,8.823061e-03,8.500174e-02,2.162578e-02,-8.304299e-02,2.820758e-01,2.085078e-02,-1.745346e-02,1.253251e-02,-8.773892e-02,-1.062527e-02,-2.548378e-02,-2.580493e+00,
-3.329208e-02,-1.065456e-01,-7.271076e-02,-3.087136e-02,-5.070488e-02,-2.881835e-02,8.560394e-02,2.588877e-02,-4.747595e-01,-1.521135e-01,-4.060749e-01,4.875412e-02,-2.095499e-01,-3.334642e-01,-3.994075e-03,-4.832114e-02,-3.798245e-01,-9.920771e-02,8.989171e-03,4.703199e-01,-1.828660e-02,-2.019155e-01,-1.021701e+00,-2.623237e-01,-3.017169e-01,-1.248522e-01,-4.083460e-02,9.391285e-03,-5.634132e-02,-3.549748e-03,2.212533e-01,-1.087105e-02,-5.210376e-03,-5.274431e-02,1.536736e-01,-6.885871e-03,3.008533e-02,4.016274e-01,7.313192e-02,6.703645e-02,-1.330927e-01,1.277245e-01,6.977075e-01,2.159860e-01,-1.359087e-01,
